FANN_FLO_2.1
num_layers=3
learning_rate=0.001000
connection_rate=1.000000
network_type=0
learning_momentum=0.000000
training_algorithm=2
train_error_function=1
train_stop_function=0
cascade_output_change_fraction=0.010000
quickprop_decay=-0.000100
quickprop_mu=1.750000
rprop_increase_factor=1.200000
rprop_decrease_factor=0.500000
rprop_delta_min=0.000000
rprop_delta_max=50.000000
rprop_delta_zero=0.100000
cascade_output_stagnation_epochs=12
cascade_candidate_change_fraction=0.010000
cascade_candidate_stagnation_epochs=12
cascade_max_out_epochs=150
cascade_max_cand_epochs=150
cascade_num_candidate_groups=2
bit_fail_limit=3.49999994039535522461e-01
cascade_candidate_limit=1.00000000000000000000e+03
cascade_weight_multiplier=4.00000005960464477539e-01
cascade_activation_functions_count=10
cascade_activation_functions=3 5 7 8 10 11 14 15 16 17 
cascade_activation_steepnesses_count=4
cascade_activation_steepnesses=2.50000000000000000000e-01 5.00000000000000000000e-01 7.50000000000000000000e-01 1.00000000000000000000e+00 
layer_sizes=401 2 3 
scale_included=0
neurons (num_inputs, activation_function, activation_steepness)=(0, 0, 0.00000000000000000000e+00) (0, 0, 0.00000000000000000000e+00) (0, 0, 0.00000000000000000000e+00) (0, 0, 0.00000000000000000000e+00) (0, 0, 0.00000000000000000000e+00) (0, 0, 0.00000000000000000000e+00) (0, 0, 0.00000000000000000000e+00) (0, 0, 0.00000000000000000000e+00) (0, 0, 0.00000000000000000000e+00) (0, 0, 0.00000000000000000000e+00) (0, 0, 0.00000000000000000000e+00) (0, 0, 0.00000000000000000000e+00) (0, 0, 0.00000000000000000000e+00) (0, 0, 0.00000000000000000000e+00) (0, 0, 0.00000000000000000000e+00) (0, 0, 0.00000000000000000000e+00) (0, 0, 0.00000000000000000000e+00) (0, 0, 0.00000000000000000000e+00) (0, 0, 0.00000000000000000000e+00) (0, 0, 0.00000000000000000000e+00) (0, 0, 0.00000000000000000000e+00) (0, 0, 0.00000000000000000000e+00) (0, 0, 0.00000000000000000000e+00) (0, 0, 0.00000000000000000000e+00) (0, 0, 0.00000000000000000000e+00) (0, 0, 0.00000000000000000000e+00) (0, 0, 0.00000000000000000000e+00) (0, 0, 0.00000000000000000000e+00) (0, 0, 0.00000000000000000000e+00) (0, 0, 0.00000000000000000000e+00) (0, 0, 0.00000000000000000000e+00) (0, 0, 0.00000000000000000000e+00) (0, 0, 0.00000000000000000000e+00) (0, 0, 0.00000000000000000000e+00) (0, 0, 0.00000000000000000000e+00) (0, 0, 0.00000000000000000000e+00) (0, 0, 0.00000000000000000000e+00) (0, 0, 0.00000000000000000000e+00) (0, 0, 0.00000000000000000000e+00) (0, 0, 0.00000000000000000000e+00) (0, 0, 0.00000000000000000000e+00) (0, 0, 0.00000000000000000000e+00) (0, 0, 0.00000000000000000000e+00) (0, 0, 0.00000000000000000000e+00) (0, 0, 0.00000000000000000000e+00) (0, 0, 0.00000000000000000000e+00) (0, 0, 0.00000000000000000000e+00) (0, 0, 0.00000000000000000000e+00) (0, 0, 0.00000000000000000000e+00) (0, 0, 0.00000000000000000000e+00) (0, 0, 0.00000000000000000000e+00) (0, 0, 0.00000000000000000000e+00) (0, 0, 0.00000000000000000000e+00) (0, 0, 0.00000000000000000000e+00) (0, 0, 0.00000000000000000000e+00) (0, 0, 0.00000000000000000000e+00) (0, 0, 0.00000000000000000000e+00) (0, 0, 0.00000000000000000000e+00) (0, 0, 0.00000000000000000000e+00) (0, 0, 0.00000000000000000000e+00) (0, 0, 0.00000000000000000000e+00) (0, 0, 0.00000000000000000000e+00) (0, 0, 0.00000000000000000000e+00) (0, 0, 0.00000000000000000000e+00) (0, 0, 0.00000000000000000000e+00) (0, 0, 0.00000000000000000000e+00) (0, 0, 0.00000000000000000000e+00) (0, 0, 0.00000000000000000000e+00) (0, 0, 0.00000000000000000000e+00) (0, 0, 0.00000000000000000000e+00) (0, 0, 0.00000000000000000000e+00) (0, 0, 0.00000000000000000000e+00) (0, 0, 0.00000000000000000000e+00) (0, 0, 0.00000000000000000000e+00) (0, 0, 0.00000000000000000000e+00) (0, 0, 0.00000000000000000000e+00) (0, 0, 0.00000000000000000000e+00) (0, 0, 0.00000000000000000000e+00) (0, 0, 0.00000000000000000000e+00) (0, 0, 0.00000000000000000000e+00) (0, 0, 0.00000000000000000000e+00) (0, 0, 0.00000000000000000000e+00) (0, 0, 0.00000000000000000000e+00) (0, 0, 0.00000000000000000000e+00) (0, 0, 0.00000000000000000000e+00) (0, 0, 0.00000000000000000000e+00) (0, 0, 0.00000000000000000000e+00) (0, 0, 0.00000000000000000000e+00) (0, 0, 0.00000000000000000000e+00) (0, 0, 0.00000000000000000000e+00) (0, 0, 0.00000000000000000000e+00) (0, 0, 0.00000000000000000000e+00) (0, 0, 0.00000000000000000000e+00) (0, 0, 0.00000000000000000000e+00) (0, 0, 0.00000000000000000000e+00) (0, 0, 0.00000000000000000000e+00) (0, 0, 0.00000000000000000000e+00) (0, 0, 0.00000000000000000000e+00) (0, 0, 0.00000000000000000000e+00) (0, 0, 0.00000000000000000000e+00) (0, 0, 0.00000000000000000000e+00) (0, 0, 0.00000000000000000000e+00) (0, 0, 0.00000000000000000000e+00) (0, 0, 0.00000000000000000000e+00) (0, 0, 0.00000000000000000000e+00) (0, 0, 0.00000000000000000000e+00) (0, 0, 0.00000000000000000000e+00) (0, 0, 0.00000000000000000000e+00) (0, 0, 0.00000000000000000000e+00) (0, 0, 0.00000000000000000000e+00) (0, 0, 0.00000000000000000000e+00) (0, 0, 0.00000000000000000000e+00) (0, 0, 0.00000000000000000000e+00) (0, 0, 0.00000000000000000000e+00) (0, 0, 0.00000000000000000000e+00) (0, 0, 0.00000000000000000000e+00) (0, 0, 0.00000000000000000000e+00) (0, 0, 0.00000000000000000000e+00) (0, 0, 0.00000000000000000000e+00) (0, 0, 0.00000000000000000000e+00) (0, 0, 0.00000000000000000000e+00) (0, 0, 0.00000000000000000000e+00) (0, 0, 0.00000000000000000000e+00) (0, 0, 0.00000000000000000000e+00) (0, 0, 0.00000000000000000000e+00) (0, 0, 0.00000000000000000000e+00) (0, 0, 0.00000000000000000000e+00) (0, 0, 0.00000000000000000000e+00) (0, 0, 0.00000000000000000000e+00) (0, 0, 0.00000000000000000000e+00) (0, 0, 0.00000000000000000000e+00) (0, 0, 0.00000000000000000000e+00) (0, 0, 0.00000000000000000000e+00) (0, 0, 0.00000000000000000000e+00) (0, 0, 0.00000000000000000000e+00) (0, 0, 0.00000000000000000000e+00) (0, 0, 0.00000000000000000000e+00) (0, 0, 0.00000000000000000000e+00) (0, 0, 0.00000000000000000000e+00) (0, 0, 0.00000000000000000000e+00) (0, 0, 0.00000000000000000000e+00) (0, 0, 0.00000000000000000000e+00) (0, 0, 0.00000000000000000000e+00) (0, 0, 0.00000000000000000000e+00) (0, 0, 0.00000000000000000000e+00) (0, 0, 0.00000000000000000000e+00) (0, 0, 0.00000000000000000000e+00) (0, 0, 0.00000000000000000000e+00) (0, 0, 0.00000000000000000000e+00) (0, 0, 0.00000000000000000000e+00) (0, 0, 0.00000000000000000000e+00) (0, 0, 0.00000000000000000000e+00) (0, 0, 0.00000000000000000000e+00) (0, 0, 0.00000000000000000000e+00) (0, 0, 0.00000000000000000000e+00) (0, 0, 0.00000000000000000000e+00) (0, 0, 0.00000000000000000000e+00) (0, 0, 0.00000000000000000000e+00) (0, 0, 0.00000000000000000000e+00) (0, 0, 0.00000000000000000000e+00) (0, 0, 0.00000000000000000000e+00) (0, 0, 0.00000000000000000000e+00) (0, 0, 0.00000000000000000000e+00) (0, 0, 0.00000000000000000000e+00) (0, 0, 0.00000000000000000000e+00) (0, 0, 0.00000000000000000000e+00) (0, 0, 0.00000000000000000000e+00) (0, 0, 0.00000000000000000000e+00) (0, 0, 0.00000000000000000000e+00) (0, 0, 0.00000000000000000000e+00) (0, 0, 0.00000000000000000000e+00) (0, 0, 0.00000000000000000000e+00) (0, 0, 0.00000000000000000000e+00) (0, 0, 0.00000000000000000000e+00) (0, 0, 0.00000000000000000000e+00) (0, 0, 0.00000000000000000000e+00) (0, 0, 0.00000000000000000000e+00) (0, 0, 0.00000000000000000000e+00) (0, 0, 0.00000000000000000000e+00) (0, 0, 0.00000000000000000000e+00) (0, 0, 0.00000000000000000000e+00) (0, 0, 0.00000000000000000000e+00) (0, 0, 0.00000000000000000000e+00) (0, 0, 0.00000000000000000000e+00) (0, 0, 0.00000000000000000000e+00) (0, 0, 0.00000000000000000000e+00) (0, 0, 0.00000000000000000000e+00) (0, 0, 0.00000000000000000000e+00) (0, 0, 0.00000000000000000000e+00) (0, 0, 0.00000000000000000000e+00) (0, 0, 0.00000000000000000000e+00) (0, 0, 0.00000000000000000000e+00) (0, 0, 0.00000000000000000000e+00) (0, 0, 0.00000000000000000000e+00) (0, 0, 0.00000000000000000000e+00) (0, 0, 0.00000000000000000000e+00) (0, 0, 0.00000000000000000000e+00) (0, 0, 0.00000000000000000000e+00) (0, 0, 0.00000000000000000000e+00) (0, 0, 0.00000000000000000000e+00) (0, 0, 0.00000000000000000000e+00) (0, 0, 0.00000000000000000000e+00) (0, 0, 0.00000000000000000000e+00) (0, 0, 0.00000000000000000000e+00) (0, 0, 0.00000000000000000000e+00) (0, 0, 0.00000000000000000000e+00) (0, 0, 0.00000000000000000000e+00) (0, 0, 0.00000000000000000000e+00) (0, 0, 0.00000000000000000000e+00) (0, 0, 0.00000000000000000000e+00) (0, 0, 0.00000000000000000000e+00) (0, 0, 0.00000000000000000000e+00) (0, 0, 0.00000000000000000000e+00) (0, 0, 0.00000000000000000000e+00) (0, 0, 0.00000000000000000000e+00) (0, 0, 0.00000000000000000000e+00) (0, 0, 0.00000000000000000000e+00) (0, 0, 0.00000000000000000000e+00) (0, 0, 0.00000000000000000000e+00) (0, 0, 0.00000000000000000000e+00) (0, 0, 0.00000000000000000000e+00) (0, 0, 0.00000000000000000000e+00) (0, 0, 0.00000000000000000000e+00) (0, 0, 0.00000000000000000000e+00) (0, 0, 0.00000000000000000000e+00) (0, 0, 0.00000000000000000000e+00) (0, 0, 0.00000000000000000000e+00) (0, 0, 0.00000000000000000000e+00) (0, 0, 0.00000000000000000000e+00) (0, 0, 0.00000000000000000000e+00) (0, 0, 0.00000000000000000000e+00) (0, 0, 0.00000000000000000000e+00) (0, 0, 0.00000000000000000000e+00) (0, 0, 0.00000000000000000000e+00) (0, 0, 0.00000000000000000000e+00) (0, 0, 0.00000000000000000000e+00) (0, 0, 0.00000000000000000000e+00) (0, 0, 0.00000000000000000000e+00) (0, 0, 0.00000000000000000000e+00) (0, 0, 0.00000000000000000000e+00) (0, 0, 0.00000000000000000000e+00) (0, 0, 0.00000000000000000000e+00) (0, 0, 0.00000000000000000000e+00) (0, 0, 0.00000000000000000000e+00) (0, 0, 0.00000000000000000000e+00) (0, 0, 0.00000000000000000000e+00) (0, 0, 0.00000000000000000000e+00) (0, 0, 0.00000000000000000000e+00) (0, 0, 0.00000000000000000000e+00) (0, 0, 0.00000000000000000000e+00) (0, 0, 0.00000000000000000000e+00) (0, 0, 0.00000000000000000000e+00) (0, 0, 0.00000000000000000000e+00) (0, 0, 0.00000000000000000000e+00) (0, 0, 0.00000000000000000000e+00) (0, 0, 0.00000000000000000000e+00) (0, 0, 0.00000000000000000000e+00) (0, 0, 0.00000000000000000000e+00) (0, 0, 0.00000000000000000000e+00) (0, 0, 0.00000000000000000000e+00) (0, 0, 0.00000000000000000000e+00) (0, 0, 0.00000000000000000000e+00) (0, 0, 0.00000000000000000000e+00) (0, 0, 0.00000000000000000000e+00) (0, 0, 0.00000000000000000000e+00) (0, 0, 0.00000000000000000000e+00) (0, 0, 0.00000000000000000000e+00) (0, 0, 0.00000000000000000000e+00) (0, 0, 0.00000000000000000000e+00) (0, 0, 0.00000000000000000000e+00) (0, 0, 0.00000000000000000000e+00) (0, 0, 0.00000000000000000000e+00) (0, 0, 0.00000000000000000000e+00) (0, 0, 0.00000000000000000000e+00) (0, 0, 0.00000000000000000000e+00) (0, 0, 0.00000000000000000000e+00) (0, 0, 0.00000000000000000000e+00) (0, 0, 0.00000000000000000000e+00) (0, 0, 0.00000000000000000000e+00) (0, 0, 0.00000000000000000000e+00) (0, 0, 0.00000000000000000000e+00) (0, 0, 0.00000000000000000000e+00) (0, 0, 0.00000000000000000000e+00) (0, 0, 0.00000000000000000000e+00) (0, 0, 0.00000000000000000000e+00) (0, 0, 0.00000000000000000000e+00) (0, 0, 0.00000000000000000000e+00) (0, 0, 0.00000000000000000000e+00) (0, 0, 0.00000000000000000000e+00) (0, 0, 0.00000000000000000000e+00) (0, 0, 0.00000000000000000000e+00) (0, 0, 0.00000000000000000000e+00) (0, 0, 0.00000000000000000000e+00) (0, 0, 0.00000000000000000000e+00) (0, 0, 0.00000000000000000000e+00) (0, 0, 0.00000000000000000000e+00) (0, 0, 0.00000000000000000000e+00) (0, 0, 0.00000000000000000000e+00) (0, 0, 0.00000000000000000000e+00) (0, 0, 0.00000000000000000000e+00) (0, 0, 0.00000000000000000000e+00) (0, 0, 0.00000000000000000000e+00) (0, 0, 0.00000000000000000000e+00) (0, 0, 0.00000000000000000000e+00) (0, 0, 0.00000000000000000000e+00) (0, 0, 0.00000000000000000000e+00) (0, 0, 0.00000000000000000000e+00) (0, 0, 0.00000000000000000000e+00) (0, 0, 0.00000000000000000000e+00) (0, 0, 0.00000000000000000000e+00) (0, 0, 0.00000000000000000000e+00) (0, 0, 0.00000000000000000000e+00) (0, 0, 0.00000000000000000000e+00) (0, 0, 0.00000000000000000000e+00) (0, 0, 0.00000000000000000000e+00) (0, 0, 0.00000000000000000000e+00) (0, 0, 0.00000000000000000000e+00) (0, 0, 0.00000000000000000000e+00) (0, 0, 0.00000000000000000000e+00) (0, 0, 0.00000000000000000000e+00) (0, 0, 0.00000000000000000000e+00) (0, 0, 0.00000000000000000000e+00) (0, 0, 0.00000000000000000000e+00) (0, 0, 0.00000000000000000000e+00) (0, 0, 0.00000000000000000000e+00) (0, 0, 0.00000000000000000000e+00) (0, 0, 0.00000000000000000000e+00) (0, 0, 0.00000000000000000000e+00) (0, 0, 0.00000000000000000000e+00) (0, 0, 0.00000000000000000000e+00) (0, 0, 0.00000000000000000000e+00) (0, 0, 0.00000000000000000000e+00) (0, 0, 0.00000000000000000000e+00) (0, 0, 0.00000000000000000000e+00) (0, 0, 0.00000000000000000000e+00) (0, 0, 0.00000000000000000000e+00) (0, 0, 0.00000000000000000000e+00) (0, 0, 0.00000000000000000000e+00) (0, 0, 0.00000000000000000000e+00) (0, 0, 0.00000000000000000000e+00) (0, 0, 0.00000000000000000000e+00) (0, 0, 0.00000000000000000000e+00) (0, 0, 0.00000000000000000000e+00) (0, 0, 0.00000000000000000000e+00) (0, 0, 0.00000000000000000000e+00) (0, 0, 0.00000000000000000000e+00) (0, 0, 0.00000000000000000000e+00) (0, 0, 0.00000000000000000000e+00) (0, 0, 0.00000000000000000000e+00) (0, 0, 0.00000000000000000000e+00) (0, 0, 0.00000000000000000000e+00) (0, 0, 0.00000000000000000000e+00) (0, 0, 0.00000000000000000000e+00) (0, 0, 0.00000000000000000000e+00) (0, 0, 0.00000000000000000000e+00) (0, 0, 0.00000000000000000000e+00) (0, 0, 0.00000000000000000000e+00) (0, 0, 0.00000000000000000000e+00) (0, 0, 0.00000000000000000000e+00) (0, 0, 0.00000000000000000000e+00) (0, 0, 0.00000000000000000000e+00) (0, 0, 0.00000000000000000000e+00) (0, 0, 0.00000000000000000000e+00) (0, 0, 0.00000000000000000000e+00) (0, 0, 0.00000000000000000000e+00) (0, 0, 0.00000000000000000000e+00) (0, 0, 0.00000000000000000000e+00) (0, 0, 0.00000000000000000000e+00) (0, 0, 0.00000000000000000000e+00) (0, 0, 0.00000000000000000000e+00) (0, 0, 0.00000000000000000000e+00) (0, 0, 0.00000000000000000000e+00) (0, 0, 0.00000000000000000000e+00) (0, 0, 0.00000000000000000000e+00) (0, 0, 0.00000000000000000000e+00) (0, 0, 0.00000000000000000000e+00) (0, 0, 0.00000000000000000000e+00) (0, 0, 0.00000000000000000000e+00) (0, 0, 0.00000000000000000000e+00) (0, 0, 0.00000000000000000000e+00) (0, 0, 0.00000000000000000000e+00) (0, 0, 0.00000000000000000000e+00) (0, 0, 0.00000000000000000000e+00) (0, 0, 0.00000000000000000000e+00) (0, 0, 0.00000000000000000000e+00) (0, 0, 0.00000000000000000000e+00) (0, 0, 0.00000000000000000000e+00) (0, 0, 0.00000000000000000000e+00) (0, 0, 0.00000000000000000000e+00) (0, 0, 0.00000000000000000000e+00) (0, 0, 0.00000000000000000000e+00) (0, 0, 0.00000000000000000000e+00) (0, 0, 0.00000000000000000000e+00) (0, 0, 0.00000000000000000000e+00) (0, 0, 0.00000000000000000000e+00) (0, 0, 0.00000000000000000000e+00) (0, 0, 0.00000000000000000000e+00) (0, 0, 0.00000000000000000000e+00) (0, 0, 0.00000000000000000000e+00) (0, 0, 0.00000000000000000000e+00) (0, 0, 0.00000000000000000000e+00) (401, 5, 5.00000000000000000000e-01) (0, 5, 0.00000000000000000000e+00) (2, 5, 5.00000000000000000000e-01) (2, 5, 5.00000000000000000000e-01) (0, 5, 0.00000000000000000000e+00) 
connections (connected_to_neuron, weight)=(0, -7.15006768703460693359e-01) (1, -1.79548040032386779785e-01) (2, 6.53271138668060302734e-01) (3, 7.85098314285278320312e-01) (4, -6.92384004592895507812e-01) (5, -8.14394205808639526367e-02) (6, 6.41246020793914794922e-01) (7, 7.17451035976409912109e-01) (8, -7.86691248416900634766e-01) (9, -1.85639992356300354004e-01) (10, 5.89907765388488769531e-01) (11, 7.49511957168579101562e-01) (12, -1.04630315303802490234e+00) (13, -1.19145974516868591309e-01) (14, 7.26480603218078613281e-01) (15, 7.64788627624511718750e-01) (16, -1.19471573829650878906e+00) (17, -1.67244687676429748535e-01) (18, 6.05641901493072509766e-01) (19, 7.39808440208435058594e-01) (20, -8.30127298831939697266e-01) (21, -1.49004712700843811035e-01) (22, 6.53111875057220458984e-01) (23, 6.61738038063049316406e-01) (24, -1.08512687683105468750e+00) (25, -6.75189867615699768066e-03) (26, 5.10343015193939208984e-01) (27, 5.41481077671051025391e-02) (28, -2.26014494895935058594e-01) (29, -3.23103725910186767578e-01) (30, 5.96417784690856933594e-01) (31, -1.50879040360450744629e-01) (32, -8.70648324489593505859e-02) (33, -5.39244174957275390625e-01) (34, 6.32637023925781250000e-01) (35, 7.63249754905700683594e-01) (36, -4.48630869388580322266e-01) (37, -5.15050053596496582031e-01) (38, 6.16916656494140625000e-01) (39, 7.64273047447204589844e-01) (40, -3.28637331724166870117e-01) (41, -4.72463279962539672852e-01) (42, 6.50000929832458496094e-01) (43, 7.93579220771789550781e-01) (44, -6.53810739517211914062e-01) (45, -3.80261331796646118164e-01) (46, 4.94583785533905029297e-01) (47, 7.54247426986694335938e-01) (48, -6.33551001548767089844e-01) (49, -4.56517189741134643555e-01) (50, 6.30271792411804199219e-01) (51, 6.89284086227416992188e-01) (52, -9.49083983898162841797e-01) (53, -3.63713890314102172852e-01) (54, 6.49011850357055664062e-01) (55, 7.45193123817443847656e-01) (56, -9.39783632755279541016e-01) (57, -2.11224541068077087402e-01) (58, 4.65688049793243408203e-01) (59, 6.18558526039123535156e-01) (60, -4.17282789945602416992e-01) (61, -3.10994893312454223633e-01) (62, 6.37338757514953613281e-01) (63, 6.91433429718017578125e-01) (64, -4.26955193281173706055e-01) (65, -3.03125023841857910156e-01) (66, 4.71785962581634521484e-01) (67, -3.63551490008831024170e-02) (68, -5.25949597358703613281e-01) (69, -3.58394891023635864258e-01) (70, 5.58467507362365722656e-01) (71, 1.85871243476867675781e+00) (72, -5.54990708827972412109e-01) (73, -4.38629120588302612305e-01) (74, 5.39831221103668212891e-01) (75, -2.04257950186729431152e-01) (76, -6.65567755699157714844e-01) (77, -4.12682503461837768555e-01) (78, 5.80539047718048095703e-01) (79, 1.84843444824218750000e+00) (80, -5.23205459117889404297e-01) (81, -4.36286658048629760742e-01) (82, 5.06145179271697998047e-01) (83, -9.45293784141540527344e-01) (84, -4.54006224870681762695e-01) (85, -3.47982555627822875977e-01) (86, 6.53729140758514404297e-01) (87, -8.66794168949127197266e-01) (88, -4.33688789606094360352e-01) (89, -3.83722364902496337891e-01) (90, 6.05594098567962646484e-01) (91, -9.12551403045654296875e-01) (92, -1.84118285775184631348e-01) (93, -2.60206729173660278320e-01) (94, 6.32711708545684814453e-01) (95, -9.64857995510101318359e-01) (96, -5.27328364551067352295e-02) (97, -3.33100438117980957031e-01) (98, 4.66063320636749267578e-01) (99, -8.01408588886260986328e-01) (100, -6.27958476543426513672e-02) (101, -4.13067251443862915039e-01) (102, 5.81570386886596679688e-01) (103, -8.40512514114379882812e-01) (104, -4.66653257608413696289e-01) (105, -2.17717528343200683594e-01) (106, 6.22506082057952880859e-01) (107, 2.69689807891845703125e+01) (108, -1.00179515779018402100e-01) (109, -1.36073857545852661133e-01) (110, 4.61410343647003173828e-01) (111, 2.70414886474609375000e+01) (112, -3.34344625473022460938e-01) (113, -1.71563476324081420898e-01) (114, 6.25593364238739013672e-01) (115, 4.11782979965209960938e+00) (116, -6.16095781326293945312e-01) (117, -6.60710632801055908203e-02) (118, 6.31331622600555419922e-01) (119, 4.24700355529785156250e+00) (120, -7.99649596214294433594e-01) (121, -3.07334482669830322266e-01) (122, 7.18989849090576171875e-01) (123, 4.08039665222167968750e+00) (124, -5.72523593902587890625e-01) (125, -3.96800011396408081055e-01) (126, 7.00076341629028320312e-01) (127, 4.09290075302124023438e+00) (128, -9.46431577205657958984e-01) (129, 5.35355448722839355469e-01) (130, 6.76029920578002929688e-01) (131, 2.69058361053466796875e+01) (132, -1.11406540870666503906e+00) (133, 7.07702994346618652344e-01) (134, 7.98962354660034179688e-01) (135, 2.70801048278808593750e+01) (136, -1.12573409080505371094e+00) (137, 6.71571135520935058594e-01) (138, 5.32104074954986572266e-02) (139, 2.69912548065185546875e+01) (140, -1.08022236824035644531e+00) (141, 6.13967537879943847656e-01) (142, 3.68671417236328125000e-02) (143, 2.70948047637939453125e+01) (144, -1.17331564426422119141e+00) (145, 7.61807262897491455078e-01) (146, -2.35655516386032104492e-01) (147, 2.69105682373046875000e+01) (148, -1.94412660598754882812e+00) (149, 5.98335266113281250000e-01) (150, -3.45540702342987060547e-01) (151, 2.70462036132812500000e+01) (152, -5.59955596923828125000e-01) (153, 6.26689612865447998047e-01) (154, -5.48344612121582031250e-01) (155, 9.27641212940216064453e-01) (156, -6.21066689491271972656e-01) (157, 4.67157542705535888672e-01) (158, -6.60590648651123046875e-01) (159, 1.03862941265106201172e+00) (160, -9.14032161235809326172e-01) (161, 5.30865132808685302734e-01) (162, -5.87566137313842773438e-01) (163, 9.37652349472045898438e-01) (164, -8.36319208145141601562e-01) (165, 5.26822030544281005859e-01) (166, -6.02563500404357910156e-01) (167, 1.08115172386169433594e+00) (168, -7.99039065837860107422e-01) (169, 5.03607451915740966797e-01) (170, -5.47915458679199218750e-01) (171, 1.08648836612701416016e+00) (172, -8.79857182502746582031e-01) (173, 5.41912257671356201172e-01) (174, -4.39027667045593261719e-01) (175, 9.12577092647552490234e-01) (176, -8.93712699413299560547e-01) (177, 4.81589853763580322266e-01) (178, -5.97175478935241699219e-01) (179, 9.58328306674957275391e-01) (180, -9.17507052421569824219e-01) (181, 4.68379437923431396484e-01) (182, -4.15790587663650512695e-01) (183, 9.28664982318878173828e-01) (184, -2.29483634233474731445e-01) (185, 6.18791282176971435547e-01) (186, -5.70204019546508789062e-01) (187, 1.08269774913787841797e+00) (188, -1.28958433866500854492e-01) (189, 5.52131891250610351562e-01) (190, -5.05183100700378417969e-01) (191, 9.47774589061737060547e-01) (192, -3.54601114988327026367e-01) (193, 4.90177214145660400391e-01) (194, -9.10309672355651855469e-01) (195, 1.09999084472656250000e+00) (196, -1.28394335508346557617e-01) (197, 5.27570247650146484375e-01) (198, -8.14593970775604248047e-01) (199, 9.93818104267120361328e-01) (200, -1.14215940237045288086e-01) (201, 4.77934062480926513672e-01) (202, -9.15430009365081787109e-01) (203, 1.72612118721008300781e+00) (204, -8.67940485477447509766e-01) (205, 4.85985815525054931641e-01) (206, -9.55981254577636718750e-01) (207, 1.90093421936035156250e+00) (208, -9.20211136341094970703e-01) (209, 4.87286746501922607422e-01) (210, -9.35416877269744873047e-01) (211, 1.82486915588378906250e+00) (212, -9.32120680809020996094e-01) (213, 4.89236056804656982422e-01) (214, -6.35638713836669921875e-01) (215, 1.82810378074645996094e+00) (216, -7.79759466648101806641e-01) (217, 6.29094362258911132812e-01) (218, -6.78371429443359375000e-01) (219, 1.88099002838134765625e+00) (220, -1.64167299866676330566e-01) (221, 6.51382505893707275391e-01) (222, -1.26802015304565429688e+00) (223, 1.75123715400695800781e+00) (224, -9.46227133274078369141e-01) (225, 5.33445298671722412109e-01) (226, -1.24555671215057373047e+00) (227, 1.84557271003723144531e+00) (228, -8.26771378517150878906e-01) (229, 6.51624441146850585938e-01) (230, -1.25739383697509765625e+00) (231, 1.77920699119567871094e+00) (232, -9.58228349685668945312e-01) (233, 5.38951277732849121094e-01) (234, -1.19039940834045410156e+00) (235, 1.83641862869262695312e+00) (236, -8.62849712371826171875e-01) (237, 5.65394520759582519531e-01) (238, -1.15837454795837402344e+00) (239, 1.87952661514282226562e+00) (240, -8.35105657577514648438e-01) (241, 6.17983698844909667969e-01) (242, -1.19133162498474121094e+00) (243, 1.89536142349243164062e+00) (244, -7.80566990375518798828e-01) (245, 4.79298353195190429688e-01) (246, -8.70157182216644287109e-01) (247, 1.90226101875305175781e+00) (248, -7.79394090175628662109e-01) (249, 6.59876048564910888672e-01) (250, -8.10371220111846923828e-01) (251, 6.33360445499420166016e-01) (252, -7.80769586563110351562e-01) (253, 8.37625205516815185547e-01) (254, -8.65752279758453369141e-01) (255, 5.92318415641784667969e-01) (256, -9.20957744121551513672e-01) (257, 8.04707467555999755859e-01) (258, -8.12458693981170654297e-01) (259, 5.71586072444915771484e-01) (260, -8.35696399211883544922e-01) (261, 8.46164047718048095703e-01) (262, -8.99556756019592285156e-01) (263, 7.25390493869781494141e-01) (264, -9.06912863254547119141e-01) (265, 8.26060295104980468750e-01) (266, -8.88540744781494140625e-01) (267, 7.49552547931671142578e-01) (268, -9.00573432445526123047e-01) (269, 6.69101178646087646484e-01) (270, -8.21270763874053955078e-01) (271, 5.83636164665222167969e-01) (272, -8.04943323135375976562e-01) (273, 7.03414142131805419922e-01) (274, -9.71352517604827880859e-01) (275, 7.33804821968078613281e-01) (276, -9.09315705299377441406e-01) (277, 7.72401511669158935547e-01) (278, -8.14284145832061767578e-01) (279, 6.30605280399322509766e-01) (280, -8.63991975784301757812e-01) (281, 7.89255917072296142578e-01) (282, -8.43111813068389892578e-01) (283, 6.74553513526916503906e-01) (284, -8.69388520717620849609e-01) (285, 6.24160170555114746094e-01) (286, -8.40205669403076171875e-01) (287, 7.28968858718872070312e-01) (288, -7.86515057086944580078e-01) (289, 6.80359959602355957031e-01) (290, -8.06522667407989501953e-01) (291, 6.97103679180145263672e-01) (292, -6.31341576576232910156e-01) (293, 5.85877597332000732422e-02) (294, -8.84583353996276855469e-01) (295, 7.23543643951416015625e-01) (296, -7.04860568046569824219e-01) (297, -1.11769393086433410645e-01) (298, -8.33981394767761230469e-01) (299, 6.56364142894744873047e-01) (300, -1.38974279165267944336e-01) (301, -2.48720034956932067871e-01) (302, -8.67077231407165527344e-01) (303, 6.18345141410827636719e-01) (304, -1.86789244413375854492e-01) (305, -6.03728532791137695312e-01) (306, -8.45282256603240966797e-01) (307, 4.66157734394073486328e-01) (308, -3.00979614257812500000e-01) (309, -2.53034293651580810547e-01) (310, -9.00669097900390625000e-01) (311, 5.97291111946105957031e-01) (312, -9.52668905258178710938e-01) (313, -5.97370386123657226562e-01) (314, -9.25587534904479980469e-01) (315, 5.87612390518188476562e-01) (316, -9.21092271804809570312e-01) (317, -4.19382601976394653320e-01) (318, -8.80850911140441894531e-01) (319, 5.02062380313873291016e-01) (320, -8.86904656887054443359e-01) (321, -5.40962934494018554688e-01) (322, -7.98266112804412841797e-01) (323, 6.33906483650207519531e-01) (324, -8.61900150775909423828e-01) (325, -5.36438941955566406250e-01) (326, -3.08475196361541748047e-01) (327, 5.85392057895660400391e-01) (328, -1.87488391995429992676e-01) (329, -5.27552843093872070312e-01) (330, -4.24169093370437622070e-01) (331, 4.98867630958557128906e-01) (332, -7.97662675380706787109e-01) (333, -3.43782454729080200195e-01) (334, -8.24508428573608398438e-01) (335, 5.77810823917388916016e-01) (336, 4.09974336624145507812e+00) (337, -5.20527601242065429688e-01) (338, -1.70354321599006652832e-01) (339, 5.31652927398681640625e-01) (340, 4.08550357818603515625e+00) (341, -6.49158716201782226562e-01) (342, -2.30556204915046691895e-01) (343, 5.41889548301696777344e-01) (344, 4.07265806198120117188e+00) (345, -5.89101552963256835938e-01) (346, -5.87567165493965148926e-02) (347, 1.77762791514396667480e-01) (348, 1.96538424491882324219e+00) (349, -5.72565555572509765625e-01) (350, 2.39499092102050781250e-01) (351, 6.44956827163696289062e-02) (352, -1.36090964078903198242e-02) (353, -3.74643832445144653320e-01) (354, 2.43575632572174072266e-01) (355, -3.64904284477233886719e-01) (356, 6.68062269687652587891e-03) (357, -1.15896344184875488281e+00) (358, 5.94541311264038085938e-01) (359, 4.81037199497222900391e-02) (360, 2.70480937957763671875e+01) (361, -1.20321154594421386719e+00) (362, 4.65785950422286987305e-01) (363, -2.03251644968986511230e-01) (364, 2.70550556182861328125e+01) (365, -1.14686512947082519531e+00) (366, 2.38492578268051147461e-01) (367, -4.93759587407112121582e-02) (368, -9.61973249912261962891e-01) (369, -1.04316127300262451172e+00) (370, 4.50287610292434692383e-01) (371, -2.00372189283370971680e-01) (372, 2.77314543724060058594e-01) (373, -1.12934923171997070312e+00) (374, 5.61656475067138671875e-01) (375, 2.10511684417724609375e-02) (376, -6.43635690212249755859e-02) (377, -1.12706780433654785156e+00) (378, 5.42614400386810302734e-01) (379, -2.70347416400909423828e-01) (380, -7.94213891029357910156e-01) (381, -1.21292912960052490234e+00) (382, 6.26760721206665039062e-01) (383, 1.46738231182098388672e-01) (384, -8.64309489727020263672e-01) (385, -8.78326535224914550781e-01) (386, 4.60494220256805419922e-01) (387, 2.36666992306709289551e-01) (388, -8.13726067543029785156e-01) (389, -5.84571838378906250000e-01) (390, 5.68457305431365966797e-01) (391, -1.26327186822891235352e-01) (392, -9.52794969081878662109e-01) (393, -1.21060036122798919678e-01) (394, 4.88292276859283447266e-01) (395, -5.21595776081085205078e-02) (396, -6.57659769058227539062e-01) (397, -2.24276989698410034180e-01) (398, 6.31179809570312500000e-01) (399, -1.53361886739730834961e-01) (400, -1.88467174768447875977e-01) (401, -1.06985461711883544922e+00) (402, 8.74714612960815429688e-01) (401, 1.28953647613525390625e+00) (402, 9.89645361900329589844e-01) 
