FANN_FLO_2.1
num_layers=3
learning_rate=0.001000
connection_rate=1.000000
network_type=0
learning_momentum=0.000000
training_algorithm=2
train_error_function=1
train_stop_function=0
cascade_output_change_fraction=0.010000
quickprop_decay=-0.000100
quickprop_mu=1.750000
rprop_increase_factor=1.200000
rprop_decrease_factor=0.500000
rprop_delta_min=0.000000
rprop_delta_max=50.000000
rprop_delta_zero=0.100000
cascade_output_stagnation_epochs=12
cascade_candidate_change_fraction=0.010000
cascade_candidate_stagnation_epochs=12
cascade_max_out_epochs=150
cascade_min_out_epochs=50
cascade_max_cand_epochs=150
cascade_min_cand_epochs=50
cascade_num_candidate_groups=2
bit_fail_limit=3.49999994039535522461e-01
cascade_candidate_limit=1.00000000000000000000e+03
cascade_weight_multiplier=4.00000005960464477539e-01
cascade_activation_functions_count=10
cascade_activation_functions=3 5 7 8 10 11 14 15 16 17 
cascade_activation_steepnesses_count=4
cascade_activation_steepnesses=2.50000000000000000000e-01 5.00000000000000000000e-01 7.50000000000000000000e-01 1.00000000000000000000e+00 
layer_sizes=401 11 9 
scale_included=0
neurons (num_inputs, activation_function, activation_steepness)=(0, 0, 0.00000000000000000000e+00) (0, 0, 0.00000000000000000000e+00) (0, 0, 0.00000000000000000000e+00) (0, 0, 0.00000000000000000000e+00) (0, 0, 0.00000000000000000000e+00) (0, 0, 0.00000000000000000000e+00) (0, 0, 0.00000000000000000000e+00) (0, 0, 0.00000000000000000000e+00) (0, 0, 0.00000000000000000000e+00) (0, 0, 0.00000000000000000000e+00) (0, 0, 0.00000000000000000000e+00) (0, 0, 0.00000000000000000000e+00) (0, 0, 0.00000000000000000000e+00) (0, 0, 0.00000000000000000000e+00) (0, 0, 0.00000000000000000000e+00) (0, 0, 0.00000000000000000000e+00) (0, 0, 0.00000000000000000000e+00) (0, 0, 0.00000000000000000000e+00) (0, 0, 0.00000000000000000000e+00) (0, 0, 0.00000000000000000000e+00) (0, 0, 0.00000000000000000000e+00) (0, 0, 0.00000000000000000000e+00) (0, 0, 0.00000000000000000000e+00) (0, 0, 0.00000000000000000000e+00) (0, 0, 0.00000000000000000000e+00) (0, 0, 0.00000000000000000000e+00) (0, 0, 0.00000000000000000000e+00) (0, 0, 0.00000000000000000000e+00) (0, 0, 0.00000000000000000000e+00) (0, 0, 0.00000000000000000000e+00) (0, 0, 0.00000000000000000000e+00) (0, 0, 0.00000000000000000000e+00) (0, 0, 0.00000000000000000000e+00) (0, 0, 0.00000000000000000000e+00) (0, 0, 0.00000000000000000000e+00) (0, 0, 0.00000000000000000000e+00) (0, 0, 0.00000000000000000000e+00) (0, 0, 0.00000000000000000000e+00) (0, 0, 0.00000000000000000000e+00) (0, 0, 0.00000000000000000000e+00) (0, 0, 0.00000000000000000000e+00) (0, 0, 0.00000000000000000000e+00) (0, 0, 0.00000000000000000000e+00) (0, 0, 0.00000000000000000000e+00) (0, 0, 0.00000000000000000000e+00) (0, 0, 0.00000000000000000000e+00) (0, 0, 0.00000000000000000000e+00) (0, 0, 0.00000000000000000000e+00) (0, 0, 0.00000000000000000000e+00) (0, 0, 0.00000000000000000000e+00) (0, 0, 0.00000000000000000000e+00) (0, 0, 0.00000000000000000000e+00) (0, 0, 0.00000000000000000000e+00) (0, 0, 0.00000000000000000000e+00) (0, 0, 0.00000000000000000000e+00) (0, 0, 0.00000000000000000000e+00) (0, 0, 0.00000000000000000000e+00) (0, 0, 0.00000000000000000000e+00) (0, 0, 0.00000000000000000000e+00) (0, 0, 0.00000000000000000000e+00) (0, 0, 0.00000000000000000000e+00) (0, 0, 0.00000000000000000000e+00) (0, 0, 0.00000000000000000000e+00) (0, 0, 0.00000000000000000000e+00) (0, 0, 0.00000000000000000000e+00) (0, 0, 0.00000000000000000000e+00) (0, 0, 0.00000000000000000000e+00) (0, 0, 0.00000000000000000000e+00) (0, 0, 0.00000000000000000000e+00) (0, 0, 0.00000000000000000000e+00) (0, 0, 0.00000000000000000000e+00) (0, 0, 0.00000000000000000000e+00) (0, 0, 0.00000000000000000000e+00) (0, 0, 0.00000000000000000000e+00) (0, 0, 0.00000000000000000000e+00) (0, 0, 0.00000000000000000000e+00) (0, 0, 0.00000000000000000000e+00) (0, 0, 0.00000000000000000000e+00) (0, 0, 0.00000000000000000000e+00) (0, 0, 0.00000000000000000000e+00) (0, 0, 0.00000000000000000000e+00) (0, 0, 0.00000000000000000000e+00) (0, 0, 0.00000000000000000000e+00) (0, 0, 0.00000000000000000000e+00) (0, 0, 0.00000000000000000000e+00) (0, 0, 0.00000000000000000000e+00) (0, 0, 0.00000000000000000000e+00) (0, 0, 0.00000000000000000000e+00) (0, 0, 0.00000000000000000000e+00) (0, 0, 0.00000000000000000000e+00) (0, 0, 0.00000000000000000000e+00) (0, 0, 0.00000000000000000000e+00) (0, 0, 0.00000000000000000000e+00) (0, 0, 0.00000000000000000000e+00) (0, 0, 0.00000000000000000000e+00) (0, 0, 0.00000000000000000000e+00) (0, 0, 0.00000000000000000000e+00) (0, 0, 0.00000000000000000000e+00) (0, 0, 0.00000000000000000000e+00) (0, 0, 0.00000000000000000000e+00) (0, 0, 0.00000000000000000000e+00) (0, 0, 0.00000000000000000000e+00) (0, 0, 0.00000000000000000000e+00) (0, 0, 0.00000000000000000000e+00) (0, 0, 0.00000000000000000000e+00) (0, 0, 0.00000000000000000000e+00) (0, 0, 0.00000000000000000000e+00) (0, 0, 0.00000000000000000000e+00) (0, 0, 0.00000000000000000000e+00) (0, 0, 0.00000000000000000000e+00) (0, 0, 0.00000000000000000000e+00) (0, 0, 0.00000000000000000000e+00) (0, 0, 0.00000000000000000000e+00) (0, 0, 0.00000000000000000000e+00) (0, 0, 0.00000000000000000000e+00) (0, 0, 0.00000000000000000000e+00) (0, 0, 0.00000000000000000000e+00) (0, 0, 0.00000000000000000000e+00) (0, 0, 0.00000000000000000000e+00) (0, 0, 0.00000000000000000000e+00) (0, 0, 0.00000000000000000000e+00) (0, 0, 0.00000000000000000000e+00) (0, 0, 0.00000000000000000000e+00) (0, 0, 0.00000000000000000000e+00) (0, 0, 0.00000000000000000000e+00) (0, 0, 0.00000000000000000000e+00) (0, 0, 0.00000000000000000000e+00) (0, 0, 0.00000000000000000000e+00) (0, 0, 0.00000000000000000000e+00) (0, 0, 0.00000000000000000000e+00) (0, 0, 0.00000000000000000000e+00) (0, 0, 0.00000000000000000000e+00) (0, 0, 0.00000000000000000000e+00) (0, 0, 0.00000000000000000000e+00) (0, 0, 0.00000000000000000000e+00) (0, 0, 0.00000000000000000000e+00) (0, 0, 0.00000000000000000000e+00) (0, 0, 0.00000000000000000000e+00) (0, 0, 0.00000000000000000000e+00) (0, 0, 0.00000000000000000000e+00) (0, 0, 0.00000000000000000000e+00) (0, 0, 0.00000000000000000000e+00) (0, 0, 0.00000000000000000000e+00) (0, 0, 0.00000000000000000000e+00) (0, 0, 0.00000000000000000000e+00) (0, 0, 0.00000000000000000000e+00) (0, 0, 0.00000000000000000000e+00) (0, 0, 0.00000000000000000000e+00) (0, 0, 0.00000000000000000000e+00) (0, 0, 0.00000000000000000000e+00) (0, 0, 0.00000000000000000000e+00) (0, 0, 0.00000000000000000000e+00) (0, 0, 0.00000000000000000000e+00) (0, 0, 0.00000000000000000000e+00) (0, 0, 0.00000000000000000000e+00) (0, 0, 0.00000000000000000000e+00) (0, 0, 0.00000000000000000000e+00) (0, 0, 0.00000000000000000000e+00) (0, 0, 0.00000000000000000000e+00) (0, 0, 0.00000000000000000000e+00) (0, 0, 0.00000000000000000000e+00) (0, 0, 0.00000000000000000000e+00) (0, 0, 0.00000000000000000000e+00) (0, 0, 0.00000000000000000000e+00) (0, 0, 0.00000000000000000000e+00) (0, 0, 0.00000000000000000000e+00) (0, 0, 0.00000000000000000000e+00) (0, 0, 0.00000000000000000000e+00) (0, 0, 0.00000000000000000000e+00) (0, 0, 0.00000000000000000000e+00) (0, 0, 0.00000000000000000000e+00) (0, 0, 0.00000000000000000000e+00) (0, 0, 0.00000000000000000000e+00) (0, 0, 0.00000000000000000000e+00) (0, 0, 0.00000000000000000000e+00) (0, 0, 0.00000000000000000000e+00) (0, 0, 0.00000000000000000000e+00) (0, 0, 0.00000000000000000000e+00) (0, 0, 0.00000000000000000000e+00) (0, 0, 0.00000000000000000000e+00) (0, 0, 0.00000000000000000000e+00) (0, 0, 0.00000000000000000000e+00) (0, 0, 0.00000000000000000000e+00) (0, 0, 0.00000000000000000000e+00) (0, 0, 0.00000000000000000000e+00) (0, 0, 0.00000000000000000000e+00) (0, 0, 0.00000000000000000000e+00) (0, 0, 0.00000000000000000000e+00) (0, 0, 0.00000000000000000000e+00) (0, 0, 0.00000000000000000000e+00) (0, 0, 0.00000000000000000000e+00) (0, 0, 0.00000000000000000000e+00) (0, 0, 0.00000000000000000000e+00) (0, 0, 0.00000000000000000000e+00) (0, 0, 0.00000000000000000000e+00) (0, 0, 0.00000000000000000000e+00) (0, 0, 0.00000000000000000000e+00) (0, 0, 0.00000000000000000000e+00) (0, 0, 0.00000000000000000000e+00) (0, 0, 0.00000000000000000000e+00) (0, 0, 0.00000000000000000000e+00) (0, 0, 0.00000000000000000000e+00) (0, 0, 0.00000000000000000000e+00) (0, 0, 0.00000000000000000000e+00) (0, 0, 0.00000000000000000000e+00) (0, 0, 0.00000000000000000000e+00) (0, 0, 0.00000000000000000000e+00) (0, 0, 0.00000000000000000000e+00) (0, 0, 0.00000000000000000000e+00) (0, 0, 0.00000000000000000000e+00) (0, 0, 0.00000000000000000000e+00) (0, 0, 0.00000000000000000000e+00) (0, 0, 0.00000000000000000000e+00) (0, 0, 0.00000000000000000000e+00) (0, 0, 0.00000000000000000000e+00) (0, 0, 0.00000000000000000000e+00) (0, 0, 0.00000000000000000000e+00) (0, 0, 0.00000000000000000000e+00) (0, 0, 0.00000000000000000000e+00) (0, 0, 0.00000000000000000000e+00) (0, 0, 0.00000000000000000000e+00) (0, 0, 0.00000000000000000000e+00) (0, 0, 0.00000000000000000000e+00) (0, 0, 0.00000000000000000000e+00) (0, 0, 0.00000000000000000000e+00) (0, 0, 0.00000000000000000000e+00) (0, 0, 0.00000000000000000000e+00) (0, 0, 0.00000000000000000000e+00) (0, 0, 0.00000000000000000000e+00) (0, 0, 0.00000000000000000000e+00) (0, 0, 0.00000000000000000000e+00) (0, 0, 0.00000000000000000000e+00) (0, 0, 0.00000000000000000000e+00) (0, 0, 0.00000000000000000000e+00) (0, 0, 0.00000000000000000000e+00) (0, 0, 0.00000000000000000000e+00) (0, 0, 0.00000000000000000000e+00) (0, 0, 0.00000000000000000000e+00) (0, 0, 0.00000000000000000000e+00) (0, 0, 0.00000000000000000000e+00) (0, 0, 0.00000000000000000000e+00) (0, 0, 0.00000000000000000000e+00) (0, 0, 0.00000000000000000000e+00) (0, 0, 0.00000000000000000000e+00) (0, 0, 0.00000000000000000000e+00) (0, 0, 0.00000000000000000000e+00) (0, 0, 0.00000000000000000000e+00) (0, 0, 0.00000000000000000000e+00) (0, 0, 0.00000000000000000000e+00) (0, 0, 0.00000000000000000000e+00) (0, 0, 0.00000000000000000000e+00) (0, 0, 0.00000000000000000000e+00) (0, 0, 0.00000000000000000000e+00) (0, 0, 0.00000000000000000000e+00) (0, 0, 0.00000000000000000000e+00) (0, 0, 0.00000000000000000000e+00) (0, 0, 0.00000000000000000000e+00) (0, 0, 0.00000000000000000000e+00) (0, 0, 0.00000000000000000000e+00) (0, 0, 0.00000000000000000000e+00) (0, 0, 0.00000000000000000000e+00) (0, 0, 0.00000000000000000000e+00) (0, 0, 0.00000000000000000000e+00) (0, 0, 0.00000000000000000000e+00) (0, 0, 0.00000000000000000000e+00) (0, 0, 0.00000000000000000000e+00) (0, 0, 0.00000000000000000000e+00) (0, 0, 0.00000000000000000000e+00) (0, 0, 0.00000000000000000000e+00) (0, 0, 0.00000000000000000000e+00) (0, 0, 0.00000000000000000000e+00) (0, 0, 0.00000000000000000000e+00) (0, 0, 0.00000000000000000000e+00) (0, 0, 0.00000000000000000000e+00) (0, 0, 0.00000000000000000000e+00) (0, 0, 0.00000000000000000000e+00) (0, 0, 0.00000000000000000000e+00) (0, 0, 0.00000000000000000000e+00) (0, 0, 0.00000000000000000000e+00) (0, 0, 0.00000000000000000000e+00) (0, 0, 0.00000000000000000000e+00) (0, 0, 0.00000000000000000000e+00) (0, 0, 0.00000000000000000000e+00) (0, 0, 0.00000000000000000000e+00) (0, 0, 0.00000000000000000000e+00) (0, 0, 0.00000000000000000000e+00) (0, 0, 0.00000000000000000000e+00) (0, 0, 0.00000000000000000000e+00) (0, 0, 0.00000000000000000000e+00) (0, 0, 0.00000000000000000000e+00) (0, 0, 0.00000000000000000000e+00) (0, 0, 0.00000000000000000000e+00) (0, 0, 0.00000000000000000000e+00) (0, 0, 0.00000000000000000000e+00) (0, 0, 0.00000000000000000000e+00) (0, 0, 0.00000000000000000000e+00) (0, 0, 0.00000000000000000000e+00) (0, 0, 0.00000000000000000000e+00) (0, 0, 0.00000000000000000000e+00) (0, 0, 0.00000000000000000000e+00) (0, 0, 0.00000000000000000000e+00) (0, 0, 0.00000000000000000000e+00) (0, 0, 0.00000000000000000000e+00) (0, 0, 0.00000000000000000000e+00) (0, 0, 0.00000000000000000000e+00) (0, 0, 0.00000000000000000000e+00) (0, 0, 0.00000000000000000000e+00) (0, 0, 0.00000000000000000000e+00) (0, 0, 0.00000000000000000000e+00) (0, 0, 0.00000000000000000000e+00) (0, 0, 0.00000000000000000000e+00) (0, 0, 0.00000000000000000000e+00) (0, 0, 0.00000000000000000000e+00) (0, 0, 0.00000000000000000000e+00) (0, 0, 0.00000000000000000000e+00) (0, 0, 0.00000000000000000000e+00) (0, 0, 0.00000000000000000000e+00) (0, 0, 0.00000000000000000000e+00) (0, 0, 0.00000000000000000000e+00) (0, 0, 0.00000000000000000000e+00) (0, 0, 0.00000000000000000000e+00) (0, 0, 0.00000000000000000000e+00) (0, 0, 0.00000000000000000000e+00) (0, 0, 0.00000000000000000000e+00) (0, 0, 0.00000000000000000000e+00) (0, 0, 0.00000000000000000000e+00) (0, 0, 0.00000000000000000000e+00) (0, 0, 0.00000000000000000000e+00) (0, 0, 0.00000000000000000000e+00) (0, 0, 0.00000000000000000000e+00) (0, 0, 0.00000000000000000000e+00) (0, 0, 0.00000000000000000000e+00) (0, 0, 0.00000000000000000000e+00) (0, 0, 0.00000000000000000000e+00) (0, 0, 0.00000000000000000000e+00) (0, 0, 0.00000000000000000000e+00) (0, 0, 0.00000000000000000000e+00) (0, 0, 0.00000000000000000000e+00) (0, 0, 0.00000000000000000000e+00) (0, 0, 0.00000000000000000000e+00) (0, 0, 0.00000000000000000000e+00) (0, 0, 0.00000000000000000000e+00) (0, 0, 0.00000000000000000000e+00) (0, 0, 0.00000000000000000000e+00) (0, 0, 0.00000000000000000000e+00) (0, 0, 0.00000000000000000000e+00) (0, 0, 0.00000000000000000000e+00) (0, 0, 0.00000000000000000000e+00) (0, 0, 0.00000000000000000000e+00) (0, 0, 0.00000000000000000000e+00) (0, 0, 0.00000000000000000000e+00) (0, 0, 0.00000000000000000000e+00) (0, 0, 0.00000000000000000000e+00) (0, 0, 0.00000000000000000000e+00) (0, 0, 0.00000000000000000000e+00) (0, 0, 0.00000000000000000000e+00) (0, 0, 0.00000000000000000000e+00) (0, 0, 0.00000000000000000000e+00) (0, 0, 0.00000000000000000000e+00) (0, 0, 0.00000000000000000000e+00) (0, 0, 0.00000000000000000000e+00) (0, 0, 0.00000000000000000000e+00) (0, 0, 0.00000000000000000000e+00) (0, 0, 0.00000000000000000000e+00) (0, 0, 0.00000000000000000000e+00) (0, 0, 0.00000000000000000000e+00) (0, 0, 0.00000000000000000000e+00) (0, 0, 0.00000000000000000000e+00) (0, 0, 0.00000000000000000000e+00) (0, 0, 0.00000000000000000000e+00) (0, 0, 0.00000000000000000000e+00) (0, 0, 0.00000000000000000000e+00) (0, 0, 0.00000000000000000000e+00) (0, 0, 0.00000000000000000000e+00) (0, 0, 0.00000000000000000000e+00) (0, 0, 0.00000000000000000000e+00) (0, 0, 0.00000000000000000000e+00) (0, 0, 0.00000000000000000000e+00) (0, 0, 0.00000000000000000000e+00) (0, 0, 0.00000000000000000000e+00) (0, 0, 0.00000000000000000000e+00) (0, 0, 0.00000000000000000000e+00) (0, 0, 0.00000000000000000000e+00) (0, 0, 0.00000000000000000000e+00) (0, 0, 0.00000000000000000000e+00) (0, 0, 0.00000000000000000000e+00) (0, 0, 0.00000000000000000000e+00) (0, 0, 0.00000000000000000000e+00) (0, 0, 0.00000000000000000000e+00) (0, 0, 0.00000000000000000000e+00) (0, 0, 0.00000000000000000000e+00) (0, 0, 0.00000000000000000000e+00) (0, 0, 0.00000000000000000000e+00) (0, 0, 0.00000000000000000000e+00) (0, 0, 0.00000000000000000000e+00) (0, 0, 0.00000000000000000000e+00) (0, 0, 0.00000000000000000000e+00) (0, 0, 0.00000000000000000000e+00) (0, 0, 0.00000000000000000000e+00) (0, 0, 0.00000000000000000000e+00) (0, 0, 0.00000000000000000000e+00) (401, 5, 5.00000000000000000000e-01) (401, 5, 5.00000000000000000000e-01) (401, 5, 5.00000000000000000000e-01) (401, 5, 5.00000000000000000000e-01) (401, 5, 5.00000000000000000000e-01) (401, 5, 5.00000000000000000000e-01) (401, 5, 5.00000000000000000000e-01) (401, 5, 5.00000000000000000000e-01) (401, 5, 5.00000000000000000000e-01) (401, 5, 5.00000000000000000000e-01) (0, 5, 0.00000000000000000000e+00) (11, 5, 5.00000000000000000000e-01) (11, 5, 5.00000000000000000000e-01) (11, 5, 5.00000000000000000000e-01) (11, 5, 5.00000000000000000000e-01) (11, 5, 5.00000000000000000000e-01) (11, 5, 5.00000000000000000000e-01) (11, 5, 5.00000000000000000000e-01) (11, 5, 5.00000000000000000000e-01) (0, 5, 0.00000000000000000000e+00) 
connections (connected_to_neuron, weight)=(0, 4.13994818925857543945e-01) (1, 3.41718286275863647461e-01) (2, 3.05737853050231933594e-01) (3, 4.41362589597702026367e-01) (4, 2.72965908050537109375e-01) (5, 3.80914062261581420898e-01) (6, 3.21816116571426391602e-01) (7, 1.35663926601409912109e-01) (8, 1.91228583455085754395e-01) (9, 2.59379237890243530273e-01) (10, 4.76535618305206298828e-01) (11, 3.74169677495956420898e-01) (12, 2.18256473541259765625e-01) (13, 3.14543277025222778320e-01) (14, 1.76992759108543395996e-01) (15, 4.03496921062469482422e-01) (16, 3.80229473114013671875e-01) (17, 2.16332837939262390137e-01) (18, 2.32987478375434875488e-01) (19, 1.25375196337699890137e-01) (20, 3.00710618495941162109e-01) (21, 1.11671485006809234619e-01) (22, 2.39699408411979675293e-01) (23, 3.67009758949279785156e-01) (24, 1.90138667821884155273e-01) (25, 1.30462333559989929199e-01) (26, 1.15357644855976104736e-01) (27, 1.90548002719879150391e-01) (28, -8.89254882931709289551e-02) (29, 1.12711124122142791748e-01) (30, 2.23470464348793029785e-01) (31, 3.10373187065124511719e-01) (32, 2.95161575078964233398e-01) (33, 8.02847594022750854492e-02) (34, 1.85659497976303100586e-01) (35, 5.98131008446216583252e-02) (36, 1.78866907954216003418e-01) (37, 6.86109185218811035156e-01) (38, 3.04190784692764282227e-01) (39, 1.12134978175163269043e-01) (40, 1.63217231631278991699e-01) (41, 2.91691064834594726562e-01) (42, 1.50331407785415649414e-01) (43, 7.78290107846260070801e-02) (44, 2.88077652454376220703e-01) (45, 2.72486269474029541016e-01) (46, 1.32403180003166198730e-01) (47, 2.02812135219573974609e-01) (48, 2.38622173666954040527e-01) (49, 1.74228474497795104980e-01) (50, 2.06162646412849426270e-01) (51, 1.44100472331047058105e-01) (52, 4.30180817842483520508e-01) (53, -2.88114063441753387451e-02) (54, -1.34398462250828742981e-03) (55, 1.99181482195854187012e-01) (56, 1.99153900146484375000e-01) (57, 2.20354385673999786377e-02) (58, 3.26731771230697631836e-01) (59, 2.40898132324218750000e-01) (60, -5.18615394830703735352e-02) (61, 2.07223787903785705566e-01) (62, 1.68588310480117797852e-01) (63, -2.45270952582359313965e-02) (64, -4.36874944716691970825e-03) (65, 2.33856722712516784668e-01) (66, 2.72155046463012695312e-01) (67, 5.73081932961940765381e-02) (68, -1.25426352024078369141e-01) (69, 7.29902088642120361328e-02) (70, -2.01333582401275634766e-01) (71, -1.50038242340087890625e-01) (72, -8.51672217249870300293e-02) (73, 2.41948574781417846680e-01) (74, 1.33901834487915039062e-02) (75, -1.65926232933998107910e-01) (76, 3.21848839521408081055e-02) (77, -1.38049483299255371094e-01) (78, 1.10904775559902191162e-01) (79, -1.43724590539932250977e-01) (80, 2.77157366275787353516e-01) (81, 1.56946629285812377930e-01) (82, 4.45896461606025695801e-02) (83, 4.43588718771934509277e-02) (84, 2.73932889103889465332e-02) (85, 2.04538032412528991699e-01) (86, 1.41903460025787353516e-01) (87, 2.74959564208984375000e-01) (88, 2.73970186710357666016e-01) (89, -1.20830811560153961182e-01) (90, 1.09177306294441223145e-01) (91, 2.33394756913185119629e-01) (92, 1.34590283036231994629e-01) (93, -5.68381547927856445312e-02) (94, 1.64310783147811889648e-01) (95, 1.25501304864883422852e-01) (96, 1.58598378300666809082e-01) (97, -1.25560745596885681152e-01) (98, 2.98040032386779785156e-01) (99, -4.79993522167205810547e-02) (100, 2.87878960371017456055e-01) (101, 2.00801834464073181152e-01) (102, 2.97552287578582763672e-01) (103, 2.14690551161766052246e-01) (104, 2.35556840896606445312e-01) (105, 2.86006242036819458008e-01) (106, 1.35240003466606140137e-01) (107, 2.23565921187400817871e-01) (108, 3.21743905544281005859e-01) (109, 2.53735542297363281250e-01) (110, 3.29437792301177978516e-01) (111, 1.82569071650505065918e-01) (112, 2.38721430301666259766e-01) (113, -7.59123265743255615234e-02) (114, 3.69152307510375976562e-01) (115, 9.99950021505355834961e-02) (116, 4.32456940412521362305e-01) (117, 3.94262671470642089844e-02) (118, -3.61348614096641540527e-02) (119, -1.26234918832778930664e-01) (120, 3.44452075660228729248e-02) (121, -1.40979094430804252625e-02) (122, -1.40315322205424308777e-02) (123, 4.24808561801910400391e-02) (124, 2.69381523132324218750e-01) (125, -2.73240525275468826294e-02) (126, 2.67830699682235717773e-01) (127, 1.02685473859310150146e-01) (128, -1.44188418984413146973e-01) (129, -1.12720564007759094238e-01) (130, 5.44593632221221923828e-02) (131, 2.84171164035797119141e-01) (132, 2.48279482126235961914e-01) (133, -2.54479628056287765503e-02) (134, 2.99064606428146362305e-01) (135, 1.55670195817947387695e-01) (136, -5.98907098174095153809e-02) (137, -8.89798775315284729004e-02) (138, 1.55673906207084655762e-01) (139, 2.76531666517257690430e-01) (140, -2.03730147331953048706e-02) (141, 2.23648990504443645477e-03) (142, -7.52493068575859069824e-02) (143, -3.54284942150115966797e-02) (144, -3.58852371573448181152e-02) (145, -1.03773698210716247559e-01) (146, 5.95150813460350036621e-02) (147, -5.07092773914337158203e-01) (148, -1.74646735191345214844e-01) (149, 5.47996699810028076172e-01) (150, 8.08854922652244567871e-02) (151, -1.27925127744674682617e-01) (152, -6.32021576166152954102e-02) (153, 5.16874134540557861328e-01) (154, -7.16061964631080627441e-02) (155, -2.57285460829734802246e-02) (156, 2.98505544662475585938e-01) (157, 1.32545530796051025391e-01) (158, -7.01736807823181152344e-02) (159, 3.00561841577291488647e-02) (160, 5.07544457912445068359e-01) (161, -2.28008646517992019653e-02) (162, -1.70707404613494873047e-01) (163, -1.91195890307426452637e-01) (164, 1.19705125689506530762e-01) (165, -8.29451680183410644531e-02) (166, -1.65290132164955139160e-01) (167, -9.14027541875839233398e-03) (168, -1.17537014186382293701e-01) (169, -7.89427012205123901367e-02) (170, -1.12493343651294708252e-01) (171, -1.12389028072357177734e-01) (172, -1.90789997577667236328e-01) (173, -1.56881630420684814453e-01) (174, 1.68550863862037658691e-01) (175, -1.60755038261413574219e-01) (176, 2.21368763595819473267e-03) (177, -2.85958778113126754761e-02) (178, -1.58313568681478500366e-02) (179, -8.94160345196723937988e-02) (180, -2.15756092220544815063e-02) (181, -6.60734474658966064453e-02) (182, 1.94712635129690170288e-03) (183, -1.61601394414901733398e-01) (184, 9.97577141970396041870e-03) (185, -6.68763965368270874023e-02) (186, -1.59598112106323242188e-01) (187, 2.05111086368560791016e-01) (188, 2.47246865183115005493e-02) (189, -6.37358427047729492188e-02) (190, -5.35936653614044189453e-02) (191, -6.09972700476646423340e-02) (192, -1.06420509517192840576e-01) (193, -2.96723078936338424683e-02) (194, 1.05346515774726867676e-02) (195, -1.62535250186920166016e-01) (196, -3.51640805602073669434e-02) (197, -2.31255143880844116211e-01) (198, 1.98159720748662948608e-02) (199, 1.54065907001495361328e-01) (200, -1.78149908781051635742e-01) (201, -6.84966072440147399902e-02) (202, 4.79106791317462921143e-02) (203, -1.44006773829460144043e-01) (204, -1.82595834136009216309e-01) (205, 1.70235335826873779297e-02) (206, 3.91699522733688354492e-02) (207, -3.67602378129959106445e-01) (208, 9.48927178978919982910e-02) (209, 1.84346213936805725098e-01) (210, 5.59447705745697021484e-02) (211, -2.39726722240447998047e-01) (212, -2.67856627702713012695e-01) (213, -2.38716632127761840820e-01) (214, -1.86693578958511352539e-01) (215, -2.48757183551788330078e-01) (216, -1.92175939679145812988e-01) (217, -1.85346633195877075195e-01) (218, -3.22927355766296386719e-01) (219, -1.61795645952224731445e-01) (220, -2.77864277362823486328e-01) (221, -1.09011888504028320312e-01) (222, -1.52317717671394348145e-01) (223, -2.11157545447349548340e-01) (224, -1.81254193186759948730e-01) (225, -2.69115209579467773438e-01) (226, -1.84516638517379760742e-01) (227, -2.71623104810714721680e-01) (228, -1.73887044191360473633e-01) (229, -1.73779547214508056641e-01) (230, -2.69844651222229003906e-01) (231, -1.53695017099380493164e-01) (232, -3.37983667850494384766e-01) (233, -1.91908270120620727539e-01) (234, -2.87957578897476196289e-01) (235, -1.46430313587188720703e-01) (236, -3.15784394741058349609e-01) (237, -1.42371341586112976074e-01) (238, 3.55615377426147460938e-01) (239, -6.22898712754249572754e-02) (240, -1.06958359479904174805e-01) (241, -3.24219733476638793945e-01) (242, -3.20990949869155883789e-01) (243, -2.40274578332901000977e-01) (244, -2.09687009453773498535e-01) (245, -1.16415128111839294434e-01) (246, -5.05174160003662109375e-01) (247, -1.64438635110855102539e-01) (248, -1.95432230830192565918e-01) (249, -2.33130723237991333008e-01) (250, -3.49269479513168334961e-01) (251, -3.86931270360946655273e-01) (252, -1.96862652897834777832e-01) (253, -2.73291289806365966797e-01) (254, -1.60097613930702209473e-01) (255, -4.66291517019271850586e-01) (256, -3.87058258056640625000e-01) (257, -5.93745231628417968750e-01) (258, -2.54707902669906616211e-01) (259, -2.82343626022338867188e-01) (260, -3.98995399475097656250e-01) (261, -1.65375739336013793945e-01) (262, -2.02276393771171569824e-01) (263, -3.14222902059555053711e-01) (264, -3.97215306758880615234e-01) (265, -2.30488955974578857422e-01) (266, -5.31460583209991455078e-01) (267, -4.10031944513320922852e-01) (268, -3.39091807603836059570e-01) (269, -3.20510923862457275391e-01) (270, -3.66193979978561401367e-01) (271, -4.65357393026351928711e-01) (272, 2.75000143051147460938e+00) (273, 2.15683877468109130859e-01) (274, 6.15220554172992706299e-02) (275, -1.34543702006340026855e-01) (276, -3.87156605720520019531e-01) (277, -9.57343339920043945312e-01) (278, -9.94384288787841796875e-02) (279, 4.07075166702270507812e-01) (280, -2.41764038801193237305e-01) (281, -7.32325553894042968750e-01) (282, -3.00892025232315063477e-01) (283, 4.57812023162841796875e+00) (284, -7.32214629650115966797e-01) (285, -1.89635545015335083008e-01) (286, -8.61254811286926269531e-01) (287, 6.15010499954223632812e-01) (288, -6.01820290088653564453e-01) (289, -5.56455731391906738281e-01) (290, -3.93214002251625061035e-02) (291, -4.69221234321594238281e-01) (292, -9.01105344295501708984e-01) (293, -8.05864393711090087891e-01) (294, 8.01551699638366699219e-01) (295, -1.73430398106575012207e-01) (296, -3.73551905155181884766e-01) (297, -5.85373520851135253906e-01) (298, -4.20993506908416748047e-01) (299, -1.06175768375396728516e+00) (300, -9.15838003158569335938e-01) (301, 1.29453408718109130859e+00) (302, -6.91464424133300781250e-01) (303, -4.32410597801208496094e-01) (304, -8.01504015922546386719e-01) (305, 2.80799102783203125000e+00) (306, -7.76457071304321289062e-01) (307, -1.04805958271026611328e+00) (308, 9.94643509387969970703e-01) (309, -6.66771531105041503906e-01) (310, -1.15446102619171142578e+00) (311, -7.95864343643188476562e-01) (312, 4.00109577178955078125e+00) (313, -2.12906837463378906250e+00) (314, -8.52798700332641601562e-01) (315, 4.49028432369232177734e-01) (316, 3.46984291076660156250e+00) (317, -1.03530383110046386719e+00) (318, -4.82780098915100097656e-01) (319, 8.30908417701721191406e-01) (320, -1.21283006668090820312e+00) (321, 1.52381587028503417969e+00) (322, -5.10047316551208496094e-01) (323, 7.63412857055664062500e+00) (324, -8.66457760334014892578e-01) (325, -5.62657594680786132812e-01) (326, -4.81599032878875732422e-01) (327, -1.11191594600677490234e+00) (328, -4.34039801359176635742e-01) (329, 3.11906903982162475586e-01) (330, 8.69573831558227539062e-01) (331, -5.16882181167602539062e-01) (332, 1.53731155395507812500e+00) (333, 1.43066952005028724670e-02) (334, -5.21140694618225097656e-01) (335, -1.40062201023101806641e+00) (336, -3.53980898857116699219e-01) (337, 3.00275146961212158203e-01) (338, 1.64092332124710083008e-02) (339, 4.06430721282958984375e+00) (340, -1.98299035429954528809e-01) (341, -6.49471580982208251953e-02) (342, -5.27032494544982910156e-01) (343, -2.61582076549530029297e-01) (344, -4.54822421073913574219e-01) (345, -1.38455271720886230469e-01) (346, 2.32065987586975097656e+00) (347, -1.91540896892547607422e-01) (348, 1.42469406127929687500e+00) (349, -2.00279369950294494629e-01) (350, -4.12606358528137207031e-01) (351, 7.58241340517997741699e-02) (352, -2.36144959926605224609e-01) (353, -3.40308666229248046875e-01) (354, -3.09617400169372558594e-01) (355, 1.86385795474052429199e-01) (356, -7.05428123474121093750e-01) (357, -2.06379055976867675781e-01) (358, 6.76206707954406738281e-01) (359, 1.60961043834686279297e+00) (360, 1.28278088569641113281e+00) (361, 9.81862396001815795898e-02) (362, 6.89288198947906494141e-01) (363, -6.96189761161804199219e-01) (364, -4.65853810310363769531e-01) (365, 1.02951943874359130859e+00) (366, 1.34844332933425903320e-01) (367, -5.44912666082382202148e-02) (368, 4.25692141056060791016e-01) (369, 4.41085211932659149170e-02) (370, -4.45993721485137939453e-01) (371, -2.65915215015411376953e-01) (372, 3.00726473331451416016e-01) (373, 4.53700214624404907227e-01) (374, 4.61538702249526977539e-01) (375, 1.78116187453269958496e-02) (376, 2.77949851006269454956e-02) (377, -1.01896786689758300781e+00) (378, -1.08213949203491210938e+00) (379, -3.24901294708251953125e+00) (380, 8.24806332588195800781e-01) (381, -4.41755771636962890625e-01) (382, -6.14890813827514648438e-01) (383, -4.20976668596267700195e-01) (384, 1.58535099029541015625e+00) (385, -4.07545179128646850586e-01) (386, -1.85424792766571044922e+00) (387, 6.49164080619812011719e-01) (388, 9.51245367527008056641e-01) (389, -6.13613128662109375000e-01) (390, -7.35650897026062011719e-01) (391, -4.87491369247436523438e+00) (392, 8.35553586483001708984e-01) (393, -1.90871047973632812500e+01) (394, -8.45520138740539550781e-01) (395, 1.20650300979614257812e+01) (396, 1.22950220108032226562e+00) (397, -1.69845027923583984375e+01) (398, -8.20677634328603744507e-03) (399, 1.60918865203857421875e+01) (400, -1.24367132782936096191e-01) (0, 1.26555100083351135254e-01) (1, 2.84016966819763183594e-01) (2, 3.22399228811264038086e-01) (3, 1.33771315217018127441e-01) (4, 1.07896082103252410889e-01) (5, 3.89006316661834716797e-01) (6, 9.30355861783027648926e-02) (7, 1.12930513918399810791e-01) (8, 2.48135641217231750488e-01) (9, 3.26276034116744995117e-01) (10, 4.86737877130508422852e-01) (11, -1.01741664111614227295e-01) (12, 3.95887494087219238281e-01) (13, -1.03163514286279678345e-02) (14, 2.03994661569595336914e-01) (15, 1.51599198579788208008e-01) (16, -1.93958535790443420410e-01) (17, 8.97761583328247070312e-02) (18, 9.91487801074981689453e-02) (19, 2.02036634087562561035e-01) (20, -1.18121542036533355713e-01) (21, 2.83426254987716674805e-01) (22, -2.39569395780563354492e-02) (23, 5.21486587822437286377e-02) (24, 2.12589994072914123535e-01) (25, 2.09124460816383361816e-01) (26, 5.03364577889442443848e-02) (27, 2.78771996498107910156e-01) (28, 1.56747505068778991699e-01) (29, 8.74702036380767822266e-02) (30, -2.77491033077239990234e-01) (31, 3.00563033670186996460e-02) (32, -4.10732105374336242676e-02) (33, -1.26730769872665405273e-01) (34, 9.32950899004936218262e-02) (35, -6.44029974937438964844e-01) (36, 7.21214190125465393066e-02) (37, -1.34686917066574096680e-01) (38, 8.81183668971061706543e-02) (39, 1.29979267716407775879e-01) (40, 6.70224353671073913574e-02) (41, 8.31403285264968872070e-02) (42, -8.53197369724512100220e-03) (43, -4.82485383749008178711e-01) (44, -7.68081843852996826172e-01) (45, -2.61128813028335571289e-01) (46, 3.39594513177871704102e-01) (47, 6.42607986927032470703e-01) (48, 1.33340492844581604004e-01) (49, 4.86251153051853179932e-02) (50, 1.36322677135467529297e-01) (51, 1.00252903997898101807e-01) (52, 1.36346504092216491699e-01) (53, 2.81225979328155517578e-01) (54, 3.57300266623497009277e-02) (55, 2.53910034894943237305e-01) (56, -4.10749316215515136719e-02) (57, 1.46009370684623718262e-01) (58, 2.03900247812271118164e-01) (59, 1.60096809267997741699e-01) (60, 1.70487850904464721680e-01) (61, 7.37380146980285644531e-01) (62, 2.43822261691093444824e-01) (63, -5.57202994823455810547e-02) (64, 2.51094490289688110352e-01) (65, 6.62735626101493835449e-02) (66, 1.04507066309452056885e-01) (67, -2.12113156914710998535e-01) (68, 3.82323235273361206055e-01) (69, -2.30534106492996215820e-01) (70, -7.14412704110145568848e-02) (71, -7.65296667814254760742e-02) (72, -5.75036525726318359375e-01) (73, 1.78743645548820495605e-01) (74, 4.88609150052070617676e-02) (75, 1.83848455548286437988e-01) (76, 1.59197881817817687988e-01) (77, -9.40929651260375976562e-02) (78, 2.03925445675849914551e-01) (79, -6.83568835258483886719e-01) (80, 1.75877064466476440430e-01) (81, 7.72841125726699829102e-02) (82, 2.92499989271163940430e-01) (83, -2.70487427711486816406e-01) (84, 1.27115100622177124023e-01) (85, 9.71365571022033691406e-02) (86, -3.69734078645706176758e-01) (87, 1.89443826675415039062e-01) (88, 2.00217127799987792969e-01) (89, 3.42733375728130340576e-02) (90, 2.02829509973526000977e-01) (91, 2.99103766679763793945e-01) (92, -3.02567295730113983154e-02) (93, -5.94599962234497070312e-01) (94, -2.76776254177093505859e-01) (95, -5.15929639339447021484e-01) (96, 2.88723528385162353516e-01) (97, 1.17531180381774902344e-01) (98, 3.22394222021102905273e-01) (99, 1.06675855815410614014e-01) (100, 3.08429241180419921875e-01) (101, -1.06061637401580810547e+00) (102, -5.37106357514858245850e-02) (103, 3.29791992902755737305e-01) (104, 2.53907948732376098633e-01) (105, 5.91973699629306793213e-02) (106, 4.88662660121917724609e-01) (107, -3.89810532331466674805e-01) (108, -3.43573451042175292969e-01) (109, -1.69139862060546875000e+00) (110, 3.38385760784149169922e-01) (111, -5.69057501852512359619e-02) (112, 3.34357321262359619141e-01) (113, 1.90898343920707702637e-01) (114, -1.27970147877931594849e-02) (115, -8.45176041126251220703e-01) (116, -3.70402574539184570312e-01) (117, 5.24758063256740570068e-02) (118, -6.18948489427566528320e-02) (119, -3.04170036315917968750e+00) (120, 1.86669930815696716309e-01) (121, -1.34973871707916259766e+00) (122, 1.04376628994941711426e-01) (123, 2.67249256372451782227e-01) (124, 1.83881521224975585938e-01) (125, 2.02983051538467407227e-01) (126, 2.53008961677551269531e-01) (127, 3.41188251972198486328e-01) (128, 2.09519490599632263184e-01) (129, 3.24414640665054321289e-01) (130, 4.76882547140121459961e-01) (131, 3.98378908634185791016e-01) (132, 4.19045835733413696289e-01) (133, 2.29329288005828857422e-01) (134, 1.62630274891853332520e-01) (135, 1.70450821518898010254e-01) (136, -2.47556522488594055176e-01) (137, 2.45997533202171325684e-01) (138, 3.56541246175765991211e-01) (139, 2.31350198388099670410e-01) (140, 4.61498618125915527344e-01) (141, 2.18657091259956359863e-01) (142, 4.05557245016098022461e-01) (143, 1.55729800462722778320e-01) (144, 3.26156258583068847656e-01) (145, 4.70994442701339721680e-01) (146, 2.33124986290931701660e-01) (147, 5.13598024845123291016e-01) (148, 1.95687666535377502441e-01) (149, 1.82047322392463684082e-01) (150, 1.59650519490242004395e-01) (151, 5.85820674896240234375e-01) (152, 3.91044527292251586914e-01) (153, 3.44058901071548461914e-01) (154, 4.03189241886138916016e-01) (155, 1.95553943514823913574e-01) (156, 1.72766551375389099121e-01) (157, 1.98047310113906860352e-01) (158, 1.78322285413742065430e-01) (159, 2.64935553073883056641e-01) (160, 2.46472686529159545898e-01) (161, 2.51264244318008422852e-01) (162, 2.78076231479644775391e-01) (163, 3.23354840278625488281e-01) (164, 2.40344092249870300293e-01) (165, 2.01964095234870910645e-01) (166, 1.88590556383132934570e-01) (167, 2.58460968732833862305e-01) (168, 2.11218982934951782227e-01) (169, 3.18971931934356689453e-01) (170, 2.67742097377777099609e-01) (171, 2.55071759223937988281e-01) (172, 1.98533266782760620117e-01) (173, 1.84807419776916503906e-01) (174, 1.85462340712547302246e-01) (175, 2.23344430327415466309e-01) (176, 4.09762501716613769531e-01) (177, 2.99864530563354492188e-01) (178, 1.44112080335617065430e-01) (179, 2.18447253108024597168e-01) (180, 1.21352806687355041504e-01) (181, 1.73143655061721801758e-01) (182, 3.04178684949874877930e-01) (183, 4.75610017776489257812e-01) (184, 1.37135207653045654297e-01) (185, 1.43530026078224182129e-01) (186, 1.59517720341682434082e-01) (187, 9.72522944211959838867e-02) (188, 1.99461013078689575195e-01) (189, 3.55138301849365234375e-01) (190, 2.90183216333389282227e-01) (191, 2.59616822004318237305e-01) (192, 2.39332139492034912109e-01) (193, 3.99825930595397949219e-01) (194, 1.48300603032112121582e-01) (195, 1.39467880129814147949e-01) (196, 2.11989402770996093750e-01) (197, 2.32226029038429260254e-01) (198, 2.60282784700393676758e-01) (199, 6.66422188282012939453e-01) (200, 2.21580758690834045410e-01) (201, 3.08418512344360351562e-01) (202, 3.68858307600021362305e-01) (203, 3.11343371868133544922e-01) (204, 1.76327884197235107422e-01) (205, 1.85230463743209838867e-01) (206, 3.49424332380294799805e-01) (207, 4.55138504505157470703e-01) (208, 4.54144597053527832031e-01) (209, 2.45233342051506042480e-01) (210, 3.91498029232025146484e-01) (211, 2.89194494485855102539e-01) (212, 1.33598491549491882324e-01) (213, 3.30477684736251831055e-01) (214, 4.41568791866302490234e-01) (215, 2.79624521732330322266e-01) (216, 3.26452672481536865234e-01) (217, 2.87706226110458374023e-01) (218, 3.22932362556457519531e-01) (219, 6.13067112863063812256e-02) (220, 1.67333558201789855957e-01) (221, 6.06930494308471679688e-01) (222, 1.73924833536148071289e-01) (223, 4.03778463602066040039e-01) (224, 3.25487017631530761719e-01) (225, 3.01860779523849487305e-01) (226, 1.56344637274742126465e-01) (227, 2.99215525388717651367e-01) (228, 2.55447000265121459961e-01) (229, 1.33690834045410156250e-01) (230, 3.29408824443817138672e-01) (231, -2.15587466955184936523e-02) (232, -6.79855272173881530762e-02) (233, -1.47014856338500976562e-01) (234, 4.52783524990081787109e-01) (235, -4.37653139233589172363e-02) (236, 5.50806581974029541016e-01) (237, -2.35657274723052978516e-01) (238, 3.00606596283614635468e-04) (239, 3.26880693435668945312e-01) (240, -6.14170043263584375381e-04) (241, 3.01831245422363281250e-01) (242, 2.55976438522338867188e-01) (243, 2.56348520517349243164e-01) (244, -3.11365514993667602539e-01) (245, -2.13575318455696105957e-01) (246, 5.92464543879032135010e-02) (247, 1.61924988031387329102e-01) (248, -8.56724455952644348145e-02) (249, 3.80058437585830688477e-02) (250, 4.19795922935009002686e-02) (251, -2.32089057564735412598e-01) (252, 2.17052653431892395020e-01) (253, -3.42093348503112792969e-01) (254, -1.29262164235115051270e-01) (255, -1.36492803692817687988e-01) (256, -4.07461263239383697510e-02) (257, -9.03215855360031127930e-02) (258, -3.16114157438278198242e-01) (259, 1.62309467792510986328e-01) (260, -1.70496165752410888672e-01) (261, -3.34491014480590820312e-01) (262, -8.76637324690818786621e-02) (263, -4.55996021628379821777e-02) (264, -2.95501917600631713867e-01) (265, -3.74044209718704223633e-01) (266, -2.42841258645057678223e-01) (267, -1.88215851783752441406e-01) (268, -3.72790157794952392578e-01) (269, -1.63173407316207885742e-01) (270, -5.24206496775150299072e-02) (271, -2.82162100076675415039e-01) (272, -2.04394429922103881836e-01) (273, -2.26293027400970458984e-01) (274, -3.29567998647689819336e-01) (275, -3.30417692661285400391e-01) (276, -1.95171803236007690430e-01) (277, -2.94901132583618164062e-01) (278, -2.47302532196044921875e-01) (279, -2.14800134301185607910e-01) (280, -3.72941315174102783203e-01) (281, -3.58756333589553833008e-01) (282, -2.46409907937049865723e-01) (283, -2.50960856676101684570e-01) (284, -7.36284032464027404785e-02) (285, -3.84617537260055541992e-01) (286, -2.45354413986206054688e-01) (287, -2.35885322093963623047e-01) (288, -3.75392198562622070312e-01) (289, -3.18661391735076904297e-01) (290, -2.54382908344268798828e-01) (291, -1.35693907737731933594e-01) (292, -2.27792069315910339355e-01) (293, -2.43433937430381774902e-01) (294, -4.78363856673240661621e-02) (295, -1.76386654376983642578e-01) (296, -2.41016671061515808105e-01) (297, -1.27696916460990905762e-01) (298, 2.10478529334068298340e-01) (299, -3.36872525513172149658e-02) (300, 4.94170039892196655273e-02) (301, -3.92479330301284790039e-01) (302, -1.23143583536148071289e-01) (303, -3.35348665714263916016e-01) (304, -1.92555218935012817383e-01) (305, -3.19896072149276733398e-01) (306, -2.18809589743614196777e-01) (307, -2.00383722782135009766e-01) (308, -3.12458515167236328125e-01) (309, -2.16210007667541503906e-01) (310, -4.41402316093444824219e-01) (311, -3.68141412734985351562e-01) (312, -3.26307058334350585938e-01) (313, -3.28450165688991546631e-02) (314, -7.46635794639587402344e-02) (315, -4.60242569446563720703e-01) (316, -1.54422551393508911133e-01) (317, 4.60381321609020233154e-02) (318, -3.90048027038574218750e-01) (319, -3.23854237794876098633e-01) (320, -1.86429351568222045898e-01) (321, -2.38704711198806762695e-01) (322, -2.56892621517181396484e-01) (323, -1.85295157134532928467e-02) (324, -1.28302676603198051453e-03) (325, -2.38726615905761718750e-01) (326, -1.94321155548095703125e-01) (327, 2.11670190095901489258e-01) (328, -1.60090222954750061035e-01) (329, -2.69402891397476196289e-01) (330, -1.44238382577896118164e-01) (331, -7.03391358256340026855e-02) (332, -1.52050346136093139648e-01) (333, -3.59284281730651855469e-01) (334, -2.82991807907819747925e-02) (335, 5.50921022891998291016e-01) (336, -1.29854559898376464844e-01) (337, -3.76897990703582763672e-01) (338, -4.78187426924705505371e-02) (339, -1.44845426082611083984e-01) (340, -2.30471163988113403320e-01) (341, -4.12528254091739654541e-02) (342, 2.95515388250350952148e-01) (343, -2.08757847547531127930e-01) (344, -2.09698021411895751953e-01) (345, -1.06770664453506469727e-01) (346, 1.63836255669593811035e-01) (347, -2.77670413255691528320e-01) (348, -2.25170433521270751953e-01) (349, -1.23843856155872344971e-01) (350, -2.18331158161163330078e-01) (351, -2.03261539340019226074e-01) (352, -2.87808090448379516602e-01) (353, 1.60047709941864013672e-01) (354, -3.39239984750747680664e-01) (355, -2.92251318693161010742e-01) (356, -2.19136014580726623535e-01) (357, 1.69142633676528930664e-01) (358, -5.92247769236564636230e-02) (359, 3.33034813404083251953e-01) (360, -1.22485212981700897217e-01) (361, -9.54283922910690307617e-02) (362, -2.51262694597244262695e-01) (363, -5.44375404715538024902e-02) (364, -1.45082175731658935547e-01) (365, -2.82598018646240234375e-01) (366, -2.79815465211868286133e-01) (367, -1.84619203209877014160e-01) (368, -1.54223874211311340332e-01) (369, -1.59500151872634887695e-01) (370, -6.23542405664920806885e-02) (371, -1.68540149927139282227e-01) (372, 5.44220447540283203125e-01) (373, -3.91156256198883056641e-01) (374, -1.13235279917716979980e-01) (375, -1.97017982602119445801e-01) (376, 2.71118730306625366211e-01) (377, -3.78164201974868774414e-01) (378, 1.08084313571453094482e-01) (379, -4.00553286075592041016e-01) (380, -7.03422009944915771484e-01) (381, -1.28290802240371704102e-01) (382, 5.97049057483673095703e-01) (383, -7.27254301309585571289e-02) (384, -2.78745204210281372070e-01) (385, -2.10864707827568054199e-01) (386, 4.13462787866592407227e-01) (387, 4.80941802263259887695e-01) (388, -2.06401064991950988770e-01) (389, -3.20551782846450805664e-01) (390, -4.51694548130035400391e-01) (391, -8.93298149108886718750e-01) (392, -8.22306156158447265625e-01) (393, 8.60633671283721923828e-01) (394, 7.09351152181625366211e-02) (395, -6.44293904304504394531e-01) (396, -5.03758370876312255859e-01) (397, -8.44772815704345703125e-01) (398, -1.10692393779754638672e+00) (399, -5.06300640106201171875e+00) (400, 7.19027593731880187988e-02) (0, 3.92305374145507812500e-01) (1, 1.52966365218162536621e-01) (2, 8.25827538967132568359e-01) (3, 1.75065577030181884766e-01) (4, 4.99217212200164794922e-01) (5, 8.53218972682952880859e-01) (6, 4.75049644708633422852e-01) (7, 2.11827680468559265137e-01) (8, 2.12566956877708435059e-01) (9, 7.93358802795410156250e-01) (10, 1.96222826838493347168e-01) (11, 5.29660105705261230469e-01) (12, -2.70030736923217773438e-01) (13, 4.10921096801757812500e-01) (14, 1.81520864367485046387e-01) (15, 1.84517666697502136230e-01) (16, 8.95594835281372070312e-01) (17, 2.32370480895042419434e-01) (18, 4.06314760446548461914e-01) (19, -2.55427896976470947266e-01) (20, 4.96611952781677246094e-01) (21, -2.38602593541145324707e-01) (22, 1.91726967692375183105e-01) (23, 4.46899503469467163086e-01) (24, 1.33336797356605529785e-01) (25, 4.92128938436508178711e-01) (26, -2.44462326169013977051e-01) (27, 4.98309999704360961914e-01) (28, -3.46694141626358032227e-01) (29, -3.00962299108505249023e-01) (30, 4.92357343435287475586e-01) (31, 1.69808700680732727051e-01) (32, 4.88380014896392822266e-01) (33, 1.23864561319351196289e-01) (34, 2.24856838583946228027e-01) (35, 3.60472470521926879883e-01) (36, 2.01180711388587951660e-01) (37, 4.56314980983734130859e-01) (38, 1.23597957193851470947e-01) (39, 2.94935047626495361328e-01) (40, 2.56383419036865234375e-01) (41, 5.01547813415527343750e-01) (42, 4.23000305891036987305e-01) (43, -3.20877939462661743164e-01) (44, 1.49280399084091186523e-01) (45, 1.51937618851661682129e-01) (46, 2.58563220500946044922e-01) (47, 2.64889359474182128906e-01) (48, 1.45601421594619750977e-01) (49, 3.42148572206497192383e-01) (50, -3.06123763322830200195e-01) (51, -2.25750610232353210449e-01) (52, -8.88945996761322021484e-01) (53, -2.36166551709175109863e-01) (54, -3.11429411172866821289e-01) (55, 2.81545907258987426758e-01) (56, -2.86057859659194946289e-01) (57, -3.55380982160568237305e-01) (58, -2.75062263011932373047e-01) (59, -2.04160928726196289062e-01) (60, -2.56670475006103515625e-01) (61, 3.66678029298782348633e-01) (62, 2.32556477189064025879e-01) (63, -3.00728827714920043945e-01) (64, -3.08784872293472290039e-01) (65, 2.18079403042793273926e-01) (66, 3.23612242937088012695e-01) (67, -2.38248586654663085938e-01) (68, -3.73160690069198608398e-01) (69, 2.00888544321060180664e-01) (70, -2.60500133037567138672e-01) (71, -2.39151179790496826172e-01) (72, -5.49398124217987060547e-01) (73, 2.07273766398429870605e-01) (74, 1.44903525710105895996e-01) (75, -3.20400089025497436523e-01) (76, -1.85462564229965209961e-01) (77, -2.27314740419387817383e-01) (78, -3.77884775400161743164e-01) (79, -3.65172088146209716797e-01) (80, -2.32998073101043701172e-01) (81, 2.20924124121665954590e-01) (82, -1.90411880612373352051e-01) (83, -2.75225758552551269531e-01) (84, -3.38037639856338500977e-01) (85, -3.27694833278656005859e-01) (86, 1.96734651923179626465e-01) (87, -2.33026623725891113281e-01) (88, 2.33601063489913940430e-01) (89, -2.01984047889709472656e-01) (90, 2.68474698066711425781e-01) (91, 1.98187187314033508301e-01) (92, -3.48471522331237792969e-01) (93, 1.78586304187774658203e-01) (94, -4.52004671096801757812e-01) (95, -2.69034475088119506836e-01) (96, -2.54392623901367187500e-01) (97, 4.95415031909942626953e-01) (98, 2.22363024950027465820e-01) (99, -2.27199390530586242676e-01) (100, 8.52591097354888916016e-01) (101, -3.78315925598144531250e-01) (102, -2.76726573705673217773e-01) (103, -3.46594512462615966797e-01) (104, 4.45634812116622924805e-01) (105, 2.74406164884567260742e-01) (106, -2.62165963649749755859e-01) (107, -3.14124703407287597656e-01) (108, -2.94018685817718505859e-01) (109, 2.73927658796310424805e-01) (110, -2.81157076358795166016e-01) (111, 6.05744600296020507812e-01) (112, 3.73778879642486572266e-01) (113, 2.28727027773857116699e-01) (114, -2.36350655555725097656e-01) (115, -3.03226858377456665039e-01) (116, 9.83898520469665527344e-01) (117, -3.59411954879760742188e-01) (118, -3.54489922523498535156e-01) (119, -2.98301458358764648438e-01) (120, 3.57306033372879028320e-01) (121, -2.05541938543319702148e-01) (122, 4.86149549484252929688e-01) (123, 2.26515337824821472168e-01) (124, 1.42687469720840454102e-01) (125, -3.02128553390502929688e-01) (126, 3.22893828153610229492e-01) (127, 5.21568059921264648438e-01) (128, -3.55615645647048950195e-01) (129, -7.53854036331176757812e-01) (130, 2.86538720130920410156e-01) (131, 6.08934462070465087891e-01) (132, -3.07548284530639648438e-01) (133, 1.77248135209083557129e-01) (134, 6.58191978931427001953e-01) (135, -2.14042469859123229980e-01) (136, -6.47501468658447265625e-01) (137, 1.51529669761657714844e-01) (138, -2.53181129693984985352e-01) (139, 2.32799813151359558105e-01) (140, -2.35133081674575805664e-01) (141, 5.06367146968841552734e-01) (142, -2.70413249731063842773e-01) (143, 3.39759320020675659180e-01) (144, -3.32437306642532348633e-01) (145, -2.38669291138648986816e-01) (146, 1.92227885127067565918e-01) (147, -3.45645427703857421875e-01) (148, 2.10484676063060760498e-02) (149, 2.41914004087448120117e-01) (150, 2.82018840312957763672e-01) (151, 2.51489728689193725586e-01) (152, -3.16731035709381103516e-01) (153, 6.17806017398834228516e-01) (154, -2.31069877743721008301e-01) (155, 2.95639615505933761597e-02) (156, 2.78575211763381958008e-01) (157, 7.18861937522888183594e-01) (158, -3.11833202838897705078e-01) (159, -2.22432628273963928223e-01) (160, 5.92997968196868896484e-01) (161, 1.03081531822681427002e-01) (162, 1.52125954627990722656e-01) (163, 2.26606905460357666016e-01) (164, 1.83778837323188781738e-01) (165, 2.21707701683044433594e-01) (166, 6.00718259811401367188e-02) (167, -6.72004222869873046875e-01) (168, 6.98380589485168457031e-01) (169, 2.66056388616561889648e-01) (170, -1.31137028336524963379e-01) (171, 2.26441755890846252441e-01) (172, 2.43335634469985961914e-01) (173, 1.45632699131965637207e-01) (174, 2.40186112932860851288e-03) (175, 3.49228084087371826172e-01) (176, 2.16219693422317504883e-01) (177, -1.05825215578079223633e-01) (178, 1.60298600792884826660e-01) (179, 1.93128436803817749023e-01) (180, 1.20119638741016387939e-01) (181, -6.16615153849124908447e-02) (182, 1.22628360986709594727e-01) (183, 2.50970512628555297852e-01) (184, 1.18395581841468811035e-01) (185, -1.01058709621429443359e+00) (186, -3.25619846582412719727e-01) (187, 2.68995881080627441406e-01) (188, 1.49030104279518127441e-01) (189, -8.88637900352478027344e-01) (190, -2.09629178047180175781e-01) (191, 1.58808037638664245605e-01) (192, -2.91580334305763244629e-04) (193, -2.79497593641281127930e-01) (194, 1.29607677459716796875e-01) (195, 4.08400893211364746094e-01) (196, -7.95746982097625732422e-01) (197, 2.75203734636306762695e-01) (198, 2.27604985237121582031e-01) (199, -5.80497197806835174561e-02) (200, -9.68454658985137939453e-01) (201, 6.68086528778076171875e-01) (202, 5.38267254829406738281e-01) (203, 2.78126806020736694336e-01) (204, 2.37539485096931457520e-01) (205, 3.26784431934356689453e-01) (206, -4.45285961031913757324e-02) (207, 2.41756476461887359619e-02) (208, -1.35953605175018310547e-01) (209, 3.17379355430603027344e-01) (210, 2.87853628396987915039e-01) (211, -2.54597544670104980469e-01) (212, -9.14639607071876525879e-02) (213, 2.67616398632526397705e-02) (214, -1.99150443077087402344e-01) (215, -6.83419525623321533203e-01) (216, -5.76941370964050292969e-01) (217, -1.24455071985721588135e-01) (218, -2.53378689289093017578e-01) (219, 1.73870578408241271973e-01) (220, -5.98979927599430084229e-02) (221, 1.31727471947669982910e-01) (222, -2.23024003207683563232e-03) (223, -2.55784124135971069336e-01) (224, -2.38886177539825439453e-01) (225, 7.11679607629776000977e-02) (226, -5.13998717069625854492e-02) (227, 1.29159912467002868652e-01) (228, 1.10387140884995460510e-02) (229, -1.49278581142425537109e-01) (230, 1.12492457032203674316e-01) (231, -1.46168053150177001953e-01) (232, -2.30603158473968505859e-01) (233, -2.65695005655288696289e-01) (234, 2.73744463920593261719e-01) (235, 1.25932276248931884766e-01) (236, -1.81659206748008728027e-01) (237, -5.78410737216472625732e-02) (238, -3.47321927547454833984e-01) (239, 1.61357913166284561157e-02) (240, 1.66308522224426269531e-01) (241, -4.35499399900436401367e-02) (242, -3.89000400900840759277e-02) (243, -4.24849838018417358398e-01) (244, -4.83742654323577880859e-02) (245, 1.41596898436546325684e-01) (246, -2.98584520816802978516e-01) (247, -1.36395171284675598145e-01) (248, -2.21251830458641052246e-01) (249, -4.78070937097072601318e-02) (250, 8.48739370703697204590e-02) (251, 4.82901126146316528320e-01) (252, 4.78217095136642456055e-01) (253, -1.62401750683784484863e-01) (254, 2.37270608544349670410e-01) (255, -4.16046559810638427734e-01) (256, -3.16266179084777832031e-01) (257, 6.31465792655944824219e-01) (258, 1.04156337678432464600e-01) (259, 3.92478436231613159180e-01) (260, 1.76416242122650146484e+00) (261, -5.52697293460369110107e-02) (262, -1.79291144013404846191e-01) (263, -4.83233854174613952637e-02) (264, 4.57180410623550415039e-01) (265, 1.06791220605373382568e-01) (266, -3.77853512763977050781e-02) (267, -4.57182884216308593750e-01) (268, -6.99370540678501129150e-03) (269, -8.52890033274888992310e-03) (270, 5.54446410387754440308e-03) (271, -6.15248791873455047607e-02) (272, 1.04307723045349121094e+00) (273, 5.77265881001949310303e-02) (274, -2.69699543714523315430e-02) (275, 1.22985746711492538452e-02) (276, -5.44200658798217773438e-01) (277, -3.04075926542282104492e-01) (278, -1.16415321826934814453e-01) (279, 3.40431094169616699219e-01) (280, -1.85436844825744628906e+00) (281, -1.88728794455528259277e-01) (282, -4.96016582474112510681e-04) (283, -9.00827229022979736328e-01) (284, -8.02130043506622314453e-01) (285, -8.98053288459777832031e-01) (286, 3.57372671365737915039e-01) (287, -1.05223059654235839844e+00) (288, 1.67332869023084640503e-02) (289, -4.12201613187789916992e-01) (290, -7.80174732208251953125e-02) (291, -3.46052908897399902344e+00) (292, -1.55042421817779541016e+00) (293, 3.44804413616657257080e-02) (294, 1.14164672791957855225e-01) (295, 1.25240638852119445801e-01) (296, -5.88666558265686035156e-01) (297, 2.05132886767387390137e-02) (298, -1.08894503116607666016e+00) (299, -1.63577005267143249512e-01) (300, -5.10065376758575439453e-01) (301, -5.54998159408569335938e-01) (302, 1.83966457843780517578e-01) (303, -2.88345396518707275391e-01) (304, 6.54076814651489257812e-01) (305, -1.89484044909477233887e-01) (306, -1.53669643402099609375e+00) (307, -1.65477395057678222656e-01) (308, -7.44494318962097167969e-01) (309, -5.33470630645751953125e-01) (310, -4.19107943773269653320e-01) (311, 1.45054519176483154297e-01) (312, 2.31709957122802734375e-01) (313, 5.34873567521572113037e-02) (314, -8.86834785342216491699e-02) (315, -1.92316174507141113281e+00) (316, 1.75734937191009521484e-01) (317, -4.18412089347839355469e-01) (318, 1.50751724839210510254e-01) (319, 3.61300185322761535645e-02) (320, 3.68138141930103302002e-02) (321, 1.64105594158172607422e-01) (322, -3.08009743690490722656e+00) (323, 8.92406627535820007324e-02) (324, 6.16542808711528778076e-02) (325, -3.02255935966968536377e-02) (326, -8.81652235984802246094e-02) (327, 2.90386527776718139648e-01) (328, 9.50449943542480468750e-01) (329, -5.68851754069328308105e-02) (330, -3.41182738542556762695e-01) (331, -4.21272814273834228516e-01) (332, 2.66820400953292846680e-01) (333, 6.15969337522983551025e-02) (334, -1.02952325344085693359e+00) (335, 2.47832328081130981445e-01) (336, -3.76290559768676757812e-01) (337, -2.51681834459304809570e-01) (338, -4.01185452938079833984e-01) (339, 4.90142285823822021484e-01) (340, -2.70028203725814819336e-01) (341, -5.45309424400329589844e-01) (342, 1.27499788999557495117e-01) (343, 1.26781791448593139648e-01) (344, -1.32828047499060630798e-02) (345, -3.26829850673675537109e-01) (346, 7.17481732368469238281e-01) (347, -1.94953799247741699219e-01) (348, -2.48573616147041320801e-01) (349, -5.36512434482574462891e-01) (350, 9.57764029502868652344e-01) (351, 2.04982206225395202637e-01) (352, 6.61676935851573944092e-03) (353, 5.07145747542381286621e-03) (354, -1.92855559289455413818e-02) (355, -2.75931149721145629883e-01) (356, -5.94686008989810943604e-02) (357, 1.74269998073577880859e+00) (358, 6.11851140856742858887e-02) (359, 2.33605772256851196289e-01) (360, -1.42334759235382080078e+00) (361, -1.88465118408203125000e-01) (362, -1.97384670376777648926e-01) (363, -7.69091248512268066406e-01) (364, -4.98887188732624053955e-02) (365, -4.12677377462387084961e-01) (366, 7.83872783184051513672e-01) (367, -1.02067506313323974609e+00) (368, -2.28679534047842025757e-02) (369, -7.11247801780700683594e-01) (370, -9.91555273532867431641e-01) (371, 4.02043573558330535889e-02) (372, -5.10967001318931579590e-02) (373, 2.91260574012994766235e-02) (374, 3.18241715431213378906e-02) (375, 2.10527684539556503296e-02) (376, -8.75446721911430358887e-02) (377, 1.40770524740219116211e-01) (378, -5.32793439924716949463e-02) (379, -1.64202368259429931641e+00) (380, -1.56643581390380859375e+00) (381, -2.12624266743659973145e-01) (382, -1.17910943925380706787e-01) (383, 3.69350045919418334961e-01) (384, -2.56052007898688316345e-03) (385, -1.12213182449340820312e+01) (386, -2.79852077364921569824e-02) (387, -1.60721147060394287109e+00) (388, -2.27799519896507263184e-01) (389, -6.41699361801147460938e+00) (390, 3.04824233055114746094e-01) (391, -7.47349977493286132812e-01) (392, -4.83137512207031250000e+00) (393, -3.88453626632690429688e+00) (394, -4.08491283655166625977e-01) (395, -5.30306935310363769531e-01) (396, -5.10820686817169189453e-01) (397, -1.45641818642616271973e-01) (398, -2.92040258646011352539e-01) (399, -1.99212753772735595703e+00) (400, -2.44868934154510498047e-01) (0, -3.20884972810745239258e-01) (1, 1.74956351518630981445e-01) (2, -7.13418960571289062500e-01) (3, -3.68279874324798583984e-01) (4, 2.32528671622276306152e-01) (5, -4.95254874229431152344e-01) (6, -6.14327073097229003906e-01) (7, -1.23129218816757202148e-01) (8, -4.71329204738140106201e-02) (9, -8.78255963325500488281e-01) (10, -1.80321216583251953125e+00) (11, 9.31197777390480041504e-02) (12, -3.28768253326416015625e-01) (13, -5.41465044021606445312e-01) (14, -1.57638445496559143066e-01) (15, -2.29396056383848190308e-02) (16, -2.20638409256935119629e-01) (17, -1.55326175689697265625e+00) (18, -5.94323039054870605469e-01) (19, -1.79347738623619079590e-01) (20, -1.37815892696380615234e+00) (21, -7.50240921974182128906e-01) (22, -2.35690519213676452637e-01) (23, -6.02076649665832519531e-01) (24, -2.23140287399291992188e+00) (25, -1.64110553264617919922e+00) (26, -4.77115720510482788086e-01) (27, -6.84939861297607421875e-01) (28, -8.00245940685272216797e-01) (29, 1.78308859467506408691e-01) (30, 1.82248547673225402832e-01) (31, -5.56973934173583984375e-01) (32, -8.53624463081359863281e-01) (33, 2.74495273828506469727e-01) (34, -5.59452474117279052734e-01) (35, -1.74013897776603698730e-01) (36, -3.23770105838775634766e-01) (37, 1.06592416763305664062e-01) (38, -5.29887139797210693359e-01) (39, -3.01819115877151489258e-01) (40, -2.52713024616241455078e-01) (41, -1.38935789465904235840e-01) (42, -1.99174776673316955566e-01) (43, 4.22095879912376403809e-02) (44, 5.76834440231323242188e-01) (45, -2.87851572036743164062e-01) (46, -3.44883233308792114258e-01) (47, -2.14245855808258056641e-01) (48, -2.73382097482681274414e-01) (49, 4.01881664991378784180e-01) (50, -1.31210014224052429199e-01) (51, 1.32851600646972656250e-01) (52, -3.39343398809432983398e-01) (53, -2.51443505287170410156e-01) (54, -6.86582565307617187500e-01) (55, -4.85467433929443359375e-01) (56, -1.76849588751792907715e-01) (57, -6.38477087020874023438e-01) (58, -4.76068966090679168701e-02) (59, -1.36994743347167968750e+00) (60, 1.69906944036483764648e-01) (61, -5.10169804096221923828e-01) (62, 1.91521018743515014648e-01) (63, -7.00334385037422180176e-02) (64, 1.26043602824211120605e-01) (65, -5.64641952514648437500e-01) (66, -9.55423638224601745605e-02) (67, -7.94051051139831542969e-01) (68, -5.52859783172607421875e-01) (69, 2.14407071471214294434e-01) (70, -4.82689701020717620850e-02) (71, 1.62284299731254577637e-01) (72, -4.51375424861907958984e-01) (73, -1.03800803422927856445e-01) (74, -5.55045485496520996094e-01) (75, -3.79576603882014751434e-03) (76, 1.62261903285980224609e-01) (77, -1.37513980269432067871e-01) (78, 1.62923306226730346680e-01) (79, -2.46393620967864990234e-01) (80, -3.80307972431182861328e-01) (81, 1.37667462229728698730e-01) (82, -3.38752597570419311523e-01) (83, 2.36644938588142395020e-01) (84, 1.48830749094486236572e-02) (85, -4.79858338832855224609e-01) (86, 2.08264384418725967407e-02) (87, -5.00845313072204589844e-01) (88, -2.55776822566986083984e-01) (89, 1.11584258079528808594e+00) (90, -3.91566246747970581055e-01) (91, -6.77560389041900634766e-01) (92, -3.58599573373794555664e-01) (93, -1.39114499092102050781e-01) (94, -2.93370962142944335938e-01) (95, -3.11119526624679565430e-01) (96, -1.24242447316646575928e-01) (97, -9.48361158370971679688e-01) (98, -1.15010988712310791016e+00) (99, -1.55746296048164367676e-01) (100, -1.01146972179412841797e+00) (101, -2.78298646211624145508e-01) (102, -4.58607643842697143555e-01) (103, 1.01678408682346343994e-01) (104, -7.03778982162475585938e-01) (105, -1.07268588617444038391e-02) (106, -1.38635993003845214844e+00) (107, -3.06569874286651611328e-01) (108, -1.07792520523071289062e+00) (109, 2.22197577357292175293e-01) (110, -4.26618635654449462891e-01) (111, -7.16049611568450927734e-01) (112, -3.33564132452011108398e-01) (113, -6.62207961082458496094e-01) (114, -4.50378626585006713867e-01) (115, -3.34319889545440673828e-01) (116, -1.03770089149475097656e+00) (117, -6.47520363330841064453e-01) (118, -7.25198507308959960938e-01) (119, 1.32560625672340393066e-01) (120, -2.55435079336166381836e-01) (121, -2.87234932184219360352e-01) (122, -1.15427589416503906250e+00) (123, -1.51022911071777343750e+00) (124, -6.51501476764678955078e-01) (125, -5.48373937606811523438e-01) (126, -3.70888143777847290039e-01) (127, -9.08366560935974121094e-01) (128, -8.58976662158966064453e-01) (129, -1.09831357002258300781e+00) (130, -3.07572782039642333984e-01) (131, -8.14288973808288574219e-01) (132, -2.69888520240783691406e-01) (133, -1.05530083179473876953e+00) (134, -6.77320897579193115234e-01) (135, -5.66559553146362304688e-01) (136, -8.70420455932617187500e-01) (137, -5.55842742323875427246e-02) (138, -6.32694423198699951172e-01) (139, -3.45237284898757934570e-01) (140, -5.16077220439910888672e-01) (141, -3.33209633827209472656e-01) (142, -1.34377419948577880859e+00) (143, -3.83549004793167114258e-01) (144, -1.41626334190368652344e+00) (145, -2.56539613008499145508e-01) (146, -7.12843894958496093750e-01) (147, -8.34568381309509277344e-01) (148, -9.04503166675567626953e-02) (149, -6.30844473838806152344e-01) (150, -3.75612407922744750977e-01) (151, -7.63530015945434570312e-01) (152, -2.68044859170913696289e-01) (153, -7.36792206764221191406e-01) (154, -1.21644544601440429688e+00) (155, -7.00753569602966308594e-01) (156, -9.31337699294090270996e-02) (157, -1.22721648216247558594e+00) (158, -9.23366725444793701172e-01) (159, -1.32451251149177551270e-01) (160, -1.61756247282028198242e-01) (161, -4.83019304275512695312e+00) (162, -1.12972557544708251953e+00) (163, -6.07282249256968498230e-03) (164, -8.96164774894714355469e-01) (165, -8.15339565277099609375e-01) (166, -8.96562576293945312500e-01) (167, -9.15282145142555236816e-02) (168, -1.25412869453430175781e+00) (169, -1.68985918164253234863e-01) (170, -1.06612443923950195312e+00) (171, -4.65262264013290405273e-01) (172, -1.27485513687133789062e+00) (173, -1.08990240097045898438e+00) (174, -2.28747203946113586426e-01) (175, -7.00364470481872558594e-01) (176, -6.74579262733459472656e-01) (177, -4.25756216049194335938e-01) (178, -5.53543329238891601562e-01) (179, -2.43441998958587646484e-01) (180, -4.72777396440505981445e-01) (181, -1.42540782690048217773e-01) (182, -2.03291714191436767578e-01) (183, -2.72237539291381835938e-01) (184, 3.40916365385055541992e-02) (185, -4.42569822072982788086e-01) (186, 1.09829559922218322754e-01) (187, -4.88312393426895141602e-01) (188, -7.74412304162979125977e-02) (189, -1.66192400455474853516e+00) (190, 9.26232784986495971680e-02) (191, -1.61065626144409179688e+00) (192, -1.49678830057382583618e-02) (193, -1.97875410318374633789e-01) (194, 2.58511245250701904297e-01) (195, -1.26498192548751831055e-01) (196, -5.54639339447021484375e-01) (197, -4.15598899126052856445e-01) (198, -2.67574071884155273438e-01) (199, -1.90027922391891479492e-01) (200, -7.51543819904327392578e-01) (201, -1.39812737703323364258e-01) (202, -3.24882239103317260742e-01) (203, -2.54406481981277465820e-01) (204, -7.66780376434326171875e-01) (205, -6.63980066776275634766e-01) (206, -1.96256548166275024414e-01) (207, -1.04174919426441192627e-01) (208, -8.77700805664062500000e-01) (209, -1.67246624827384948730e-01) (210, -8.87526273727416992188e-02) (211, 7.29102939367294311523e-02) (212, -2.56755471229553222656e-01) (213, -2.12423980236053466797e-01) (214, -4.80387300252914428711e-01) (215, -4.41529244184494018555e-01) (216, -2.29926392436027526855e-01) (217, -9.39349383115768432617e-02) (218, -6.01579733192920684814e-02) (219, -3.02118062973022460938e-01) (220, -1.02040052413940429688e-01) (221, -4.82539623975753784180e-01) (222, -1.19997836649417877197e-01) (223, -6.89150154590606689453e-01) (224, -2.28235065937042236328e-01) (225, 4.74940612912178039551e-02) (226, -4.32020485401153564453e-01) (227, -1.43748238682746887207e-01) (228, 4.29623275995254516602e-02) (229, 3.44681084156036376953e-01) (230, -3.86382967233657836914e-01) (231, 9.99929904937744140625e-02) (232, -6.92008137702941894531e-02) (233, -1.66555032134056091309e-01) (234, -3.55448573827743530273e-01) (235, 3.05296033620834350586e-01) (236, -3.25407832860946655273e-01) (237, 2.94197481125593185425e-02) (238, 9.07514989376068115234e-01) (239, -1.20327286422252655029e-01) (240, -7.39184498786926269531e-01) (241, -2.26815521717071533203e-01) (242, -1.98638468980789184570e-01) (243, -1.92568451166152954102e-01) (244, 1.04464039206504821777e-01) (245, 4.75446999073028564453e-01) (246, 1.80135041475296020508e-01) (247, 1.65473595261573791504e-01) (248, 8.71853530406951904297e-01) (249, -5.06779700517654418945e-02) (250, 2.24086657166481018066e-01) (251, -4.72720354795455932617e-01) (252, -2.38382384181022644043e-01) (253, -1.40225142240524291992e-02) (254, 7.91170895099639892578e-01) (255, 6.61786049604415893555e-02) (256, 1.40466421842575073242e-01) (257, 3.11225920915603637695e-01) (258, -1.07349395751953125000e-01) (259, -3.59627425670623779297e-01) (260, 1.62267193198204040527e-01) (261, 6.11968755722045898438e-01) (262, 1.92846164107322692871e-01) (263, 2.71248966455459594727e-01) (264, -4.94896806776523590088e-02) (265, 2.93405801057815551758e-01) (266, -8.35794061422348022461e-02) (267, 7.76704668998718261719e-01) (268, 1.18884913623332977295e-01) (269, 3.02124321460723876953e-01) (270, 4.45745170116424560547e-01) (271, -1.45102131366729736328e+00) (272, 4.71691757440567016602e-01) (273, -5.10674901306629180908e-02) (274, 3.08194756507873535156e-02) (275, -9.15948972105979919434e-02) (276, 6.22610867023468017578e-01) (277, 5.04001677036285400391e-01) (278, -1.52010142803192138672e-01) (279, 4.38909381628036499023e-01) (280, 1.01108223199844360352e-01) (281, 5.48984766006469726562e-01) (282, -2.00458467006683349609e-01) (283, 3.80153119564056396484e-01) (284, 2.91930347681045532227e-01) (285, 2.93943643569946289062e-01) (286, -7.02816486358642578125e-01) (287, 1.68907120823860168457e-01) (288, 2.72894740104675292969e-01) (289, 2.77721554040908813477e-01) (290, 6.23290836811065673828e-01) (291, 4.50599014759063720703e-01) (292, 6.55037462711334228516e-01) (293, -1.77462622523307800293e-01) (294, 4.59720581769943237305e-01) (295, -3.25176596641540527344e-01) (296, 6.06175482273101806641e-01) (297, 3.33818197250366210938e-01) (298, 5.22757649421691894531e-01) (299, 4.88441973924636840820e-01) (300, 2.76930898427963256836e-01) (301, 3.94504964351654052734e-01) (302, -2.12162420153617858887e-01) (303, 3.32479566335678100586e-01) (304, 3.45916986465454101562e-01) (305, 6.67584955692291259766e-01) (306, 3.31614077091217041016e-01) (307, 3.94237875938415527344e-01) (308, 3.43035042285919189453e-01) (309, 9.01854634284973144531e-01) (310, -5.96290975809097290039e-02) (311, 2.56278604269027709961e-01) (312, 5.60867846012115478516e-01) (313, 3.73918950557708740234e-01) (314, 6.19473576545715332031e-01) (315, 1.78426027297973632812e-01) (316, 6.81972026824951171875e-01) (317, 6.12663440406322479248e-02) (318, 4.01406288146972656250e-01) (319, 5.76221942901611328125e-01) (320, 2.82110005617141723633e-01) (321, 6.85215115547180175781e-01) (322, 5.96447706222534179688e-01) (323, 6.79293513298034667969e-01) (324, 6.21010959148406982422e-01) (325, 5.49744606018066406250e-01) (326, 1.06984579563140869141e+00) (327, 3.70406270027160644531e-01) (328, 1.75804245471954345703e+00) (329, 3.00414294004440307617e-01) (330, 1.06736385822296142578e+00) (331, 1.00034129619598388672e+00) (332, 2.99965113401412963867e-01) (333, 3.85066628456115722656e-01) (334, -5.60756251215934753418e-02) (335, 9.41524803638458251953e-01) (336, 6.89706265926361083984e-01) (337, 4.89451646804809570312e-01) (338, 1.45334160327911376953e+00) (339, 7.20971822738647460938e-01) (340, 4.88203428685665130615e-02) (341, 1.54742896556854248047e-01) (342, 5.22687733173370361328e-01) (343, 6.23107731342315673828e-01) (344, 6.88928484916687011719e-01) (345, 2.11739969253540039062e+00) (346, 5.53742051124572753906e-01) (347, 2.53337800502777099609e-01) (348, 2.97577828168869018555e-01) (349, 3.38306713104248046875e+00) (350, 1.26303732395172119141e+00) (351, 5.61126530170440673828e-01) (352, 2.25105836987495422363e-01) (353, 1.19983077049255371094e+00) (354, 6.32145762443542480469e-01) (355, 1.53192013502120971680e-01) (356, 5.32638370990753173828e-01) (357, 6.64165794849395751953e-01) (358, 2.19220280647277832031e+00) (359, 3.06819415092468261719e+00) (360, 4.00256544351577758789e-01) (361, 3.48137497901916503906e-01) (362, 5.74985682964324951172e-01) (363, 1.24037349224090576172e+00) (364, 7.28144168853759765625e-01) (365, 2.43008565902709960938e+00) (366, 2.25521039962768554688e+00) (367, -1.99798715114593505859e+00) (368, 2.00387239456176757812e+00) (369, 1.54891431331634521484e+00) (370, 1.35524916648864746094e+00) (371, 4.66418206691741943359e-01) (372, 1.14486150741577148438e+01) (373, 6.01103425025939941406e-01) (374, 1.77315199375152587891e+00) (375, 1.41774785518646240234e+00) (376, 1.18936860561370849609e+00) (377, 9.09946680068969726562e-01) (378, 6.93869209289550781250e+00) (379, 3.80013580322265625000e+01) (380, 2.74609661102294921875e+00) (381, 3.92425274848937988281e+00) (382, 4.67395216226577758789e-01) (383, 3.04813480377197265625e+00) (384, 7.46015906333923339844e-01) (385, 5.68637514114379882812e+00) (386, 6.69183063507080078125e+00) (387, 8.39533329010009765625e+00) (388, 2.46330356597900390625e+00) (389, 7.67893075942993164062e+00) (390, 8.71015667915344238281e-01) (391, 9.13183307647705078125e+00) (392, 1.82954368591308593750e+01) (393, 3.02750539779663085938e+00) (394, 7.16546154022216796875e+00) (395, 9.51041126251220703125e+00) (396, 1.20150489807128906250e+01) (397, 1.04012632369995117188e+00) (398, 3.53047418594360351562e+00) (399, 1.39732770919799804688e+01) (400, -1.24656952917575836182e-01) (0, 1.54790212400257587433e-03) (1, 5.69186881184577941895e-02) (2, 3.39025139808654785156e-01) (3, 3.50419491529464721680e-01) (4, 4.49882656335830688477e-01) (5, 1.57085284590721130371e-01) (6, 3.71178656816482543945e-01) (7, 1.09889529645442962646e-01) (8, 9.94796864688396453857e-05) (9, 5.06529808044433593750e-01) (10, 3.92355799674987792969e-01) (11, 4.71124321222305297852e-01) (12, 1.77863910794258117676e-01) (13, 4.74677473306655883789e-01) (14, 3.71918715536594390869e-02) (15, 1.35456740856170654297e-01) (16, 3.97543340921401977539e-01) (17, 2.13775798678398132324e-01) (18, -3.19391041994094848633e-02) (19, 1.13694056868553161621e-01) (20, 3.17034900188446044922e-01) (21, 2.56769023835659027100e-02) (22, 4.24504131078720092773e-02) (23, 7.11365044116973876953e-02) (24, 4.16073113679885864258e-01) (25, 4.65072929859161376953e-01) (26, 1.42522841691970825195e-01) (27, 2.68064290285110473633e-01) (28, 6.41239210963249206543e-02) (29, 4.22425195574760437012e-02) (30, -1.70377537608146667480e-01) (31, 4.33098465204238891602e-01) (32, 8.89736488461494445801e-02) (33, -2.09187958389520645142e-02) (34, -1.29248693585395812988e-01) (35, 2.84959197044372558594e-01) (36, 5.30467405915260314941e-02) (37, -2.14346066117286682129e-01) (38, -4.61845174431800842285e-02) (39, -1.36640742421150207520e-01) (40, -2.54105925559997558594e-02) (41, -7.31993675231933593750e-01) (42, -9.41584408283233642578e-02) (43, 9.72587093710899353027e-02) (44, 3.43388587236404418945e-01) (45, 2.65312194824218750000e-02) (46, 9.99625697731971740723e-02) (47, -3.60670238733291625977e-02) (48, 5.51910605281591415405e-04) (49, 3.42338234186172485352e-01) (50, 3.99615734815597534180e-01) (51, 3.60177874565124511719e-01) (52, -9.84532013535499572754e-03) (53, 2.36952126026153564453e-01) (54, 2.78913546353578567505e-02) (55, 1.34817147627472877502e-02) (56, 3.69014799594879150391e-01) (57, 3.61587643623352050781e-01) (58, 4.27343875169754028320e-01) (59, -1.95351317524909973145e-01) (60, 1.53486832976341247559e-01) (61, -5.36667509004473686218e-03) (62, 3.16712737083435058594e-01) (63, 3.34144562482833862305e-01) (64, 5.28560578823089599609e-01) (65, -9.79506894946098327637e-02) (66, 2.42628365755081176758e-01) (67, 3.17979335784912109375e-01) (68, -4.40297760069370269775e-02) (69, 6.75090551376342773438e-02) (70, 2.96097457408905029297e-01) (71, 4.18993949890136718750e-01) (72, 3.25340889394283294678e-02) (73, 6.33424296975135803223e-02) (74, 3.38263392448425292969e-01) (75, 4.29058223962783813477e-02) (76, -1.38154074549674987793e-01) (77, 2.15123564004898071289e-01) (78, 4.89622175693511962891e-01) (79, -9.05732363462448120117e-02) (80, 2.62788441032171249390e-02) (81, 1.30042701959609985352e-01) (82, 2.91858971118927001953e-01) (83, -2.26285442709922790527e-01) (84, -1.92126736044883728027e-01) (85, 9.15717110037803649902e-02) (86, -3.20191793143749237061e-02) (87, -4.78959679603576660156e-02) (88, 9.91504862904548645020e-02) (89, 4.23834294080734252930e-01) (90, -5.88811561465263366699e-02) (91, 2.24503111094236373901e-02) (92, 6.10286779701709747314e-02) (93, -1.23120725154876708984e-01) (94, -2.24911600351333618164e-01) (95, 4.32437628507614135742e-01) (96, 3.01207363605499267578e-01) (97, -2.75566633790731430054e-02) (98, 1.47292315959930419922e-01) (99, -3.35254371166229248047e-01) (100, 1.00851401686668395996e-01) (101, -2.82289460301399230957e-02) (102, 2.23198011517524719238e-01) (103, 2.78592228889465332031e-01) (104, 1.78790628910064697266e-01) (105, -1.30619788169860839844e+00) (106, -2.97868043184280395508e-01) (107, -7.49558508396148681641e-02) (108, 2.60509680956602096558e-02) (109, 3.16639333963394165039e-01) (110, 4.19114023447036743164e-01) (111, -3.07739304844290018082e-04) (112, 5.12731134891510009766e-01) (113, -3.98107767105102539062e-02) (114, 1.09605848789215087891e-01) (115, -4.94643561542034149170e-02) (116, 4.82280313968658447266e-01) (117, -2.65145059674978256226e-02) (118, -4.13604825735092163086e-02) (119, -4.15745586156845092773e-01) (120, -6.04092851281166076660e-02) (121, 3.84498625993728637695e-01) (122, 2.46485546231269836426e-01) (123, 4.55759972333908081055e-01) (124, 4.90575358271598815918e-02) (125, 1.53534382581710815430e-01) (126, -8.78368020057678222656e-02) (127, -8.74965488910675048828e-02) (128, 6.82582035660743713379e-02) (129, 1.78020402789115905762e-01) (130, -6.58850744366645812988e-02) (131, -2.66206890344619750977e-01) (132, 1.07116281986236572266e-01) (133, -5.09597137570381164551e-02) (134, 2.69686639308929443359e-01) (135, 9.23537537455558776855e-02) (136, -4.12802398204803466797e-01) (137, -4.17301148176193237305e-01) (138, -6.54398679733276367188e-01) (139, 1.01059190928936004639e-01) (140, -3.71313023567199707031e+00) (141, 2.08552554249763488770e-01) (142, -2.76167201995849609375e+00) (143, 3.45680862665176391602e-01) (144, -4.32596027851104736328e-01) (145, -1.47903203964233398438e-01) (146, -7.91211545467376708984e-01) (147, -5.66689968109130859375e-02) (148, 4.64033447206020355225e-02) (149, -3.62540602684020996094e+00) (150, 7.88303986191749572754e-02) (151, -1.66338610649108886719e+00) (152, -4.76367413997650146484e-01) (153, -6.18008315563201904297e-01) (154, -4.58998632431030273438e+00) (155, 3.41714583337306976318e-02) (156, 1.32656358182430267334e-02) (157, 1.51064068078994750977e-01) (158, -4.59787368774414062500e+00) (159, 3.85353006422519683838e-02) (160, 1.06780817732214927673e-02) (161, -1.25847049057483673096e-02) (162, 2.71067827939987182617e-01) (163, 2.19016045331954956055e-01) (164, 2.17477262020111083984e-01) (165, 3.51035863161087036133e-01) (166, 2.30616122484207153320e-01) (167, -8.67508277297019958496e-02) (168, 2.37564772367477416992e-01) (169, 1.46773532032966613770e-01) (170, -1.58242166042327880859e-01) (171, -2.18418147414922714233e-02) (172, 1.16412855684757232666e-01) (173, 2.17458114027976989746e-01) (174, 2.79364794492721557617e-01) (175, 2.46865421533584594727e-01) (176, 2.72880733013153076172e-01) (177, 2.88804233074188232422e-01) (178, 3.82984429597854614258e-01) (179, 1.40535369515419006348e-01) (180, 4.79806810617446899414e-01) (181, 1.40715166926383972168e-01) (182, -3.60339641571044921875e-01) (183, 3.27659279108047485352e-01) (184, 4.67044055461883544922e-01) (185, 3.64116400480270385742e-01) (186, -3.30139249563217163086e-01) (187, 3.55416417121887207031e-01) (188, 3.84444236755371093750e-01) (189, 1.99703499674797058105e-01) (190, 1.05952136218547821045e-01) (191, 3.13128471374511718750e-01) (192, 2.40161702036857604980e-01) (193, -3.40537995100021362305e-01) (194, 3.03231447935104370117e-01) (195, 3.17923039197921752930e-01) (196, 1.47544011473655700684e-01) (197, 1.89602911472320556641e-01) (198, 3.26993554830551147461e-01) (199, 2.80333578586578369141e-01) (200, 2.26372942328453063965e-01) (201, -7.47984349727630615234e-02) (202, 2.76671946048736572266e-01) (203, 2.22686469554901123047e-01) (204, 2.32083588838577270508e-01) (205, 3.65731298923492431641e-01) (206, 3.24237883090972900391e-01) (207, 3.87515306472778320312e-01) (208, 3.24725538492202758789e-01) (209, 3.30603986978530883789e-01) (210, 2.08909973502159118652e-01) (211, -4.20900471508502960205e-02) (212, 3.76583784818649291992e-01) (213, 1.75724223256111145020e-01) (214, 3.58945578336715698242e-01) (215, 1.16182662546634674072e-01) (216, -1.66354089975357055664e-01) (217, 2.58401721715927124023e-01) (218, 7.76963904500007629395e-02) (219, 2.36143901944160461426e-01) (220, 2.82940506935119628906e-01) (221, 1.35753467679023742676e-01) (222, 4.25403639674186706543e-02) (223, 2.00802609324455261230e-01) (224, 1.58255193382501602173e-02) (225, -2.17276126146316528320e-01) (226, 2.44325056672096252441e-01) (227, 3.58763605356216430664e-01) (228, -1.20318181812763214111e-01) (229, 2.21597980707883834839e-02) (230, 1.84686616063117980957e-01) (231, -3.58557142317295074463e-02) (232, -1.96410000324249267578e-01) (233, 6.22721761465072631836e-02) (234, -1.13756909966468811035e-01) (235, -1.00303821265697479248e-01) (236, 3.76282888464629650116e-03) (237, 6.28174468874931335449e-02) (238, -9.18427035212516784668e-02) (239, -1.08099766075611114502e-01) (240, 1.38650104403495788574e-01) (241, -3.24105918407440185547e-01) (242, -3.04709583520889282227e-01) (243, -6.69707283377647399902e-02) (244, 1.13171637058258056641e-01) (245, 2.91810601949691772461e-01) (246, -8.62249266356229782104e-03) (247, 1.54521986842155456543e-01) (248, 4.55928891897201538086e-02) (249, 9.66307893395423889160e-02) (250, 1.64906933903694152832e-01) (251, 2.24096506834030151367e-01) (252, 1.36096522212028503418e-01) (253, -1.09976710518822073936e-04) (254, 9.84952151775360107422e-02) (255, 1.11041709780693054199e-01) (256, -3.32372798584401607513e-03) (257, 2.22103175474330782890e-04) (258, 7.26186707615852355957e-02) (259, 4.11421865224838256836e-01) (260, 1.31455481052398681641e-01) (261, 1.95143088698387145996e-01) (262, 1.73550657927989959717e-02) (263, -4.41330932080745697021e-02) (264, 8.07028561830520629883e-02) (265, -6.62703812122344970703e-02) (266, 3.27971279621124267578e-01) (267, 8.50385613739490509033e-03) (268, 7.52862915396690368652e-02) (269, -5.08323125541210174561e-02) (270, 1.80169269442558288574e-01) (271, -8.07079434394836425781e-01) (272, -7.13898167014122009277e-02) (273, 1.27624675631523132324e-01) (274, 1.12583257257938385010e-01) (275, -5.63874393701553344727e-02) (276, 2.10693910717964172363e-01) (277, -1.23912468552589416504e-02) (278, 5.01047894358634948730e-02) (279, -5.65788522362709045410e-02) (280, 1.24935008585453033447e-01) (281, 1.35864853858947753906e-01) (282, -1.46417040377855300903e-02) (283, 1.97714641690254211426e-01) (284, 1.45778087899088859558e-02) (285, 6.28425851464271545410e-02) (286, -1.16179129108786582947e-02) (287, 2.21076998859643936157e-02) (288, -1.96472462266683578491e-02) (289, -7.90002465248107910156e-01) (290, -4.43456042557954788208e-03) (291, 2.07035481929779052734e-01) (292, 6.41779229044914245605e-02) (293, 1.03446088731288909912e-01) (294, 2.60281073860824108124e-03) (295, 1.62317916750907897949e-01) (296, -4.25180830061435699463e-02) (297, 1.80269047617912292480e-01) (298, 1.28123732283711433411e-02) (299, -9.15648862719535827637e-02) (300, 1.35411441326141357422e-01) (301, 8.05407762527465820312e-02) (302, 2.08500266075134277344e-01) (303, 1.20220221579074859619e-01) (304, 1.61887526512145996094e-01) (305, -1.04109726846218109131e-01) (306, 1.15830406546592712402e-01) (307, 1.49111911654472351074e-01) (308, -1.75643656402826309204e-02) (309, 1.54485464096069335938e-01) (310, -5.68565838038921356201e-02) (311, 3.59785817563533782959e-02) (312, 1.08665987849235534668e-01) (313, 1.60105049610137939453e-01) (314, 3.76621782779693603516e-01) (315, -2.87830308079719543457e-02) (316, 1.23726651072502136230e-01) (317, 5.04487216472625732422e-01) (318, 1.78640540689229965210e-02) (319, 1.34140327572822570801e-01) (320, 3.42333048582077026367e-01) (321, 1.48923084139823913574e-01) (322, 1.19265057146549224854e-01) (323, -1.96039840579032897949e-01) (324, 2.41851702332496643066e-01) (325, -3.90393212437629699707e-02) (326, 7.66820535063743591309e-02) (327, 8.61761346459388732910e-02) (328, 3.08355450630187988281e-01) (329, -1.98425054550170898438e-02) (330, 2.71400008350610733032e-02) (331, 1.45440086722373962402e-01) (332, 7.45546668767929077148e-02) (333, 2.50265181064605712891e-01) (334, 2.45975796133279800415e-02) (335, 2.86433458328247070312e-01) (336, 1.33645400404930114746e-01) (337, -6.20834976434707641602e-02) (338, 6.11137785017490386963e-02) (339, 2.32523202896118164062e-01) (340, -4.11293394863605499268e-02) (341, 1.62564501166343688965e-01) (342, 1.50438666343688964844e-01) (343, 2.73597627878189086914e-01) (344, 5.45645728707313537598e-02) (345, 8.35048854351043701172e-02) (346, -3.58534953556954860687e-03) (347, 1.33446604013442993164e-01) (348, -2.78161346912384033203e-01) (349, 3.65873396396636962891e-01) (350, 1.15553751587867736816e-01) (351, 1.72952145338058471680e-01) (352, 1.12056083977222442627e-01) (353, -2.12043579667806625366e-02) (354, 8.07590782642364501953e-02) (355, -1.16334944963455200195e-01) (356, 1.19065058231353759766e+00) (357, 2.56148010492324829102e-01) (358, -4.39436845481395721436e-02) (359, 1.24352082610130310059e-01) (360, 2.19192206859588623047e-01) (361, 8.70900601148605346680e-02) (362, -2.60602521896362304688e+00) (363, 5.04876554012298583984e-01) (364, -1.52342356741428375244e-02) (365, 9.00516733527183532715e-02) (366, 5.07525764405727386475e-02) (367, 3.09366613626480102539e-01) (368, 1.12308673560619354248e-01) (369, -1.18768839165568351746e-02) (370, -1.63738340139389038086e-01) (371, 1.71060204505920410156e-01) (372, -9.22354280948638916016e-01) (373, 2.57592558860778808594e-01) (374, 1.25922366976737976074e-01) (375, 6.36966153979301452637e-02) (376, -1.13977156579494476318e-01) (377, -1.21748477220535278320e-01) (378, 9.43185910582542419434e-02) (379, -9.77516055107116699219e-01) (380, -1.88819214701652526855e-01) (381, 2.34005898237228393555e-02) (382, 2.05656066536903381348e-01) (383, -3.13494838774204254150e-02) (384, 2.46560081839561462402e-01) (385, 1.13178789615631103516e+00) (386, 2.07133144140243530273e-01) (387, -7.52723038196563720703e-01) (388, -4.55028325319290161133e-01) (389, -3.30112516880035400391e-01) (390, 1.03299647569656372070e-01) (391, -1.70684862136840820312e+00) (392, -4.77871268987655639648e-01) (393, -2.23876500129699707031e+00) (394, -5.29249727725982666016e-01) (395, -1.86070175170898437500e+01) (396, 1.58457815647125244141e+00) (397, 5.51368832588195800781e-01) (398, -4.56533336639404296875e+00) (399, 3.36564445495605468750e+00) (400, 1.21104016900062561035e-01) (0, 2.64596915245056152344e+00) (1, 2.55650615692138671875e+00) (2, 1.94519734382629394531e+00) (3, 4.85283517837524414062e+00) (4, 4.75957822799682617188e+00) (5, 5.41476917266845703125e+00) (6, 9.90922451019287109375e+00) (7, 8.29710083007812500000e+01) (8, 2.68474435806274414062e+00) (9, 4.31559896469116210938e+00) (10, 2.22291278839111328125e+00) (11, 1.40564222335815429688e+01) (12, 2.54920101165771484375e+00) (13, 4.03672142028808593750e+01) (14, 8.28838653564453125000e+01) (15, 2.42182397842407226562e+00) (16, 4.04174957275390625000e+01) (17, 3.58264923095703125000e+01) (18, 8.33208274841308593750e+00) (19, 2.66192245483398437500e+00) (20, 8.29778289794921875000e+01) (21, 8.28940734863281250000e+01) (22, 2.66547727584838867188e+00) (23, 1.73789680004119873047e+00) (24, 3.58039169311523437500e+01) (25, 8.23634433746337890625e+00) (26, 3.27675318717956542969e+00) (27, 4.80991601943969726562e+00) (28, 1.97559799194335937500e+02) (29, 1.08806276321411132812e+01) (30, 1.17286653518676757812e+01) (31, 8.30181274414062500000e+01) (32, 8.28575286865234375000e+01) (33, 8.29130554199218750000e+01) (34, 5.06975364685058593750e+01) (35, 1.97752914428710937500e+02) (36, 8.30280303955078125000e+01) (37, 3.53371429443359375000e+01) (38, 8.28681640625000000000e+01) (39, 8.30234527587890625000e+01) (40, 8.29066772460937500000e+01) (41, 8.28986358642578125000e+01) (42, 1.97651046752929687500e+02) (43, 8.29665374755859375000e+01) (44, 3.53868789672851562500e+01) (45, 8.28686523437500000000e+01) (46, 8.30305938720703125000e+01) (47, 8.29201660156250000000e+01) (48, 8.29788818359375000000e+01) (49, 5.10820655822753906250e+01) (50, 8.28927612304687500000e+01) (51, 8.29120025634765625000e+01) (52, 5.07612342834472656250e+01) (53, 1.20897872924804687500e+02) (54, 1.97489273071289062500e+02) (55, 2.18201751708984375000e+01) (56, 5.11640739440917968750e+01) (57, 5.10047645568847656250e+01) (58, 8.29893951416015625000e+01) (59, 5.07777671813964843750e+01) (60, 1.20979217529296875000e+02) (61, 6.89065265655517578125e+00) (62, 5.09213981628417968750e+01) (63, 1.20992050170898437500e+02) (64, 5.09383125305175781250e+01) (65, 5.08317985534667968750e+01) (66, 1.21078704833984375000e+02) (67, 1.97578842163085937500e+02) (68, 5.10326881408691406250e+01) (69, 1.97694747924804687500e+02) (70, 1.97757583618164062500e+02) (71, 1.97556137084960937500e+02) (72, 1.97468826293945312500e+02) (73, 1.20840133666992187500e+02) (74, 1.20855590820312500000e+02) (75, 1.97633407592773437500e+02) (76, 1.20864074707031250000e+02) (77, 1.21041488647460937500e+02) (78, 1.20716293334960937500e+02) (79, 1.97420639038085937500e+02) (80, 1.20834625244140625000e+02) (81, 1.20934555053710937500e+02) (82, 1.20865539550781250000e+02) (83, 1.97469741821289062500e+02) (84, 1.20818344116210937500e+02) (85, 5.09335899353027343750e+01) (86, 1.20747711181640625000e+02) (87, 2.16685943603515625000e+01) (88, 1.97647018432617187500e+02) (89, 1.97485000610351562500e+02) (90, 1.97405685424804687500e+02) (91, 1.20548568725585937500e+02) (92, 1.97466018676757812500e+02) (93, 1.97408370971679687500e+02) (94, 1.97450698852539062500e+02) (95, 1.97595260620117187500e+02) (96, 5.08125190734863281250e+01) (97, 1.97375869750976562500e+02) (98, 9.27711200714111328125e+00) (99, 1.97319564819335937500e+02) (100, 5.05140647888183593750e+01) (101, 1.20847824096679687500e+02) (102, 1.20787063598632812500e+02) (103, 1.20845092773437500000e+02) (104, 1.20814270019531250000e+02) (105, 1.20667205810546875000e+02) (106, 9.22320938110351562500e+00) (107, 1.20673095703125000000e+02) (108, 5.04381294250488281250e+01) (109, 1.20854873657226562500e+02) (110, 9.14019489288330078125e+00) (111, 1.20625778198242187500e+02) (112, 5.05188560485839843750e+01) (113, 1.60242748260498046875e+00) (114, 1.20599441528320312500e+02) (115, 2.13032264709472656250e+01) (116, 8.24054718017578125000e+01) (117, 3.47205734252929687500e+01) (118, 2.12768249511718750000e+01) (119, 1.97399673461914062500e+02) (120, 3.92125749588012695312e+00) (121, 5.03219261169433593750e+01) (122, 9.19471263885498046875e+00) (123, 1.67506885528564453125e+00) (124, 1.67381548881530761719e+00) (125, 9.14934444427490234375e+00) (126, 9.19425964355468750000e+00) (127, 3.88554811477661132812e+00) (128, 1.69951844215393066406e+00) (129, 1.65710473060607910156e+00) (130, 1.69289898872375488281e+00) (131, 1.48083662986755371094e+00) (132, 1.63124823570251464844e+00) (133, 1.60629057884216308594e+00) (134, 3.88574075698852539062e+00) (135, 9.10147953033447265625e+00) (136, 1.73139858245849609375e+00) (137, 6.13377809524536132812e+00) (138, 1.48550868034362792969e+00) (139, 1.65411448478698730469e+00) (140, 6.11497449874877929688e+00) (141, 1.55840134620666503906e+00) (142, 2.48272895812988281250e+00) (143, 2.62350320816040039062e+00) (144, 2.56810617446899414062e+00) (145, 1.59512257575988769531e+00) (146, 2.64002990722656250000e+00) (147, 1.42100262641906738281e+00) (148, 1.97577224731445312500e+02) (149, 1.35731911659240722656e+00) (150, 2.48689556121826171875e+00) (151, 1.45196609497070312500e+01) (152, 6.10677766799926757812e+00) (153, 2.61430549621582031250e+00) (154, 2.55895376205444335938e+00) (155, 2.79383134841918945312e+00) (156, 2.67901802062988281250e+00) (157, 2.45125055313110351562e+00) (158, 2.57665443420410156250e+00) (159, 1.48651771545410156250e+01) (160, 6.26559972763061523438e+00) (161, 2.71455526351928710938e+00) (162, 2.69828128814697265625e+00) (163, 1.46592903137207031250e+01) (164, 2.34851765632629394531e+00) (165, 1.44525890350341796875e+01) (166, 8.30772705078125000000e+01) (167, 2.67382287979125976562e+00) (168, 2.31713366508483886719e+00) (169, 3.44790649414062500000e+01) (170, 5.98737287521362304688e+00) (171, 2.70040130615234375000e+00) (172, 2.74660301208496093750e+00) (173, 2.62415075302124023438e+00) (174, 6.36996889114379882812e+00) (175, 6.36077356338500976562e+00) (176, 2.44694519042968750000e+00) (177, 2.59781312942504882812e+00) (178, 2.68077039718627929688e+00) (179, 1.46481304168701171875e+01) (180, 1.65518879890441894531e+00) (181, 1.47777881622314453125e+01) (182, 6.25230073928833007812e+00) (183, 2.77520513534545898438e+00) (184, 3.45006179809570312500e+01) (185, 2.73064327239990234375e+00) (186, 3.49017562866210937500e+01) (187, 2.72649955749511718750e+00) (188, 1.47920150756835937500e+01) (189, 1.46838998794555664062e+00) (190, 8.26665344238281250000e+01) (191, 1.42418456077575683594e+00) (192, 3.49584159851074218750e+01) (193, 6.18053770065307617188e+00) (194, 6.16336870193481445312e+00) (195, 6.28476762771606445312e+00) (196, 1.34902548789978027344e+00) (197, 8.28155212402343750000e+01) (198, 7.52257466316223144531e-01) (199, 6.27139711380004882812e+00) (200, 8.07747840881347656250e-01) (201, 3.45103569030761718750e+01) (202, 2.71496534347534179688e+00) (203, 1.84137225151062011719e+00) (204, 1.45623073577880859375e+01) (205, 2.67274856567382812500e+00) (206, 1.46330127716064453125e+01) (207, 3.51801414489746093750e+01) (208, 2.86293411254882812500e+00) (209, 1.93152832984924316406e+00) (210, 2.85652303695678710938e+00) (211, 6.52171182632446289062e+00) (212, 2.80303335189819335938e+00) (213, 1.93436288833618164062e+00) (214, 8.81692111492156982422e-01) (215, 1.86631083488464355469e+00) (216, 2.77843332290649414062e+00) (217, 1.16813755035400390625e+00) (218, 2.11416387557983398438e+00) (219, 1.45828266143798828125e+01) (220, 1.92926955223083496094e+00) (221, 1.39295840263366699219e+00) (222, 4.85905313491821289062e+00) (223, 6.48809003829956054688e+00) (224, 1.33081996440887451172e+00) (225, 2.21786236763000488281e+00) (226, 4.30989599227905273438e+00) (227, 4.17475652694702148438e+00) (228, 3.49035720825195312500e+01) (229, 8.32939300537109375000e+01) (230, 8.28297729492187500000e+01) (231, 2.23759913444519042969e+00) (232, 2.22695636749267578125e+00) (233, 1.75737476348876953125e+00) (234, 2.88876962661743164062e+00) (235, 8.34521026611328125000e+01) (236, 1.14537835121154785156e+00) (237, 9.79286479949951171875e+00) (238, 4.89637565612792968750e+00) (239, 8.76354873180389404297e-01) (240, 1.33478248119354248047e+00) (241, 8.27446746826171875000e+01) (242, 2.26524567604064941406e+00) (243, 3.14755773544311523438e+00) (244, 2.19770393371582031250e+01) (245, 1.54089355468750000000e+01) (246, 9.95245361328125000000e+00) (247, 9.79219818115234375000e+00) (248, 6.64880981445312500000e+02) (249, 6.65807771682739257812e+00) (250, 9.67503929138183593750e+00) (251, 1.75671780109405517578e+00) (252, 8.27424163818359375000e+01) (253, 7.05455350875854492188e+00) (254, 9.86266803741455078125e+00) (255, 9.79687213897705078125e+00) (256, 1.21736785888671875000e+02) (257, 2.70944070816040039062e+00) (258, 4.71955013275146484375e+00) (259, 8.04717481136322021484e-01) (260, 4.89978361129760742188e+00) (261, 4.89650011062622070312e+00) (262, 4.79474258422851562500e+00) (263, 1.21700561523437500000e+02) (264, 1.73438143730163574219e+00) (265, 9.76472663879394531250e+00) (266, 4.86197471618652343750e+00) (267, 5.99058654785156250000e+02) (268, 1.67165982723236083984e+00) (269, 9.87856388092041015625e+00) (270, 3.54800720214843750000e+01) (271, 1.72247123718261718750e+00) (272, 2.72305965423583984375e+00) (273, 4.75398683547973632812e+00) (274, 4.25015014648437500000e+02) (275, 4.63599443435668945312e+00) (276, 1.23812362670898437500e+02) (277, 5.26022605895996093750e+01) (278, 2.21594543457031250000e+01) (279, 2.20148658752441406250e+01) (280, 5.25432548522949218750e+01) (281, 4.26251556396484375000e+02) (282, 2.72410964965820312500e+00) (283, 1.99537857055664062500e+02) (284, 5.26296501159667968750e+01) (285, 2.25625877380371093750e+01) (286, 1.22308654785156250000e+02) (287, 5.26109886169433593750e+01) (288, 1.99537490844726562500e+02) (289, 1.23846801757812500000e+02) (290, 6.64804687500000000000e+02) (291, 1.23789001464843750000e+02) (292, 5.26306495666503906250e+01) (293, 2.42512664794921875000e+01) (294, 5.25409584045410156250e+01) (295, 4.89253520965576171875e+00) (296, 1.23784698486328125000e+02) (297, 5.24834403991699218750e+01) (298, 5.25377693176269531250e+01) (299, 5.26307258605957031250e+01) (300, 1.22902359008789062500e+02) (301, 5.25962181091308593750e+01) (302, 5.26388893127441406250e+01) (303, 5.99091003417968750000e+02) (304, 5.26307106018066406250e+01) (305, 5.25702171325683593750e+01) (306, 4.98428392410278320312e+00) (307, 2.35435256958007812500e+01) (308, 1.14353008270263671875e+01) (309, 2.36160278320312500000e+01) (310, 2.92063781738281250000e+02) (311, 5.25603675842285156250e+01) (312, 2.92011749267578125000e+02) (313, 1.21951629638671875000e+02) (314, 5.24986000061035156250e+01) (315, 3.29746651649475097656e+00) (316, 5.25131721496582031250e+01) (317, 5.24408149719238281250e+01) (318, 6.31779575347900390625e+00) (319, 5.26510276794433593750e+01) (320, 5.24167747497558593750e+01) (321, 1.55660843849182128906e+00) (322, 1.11498203277587890625e+01) (323, 5.26034278869628906250e+01) (324, 1.22033004760742187500e+02) (325, 1.24252700805664062500e+02) (326, 5.25764732360839843750e+01) (327, 4.57702684402465820312e+00) (328, 2.40697708129882812500e+01) (329, 2.36078453063964843750e+01) (330, 1.23857849121093750000e+02) (331, 7.62369441986083984375e+00) (332, 5.25550956726074218750e+01) (333, 2.35971870422363281250e+01) (334, 1.16478691101074218750e+01) (335, 8.44341125488281250000e+01) (336, 5.25184288024902343750e+01) (337, 1.23802612304687500000e+02) (338, 5.26026725769042968750e+01) (339, 1.21970764160156250000e+02) (340, 5.28443193435668945312e+00) (341, 5.25481147766113281250e+01) (342, 4.02812576293945312500e+01) (343, 1.22105148315429687500e+02) (344, 3.56403388977050781250e+01) (345, 2.36104278564453125000e+01) (346, 5.25153236389160156250e+01) (347, -3.38074159622192382812e+00) (348, 1.23829116821289062500e+02) (349, 2.34653129577636718750e+01) (350, 2.00411209106445312500e+02) (351, 2.23883209228515625000e+01) (352, 2.52196388244628906250e+01) (353, 9.54880237579345703125e+00) (354, 3.98523116111755371094e+00) (355, 3.30790209770202636719e+00) (356, 5.99135925292968750000e+02) (357, 4.83063507080078125000e+00) (358, 3.82016601562500000000e+01) (359, 4.26676368713378906250e+00) (360, 5.99086120605468750000e+02) (361, -1.80919609069824218750e+01) (362, 2.68165168762207031250e+01) (363, 5.99163513183593750000e+02) (364, 1.62970256805419921875e+01) (365, 4.32175331115722656250e+01) (366, 8.87546386718750000000e+01) (367, 5.99129821777343750000e+02) (368, 6.64279270172119140625e+00) (369, 2.95278442382812500000e+02) (370, 5.98987670898437500000e+02) (371, 2.69557418823242187500e+01) (372, 9.05212463378906250000e+02) (373, 1.21666586399078369141e+00) (374, 6.64809936523437500000e+02) (375, 1.19706811904907226562e+01) (376, 5.99089660644531250000e+02) (377, 4.29487609863281250000e+01) (378, 6.64843200683593750000e+02) (379, 7.09219787597656250000e+02) (380, 8.39487060546875000000e+02) (381, 6.64961181640625000000e+02) (382, 2.51856857299804687500e+02) (383, 6.64892089843750000000e+02) (384, -9.20475158691406250000e+01) (385, 6.64835754394531250000e+02) (386, 9.05263427734375000000e+02) (387, 8.39558044433593750000e+02) (388, 6.64791381835937500000e+02) (389, 5.99022521972656250000e+02) (390, 6.64859741210937500000e+02) (391, 9.05328979492187500000e+02) (392, 8.39414855957031250000e+02) (393, 9.05293273925781250000e+02) (394, 9.05320800781250000000e+02) (395, 9.05332214355468750000e+02) (396, 4.65164764404296875000e+02) (397, 8.39543151855468750000e+02) (398, 9.05290405273437500000e+02) (399, 4.16169586181640625000e+02) (400, 5.44656324386596679688e+00) (0, 4.92433339357376098633e-01) (1, 3.99799466133117675781e-01) (2, 2.45279282331466674805e-01) (3, 2.61579573154449462891e-01) (4, 4.10155266523361206055e-01) (5, -1.98482364416122436523e-01) (6, -2.08408579230308532715e-01) (7, 3.34590077400207519531e-01) (8, -1.08600962162017822266e+00) (9, 1.15163594484329223633e-01) (10, 3.65210980176925659180e-01) (11, 6.58964872360229492188e-01) (12, -1.46982455253601074219e+00) (13, 8.70432704687118530273e-02) (14, 2.78564602136611938477e-01) (15, -1.74589872360229492188e+00) (16, 1.71409800648689270020e-01) (17, 4.91067945957183837891e-01) (18, 3.16185057163238525391e-01) (19, -6.59878104925155639648e-02) (20, 2.20192834734916687012e-01) (21, 6.93454146385192871094e-01) (22, -2.19565164297819137573e-02) (23, 5.80416340380907058716e-03) (24, 2.10765391588211059570e-01) (25, -2.79275439679622650146e-02) (26, 1.70902520418167114258e-01) (27, 2.15118035674095153809e-01) (28, 6.37477338314056396484e-02) (29, -1.88891198486089706421e-02) (30, 3.53900671005249023438e-01) (31, 3.36325198411941528320e-01) (32, 5.20891368389129638672e-01) (33, 2.70363539457321166992e-01) (34, 2.64117658138275146484e-01) (35, 2.82565448433160781860e-02) (36, 2.31653183698654174805e-01) (37, 8.10612916946411132812e-01) (38, 7.34735727310180664062e-01) (39, 5.42121008038520812988e-03) (40, -2.74704188108444213867e-01) (41, 4.01146322488784790039e-01) (42, -8.42028856277465820312e-02) (43, 3.50483357906341552734e-01) (44, 6.60185456275939941406e-01) (45, 6.24533295631408691406e-01) (46, -9.30312395095825195312e-01) (47, -1.84199377894401550293e-01) (48, 5.46837210655212402344e-01) (49, 3.13316941261291503906e-01) (50, 2.30356469750404357910e-01) (51, 4.50228184461593627930e-01) (52, -5.46986460685729980469e-01) (53, -1.92477500438690185547e+00) (54, -2.68729639053344726562e+00) (55, 1.32570862770080566406e-01) (56, 2.05230936408042907715e-01) (57, 