FANN_FLO_2.1
num_layers=4
learning_rate=0.700000
connection_rate=1.000000
network_type=0
learning_momentum=0.000000
training_algorithm=2
train_error_function=1
train_stop_function=0
cascade_output_change_fraction=0.010000
quickprop_decay=-0.000100
quickprop_mu=1.750000
rprop_increase_factor=1.200000
rprop_decrease_factor=0.500000
rprop_delta_min=0.000000
rprop_delta_max=50.000000
rprop_delta_zero=0.100000
cascade_output_stagnation_epochs=12
cascade_candidate_change_fraction=0.010000
cascade_candidate_stagnation_epochs=12
cascade_max_out_epochs=150
cascade_min_out_epochs=50
cascade_max_cand_epochs=150
cascade_min_cand_epochs=50
cascade_num_candidate_groups=2
bit_fail_limit=3.49999994039535522461e-01
cascade_candidate_limit=1.00000000000000000000e+03
cascade_weight_multiplier=4.00000005960464477539e-01
cascade_activation_functions_count=10
cascade_activation_functions=3 5 7 8 10 11 14 15 16 17 
cascade_activation_steepnesses_count=4
cascade_activation_steepnesses=2.50000000000000000000e-01 5.00000000000000000000e-01 7.50000000000000000000e-01 1.00000000000000000000e+00 
layer_sizes=401 201 201 7 
scale_included=0
neurons (num_inputs, activation_function, activation_steepness)=(0, 0, 0.00000000000000000000e+00) (0, 0, 0.00000000000000000000e+00) (0, 0, 0.00000000000000000000e+00) (0, 0, 0.00000000000000000000e+00) (0, 0, 0.00000000000000000000e+00) (0, 0, 0.00000000000000000000e+00) (0, 0, 0.00000000000000000000e+00) (0, 0, 0.00000000000000000000e+00) (0, 0, 0.00000000000000000000e+00) (0, 0, 0.00000000000000000000e+00) (0, 0, 0.00000000000000000000e+00) (0, 0, 0.00000000000000000000e+00) (0, 0, 0.00000000000000000000e+00) (0, 0, 0.00000000000000000000e+00) (0, 0, 0.00000000000000000000e+00) (0, 0, 0.00000000000000000000e+00) (0, 0, 0.00000000000000000000e+00) (0, 0, 0.00000000000000000000e+00) (0, 0, 0.00000000000000000000e+00) (0, 0, 0.00000000000000000000e+00) (0, 0, 0.00000000000000000000e+00) (0, 0, 0.00000000000000000000e+00) (0, 0, 0.00000000000000000000e+00) (0, 0, 0.00000000000000000000e+00) (0, 0, 0.00000000000000000000e+00) (0, 0, 0.00000000000000000000e+00) (0, 0, 0.00000000000000000000e+00) (0, 0, 0.00000000000000000000e+00) (0, 0, 0.00000000000000000000e+00) (0, 0, 0.00000000000000000000e+00) (0, 0, 0.00000000000000000000e+00) (0, 0, 0.00000000000000000000e+00) (0, 0, 0.00000000000000000000e+00) (0, 0, 0.00000000000000000000e+00) (0, 0, 0.00000000000000000000e+00) (0, 0, 0.00000000000000000000e+00) (0, 0, 0.00000000000000000000e+00) (0, 0, 0.00000000000000000000e+00) (0, 0, 0.00000000000000000000e+00) (0, 0, 0.00000000000000000000e+00) (0, 0, 0.00000000000000000000e+00) (0, 0, 0.00000000000000000000e+00) (0, 0, 0.00000000000000000000e+00) (0, 0, 0.00000000000000000000e+00) (0, 0, 0.00000000000000000000e+00) (0, 0, 0.00000000000000000000e+00) (0, 0, 0.00000000000000000000e+00) (0, 0, 0.00000000000000000000e+00) (0, 0, 0.00000000000000000000e+00) (0, 0, 0.00000000000000000000e+00) (0, 0, 0.00000000000000000000e+00) (0, 0, 0.00000000000000000000e+00) (0, 0, 0.00000000000000000000e+00) (0, 0, 0.00000000000000000000e+00) (0, 0, 0.00000000000000000000e+00) (0, 0, 0.00000000000000000000e+00) (0, 0, 0.00000000000000000000e+00) (0, 0, 0.00000000000000000000e+00) (0, 0, 0.00000000000000000000e+00) (0, 0, 0.00000000000000000000e+00) (0, 0, 0.00000000000000000000e+00) (0, 0, 0.00000000000000000000e+00) (0, 0, 0.00000000000000000000e+00) (0, 0, 0.00000000000000000000e+00) (0, 0, 0.00000000000000000000e+00) (0, 0, 0.00000000000000000000e+00) (0, 0, 0.00000000000000000000e+00) (0, 0, 0.00000000000000000000e+00) (0, 0, 0.00000000000000000000e+00) (0, 0, 0.00000000000000000000e+00) (0, 0, 0.00000000000000000000e+00) (0, 0, 0.00000000000000000000e+00) (0, 0, 0.00000000000000000000e+00) (0, 0, 0.00000000000000000000e+00) (0, 0, 0.00000000000000000000e+00) (0, 0, 0.00000000000000000000e+00) (0, 0, 0.00000000000000000000e+00) (0, 0, 0.00000000000000000000e+00) (0, 0, 0.00000000000000000000e+00) (0, 0, 0.00000000000000000000e+00) (0, 0, 0.00000000000000000000e+00) (0, 0, 0.00000000000000000000e+00) (0, 0, 0.00000000000000000000e+00) (0, 0, 0.00000000000000000000e+00) (0, 0, 0.00000000000000000000e+00) (0, 0, 0.00000000000000000000e+00) (0, 0, 0.00000000000000000000e+00) (0, 0, 0.00000000000000000000e+00) (0, 0, 0.00000000000000000000e+00) (0, 0, 0.00000000000000000000e+00) (0, 0, 0.00000000000000000000e+00) (0, 0, 0.00000000000000000000e+00) (0, 0, 0.00000000000000000000e+00) (0, 0, 0.00000000000000000000e+00) (0, 0, 0.00000000000000000000e+00) (0, 0, 0.00000000000000000000e+00) (0, 0, 0.00000000000000000000e+00) (0, 0, 0.00000000000000000000e+00) (0, 0, 0.00000000000000000000e+00) (0, 0, 0.00000000000000000000e+00) (0, 0, 0.00000000000000000000e+00) (0, 0, 0.00000000000000000000e+00) (0, 0, 0.00000000000000000000e+00) (0, 0, 0.00000000000000000000e+00) (0, 0, 0.00000000000000000000e+00) (0, 0, 0.00000000000000000000e+00) (0, 0, 0.00000000000000000000e+00) (0, 0, 0.00000000000000000000e+00) (0, 0, 0.00000000000000000000e+00) (0, 0, 0.00000000000000000000e+00) (0, 0, 0.00000000000000000000e+00) (0, 0, 0.00000000000000000000e+00) (0, 0, 0.00000000000000000000e+00) (0, 0, 0.00000000000000000000e+00) (0, 0, 0.00000000000000000000e+00) (0, 0, 0.00000000000000000000e+00) (0, 0, 0.00000000000000000000e+00) (0, 0, 0.00000000000000000000e+00) (0, 0, 0.00000000000000000000e+00) (0, 0, 0.00000000000000000000e+00) (0, 0, 0.00000000000000000000e+00) (0, 0, 0.00000000000000000000e+00) (0, 0, 0.00000000000000000000e+00) (0, 0, 0.00000000000000000000e+00) (0, 0, 0.00000000000000000000e+00) (0, 0, 0.00000000000000000000e+00) (0, 0, 0.00000000000000000000e+00) (0, 0, 0.00000000000000000000e+00) (0, 0, 0.00000000000000000000e+00) (0, 0, 0.00000000000000000000e+00) (0, 0, 0.00000000000000000000e+00) (0, 0, 0.00000000000000000000e+00) (0, 0, 0.00000000000000000000e+00) (0, 0, 0.00000000000000000000e+00) (0, 0, 0.00000000000000000000e+00) (0, 0, 0.00000000000000000000e+00) (0, 0, 0.00000000000000000000e+00) (0, 0, 0.00000000000000000000e+00) (0, 0, 0.00000000000000000000e+00) (0, 0, 0.00000000000000000000e+00) (0, 0, 0.00000000000000000000e+00) (0, 0, 0.00000000000000000000e+00) (0, 0, 0.00000000000000000000e+00) (0, 0, 0.00000000000000000000e+00) (0, 0, 0.00000000000000000000e+00) (0, 0, 0.00000000000000000000e+00) (0, 0, 0.00000000000000000000e+00) (0, 0, 0.00000000000000000000e+00) (0, 0, 0.00000000000000000000e+00) (0, 0, 0.00000000000000000000e+00) (0, 0, 0.00000000000000000000e+00) (0, 0, 0.00000000000000000000e+00) (0, 0, 0.00000000000000000000e+00) (0, 0, 0.00000000000000000000e+00) (0, 0, 0.00000000000000000000e+00) (0, 0, 0.00000000000000000000e+00) (0, 0, 0.00000000000000000000e+00) (0, 0, 0.00000000000000000000e+00) (0, 0, 0.00000000000000000000e+00) (0, 0, 0.00000000000000000000e+00) (0, 0, 0.00000000000000000000e+00) (0, 0, 0.00000000000000000000e+00) (0, 0, 0.00000000000000000000e+00) (0, 0, 0.00000000000000000000e+00) (0, 0, 0.00000000000000000000e+00) (0, 0, 0.00000000000000000000e+00) (0, 0, 0.00000000000000000000e+00) (0, 0, 0.00000000000000000000e+00) (0, 0, 0.00000000000000000000e+00) (0, 0, 0.00000000000000000000e+00) (0, 0, 0.00000000000000000000e+00) (0, 0, 0.00000000000000000000e+00) (0, 0, 0.00000000000000000000e+00) (0, 0, 0.00000000000000000000e+00) (0, 0, 0.00000000000000000000e+00) (0, 0, 0.00000000000000000000e+00) (0, 0, 0.00000000000000000000e+00) (0, 0, 0.00000000000000000000e+00) (0, 0, 0.00000000000000000000e+00) (0, 0, 0.00000000000000000000e+00) (0, 0, 0.00000000000000000000e+00) (0, 0, 0.00000000000000000000e+00) (0, 0, 0.00000000000000000000e+00) (0, 0, 0.00000000000000000000e+00) (0, 0, 0.00000000000000000000e+00) (0, 0, 0.00000000000000000000e+00) (0, 0, 0.00000000000000000000e+00) (0, 0, 0.00000000000000000000e+00) (0, 0, 0.00000000000000000000e+00) (0, 0, 0.00000000000000000000e+00) (0, 0, 0.00000000000000000000e+00) (0, 0, 0.00000000000000000000e+00) (0, 0, 0.00000000000000000000e+00) (0, 0, 0.00000000000000000000e+00) (0, 0, 0.00000000000000000000e+00) (0, 0, 0.00000000000000000000e+00) (0, 0, 0.00000000000000000000e+00) (0, 0, 0.00000000000000000000e+00) (0, 0, 0.00000000000000000000e+00) (0, 0, 0.00000000000000000000e+00) (0, 0, 0.00000000000000000000e+00) (0, 0, 0.00000000000000000000e+00) (0, 0, 0.00000000000000000000e+00) (0, 0, 0.00000000000000000000e+00) (0, 0, 0.00000000000000000000e+00) (0, 0, 0.00000000000000000000e+00) (0, 0, 0.00000000000000000000e+00) (0, 0, 0.00000000000000000000e+00) (0, 0, 0.00000000000000000000e+00) (0, 0, 0.00000000000000000000e+00) (0, 0, 0.00000000000000000000e+00) (0, 0, 0.00000000000000000000e+00) (0, 0, 0.00000000000000000000e+00) (0, 0, 0.00000000000000000000e+00) (0, 0, 0.00000000000000000000e+00) (0, 0, 0.00000000000000000000e+00) (0, 0, 0.00000000000000000000e+00) (0, 0, 0.00000000000000000000e+00) (0, 0, 0.00000000000000000000e+00) (0, 0, 0.00000000000000000000e+00) (0, 0, 0.00000000000000000000e+00) (0, 0, 0.00000000000000000000e+00) (0, 0, 0.00000000000000000000e+00) (0, 0, 0.00000000000000000000e+00) (0, 0, 0.00000000000000000000e+00) (0, 0, 0.00000000000000000000e+00) (0, 0, 0.00000000000000000000e+00) (0, 0, 0.00000000000000000000e+00) (0, 0, 0.00000000000000000000e+00) (0, 0, 0.00000000000000000000e+00) (0, 0, 0.00000000000000000000e+00) (0, 0, 0.00000000000000000000e+00) (0, 0, 0.00000000000000000000e+00) (0, 0, 0.00000000000000000000e+00) (0, 0, 0.00000000000000000000e+00) (0, 0, 0.00000000000000000000e+00) (0, 0, 0.00000000000000000000e+00) (0, 0, 0.00000000000000000000e+00) (0, 0, 0.00000000000000000000e+00) (0, 0, 0.00000000000000000000e+00) (0, 0, 0.00000000000000000000e+00) (0, 0, 0.00000000000000000000e+00) (0, 0, 0.00000000000000000000e+00) (0, 0, 0.00000000000000000000e+00) (0, 0, 0.00000000000000000000e+00) (0, 0, 0.00000000000000000000e+00) (0, 0, 0.00000000000000000000e+00) (0, 0, 0.00000000000000000000e+00) (0, 0, 0.00000000000000000000e+00) (0, 0, 0.00000000000000000000e+00) (0, 0, 0.00000000000000000000e+00) (0, 0, 0.00000000000000000000e+00) (0, 0, 0.00000000000000000000e+00) (0, 0, 0.00000000000000000000e+00) (0, 0, 0.00000000000000000000e+00) (0, 0, 0.00000000000000000000e+00) (0, 0, 0.00000000000000000000e+00) (0, 0, 0.00000000000000000000e+00) (0, 0, 0.00000000000000000000e+00) (0, 0, 0.00000000000000000000e+00) (0, 0, 0.00000000000000000000e+00) (0, 0, 0.00000000000000000000e+00) (0, 0, 0.00000000000000000000e+00) (0, 0, 0.00000000000000000000e+00) (0, 0, 0.00000000000000000000e+00) (0, 0, 0.00000000000000000000e+00) (0, 0, 0.00000000000000000000e+00) (0, 0, 0.00000000000000000000e+00) (0, 0, 0.00000000000000000000e+00) (0, 0, 0.00000000000000000000e+00) (0, 0, 0.00000000000000000000e+00) (0, 0, 0.00000000000000000000e+00) (0, 0, 0.00000000000000000000e+00) (0, 0, 0.00000000000000000000e+00) (0, 0, 0.00000000000000000000e+00) (0, 0, 0.00000000000000000000e+00) (0, 0, 0.00000000000000000000e+00) (0, 0, 0.00000000000000000000e+00) (0, 0, 0.00000000000000000000e+00) (0, 0, 0.00000000000000000000e+00) (0, 0, 0.00000000000000000000e+00) (0, 0, 0.00000000000000000000e+00) (0, 0, 0.00000000000000000000e+00) (0, 0, 0.00000000000000000000e+00) (0, 0, 0.00000000000000000000e+00) (0, 0, 0.00000000000000000000e+00) (0, 0, 0.00000000000000000000e+00) (0, 0, 0.00000000000000000000e+00) (0, 0, 0.00000000000000000000e+00) (0, 0, 0.00000000000000000000e+00) (0, 0, 0.00000000000000000000e+00) (0, 0, 0.00000000000000000000e+00) (0, 0, 0.00000000000000000000e+00) (0, 0, 0.00000000000000000000e+00) (0, 0, 0.00000000000000000000e+00) (0, 0, 0.00000000000000000000e+00) (0, 0, 0.00000000000000000000e+00) (0, 0, 0.00000000000000000000e+00) (0, 0, 0.00000000000000000000e+00) (0, 0, 0.00000000000000000000e+00) (0, 0, 0.00000000000000000000e+00) (0, 0, 0.00000000000000000000e+00) (0, 0, 0.00000000000000000000e+00) (0, 0, 0.00000000000000000000e+00) (0, 0, 0.00000000000000000000e+00) (0, 0, 0.00000000000000000000e+00) (0, 0, 0.00000000000000000000e+00) (0, 0, 0.00000000000000000000e+00) (0, 0, 0.00000000000000000000e+00) (0, 0, 0.00000000000000000000e+00) (0, 0, 0.00000000000000000000e+00) (0, 0, 0.00000000000000000000e+00) (0, 0, 0.00000000000000000000e+00) (0, 0, 0.00000000000000000000e+00) (0, 0, 0.00000000000000000000e+00) (0, 0, 0.00000000000000000000e+00) (0, 0, 0.00000000000000000000e+00) (0, 0, 0.00000000000000000000e+00) (0, 0, 0.00000000000000000000e+00) (0, 0, 0.00000000000000000000e+00) (0, 0, 0.00000000000000000000e+00) (0, 0, 0.00000000000000000000e+00) (0, 0, 0.00000000000000000000e+00) (0, 0, 0.00000000000000000000e+00) (0, 0, 0.00000000000000000000e+00) (0, 0, 0.00000000000000000000e+00) (0, 0, 0.00000000000000000000e+00) (0, 0, 0.00000000000000000000e+00) (0, 0, 0.00000000000000000000e+00) (0, 0, 0.00000000000000000000e+00) (0, 0, 0.00000000000000000000e+00) (0, 0, 0.00000000000000000000e+00) (0, 0, 0.00000000000000000000e+00) (0, 0, 0.00000000000000000000e+00) (0, 0, 0.00000000000000000000e+00) (0, 0, 0.00000000000000000000e+00) (0, 0, 0.00000000000000000000e+00) (0, 0, 0.00000000000000000000e+00) (0, 0, 0.00000000000000000000e+00) (0, 0, 0.00000000000000000000e+00) (0, 0, 0.00000000000000000000e+00) (0, 0, 0.00000000000000000000e+00) (0, 0, 0.00000000000000000000e+00) (0, 0, 0.00000000000000000000e+00) (0, 0, 0.00000000000000000000e+00) (0, 0, 0.00000000000000000000e+00) (0, 0, 0.00000000000000000000e+00) (0, 0, 0.00000000000000000000e+00) (0, 0, 0.00000000000000000000e+00) (0, 0, 0.00000000000000000000e+00) (0, 0, 0.00000000000000000000e+00) (0, 0, 0.00000000000000000000e+00) (0, 0, 0.00000000000000000000e+00) (0, 0, 0.00000000000000000000e+00) (0, 0, 0.00000000000000000000e+00) (0, 0, 0.00000000000000000000e+00) (0, 0, 0.00000000000000000000e+00) (0, 0, 0.00000000000000000000e+00) (0, 0, 0.00000000000000000000e+00) (0, 0, 0.00000000000000000000e+00) (0, 0, 0.00000000000000000000e+00) (0, 0, 0.00000000000000000000e+00) (0, 0, 0.00000000000000000000e+00) (0, 0, 0.00000000000000000000e+00) (0, 0, 0.00000000000000000000e+00) (0, 0, 0.00000000000000000000e+00) (0, 0, 0.00000000000000000000e+00) (0, 0, 0.00000000000000000000e+00) (0, 0, 0.00000000000000000000e+00) (0, 0, 0.00000000000000000000e+00) (0, 0, 0.00000000000000000000e+00) (0, 0, 0.00000000000000000000e+00) (0, 0, 0.00000000000000000000e+00) (0, 0, 0.00000000000000000000e+00) (0, 0, 0.00000000000000000000e+00) (0, 0, 0.00000000000000000000e+00) (0, 0, 0.00000000000000000000e+00) (0, 0, 0.00000000000000000000e+00) (0, 0, 0.00000000000000000000e+00) (0, 0, 0.00000000000000000000e+00) (0, 0, 0.00000000000000000000e+00) (0, 0, 0.00000000000000000000e+00) (0, 0, 0.00000000000000000000e+00) (0, 0, 0.00000000000000000000e+00) (0, 0, 0.00000000000000000000e+00) (0, 0, 0.00000000000000000000e+00) (0, 0, 0.00000000000000000000e+00) (0, 0, 0.00000000000000000000e+00) (0, 0, 0.00000000000000000000e+00) (0, 0, 0.00000000000000000000e+00) (0, 0, 0.00000000000000000000e+00) (0, 0, 0.00000000000000000000e+00) (0, 0, 0.00000000000000000000e+00) (0, 0, 0.00000000000000000000e+00) (0, 0, 0.00000000000000000000e+00) (0, 0, 0.00000000000000000000e+00) (0, 0, 0.00000000000000000000e+00) (0, 0, 0.00000000000000000000e+00) (0, 0, 0.00000000000000000000e+00) (0, 0, 0.00000000000000000000e+00) (0, 0, 0.00000000000000000000e+00) (401, 5, 5.00000000000000000000e-01) (401, 5, 5.00000000000000000000e-01) (401, 5, 5.00000000000000000000e-01) (401, 5, 5.00000000000000000000e-01) (401, 5, 5.00000000000000000000e-01) (401, 5, 5.00000000000000000000e-01) (401, 5, 5.00000000000000000000e-01) (401, 5, 5.00000000000000000000e-01) (401, 5, 5.00000000000000000000e-01) (401, 5, 5.00000000000000000000e-01) (401, 5, 5.00000000000000000000e-01) (401, 5, 5.00000000000000000000e-01) (401, 5, 5.00000000000000000000e-01) (401, 5, 5.00000000000000000000e-01) (401, 5, 5.00000000000000000000e-01) (401, 5, 5.00000000000000000000e-01) (401, 5, 5.00000000000000000000e-01) (401, 5, 5.00000000000000000000e-01) (401, 5, 5.00000000000000000000e-01) (401, 5, 5.00000000000000000000e-01) (401, 5, 5.00000000000000000000e-01) (401, 5, 5.00000000000000000000e-01) (401, 5, 5.00000000000000000000e-01) (401, 5, 5.00000000000000000000e-01) (401, 5, 5.00000000000000000000e-01) (401, 5, 5.00000000000000000000e-01) (401, 5, 5.00000000000000000000e-01) (401, 5, 5.00000000000000000000e-01) (401, 5, 5.00000000000000000000e-01) (401, 5, 5.00000000000000000000e-01) (401, 5, 5.00000000000000000000e-01) (401, 5, 5.00000000000000000000e-01) (401, 5, 5.00000000000000000000e-01) (401, 5, 5.00000000000000000000e-01) (401, 5, 5.00000000000000000000e-01) (401, 5, 5.00000000000000000000e-01) (401, 5, 5.00000000000000000000e-01) (401, 5, 5.00000000000000000000e-01) (401, 5, 5.00000000000000000000e-01) (401, 5, 5.00000000000000000000e-01) (401, 5, 5.00000000000000000000e-01) (401, 5, 5.00000000000000000000e-01) (401, 5, 5.00000000000000000000e-01) (401, 5, 5.00000000000000000000e-01) (401, 5, 5.00000000000000000000e-01) (401, 5, 5.00000000000000000000e-01) (401, 5, 5.00000000000000000000e-01) (401, 5, 5.00000000000000000000e-01) (401, 5, 5.00000000000000000000e-01) (401, 5, 5.00000000000000000000e-01) (401, 5, 5.00000000000000000000e-01) (401, 5, 5.00000000000000000000e-01) (401, 5, 5.00000000000000000000e-01) (401, 5, 5.00000000000000000000e-01) (401, 5, 5.00000000000000000000e-01) (401, 5, 5.00000000000000000000e-01) (401, 5, 5.00000000000000000000e-01) (401, 5, 5.00000000000000000000e-01) (401, 5, 5.00000000000000000000e-01) (401, 5, 5.00000000000000000000e-01) (401, 5, 5.00000000000000000000e-01) (401, 5, 5.00000000000000000000e-01) (401, 5, 5.00000000000000000000e-01) (401, 5, 5.00000000000000000000e-01) (401, 5, 5.00000000000000000000e-01) (401, 5, 5.00000000000000000000e-01) (401, 5, 5.00000000000000000000e-01) (401, 5, 5.00000000000000000000e-01) (401, 5, 5.00000000000000000000e-01) (401, 5, 5.00000000000000000000e-01) (401, 5, 5.00000000000000000000e-01) (401, 5, 5.00000000000000000000e-01) (401, 5, 5.00000000000000000000e-01) (401, 5, 5.00000000000000000000e-01) (401, 5, 5.00000000000000000000e-01) (401, 5, 5.00000000000000000000e-01) (401, 5, 5.00000000000000000000e-01) (401, 5, 5.00000000000000000000e-01) (401, 5, 5.00000000000000000000e-01) (401, 5, 5.00000000000000000000e-01) (401, 5, 5.00000000000000000000e-01) (401, 5, 5.00000000000000000000e-01) (401, 5, 5.00000000000000000000e-01) (401, 5, 5.00000000000000000000e-01) (401, 5, 5.00000000000000000000e-01) (401, 5, 5.00000000000000000000e-01) (401, 5, 5.00000000000000000000e-01) (401, 5, 5.00000000000000000000e-01) (401, 5, 5.00000000000000000000e-01) (401, 5, 5.00000000000000000000e-01) (401, 5, 5.00000000000000000000e-01) (401, 5, 5.00000000000000000000e-01) (401, 5, 5.00000000000000000000e-01) (401, 5, 5.00000000000000000000e-01) (401, 5, 5.00000000000000000000e-01) (401, 5, 5.00000000000000000000e-01) (401, 5, 5.00000000000000000000e-01) (401, 5, 5.00000000000000000000e-01) (401, 5, 5.00000000000000000000e-01) (401, 5, 5.00000000000000000000e-01) (401, 5, 5.00000000000000000000e-01) (401, 5, 5.00000000000000000000e-01) (401, 5, 5.00000000000000000000e-01) (401, 5, 5.00000000000000000000e-01) (401, 5, 5.00000000000000000000e-01) (401, 5, 5.00000000000000000000e-01) (401, 5, 5.00000000000000000000e-01) (401, 5, 5.00000000000000000000e-01) (401, 5, 5.00000000000000000000e-01) (401, 5, 5.00000000000000000000e-01) (401, 5, 5.00000000000000000000e-01) (401, 5, 5.00000000000000000000e-01) (401, 5, 5.00000000000000000000e-01) (401, 5, 5.00000000000000000000e-01) (401, 5, 5.00000000000000000000e-01) (401, 5, 5.00000000000000000000e-01) (401, 5, 5.00000000000000000000e-01) (401, 5, 5.00000000000000000000e-01) (401, 5, 5.00000000000000000000e-01) (401, 5, 5.00000000000000000000e-01) (401, 5, 5.00000000000000000000e-01) (401, 5, 5.00000000000000000000e-01) (401, 5, 5.00000000000000000000e-01) (401, 5, 5.00000000000000000000e-01) (401, 5, 5.00000000000000000000e-01) (401, 5, 5.00000000000000000000e-01) (401, 5, 5.00000000000000000000e-01) (401, 5, 5.00000000000000000000e-01) (401, 5, 5.00000000000000000000e-01) (401, 5, 5.00000000000000000000e-01) (401, 5, 5.00000000000000000000e-01) (401, 5, 5.00000000000000000000e-01) (401, 5, 5.00000000000000000000e-01) (401, 5, 5.00000000000000000000e-01) (401, 5, 5.00000000000000000000e-01) (401, 5, 5.00000000000000000000e-01) (401, 5, 5.00000000000000000000e-01) (401, 5, 5.00000000000000000000e-01) (401, 5, 5.00000000000000000000e-01) (401, 5, 5.00000000000000000000e-01) (401, 5, 5.00000000000000000000e-01) (401, 5, 5.00000000000000000000e-01) (401, 5, 5.00000000000000000000e-01) (401, 5, 5.00000000000000000000e-01) (401, 5, 5.00000000000000000000e-01) (401, 5, 5.00000000000000000000e-01) (401, 5, 5.00000000000000000000e-01) (401, 5, 5.00000000000000000000e-01) (401, 5, 5.00000000000000000000e-01) (401, 5, 5.00000000000000000000e-01) (401, 5, 5.00000000000000000000e-01) (401, 5, 5.00000000000000000000e-01) (401, 5, 5.00000000000000000000e-01) (401, 5, 5.00000000000000000000e-01) (401, 5, 5.00000000000000000000e-01) (401, 5, 5.00000000000000000000e-01) (401, 5, 5.00000000000000000000e-01) (401, 5, 5.00000000000000000000e-01) (401, 5, 5.00000000000000000000e-01) (401, 5, 5.00000000000000000000e-01) (401, 5, 5.00000000000000000000e-01) (401, 5, 5.00000000000000000000e-01) (401, 5, 5.00000000000000000000e-01) (401, 5, 5.00000000000000000000e-01) (401, 5, 5.00000000000000000000e-01) (401, 5, 5.00000000000000000000e-01) (401, 5, 5.00000000000000000000e-01) (401, 5, 5.00000000000000000000e-01) (401, 5, 5.00000000000000000000e-01) (401, 5, 5.00000000000000000000e-01) (401, 5, 5.00000000000000000000e-01) (401, 5, 5.00000000000000000000e-01) (401, 5, 5.00000000000000000000e-01) (401, 5, 5.00000000000000000000e-01) (401, 5, 5.00000000000000000000e-01) (401, 5, 5.00000000000000000000e-01) (401, 5, 5.00000000000000000000e-01) (401, 5, 5.00000000000000000000e-01) (401, 5, 5.00000000000000000000e-01) (401, 5, 5.00000000000000000000e-01) (401, 5, 5.00000000000000000000e-01) (401, 5, 5.00000000000000000000e-01) (401, 5, 5.00000000000000000000e-01) (401, 5, 5.00000000000000000000e-01) (401, 5, 5.00000000000000000000e-01) (401, 5, 5.00000000000000000000e-01) (401, 5, 5.00000000000000000000e-01) (401, 5, 5.00000000000000000000e-01) (401, 5, 5.00000000000000000000e-01) (401, 5, 5.00000000000000000000e-01) (401, 5, 5.00000000000000000000e-01) (401, 5, 5.00000000000000000000e-01) (401, 5, 5.00000000000000000000e-01) (401, 5, 5.00000000000000000000e-01) (401, 5, 5.00000000000000000000e-01) (401, 5, 5.00000000000000000000e-01) (401, 5, 5.00000000000000000000e-01) (401, 5, 5.00000000000000000000e-01) (401, 5, 5.00000000000000000000e-01) (401, 5, 5.00000000000000000000e-01) (0, 5, 0.00000000000000000000e+00) (201, 5, 5.00000000000000000000e-01) (201, 5, 5.00000000000000000000e-01) (201, 5, 5.00000000000000000000e-01) (201, 5, 5.00000000000000000000e-01) (201, 5, 5.00000000000000000000e-01) (201, 5, 5.00000000000000000000e-01) (201, 5, 5.00000000000000000000e-01) (201, 5, 5.00000000000000000000e-01) (201, 5, 5.00000000000000000000e-01) (201, 5, 5.00000000000000000000e-01) (201, 5, 5.00000000000000000000e-01) (201, 5, 5.00000000000000000000e-01) (201, 5, 5.00000000000000000000e-01) (201, 5, 5.00000000000000000000e-01) (201, 5, 5.00000000000000000000e-01) (201, 5, 5.00000000000000000000e-01) (201, 5, 5.00000000000000000000e-01) (201, 5, 5.00000000000000000000e-01) (201, 5, 5.00000000000000000000e-01) (201, 5, 5.00000000000000000000e-01) (201, 5, 5.00000000000000000000e-01) (201, 5, 5.00000000000000000000e-01) (201, 5, 5.00000000000000000000e-01) (201, 5, 5.00000000000000000000e-01) (201, 5, 5.00000000000000000000e-01) (201, 5, 5.00000000000000000000e-01) (201, 5, 5.00000000000000000000e-01) (201, 5, 5.00000000000000000000e-01) (201, 5, 5.00000000000000000000e-01) (201, 5, 5.00000000000000000000e-01) (201, 5, 5.00000000000000000000e-01) (201, 5, 5.00000000000000000000e-01) (201, 5, 5.00000000000000000000e-01) (201, 5, 5.00000000000000000000e-01) (201, 5, 5.00000000000000000000e-01) (201, 5, 5.00000000000000000000e-01) (201, 5, 5.00000000000000000000e-01) (201, 5, 5.00000000000000000000e-01) (201, 5, 5.00000000000000000000e-01) (201, 5, 5.00000000000000000000e-01) (201, 5, 5.00000000000000000000e-01) (201, 5, 5.00000000000000000000e-01) (201, 5, 5.00000000000000000000e-01) (201, 5, 5.00000000000000000000e-01) (201, 5, 5.00000000000000000000e-01) (201, 5, 5.00000000000000000000e-01) (201, 5, 5.00000000000000000000e-01) (201, 5, 5.00000000000000000000e-01) (201, 5, 5.00000000000000000000e-01) (201, 5, 5.00000000000000000000e-01) (201, 5, 5.00000000000000000000e-01) (201, 5, 5.00000000000000000000e-01) (201, 5, 5.00000000000000000000e-01) (201, 5, 5.00000000000000000000e-01) (201, 5, 5.00000000000000000000e-01) (201, 5, 5.00000000000000000000e-01) (201, 5, 5.00000000000000000000e-01) (201, 5, 5.00000000000000000000e-01) (201, 5, 5.00000000000000000000e-01) (201, 5, 5.00000000000000000000e-01) (201, 5, 5.00000000000000000000e-01) (201, 5, 5.00000000000000000000e-01) (201, 5, 5.00000000000000000000e-01) (201, 5, 5.00000000000000000000e-01) (201, 5, 5.00000000000000000000e-01) (201, 5, 5.00000000000000000000e-01) (201, 5, 5.00000000000000000000e-01) (201, 5, 5.00000000000000000000e-01) (201, 5, 5.00000000000000000000e-01) (201, 5, 5.00000000000000000000e-01) (201, 5, 5.00000000000000000000e-01) (201, 5, 5.00000000000000000000e-01) (201, 5, 5.00000000000000000000e-01) (201, 5, 5.00000000000000000000e-01) (201, 5, 5.00000000000000000000e-01) (201, 5, 5.00000000000000000000e-01) (201, 5, 5.00000000000000000000e-01) (201, 5, 5.00000000000000000000e-01) (201, 5, 5.00000000000000000000e-01) (201, 5, 5.00000000000000000000e-01) (201, 5, 5.00000000000000000000e-01) (201, 5, 5.00000000000000000000e-01) (201, 5, 5.00000000000000000000e-01) (201, 5, 5.00000000000000000000e-01) (201, 5, 5.00000000000000000000e-01) (201, 5, 5.00000000000000000000e-01) (201, 5, 5.00000000000000000000e-01) (201, 5, 5.00000000000000000000e-01) (201, 5, 5.00000000000000000000e-01) (201, 5, 5.00000000000000000000e-01) (201, 5, 5.00000000000000000000e-01) (201, 5, 5.00000000000000000000e-01) (201, 5, 5.00000000000000000000e-01) (201, 5, 5.00000000000000000000e-01) (201, 5, 5.00000000000000000000e-01) (201, 5, 5.00000000000000000000e-01) (201, 5, 5.00000000000000000000e-01) (201, 5, 5.00000000000000000000e-01) (201, 5, 5.00000000000000000000e-01) (201, 5, 5.00000000000000000000e-01) (201, 5, 5.00000000000000000000e-01) (201, 5, 5.00000000000000000000e-01) (201, 5, 5.00000000000000000000e-01) (201, 5, 5.00000000000000000000e-01) (201, 5, 5.00000000000000000000e-01) (201, 5, 5.00000000000000000000e-01) (201, 5, 5.00000000000000000000e-01) (201, 5, 5.00000000000000000000e-01) (201, 5, 5.00000000000000000000e-01) (201, 5, 5.00000000000000000000e-01) (201, 5, 5.00000000000000000000e-01) (201, 5, 5.00000000000000000000e-01) (201, 5, 5.00000000000000000000e-01) (201, 5, 5.00000000000000000000e-01) (201, 5, 5.00000000000000000000e-01) (201, 5, 5.00000000000000000000e-01) (201, 5, 5.00000000000000000000e-01) (201, 5, 5.00000000000000000000e-01) (201, 5, 5.00000000000000000000e-01) (201, 5, 5.00000000000000000000e-01) (201, 5, 5.00000000000000000000e-01) (201, 5, 5.00000000000000000000e-01) (201, 5, 5.00000000000000000000e-01) (201, 5, 5.00000000000000000000e-01) (201, 5, 5.00000000000000000000e-01) (201, 5, 5.00000000000000000000e-01) (201, 5, 5.00000000000000000000e-01) (201, 5, 5.00000000000000000000e-01) (201, 5, 5.00000000000000000000e-01) (201, 5, 5.00000000000000000000e-01) (201, 5, 5.00000000000000000000e-01) (201, 5, 5.00000000000000000000e-01) (201, 5, 5.00000000000000000000e-01) (201, 5, 5.00000000000000000000e-01) (201, 5, 5.00000000000000000000e-01) (201, 5, 5.00000000000000000000e-01) (201, 5, 5.00000000000000000000e-01) (201, 5, 5.00000000000000000000e-01) (201, 5, 5.00000000000000000000e-01) (201, 5, 5.00000000000000000000e-01) (201, 5, 5.00000000000000000000e-01) (201, 5, 5.00000000000000000000e-01) (201, 5, 5.00000000000000000000e-01) (201, 5, 5.00000000000000000000e-01) (201, 5, 5.00000000000000000000e-01) (201, 5, 5.00000000000000000000e-01) (201, 5, 5.00000000000000000000e-01) (201, 5, 5.00000000000000000000e-01) (201, 5, 5.00000000000000000000e-01) (201, 5, 5.00000000000000000000e-01) (201, 5, 5.00000000000000000000e-01) (201, 5, 5.00000000000000000000e-01) (201, 5, 5.00000000000000000000e-01) (201, 5, 5.00000000000000000000e-01) (201, 5, 5.00000000000000000000e-01) (201, 5, 5.00000000000000000000e-01) (201, 5, 5.00000000000000000000e-01) (201, 5, 5.00000000000000000000e-01) (201, 5, 5.00000000000000000000e-01) (201, 5, 5.00000000000000000000e-01) (201, 5, 5.00000000000000000000e-01) (201, 5, 5.00000000000000000000e-01) (201, 5, 5.00000000000000000000e-01) (201, 5, 5.00000000000000000000e-01) (201, 5, 5.00000000000000000000e-01) (201, 5, 5.00000000000000000000e-01) (201, 5, 5.00000000000000000000e-01) (201, 5, 5.00000000000000000000e-01) (201, 5, 5.00000000000000000000e-01) (201, 5, 5.00000000000000000000e-01) (201, 5, 5.00000000000000000000e-01) (201, 5, 5.00000000000000000000e-01) (201, 5, 5.00000000000000000000e-01) (201, 5, 5.00000000000000000000e-01) (201, 5, 5.00000000000000000000e-01) (201, 5, 5.00000000000000000000e-01) (201, 5, 5.00000000000000000000e-01) (201, 5, 5.00000000000000000000e-01) (201, 5, 5.00000000000000000000e-01) (201, 5, 5.00000000000000000000e-01) (201, 5, 5.00000000000000000000e-01) (201, 5, 5.00000000000000000000e-01) (201, 5, 5.00000000000000000000e-01) (201, 5, 5.00000000000000000000e-01) (201, 5, 5.00000000000000000000e-01) (201, 5, 5.00000000000000000000e-01) (201, 5, 5.00000000000000000000e-01) (201, 5, 5.00000000000000000000e-01) (201, 5, 5.00000000000000000000e-01) (201, 5, 5.00000000000000000000e-01) (201, 5, 5.00000000000000000000e-01) (201, 5, 5.00000000000000000000e-01) (201, 5, 5.00000000000000000000e-01) (201, 5, 5.00000000000000000000e-01) (201, 5, 5.00000000000000000000e-01) (201, 5, 5.00000000000000000000e-01) (201, 5, 5.00000000000000000000e-01) (201, 5, 5.00000000000000000000e-01) (201, 5, 5.00000000000000000000e-01) (201, 5, 5.00000000000000000000e-01) (0, 5, 0.00000000000000000000e+00) (201, 5, 5.00000000000000000000e-01) (201, 5, 5.00000000000000000000e-01) (201, 5, 5.00000000000000000000e-01) (201, 5, 5.00000000000000000000e-01) (201, 5, 5.00000000000000000000e-01) (201, 5, 5.00000000000000000000e-01) (0, 5, 0.00000000000000000000e+00) 
connections (connected_to_neuron, weight)=(0, 3.93911480903625488281e-01) (1, 6.23205244541168212891e-01) (2, 4.92566108703613281250e-01) (3, 6.48858964443206787109e-01) (4, 4.62702453136444091797e-01) (5, 4.67482447624206542969e-01) (6, 5.31433701515197753906e-01) (7, 6.20618164539337158203e-01) (8, 5.05519986152648925781e-01) (9, 4.25950139760971069336e-01) (10, 3.67177724838256835938e-01) (11, 6.69495820999145507812e-01) (12, 3.98234546184539794922e-01) (13, 6.08584821224212646484e-01) (14, 4.80312466621398925781e-01) (15, 6.25365793704986572266e-01) (16, 3.70277702808380126953e-01) (17, 5.78070342540740966797e-01) (18, 5.27792215347290039062e-01) (19, 4.88302916288375854492e-01) (20, 3.81301045417785644531e-01) (21, 5.76060831546783447266e-01) (22, 5.25746345520019531250e-01) (23, 6.24069631099700927734e-01) (24, 4.35758233070373535156e-01) (25, 4.33685660362243652344e-01) (26, 4.84919428825378417969e-01) (27, 5.51943063735961914062e-01) (28, 3.89517962932586669922e-01) (29, 6.04570925235748291016e-01) (30, 4.96207743883132934570e-01) (31, 5.29036760330200195312e-01) (32, 5.99070072174072265625e-01) (33, 5.09369909763336181641e-01) (34, 2.99434542655944824219e-01) (35, 5.52412152290344238281e-01) (36, 5.48146128654479980469e-01) (37, 6.19307100772857666016e-01) (38, 2.94569134712219238281e-01) (39, 5.44305980205535888672e-01) (40, 6.16551101207733154297e-01) (41, 4.50186073780059814453e-01) (42, 3.35340619087219238281e-01) (43, 5.05425155162811279297e-01) (44, 4.30064707994461059570e-01) (45, 6.04092299938201904297e-01) (46, 4.52330023050308227539e-01) (47, 4.90982145071029663086e-01) (48, 5.53456604480743408203e-01) (49, 5.68561017513275146484e-01) (50, 3.00824046134948730469e-01) (51, 6.25397503376007080078e-01) (52, 5.15915751457214355469e-01) (53, 6.15009248256683349609e-01) (54, 3.71005773544311523438e-01) (55, 6.42313778400421142578e-01) (56, 6.46415054798126220703e-01) (57, 5.88616169989109039307e-03) (58, 3.15795660018920898438e-01) (59, 5.01363337039947509766e-01) (60, 6.46655380725860595703e-01) (61, 1.16961129009723663330e-01) (62, 1.98985159397125244141e-01) (63, 4.36414629220962524414e-01) (64, 5.07532536983489990234e-01) (65, 2.29577366262674331665e-02) (66, 1.77185431122779846191e-01) (67, 4.46367651224136352539e-01) (68, 5.23466348648071289062e-01) (69, 4.12958376109600067139e-02) (70, 1.79032161831855773926e-01) (71, 7.27122545242309570312e-01) (72, 5.27680218219757080078e-01) (73, 8.39140266180038452148e-02) (74, 2.24490568041801452637e-01) (75, 7.44850158691406250000e-01) (76, 5.24204671382904052734e-01) (77, 4.63617853820323944092e-02) (78, 2.27774962782859802246e-01) (79, 6.64766252040863037109e-01) (80, 4.51121270656585693359e-01) (81, 9.81403067708015441895e-02) (82, 2.82106131315231323242e-01) (83, 7.54141926765441894531e-01) (84, 5.49347817897796630859e-01) (85, 2.26532816886901855469e-02) (86, 1.88398197293281555176e-01) (87, 7.56441712379455566406e-01) (88, 5.03216087818145751953e-01) (89, 7.37351030111312866211e-02) (90, 2.48530730605125427246e-01) (91, 7.10550129413604736328e-01) (92, 5.10376036167144775391e-01) (93, 1.68794199824333190918e-01) (94, 1.57464057207107543945e-01) (95, 7.78587102890014648438e-01) (96, 5.11431813240051269531e-01) (97, 5.59277012944221496582e-02) (98, 2.35454082489013671875e-01) (99, 7.95576870441436767578e-01) (100, 5.71900069713592529297e-01) (101, 1.35764479637145996094e-01) (102, 1.36782720685005187988e-01) (103, 6.60258948802947998047e-01) (104, 4.94355142116546630859e-01) (105, 8.25514942407608032227e-02) (106, 2.19192609190940856934e-01) (107, 7.79238462448120117188e-01) (108, 6.03589832782745361328e-01) (109, 1.68245807290077209473e-01) (110, 2.58088052272796630859e-01) (111, 8.15389811992645263672e-01) (112, 5.41062593460083007812e-01) (113, 6.14727549254894256592e-02) (114, 1.83615043759346008301e-01) (115, 8.51089239120483398438e-01) (116, 5.58802545070648193359e-01) (117, 9.32914838194847106934e-02) (118, 2.21614316105842590332e-01) (119, 8.22697341442108154297e-01) (120, 6.41703128814697265625e-01) (121, 4.29901480674743652344e-01) (122, 1.47330850362777709961e-01) (123, 5.34898519515991210938e-01) (124, 4.79803770780563354492e-01) (125, 4.52322870492935180664e-01) (126, 3.05428177118301391602e-01) (127, 5.29145121574401855469e-01) (128, 5.56677341461181640625e-01) (129, 5.00639021396636962891e-01) (130, 3.16664427518844604492e-01) (131, 5.11396944522857666016e-01) (132, 4.72601771354675292969e-01) (133, 6.13203704357147216797e-01) (134, 1.63598641753196716309e-01) (135, 5.49776256084442138672e-01) (136, 5.31953573226928710938e-01) (137, 5.42547643184661865234e-01) (138, 3.20957154035568237305e-01) (139, 5.18362939357757568359e-01) (140, 5.46991765499114990234e-01) (141, 5.38801968097686767578e-01) (142, 3.25695067644119262695e-01) (143, 6.70873880386352539062e-01) (144, 6.36473059654235839844e-01) (145, 4.69066739082336425781e-01) (146, 3.13905566930770874023e-01) (147, 5.78095138072967529297e-01) (148, 5.98556578159332275391e-01) (149, 4.95276480913162231445e-01) (150, 1.92735120654106140137e-01) (151, 6.23079299926757812500e-01) (152, 4.79180395603179931641e-01) (153, 5.05988180637359619141e-01) (154, 2.16648980975151062012e-01) (155, 5.40611684322357177734e-01) (156, 3.85013848543167114258e-01) (157, 2.25282639265060424805e-01) (158, 1.74224227666854858398e-01) (159, 5.01590490341186523438e-01) (160, 2.79921531677246093750e-01) (161, 1.48297995328903198242e-01) (162, 6.01735353469848632812e-01) (163, 5.46744704246520996094e-01) (164, 4.76182311773300170898e-01) (165, 1.38462707400321960449e-01) (166, 6.86616420745849609375e-01) (167, 6.41676962375640869141e-01) (168, 4.35010373592376708984e-01) (169, 9.52898114919662475586e-02) (170, 7.50135242938995361328e-01) (171, 8.33284795284271240234e-01) (172, 1.90940991044044494629e-01) (173, 1.11045718193054199219e+00) (174, 6.37192964553833007812e-01) (175, 7.59912550449371337891e-01) (176, 4.82080429792404174805e-01) (177, 1.07758188247680664062e+00) (178, 3.74628275632858276367e-01) (179, 6.63456499576568603516e-01) (180, 5.83558142185211181641e-01) (181, 1.19026017189025878906e+00) (182, 3.80217403173446655273e-01) (183, 4.89275723695755004883e-01) (184, 5.00782489776611328125e-01) (185, 1.13089394569396972656e+00) (186, 3.23569327592849731445e-01) (187, 6.45695865154266357422e-01) (188, 5.34558176994323730469e-01) (189, 1.18602490425109863281e+00) (190, 4.40968155860900878906e-01) (191, 6.08701169490814208984e-01) (192, 5.12704730033874511719e-01) (193, 1.04665458202362060547e+00) (194, 4.49127703905105590820e-01) (195, 6.22427880764007568359e-01) (196, 5.63498914241790771484e-01) (197, 1.13737130165100097656e+00) (198, 3.57786476612091064453e-01) (199, 4.89685475826263427734e-01) (200, 4.96083855628967285156e-01) (201, 1.10954892635345458984e+00) (202, 2.62636095285415649414e-01) (203, 4.59416806697845458984e-01) (204, 5.36518096923828125000e-01) (205, 1.10145616531372070312e+00) (206, 3.58995109796524047852e-01) (207, 4.98372733592987060547e-01) (208, 6.03693664073944091797e-01) (209, 1.03166413307189941406e+00) (210, 3.58556121587753295898e-01) (211, 4.67026054859161376953e-01) (212, 6.46579921245574951172e-01) (213, 1.03779041767120361328e+00) (214, 3.53028953075408935547e-01) (215, 5.30181765556335449219e-01) (216, 5.92363774776458740234e-01) (217, 1.08375871181488037109e+00) (218, 2.69559353590011596680e-01) (219, 7.66802728176116943359e-01) (220, 5.85319578647613525391e-01) (221, 6.39924466609954833984e-01) (222, 4.12124425172805786133e-01) (223, 8.90499711036682128906e-01) (224, 4.79878634214401245117e-01) (225, 5.90649127960205078125e-01) (226, 3.96953254938125610352e-01) (227, 8.35852921009063720703e-01) (228, 5.22295951843261718750e-01) (229, 4.84136581420898437500e-01) (230, 3.12609404325485229492e-01) (231, 8.10855269432067871094e-01) (232, 5.87961018085479736328e-01) (233, 5.04642367362976074219e-01) (234, 2.57343053817749023438e-01) (235, 7.16954767704010009766e-01) (236, 6.00374162197113037109e-01) (237, 5.45735061168670654297e-01) (238, 4.02398496866226196289e-01) (239, 7.96543419361114501953e-01) (240, 5.71674764156341552734e-01) (241, 4.90351408720016479492e-01) (242, 4.50640469789505004883e-01) (243, 8.10730338096618652344e-01) (244, 5.21441340446472167969e-01) (245, 5.33066391944885253906e-01) (246, 4.24937903881072998047e-01) (247, 7.06280708312988281250e-01) (248, 5.01981139183044433594e-01) (249, 6.23894155025482177734e-01) (250, 3.00047934055328369141e-01) (251, 8.79776120185852050781e-01) (252, 6.26738131046295166016e-01) (253, 6.41569316387176513672e-01) (254, 4.44645524024963378906e-01) (255, 6.99092209339141845703e-01) (256, 5.95137894153594970703e-01) (257, 5.70995628833770751953e-01) (258, 4.09314841032028198242e-01) (259, 7.09909439086914062500e-01) (260, 6.18051767349243164062e-01) (261, 4.51321095228195190430e-01) (262, 3.95134389400482177734e-01) (263, 7.98488378524780273438e-01) (264, 5.18883109092712402344e-01) (265, 1.02597808837890625000e+00) (266, 3.89812827110290527344e-01) (267, -3.43000004068017005920e-03) (268, 4.90529000759124755859e-01) (269, 9.65712547302246093750e-01) (270, 3.82645934820175170898e-01) (271, 1.39516457915306091309e-01) (272, 5.74879109859466552734e-01) (273, 1.00678730010986328125e+00) (274, 3.39779287576675415039e-01) (275, 1.73633262515068054199e-01) (276, 4.58669245243072509766e-01) (277, 9.38218414783477783203e-01) (278, 2.69446462392807006836e-01) (279, 3.79628427326679229736e-02) (280, 4.80927854776382446289e-01) (281, 4.53998774290084838867e-01) (282, 3.07271480560302734375e-01) (283, 2.93354224413633346558e-03) (284, 5.03380119800567626953e-01) (285, 4.36421304941177368164e-01) (286, 2.73603320121765136719e-01) (287, 1.93785622715950012207e-01) (288, 6.15229010581970214844e-01) (289, 5.67422747611999511719e-01) (290, 2.75272637605667114258e-01) (291, 1.28548443317413330078e-01) (292, 6.26555681228637695312e-01) (293, 5.54911613464355468750e-01) (294, 2.98614412546157836914e-01) (295, 4.07064594328403472900e-02) (296, 5.44597804546356201172e-01) (297, 5.72931766510009765625e-01) (298, 3.24016839265823364258e-01) (299, 1.30394354462623596191e-01) (300, 5.02351939678192138672e-01) (301, 5.91167390346527099609e-01) (302, 3.56651246547698974609e-01) (303, 1.72498598694801330566e-01) (304, 5.61662495136260986328e-01) (305, 5.81122815608978271484e-01) (306, 4.32872295379638671875e-01) (307, 2.50541627407073974609e-01) (308, 4.82861191034317016602e-01) (309, 5.87011039257049560547e-01) (310, 4.40302610397338867188e-01) (311, 1.93998754024505615234e-01) (312, 4.93526637554168701172e-01) (313, 5.06378650665283203125e-01) (314, -2.81854897737503051758e-01) (315, 5.53157329559326171875e-01) (316, 2.28586569428443908691e-01) (317, 5.63183486461639404297e-01) (318, 1.02751863002777099609e+00) (319, 2.45689019560813903809e-01) (320, 6.14519178867340087891e-01) (321, 1.24753125011920928955e-01) (322, 1.10180795192718505859e+00) (323, 2.44821771979331970215e-01) (324, 5.22138416767120361328e-01) (325, 2.23842728883028030396e-02) (326, 9.75053548812866210938e-01) (327, 3.75992029905319213867e-01) (328, 6.37789845466613769531e-01) (329, 1.59077569842338562012e-01) (330, 2.37303853034973144531e-01) (331, 2.26799905300140380859e-01) (332, 5.92718541622161865234e-01) (333, -2.12628059089183807373e-02) (334, 1.52813538908958435059e-01) (335, 5.46196639537811279297e-01) (336, 6.35978877544403076172e-01) (337, 1.70467987656593322754e-01) (338, 3.10153394937515258789e-01) (339, 5.10655462741851806641e-01) (340, 6.33597910404205322266e-01) (341, 5.86332619190216064453e-01) (342, 2.18069627881050109863e-01) (343, 5.09943962097167968750e-01) (344, 6.43623471260070800781e-01) (345, 5.84721624851226806641e-01) (346, 2.59471833705902099609e-01) (347, 5.47647297382354736328e-01) (348, 4.98817354440689086914e-01) (349, 4.50093895196914672852e-01) (350, 2.36702024936676025391e-01) (351, 5.90647041797637939453e-01) (352, 5.89828789234161376953e-01) (353, 4.93361830711364746094e-01) (354, 2.78834313154220581055e-01) (355, 6.13676190376281738281e-01) (356, 5.38979351520538330078e-01) (357, 4.46785151958465576172e-01) (358, 3.14144164323806762695e-01) (359, 6.78478300571441650391e-01) (360, 6.29095911979675292969e-01) (361, 5.02953350543975830078e-01) (362, 2.52351552248001098633e-01) (363, 7.23523557186126708984e-01) (364, 5.38756430149078369141e-01) (365, 5.64921677112579345703e-01) (366, 3.11636298894882202148e-01) (367, 5.57554841041564941406e-01) (368, 5.84204256534576416016e-01) (369, 5.81546485424041748047e-01) (370, 2.29016199707984924316e-01) (371, 6.00621640682220458984e-01) (372, 5.65599381923675537109e-01) (373, 6.06842219829559326172e-01) (374, 2.80367285013198852539e-01) (375, 5.92042326927185058594e-01) (376, 5.89284002780914306641e-01) (377, 4.99595910310745239258e-01) (378, 3.09491306543350219727e-01) (379, 6.70920848846435546875e-01) (380, 5.47410011291503906250e-01) (381, 5.05950033664703369141e-01) (382, 2.31369733810424804688e-01) (383, 5.20058274269104003906e-01) (384, 6.05283439159393310547e-01) (385, 4.69960659742355346680e-01) (386, 1.84646919369697570801e-01) (387, 5.27082324028015136719e-01) (388, 5.22717535495758056641e-01) (389, 4.58547681570053100586e-01) (390, 2.56472826004028320312e-01) (391, 5.34632921218872070312e-01) (392, 5.67472517490386962891e-01) (393, 4.68581110239028930664e-01) (394, 3.09068650007247924805e-01) (395, 4.89048451185226440430e-01) (396, 6.31223022937774658203e-01) (397, 5.80461800098419189453e-01) (398, 2.16405302286148071289e-01) (399, 5.98246753215789794922e-01) (400, 4.44948852062225341797e-01) (0, 3.04599732160568237305e-01) (1, -5.96508756279945373535e-03) (2, 3.61583441495895385742e-01) (3, 1.28937128465622663498e-03) (4, 3.08216065168380737305e-01) (5, 9.53560620546340942383e-02) (6, 4.35279995203018188477e-01) (7, -1.02340631186962127686e-01) (8, 2.38661497831344604492e-01) (9, 4.79310639202594757080e-02) (10, 4.89775985479354858398e-01) (11, 3.44585478305816650391e-02) (12, 3.13114523887634277344e-01) (13, 1.51564463973045349121e-01) (14, 4.84448641538619995117e-01) (15, -1.27077400684356689453e-01) (16, 1.70025378465652465820e-01) (17, 1.53261229395866394043e-01) (18, 4.40346747636795043945e-01) (19, -8.15797820687294006348e-02) (20, 2.43548154830932617188e-01) (21, 1.16710022091865539551e-01) (22, 5.30599534511566162109e-01) (23, 1.97648955509066581726e-03) (24, 2.59592682123184204102e-01) (25, -3.86218167841434478760e-02) (26, 4.77906137704849243164e-01) (27, -7.00983032584190368652e-02) (28, 2.11597353219985961914e-01) (29, 1.78832169622182846069e-02) (30, 5.34336984157562255859e-01) (31, -9.33775827288627624512e-02) (32, 1.12313721328973770142e-02) (33, -1.57856065779924392700e-02) (34, 2.70432263612747192383e-01) (35, -8.09911862015724182129e-02) (36, 7.88837596774101257324e-02) (37, 8.46434831619262695312e-02) (38, 3.79188627004623413086e-01) (39, -8.28936174511909484863e-02) (40, -6.81121572852134704590e-02) (41, 4.78958375751972198486e-02) (42, 3.14085394144058227539e-01) (43, -1.55436187982559204102e-01) (44, -1.22624030336737632751e-03) (45, -2.25347075611352920532e-02) (46, 2.80006855726242065430e-01) (47, -3.16397547721862792969e-02) (48, -6.99601396918296813965e-02) (49, 9.92848426103591918945e-02) (50, 2.49300971627235412598e-01) (51, -2.68507599830627441406e-02) (52, 1.53081817552447319031e-02) (53, -4.11684252321720123291e-02) (54, 3.37646156549453735352e-01) (55, -1.25537902116775512695e-01) (56, 2.78983056545257568359e-01) (57, 1.00947543978691101074e-02) (58, 3.66884261369705200195e-01) (59, 1.01757474243640899658e-01) (60, 3.71140033006668090820e-01) (61, 3.79185199737548828125e-01) (62, 2.04626485705375671387e-01) (63, 6.43340885639190673828e-01) (64, 4.23139899969100952148e-01) (65, 4.38857853412628173828e-01) (66, 1.17939852178096771240e-01) (67, 5.62993049621582031250e-01) (68, 3.83241862058639526367e-01) (69, -2.24939566105604171753e-02) (70, 2.35689759254455566406e-01) (71, 1.72242060303688049316e-01) (72, 3.68564039468765258789e-01) (73, 3.01527027040719985962e-02) (74, 1.76253259181976318359e-01) (75, 2.24450051784515380859e-01) (76, 3.50780099630355834961e-01) (77, 1.36637628078460693359e-01) (78, 1.52257651090621948242e-01) (79, 1.37932240962982177734e-01) (80, 3.79084616899490356445e-01) (81, 8.19360837340354919434e-02) (82, 7.05287978053092956543e-02) (83, 5.15050850808620452881e-02) (84, 3.83929759263992309570e-01) (85, 8.85524973273277282715e-02) (86, 8.54145213961601257324e-02) (87, 1.60565048456192016602e-01) (88, 4.26198095083236694336e-01) (89, 1.32676362991333007812e-01) (90, 5.06939552724361419678e-02) (91, 9.49904918670654296875e-02) (92, 3.55990797281265258789e-01) (93, 1.30895972251892089844e-01) (94, 8.60463604331016540527e-02) (95, 7.67830610275268554688e-02) (96, 4.13883000612258911133e-01) (97, 7.95617476105690002441e-02) (98, 1.87491312623023986816e-01) (99, 9.47772264480590820312e-02) (100, 3.84618729352951049805e-01) (101, 9.87565144896507263184e-02) (102, 2.18591481447219848633e-01) (103, 5.08350096642971038818e-02) (104, 4.56459969282150268555e-01) (105, 7.04201832413673400879e-02) (106, 2.26857274770736694336e-01) (107, 1.04892477393150329590e-01) (108, 3.34608763456344604492e-01) (109, 5.46904020011425018311e-02) (110, 1.94396957755088806152e-01) (111, 2.11345613002777099609e-01) (112, 4.64177280664443969727e-01) (113, 1.40501245856285095215e-01) (114, 2.14422941207885742188e-01) (115, 1.45759359002113342285e-01) (116, 3.56604665517807006836e-01) (117, -2.45870221406221389771e-02) (118, 5.78966699540615081787e-02) (119, 8.04551243782043457031e-02) (120, 4.35640126466751098633e-01) (121, -3.14450003206729888916e-02) (122, 1.27017810940742492676e-01) (123, -1.18591822683811187744e-01) (124, 4.34617966413497924805e-01) (125, -5.38253486156463623047e-01) (126, 1.17638520896434783936e-01) (127, -5.37267476320266723633e-02) (128, 2.95752346515655517578e-01) (129, -3.49058844149112701416e-02) (130, 2.00497820973396301270e-01) (131, -2.98518165946006774902e-02) (132, 4.07012671232223510742e-01) (133, 7.90535807609558105469e-02) (134, 1.80430576205253601074e-01) (135, -4.67500500380992889404e-02) (136, 2.92635887861251831055e-01) (137, 6.72520995140075683594e-02) (138, 2.17589765787124633789e-01) (139, -8.29782560467720031738e-02) (140, 4.65104490518569946289e-01) (141, 7.19509720802307128906e-02) (142, 8.78147110342979431152e-02) (143, 1.90590582787990570068e-02) (144, 3.55614393949508666992e-01) (145, -3.77980209887027740479e-02) (146, 1.24265834689140319824e-01) (147, 1.99609948322176933289e-03) (148, 2.80777037143707275391e-01) (149, 4.21268306672573089600e-02) (150, 2.41898596286773681641e-01) (151, 6.19446858763694763184e-03) (152, 1.18786610662937164307e-01) (153, 3.49793940782546997070e-01) (154, -1.16415262222290039062e+00) (155, -9.81545969843864440918e-02) (156, 3.07374119758605957031e-01) (157, -9.51484620571136474609e-01) (158, 1.48352310061454772949e-01) (159, -1.53788149356842041016e-01) (160, 2.46575042605400085449e-01) (161, -9.08109366893768310547e-01) (162, 1.39351397752761840820e-01) (163, -1.46814763545989990234e-01) (164, -1.32399732246994972229e-02) (165, -9.59935367107391357422e-01) (166, -1.20581928640604019165e-02) (167, -1.03856898844242095947e-01) (168, 3.40282231569290161133e-01) (169, -9.31498035788536071777e-03) (170, -5.32846851274371147156e-03) (171, 2.02210634946823120117e-01) (172, 2.00172200798988342285e-01) (173, 8.47686976194381713867e-02) (174, 5.55023830384016036987e-03) (175, 1.24653734266757965088e-01) (176, 4.49241548776626586914e-01) (177, -1.09242536127567291260e-02) (178, 1.83218374848365783691e-01) (179, 1.97958312928676605225e-02) (180, 3.76496404409408569336e-01) (181, 1.20885614305734634399e-02) (182, 2.79785126447677612305e-01) (183, 3.57286669313907623291e-02) (184, 3.86262983083724975586e-01) (185, 1.21681787073612213135e-01) (186, 1.91368788480758666992e-01) (187, -6.32775127887725830078e-02) (188, 2.99503535032272338867e-01) (189, -6.21849158778786659241e-03) (190, 2.36729055643081665039e-01) (191, -5.43239600956439971924e-02) (192, 4.14978474378585815430e-01) (193, 7.38316727802157402039e-03) (194, 2.52656012773513793945e-01) (195, 1.84857212007045745850e-02) (196, 3.76754313707351684570e-01) (197, -1.69472601264715194702e-02) (198, 1.68423548340797424316e-01) (199, 1.12464115023612976074e-01) (200, 4.09990817308425903320e-01) (201, 1.05549991130828857422e-01) (202, 1.75413325428962707520e-01) (203, 1.77634015679359436035e-01) (204, 4.09442633390426635742e-01) (205, 1.23418450355529785156e-01) (206, 1.63026288151741027832e-01) (207, 1.44291475415229797363e-01) (208, 4.74640876054763793945e-01) (209, 1.64114590734243392944e-02) (210, 2.22052067518234252930e-01) (211, 1.36744499206542968750e-01) (212, 3.90646904706954956055e-01) (213, 2.33653211034834384918e-03) (214, 2.30437964200973510742e-01) (215, -1.33313030004501342773e-01) (216, 4.55832451581954956055e-01) (217, 6.53288811445236206055e-02) (218, 2.57204174995422363281e-01) (219, 4.23393957316875457764e-02) (220, 4.47901815176010131836e-01) (221, 3.41119378805160522461e-01) (222, 2.44583994150161743164e-01) (223, 1.06320664286613464355e-01) (224, 3.33630084991455078125e-01) (225, 3.44426125288009643555e-01) (226, 2.24938064813613891602e-01) (227, 1.53824597597122192383e-01) (228, 3.42938989400863647461e-01) (229, 4.40547823905944824219e-01) (230, 1.70590355992317199707e-01) (231, -3.62997292540967464447e-03) (232, 3.61557871103286743164e-01) (233, 3.93189847469329833984e-01) (234, 2.78305768966674804688e-01) (235, 1.44407125189900398254e-02) (236, 3.32068383693695068359e-01) (237, 4.88518059253692626953e-01) (238, 2.63033866882324218750e-01) (239, 5.01495562493801116943e-02) (240, 3.20389777421951293945e-01) (241, 3.32272171974182128906e-01) (242, 2.91195780038833618164e-01) (243, 1.54476791620254516602e-01) (244, 3.19736182689666748047e-01) (245, 3.68819862604141235352e-01) (246, 3.21295499801635742188e-01) (247, 1.90089363604784011841e-02) (248, 2.76253461837768554688e-01) (249, 4.25685822963714599609e-01) (250, 1.64253786206245422363e-01) (251, 1.67595595121383666992e-01) (252, 4.05245870351791381836e-01) (253, 4.56023931503295898438e-01) (254, 2.20384865999221801758e-01) (255, 1.82316184043884277344e-01) (256, 4.38890665769577026367e-01) (257, 4.92508977651596069336e-01) (258, 2.82609432935714721680e-01) (259, 2.52699423581361770630e-02) (260, 3.71497601270675659180e-01) (261, 5.00385880470275878906e-01) (262, 1.68108537793159484863e-01) (263, 1.76495552062988281250e-01) (264, 3.32016557455062866211e-01) (265, 5.74031591415405273438e-01) (266, 1.37404873967170715332e-01) (267, 6.78513944149017333984e-02) (268, 4.20559376478195190430e-01) (269, 5.28056144714355468750e-01) (270, 3.04143309593200683594e-01) (271, 1.44715562462806701660e-01) (272, 4.18337792158126831055e-01) (273, 5.22956311702728271484e-01) (274, 2.85334855318069458008e-01) (275, 1.41840472817420959473e-01) (276, 4.49785679578781127930e-01) (277, 5.34247457981109619141e-01) (278, 1.46991759538650512695e-01) (279, 1.29805773496627807617e-01) (280, 3.17942917346954345703e-01) (281, -2.12051346898078918457e-01) (282, 2.83543735742568969727e-01) (283, 1.32337257266044616699e-01) (284, 4.52896207571029663086e-01) (285, -2.19368353486061096191e-01) (286, 2.95413881540298461914e-01) (287, 1.00935518741607666016e-01) (288, 2.82064437866210937500e-01) (289, -1.45273640751838684082e-01) (290, 3.06965887546539306641e-01) (291, 6.27104043960571289062e-02) (292, 3.64036053419113159180e-01) (293, -2.48222485184669494629e-01) (294, 2.19966381788253784180e-01) (295, 1.05200946331024169922e-01) (296, 4.54301685094833374023e-01) (297, -1.65925517678260803223e-01) (298, 1.93486422300338745117e-01) (299, 8.40095877647399902344e-02) (300, 2.90623128414154052734e-01) (301, -2.25667133927345275879e-01) (302, 2.49159365892410278320e-01) (303, 1.18109375238418579102e-01) (304, 4.25781756639480590820e-01) (305, 1.74871888011693954468e-02) (306, 2.80384033918380737305e-01) (307, 9.64658558368682861328e-02) (308, 4.73937243223190307617e-01) (309, 1.10368855297565460205e-01) (310, 2.34955817461013793945e-01) (311, 1.27785131335258483887e-02) (312, 4.71434205770492553711e-01) (313, -1.33436045143753290176e-03) (314, 1.82444363832473754883e-01) (315, 6.37013971805572509766e-01) (316, 2.73377150297164916992e-01) (317, 1.23998045921325683594e-01) (318, 2.66385644674301147461e-01) (319, 8.25530365109443664551e-02) (320, 2.67173647880554199219e-01) (321, -2.49623566865921020508e-01) (322, 3.41135352849960327148e-01) (323, 1.63951769471168518066e-01) (324, 3.64320188760757446289e-01) (325, -2.61873304843902587891e-01) (326, 1.26485988497734069824e-01) (327, 6.38694837689399719238e-02) (328, 4.34367150068283081055e-01) (329, -1.64464101195335388184e-01) (330, 2.40359932184219360352e-01) (331, 5.51477491855621337891e-01) (332, 4.72034841775894165039e-01) (333, -2.40266531705856323242e-01) (334, 1.80828198790550231934e-01) (335, 2.25966989994049072266e-01) (336, 4.43298488855361938477e-01) (337, -2.68573641777038574219e-01) (338, 1.20261080563068389893e-01) (339, 2.45386213064193725586e-01) (340, 3.07873189449310302734e-01) (341, 1.28708913922309875488e-01) (342, 5.59929721057415008545e-02) (343, -1.30915373563766479492e-01) (344, 2.93001651763916015625e-01) (345, -2.20967922359704971313e-02) (346, 5.05149029195308685303e-02) (347, -6.19802214205265045166e-02) (348, 4.67528194189071655273e-01) (349, 7.34738111495971679688e-02) (350, 2.32424944639205932617e-01) (351, -8.80263969302177429199e-02) (352, 2.75699645280838012695e-01) (353, 5.28208017349243164062e-01) (354, 8.77773389220237731934e-02) (355, 1.58083632588386535645e-01) (356, 3.20109605789184570312e-01) (357, 5.07449805736541748047e-01) (358, 2.05518558621406555176e-01) (359, 7.25406408309936523438e-02) (360, 3.96760493516921997070e-01) (361, 5.03917276859283447266e-01) (362, 2.26344048976898193359e-01) (363, 1.86859264969825744629e-01) (364, 3.27627360820770263672e-01) (365, 6.71364665031433105469e-02) (366, 1.13488934934139251709e-01) (367, -1.39296919107437133789e-01) (368, 4.60613936185836791992e-01) (369, 9.37143713235855102539e-02) (370, 2.35038727521896362305e-01) (371, -1.41735672950744628906e-01) (372, 3.81196707487106323242e-01) (373, 1.50995895266532897949e-01) (374, 9.46714207530021667480e-02) (375, -3.60245555639266967773e-02) (376, 2.87672460079193115234e-01) (377, 5.15071675181388854980e-03) (378, 6.93177208304405212402e-02) (379, -1.55022114515304565430e-01) (380, 4.37397748231887817383e-01) (381, -3.82930375635623931885e-02) (382, 1.24273970723152160645e-01) (383, 2.87460908293724060059e-03) (384, 4.50613707304000854492e-01) (385, 7.20156431198120117188e-02) (386, 9.99940559267997741699e-02) (387, -1.39499485492706298828e-01) (388, 3.40164154767990112305e-01) (389, -3.45231033861637115479e-02) (390, 7.20769688487052917480e-02) (391, 2.67017763108015060425e-02) (392, 4.30092900991439819336e-01) (393, 1.58385261893272399902e-01) (394, 1.52596920728683471680e-01) (395, -1.52502596378326416016e-01) (396, 3.84295135736465454102e-01) (397, 1.26050144433975219727e-01) (398, 7.55229666829109191895e-02) (399, -6.53137192130088806152e-02) (400, -1.64651364088058471680e-01) (0, -7.14341774582862854004e-02) (1, -2.58339662104845046997e-03) (2, 1.82627230882644653320e-01) (3, 1.52446269989013671875e+00) (4, 7.29487314820289611816e-02) (5, 1.79530382156372070312e-02) (6, 1.90860539674758911133e-01) (7, 1.52300047874450683594e+00) (8, 6.81314617395401000977e-02) (9, -9.28112268447875976562e-02) (10, 3.39123368263244628906e-01) (11, 1.67473936080932617188e+00) (12, 1.23234549537301063538e-02) (13, 1.33485384285449981689e-02) (14, 3.04078310728073120117e-01) (15, 1.52924013137817382812e+00) (16, 9.42032784223556518555e-02) (17, 3.59293594956398010254e-02) (18, 2.48129472136497497559e-01) (19, 1.70458102226257324219e+00) (20, 8.88670235872268676758e-02) (21, -5.38183711469173431396e-02) (22, 3.13399165868759155273e-01) (23, 1.69215321540832519531e+00) (24, 7.96391740441322326660e-02) (25, 3.22470963001251220703e-02) (26, 2.55173593759536743164e-01) (27, 1.65059018135070800781e+00) (28, 8.86307805776596069336e-02) (29, 6.12103566527366638184e-02) (30, 2.07853376865386962891e-01) (31, 1.70405769348144531250e+00) (32, 2.01301798224449157715e-01) (33, -7.12846517562866210938e-02) (34, 4.28822129964828491211e-01) (35, 1.56215405464172363281e+00) (36, 2.89343178272247314453e-01) (37, -1.07826456427574157715e-01) (38, 2.85456031560897827148e-01) (39, 1.64537811279296875000e+00) (40, 1.42037227749824523926e-01) (41, -1.02929532527923583984e-01) (42, 3.20419192314147949219e-01) (43, 1.64226412773132324219e+00) (44, 2.53093749284744262695e-01) (45, -1.03011444211006164551e-01) (46, 3.71805846691131591797e-01) (47, 1.63520050048828125000e+00) (48, 2.75592684745788574219e-01) (49, -1.07573837041854858398e-01) (50, 3.40083390474319458008e-01) (51, 1.65236330032348632812e+00) (52, 1.81282654404640197754e-01) (53, -7.40264207124710083008e-02) (54, 3.44818204641342163086e-01) (55, 1.54882526397705078125e+00) (56, 3.87254536151885986328e-01) (57, 7.30107501149177551270e-02) (58, 3.99717211723327636719e-01) (59, -7.70805656909942626953e-01) (60, 3.62726926803588867188e-01) (61, 6.30404651165008544922e-02) (62, 3.71202141046524047852e-01) (63, 3.83639931678771972656e-01) (64, 2.37810596823692321777e-01) (65, 3.37296747602522373199e-04) (66, 3.18484276533126831055e-01) (67, 3.46765160560607910156e-01) (68, 3.38565677404403686523e-01) (69, 2.18023583292961120605e-02) (70, 3.64833623170852661133e-01) (71, 1.10064268112182617188e+00) (72, 3.47378671169281005859e-01) (73, -9.68851596117019653320e-02) (74, 3.15168559551239013672e-01) (75, 1.02051246166229248047e+00) (76, 2.28609204292297363281e-01) (77, -9.51636582612991333008e-02) (78, 4.27974671125411987305e-01) (79, 1.12424182891845703125e+00) (80, 2.25768297910690307617e-01) (81, -1.40799097716808319092e-02) (82, 3.48866850137710571289e-01) (83, 1.02709090709686279297e+00) (84, 3.40399503707885742188e-01) (85, -8.84529650211334228516e-02) (86, 3.48177850246429443359e-01) (87, 1.06133496761322021484e+00) (88, 2.12535589933395385742e-01) (89, -3.42429503798484802246e-02) (90, 3.11026304960250854492e-01) (91, 1.10894346237182617188e+00) (92, 2.74324327707290649414e-01) (93, -8.93225371837615966797e-02) (94, 2.47820973396301269531e-01) (95, 1.04581594467163085938e+00) (96, 3.56541633605957031250e-01) (97, -5.24597195908427238464e-03) (98, 3.47818344831466674805e-01) (99, 1.02878820896148681641e+00) (100, 2.44534134864807128906e-01) (101, -5.88990263640880584717e-02) (102, 2.84239590167999267578e-01) (103, 1.12559378147125244141e+00) (104, 2.72193670272827148438e-01) (105, 2.78571322560310363770e-02) (106, 3.00914794206619262695e-01) (107, 1.03448390960693359375e+00) (108, 3.60671341419219970703e-01) (109, -4.26614880561828613281e-02) (110, 3.13534379005432128906e-01) (111, 1.12012052536010742188e+00) (112, 3.71236383914947509766e-01) (113, -1.09149798750877380371e-01) (114, 3.02020102739334106445e-01) (115, 1.04531681537628173828e+00) (116, 2.30375051498413085938e-01) (117, 7.86469057202339172363e-02) (118, 2.61460363864898681641e-01) (119, 9.76591706275939941406e-01) (120, 2.72381782531738281250e-01) (121, 4.07698855269700288773e-04) (122, 2.40344062447547912598e-01) (123, 1.66293382644653320312e+00) (124, 4.16654527187347412109e-01) (125, -7.87841603159904479980e-02) (126, 2.81011551618576049805e-01) (127, 1.61236047744750976562e+00) (128, 3.39345425367355346680e-01) (129, 5.67509308457374572754e-02) (130, 4.13410335779190063477e-01) (131, 1.70010733604431152344e+00) (132, 2.26357623934745788574e-01) (133, -7.44290798902511596680e-02) (134, 3.97962957620620727539e-01) (135, 1.61477923393249511719e+00) (136, 3.81933927536010742188e-01) (137, -7.32012689113616943359e-02) (138, 4.21524733304977416992e-01) (139, 1.65883302688598632812e+00) (140, 3.12643080949783325195e-01) (141, -3.70198488235473632812e-02) (142, 3.51215392351150512695e-01) (143, 1.60010743141174316406e+00) (144, 2.82336235046386718750e-01) (145, 8.11564698815345764160e-02) (146, 4.17685806751251220703e-01) (147, 1.62893915176391601562e+00) (148, 3.88309240341186523438e-01) (149, -9.29328650236129760742e-02) (150, 3.77792537212371826172e-01) (151, 1.57691884040832519531e+00) (152, 5.61071336269378662109e-01) (153, 4.53106909990310668945e-02) (154, -7.77444168925285339355e-02) (155, 1.59232759475708007812e+00) (156, 9.79816377162933349609e-01) (157, -1.57200798392295837402e-01) (158, 3.81809324026107788086e-01) (159, 1.64674997329711914062e+00) (160, 4.15050119161605834961e-01) (161, -5.99669478833675384521e-02) (162, 1.25823307037353515625e+00) (163, 1.56687045097351074219e+00) (164, 5.96141993999481201172e-01) (165, -1.33244797587394714355e-01) (166, 1.29393434524536132812e+00) (167, 1.68850064277648925781e+00) (168, 5.09053945541381835938e-01) (169, -7.78284445405006408691e-02) (170, 1.25961828231811523438e+00) (171, 2.06544780731201171875e+00) (172, 1.49752110242843627930e-01) (173, 2.86308586597442626953e-01) (174, 1.25955164432525634766e+00) (175, 2.12967610359191894531e+00) (176, 2.26375013589859008789e-01) (177, 1.11273616552352905273e-01) (178, 2.58215248584747314453e-01) (179, 1.53091216087341308594e+00) (180, 3.18689525127410888672e-01) (181, 1.64440795779228210449e-01) (182, 3.25718969106674194336e-01) (183, 1.57142615318298339844e+00) (184, 3.10846805572509765625e-01) (185, 8.37195441126823425293e-02) (186, 3.81641417741775512695e-01) (187, 1.61825156211853027344e+00) (188, 3.22568476200103759766e-01) (189, 1.04477092623710632324e-01) (190, 2.82889366149902343750e-01) (191, 1.66308116912841796875e+00) (192, 2.40559816360473632812e-01) (193, 1.47894665598869323730e-01) (194, 4.47839617729187011719e-01) (195, 1.54712653160095214844e+00) (196, 2.10699453949928283691e-01) (197, 3.35575491189956665039e-01) (198, 4.53514993190765380859e-01) (199, 2.36657142639160156250e+00) (200, 2.68795877695083618164e-01) (201, 3.06934863328933715820e-01) (202, 4.10263687372207641602e-01) (203, 2.31920289993286132812e+00) (204, 3.35529834032058715820e-01) (205, 2.63616859912872314453e-01) (206, 4.27123904228210449219e-01) (207, 2.39948797225952148438e+00) (208, 3.58615696430206298828e-01) (209, 3.73537451028823852539e-01) (210, 4.26932871341705322266e-01) (211, 2.31488800048828125000e+00) (212, 3.21703314781188964844e-01) (213, 5.29116727411746978760e-02) (214, 3.82846951484680175781e-01) (215, 1.54877805709838867188e+00) (216, 3.08294862508773803711e-01) (217, 3.06186884641647338867e-01) (218, 3.84917289018630981445e-01) (219, 2.06537914276123046875e+00) (220, 3.40888917446136474609e-01) (221, 3.96066397428512573242e-01) (222, 4.28060352802276611328e-01) (223, 1.29208028316497802734e+00) (224, 2.87624746561050415039e-01) (225, 4.04159694910049438477e-01) (226, 2.62691140174865722656e-01) (227, 1.20895588397979736328e+00) (228, 2.95460432767868041992e-01) (229, 2.44465991854667663574e-01) (230, 2.77656137943267822266e-01) (231, 1.27488780021667480469e+00) (232, 3.07125926017761230469e-01) (233, 4.16179597377777099609e-01) (234, 2.96219885349273681641e-01) (235, 1.15328741073608398438e+00) (236, 2.35521644353866577148e-01) (237, 2.51603603363037109375e-01) (238, 4.54904258251190185547e-01) (239, 1.30476891994476318359e+00) (240, 3.80866229534149169922e-01) (241, 4.10096913576126098633e-01) (242, 3.21786135435104370117e-01) (243, 1.21320116519927978516e+00) (244, 2.06672206521034240723e-01) (245, 4.32892858982086181641e-01) (246, 3.85463237762451171875e-01) (247, 1.22559869289398193359e+00) (248, 2.41304665803909301758e-01) (249, 2.98640280961990356445e-01) (250, 3.96174043416976928711e-01) (251, 1.29282510280609130859e+00) (252, 2.10370406508445739746e-01) (253, 3.52494150400161743164e-01) (254, 4.13986027240753173828e-01) (255, 1.20862686634063720703e+00) (256, 2.72317618131637573242e-01) (257, 4.04936879873275756836e-01) (258, 4.46663022041320800781e-01) (259, 1.27840948104858398438e+00) (260, 3.65066587924957275391e-01) (261, 2.52578973770141601562e-01) (262, 3.82377922534942626953e-01) (263, 1.18282401561737060547e+00) (264, 3.84422242641448974609e-01) (265, 1.56016528606414794922e-01) (266, 3.65191876888275146484e-01) (267, 1.35222002863883972168e-01) (268, 3.74124884605407714844e-01) (269, 9.75149050354957580566e-02) (270, 2.64424979686737060547e-01) (271, 2.70269185304641723633e-01) (272, 2.74116605520248413086e-01) (273, 6.36298283934593200684e-02) (274, 3.07904243469238281250e-01) (275, 1.96066975593566894531e-01) (276, 2.63027459383010864258e-01) (277, 1.70786216855049133301e-01) (278, 4.46099579334259033203e-01) (279, 2.19610273838043212891e-01) (280, 2.35931217670440673828e-01) (281, 3.54264259338378906250e-01) (282, 3.36869448423385620117e-01) (283, -4.55692335963249206543e-02) (284, 2.38691240549087524414e-01) (285, 2.62846112251281738281e-01) (286, 3.94640535116195678711e-01) (287, 1.91379711031913757324e-02) (288, 3.99715960025787353516e-01) (289, 3.53294193744659423828e-01) (290, 3.29130560159683227539e-01) (291, 7.29114413261413574219e-02) (292, 3.37805986404418945312e-01) (293, 4.23499107360839843750e-01) (294, 2.87318557500839233398e-01) (295, 3.03572602570056915283e-02) (296, 3.62289607524871826172e-01) (297, 3.64501059055328369141e-01) (298, 3.92515808343887329102e-01) (299, 4.45434972643852233887e-02) (300, 2.44789823889732360840e-01) (301, 3.68931353092193603516e-01) (302, 3.41749161481857299805e-01) (303, 2.70354934036731719971e-02) (304, 2.15335056185722351074e-01) (305, 3.65281999111175537109e-01) (306, 4.50038969516754150391e-01) (307, -8.21006596088409423828e-02) (308, 3.15204203128814697266e-01) (309, 4.11767125129699707031e-01) (310, 4.33038353919982910156e-01) (311, -9.32781212031841278076e-03) (312, 3.10595452785491943359e-01) (313, 3.25301796197891235352e-01) (314, 1.31173515319824218750e+00) (315, -3.89859294891357421875e+00) (316, 2.29874610900878906250e-01) (317, 3.97815316915512084961e-01) (318, 4.05428260564804077148e-01) (319, 7.32106387615203857422e-01) (320, 2.14173257350921630859e-01) (321, 1.29966447129845619202e-02) (322, 4.02577608823776245117e-01) (323, 8.33158373832702636719e-01) (324, 3.23461621999740600586e-01) (325, -3.16660255193710327148e-02) (326, 5.45449316501617431641e-01) (327, 7.25194990634918212891e-01) (328, 2.19800844788551330566e-01) (329, -6.79714605212211608887e-02) (330, 2.44336307048797607422e-01) (331, -1.09766304492950439453e+00) (332, 3.87925803661346435547e-01) (333, -1.27211594954133033752e-02) (334, 4.05667752027511596680e-01) (335, 2.72952556610107421875e+00) (336, 2.36095055937767028809e-01) (337, 5.69002665579319000244e-02) (338, 3.03793966770172119141e-01) (339, 2.67756366729736328125e+00) (340, 3.52201640605926513672e-01) (341, -6.34197816252708435059e-02) (342, 3.24605196714401245117e-01) (343, 1.57902503013610839844e+00) (344, 3.07096600532531738281e-01) (345, -2.78661362826824188232e-02) (346, 2.34254553914070129395e-01) (347, 1.71627092361450195312e+00) (348, 2.15163677930831909180e-01) (349, -5.53584843873977661133e-02) (350, 3.14876198768615722656e-01) (351, 1.58729982376098632812e+00) (352, 3.85019898414611816406e-01) (353, 6.89522176980972290039e-02) (354, 2.86956489086151123047e-01) (355, 7.57382488250732421875e+00) (356, 2.18128353357315063477e-01) (357, 9.95298698544502258301e-02) (358, 4.16403174400329589844e-01) (359, 7.50327205657958984375e+00) (360, 2.12400600314140319824e-01) (361, -6.48002177476882934570e-02) (362, 3.24690610170364379883e-01) (363, 7.66566944122314453125e+00) (364, 3.03527265787124633789e-01) (365, -4.17206361889839172363e-02) (366, 4.25757855176925659180e-01) (367, 1.65585017204284667969e+00) (368, 2.42767661809921264648e-01) (369, -4.25271615386009216309e-02) (370, 3.13092112541198730469e-01) (371, 1.71119713783264160156e+00) (372, 3.23086857795715332031e-01) (373, 6.56182989478111267090e-02) (374, 2.79936939477920532227e-01) (375, 1.54641127586364746094e+00) (376, 2.66786009073257446289e-01) (377, -5.78876920044422149658e-02) (378, 2.52397328615188598633e-01) (379, 1.59817767143249511719e+00) (380, 3.15787643194198608398e-01) (381, -4.80567989870905876160e-03) (382, 3.75192135572433471680e-01) (383, 1.61703538894653320312e+00) (384, 2.46640726923942565918e-01) (385, -1.09930396080017089844e-01) (386, 2.31459751725196838379e-01) (387, 1.58099722862243652344e+00) (388, 3.72093796730041503906e-01) (389, 7.57836624979972839355e-02) (390, 3.24869006872177124023e-01) (391, 1.70072221755981445312e+00) (392, 3.93477797508239746094e-01) (393, 7.74805769324302673340e-02) (394, 4.06991392374038696289e-01) (395, 1.61323308944702148438e+00) (396, 2.64793753623962402344e-01) (397, 6.06702640652656555176e-02) (398, 2.58797943592071533203e-01) (399, 1.62378954887390136719e+00) (400, 1.30818831920623779297e+00) (0, -2.00421258807182312012e-01) (1, 1.31826534867286682129e-01) (2, 2.59126007556915283203e-01) (3, 4.43330496549606323242e-01) (4, -1.67672976851463317871e-01) (5, 2.29742914438247680664e-01) (6, 2.50111490488052368164e-01) (7, 3.52572679519653320312e-01) (8, -2.97296643257141113281e-01) (9, 7.24945515394210815430e-02) (10, 2.08355471491813659668e-01) (11, 4.76031184196472167969e-01) (12, -1.31749793887138366699e-01) (13, 4.95962090790271759033e-02) (14, 2.62666940689086914062e-01) (15, 5.36453664302825927734e-01) (16, -2.98380851745605468750e-01) (17, 6.78695514798164367676e-02) (18, 2.48542085289955139160e-01) (19, 3.55536371469497680664e-01) (20, -1.86697885394096374512e-01) (21, 1.73469960689544677734e-01) (22, 2.89009153842926025391e-01) (23, 4.68916118144989013672e-01) (24, -1.98975250124931335449e-01) (25, 1.26447647809982299805e-01) (26, 2.73704826831817626953e-01) (27, 4.39828485250473022461e-01) (28, -1.94191023707389831543e-01) (29, 1.21699698269367218018e-01) (30, 2.27000445127487182617e-01) (31, 3.83753508329391479492e-01) (32, 6.53674528002738952637e-02) (33, 1.37697502970695495605e-01) (34, 2.18565642833709716797e-01) (35, 4.77657258510589599609e-01) (36, -2.07185018807649612427e-02) (37, 1.19894213974475860596e-01) (38, 2.21711635589599609375e-01) (39, 4.61947888135910034180e-01) (40, 4.22999216243624687195e-03) (41, 8.12840536236763000488e-02) (42, 1.29460737109184265137e-01) (43, 4.52443093061447143555e-01) (44, -5.72785586118698120117e-02) (45, 4.33448366820812225342e-02) (46, 1.80378019809722900391e-01) (47, 4.24303650856018066406e-01) (48, -7.69443735480308532715e-02) (49, 8.01371559500694274902e-02) (50, 1.71321690082550048828e-01) (51, 5.16321003437042236328e-01) (52, 6.54482766985893249512e-02) (53, 1.11547954380512237549e-01) (54, 1.76718369126319885254e-01) (55, 4.46435958147048950195e-01) (56, 3.36904749274253845215e-02) (57, 5.59547580778598785400e-02) (58, 2.77745962142944335938e-01) (59, 4.50910747051239013672e-01) (60, 1.90349500626325607300e-02) (61, 6.36605247855186462402e-02) (62, 2.10664749145507812500e-01) (63, 2.37745940685272216797e-01) (64, -1.10644042491912841797e-01) (65, -1.20303565636277198792e-02) (66, 1.51068508625030517578e-01) (67, 2.21981048583984375000e-01) (68, -4.13820380344986915588e-03) (69, 1.78136870265007019043e-01) (70, 1.19594134390354156494e-01) (71, 4.41441386938095092773e-01) (72, -9.91986393928527832031e-02) (73, 5.44115640223026275635e-02) (74, 2.41543710231781005859e-01) (75, 4.84872430562973022461e-01) (76, -6.08631148934364318848e-02) (77, 2.72783972322940826416e-02) (78, 2.56835281848907470703e-01) (79, 5.03542065620422363281e-01) (80, -5.12039586901664733887e-02) (81, 3.35136987268924713135e-02) (82, 1.67521953582763671875e-01) (83, 4.55593913793563842773e-01) (84, -1.35578829795122146606e-02) (85, 1.49597033858299255371e-01) (86, 2.49689087271690368652e-01) (87, 4.77628439664840698242e-01) (88, -1.07382178306579589844e-01) (89, 1.32791906595230102539e-01) (90, 2.60896384716033935547e-01) (91, 5.69148659706115722656e-01) (92, -6.98641240596771240234e-02) (93, 7.70970210433006286621e-02) (94, 1.98916628956794738770e-01) (95, 4.76987689733505249023e-01) (96, -1.24988274183124303818e-03) (97, 1.55520960688591003418e-01) (98, 2.90990650653839111328e-01) (99, 4.52107876539230346680e-01) (100, 2.07237284630537033081e-02) (101, 1.61206498742103576660e-02) (102, 1.97565212845802307129e-01) (103, 5.79020977020263671875e-01) (104, -4.24017831683158874512e-02) (105, 4.46447171270847320557e-02) (106, 1.67909458279609680176e-01) (107, 5.54231047630310058594e-01) (108, -4.10108491778373718262e-02) (109, 3.02805844694375991821e-02) (110, 1.61789134144783020020e-01) (111, 5.65281033515930175781e-01) (112, -4.91396710276603698730e-02) (113, 1.34846895933151245117e-01) (114, 1.24890968203544616699e-01) (115, 3.94798427820205688477e-01) (116, -2.84901186823844909668e-02) (117, 1.80115953087806701660e-01) (118, 1.76442876458168029785e-01) (119, 5.21623611450195312500e-01) (120, -2.62068278971128165722e-05) (121, 8.85606929659843444824e-02) (122, 1.94788217544555664062e-01) (123, 5.43962717056274414062e-01) (124, 2.31285855174064636230e-01) (125, 4.49261777102947235107e-02) (126, 1.68609291315078735352e-01) (127, 4.19640988111495971680e-01) (128, 4.18275222182273864746e-02) (129, 1.10821358859539031982e-01) (130, 2.19408094882965087891e-01) (131, 4.76403951644897460938e-01) (132, -3.16775366663932800293e-02) (133, 6.81946352124214172363e-02) (134, 2.03084245324134826660e-01) (135, 5.39773821830749511719e-01) (136, -4.57801744341850280762e-02) (137, 2.22215086221694946289e-01) (138, 2.41663694381713867188e-01) (139, 5.27061998844146728516e-01) (140, -1.06123864650726318359e-01) (141, 5.46741969883441925049e-02) (142, 2.40002006292343139648e-01) (143, 4.58589047193527221680e-01) (144, 3.09015214443206787109e-02) (145, 2.16114401817321777344e-01) (146, 2.01046660542488098145e-01) (147, 4.16264057159423828125e-01) (148, 3.76106724143028259277e-02) (149, 2.28710949420928955078e-01) (150, 2.85546839237213134766e-01) (151, 4.51437145471572875977e-01) (152, -1.92187502980232238770e-01) (153, 1.07516281306743621826e-01) (154, -9.84146744012832641602e-02) (155, 5.33857762813568115234e-01) (156, 2.11811378598213195801e-01) (157, 3.17616075277328491211e-01) (158, 7.08605498075485229492e-02) (159, 4.27857756614685058594e-01) (160, -1.91108211874961853027e-01) (161, 3.26513737440109252930e-01) (162, 1.76065396517515182495e-02) (163, 4.95224118232727050781e-01) (164, -1.93826541304588317871e-01) (165, 2.60953217744827270508e-01) (166, 1.09359145164489746094e-01) (167, 4.47392255067825317383e-01) (168, -1.36377379298210144043e-01) (169, -1.67857304215431213379e-01) (170, 4.88156341016292572021e-02) (171, 1.20136365294456481934e-01) (172, 4.58225786685943603516e-01) (173, -5.05040287971496582031e-01) (174, 8.45920853316783905029e-03) (175, 5.89361786842346191406e-02) (176, -1.31210923194885253906e-01) (177, -4.17038053274154663086e-01) (178, -6.58283114433288574219e-01) (179, 5.20252704620361328125e-01) (180, 2.07378808408975601196e-03) (181, -4.36063021421432495117e-01) (182, -7.17165946960449218750e-01) (183, 5.28893351554870605469e-01) (184, -1.14105522632598876953e-01) (185, -3.93790811300277709961e-01) (186, -6.26105189323425292969e-01) (187, 4.71924602985382080078e-01) (188, 3.14285652711987495422e-03) (189, -5.44631123542785644531e-01) (190, -5.89073181152343750000e-01) (191, 5.30044794082641601562e-01) (192, 6.12001642584800720215e-02) (193, -5.56835651397705078125e-01) (194, -6.63587093353271484375e-01) (195, 3.54372620582580566406e-01) (196, -1.65648851543664932251e-02) (197, -3.65866273641586303711e-01) (198, -6.87090516090393066406e-01) (199, 3.33396345376968383789e-02) (200, 8.97214189171791076660e-03) (201, -2.49913185834884643555e-01) (202, -6.48279547691345214844e-01) (203, 6.06510601937770843506e-02) (204, 6.27199187874794006348e-02) (205, -2.51458734273910522461e-01) (206, -6.82168364524841308594e-01) (207, 2.13633641600608825684e-01) (208, -1.81373134255409240723e-02) (209, -3.88872712850570678711e-01) (210, -6.23241543769836425781e-01) (211, 6.60613700747489929199e-02) (212, 2.54237912595272064209e-02) (213, -5.23576438426971435547e-01) (214, -7.62173235416412353516e-01) (215, 5.25171279907226562500e-01) (216, 6.77399337291717529297e-02) (217, -3.38761121034622192383e-01) (218, -6.91759943962097167969e-01) (219, 1.29363358020782470703e-01) (220, -1.30971193313598632812e-01) (221, -4.14453238248825073242e-01) (222, -6.74075603485107421875e-01) (223, 6.30052685737609863281e-01) (224, -3.57304140925407409668e-02) (225, -4.71282899379730224609e-01) (226, -5.90401291847229003906e-01) (227, 4.47528630495071411133e-01) (228, -3.63382622599601745605e-02) (229, -4.11111980676651000977e-01) (230, -7.62230455875396728516e-01) (231, 4.72457796335220336914e-01) (232, -6.02142550051212310791e-02) (233, -3.44130396842956542969e-01) (234, -7.09990024566650390625e-01) (235, 5.02329409122467041016e-01) (236, 5.22187352180480957031e-03) (237, -3.25778603553771972656e-01) (238, -7.27135598659515380859e-01) (239, 4.86908435821533203125e-01) (240, -1.13840281963348388672e-01) (241, -4.83997374773025512695e-01) (242, -6.90129041671752929688e-01) (243, 6.11407160758972167969e-01) (244, -7.20153152942657470703e-02) (245, -3.85922670364379882812e-01) (246, -6.38248443603515625000e-01) (247, 4.95548427104949951172e-01) (248, -2.18114033341407775879e-02) (249, -4.63628649711608886719e-01) (250, -5.94542860984802246094e-01) (251, 5.47041058540344238281e-01) (252, 7.92804732918739318848e-03) (253, -4.02238637208938598633e-01) (254, -6.83703899383544921875e-01) (255, 4.72021549940109252930e-01) (256, 1.24883987009525299072e-02) (257, -4.07725363969802856445e-01) (258, -7.41247713565826416016e-01) (259, 4.75974053144454956055e-01) (260, 6.71726763248443603516e-02) (261, -4.37098503112792968750e-01) (262, -7.12366104125976562500e-01) (263, 5.06782174110412597656e-01) (264, -9.52189415693283081055e-02) (265, 2.54756599664688110352e-01) (266, -6.51686191558837890625e-01) (267, 2.90937572717666625977e-01) (268, 4.25501912832260131836e-03) (269, 2.98290938138961791992e-01) (270, -7.64062583446502685547e-01) (271, 2.71349310874938964844e-01) (272, -1.10429465770721435547e-01) (273, 2.22921177744865417480e-01) (274, -6.59152030944824218750e-01) (275, 1.98489964008331298828e-01) (276, -8.77246111631393432617e-02) (277, 1.79712384939193725586e-01) (278, -6.47870421409606933594e-01) (279, 2.71398633718490600586e-01) (280, -8.63948464393615722656e-03) (281, -1.76114991307258605957e-01) (282, -7.23468720912933349609e-01) (283, 1.79687812924385070801e-01) (284, -9.22621339559555053711e-02) (285, -1.40874519944190979004e-01) (286, -6.89664006233215332031e-01) (287, 3.00625354051589965820e-01) (288, -6.25083297491073608398e-02) (289, -1.64613500237464904785e-01) (290, -7.64773666858673095703e-01) (291, 1.85063585638999938965e-01) (292, -1.15620508790016174316e-01) (293, -2.10841670632362365723e-01) (294, -6.49527430534362792969e-01) (295, 1.69559806585311889648e-01) (296, -8.07264894247055053711e-02) (297, -2.34915450215339660645e-01) (298, -7.61986553668975830078e-01) (299, 3.03927630186080932617e-01) (300, -6.12659230828285217285e-02) (301, -2.59751319885253906250e-01) (302, -6.47206902503967285156e-01) (303, 2.08703860640525817871e-01) (304, 3.85284647345542907715e-02) (305, -5.27907460927963256836e-02) (306, -6.15290403366088867188e-01) (307, -7.21295028924942016602e-02) (308, 1.50099750608205795288e-02) (309, -9.59264114499092102051e-03) (310, -6.19882225990295410156e-01) (311, -1.65628846734762191772e-02) (312, -8.68044942617416381836e-02) (313, -3.51833254098892211914e-02) (314, 2.20480561256408691406e-01) (315, -3.02000075578689575195e-01) (316, 5.56917846202850341797e-01) (317, -3.69873195886611938477e-02) (318, 6.96893036365509033203e-02) (319, -5.38634546101093292236e-02) (320, -1.78286135196685791016e-01) (321, 8.02399814128875732422e-02) (322, 1.38931289315223693848e-01) (323, 6.74813985824584960938e-02) (324, 5.68654164671897888184e-02) (325, 6.47282227873802185059e-02) (326, 1.10930383205413818359e-01) (327, -8.34618583321571350098e-02) (328, 1.72798912972211837769e-02) (329, 5.81101775169372558594e-02) (330, 1.18675358593463897705e-01) (331, -7.43391662836074829102e-02) (332, -1.41738373786211013794e-02) (333, 1.72223135828971862793e-01) (334, 2.03326359391212463379e-01) (335, 2.74809747934341430664e-01) (336, -9.62790101766586303711e-02) (337, 8.87905582785606384277e-02) (338, 1.94166317582130432129e-01) (339, 3.69186133146286010742e-01) (340, 6.34866654872894287109e-02) (341, 1.05663366615772247314e-01) (342, 1.44109338521957397461e-01) (343, 3.90534788370132446289e-01) (344, -3.04555185139179229736e-02) (345, 2.19997584819793701172e-01) (346, 2.16623365879058837891e-01) (347, 4.51642841100692749023e-01) (348, -1.17925301194190979004e-01) (349, 2.28012293577194213867e-01) (350, 2.62535274028778076172e-01) (351, 5.38630425930023193359e-01) (352, -4.95198294520378112793e-02) (353, 1.49304971098899841309e-01) (354, 2.70867347717285156250e-01) (355, -1.57354488968849182129e-01) (356, 5.01224100589752197266e-02) (357, 6.34780898690223693848e-02) (358, 2.02492460608482360840e-01) (359, -9.72978472709655761719e-02) (360, -4.23225089907646179199e-02) (361, 1.78527981042861938477e-01) (362, 2.42424070835113525391e-01) (363, -2.21196413040161132812e-01) (364, -2.90681645274162292480e-02) (365, 9.69717875123023986816e-02) (366, 1.86866134405136108398e-01) (367, 4.88505631685256958008e-01) (368, 1.20819546282291412354e-02) (369, 2.32253849506378173828e-01) (370, 2.12391734123229980469e-01) (371, 4.89421367645263671875e-01) (372, -6.63879215717315673828e-02) (373, 2.07722485065460205078e-01) (374, 2.71258592605590820312e-01) (375, 5.17009615898132324219e-01) (376, 2.34148167073726654053e-02) (377, 1.39103427529335021973e-01) (378, 1.59954562783241271973e-01) (379, 5.19342541694641113281e-01) (380, -3.71895357966423034668e-02) (381, 7.37112537026405334473e-02) (382, 2.49274656176567077637e-01) (383, 5.27143776416778564453e-01) (384, 1.25723220407962799072e-02) (385, 1.71363502740859985352e-01) (386, 1.39644160866737365723e-01) (387, 4.76547360420227050781e-01) (388, 2.43976972997188568115e-02) (389, 1.93358033895492553711e-01) (390, 1.49104833602905273438e-01) (391, 3.95927846431732177734e-01) (392, -3.85579988360404968262e-02) (393, 4.27502654492855072021e-02) (394, 1.44586741924285888672e-01) (395, 5.46226978302001953125e-01) (396, -6.45830333232879638672e-02) (397, 1.82674258947372436523e-01) (398, 2.26034581661224365234e-01) (399, 3.61351549625396728516e-01) (400, -3.81181508302688598633e-01) (0, 7.48367980122566223145e-02) (1, 3.54230523109436035156e-01) (2, 1.14074379205703735352e-01) (3, 1.04324531555175781250e+00) (4, 1.49744540452957153320e-01) (5, 3.78554463386535644531e-01) (6, 2.86319255828857421875e-01) (7, 1.04953408241271972656e+00) (8, 6.27643167972564697266e-02) (9, 3.53132247924804687500e-01) (10, 2.32003539800643920898e-01) (11, 1.09716188907623291016e+00) (12, 1.26662313938140869141e-01) (13, 3.06617826223373413086e-01) (14, 1.29393190145492553711e-01) (15, 1.05871188640594482422e+00) (16, 1.70517355203628540039e-01) (17, 3.53411436080932617188e-01) (18, 3.02768647670745849609e-01) (19, 1.12456142902374267578e+00) (20, 2.67714858055114746094e-02) (21, 2.46167436242103576660e-01) (22, 3.05662572383880615234e-01) (23, 1.03020799160003662109e+00) (24, 1.15009434521198272705e-01) (25, 3.99359971284866333008e-01) (26, 1.85283988714218139648e-01) (27, 1.05836987495422363281e+00) (28, 1.49650007486343383789e-01) (29, 2.94106513261795043945e-01) (30, 2.88651823997497558594e-01) (31, 1.19998383522033691406e+00) (32, 1.29886522889137268066e-01) (33, 3.94210278987884521484e-01) (34, 5.79093582928180694580e-02) (35, 1.18567883968353271484e+00) (36, 2.54314035177230834961e-01) (37, 3.90511214733123779297e-01) (38, 2.49892994761466979980e-01) (39, 1.02312636375427246094e+00) (40, 2.25192919373512268066e-01) (41, 3.28179240226745605469e-01) (42, 1.34968385100364685059e-01) (43, 1.05790305137634277344e+00) (44, 1.16346500813961029053e-01) (45, 3.10644119977951049805e-01) (46, 1.31295129656791687012e-01) (47, 1.19291174411773681641e+00) (48, 1.45605042576789855957e-01) (49, 2.80346333980560302734e-01) (50, 1.32153317332267761230e-01) (51, 1.07842445373535156250e+00) (52, 2.08063259720802307129e-01) (53, 2.84098416566848754883e-01) (54, 1.23312704265117645264e-01) (55, 1.02912044525146484375e+00) (56, -2.54904031753540039062e-01) (57, 2.99077332019805908203e-01) (58, 1.02170504629611968994e-01) (59, 2.25545811653137207031e+00) (60, -2.89376616477966308594e-01) (61, 1.86331257224082946777e-01) (62, 2.12808787822723388672e-01) (63, 2.96460419893264770508e-01) (64, -3.07047218084335327148e-01) (65, 3.43586295843124389648e-01) (66, 7.48184770345687866211e-02) (67, 4.03217494487762451172e-01) (68, -1.53490975499153137207e-01) (69, 1.92551642656326293945e-01) (70, 2.19023168087005615234e-01) (71, 1.01093709468841552734e+00) (72, -1.61829546093940734863e-01) (73, 2.21831619739532470703e-01) (74, 1.78234681487083435059e-01) (75, 1.09375214576721191406e+00) (76, -1.50084689259529113770e-01) (77, 1.77369892597198486328e-01) (78, 1.96058243513107299805e-01) (79, 9.34756159782409667969e-01) (80, -2.24844202399253845215e-01) (81, 1.96051627397537231445e-01) (82, 1.22574396431446075439e-01) (83, 9.22454774379730224609e-01) (84, -2.02410474419593811035e-01) (85, 3.13727021217346191406e-01) (86, 6.09690658748149871826e-02) (87, 9.01833236217498779297e-01) (88, -2.13953956961631774902e-01) (89, 2.30979710817337036133e-01) (90, 3.19327116012573242188e-02) (91, 1.05581641197204589844e+00) (92, -2.14475855231285095215e-01) (93, 3.35142284631729125977e-01) (94, 6.22312799096107482910e-02) (95, 1.03762388229370117188e+00) (96, -1.53057888150215148926e-01) (97, 2.27450728416442871094e-01) (98, 1.50795847177505493164e-01) (99, 1.05259799957275390625e+00) (100, -2.06756249070167541504e-01) (101, 2.60219663381576538086e-01) (102, 9.02047157287597656250e-02) (103, 9.90561544895172119141e-01) (104, -1.44707158207893371582e-01) (105, 1.58840358257293701172e-01) (106, 1.10982753336429595947e-01) (107, 1.06435489654541015625e+00) (108, -2.90548563003540039062e-01) (109, 1.97441935539245605469e-01) (110, 2.25780054926872253418e-01) (111, 1.04375422000885009766e+00) (112, -2.33265116810798645020e-01) (113, 2.38755404949188232422e-01) (114, 1.92877978086471557617e-01) (115, 9.23471987247467041016e-01) (116, -2.74276256561279296875e-01) (117, 3.44247847795486450195e-01) (118, 5.19736036658287048340e-02) (119, 1.07091689109802246094e+00) (120, -2.51531004905700683594e-01) (121, 2.30109155178070068359e-01) (122, 1.53402954339981079102e-01) (123, 1.21041524410247802734e+00) (124, 3.24327826499938964844e-01) (125, 3.56539040803909301758e-01) (126, 1.57433643937110900879e-01) (127, 1.20605528354644775391e+00) (128, -2.93272972106933593750e-01) (129, 2.54432082176208496094e-01) (130, 1.68047681450843811035e-01) (131, 1.17639291286468505859e+00) (132, -1.67908385396003723145e-01) (133, 4.04455155134201049805e-01) (134, 7.63484686613082885742e-02) (135, 1.16380631923675537109e+00) (136, -3.19265097379684448242e-01) (137, 3.33534002304077148438e-01) (138, 1.37555882334709167480e-01) (139, 1.06660866737365722656e+00) (140, -1.51584461331367492676e-01) (141, 3.09538662433624267578e-01) (142, 2.19757378101348876953e-01) (143, 1.09157240390777587891e+00) (144, -1.34266331791877746582e-01) (145, 3.58838081359863281250e-01) (146, 1.24438248574733734131e-01) (147, 1.06787955760955810547e+00) (148, -1.79474309086799621582e-01) (149, 3.22614639997482299805e-01) (150, 4.81908470392227172852e-02) (151, 1.04541671276092529297e+00) (152, -4.43875789642333984375e-01) (153, 3.92165541648864746094e-01) (154, -5.51921594887971878052e-03) (155, 1.17347455024719238281e+00) (156, 3.10299426317214965820e-01) (157, 8.41149210929870605469e-01) (158, 1.93530142307281494141e-01) (159, 1.15442037582397460938e+00) (160, -1.75491824746131896973e-01) (161, 7.75461137294769287109e-01) (162, 2.83799648284912109375e-01) (163, 1.17617106437683105469e+00) (164, -5.67748665809631347656e-01) (165, 8.35045576095581054688e-01) (166, 2.59303629398345947266e-01) (167, 1.10914945602416992188e+00) (168, -3.02493631839752197266e-01) (169, 7.32717096805572509766e-01) (170, 2.95084238052368164062e-01) (171, 1.28830885887145996094e+00) (172, 4.17900562286376953125e-01) (173, 1.15607416629791259766e+00) (174, 2.76391685009002685547e-01) (175, 1.35200321674346923828e+00) (176, -2.45686665177345275879e-01) (177, 1.84135162830352783203e+00) (178, 3.00642073154449462891e-01) (179, 1.05126118659973144531e+00) (180, -1.95921644568443298340e-01) (181, 2.00510454177856445312e+00) (182, 2.00253039598464965820e-01) (183, 1.09486186504364013672e+00) (184, -2.06985846161842346191e-01) (185, 1.90447688102722167969e+00) (186, 1.71911627054214477539e-01) (187, 1.04070734977722167969e+00) (188, -3.03823471069335937500e-01) (189, 1.99983239173889160156e+00) (190, 2.98702955245971679688e-01) (191, 1.04025614261627197266e+00) (192, -2.74155139923095703125e-01) (193, 1.87790822982788085938e+00) (194, 3.20002436637878417969e-01) (195, 1.15425932407379150391e+00) (196, -1.36495545506477355957e-01) (197, 1.57761907577514648438e+00) (198, 1.66984081268310546875e-01) (199, 1.46073496341705322266e+00) (200, -2.35660508275032043457e-01) (201, 1.66038107872009277344e+00) (202, 2.49650642275810241699e-01) (203, 1.40794610977172851562e+00) (204, -2.34916165471076965332e-01) (205, 1.52435517311096191406e+00) (206, 2.60555952787399291992e-01) (207, 1.57597196102142333984e+00) (208, -2.84953951835632324219e-01) (209, 1.57526183128356933594e+00) (210, 1.50655537843704223633e-01) (211, 1.57569932937622070312e+00) (212, -2.70293116569519042969e-01) (213, 1.89572501182556152344e+00) (214, 1.93983554840087890625e-01) (215, 1.19914329051971435547e+00) (216, -1.81211426854133605957e-01) (217, 1.11142289638519287109e+00) (218, 1.43425926566123962402e-01) (219, 1.41420304775238037109e+00) (220, -2.70868539810180664062e-01) (221, 2.03729963302612304688e+00) (222, 3.35218608379364013672e-01) (223, 6.99656486511230468750e-01) (224, -3.16559523344039916992e-01) (225, 2.05039215087890625000e+00) (226, 1.89233154058456420898e-01) (227, 5.91624975204467773438e-01) (228, -2.73003697395324707031e-01) (229, 1.95138812065124511719e+00) (230, 2.07524448633193969727e-01) (231, 7.36015796661376953125e-01) (232, -2.89245605468750000000e-01) (233, 2.05234575271606445312e+00) (234, 2.99126327037811279297e-01) (235, 7.20518231391906738281e-01) (236, -3.24313849210739135742e-01) (237, 1.95485329627990722656e+00) (238, 2.51654654741287231445e-01) (239, 6.35412395000457763672e-01) (240, -1.70899465680122375488e-01) (241, 1.99748098850250244141e+00) (242, 1.66276216506958007812e-01) (243, 6.03487491607666015625e-01) (244, -1.38561323285102844238e-01) (245, 1.95543050765991210938e+00) (246, 3.37947905063629150391e-01) (247, 7.24907159805297851562e-01) (248, -1.65625169873237609863e-01) (249, 2.07654476165771484375e+00) (250, 2.51611679792404174805e-01) (251, 6.08186364173889160156e-01) (252, -1.68277218937873840332e-01) (253, 1.98200142383575439453e+00) (254, 2.74902105331420898438e-01) (255, 7.59843289852142333984e-01) (256, -2.49728307127952575684e-01) (257, 2.05930614471435546875e+00) (258, 3.18527460098266601562e-01) (259, 7.21947968006134033203e-01) (260, -2.71427750587463378906e-01) (261, 1.92122292518615722656e+00) (262, 2.25023210048675537109e-01) (263, 6.84006869792938232422e-01) (264, -3.08553189039230346680e-01) (265, 1.36298608779907226562e+00) (266, 1.71584457159042358398e-01) (267, 1.16144549846649169922e+00) (268, -2.07948103547096252441e-01) (269, 1.46207571029663085938e+00) (270, 2.14284986257553100586e-01) (271, 1.21546471118927001953e+00) (272, -2.66230821609497070312e-01) (273, 1.41939771175384521484e+00) (274, 2.36379265785217285156e-01) (275, 1.18952012062072753906e+00) (276, -1.50959208607673645020e-01) (277, 1.41316378116607666016e+00) (278, 3.31854283809661865234e-01) (279, 1.27772772312164306641e+00) (280, -2.36078932881355285645e-01) (281, 4.47363108396530151367e-01) (282, 3.03341031074523925781e-01) (283, 1.18902266025543212891e+00) (284, -3.21483582258224487305e-01) (285, 4.42140221595764160156e-01) (286, 1.67226493358612060547e-01) (287, 1.22216701507568359375e+00) (288, -2.49401435256004333496e-01) (289, 3.49650979042053222656e-01) (290, 1.62475526332855224609e-01) (291, 1.27254974842071533203e+00) (292, -2.79974102973937988281e-01) (293, 4.51395601034164428711e-01) (294, 1.74917191267013549805e-01) (295, 1.20485174655914306641e+00) (296, -1.80131748318672180176e-01) (297, 4.10398483276367187500e-01) (298, 2.35025435686111450195e-01) (299, 1.20529901981353759766e+00) (300, -3.22039455175399780273e-01) (301, 5.13207197189331054688e-01) (302, 2.89491832256317138672e-01) (303, 1.20510876178741455078e+00) (304, -2.61908769607543945312e-01) (305, 2.40707850456237792969e+00) (306, 2.63357043266296386719e-01) (307, 1.43924677371978759766e+00) (308, -1.91581711173057556152e-01) (309, 2.47641897201538085938e+00) (310, 3.26966822147369384766e-01) (311, 1.42445397377014160156e+00) (312, -3.13102573156356811523e-01) (313, 1.07758152484893798828e+00) (314, -2.23928600549697875977e-01) (315, 7.02099502086639404297e-01) (316, 3.47639977931976318359e-01) (317, 1.03890240192413330078e+00) (318, 1.60420477390289306641e-01) (319, 7.08175837993621826172e-01) (320, 1.35222136974334716797e-01) (321, 5.35231053829193115234e-01) (322, 1.12758956849575042725e-01) (323, 7.46434867382049560547e-01) (324, -2.91184544563293457031e-01) (325, 5.00011086463928222656e-01) (326, 1.09264940023422241211e-01) (327, 7.69489824771881103516e-01) (328, -1.67401269078254699707e-01) (329, 5.30680537223815917969e-01) (330, 8.55673849582672119141e-02) (331, 6.62511408329010009766e-01) (332, -2.33923271298408508301e-01) (333, 3.07924032211303710938e-01) (334, 6.72526657581329345703e-02) (335, 1.51722574234008789062e+00) (336, -2.79394030570983886719e-01) (337, 4.63474512100219726562e-01) (338, 3.62636744976043701172e-02) (339, 1.54208207130432128906e+00) (340, -2.54503130912780761719e-01) (341, 3.97977530956268310547e-01) (342, 4.63272184133529663086e-02) (343, 1.10881650447845458984e+00) (344, -1.86785563826560974121e-01) (345, 3.05476635694503784180e-01) (346, 1.42772033810615539551e-01) (347, 1.20640778541564941406e+00) (348, -3.17965716123580932617e-01) (349, 2.28140503168106079102e-01) (350, 1.42319038510322570801e-01) (351, 1.14405930042266845703e+00) (352, -1.73833683133125305176e-01) (353, 3.88371437788009643555e-01) (354, 1.18229679763317108154e-01) (355, 1.23671829700469970703e+00) (356, -2.57168054580688476562e-01) (357, 3.34843158721923828125e-01) (358, 2.08629161119461059570e-01) (359, 1.07716715335845947266e+00) (360, -2.80027151107788085938e-01) (361, 2.48744755983352661133e-01) (362, 3.09535004198551177979e-02) (363, 1.18778610229492187500e+00) (364, -2.88156867027282714844e-01) (365, 2.44409009814262390137e-01) (366, 1.35181337594985961914e-01) (367, 1.10887134075164794922e+00) (368, -3.28596800565719604492e-01) (369, 3.17647784948348999023e-01) (370, 1.06437243521213531494e-01) (371, 1.09332239627838134766e+00) (372, -2.22736939787864685059e-01) (373, 2.98967242240905761719e-01) (374, 1.94258242845535278320e-01) (375, 1.06689953804016113281e+00) (376, -1.33918359875679016113e-01) (377, 2.83232986927032470703e-01) (378, 6.54266178607940673828e-02) (379, 1.02453804016113281250e+00) (380, -2.26988777518272399902e-01) (381, 3.53948384523391723633e-01) (382, 1.60716876387596130371e-01) (383, 1.07559955120086669922e+00) (384, -2.04387918114662170410e-01) (385, 2.25149363279342651367e-01) (386, 7.91227817535400390625e-02) (387, 1.21486628055572509766e+00) (388, -1.86715230345726013184e-01) (389, 2.33954772353172302246e-01) (390, 5.88382966816425323486e-02) (391, 1.20967984199523925781e+00) (392, -2.64008402824401855469e-01) (393, 2.35994681715965270996e-01) (394, 1.64270982146263122559e-01) (395, 1.12425696849822998047e+00) (396, -2.57958889007568359375e-01) (397, 2.45655074715614318848e-01) (398, 2.25247800350189208984e-01) (399, 1.08986675739288330078e+00) (400, 1.15305829048156738281e+00) (0, 2.75777101516723632812e-01) (1, 8.31785619258880615234e-01) (2, 1.58899024128913879395e-01) (3, 1.99642813205718994141e+00) (4, 3.13658624887466430664e-01) (5, 7.94121801853179931641e-01) (6, 2.61269837617874145508e-01) (7, 2.01857495307922363281e+00) (8, 3.47163170576095581055e-01) (9, 8.54131221771240234375e-01) (10, 1.90346673130989074707e-01) (11, 1.92279553413391113281e+00) (12, 3.02462667226791381836e-01) (13, 8.34269464015960693359e-01) (14, 1.17167510092258453369e-01) (15, 1.94929599761962890625e+00) (16, 4.01006966829299926758e-01) (17, 7.00357019901275634766e-01) (18, 1.61340609192848205566e-01) (19, 1.85664558410644531250e+00) (20, 2.46810048818588256836e-01) (21, 7.39343702793121337891e-01) (22, 1.91397264599800109863e-01) (23, 1.90448844432830810547e+00) (24, 3.91229361295700073242e-01) (25, 8.83977532386779785156e-01) (26, 2.45289847254753112793e-01) (27, 1.85856842994689941406e+00) (28, 3.96840065717697143555e-01) (29, 7.03479707241058349609e-01) (30, 2.82268881797790527344e-01) (31, 1.89641153812408447266e+00) (32, -7.22157806158065795898e-02) (33, 7.29217708110809326172e-01) (34, 1.69153019785881042480e-01) (35, 1.90385591983795166016e+00) (36, -8.41415748000144958496e-02) (37, 8.82984161376953125000e-01) (38, 1.98744654655456542969e-01) (39, 1.92543482780456542969e+00) (40, -7.03658908605575561523e-02) (41, 8.41652572154998779297e-01) (42, 3.24543148279190063477e-01) (43, 1.89450991153717041016e+00) (44, -1.31559059023857116699e-01) (45, 6.94272100925445556641e-01) (46, 3.20118814706802368164e-01) (47, 1.93186092376708984375e+00) (48, -2.12852075695991516113e-01) (49, 