FANN_FLO_2.1
num_layers=3
learning_rate=0.001000
connection_rate=1.000000
network_type=0
learning_momentum=0.000000
training_algorithm=2
train_error_function=1
train_stop_function=0
cascade_output_change_fraction=0.010000
quickprop_decay=-0.000100
quickprop_mu=1.750000
rprop_increase_factor=1.200000
rprop_decrease_factor=0.500000
rprop_delta_min=0.000000
rprop_delta_max=50.000000
rprop_delta_zero=0.100000
cascade_output_stagnation_epochs=12
cascade_candidate_change_fraction=0.010000
cascade_candidate_stagnation_epochs=12
cascade_max_out_epochs=150
cascade_min_out_epochs=50
cascade_max_cand_epochs=150
cascade_min_cand_epochs=50
cascade_num_candidate_groups=2
bit_fail_limit=3.49999994039535522461e-01
cascade_candidate_limit=1.00000000000000000000e+03
cascade_weight_multiplier=4.00000005960464477539e-01
cascade_activation_functions_count=10
cascade_activation_functions=3 5 7 8 10 11 14 15 16 17 
cascade_activation_steepnesses_count=4
cascade_activation_steepnesses=2.50000000000000000000e-01 5.00000000000000000000e-01 7.50000000000000000000e-01 1.00000000000000000000e+00 
layer_sizes=401 3 3 
scale_included=0
neurons (num_inputs, activation_function, activation_steepness)=(0, 0, 0.00000000000000000000e+00) (0, 0, 0.00000000000000000000e+00) (0, 0, 0.00000000000000000000e+00) (0, 0, 0.00000000000000000000e+00) (0, 0, 0.00000000000000000000e+00) (0, 0, 0.00000000000000000000e+00) (0, 0, 0.00000000000000000000e+00) (0, 0, 0.00000000000000000000e+00) (0, 0, 0.00000000000000000000e+00) (0, 0, 0.00000000000000000000e+00) (0, 0, 0.00000000000000000000e+00) (0, 0, 0.00000000000000000000e+00) (0, 0, 0.00000000000000000000e+00) (0, 0, 0.00000000000000000000e+00) (0, 0, 0.00000000000000000000e+00) (0, 0, 0.00000000000000000000e+00) (0, 0, 0.00000000000000000000e+00) (0, 0, 0.00000000000000000000e+00) (0, 0, 0.00000000000000000000e+00) (0, 0, 0.00000000000000000000e+00) (0, 0, 0.00000000000000000000e+00) (0, 0, 0.00000000000000000000e+00) (0, 0, 0.00000000000000000000e+00) (0, 0, 0.00000000000000000000e+00) (0, 0, 0.00000000000000000000e+00) (0, 0, 0.00000000000000000000e+00) (0, 0, 0.00000000000000000000e+00) (0, 0, 0.00000000000000000000e+00) (0, 0, 0.00000000000000000000e+00) (0, 0, 0.00000000000000000000e+00) (0, 0, 0.00000000000000000000e+00) (0, 0, 0.00000000000000000000e+00) (0, 0, 0.00000000000000000000e+00) (0, 0, 0.00000000000000000000e+00) (0, 0, 0.00000000000000000000e+00) (0, 0, 0.00000000000000000000e+00) (0, 0, 0.00000000000000000000e+00) (0, 0, 0.00000000000000000000e+00) (0, 0, 0.00000000000000000000e+00) (0, 0, 0.00000000000000000000e+00) (0, 0, 0.00000000000000000000e+00) (0, 0, 0.00000000000000000000e+00) (0, 0, 0.00000000000000000000e+00) (0, 0, 0.00000000000000000000e+00) (0, 0, 0.00000000000000000000e+00) (0, 0, 0.00000000000000000000e+00) (0, 0, 0.00000000000000000000e+00) (0, 0, 0.00000000000000000000e+00) (0, 0, 0.00000000000000000000e+00) (0, 0, 0.00000000000000000000e+00) (0, 0, 0.00000000000000000000e+00) (0, 0, 0.00000000000000000000e+00) (0, 0, 0.00000000000000000000e+00) (0, 0, 0.00000000000000000000e+00) (0, 0, 0.00000000000000000000e+00) (0, 0, 0.00000000000000000000e+00) (0, 0, 0.00000000000000000000e+00) (0, 0, 0.00000000000000000000e+00) (0, 0, 0.00000000000000000000e+00) (0, 0, 0.00000000000000000000e+00) (0, 0, 0.00000000000000000000e+00) (0, 0, 0.00000000000000000000e+00) (0, 0, 0.00000000000000000000e+00) (0, 0, 0.00000000000000000000e+00) (0, 0, 0.00000000000000000000e+00) (0, 0, 0.00000000000000000000e+00) (0, 0, 0.00000000000000000000e+00) (0, 0, 0.00000000000000000000e+00) (0, 0, 0.00000000000000000000e+00) (0, 0, 0.00000000000000000000e+00) (0, 0, 0.00000000000000000000e+00) (0, 0, 0.00000000000000000000e+00) (0, 0, 0.00000000000000000000e+00) (0, 0, 0.00000000000000000000e+00) (0, 0, 0.00000000000000000000e+00) (0, 0, 0.00000000000000000000e+00) (0, 0, 0.00000000000000000000e+00) (0, 0, 0.00000000000000000000e+00) (0, 0, 0.00000000000000000000e+00) (0, 0, 0.00000000000000000000e+00) (0, 0, 0.00000000000000000000e+00) (0, 0, 0.00000000000000000000e+00) (0, 0, 0.00000000000000000000e+00) (0, 0, 0.00000000000000000000e+00) (0, 0, 0.00000000000000000000e+00) (0, 0, 0.00000000000000000000e+00) (0, 0, 0.00000000000000000000e+00) (0, 0, 0.00000000000000000000e+00) (0, 0, 0.00000000000000000000e+00) (0, 0, 0.00000000000000000000e+00) (0, 0, 0.00000000000000000000e+00) (0, 0, 0.00000000000000000000e+00) (0, 0, 0.00000000000000000000e+00) (0, 0, 0.00000000000000000000e+00) (0, 0, 0.00000000000000000000e+00) (0, 0, 0.00000000000000000000e+00) (0, 0, 0.00000000000000000000e+00) (0, 0, 0.00000000000000000000e+00) (0, 0, 0.00000000000000000000e+00) (0, 0, 0.00000000000000000000e+00) (0, 0, 0.00000000000000000000e+00) (0, 0, 0.00000000000000000000e+00) (0, 0, 0.00000000000000000000e+00) (0, 0, 0.00000000000000000000e+00) (0, 0, 0.00000000000000000000e+00) (0, 0, 0.00000000000000000000e+00) (0, 0, 0.00000000000000000000e+00) (0, 0, 0.00000000000000000000e+00) (0, 0, 0.00000000000000000000e+00) (0, 0, 0.00000000000000000000e+00) (0, 0, 0.00000000000000000000e+00) (0, 0, 0.00000000000000000000e+00) (0, 0, 0.00000000000000000000e+00) (0, 0, 0.00000000000000000000e+00) (0, 0, 0.00000000000000000000e+00) (0, 0, 0.00000000000000000000e+00) (0, 0, 0.00000000000000000000e+00) (0, 0, 0.00000000000000000000e+00) (0, 0, 0.00000000000000000000e+00) (0, 0, 0.00000000000000000000e+00) (0, 0, 0.00000000000000000000e+00) (0, 0, 0.00000000000000000000e+00) (0, 0, 0.00000000000000000000e+00) (0, 0, 0.00000000000000000000e+00) (0, 0, 0.00000000000000000000e+00) (0, 0, 0.00000000000000000000e+00) (0, 0, 0.00000000000000000000e+00) (0, 0, 0.00000000000000000000e+00) (0, 0, 0.00000000000000000000e+00) (0, 0, 0.00000000000000000000e+00) (0, 0, 0.00000000000000000000e+00) (0, 0, 0.00000000000000000000e+00) (0, 0, 0.00000000000000000000e+00) (0, 0, 0.00000000000000000000e+00) (0, 0, 0.00000000000000000000e+00) (0, 0, 0.00000000000000000000e+00) (0, 0, 0.00000000000000000000e+00) (0, 0, 0.00000000000000000000e+00) (0, 0, 0.00000000000000000000e+00) (0, 0, 0.00000000000000000000e+00) (0, 0, 0.00000000000000000000e+00) (0, 0, 0.00000000000000000000e+00) (0, 0, 0.00000000000000000000e+00) (0, 0, 0.00000000000000000000e+00) (0, 0, 0.00000000000000000000e+00) (0, 0, 0.00000000000000000000e+00) (0, 0, 0.00000000000000000000e+00) (0, 0, 0.00000000000000000000e+00) (0, 0, 0.00000000000000000000e+00) (0, 0, 0.00000000000000000000e+00) (0, 0, 0.00000000000000000000e+00) (0, 0, 0.00000000000000000000e+00) (0, 0, 0.00000000000000000000e+00) (0, 0, 0.00000000000000000000e+00) (0, 0, 0.00000000000000000000e+00) (0, 0, 0.00000000000000000000e+00) (0, 0, 0.00000000000000000000e+00) (0, 0, 0.00000000000000000000e+00) (0, 0, 0.00000000000000000000e+00) (0, 0, 0.00000000000000000000e+00) (0, 0, 0.00000000000000000000e+00) (0, 0, 0.00000000000000000000e+00) (0, 0, 0.00000000000000000000e+00) (0, 0, 0.00000000000000000000e+00) (0, 0, 0.00000000000000000000e+00) (0, 0, 0.00000000000000000000e+00) (0, 0, 0.00000000000000000000e+00) (0, 0, 0.00000000000000000000e+00) (0, 0, 0.00000000000000000000e+00) (0, 0, 0.00000000000000000000e+00) (0, 0, 0.00000000000000000000e+00) (0, 0, 0.00000000000000000000e+00) (0, 0, 0.00000000000000000000e+00) (0, 0, 0.00000000000000000000e+00) (0, 0, 0.00000000000000000000e+00) (0, 0, 0.00000000000000000000e+00) (0, 0, 0.00000000000000000000e+00) (0, 0, 0.00000000000000000000e+00) (0, 0, 0.00000000000000000000e+00) (0, 0, 0.00000000000000000000e+00) (0, 0, 0.00000000000000000000e+00) (0, 0, 0.00000000000000000000e+00) (0, 0, 0.00000000000000000000e+00) (0, 0, 0.00000000000000000000e+00) (0, 0, 0.00000000000000000000e+00) (0, 0, 0.00000000000000000000e+00) (0, 0, 0.00000000000000000000e+00) (0, 0, 0.00000000000000000000e+00) (0, 0, 0.00000000000000000000e+00) (0, 0, 0.00000000000000000000e+00) (0, 0, 0.00000000000000000000e+00) (0, 0, 0.00000000000000000000e+00) (0, 0, 0.00000000000000000000e+00) (0, 0, 0.00000000000000000000e+00) (0, 0, 0.00000000000000000000e+00) (0, 0, 0.00000000000000000000e+00) (0, 0, 0.00000000000000000000e+00) (0, 0, 0.00000000000000000000e+00) (0, 0, 0.00000000000000000000e+00) (0, 0, 0.00000000000000000000e+00) (0, 0, 0.00000000000000000000e+00) (0, 0, 0.00000000000000000000e+00) (0, 0, 0.00000000000000000000e+00) (0, 0, 0.00000000000000000000e+00) (0, 0, 0.00000000000000000000e+00) (0, 0, 0.00000000000000000000e+00) (0, 0, 0.00000000000000000000e+00) (0, 0, 0.00000000000000000000e+00) (0, 0, 0.00000000000000000000e+00) (0, 0, 0.00000000000000000000e+00) (0, 0, 0.00000000000000000000e+00) (0, 0, 0.00000000000000000000e+00) (0, 0, 0.00000000000000000000e+00) (0, 0, 0.00000000000000000000e+00) (0, 0, 0.00000000000000000000e+00) (0, 0, 0.00000000000000000000e+00) (0, 0, 0.00000000000000000000e+00) (0, 0, 0.00000000000000000000e+00) (0, 0, 0.00000000000000000000e+00) (0, 0, 0.00000000000000000000e+00) (0, 0, 0.00000000000000000000e+00) (0, 0, 0.00000000000000000000e+00) (0, 0, 0.00000000000000000000e+00) (0, 0, 0.00000000000000000000e+00) (0, 0, 0.00000000000000000000e+00) (0, 0, 0.00000000000000000000e+00) (0, 0, 0.00000000000000000000e+00) (0, 0, 0.00000000000000000000e+00) (0, 0, 0.00000000000000000000e+00) (0, 0, 0.00000000000000000000e+00) (0, 0, 0.00000000000000000000e+00) (0, 0, 0.00000000000000000000e+00) (0, 0, 0.00000000000000000000e+00) (0, 0, 0.00000000000000000000e+00) (0, 0, 0.00000000000000000000e+00) (0, 0, 0.00000000000000000000e+00) (0, 0, 0.00000000000000000000e+00) (0, 0, 0.00000000000000000000e+00) (0, 0, 0.00000000000000000000e+00) (0, 0, 0.00000000000000000000e+00) (0, 0, 0.00000000000000000000e+00) (0, 0, 0.00000000000000000000e+00) (0, 0, 0.00000000000000000000e+00) (0, 0, 0.00000000000000000000e+00) (0, 0, 0.00000000000000000000e+00) (0, 0, 0.00000000000000000000e+00) (0, 0, 0.00000000000000000000e+00) (0, 0, 0.00000000000000000000e+00) (0, 0, 0.00000000000000000000e+00) (0, 0, 0.00000000000000000000e+00) (0, 0, 0.00000000000000000000e+00) (0, 0, 0.00000000000000000000e+00) (0, 0, 0.00000000000000000000e+00) (0, 0, 0.00000000000000000000e+00) (0, 0, 0.00000000000000000000e+00) (0, 0, 0.00000000000000000000e+00) (0, 0, 0.00000000000000000000e+00) (0, 0, 0.00000000000000000000e+00) (0, 0, 0.00000000000000000000e+00) (0, 0, 0.00000000000000000000e+00) (0, 0, 0.00000000000000000000e+00) (0, 0, 0.00000000000000000000e+00) (0, 0, 0.00000000000000000000e+00) (0, 0, 0.00000000000000000000e+00) (0, 0, 0.00000000000000000000e+00) (0, 0, 0.00000000000000000000e+00) (0, 0, 0.00000000000000000000e+00) (0, 0, 0.00000000000000000000e+00) (0, 0, 0.00000000000000000000e+00) (0, 0, 0.00000000000000000000e+00) (0, 0, 0.00000000000000000000e+00) (0, 0, 0.00000000000000000000e+00) (0, 0, 0.00000000000000000000e+00) (0, 0, 0.00000000000000000000e+00) (0, 0, 0.00000000000000000000e+00) (0, 0, 0.00000000000000000000e+00) (0, 0, 0.00000000000000000000e+00) (0, 0, 0.00000000000000000000e+00) (0, 0, 0.00000000000000000000e+00) (0, 0, 0.00000000000000000000e+00) (0, 0, 0.00000000000000000000e+00) (0, 0, 0.00000000000000000000e+00) (0, 0, 0.00000000000000000000e+00) (0, 0, 0.00000000000000000000e+00) (0, 0, 0.00000000000000000000e+00) (0, 0, 0.00000000000000000000e+00) (0, 0, 0.00000000000000000000e+00) (0, 0, 0.00000000000000000000e+00) (0, 0, 0.00000000000000000000e+00) (0, 0, 0.00000000000000000000e+00) (0, 0, 0.00000000000000000000e+00) (0, 0, 0.00000000000000000000e+00) (0, 0, 0.00000000000000000000e+00) (0, 0, 0.00000000000000000000e+00) (0, 0, 0.00000000000000000000e+00) (0, 0, 0.00000000000000000000e+00) (0, 0, 0.00000000000000000000e+00) (0, 0, 0.00000000000000000000e+00) (0, 0, 0.00000000000000000000e+00) (0, 0, 0.00000000000000000000e+00) (0, 0, 0.00000000000000000000e+00) (0, 0, 0.00000000000000000000e+00) (0, 0, 0.00000000000000000000e+00) (0, 0, 0.00000000000000000000e+00) (0, 0, 0.00000000000000000000e+00) (0, 0, 0.00000000000000000000e+00) (0, 0, 0.00000000000000000000e+00) (0, 0, 0.00000000000000000000e+00) (0, 0, 0.00000000000000000000e+00) (0, 0, 0.00000000000000000000e+00) (0, 0, 0.00000000000000000000e+00) (0, 0, 0.00000000000000000000e+00) (0, 0, 0.00000000000000000000e+00) (0, 0, 0.00000000000000000000e+00) (0, 0, 0.00000000000000000000e+00) (0, 0, 0.00000000000000000000e+00) (0, 0, 0.00000000000000000000e+00) (0, 0, 0.00000000000000000000e+00) (0, 0, 0.00000000000000000000e+00) (0, 0, 0.00000000000000000000e+00) (0, 0, 0.00000000000000000000e+00) (0, 0, 0.00000000000000000000e+00) (0, 0, 0.00000000000000000000e+00) (0, 0, 0.00000000000000000000e+00) (0, 0, 0.00000000000000000000e+00) (0, 0, 0.00000000000000000000e+00) (0, 0, 0.00000000000000000000e+00) (0, 0, 0.00000000000000000000e+00) (0, 0, 0.00000000000000000000e+00) (0, 0, 0.00000000000000000000e+00) (0, 0, 0.00000000000000000000e+00) (0, 0, 0.00000000000000000000e+00) (0, 0, 0.00000000000000000000e+00) (0, 0, 0.00000000000000000000e+00) (0, 0, 0.00000000000000000000e+00) (0, 0, 0.00000000000000000000e+00) (0, 0, 0.00000000000000000000e+00) (0, 0, 0.00000000000000000000e+00) (0, 0, 0.00000000000000000000e+00) (0, 0, 0.00000000000000000000e+00) (0, 0, 0.00000000000000000000e+00) (0, 0, 0.00000000000000000000e+00) (0, 0, 0.00000000000000000000e+00) (0, 0, 0.00000000000000000000e+00) (0, 0, 0.00000000000000000000e+00) (0, 0, 0.00000000000000000000e+00) (0, 0, 0.00000000000000000000e+00) (0, 0, 0.00000000000000000000e+00) (0, 0, 0.00000000000000000000e+00) (0, 0, 0.00000000000000000000e+00) (0, 0, 0.00000000000000000000e+00) (0, 0, 0.00000000000000000000e+00) (0, 0, 0.00000000000000000000e+00) (0, 0, 0.00000000000000000000e+00) (0, 0, 0.00000000000000000000e+00) (0, 0, 0.00000000000000000000e+00) (0, 0, 0.00000000000000000000e+00) (0, 0, 0.00000000000000000000e+00) (0, 0, 0.00000000000000000000e+00) (0, 0, 0.00000000000000000000e+00) (0, 0, 0.00000000000000000000e+00) (0, 0, 0.00000000000000000000e+00) (0, 0, 0.00000000000000000000e+00) (0, 0, 0.00000000000000000000e+00) (0, 0, 0.00000000000000000000e+00) (0, 0, 0.00000000000000000000e+00) (0, 0, 0.00000000000000000000e+00) (0, 0, 0.00000000000000000000e+00) (0, 0, 0.00000000000000000000e+00) (0, 0, 0.00000000000000000000e+00) (0, 0, 0.00000000000000000000e+00) (0, 0, 0.00000000000000000000e+00) (0, 0, 0.00000000000000000000e+00) (0, 0, 0.00000000000000000000e+00) (0, 0, 0.00000000000000000000e+00) (0, 0, 0.00000000000000000000e+00) (0, 0, 0.00000000000000000000e+00) (0, 0, 0.00000000000000000000e+00) (0, 0, 0.00000000000000000000e+00) (0, 0, 0.00000000000000000000e+00) (0, 0, 0.00000000000000000000e+00) (0, 0, 0.00000000000000000000e+00) (0, 0, 0.00000000000000000000e+00) (0, 0, 0.00000000000000000000e+00) (0, 0, 0.00000000000000000000e+00) (0, 0, 0.00000000000000000000e+00) (0, 0, 0.00000000000000000000e+00) (0, 0, 0.00000000000000000000e+00) (0, 0, 0.00000000000000000000e+00) (0, 0, 0.00000000000000000000e+00) (0, 0, 0.00000000000000000000e+00) (0, 0, 0.00000000000000000000e+00) (0, 0, 0.00000000000000000000e+00) (0, 0, 0.00000000000000000000e+00) (0, 0, 0.00000000000000000000e+00) (0, 0, 0.00000000000000000000e+00) (0, 0, 0.00000000000000000000e+00) (0, 0, 0.00000000000000000000e+00) (0, 0, 0.00000000000000000000e+00) (0, 0, 0.00000000000000000000e+00) (0, 0, 0.00000000000000000000e+00) (401, 5, 5.00000000000000000000e-01) (401, 5, 5.00000000000000000000e-01) (0, 5, 0.00000000000000000000e+00) (3, 5, 5.00000000000000000000e-01) (3, 5, 5.00000000000000000000e-01) (0, 5, 0.00000000000000000000e+00) 
connections (connected_to_neuron, weight)=(0, 8.19204635620117187500e+01) (1, 1.34927082061767578125e+01) (2, -1.33334547281265258789e-01) (3, 8.17935028076171875000e+01) (4, 8.18355560302734375000e+01) (5, -1.89732283353805541992e-01) (6, -1.71994827687740325928e-02) (7, 8.18359680175781250000e+01) (8, 8.17675857543945312500e+01) (9, -1.22483849525451660156e-01) (10, 1.34335842132568359375e+01) (11, -1.47940516471862792969e+00) (12, 8.18812408447265625000e+01) (13, 3.01630824804306030273e-01) (14, -2.34939503669738769531e+00) (15, 9.03102532029151916504e-02) (16, 8.18670501708984375000e+01) (17, 1.83737263083457946777e-01) (18, -1.81921482086181640625e-01) (19, 2.78050035238265991211e-01) (20, 8.18265686035156250000e+01) (21, 3.03261160850524902344e-01) (22, -2.20927810668945312500e+00) (23, -3.79046022891998291016e-01) (24, 8.18231582641601562500e+01) (25, 1.36520802974700927734e-01) (26, -1.43062758445739746094e+00) (27, 1.31181403994560241699e-01) (28, 8.18188247680664062500e+01) (29, -1.39103204011917114258e-01) (30, -2.75896549224853515625e-01) (31, 2.06720799207687377930e-01) (32, 8.17924499511718750000e+01) (33, 1.31888434290885925293e-01) (34, -2.21381616592407226562e+00) (35, -1.74061298370361328125e-01) (36, 8.18735656738281250000e+01) (37, 6.97436928749084472656e-02) (38, -1.49687743186950683594e+00) (39, -4.14099067449569702148e-01) (40, 8.18786697387695312500e+01) (41, 3.61943125724792480469e-01) (42, -2.26881074905395507812e+00) (43, -4.09583076834678649902e-02) (44, 8.18559188842773437500e+01) (45, 3.83975028991699218750e-01) (46, -2.03600823879241943359e-01) (47, -2.30124354362487792969e+00) (48, 8.19027633666992187500e+01) (49, 2.22391575574874877930e-01) (50, -2.26654076576232910156e+00) (51, 8.18069381713867187500e+01) (52, -2.25967526435852050781e+00) (53, 1.44930392503738403320e-01) (54, -3.01153182983398437500e-01) (55, -1.57315611839294433594e+00) (56, 8.17527999877929687500e+01) (57, 8.10630246996879577637e-02) (58, -1.53109431266784667969e+00) (59, -1.46682429313659667969e+00) (60, 8.18733673095703125000e+01) (61, 2.05852478742599487305e-01) (62, -2.35808658599853515625e+00) (63, -1.57263827323913574219e+00) (64, 8.17363052368164062500e+01) (65, -8.39936658740043640137e-02) (66, -6.06223940849304199219e-01) (67, 1.87728002667427062988e-01) (68, 8.19171600341796875000e+01) (69, 9.01412889361381530762e-02) (70, -2.21798896789550781250e+00) (71, -9.92000341415405273438e-01) (72, 8.17992935180664062500e+01) (73, 1.33949443697929382324e-01) (74, -2.31328034400939941406e+00) (75, -5.40208876132965087891e-01) (76, 8.17350616455078125000e+01) (77, -1.52578309178352355957e-01) (78, -2.68679618835449218750e-01) (79, 2.82150626182556152344e-01) (80, 8.17341384887695312500e+01) (81, -9.40163992345333099365e-03) (82, -4.73057329654693603516e-01) (83, -4.78970378637313842773e-01) (84, 8.18068771362304687500e+01) (85, -1.37240082025527954102e-01) (86, -1.44167447090148925781e+00) (87, 1.34693622589111328125e+01) (88, 8.18752288818359375000e+01) (89, -2.56377190351486206055e-01) (90, -2.33769893646240234375e+00) (91, -4.46824491024017333984e-01) (92, 1.35129623413085937500e+01) (93, -1.40794366598129272461e-01) (94, -4.85631316900253295898e-01) (95, -3.78231346607208251953e-01) (96, 8.17723770141601562500e+01) (97, -2.73450106382369995117e-01) (98, 2.81464666128158569336e-01) (99, 1.33992176055908203125e+01) (100, 8.17524566650390625000e+01) (101, -3.03602367639541625977e-01) (102, 1.66466903686523437500e+00) (103, 1.34614315032958984375e+01) (104, 8.18933258056640625000e+01) (105, -3.40596407651901245117e-01) (106, 8.82075130939483642578e-02) (107, 1.35380706787109375000e+01) (108, 8.18355636596679687500e+01) (109, -3.96539241075515747070e-01) (110, 1.35311012268066406250e+01) (111, 2.03952655196189880371e-01) (112, 8.17298202514648437500e+01) (113, -3.48307996988296508789e-01) (114, 1.34108676910400390625e+01) (115, 6.50205326080322265625e+00) (116, 8.19102706909179687500e+01) (117, -3.94126266241073608398e-01) (118, 1.33612689971923828125e+01) (119, 1.34951858520507812500e+01) (120, 8.17453155517578125000e+01) (121, -3.53990256786346435547e-01) (122, 1.33989868164062500000e+01) (123, 1.35358829498291015625e+01) (124, 8.18339538574218750000e+01) (125, -2.33169406652450561523e-01) (126, 8.18761978149414062500e+01) (127, 1.35160160064697265625e+01) (128, 8.18207778930664062500e+01) (129, -3.11231166124343872070e-01) (130, 8.17286758422851562500e+01) (131, 1.34829158782958984375e+01) (132, 8.19125595092773437500e+01) (133, -2.68883734941482543945e-01) (134, 1.33898696899414062500e+01) (135, 8.18834915161132812500e+01) (136, 8.17863388061523437500e+01) (137, -2.49738782644271850586e-01) (138, 1.34991664886474609375e+01) (139, 1.35315895080566406250e+01) (140, 8.18811187744140625000e+01) (141, -2.81188458204269409180e-01) (142, 1.34564971923828125000e+01) (143, 1.35206260681152343750e+01) (144, 8.18978958129882812500e+01) (145, -2.44091719388961791992e-01) (146, 1.34125328063964843750e+01) (147, 1.35178565979003906250e+01) (148, 8.18891754150390625000e+01) (149, -3.37654560804367065430e-01) (150, 1.34585647583007812500e+01) (151, 1.35441799163818359375e+01) (152, 8.18357543945312500000e+01) (153, -2.78832256793975830078e-01) (154, 1.35255851745605468750e+01) (155, 1.33793888092041015625e+01) (156, 8.18403244018554687500e+01) (157, -2.77594298124313354492e-01) (158, 1.35409259796142578125e+01) (159, 1.33707828521728515625e+01) (160, 8.17385711669921875000e+01) (161, -2.09777086973190307617e-01) (162, -2.23467612266540527344e+00) (163, 1.33608169555664062500e+01) (164, 8.19171600341796875000e+01) (165, -9.07936021685600280762e-02) (166, 1.16197001934051513672e+00) (167, 1.34131851196289062500e+01) (168, 8.18552856445312500000e+01) (169, -1.58803790807723999023e-01) (170, 1.33902969360351562500e+01) (171, 1.34460906982421875000e+01) (172, 8.17558288574218750000e+01) (173, -2.64662832021713256836e-01) (174, 1.34122371673583984375e+01) (175, 1.33634128570556640625e+01) (176, 8.18186416625976562500e+01) (177, -1.55112653970718383789e-01) (178, 8.18947067260742187500e+01) (179, 1.34175033569335937500e+01) (180, -2.19876003265380859375e+00) (181, -3.26101809740066528320e-01) (182, 1.34072036743164062500e+01) (183, 1.34484882354736328125e+01) (184, 8.17473907470703125000e+01) (185, -5.26794373989105224609e-01) (186, 1.34734001159667968750e+01) (187, 1.61181962490081787109e+00) (188, 8.18711318969726562500e+01) (189, -2.97130793333053588867e-01) (190, 3.03216040134429931641e-01) (191, 3.10452729463577270508e-01) (192, 8.18204879760742187500e+01) (193, -2.98538178205490112305e-01) (194, -1.42241120338439941406e+00) (195, 1.56175637245178222656e+00) (196, 8.18064880371093750000e+01) (197, -2.88746893405914306641e-01) (198, 1.35060386657714843750e+01) (199, 1.93235206604003906250e+00) (200, 8.17732009887695312500e+01) (201, -8.35460945963859558105e-02) (202, 8.18309936523437500000e+01) (203, 8.18066329956054687500e+01) (204, 8.18476104736328125000e+01) (205, -1.04570530354976654053e-01) (206, 8.18155670166015625000e+01) (207, 1.33759365081787109375e+01) (208, 8.18045654296875000000e+01) (209, -3.37021023035049438477e-01) (210, -1.26406416296958923340e-01) (211, 1.34173011779785156250e+01) (212, 8.18642730712890625000e+01) (213, -1.33716374635696411133e-01) (214, -3.93792212009429931641e-01) (215, 1.89520940184593200684e-01) (216, 8.18834381103515625000e+01) (217, -1.95170432329177856445e-01) (218, -2.26963210105895996094e+00) (219, 1.32428690791130065918e-01) (220, 8.19035186767578125000e+01) (221, -2.01919645071029663086e-01) (222, -2.82585144042968750000e-01) (223, 1.99458169937133789062e+00) (224, 8.18953628540039062500e+01) (225, -2.24993318319320678711e-01) (226, -1.42159152030944824219e+00) (227, 1.34115371704101562500e+01) (228, 8.19070129394531250000e+01) (229, -1.47297352552413940430e-01) (230, -2.83227920532226562500e-01) (231, 8.17578125000000000000e+01) (232, 8.18334045410156250000e+01) (233, -2.12051682174205780029e-02) (234, -2.37624168395996093750e-01) (235, -3.66278290748596191406e-01) (236, 8.18713912963867187500e+01) (237, -2.58112460374832153320e-01) (238, -1.84080809354782104492e-01) (239, -2.30813752859830856323e-02) (240, -1.51536774635314941406e+00) (241, 2.04078540205955505371e-01) (242, -1.49967741966247558594e+00) (243, -5.30459344387054443359e-01) (244, 8.18017654418945312500e+01) (245, 1.12729534506797790527e-01) (246, -1.40662407875061035156e+00) (247, -3.16858768463134765625e-01) (248, 8.18489685058593750000e+01) (249, -1.74106210470199584961e-01) (250, -4.00439083576202392578e-01) (251, -4.42934572696685791016e-01) (252, 8.18882217407226562500e+01) (253, -8.83954390883445739746e-03) (254, -1.40675425529479980469e+00) (255, -5.40406033396720886230e-02) (256, 8.17931976318359375000e+01) (257, 9.95440408587455749512e-02) (258, 3.39843571186065673828e-01) (259, -2.66520291566848754883e-01) (260, 8.18049926757812500000e+01) (261, 3.61792296171188354492e-02) (262, -2.28858995437622070312e+00) (263, 7.74005427956581115723e-04) (264, 8.17749252319335937500e+01) (265, -3.95201845094561576843e-04) (266, -1.56383299827575683594e+00) (267, -3.55751037597656250000e-01) (268, 8.17456817626953125000e+01) (269, 7.66372755169868469238e-02) (270, -2.34674024581909179688e+00) (271, 8.18239746093750000000e+01) (272, -1.56399035453796386719e+00) (273, 1.88572883605957031250e-01) (274, -2.25767540931701660156e+00) (275, -1.48461890220642089844e+00) (276, 8.18998718261718750000e+01) (277, 1.70690864324569702148e-01) (278, -2.22996664047241210938e+00) (279, -4.46586072444915771484e-01) (280, -1.58806443214416503906e+00) (281, 2.43632063269615173340e-01) (282, -2.36768651008605957031e+00) (283, -2.20799946784973144531e+00) (284, 8.18469085693359375000e+01) (285, 2.60549932718276977539e-01) (286, -2.26920962333679199219e+00) (287, -2.18410706520080566406e+00) (288, 8.18800048828125000000e+01) (289, 1.67970657348632812500e-01) (290, -1.54293417930603027344e+00) (291, -5.10421812534332275391e-01) (292, 8.18983459472656250000e+01) (293, 2.03466385602951049805e-01) (294, -2.34560894966125488281e+00) (295, -2.35094475746154785156e+00) (296, 8.18744201660156250000e+01) (297, 5.27653768658638000488e-02) (298, -2.34942603111267089844e+00) (299, -1.41834998130798339844e+00) (300, 8.18735351562500000000e+01) (301, 1.24582991003990173340e-01) (302, -2.30253338813781738281e+00) (303, -2.19861078262329101562e+00) (304, 8.19117202758789062500e+01) (305, 1.87756985425949096680e-01) (306, -1.50381302833557128906e+00) (307, -2.21262097358703613281e+00) (308, 8.18297958374023437500e+01) (309, 2.84276064485311508179e-02) (310, -2.30858182907104492188e+00) (311, -1.48066449165344238281e+00) (312, 8.18613281250000000000e+01) (313, 7.16975852847099304199e-02) (314, -1.50924706459045410156e+00) (315, -2.31597757339477539062e+00) (316, -2.29821705818176269531e+00) (317, 2.56533950567245483398e-01) (318, -1.53490900993347167969e+00) (319, -2.34061193466186523438e+00) (320, 8.18230743408203125000e+01) (321, 2.53468543291091918945e-01) (322, -1.51464962959289550781e+00) (323, -2.30279850959777832031e+00) (324, 8.17734222412109375000e+01) (325, 1.74732014536857604980e-01) (326, -2.27432656288146972656e+00) (327, -1.59061121940612792969e+00) (328, 8.18988494873046875000e+01) (329, 1.24213248491287231445e-01) (330, -2.20106172561645507812e+00) (331, -1.46607041358947753906e+00) (332, 8.19201431274414062500e+01) (333, 1.17154136300086975098e-01) (334, -2.27102303504943847656e+00) (335, -2.19234395027160644531e+00) (336, 8.17762603759765625000e+01) (337, 3.42234671115875244141e-01) (338, -1.43978953361511230469e+00) (339, -1.43239474296569824219e+00) (340, 8.17599334716796875000e+01) (341, 2.68051058053970336914e-01) (342, -8.29324066638946533203e-01) (343, -2.20295071601867675781e+00) (344, 8.18296661376953125000e+01) (345, 3.02663981914520263672e-01) (346, -3.17364215850830078125e-01) (347, -2.19094800949096679688e+00) (348, 8.18756866455078125000e+01) (349, 1.60569950938224792480e-01) (350, -2.35214328765869140625e+00) (351, -1.53969788551330566406e+00) (352, 8.17305221557617187500e+01) (353, 1.68197780847549438477e-01) (354, -2.24883842468261718750e+00) (355, -1.53450751304626464844e+00) (356, 8.17414932250976562500e+01) (357, 2.48007550835609436035e-02) (358, -1.53146052360534667969e+00) (359, -2.18386864662170410156e+00) (360, 8.18931503295898437500e+01) (361, 2.96852048486471176147e-02) (362, -4.27489697933197021484e-01) (363, -2.21091890335083007812e+00) (364, 8.18181915283203125000e+01) (365, 2.06616893410682678223e-02) (366, -1.66363626718521118164e-01) (367, -4.00970757007598876953e-01) (368, 8.17521667480468750000e+01) (369, -9.44032147526741027832e-02) (370, -1.03211045265197753906e+00) (371, 7.87595100700855255127e-03) (372, 8.18565444946289062500e+01) (373, 1.74307316541671752930e-01) (374, -5.06856501102447509766e-01) (375, -1.55224585533142089844e+00) (376, 8.18662414550781250000e+01) (377, -1.87250405550003051758e-01) (378, -3.27388763427734375000e-01) (379, 2.27736085653305053711e-01) (380, 8.19047241210937500000e+01) (381, 1.19070321321487426758e-01) (382, -4.59361881017684936523e-01) (383, -1.66813850402832031250e-01) (384, 8.18858337402343750000e+01) (385, -1.89256221055984497070e-01) (386, -5.01018583774566650391e-01) (387, 2.05188527703285217285e-01) (388, 8.18397369384765625000e+01) (389, -3.15622389316558837891e-01) (390, 6.58823013305664062500e+00) (391, 1.34425659179687500000e+01) (392, 8.18747558593750000000e+01) (393, -4.49406325817108154297e-01) (394, 2.28737611323595046997e-02) (395, 1.10064759850502014160e-01) (396, 8.18551483154296875000e+01) (397, -3.09779256582260131836e-01) (398, 1.66670656204223632812e+00) (399, 2.07788538932800292969e+00) (400, -1.49330347776412963867e-01) (0, 8.18311157226562500000e+01) (1, -1.99435353279113769531e-01) (2, -3.07446503639221191406e+00) (3, 8.18162918090820312500e+01) (4, 8.17959899902343750000e+01) (5, -1.17411744594573974609e+00) (6, -6.13572061061859130859e-01) (7, 8.18796615600585937500e+01) (8, 8.18494262695312500000e+01) (9, -1.27823102474212646484e+00) (10, -8.96633788943290710449e-02) (11, -2.25240755081176757812e+00) (12, 8.18083572387695312500e+01) (13, -1.28305375576019287109e+00) (14, -2.03516197204589843750e+00) (15, -6.69609248638153076172e-01) (16, 8.19020538330078125000e+01) (17, -1.28294384479522705078e+00) (18, -3.04523634910583496094e+00) (19, -4.59876835346221923828e-01) (20, 8.18306350708007812500e+01) (21, -1.24004888534545898438e+00) (22, -2.13896703720092773438e+00) (23, -5.71376681327819824219e-01) (24, 8.17520370483398437500e+01) (25, -1.32113540172576904297e+00) (26, -2.04057550430297851562e+00) (27, -5.09544193744659423828e-01) (28, 8.18121643066406250000e+01) (29, -1.30837547779083251953e+00) (30, -2.23498201370239257812e+00) (31, -4.71155434846878051758e-01) (32, 8.18569412231445312500e+01) (33, -1.39397752285003662109e+00) (34, -1.35856139659881591797e+00) (35, -3.12206816673278808594e+00) (36, 8.18386688232421875000e+01) (37, -1.28297245502471923828e+00) (38, -2.01738643646240234375e+00) (39, -3.69675922393798828125e+00) (40, 8.17873992919921875000e+01) (41, -7.32248723506927490234e-01) (42, -2.15529394149780273438e+00) (43, -2.71900966763496398926e-02) (44, 8.17574386596679687500e+01) (45, -6.62125706672668457031e-01) (46, -2.27977895736694335938e+00) (47, -2.16809225082397460938e+00) (48, 8.18276672363281250000e+01) (49, -1.40954577922821044922e+00) (50, -1.34479892253875732422e+00) (51, 8.17359085083007812500e+01) (52, -1.27434170246124267578e+00) (53, -1.26313340663909912109e+00) (54, -2.37539625167846679688e+00) (55, -1.44470489025115966797e+00) (56, 8.17643356323242187500e+01) (57, -1.24792063236236572266e+00) (58, -1.40291273593902587891e+00) (59, -1.31924593448638916016e+00) (60, 8.17923049926757812500e+01) (61, -1.40167772769927978516e+00) (62, -1.32075417041778564453e+00) (63, -1.44649732112884521484e+00) (64, 8.17529449462890625000e+01) (65, -1.39051687717437744141e+00) (66, -3.72747707366943359375e+00) (67, -5.04490733146667480469e-01) (68, 8.18751144409179687500e+01) (69, -1.23511636257171630859e+00) (70, -1.26082360744476318359e+00) (71, -2.38065528869628906250e+00) (72, 8.18053741455078125000e+01) (73, -1.39548456668853759766e+00) (74, -1.28227674961090087891e+00) (75, -3.95954132080078125000e-01) (76, 8.19151306152343750000e+01) (77, -1.32583868503570556641e+00) (78, -2.26566457748413085938e+00) (79, -4.53336000442504882812e-01) (80, 8.18132171630859375000e+01) (81, -1.37424623966217041016e+00) (82, -9.89554286003112792969e-01) (83, -3.67263698577880859375e+00) (84, 8.19112243652343750000e+01) (85, -1.13678336143493652344e+00) (86, -2.10911178588867187500e+00) (87, -1.98497653007507324219e-01) (88, 8.18220596313476562500e+01) (89, -1.29139196872711181641e+00) (90, -1.28848850727081298828e+00) (91, -3.44394385814666748047e-01) (92, -9.61218997836112976074e-02) (93, -1.32044374942779541016e+00) (94, -2.95617818832397460938e+00) (95, -9.37384963035583496094e-01) (96, 8.18376388549804687500e+01) (97, -1.08465540409088134766e+00) (98, -1.87008273601531982422e+00) (99, -1.61299496889114379883e-01) (100, 8.18869934082031250000e+01) (101, -1.00043678283691406250e+00) (102, -1.31905376911163330078e+00) (103, -1.81683599948883056641e-01) (104, 8.18406448364257812500e+01) (105, -1.21692502498626708984e+00) (106, -8.67151021957397460938e-01) (107, -1.18279516696929931641e-01) (108, 8.18640060424804687500e+01) (109, -8.71203899383544921875e-01) (110, -2.20279455184936523438e-01) (111, -1.37229895591735839844e+00) (112, 8.18595428466796875000e+01) (113, -9.80578482151031494141e-01) (114, -1.29404664039611816406e-01) (115, -2.27668225765228271484e-01) (116, 8.17773666381835937500e+01) (117, -9.27543342113494873047e-01) (118, -7.25314542651176452637e-02) (119, -7.46187493205070495605e-02) (120, 8.18176269531250000000e+01) (121, -9.81880605220794677734e-01) (122, -1.05046920478343963623e-01) (123, -2.00889527797698974609e-01) (124, 8.17342376708984375000e+01) (125, -1.00283324718475341797e+00) (126, 8.19144439697265625000e+01) (127, -1.02169983088970184326e-01) (128, 8.18072433471679687500e+01) (129, -7.57296562194824218750e-01) (130, 8.19174423217773437500e+01) (131, -1.79813653230667114258e-01) (132, 8.17255783081054687500e+01) (133, -1.19055736064910888672e+00) (134, -1.32241994142532348633e-01) (135, 8.18438262939453125000e+01) (136, 8.18574523925781250000e+01) (137, -1.03846907615661621094e+00) (138, -1.96854352951049804688e-01) (139, -1.52598023414611816406e-01) (140, 8.18832855224609375000e+01) (141, -1.05968940258026123047e+00) (142, -1.20174348354339599609e-01) (143, -1.31227761507034301758e-01) (144, 8.18842620849609375000e+01) (145, -1.26233589649200439453e+00) (146, -2.05261528491973876953e-01) (147, -2.12419390678405761719e-01) (148, 8.19048538208007812500e+01) (149, -1.09054970741271972656e+00) (150, -5.77829368412494659424e-02) (151, -1.51568621397018432617e-01) (152, 8.18223037719726562500e+01) (153, -1.49367582798004150391e+00) (154, -1.23202890157699584961e-01) (155, -1.17509186267852783203e-01) (156, 8.19163131713867187500e+01) (157, -1.49125719070434570312e+00) (158, -1.90423905849456787109e-01) (159, -1.50497227907180786133e-01) (160, 8.17230453491210937500e+01) (161, -1.06719374656677246094e+00) (162, -1.32275044918060302734e+00) (163, -2.25427329540252685547e-01) (164, 8.18369827270507812500e+01) (165, -1.24605429172515869141e+00) (166, -1.27946949005126953125e+00) (167, -1.79621011018753051758e-01) (168, 8.18102111816406250000e+01) (169, -1.11361336708068847656e+00) (170, -1.02963738143444061279e-01) (171, -1.80560767650604248047e-01) (172, 8.19214248657226562500e+01) (173, -1.06569373607635498047e+00) (174, -8.25332328677177429199e-02) (175, -6.83603808283805847168e-02) (176, 8.17667007446289062500e+01) (177, -1.10055160522460937500e+00) (178, 8.19001312255859375000e+01) (179, -2.02497184276580810547e-01) (180, -1.29951703548431396484e+00) (181, -9.51863169670104980469e-01) (182, -1.24810576438903808594e-01) (183, -1.77919179201126098633e-01) (184, 8.17672805786132812500e+01) (185, -1.09056913852691650391e+00) (186, -6.61730691790580749512e-02) (187, -1.76814448833465576172e+00) (188, 8.18309936523437500000e+01) (189, -1.26935398578643798828e+00) (190, -7.08446621894836425781e-01) (191, -1.30385649204254150391e+00) (192, 8.17581863403320312500e+01) (193, -1.36734688282012939453e+00) (194, -2.06971120834350585938e+00) (195, -1.65657365322113037109e+00) (196, 8.17933654785156250000e+01) (197, -1.55103039741516113281e+00) (198, -2.29253172874450683594e-01) (199, -2.91373968124389648438e-01) (200, 8.19183807373046875000e+01) (201, -1.28680789470672607422e+00) (202, 8.17298660278320312500e+01) (203, 8.19174118041992187500e+01) (204, 8.18840637207031250000e+01) (205, -1.11707353591918945312e+00) (206, 8.18783035278320312500e+01) (207, -2.23285615444183349609e-01) (208, 8.18473052978515625000e+01) (209, -9.67430174350738525391e-01) (210, -1.38037383556365966797e+00) (211, -1.52912735939025878906e-01) (212, 8.18052368164062500000e+01) (213, -1.27592933177947998047e+00) (214, -9.73387479782104492188e-01) (215, -6.98279261589050292969e-01) (216, 8.18700637817382812500e+01) (217, -1.32234060764312744141e+00) (218, -1.28443086147308349609e+00) (219, -8.53324651718139648438e-01) (220, 8.18150711059570312500e+01) (221, -1.01699185371398925781e+00) (222, -2.96469211578369140625e+00) (223, -3.21691334247589111328e-01) (224, 8.18522262573242187500e+01) (225, -1.33451807498931884766e+00) (226, -1.37212240695953369141e+00) (227, -2.28459060192108154297e-01) (228, 8.18393096923828125000e+01) (229, -1.33427155017852783203e+00) (230, -2.23879528045654296875e+00) (231, 8.18352890014648437500e+01) (232, 8.17275238037109375000e+01) (233, -1.24605643749237060547e+00) (234, -3.02230310440063476562e+00) (235, -1.10447812080383300781e+00) (236, 8.18436355590820312500e+01) (237, -1.20746231079101562500e+00) (238, -1.24034273624420166016e+00) (239, -7.91090071201324462891e-01) (240, -1.25350916385650634766e+00) (241, -1.40761506557464599609e+00) (242, -2.06029319763183593750e+00) (243, -1.02078628540039062500e+00) (244, 8.18650588989257812500e+01) (245, -1.36293208599090576172e+00) (246, -1.44294798374176025391e+00) (247, -3.03987455368041992188e+00) (248, 8.18633270263671875000e+01) (249, -1.23858034610748291016e+00) (250, -2.35798358917236328125e-01) (251, -1.06746172904968261719e+00) (252, 8.17809906005859375000e+01) (253, -1.30099761486053466797e+00) (254, -2.02072000503540039062e+00) (255, -3.55164003372192382812e+00) (256, 8.19130859375000000000e+01) (257, -1.37220942974090576172e+00) (258, -6.36781454086303710938e-01) (259, -3.63246774673461914062e+00) (260, 8.18421173095703125000e+01) (261, -1.26430785655975341797e+00) (262, -1.43046462535858154297e+00) (263, -3.00535750389099121094e+00) (264, 8.18382339477539062500e+01) (265, -1.28471624851226806641e+00) (266, -2.09114980697631835938e+00) (267, -3.09312510490417480469e+00) (268, 8.19145889282226562500e+01) (269, -1.34870851039886474609e+00) (270, -2.09955835342407226562e+00) (271, 8.19120254516601562500e+01) (272, -1.38107049465179443359e+00) (273, -1.40738475322723388672e+00) (274, -1.38103950023651123047e+00) (275, -2.17024564743041992188e+00) (276, 8.17782821655273437500e+01) (277, -1.33518874645233154297e+00) (278, -1.34808385372161865234e+00) (279, -3.84020924568176269531e-01) (280, -2.13035011291503906250e+00) (281, -1.36364185810089111328e+00) (282, -1.42052972316741943359e+00) (283, -1.33992087841033935547e+00) (284, 8.18839645385742187500e+01) (285, -1.22061693668365478516e+00) (286, -2.08333110809326171875e+00) (287, -1.29869949817657470703e+00) (288, 8.17557754516601562500e+01) (289, -1.32442796230316162109e+00) (290, -2.12293720245361328125e+00) (291, -4.27738606929779052734e-01) (292, 8.17598648071289062500e+01) (293, -1.33276903629302978516e+00) (294, -2.10484075546264648438e+00) (295, -1.29764425754547119141e+00) (296, 8.17311172485351562500e+01) (297, -1.24352383613586425781e+00) (298, -1.26056659221649169922e+00) (299, -1.45004236698150634766e+00) (300, 8.17563705444335937500e+01) (301, -1.33949196338653564453e+00) (302, -1.26041138172149658203e+00) (303, -1.34709966182708740234e+00) (304, 8.18017272949218750000e+01) (305, -1.35265219211578369141e+00) (306, -1.33456146717071533203e+00) (307, -1.31573808193206787109e+00) (308, 8.18607559204101562500e+01) (309, -1.39384663105010986328e+00) (310, -1.31892192363739013672e+00) (311, -1.26015436649322509766e+00) (312, 8.17911148071289062500e+01) (313, -1.25065314769744873047e+00) (314, -1.34912526607513427734e+00) (315, -1.42067205905914306641e+00) (316, -1.29601681232452392578e+00) (317, -1.41182315349578857422e+00) (318, -1.26842153072357177734e+00) (319, -1.26264011859893798828e+00) (320, 8.18123474121093750000e+01) (321, -7.94862806797027587891e-01) (322, -1.30954182147979736328e+00) (323, -1.32353127002716064453e+00) (324, 8.18451080322265625000e+01) (325, -1.39374983310699462891e+00) (326, -1.37022531032562255859e+00) (327, -1.31952440738677978516e+00) (328, 8.19113235473632812500e+01) (329, -1.34199321269989013672e+00) (330, -1.31861674785614013672e+00) (331, -2.15988397598266601562e+00) (332, 8.18671188354492187500e+01) (333, -1.29022943973541259766e+00) (334, -2.05603361129760742188e+00) (335, -2.15874052047729492188e+00) (336, 8.19057159423828125000e+01) (337, -1.36996233463287353516e+00) (338, -2.02352857589721679688e+00) (339, -1.32926690578460693359e+00) (340, 8.17847900390625000000e+01) (341, -7.45954453945159912109e-01) (342, -3.01772356033325195312e+00) (343, -1.31984126567840576172e+00) (344, 8.17761306762695312500e+01) (345, -1.39879763126373291016e+00) (346, -2.96881580352783203125e+00) (347, -2.17411851882934570312e+00) (348, 8.17379760742187500000e+01) (349, -1.26918613910675048828e+00) (350, -1.25397455692291259766e+00) (351, -2.07725000381469726562e+00) (352, 8.19086914062500000000e+01) (353, -1.27471792697906494141e+00) (354, -1.41799724102020263672e+00) (355, -2.07378530502319335938e+00) (356, 8.18801345825195312500e+01) (357, -1.29942381381988525391e+00) (358, -1.41052544116973876953e+00) (359, -1.30428540706634521484e+00) (360, 8.19071807861328125000e+01) (361, -1.24034333229064941406e+00) (362, -4.11272048950195312500e-01) (363, -1.32144653797149658203e+00) (364, 8.18180313110351562500e+01) (365, -1.31678593158721923828e+00) (366, -2.04821109771728515625e-01) (367, -5.01885354518890380859e-01) (368, 8.18618545532226562500e+01) (369, -1.30029833316802978516e+00) (370, -2.39773368835449218750e+00) (371, -1.41125261783599853516e+00) (372, 8.17264862060546875000e+01) (373, -1.29998767375946044922e+00) (374, -4.47879433631896972656e-01) (375, -1.39313066005706787109e+00) (376, 8.18498153686523437500e+01) (377, -1.31875693798065185547e+00) (378, -2.33188343048095703125e+00) (379, -4.08336281776428222656e-01) (380, 8.17606582641601562500e+01) (381, -1.34964120388031005859e+00) (382, -1.31782725453376770020e-01) (383, -3.10565161705017089844e+00) (384, 8.17242431640625000000e+01) (385, -1.33161485195159912109e+00) (386, -9.67516064643859863281e-01) (387, -1.82100641727447509766e+00) (388, 8.19175643920898437500e+01) (389, -1.41538155078887939453e+00) (390, -5.29357671737670898438e-01) (391, -4.93048913776874542236e-02) (392, 8.18691329956054687500e+01) (393, -1.02525711059570312500e+00) (394, -1.30364739894866943359e+00) (395, -1.37073814868927001953e+00) (396, 8.18945236206054687500e+01) (397, -3.06720113754272460938e+00) (398, -1.01500165462493896484e+00) (399, -1.23744271695613861084e-01) (400, -1.23729705810546875000e+00) (401, 1.73890328407287597656e+00) (402, -5.27161836624145507812e-01) (403, 1.17459738254547119141e+00) (401, -1.47924149036407470703e+00) (402, -4.66834217309951782227e-01) (403, 9.91199493408203125000e-01) 
