FANN_FLO_2.1
num_layers=4
learning_rate=0.700000
connection_rate=1.000000
network_type=0
learning_momentum=0.000000
training_algorithm=2
train_error_function=1
train_stop_function=0
cascade_output_change_fraction=0.010000
quickprop_decay=-0.000100
quickprop_mu=1.750000
rprop_increase_factor=1.200000
rprop_decrease_factor=0.500000
rprop_delta_min=0.000000
rprop_delta_max=50.000000
rprop_delta_zero=0.100000
cascade_output_stagnation_epochs=12
cascade_candidate_change_fraction=0.010000
cascade_candidate_stagnation_epochs=12
cascade_max_out_epochs=150
cascade_min_out_epochs=50
cascade_max_cand_epochs=150
cascade_min_cand_epochs=50
cascade_num_candidate_groups=2
bit_fail_limit=3.49999994039535522461e-01
cascade_candidate_limit=1.00000000000000000000e+03
cascade_weight_multiplier=4.00000005960464477539e-01
cascade_activation_functions_count=10
cascade_activation_functions=3 5 7 8 10 11 14 15 16 17 
cascade_activation_steepnesses_count=4
cascade_activation_steepnesses=2.50000000000000000000e-01 5.00000000000000000000e-01 7.50000000000000000000e-01 1.00000000000000000000e+00 
layer_sizes=701 101 101 9 
scale_included=0
neurons (num_inputs, activation_function, activation_steepness)=(0, 0, 0.00000000000000000000e+00) (0, 0, 0.00000000000000000000e+00) (0, 0, 0.00000000000000000000e+00) (0, 0, 0.00000000000000000000e+00) (0, 0, 0.00000000000000000000e+00) (0, 0, 0.00000000000000000000e+00) (0, 0, 0.00000000000000000000e+00) (0, 0, 0.00000000000000000000e+00) (0, 0, 0.00000000000000000000e+00) (0, 0, 0.00000000000000000000e+00) (0, 0, 0.00000000000000000000e+00) (0, 0, 0.00000000000000000000e+00) (0, 0, 0.00000000000000000000e+00) (0, 0, 0.00000000000000000000e+00) (0, 0, 0.00000000000000000000e+00) (0, 0, 0.00000000000000000000e+00) (0, 0, 0.00000000000000000000e+00) (0, 0, 0.00000000000000000000e+00) (0, 0, 0.00000000000000000000e+00) (0, 0, 0.00000000000000000000e+00) (0, 0, 0.00000000000000000000e+00) (0, 0, 0.00000000000000000000e+00) (0, 0, 0.00000000000000000000e+00) (0, 0, 0.00000000000000000000e+00) (0, 0, 0.00000000000000000000e+00) (0, 0, 0.00000000000000000000e+00) (0, 0, 0.00000000000000000000e+00) (0, 0, 0.00000000000000000000e+00) (0, 0, 0.00000000000000000000e+00) (0, 0, 0.00000000000000000000e+00) (0, 0, 0.00000000000000000000e+00) (0, 0, 0.00000000000000000000e+00) (0, 0, 0.00000000000000000000e+00) (0, 0, 0.00000000000000000000e+00) (0, 0, 0.00000000000000000000e+00) (0, 0, 0.00000000000000000000e+00) (0, 0, 0.00000000000000000000e+00) (0, 0, 0.00000000000000000000e+00) (0, 0, 0.00000000000000000000e+00) (0, 0, 0.00000000000000000000e+00) (0, 0, 0.00000000000000000000e+00) (0, 0, 0.00000000000000000000e+00) (0, 0, 0.00000000000000000000e+00) (0, 0, 0.00000000000000000000e+00) (0, 0, 0.00000000000000000000e+00) (0, 0, 0.00000000000000000000e+00) (0, 0, 0.00000000000000000000e+00) (0, 0, 0.00000000000000000000e+00) (0, 0, 0.00000000000000000000e+00) (0, 0, 0.00000000000000000000e+00) (0, 0, 0.00000000000000000000e+00) (0, 0, 0.00000000000000000000e+00) (0, 0, 0.00000000000000000000e+00) (0, 0, 0.00000000000000000000e+00) (0, 0, 0.00000000000000000000e+00) (0, 0, 0.00000000000000000000e+00) (0, 0, 0.00000000000000000000e+00) (0, 0, 0.00000000000000000000e+00) (0, 0, 0.00000000000000000000e+00) (0, 0, 0.00000000000000000000e+00) (0, 0, 0.00000000000000000000e+00) (0, 0, 0.00000000000000000000e+00) (0, 0, 0.00000000000000000000e+00) (0, 0, 0.00000000000000000000e+00) (0, 0, 0.00000000000000000000e+00) (0, 0, 0.00000000000000000000e+00) (0, 0, 0.00000000000000000000e+00) (0, 0, 0.00000000000000000000e+00) (0, 0, 0.00000000000000000000e+00) (0, 0, 0.00000000000000000000e+00) (0, 0, 0.00000000000000000000e+00) (0, 0, 0.00000000000000000000e+00) (0, 0, 0.00000000000000000000e+00) (0, 0, 0.00000000000000000000e+00) (0, 0, 0.00000000000000000000e+00) (0, 0, 0.00000000000000000000e+00) (0, 0, 0.00000000000000000000e+00) (0, 0, 0.00000000000000000000e+00) (0, 0, 0.00000000000000000000e+00) (0, 0, 0.00000000000000000000e+00) (0, 0, 0.00000000000000000000e+00) (0, 0, 0.00000000000000000000e+00) (0, 0, 0.00000000000000000000e+00) (0, 0, 0.00000000000000000000e+00) (0, 0, 0.00000000000000000000e+00) (0, 0, 0.00000000000000000000e+00) (0, 0, 0.00000000000000000000e+00) (0, 0, 0.00000000000000000000e+00) (0, 0, 0.00000000000000000000e+00) (0, 0, 0.00000000000000000000e+00) (0, 0, 0.00000000000000000000e+00) (0, 0, 0.00000000000000000000e+00) (0, 0, 0.00000000000000000000e+00) (0, 0, 0.00000000000000000000e+00) (0, 0, 0.00000000000000000000e+00) (0, 0, 0.00000000000000000000e+00) (0, 0, 0.00000000000000000000e+00) (0, 0, 0.00000000000000000000e+00) (0, 0, 0.00000000000000000000e+00) (0, 0, 0.00000000000000000000e+00) (0, 0, 0.00000000000000000000e+00) (0, 0, 0.00000000000000000000e+00) (0, 0, 0.00000000000000000000e+00) (0, 0, 0.00000000000000000000e+00) (0, 0, 0.00000000000000000000e+00) (0, 0, 0.00000000000000000000e+00) (0, 0, 0.00000000000000000000e+00) (0, 0, 0.00000000000000000000e+00) (0, 0, 0.00000000000000000000e+00) (0, 0, 0.00000000000000000000e+00) (0, 0, 0.00000000000000000000e+00) (0, 0, 0.00000000000000000000e+00) (0, 0, 0.00000000000000000000e+00) (0, 0, 0.00000000000000000000e+00) (0, 0, 0.00000000000000000000e+00) (0, 0, 0.00000000000000000000e+00) (0, 0, 0.00000000000000000000e+00) (0, 0, 0.00000000000000000000e+00) (0, 0, 0.00000000000000000000e+00) (0, 0, 0.00000000000000000000e+00) (0, 0, 0.00000000000000000000e+00) (0, 0, 0.00000000000000000000e+00) (0, 0, 0.00000000000000000000e+00) (0, 0, 0.00000000000000000000e+00) (0, 0, 0.00000000000000000000e+00) (0, 0, 0.00000000000000000000e+00) (0, 0, 0.00000000000000000000e+00) (0, 0, 0.00000000000000000000e+00) (0, 0, 0.00000000000000000000e+00) (0, 0, 0.00000000000000000000e+00) (0, 0, 0.00000000000000000000e+00) (0, 0, 0.00000000000000000000e+00) (0, 0, 0.00000000000000000000e+00) (0, 0, 0.00000000000000000000e+00) (0, 0, 0.00000000000000000000e+00) (0, 0, 0.00000000000000000000e+00) (0, 0, 0.00000000000000000000e+00) (0, 0, 0.00000000000000000000e+00) (0, 0, 0.00000000000000000000e+00) (0, 0, 0.00000000000000000000e+00) (0, 0, 0.00000000000000000000e+00) (0, 0, 0.00000000000000000000e+00) (0, 0, 0.00000000000000000000e+00) (0, 0, 0.00000000000000000000e+00) (0, 0, 0.00000000000000000000e+00) (0, 0, 0.00000000000000000000e+00) (0, 0, 0.00000000000000000000e+00) (0, 0, 0.00000000000000000000e+00) (0, 0, 0.00000000000000000000e+00) (0, 0, 0.00000000000000000000e+00) (0, 0, 0.00000000000000000000e+00) (0, 0, 0.00000000000000000000e+00) (0, 0, 0.00000000000000000000e+00) (0, 0, 0.00000000000000000000e+00) (0, 0, 0.00000000000000000000e+00) (0, 0, 0.00000000000000000000e+00) (0, 0, 0.00000000000000000000e+00) (0, 0, 0.00000000000000000000e+00) (0, 0, 0.00000000000000000000e+00) (0, 0, 0.00000000000000000000e+00) (0, 0, 0.00000000000000000000e+00) (0, 0, 0.00000000000000000000e+00) (0, 0, 0.00000000000000000000e+00) (0, 0, 0.00000000000000000000e+00) (0, 0, 0.00000000000000000000e+00) (0, 0, 0.00000000000000000000e+00) (0, 0, 0.00000000000000000000e+00) (0, 0, 0.00000000000000000000e+00) (0, 0, 0.00000000000000000000e+00) (0, 0, 0.00000000000000000000e+00) (0, 0, 0.00000000000000000000e+00) (0, 0, 0.00000000000000000000e+00) (0, 0, 0.00000000000000000000e+00) (0, 0, 0.00000000000000000000e+00) (0, 0, 0.00000000000000000000e+00) (0, 0, 0.00000000000000000000e+00) (0, 0, 0.00000000000000000000e+00) (0, 0, 0.00000000000000000000e+00) (0, 0, 0.00000000000000000000e+00) (0, 0, 0.00000000000000000000e+00) (0, 0, 0.00000000000000000000e+00) (0, 0, 0.00000000000000000000e+00) (0, 0, 0.00000000000000000000e+00) (0, 0, 0.00000000000000000000e+00) (0, 0, 0.00000000000000000000e+00) (0, 0, 0.00000000000000000000e+00) (0, 0, 0.00000000000000000000e+00) (0, 0, 0.00000000000000000000e+00) (0, 0, 0.00000000000000000000e+00) (0, 0, 0.00000000000000000000e+00) (0, 0, 0.00000000000000000000e+00) (0, 0, 0.00000000000000000000e+00) (0, 0, 0.00000000000000000000e+00) (0, 0, 0.00000000000000000000e+00) (0, 0, 0.00000000000000000000e+00) (0, 0, 0.00000000000000000000e+00) (0, 0, 0.00000000000000000000e+00) (0, 0, 0.00000000000000000000e+00) (0, 0, 0.00000000000000000000e+00) (0, 0, 0.00000000000000000000e+00) (0, 0, 0.00000000000000000000e+00) (0, 0, 0.00000000000000000000e+00) (0, 0, 0.00000000000000000000e+00) (0, 0, 0.00000000000000000000e+00) (0, 0, 0.00000000000000000000e+00) (0, 0, 0.00000000000000000000e+00) (0, 0, 0.00000000000000000000e+00) (0, 0, 0.00000000000000000000e+00) (0, 0, 0.00000000000000000000e+00) (0, 0, 0.00000000000000000000e+00) (0, 0, 0.00000000000000000000e+00) (0, 0, 0.00000000000000000000e+00) (0, 0, 0.00000000000000000000e+00) (0, 0, 0.00000000000000000000e+00) (0, 0, 0.00000000000000000000e+00) (0, 0, 0.00000000000000000000e+00) (0, 0, 0.00000000000000000000e+00) (0, 0, 0.00000000000000000000e+00) (0, 0, 0.00000000000000000000e+00) (0, 0, 0.00000000000000000000e+00) (0, 0, 0.00000000000000000000e+00) (0, 0, 0.00000000000000000000e+00) (0, 0, 0.00000000000000000000e+00) (0, 0, 0.00000000000000000000e+00) (0, 0, 0.00000000000000000000e+00) (0, 0, 0.00000000000000000000e+00) (0, 0, 0.00000000000000000000e+00) (0, 0, 0.00000000000000000000e+00) (0, 0, 0.00000000000000000000e+00) (0, 0, 0.00000000000000000000e+00) (0, 0, 0.00000000000000000000e+00) (0, 0, 0.00000000000000000000e+00) (0, 0, 0.00000000000000000000e+00) (0, 0, 0.00000000000000000000e+00) (0, 0, 0.00000000000000000000e+00) (0, 0, 0.00000000000000000000e+00) (0, 0, 0.00000000000000000000e+00) (0, 0, 0.00000000000000000000e+00) (0, 0, 0.00000000000000000000e+00) (0, 0, 0.00000000000000000000e+00) (0, 0, 0.00000000000000000000e+00) (0, 0, 0.00000000000000000000e+00) (0, 0, 0.00000000000000000000e+00) (0, 0, 0.00000000000000000000e+00) (0, 0, 0.00000000000000000000e+00) (0, 0, 0.00000000000000000000e+00) (0, 0, 0.00000000000000000000e+00) (0, 0, 0.00000000000000000000e+00) (0, 0, 0.00000000000000000000e+00) (0, 0, 0.00000000000000000000e+00) (0, 0, 0.00000000000000000000e+00) (0, 0, 0.00000000000000000000e+00) (0, 0, 0.00000000000000000000e+00) (0, 0, 0.00000000000000000000e+00) (0, 0, 0.00000000000000000000e+00) (0, 0, 0.00000000000000000000e+00) (0, 0, 0.00000000000000000000e+00) (0, 0, 0.00000000000000000000e+00) (0, 0, 0.00000000000000000000e+00) (0, 0, 0.00000000000000000000e+00) (0, 0, 0.00000000000000000000e+00) (0, 0, 0.00000000000000000000e+00) (0, 0, 0.00000000000000000000e+00) (0, 0, 0.00000000000000000000e+00) (0, 0, 0.00000000000000000000e+00) (0, 0, 0.00000000000000000000e+00) (0, 0, 0.00000000000000000000e+00) (0, 0, 0.00000000000000000000e+00) (0, 0, 0.00000000000000000000e+00) (0, 0, 0.00000000000000000000e+00) (0, 0, 0.00000000000000000000e+00) (0, 0, 0.00000000000000000000e+00) (0, 0, 0.00000000000000000000e+00) (0, 0, 0.00000000000000000000e+00) (0, 0, 0.00000000000000000000e+00) (0, 0, 0.00000000000000000000e+00) (0, 0, 0.00000000000000000000e+00) (0, 0, 0.00000000000000000000e+00) (0, 0, 0.00000000000000000000e+00) (0, 0, 0.00000000000000000000e+00) (0, 0, 0.00000000000000000000e+00) (0, 0, 0.00000000000000000000e+00) (0, 0, 0.00000000000000000000e+00) (0, 0, 0.00000000000000000000e+00) (0, 0, 0.00000000000000000000e+00) (0, 0, 0.00000000000000000000e+00) (0, 0, 0.00000000000000000000e+00) (0, 0, 0.00000000000000000000e+00) (0, 0, 0.00000000000000000000e+00) (0, 0, 0.00000000000000000000e+00) (0, 0, 0.00000000000000000000e+00) (0, 0, 0.00000000000000000000e+00) (0, 0, 0.00000000000000000000e+00) (0, 0, 0.00000000000000000000e+00) (0, 0, 0.00000000000000000000e+00) (0, 0, 0.00000000000000000000e+00) (0, 0, 0.00000000000000000000e+00) (0, 0, 0.00000000000000000000e+00) (0, 0, 0.00000000000000000000e+00) (0, 0, 0.00000000000000000000e+00) (0, 0, 0.00000000000000000000e+00) (0, 0, 0.00000000000000000000e+00) (0, 0, 0.00000000000000000000e+00) (0, 0, 0.00000000000000000000e+00) (0, 0, 0.00000000000000000000e+00) (0, 0, 0.00000000000000000000e+00) (0, 0, 0.00000000000000000000e+00) (0, 0, 0.00000000000000000000e+00) (0, 0, 0.00000000000000000000e+00) (0, 0, 0.00000000000000000000e+00) (0, 0, 0.00000000000000000000e+00) (0, 0, 0.00000000000000000000e+00) (0, 0, 0.00000000000000000000e+00) (0, 0, 0.00000000000000000000e+00) (0, 0, 0.00000000000000000000e+00) (0, 0, 0.00000000000000000000e+00) (0, 0, 0.00000000000000000000e+00) (0, 0, 0.00000000000000000000e+00) (0, 0, 0.00000000000000000000e+00) (0, 0, 0.00000000000000000000e+00) (0, 0, 0.00000000000000000000e+00) (0, 0, 0.00000000000000000000e+00) (0, 0, 0.00000000000000000000e+00) (0, 0, 0.00000000000000000000e+00) (0, 0, 0.00000000000000000000e+00) (0, 0, 0.00000000000000000000e+00) (0, 0, 0.00000000000000000000e+00) (0, 0, 0.00000000000000000000e+00) (0, 0, 0.00000000000000000000e+00) (0, 0, 0.00000000000000000000e+00) (0, 0, 0.00000000000000000000e+00) (0, 0, 0.00000000000000000000e+00) (0, 0, 0.00000000000000000000e+00) (0, 0, 0.00000000000000000000e+00) (0, 0, 0.00000000000000000000e+00) (0, 0, 0.00000000000000000000e+00) (0, 0, 0.00000000000000000000e+00) (0, 0, 0.00000000000000000000e+00) (0, 0, 0.00000000000000000000e+00) (0, 0, 0.00000000000000000000e+00) (0, 0, 0.00000000000000000000e+00) (0, 0, 0.00000000000000000000e+00) (0, 0, 0.00000000000000000000e+00) (0, 0, 0.00000000000000000000e+00) (0, 0, 0.00000000000000000000e+00) (0, 0, 0.00000000000000000000e+00) (0, 0, 0.00000000000000000000e+00) (0, 0, 0.00000000000000000000e+00) (0, 0, 0.00000000000000000000e+00) (0, 0, 0.00000000000000000000e+00) (0, 0, 0.00000000000000000000e+00) (0, 0, 0.00000000000000000000e+00) (0, 0, 0.00000000000000000000e+00) (0, 0, 0.00000000000000000000e+00) (0, 0, 0.00000000000000000000e+00) (0, 0, 0.00000000000000000000e+00) (0, 0, 0.00000000000000000000e+00) (0, 0, 0.00000000000000000000e+00) (0, 0, 0.00000000000000000000e+00) (0, 0, 0.00000000000000000000e+00) (0, 0, 0.00000000000000000000e+00) (0, 0, 0.00000000000000000000e+00) (0, 0, 0.00000000000000000000e+00) (0, 0, 0.00000000000000000000e+00) (0, 0, 0.00000000000000000000e+00) (0, 0, 0.00000000000000000000e+00) (0, 0, 0.00000000000000000000e+00) (0, 0, 0.00000000000000000000e+00) (0, 0, 0.00000000000000000000e+00) (0, 0, 0.00000000000000000000e+00) (0, 0, 0.00000000000000000000e+00) (0, 0, 0.00000000000000000000e+00) (0, 0, 0.00000000000000000000e+00) (0, 0, 0.00000000000000000000e+00) (0, 0, 0.00000000000000000000e+00) (0, 0, 0.00000000000000000000e+00) (0, 0, 0.00000000000000000000e+00) (0, 0, 0.00000000000000000000e+00) (0, 0, 0.00000000000000000000e+00) (0, 0, 0.00000000000000000000e+00) (0, 0, 0.00000000000000000000e+00) (0, 0, 0.00000000000000000000e+00) (0, 0, 0.00000000000000000000e+00) (0, 0, 0.00000000000000000000e+00) (0, 0, 0.00000000000000000000e+00) (0, 0, 0.00000000000000000000e+00) (0, 0, 0.00000000000000000000e+00) (0, 0, 0.00000000000000000000e+00) (0, 0, 0.00000000000000000000e+00) (0, 0, 0.00000000000000000000e+00) (0, 0, 0.00000000000000000000e+00) (0, 0, 0.00000000000000000000e+00) (0, 0, 0.00000000000000000000e+00) (0, 0, 0.00000000000000000000e+00) (0, 0, 0.00000000000000000000e+00) (0, 0, 0.00000000000000000000e+00) (0, 0, 0.00000000000000000000e+00) (0, 0, 0.00000000000000000000e+00) (0, 0, 0.00000000000000000000e+00) (0, 0, 0.00000000000000000000e+00) (0, 0, 0.00000000000000000000e+00) (0, 0, 0.00000000000000000000e+00) (0, 0, 0.00000000000000000000e+00) (0, 0, 0.00000000000000000000e+00) (0, 0, 0.00000000000000000000e+00) (0, 0, 0.00000000000000000000e+00) (0, 0, 0.00000000000000000000e+00) (0, 0, 0.00000000000000000000e+00) (0, 0, 0.00000000000000000000e+00) (0, 0, 0.00000000000000000000e+00) (0, 0, 0.00000000000000000000e+00) (0, 0, 0.00000000000000000000e+00) (0, 0, 0.00000000000000000000e+00) (0, 0, 0.00000000000000000000e+00) (0, 0, 0.00000000000000000000e+00) (0, 0, 0.00000000000000000000e+00) (0, 0, 0.00000000000000000000e+00) (0, 0, 0.00000000000000000000e+00) (0, 0, 0.00000000000000000000e+00) (0, 0, 0.00000000000000000000e+00) (0, 0, 0.00000000000000000000e+00) (0, 0, 0.00000000000000000000e+00) (0, 0, 0.00000000000000000000e+00) (0, 0, 0.00000000000000000000e+00) (0, 0, 0.00000000000000000000e+00) (0, 0, 0.00000000000000000000e+00) (0, 0, 0.00000000000000000000e+00) (0, 0, 0.00000000000000000000e+00) (0, 0, 0.00000000000000000000e+00) (0, 0, 0.00000000000000000000e+00) (0, 0, 0.00000000000000000000e+00) (0, 0, 0.00000000000000000000e+00) (0, 0, 0.00000000000000000000e+00) (0, 0, 0.00000000000000000000e+00) (0, 0, 0.00000000000000000000e+00) (0, 0, 0.00000000000000000000e+00) (0, 0, 0.00000000000000000000e+00) (0, 0, 0.00000000000000000000e+00) (0, 0, 0.00000000000000000000e+00) (0, 0, 0.00000000000000000000e+00) (0, 0, 0.00000000000000000000e+00) (0, 0, 0.00000000000000000000e+00) (0, 0, 0.00000000000000000000e+00) (0, 0, 0.00000000000000000000e+00) (0, 0, 0.00000000000000000000e+00) (0, 0, 0.00000000000000000000e+00) (0, 0, 0.00000000000000000000e+00) (0, 0, 0.00000000000000000000e+00) (0, 0, 0.00000000000000000000e+00) (0, 0, 0.00000000000000000000e+00) (0, 0, 0.00000000000000000000e+00) (0, 0, 0.00000000000000000000e+00) (0, 0, 0.00000000000000000000e+00) (0, 0, 0.00000000000000000000e+00) (0, 0, 0.00000000000000000000e+00) (0, 0, 0.00000000000000000000e+00) (0, 0, 0.00000000000000000000e+00) (0, 0, 0.00000000000000000000e+00) (0, 0, 0.00000000000000000000e+00) (0, 0, 0.00000000000000000000e+00) (0, 0, 0.00000000000000000000e+00) (0, 0, 0.00000000000000000000e+00) (0, 0, 0.00000000000000000000e+00) (0, 0, 0.00000000000000000000e+00) (0, 0, 0.00000000000000000000e+00) (0, 0, 0.00000000000000000000e+00) (0, 0, 0.00000000000000000000e+00) (0, 0, 0.00000000000000000000e+00) (0, 0, 0.00000000000000000000e+00) (0, 0, 0.00000000000000000000e+00) (0, 0, 0.00000000000000000000e+00) (0, 0, 0.00000000000000000000e+00) (0, 0, 0.00000000000000000000e+00) (0, 0, 0.00000000000000000000e+00) (0, 0, 0.00000000000000000000e+00) (0, 0, 0.00000000000000000000e+00) (0, 0, 0.00000000000000000000e+00) (0, 0, 0.00000000000000000000e+00) (0, 0, 0.00000000000000000000e+00) (0, 0, 0.00000000000000000000e+00) (0, 0, 0.00000000000000000000e+00) (0, 0, 0.00000000000000000000e+00) (0, 0, 0.00000000000000000000e+00) (0, 0, 0.00000000000000000000e+00) (0, 0, 0.00000000000000000000e+00) (0, 0, 0.00000000000000000000e+00) (0, 0, 0.00000000000000000000e+00) (0, 0, 0.00000000000000000000e+00) (0, 0, 0.00000000000000000000e+00) (0, 0, 0.00000000000000000000e+00) (0, 0, 0.00000000000000000000e+00) (0, 0, 0.00000000000000000000e+00) (0, 0, 0.00000000000000000000e+00) (0, 0, 0.00000000000000000000e+00) (0, 0, 0.00000000000000000000e+00) (0, 0, 0.00000000000000000000e+00) (0, 0, 0.00000000000000000000e+00) (0, 0, 0.00000000000000000000e+00) (0, 0, 0.00000000000000000000e+00) (0, 0, 0.00000000000000000000e+00) (0, 0, 0.00000000000000000000e+00) (0, 0, 0.00000000000000000000e+00) (0, 0, 0.00000000000000000000e+00) (0, 0, 0.00000000000000000000e+00) (0, 0, 0.00000000000000000000e+00) (0, 0, 0.00000000000000000000e+00) (0, 0, 0.00000000000000000000e+00) (0, 0, 0.00000000000000000000e+00) (0, 0, 0.00000000000000000000e+00) (0, 0, 0.00000000000000000000e+00) (0, 0, 0.00000000000000000000e+00) (0, 0, 0.00000000000000000000e+00) (0, 0, 0.00000000000000000000e+00) (0, 0, 0.00000000000000000000e+00) (0, 0, 0.00000000000000000000e+00) (0, 0, 0.00000000000000000000e+00) (0, 0, 0.00000000000000000000e+00) (0, 0, 0.00000000000000000000e+00) (0, 0, 0.00000000000000000000e+00) (0, 0, 0.00000000000000000000e+00) (0, 0, 0.00000000000000000000e+00) (0, 0, 0.00000000000000000000e+00) (0, 0, 0.00000000000000000000e+00) (0, 0, 0.00000000000000000000e+00) (0, 0, 0.00000000000000000000e+00) (0, 0, 0.00000000000000000000e+00) (0, 0, 0.00000000000000000000e+00) (0, 0, 0.00000000000000000000e+00) (0, 0, 0.00000000000000000000e+00) (0, 0, 0.00000000000000000000e+00) (0, 0, 0.00000000000000000000e+00) (0, 0, 0.00000000000000000000e+00) (0, 0, 0.00000000000000000000e+00) (0, 0, 0.00000000000000000000e+00) (0, 0, 0.00000000000000000000e+00) (0, 0, 0.00000000000000000000e+00) (0, 0, 0.00000000000000000000e+00) (0, 0, 0.00000000000000000000e+00) (0, 0, 0.00000000000000000000e+00) (0, 0, 0.00000000000000000000e+00) (0, 0, 0.00000000000000000000e+00) (0, 0, 0.00000000000000000000e+00) (0, 0, 0.00000000000000000000e+00) (0, 0, 0.00000000000000000000e+00) (0, 0, 0.00000000000000000000e+00) (0, 0, 0.00000000000000000000e+00) (0, 0, 0.00000000000000000000e+00) (0, 0, 0.00000000000000000000e+00) (0, 0, 0.00000000000000000000e+00) (0, 0, 0.00000000000000000000e+00) (0, 0, 0.00000000000000000000e+00) (0, 0, 0.00000000000000000000e+00) (0, 0, 0.00000000000000000000e+00) (0, 0, 0.00000000000000000000e+00) (0, 0, 0.00000000000000000000e+00) (0, 0, 0.00000000000000000000e+00) (0, 0, 0.00000000000000000000e+00) (0, 0, 0.00000000000000000000e+00) (0, 0, 0.00000000000000000000e+00) (0, 0, 0.00000000000000000000e+00) (0, 0, 0.00000000000000000000e+00) (0, 0, 0.00000000000000000000e+00) (0, 0, 0.00000000000000000000e+00) (0, 0, 0.00000000000000000000e+00) (0, 0, 0.00000000000000000000e+00) (0, 0, 0.00000000000000000000e+00) (0, 0, 0.00000000000000000000e+00) (0, 0, 0.00000000000000000000e+00) (0, 0, 0.00000000000000000000e+00) (0, 0, 0.00000000000000000000e+00) (0, 0, 0.00000000000000000000e+00) (0, 0, 0.00000000000000000000e+00) (0, 0, 0.00000000000000000000e+00) (0, 0, 0.00000000000000000000e+00) (0, 0, 0.00000000000000000000e+00) (0, 0, 0.00000000000000000000e+00) (0, 0, 0.00000000000000000000e+00) (0, 0, 0.00000000000000000000e+00) (0, 0, 0.00000000000000000000e+00) (0, 0, 0.00000000000000000000e+00) (0, 0, 0.00000000000000000000e+00) (0, 0, 0.00000000000000000000e+00) (0, 0, 0.00000000000000000000e+00) (0, 0, 0.00000000000000000000e+00) (0, 0, 0.00000000000000000000e+00) (0, 0, 0.00000000000000000000e+00) (0, 0, 0.00000000000000000000e+00) (0, 0, 0.00000000000000000000e+00) (0, 0, 0.00000000000000000000e+00) (0, 0, 0.00000000000000000000e+00) (0, 0, 0.00000000000000000000e+00) (0, 0, 0.00000000000000000000e+00) (0, 0, 0.00000000000000000000e+00) (0, 0, 0.00000000000000000000e+00) (0, 0, 0.00000000000000000000e+00) (0, 0, 0.00000000000000000000e+00) (0, 0, 0.00000000000000000000e+00) (0, 0, 0.00000000000000000000e+00) (0, 0, 0.00000000000000000000e+00) (0, 0, 0.00000000000000000000e+00) (0, 0, 0.00000000000000000000e+00) (0, 0, 0.00000000000000000000e+00) (0, 0, 0.00000000000000000000e+00) (0, 0, 0.00000000000000000000e+00) (0, 0, 0.00000000000000000000e+00) (0, 0, 0.00000000000000000000e+00) (0, 0, 0.00000000000000000000e+00) (0, 0, 0.00000000000000000000e+00) (0, 0, 0.00000000000000000000e+00) (0, 0, 0.00000000000000000000e+00) (0, 0, 0.00000000000000000000e+00) (0, 0, 0.00000000000000000000e+00) (0, 0, 0.00000000000000000000e+00) (0, 0, 0.00000000000000000000e+00) (0, 0, 0.00000000000000000000e+00) (0, 0, 0.00000000000000000000e+00) (0, 0, 0.00000000000000000000e+00) (0, 0, 0.00000000000000000000e+00) (0, 0, 0.00000000000000000000e+00) (0, 0, 0.00000000000000000000e+00) (0, 0, 0.00000000000000000000e+00) (0, 0, 0.00000000000000000000e+00) (0, 0, 0.00000000000000000000e+00) (0, 0, 0.00000000000000000000e+00) (0, 0, 0.00000000000000000000e+00) (0, 0, 0.00000000000000000000e+00) (0, 0, 0.00000000000000000000e+00) (0, 0, 0.00000000000000000000e+00) (0, 0, 0.00000000000000000000e+00) (0, 0, 0.00000000000000000000e+00) (0, 0, 0.00000000000000000000e+00) (0, 0, 0.00000000000000000000e+00) (0, 0, 0.00000000000000000000e+00) (0, 0, 0.00000000000000000000e+00) (0, 0, 0.00000000000000000000e+00) (0, 0, 0.00000000000000000000e+00) (0, 0, 0.00000000000000000000e+00) (0, 0, 0.00000000000000000000e+00) (0, 0, 0.00000000000000000000e+00) (0, 0, 0.00000000000000000000e+00) (0, 0, 0.00000000000000000000e+00) (0, 0, 0.00000000000000000000e+00) (0, 0, 0.00000000000000000000e+00) (0, 0, 0.00000000000000000000e+00) (0, 0, 0.00000000000000000000e+00) (0, 0, 0.00000000000000000000e+00) (0, 0, 0.00000000000000000000e+00) (0, 0, 0.00000000000000000000e+00) (0, 0, 0.00000000000000000000e+00) (0, 0, 0.00000000000000000000e+00) (0, 0, 0.00000000000000000000e+00) (0, 0, 0.00000000000000000000e+00) (0, 0, 0.00000000000000000000e+00) (0, 0, 0.00000000000000000000e+00) (0, 0, 0.00000000000000000000e+00) (0, 0, 0.00000000000000000000e+00) (0, 0, 0.00000000000000000000e+00) (0, 0, 0.00000000000000000000e+00) (0, 0, 0.00000000000000000000e+00) (0, 0, 0.00000000000000000000e+00) (0, 0, 0.00000000000000000000e+00) (0, 0, 0.00000000000000000000e+00) (0, 0, 0.00000000000000000000e+00) (0, 0, 0.00000000000000000000e+00) (0, 0, 0.00000000000000000000e+00) (0, 0, 0.00000000000000000000e+00) (0, 0, 0.00000000000000000000e+00) (0, 0, 0.00000000000000000000e+00) (0, 0, 0.00000000000000000000e+00) (0, 0, 0.00000000000000000000e+00) (0, 0, 0.00000000000000000000e+00) (0, 0, 0.00000000000000000000e+00) (0, 0, 0.00000000000000000000e+00) (0, 0, 0.00000000000000000000e+00) (0, 0, 0.00000000000000000000e+00) (0, 0, 0.00000000000000000000e+00) (0, 0, 0.00000000000000000000e+00) (0, 0, 0.00000000000000000000e+00) (0, 0, 0.00000000000000000000e+00) (0, 0, 0.00000000000000000000e+00) (0, 0, 0.00000000000000000000e+00) (0, 0, 0.00000000000000000000e+00) (0, 0, 0.00000000000000000000e+00) (0, 0, 0.00000000000000000000e+00) (0, 0, 0.00000000000000000000e+00) (0, 0, 0.00000000000000000000e+00) (0, 0, 0.00000000000000000000e+00) (0, 0, 0.00000000000000000000e+00) (0, 0, 0.00000000000000000000e+00) (0, 0, 0.00000000000000000000e+00) (0, 0, 0.00000000000000000000e+00) (0, 0, 0.00000000000000000000e+00) (0, 0, 0.00000000000000000000e+00) (0, 0, 0.00000000000000000000e+00) (0, 0, 0.00000000000000000000e+00) (0, 0, 0.00000000000000000000e+00) (0, 0, 0.00000000000000000000e+00) (0, 0, 0.00000000000000000000e+00) (0, 0, 0.00000000000000000000e+00) (0, 0, 0.00000000000000000000e+00) (0, 0, 0.00000000000000000000e+00) (701, 5, 5.00000000000000000000e-01) (701, 5, 5.00000000000000000000e-01) (701, 5, 5.00000000000000000000e-01) (701, 5, 5.00000000000000000000e-01) (701, 5, 5.00000000000000000000e-01) (701, 5, 5.00000000000000000000e-01) (701, 5, 5.00000000000000000000e-01) (701, 5, 5.00000000000000000000e-01) (701, 5, 5.00000000000000000000e-01) (701, 5, 5.00000000000000000000e-01) (701, 5, 5.00000000000000000000e-01) (701, 5, 5.00000000000000000000e-01) (701, 5, 5.00000000000000000000e-01) (701, 5, 5.00000000000000000000e-01) (701, 5, 5.00000000000000000000e-01) (701, 5, 5.00000000000000000000e-01) (701, 5, 5.00000000000000000000e-01) (701, 5, 5.00000000000000000000e-01) (701, 5, 5.00000000000000000000e-01) (701, 5, 5.00000000000000000000e-01) (701, 5, 5.00000000000000000000e-01) (701, 5, 5.00000000000000000000e-01) (701, 5, 5.00000000000000000000e-01) (701, 5, 5.00000000000000000000e-01) (701, 5, 5.00000000000000000000e-01) (701, 5, 5.00000000000000000000e-01) (701, 5, 5.00000000000000000000e-01) (701, 5, 5.00000000000000000000e-01) (701, 5, 5.00000000000000000000e-01) (701, 5, 5.00000000000000000000e-01) (701, 5, 5.00000000000000000000e-01) (701, 5, 5.00000000000000000000e-01) (701, 5, 5.00000000000000000000e-01) (701, 5, 5.00000000000000000000e-01) (701, 5, 5.00000000000000000000e-01) (701, 5, 5.00000000000000000000e-01) (701, 5, 5.00000000000000000000e-01) (701, 5, 5.00000000000000000000e-01) (701, 5, 5.00000000000000000000e-01) (701, 5, 5.00000000000000000000e-01) (701, 5, 5.00000000000000000000e-01) (701, 5, 5.00000000000000000000e-01) (701, 5, 5.00000000000000000000e-01) (701, 5, 5.00000000000000000000e-01) (701, 5, 5.00000000000000000000e-01) (701, 5, 5.00000000000000000000e-01) (701, 5, 5.00000000000000000000e-01) (701, 5, 5.00000000000000000000e-01) (701, 5, 5.00000000000000000000e-01) (701, 5, 5.00000000000000000000e-01) (701, 5, 5.00000000000000000000e-01) (701, 5, 5.00000000000000000000e-01) (701, 5, 5.00000000000000000000e-01) (701, 5, 5.00000000000000000000e-01) (701, 5, 5.00000000000000000000e-01) (701, 5, 5.00000000000000000000e-01) (701, 5, 5.00000000000000000000e-01) (701, 5, 5.00000000000000000000e-01) (701, 5, 5.00000000000000000000e-01) (701, 5, 5.00000000000000000000e-01) (701, 5, 5.00000000000000000000e-01) (701, 5, 5.00000000000000000000e-01) (701, 5, 5.00000000000000000000e-01) (701, 5, 5.00000000000000000000e-01) (701, 5, 5.00000000000000000000e-01) (701, 5, 5.00000000000000000000e-01) (701, 5, 5.00000000000000000000e-01) (701, 5, 5.00000000000000000000e-01) (701, 5, 5.00000000000000000000e-01) (701, 5, 5.00000000000000000000e-01) (701, 5, 5.00000000000000000000e-01) (701, 5, 5.00000000000000000000e-01) (701, 5, 5.00000000000000000000e-01) (701, 5, 5.00000000000000000000e-01) (701, 5, 5.00000000000000000000e-01) (701, 5, 5.00000000000000000000e-01) (701, 5, 5.00000000000000000000e-01) (701, 5, 5.00000000000000000000e-01) (701, 5, 5.00000000000000000000e-01) (701, 5, 5.00000000000000000000e-01) (701, 5, 5.00000000000000000000e-01) (701, 5, 5.00000000000000000000e-01) (701, 5, 5.00000000000000000000e-01) (701, 5, 5.00000000000000000000e-01) (701, 5, 5.00000000000000000000e-01) (701, 5, 5.00000000000000000000e-01) (701, 5, 5.00000000000000000000e-01) (701, 5, 5.00000000000000000000e-01) (701, 5, 5.00000000000000000000e-01) (701, 5, 5.00000000000000000000e-01) (701, 5, 5.00000000000000000000e-01) (701, 5, 5.00000000000000000000e-01) (701, 5, 5.00000000000000000000e-01) (701, 5, 5.00000000000000000000e-01) (701, 5, 5.00000000000000000000e-01) (701, 5, 5.00000000000000000000e-01) (701, 5, 5.00000000000000000000e-01) (701, 5, 5.00000000000000000000e-01) (701, 5, 5.00000000000000000000e-01) (701, 5, 5.00000000000000000000e-01) (0, 5, 0.00000000000000000000e+00) (101, 5, 5.00000000000000000000e-01) (101, 5, 5.00000000000000000000e-01) (101, 5, 5.00000000000000000000e-01) (101, 5, 5.00000000000000000000e-01) (101, 5, 5.00000000000000000000e-01) (101, 5, 5.00000000000000000000e-01) (101, 5, 5.00000000000000000000e-01) (101, 5, 5.00000000000000000000e-01) (101, 5, 5.00000000000000000000e-01) (101, 5, 5.00000000000000000000e-01) (101, 5, 5.00000000000000000000e-01) (101, 5, 5.00000000000000000000e-01) (101, 5, 5.00000000000000000000e-01) (101, 5, 5.00000000000000000000e-01) (101, 5, 5.00000000000000000000e-01) (101, 5, 5.00000000000000000000e-01) (101, 5, 5.00000000000000000000e-01) (101, 5, 5.00000000000000000000e-01) (101, 5, 5.00000000000000000000e-01) (101, 5, 5.00000000000000000000e-01) (101, 5, 5.00000000000000000000e-01) (101, 5, 5.00000000000000000000e-01) (101, 5, 5.00000000000000000000e-01) (101, 5, 5.00000000000000000000e-01) (101, 5, 5.00000000000000000000e-01) (101, 5, 5.00000000000000000000e-01) (101, 5, 5.00000000000000000000e-01) (101, 5, 5.00000000000000000000e-01) (101, 5, 5.00000000000000000000e-01) (101, 5, 5.00000000000000000000e-01) (101, 5, 5.00000000000000000000e-01) (101, 5, 5.00000000000000000000e-01) (101, 5, 5.00000000000000000000e-01) (101, 5, 5.00000000000000000000e-01) (101, 5, 5.00000000000000000000e-01) (101, 5, 5.00000000000000000000e-01) (101, 5, 5.00000000000000000000e-01) (101, 5, 5.00000000000000000000e-01) (101, 5, 5.00000000000000000000e-01) (101, 5, 5.00000000000000000000e-01) (101, 5, 5.00000000000000000000e-01) (101, 5, 5.00000000000000000000e-01) (101, 5, 5.00000000000000000000e-01) (101, 5, 5.00000000000000000000e-01) (101, 5, 5.00000000000000000000e-01) (101, 5, 5.00000000000000000000e-01) (101, 5, 5.00000000000000000000e-01) (101, 5, 5.00000000000000000000e-01) (101, 5, 5.00000000000000000000e-01) (101, 5, 5.00000000000000000000e-01) (101, 5, 5.00000000000000000000e-01) (101, 5, 5.00000000000000000000e-01) (101, 5, 5.00000000000000000000e-01) (101, 5, 5.00000000000000000000e-01) (101, 5, 5.00000000000000000000e-01) (101, 5, 5.00000000000000000000e-01) (101, 5, 5.00000000000000000000e-01) (101, 5, 5.00000000000000000000e-01) (101, 5, 5.00000000000000000000e-01) (101, 5, 5.00000000000000000000e-01) (101, 5, 5.00000000000000000000e-01) (101, 5, 5.00000000000000000000e-01) (101, 5, 5.00000000000000000000e-01) (101, 5, 5.00000000000000000000e-01) (101, 5, 5.00000000000000000000e-01) (101, 5, 5.00000000000000000000e-01) (101, 5, 5.00000000000000000000e-01) (101, 5, 5.00000000000000000000e-01) (101, 5, 5.00000000000000000000e-01) (101, 5, 5.00000000000000000000e-01) (101, 5, 5.00000000000000000000e-01) (101, 5, 5.00000000000000000000e-01) (101, 5, 5.00000000000000000000e-01) (101, 5, 5.00000000000000000000e-01) (101, 5, 5.00000000000000000000e-01) (101, 5, 5.00000000000000000000e-01) (101, 5, 5.00000000000000000000e-01) (101, 5, 5.00000000000000000000e-01) (101, 5, 5.00000000000000000000e-01) (101, 5, 5.00000000000000000000e-01) (101, 5, 5.00000000000000000000e-01) (101, 5, 5.00000000000000000000e-01) (101, 5, 5.00000000000000000000e-01) (101, 5, 5.00000000000000000000e-01) (101, 5, 5.00000000000000000000e-01) (101, 5, 5.00000000000000000000e-01) (101, 5, 5.00000000000000000000e-01) (101, 5, 5.00000000000000000000e-01) (101, 5, 5.00000000000000000000e-01) (101, 5, 5.00000000000000000000e-01) (101, 5, 5.00000000000000000000e-01) (101, 5, 5.00000000000000000000e-01) (101, 5, 5.00000000000000000000e-01) (101, 5, 5.00000000000000000000e-01) (101, 5, 5.00000000000000000000e-01) (101, 5, 5.00000000000000000000e-01) (101, 5, 5.00000000000000000000e-01) (101, 5, 5.00000000000000000000e-01) (101, 5, 5.00000000000000000000e-01) (101, 5, 5.00000000000000000000e-01) (0, 5, 0.00000000000000000000e+00) (101, 5, 5.00000000000000000000e-01) (101, 5, 5.00000000000000000000e-01) (101, 5, 5.00000000000000000000e-01) (101, 5, 5.00000000000000000000e-01) (101, 5, 5.00000000000000000000e-01) (101, 5, 5.00000000000000000000e-01) (101, 5, 5.00000000000000000000e-01) (101, 5, 5.00000000000000000000e-01) (0, 5, 0.00000000000000000000e+00) 
connections (connected_to_neuron, weight)=(0, -2.82570610046386718750e+01) (1, 2.14206767082214355469e+00) (2, 2.89874434471130371094e-01) (3, -9.80418503284454345703e-01) (4, 3.59484720230102539062e+00) (5, 1.98066215515136718750e+01) (6, 1.49964782714843750000e+03) (7, -2.81200332641601562500e+01) (8, 2.10815620422363281250e+00) (9, 3.32501083612442016602e-01) (10, -1.13511085510253906250e+00) (11, 3.60418796539306640625e+00) (12, 1.98428726196289062500e+01) (13, 1.49964782714843750000e+03) (14, 3.51312232017517089844e+00) (15, 2.39661812782287597656e+00) (16, 1.12398691475391387939e-01) (17, -1.08767402172088623047e+00) (18, 1.85881435871124267578e+00) (19, 1.97789821624755859375e+01) (20, 1.49984704589843750000e+03) (21, -3.95768910646438598633e-01) (22, 9.60767388343811035156e-01) (23, 2.00491115450859069824e-01) (24, -9.41237270832061767578e-01) (25, 1.90230548381805419922e+00) (26, 1.97277622222900390625e+01) (27, 1.49988916015625000000e+03) (28, 1.60443887114524841309e-01) (29, 9.02628362178802490234e-01) (30, 7.83874559402465820312e+00) (31, -2.55998349189758300781e+00) (32, 1.90103840827941894531e+00) (33, 1.99050369262695312500e+01) (34, 1.49974340820312500000e+03) (35, 9.18895900249481201172e-01) (36, 7.66961574554443359375e-01) (37, 9.64380359649658203125e+00) (38, -2.62227320671081542969e+00) (39, 1.87839460372924804688e+00) (40, 1.98708190917968750000e+01) (41, 1.49974340820312500000e+03) (42, -7.31537475585937500000e+02) (43, 2.49958872795104980469e+00) (44, 1.52318244799971580505e-02) (45, -2.22735176794230937958e-03) (46, 1.91998624801635742188e+00) (47, 1.98225383758544921875e+01) (48, 1.49832604980468750000e+03) (49, -9.92378601074218750000e+02) (50, 6.32251882553100585938e+00) (51, 1.73088490962982177734e-01) (52, 3.89680176973342895508e-01) (53, 1.86083173751831054688e+00) (54, 4.33787002563476562500e+01) (55, 1.49615441894531250000e+03) (56, -1.30226367187500000000e+03) (57, 7.63606309890747070312e+00) (58, 3.08101326227188110352e-01) (59, 5.43427467346191406250e-01) (60, 1.78821861743927001953e+00) (61, 4.33315429687500000000e+01) (62, 1.49608215332031250000e+03) (63, -1.30355126953125000000e+03) (64, 1.55303030014038085938e+01) (65, 1.19592778384685516357e-01) (66, 4.44922924041748046875e-01) (67, 1.92368662357330322266e+00) (68, 4.07408943176269531250e+01) (69, 1.49597619628906250000e+03) (70, -1.48242736816406250000e+03) (71, 6.69580764770507812500e+01) (72, 2.49384880065917968750e+00) (73, 5.42936623096466064453e-01) (74, 2.65057563781738281250e+00) (75, 4.08599739074707031250e+01) (76, 1.49614965820312500000e+03) (77, -1.48242736816406250000e+03) (78, 6.68238449096679687500e+01) (79, 3.30174612998962402344e+00) (80, 6.64610192179679870605e-02) (81, 2.80462980270385742188e+00) (82, 9.69281082153320312500e+01) (83, 1.49591467285156250000e+03) (84, -1.50000000000000000000e+03) (85, 5.51898132324218750000e+02) (86, 2.41204714775085449219e+00) (87, 5.09119153022766113281e-01) (88, 2.65673303604125976562e+00) (89, 9.69821853637695312500e+01) (90, 1.49829150390625000000e+03) (91, -1.29151354980468750000e+03) (92, 2.24850357055664062500e+02) (93, 1.58734645843505859375e+01) (94, -1.37066096067428588867e-01) (95, 2.84344840049743652344e+00) (96, 9.69752731323242187500e+01) (97, 1.49856762695312500000e+03) (98, -1.29151354980468750000e+03) (99, 6.10446834564208984375e+00) (100, 1.58894157409667968750e+01) (101, 2.53054761886596679688e+00) (102, 3.07841086387634277344e+00) (103, 9.70132141113281250000e+01) (104, 1.49856762695312500000e+03) (105, -1.29151354980468750000e+03) (106, 6.05558967590332031250e+00) (107, 1.58903827667236328125e+01) (108, 2.61958885192871093750e+00) (109, 3.09470391273498535156e+00) (110, 9.12294387817382812500e+01) (111, 1.49658007812500000000e+03) (112, -1.50000000000000000000e+03) (113, 1.52174806594848632812e+01) (114, 1.54947054386138916016e+00) (115, 2.29075312614440917969e+00) (116, 5.36868286132812500000e+00) (117, 9.12112121582031250000e+01) (118, 1.49505065917968750000e+03) (119, -1.50000000000000000000e+03) (120, 1.52544069290161132812e+01) (121, 6.33669674396514892578e-01) (122, 2.20074892044067382812e+00) (123, 5.21324539184570312500e+00) (124, 9.11864852905273437500e+01) (125, 1.49914892578125000000e+03) (126, -1.50000000000000000000e+03) (127, 2.41245746612548828125e+00) (128, 5.17126619815826416016e-01) (129, 1.15651931762695312500e+02) (130, 3.19494771957397460938e+00) (131, 9.11644210815429687500e+01) (132, 1.49915283203125000000e+03) (133, -1.47136926269531250000e+03) (134, 1.16332840919494628906e+00) (135, 5.70935606956481933594e-02) (136, 1.04098486328125000000e+03) (137, 3.16158628463745117188e+00) (138, 9.12931137084960937500e+01) (139, 1.49916906738281250000e+03) (140, -1.48649084472656250000e+03) (141, 1.00260221958160400391e+00) (142, -9.91590041667222976685e-03) (143, 1.49681567382812500000e+03) (144, 3.30248761177062988281e+00) (145, 5.14287719726562500000e+01) (146, 1.49916577148437500000e+03) (147, -1.26888818359375000000e+03) (148, 1.20853435993194580078e+00) (149, 4.65954001992940902710e-03) (150, 1.49998046875000000000e+03) (151, 3.27398610115051269531e+00) (152, 5.14102363586425781250e+01) (153, 1.49916516113281250000e+03) (154, -1.10740270996093750000e+03) (155, 1.83744633197784423828e+00) (156, 2.23053112626075744629e-01) (157, 1.49234094238281250000e+03) (158, 2.95697522163391113281e+00) (159, 5.14323387145996093750e+01) (160, 1.49916516113281250000e+03) (161, -1.27674304199218750000e+03) (162, 1.83749306201934814453e+00) (163, 2.37322688102722167969e-01) (164, 1.39762485027313232422e+00) (165, 2.97240614891052246094e+00) (166, 4.47573623657226562500e+01) (167, 1.49914746093750000000e+03) (168, -1.39412414550781250000e+03) (169, 9.41770744323730468750e+00) (170, 2.12778836488723754883e-01) (171, 2.29840612411499023438e+00) (172, 1.91561388969421386719e+00) (173, 4.47098159790039062500e+01) (174, 1.49802917480468750000e+03) (175, -6.73874328613281250000e+02) (176, 6.46730422973632812500e-01) (177, 3.01277965307235717773e-01) (178, 3.78527379035949707031e+00) (179, 1.52359449863433837891e+00) (180, 4.46774864196777343750e+01) (181, 1.49917126464843750000e+03) (182, -1.00795698165893554688e+01) (183, 2.01096224784851074219e+00) (184, 9.25196111202239990234e-01) (185, 5.80266189575195312500e+00) (186, 1.06137108802795410156e+00) (187, 3.85346984863281250000e+01) (188, 1.49914086914062500000e+03) (189, -1.46488024902343750000e+03) (190, 9.68836009502410888672e-01) (191, 1.00490689277648925781e+00) (192, 7.64337205886840820312e+00) (193, 1.18227028846740722656e+00) (194, 3.85089454650878906250e+01) (195, 1.49886718750000000000e+03) (196, -6.79160461425781250000e+01) (197, 1.50902891159057617188e+00) (198, -8.38321521878242492676e-02) (199, 1.11260490417480468750e+01) (200, 1.20647037029266357422e+00) (201, 3.84125328063964843750e+01) (202, 1.49886889648437500000e+03) (203, -1.27134423828125000000e+03) (204, 8.16571593284606933594e-01) (205, -2.90636628866195678711e-01) (206, 3.04811763763427734375e+00) (207, 1.16883957386016845703e+00) (208, 3.85557403564453125000e+01) (209, 1.49955139160156250000e+03) (210, -1.42802795410156250000e+03) (211, 4.49150890111923217773e-01) (212, -4.28640480041503906250e+01) (213, 1.49614245605468750000e+03) (214, 1.23743379116058349609e+00) (215, 3.85170440673828125000e+01) (216, 1.49706823730468750000e+03) (217, -1.39538720703125000000e+03) (218, 5.08969604969024658203e-01) (219, 1.00906932353973388672e+00) (220, 1.49921704101562500000e+03) (221, 1.21864235401153564453e+00) (222, 3.84630889892578125000e+01) (223, 1.49507617187500000000e+03) (224, -1.42216052246093750000e+03) (225, 4.09025907516479492188e-01) (226, 1.07402004301548004150e-01) (227, 1.49921704101562500000e+03) (228, 1.14838731288909912109e+00) (229, 9.13916625976562500000e+01) (230, 1.49022277832031250000e+03) (231, -1.36050195312500000000e+03) (232, 3.35450053215026855469e-01) (233, -9.87327471375465393066e-02) (234, 1.49813110351562500000e+03) (235, 1.09321224689483642578e+00) (236, 3.25956687927246093750e+01) (237, 1.49022277832031250000e+03) (238, -1.46571008300781250000e+03) (239, 1.52778887748718261719e+00) (240, -5.50402998924255371094e-01) (241, 1.49813110351562500000e+03) (242, 1.00917685031890869141e+00) (243, 3.21394424438476562500e+01) (244, 1.49082849121093750000e+03) (245, -1.46571008300781250000e+03) (246, 5.89349448680877685547e-01) (247, -2.87788838148117065430e-01) (248, 1.49935839843750000000e+03) (249, 9.57000017166137695312e-01) (250, 3.20627975463867187500e+01) (251, 1.49492114257812500000e+03) (252, -1.41357360839843750000e+03) (253, 6.62785053253173828125e-01) (254, -1.87138989567756652832e-01) (255, 1.49935839843750000000e+03) (256, 9.32769954204559326172e-01) (257, 3.19828433990478515625e+01) (258, 1.49492065429687500000e+03) (259, -1.40003076171875000000e+03) (260, 6.92868828773498535156e-01) (261, -1.96474418044090270996e-01) (262, 1.49935839843750000000e+03) (263, 1.11281478404998779297e+00) (264, 3.20445594787597656250e+01) (265, 1.49492065429687500000e+03) (266, -1.48502416992187500000e+03) (267, 4.85243052244186401367e-01) (268, -1.05439625680446624756e-01) (269, 1.49935839843750000000e+03) (270, 1.12157952785491943359e+00) (271, 3.19985523223876953125e+01) (272, 1.49491894531250000000e+03) (273, -1.50000000000000000000e+03) (274, 6.67785227298736572266e-01) (275, -8.89645069837570190430e-02) (276, 1.49935839843750000000e+03) (277, 1.09197950363159179688e+00) (278, 6.80374526977539062500e+01) (279, 1.49787561035156250000e+03) (280, -1.50000000000000000000e+03) (281, 1.05870008468627929688e+00) (282, 1.13793343305587768555e-01) (283, 1.49935839843750000000e+03) (284, 1.19835937023162841797e+00) (285, 6.80705947875976562500e+01) (286, 1.49753027343750000000e+03) (287, -1.50000000000000000000e+03) (288, 5.40554571151733398438e+00) (289, 2.86709815263748168945e-01) (290, 1.49935839843750000000e+03) (291, 1.09845972061157226562e+00) (292, 6.80419235229492187500e+01) (293, 1.49761608886718750000e+03) (294, -1.50000000000000000000e+03) (295, 5.20431852340698242188e+00) (296, 7.48114547729492187500e+01) (297, 1.49935839843750000000e+03) (298, 1.07020270824432373047e+00) (299, 8.78114624023437500000e+01) (300, 1.49957482910156250000e+03) (301, -1.29472253417968750000e+03) (302, 5.26446104049682617188e+00) (303, 7.48168258666992187500e+01) (304, 1.49921704101562500000e+03) (305, 1.01148772239685058594e+00) (306, 8.78633804321289062500e+01) (307, 1.49956787109375000000e+03) (308, -1.28897961425781250000e+03) (309, 5.22259378433227539062e+00) (310, 8.02227020263671875000e+01) (311, 1.49921704101562500000e+03) (312, 1.00190925598144531250e+00) (313, 3.70295257568359375000e+01) (314, 1.49956787109375000000e+03) (315, -5.94963073730468750000e+02) (316, 5.57936048507690429688e+00) (317, 8.01774749755859375000e+01) (318, 1.49921704101562500000e+03) (319, 9.61224734783172607422e-01) (320, 3.71295166015625000000e+01) (321, 1.49982958984375000000e+03) (322, 6.61184158325195312500e+01) (323, 5.65068006515502929688e+00) (324, -6.90741943359375000000e+02) (325, 1.49921704101562500000e+03) (326, 1.08057749271392822266e+00) (327, 3.69705543518066406250e+01) (328, 1.49957287597656250000e+03) (329, -1.50000000000000000000e+03) (330, 5.59776926040649414062e+00) (331, -6.90755004882812500000e+02) (332, 1.50000000000000000000e+03) (333, 1.08877778053283691406e+00) (334, 3.69631500244140625000e+01) (335, 1.49982727050781250000e+03) (336, -1.50000000000000000000e+03) (337, 6.28337383270263671875e+00) (338, -6.90880981445312500000e+02) (339, 1.47294543457031250000e+03) (340, 1.18034982681274414062e+00) (341, 3.71359443664550781250e+01) (342, 1.49982836914062500000e+03) (343, -1.50000000000000000000e+03) (344, 5.59990549087524414062e+00) (345, -6.90913085937500000000e+02) (346, 1.49998706054687500000e+03) (347, 1.15772736072540283203e+00) (348, 3.70598678588867187500e+01) (349, 1.49982836914062500000e+03) (350, -1.50000000000000000000e+03) (351, 5.62248802185058593750e+00) (352, -7.41134338378906250000e+02) (353, 1.49998706054687500000e+03) (354, 1.05127763748168945312e+00) (355, 3.70696907043457031250e+01) (356, 1.49982458496093750000e+03) (357, -1.50000000000000000000e+03) (358, 1.57720577716827392578e+00) (359, -7.41195739746093750000e+02) (360, 1.45927209472656250000e+03) (361, 1.04993581771850585938e+00) (362, 1.58058509826660156250e+01) (363, 1.49957019042968750000e+03) (364, -1.50000000000000000000e+03) (365, 6.23250198364257812500e+00) (366, 7.10046440362930297852e-02) (367, 1.48828845214843750000e+03) (368, 1.21216547489166259766e+00) (369, 1.58862686157226562500e+01) (370, 1.49899365234375000000e+03) (371, -1.50000000000000000000e+03) (372, 6.26046419143676757812e-01) (373, 1.75768166780471801758e-01) (374, 1.49847082519531250000e+03) (375, 1.22281014919281005859e+00) (376, 1.68424644470214843750e+01) (377, 1.49899365234375000000e+03) (378, -1.50000000000000000000e+03) (379, 6.28036975860595703125e+00) (380, 1.16219945251941680908e-01) (381, 1.48828845214843750000e+03) (382, 1.24080514907836914062e+00) (383, 1.67080688476562500000e+01) (384, 1.49761010742187500000e+03) (385, -1.49372375488281250000e+03) (386, 1.12682867050170898438e+01) (387, -1.72658748626708984375e+01) (388, 1.49998706054687500000e+03) (389, 1.16654634475708007812e+00) (390, 2.34867591857910156250e+01) (391, 1.49761315917968750000e+03) (392, -1.47180578613281250000e+03) (393, 7.27255165576934814453e-01) (394, -1.71693325042724609375e+01) (395, 1.49976281738281250000e+03) (396, 1.09019827842712402344e+00) (397, 3.00797061920166015625e+01) (398, 1.49760400390625000000e+03) (399, -1.32506335449218750000e+03) (400, 4.91901040077209472656e-01) (401, -1.03933960199356079102e-01) (402, 1.49973559570312500000e+03) (403, 1.11823034286499023438e+00) (404, 3.00821876525878906250e+01) (405, 1.49789636230468750000e+03) (406, -2.09249897003173828125e+01) (407, 3.70065987110137939453e-01) (408, -5.25536276400089263916e-02) (409, 1.49087475585937500000e+03) (410, 1.18851244449615478516e+00) (411, 2.62627429962158203125e+01) (412, 1.49488366699218750000e+03) (413, -5.43056488037109375000e-01) (414, 4.27505016326904296875e-01) (415, -6.73545956611633300781e-01) (416, 3.08855980634689331055e-01) (417, 1.12264573574066162109e+00) (418, 2.63801631927490234375e+01) (419, 1.48775317382812500000e+03) (420, -1.67472028732299804688e+00) (421, 2.48139810562133789062e+00) (422, -1.00935623168945312500e+02) (423, 2.42221140861511230469e+00) (424, 1.40175676345825195312e+00) (425, 2.64119701385498046875e+01) (426, 1.48775317382812500000e+03) (427, -7.66113251447677612305e-02) (428, 7.06121563911437988281e-01) (429, -4.10031461715698242188e+00) (430, 8.62412512302398681641e-01) (431, 1.52071726322174072266e+00) (432, 2.63058853149414062500e+01) (433, 1.49488366699218750000e+03) (434, -3.37422519922256469727e-01) (435, 8.30539703369140625000e-01) (436, 5.38619117736816406250e+01) (437, 3.97255986928939819336e-01) (438, 1.51398682594299316406e+00) (439, 2.64324932098388671875e+01) (440, 1.49785095214843750000e+03) (441, -3.05623626708984375000e+00) (442, 1.03837740421295166016e+00) (443, -9.25356445312500000000e+01) (444, 2.76852250099182128906e-01) (445, 1.46046733856201171875e+00) (446, 2.64171657562255859375e+01) (447, 1.49785095214843750000e+03) (448, 1.06693885803222656250e+02) (449, 3.47828602790832519531e+00) (450, -2.43493041992187500000e+02) (451, 1.22273963928222656250e+02) (452, 1.34449124336242675781e+00) (453, 2.64021606445312500000e+01) (454, 1.49785375976562500000e+03) (455, 1.56927630305290222168e-02) (456, 4.33804321289062500000e+00) (457, 1.47761368751525878906e+00) (458, 3.28693461418151855469e+00) (459, 1.88909173011779785156e+00) (460, 2.64328022003173828125e+01) (461, 1.49785375976562500000e+03) (462, 1.01173446655273437500e+02) (463, 1.27988243103027343750e+00) (464, 9.82015788555145263672e-01) (465, 1.42522631835937500000e+03) (466, 1.91004443168640136719e+00) (467, 2.63251724243164062500e+01) (468, 1.49488366699218750000e+03) (469, 3.74727416992187500000e+02) (470, 1.92691894531250000000e+02) (471, 6.77334547042846679688e-01) (472, 4.33769321441650390625e+00) (473, 1.78768062591552734375e+00) (474, 2.63959617614746093750e+01) (475, 1.49488635253906250000e+03) (476, -8.51219711303710937500e+01) (477, 1.92739898681640625000e+02) (478, 1.16105194091796875000e+01) (479, 3.79502445459365844727e-01) (480, 1.73814737796783447266e+00) (481, 2.63391132354736328125e+01) (482, 1.49487768554687500000e+03) (483, -4.69846191406250000000e+02) (484, 8.41419250488281250000e+02) (485, 1.49963183593750000000e+03) (486, 7.16094076633453369141e-01) (487, 1.87935912609100341797e+00) (488, 2.63369350433349609375e+01) (489, 1.47062976074218750000e+03) (490, -1.39355754852294921875e+00) (491, 1.63827097415924072266e+00) (492, -1.07017278671264648438e-01) (493, 6.81273937225341796875e-01) (494, 1.83126413822174072266e+00) (495, 2.63305740356445312500e+01) (496, 1.48775256347656250000e+03) (497, -8.05753707885742187500e+01) (498, 1.88189911842346191406e+00) (499, 5.91501617431640625000e+00) (500, 1.02849800109863281250e+02) (501, 1.90649425983428955078e+00) (502, 2.64102668762207031250e+01) (503, 1.49488977050781250000e+03) (504, -1.24217290878295898438e+01) (505, 1.59127497673034667969e+00) (506, 5.16113638877868652344e-01) (507, 2.78728961944580078125e+00) (508, 1.88776290416717529297e+00) (509, 2.64678039550781250000e+01) (510, 1.48776977539062500000e+03) (511, -7.83847900390625000000e+02) (512, 7.44585692882537841797e-01) (513, 1.88718542456626892090e-01) (514, 5.38281261920928955078e-01) (515, 1.56159389019012451172e+00) (516, 1.79921569824218750000e+01) (517, 1.48776977539062500000e+03) (518, -9.80623340606689453125e+00) (519, 8.42714607715606689453e-01) (520, 3.21087986230850219727e-01) (521, -3.00105083733797073364e-02) (522, 1.66804528236389160156e+00) (523, 1.80003852844238281250e+01) (524, 1.48776977539062500000e+03) (525, -2.13886108398437500000e+01) (526, 8.45384120941162109375e-01) (527, 4.43697005510330200195e-01) (528, 4.27776908874511718750e+00) (529, 1.55744504928588867188e+00) (530, 1.32294816970825195312e+01) (531, 1.49471105957031250000e+03) (532, -2.14250564575195312500e+01) (533, 7.53026068210601806641e-01) (534, 6.76396250724792480469e-01) (535, 4.19349288940429687500e+00) (536, 1.49059605598449707031e+00) (537, 1.33902931213378906250e+01) (538, 1.49471105957031250000e+03) (539, -1.07874487304687500000e+03) (540, 7.71753370761871337891e-01) (541, 1.85813248157501220703e+00) (542, 1.39831286621093750000e+03) (543, 1.50988948345184326172e+00) (544, 1.32798776626586914062e+01) (545, 1.49777722167968750000e+03) (546, -7.93748245239257812500e+01) (547, 3.84432148933410644531e+00) (548, 1.24684870243072509766e+00) (549, 1.65616436004638671875e+01) (550, 1.56124138832092285156e+00) (551, 5.95269489288330078125e+00) (552, 1.49783081054687500000e+03) (553, -1.46639175415039062500e+02) (554, 3.85700917243957519531e+00) (555, 1.47376196289062500000e+03) (556, -5.86114425659179687500e+01) (557, 1.57659828662872314453e+00) (558, 5.99927186965942382812e+00) (559, 1.49908178710937500000e+03) (560, -1.29101562500000000000e+03) (561, 1.21131801605224609375e+00) (562, 1.43129333496093750000e+03) (563, -3.51451247930526733398e-01) (564, 1.53067135810852050781e+00) (565, 5.71418094635009765625e+00) (566, 1.49794714355468750000e+03) (567, -8.41336914062500000000e+02) (568, 4.20511811971664428711e-01) (569, 2.18286193847656250000e+02) (570, -8.93489646911621093750e+00) (571, 1.55397725105285644531e+00) (572, 5.55912113189697265625e+00) (573, 1.49794714355468750000e+03) (574, -8.77415161132812500000e+01) (575, 9.61451977491378784180e-02) (576, 7.73991699218750000000e+02) (577, 1.09617187500000000000e+03) (578, 1.45976114273071289062e+00) (579, 5.62914514541625976562e+00) (580, 1.49925268554687500000e+03) (581, 9.13093471527099609375e+00) (582, 3.84770900011062622070e-01) (583, 1.48081835937500000000e+03) (584, -1.48639306640625000000e+03) (585, 1.54697608947753906250e+00) (586, 5.55506610870361328125e+00) (587, 1.49582885742187500000e+03) (588, 8.84556829929351806641e-01) (589, 3.57672899961471557617e-01) (590, 1.48081835937500000000e+03) (591, -1.48639306640625000000e+03) (592, 1.50146245956420898438e+00) (593, 5.57831335067749023438e+00) (594, 1.49598962402343750000e+03) (595, 3.90397739410400390625e+00) (596, 6.16307926177978515625e+00) (597, 1.48081835937500000000e+03) (598, -2.16198440551757812500e+02) (599, 1.81504261493682861328e+00) (600, 5.71113491058349609375e+00) (601, 1.49049499511718750000e+03) (602, 2.59563636779785156250e+00) (603, 6.23488759994506835938e+00) (604, 1.24773511886596679688e+01) (605, 5.15907764434814453125e+00) (606, 1.72716677188873291016e+00) (607, 5.97200345993041992188e+00) (608, 1.47722949218750000000e+03) (609, 4.03292216360569000244e-02) (610, 5.81024780273437500000e+02) (611, 1.24162378311157226562e+01) (612, 5.34235525131225585938e+00) (613, 1.80400812625885009766e+00) (614, 1.32434425354003906250e+01) (615, 1.47736523437500000000e+03) (616, -1.02429658174514770508e-01) (617, 6.04093017578125000000e+02) (618, 1.01451406478881835938e+01) (619, 1.25340080261230468750e+02) (620, 1.83358466625213623047e+00) (621, 1.32357397079467773438e+01) (622, 1.47227111816406250000e+03) (623, -1.08682796359062194824e-01) (624, 1.97192156314849853516e+00) (625, 1.23621630668640136719e+00) (626, -1.03417221069335937500e+02) (627, 1.71699202060699462891e+00) (628, 1.32414102554321289062e+01) (629, 1.47244702148437500000e+03) (630, 6.71568751335144042969e-01) (631, 2.11041855812072753906e+00) (632, 1.39511799812316894531e+00) (633, -1.35209936523437500000e+03) (634, 1.83358430862426757812e+00) (635, 1.53337593078613281250e+01) (636, 1.48848010253906250000e+03) (637, -3.95764142274856567383e-01) (638, 3.65548515319824218750e+00) (639, 9.41935539245605468750e+00) (640, -5.24440185546875000000e+02) (641, 1.68656027317047119141e+00) (642, 1.51866455078125000000e+01) (643, 1.48848046875000000000e+03) (644, 7.59844436645507812500e+01) (645, 4.48441791534423828125e+00) (646, 1.94349098205566406250e+00) (647, -1.48154115676879882812e+01) (648, 1.80525279045104980469e+00) (649, 1.53113956451416015625e+01) (650, 1.49007714843750000000e+03) (651, 8.35359191894531250000e+01) (652, 3.68629527091979980469e+00) (653, 4.36780780553817749023e-01) (654, -3.12072086334228515625e+01) (655, 1.74141860008239746094e+00) (656, 1.52926464080810546875e+01) (657, 1.49007714843750000000e+03) (658, 2.05871391296386718750e+00) (659, 4.22481596469879150391e-01) (660, 4.55543458461761474609e-01) (661, 7.12691726684570312500e+01) (662, 1.86629915237426757812e+00) (663, 1.35506763458251953125e+01) (664, 1.49010998535156250000e+03) (665, 1.41298751831054687500e+01) (666, -7.84535109996795654297e-02) (667, 5.43513059616088867188e-01) (668, -1.30910449218750000000e+03) (669, 1.51498055458068847656e+00) (670, 1.36766872406005859375e+01) (671, 1.49010998535156250000e+03) (672, -4.23478074371814727783e-02) (673, 1.34974392130970954895e-02) (674, 4.56975758075714111328e-01) (675, -5.31170196533203125000e+01) (676, 1.48453843593597412109e+00) (677, 1.26555843353271484375e+01) (678, 1.49586291503906250000e+03) (679, -9.55196201801300048828e-01) (680, 1.84431114196777343750e+01) (681, 1.44329941272735595703e+00) (682, -1.42046032714843750000e+03) (683, 1.57274734973907470703e+00) (684, 1.28275918960571289062e+01) (685, 1.49560620117187500000e+03) (686, -3.29240798950195312500e+00) (687, 2.14365744590759277344e+00) (688, 5.30029177665710449219e-01) (689, -1.42173742675781250000e+03) (690, 4.52668333053588867188e+00) (691, 1.27061319351196289062e+01) (692, 1.49586291503906250000e+03) (693, 2.60087466239929199219e+00) (694, 2.34689163208007812500e+02) (695, 1.17218589782714843750e+00) (696, -1.47180761718750000000e+03) (697, 4.59959268569946289062e+00) (698, 1.27647686004638671875e+01) (699, 1.49586291503906250000e+03) (700, 3.86375397443771362305e-01) (0, 3.09374785423278808594e+00) (1, 7.27574310302734375000e+01) (2, 1.92175602912902832031e+00) (3, -6.62070930004119873047e-01) (4, -3.11983513832092285156e+00) (5, -3.89533691406250000000e+02) (6, -1.44273974609375000000e+03) (7, 3.16453385353088378906e+00) (8, 7.27597961425781250000e+01) (9, 2.08941102027893066406e+00) (10, -6.22413098812103271484e-01) (11, -2.70601916313171386719e+00) (12, -3.89435180664062500000e+02) (13, -1.44273974609375000000e+03) (14, 1.49852844238281250000e+03) (15, 3.48941516876220703125e+00) (16, -1.23099684715270996094e+00) (17, -1.49049291992187500000e+03) (18, -2.73284792900085449219e+00) (19, -3.89437744140625000000e+02) (20, -1.44273974609375000000e+03) (21, 1.47188854980468750000e+03) (22, 6.75184822082519531250e+00) (23, -1.36171483993530273438e+00) (24, -1.49049291992187500000e+03) (25, -2.66757559776306152344e+00) (26, -3.89463317871093750000e+02) (27, -1.44482373046875000000e+03) (28, 2.54363449096679687500e+02) (29, 1.48437678813934326172e+00) (30, 9.26375366210937500000e+02) (31, -1.50000000000000000000e+03) (32, -2.62807917594909667969e+00) (33, -1.62126098632812500000e+02) (34, -1.44482373046875000000e+03) (35, 1.49961535644531250000e+03) (36, 1.07079625129699707031e+00) (37, 3.18132446289062500000e+02) (38, -1.50000000000000000000e+03) (39, -1.62721526622772216797e+00) (40, -1.65645263671875000000e+02) (41, -1.44482373046875000000e+03) (42, 1.49990783691406250000e+03) (43, 8.14189434051513671875e-01) (44, -4.54773330688476562500e+01) (45, -7.68110412597656250000e+02) (46, -1.93386876583099365234e+00) (47, -3.53795989990234375000e+02) (48, -1.44482373046875000000e+03) (49, 1.12794897460937500000e+03) (50, -4.15664136409759521484e-01) (51, -7.32358932495117187500e+00) (52, -2.21294296264648437500e+02) (53, -2.14182519912719726562e+00) (54, -3.53719024658203125000e+02) (55, -1.44482373046875000000e+03) (56, 1.48447717285156250000e+03) (57, 5.29759883880615234375e+00) (58, -9.59339797496795654297e-01) (59, -2.21232589721679687500e+02) (60, -2.16845655441284179688e+00) (61, -1.47852981567382812500e+02) (62, -1.44273974609375000000e+03) (63, 1.49084936523437500000e+03) (64, -1.02453812956809997559e-01) (65, -1.52883205413818359375e+01) (66, -2.21326492309570312500e+02) (67, -9.02476310729980468750e+00) (68, -7.01499481201171875000e+01) (69, -1.44273974609375000000e+03) (70, 1.48783825683593750000e+03) (71, 1.17132118225097656250e+02) (72, -7.91986770629882812500e+01) (73, -2.21337326049804687500e+02) (74, -4.87313938140869140625e+00) (75, -1.47995742797851562500e+02) (76, -1.44273974609375000000e+03) (77, 1.48783825683593750000e+03) (78, 1.17112358093261718750e+02) (79, -3.20611476898193359375e+00) (80, -7.68068542480468750000e+02) (81, -9.49726772308349609375e+00) (82, -1.47860229492187500000e+02) (83, -1.44273974609375000000e+03) (84, 1.46811328125000000000e+03) (85, 1.00199341773986816406e+00) (86, -7.92971725463867187500e+01) (87, -2.21228347778320312500e+02) (88, -9.63338184356689453125e+00) (89, -3.52773773193359375000e+02) (90, -1.44273974609375000000e+03) (91, 1.49361718750000000000e+03) (92, 6.82944238185882568359e-01) (93, -1.46522253417968750000e+03) (94, -4.26580017089843750000e+02) (95, -7.17632818222045898438e+00) (96, -3.52855133056640625000e+02) (97, -1.44273974609375000000e+03) (98, 1.49361718750000000000e+03) (99, 2.78991699218750000000e-01) (100, -1.46522253417968750000e+03) (101, -3.21817159652709960938e-01) (102, -5.53921985626220703125e+00) (103, -3.52782073974609375000e+02) (104, -1.44273974609375000000e+03) (105, 1.49361718750000000000e+03) (106, 2.75938689708709716797e-01) (107, -1.46522253417968750000e+03) (108, -3.31897497177124023438e-01) (109, -5.56423234939575195312e+00) (110, -3.52577117919921875000e+02) (111, -1.44273974609375000000e+03) (112, 1.49434191894531250000e+03) (113, -1.08418442308902740479e-01) (114, -3.14898052215576171875e+01) (115, -1.13826721191406250000e+03) (116, -5.56266641616821289062e+00) (117, -1.47070907592773437500e+02) (118, -1.44273974609375000000e+03) (119, 1.43205944824218750000e+03) (120, -1.91455587744712829590e-01) (121, -8.37606716156005859375e+00) (122, -1.13833740234375000000e+03) (123, -5.69202136993408203125e+00) (124, -6.15295410156250000000e+01) (125, -1.44273974609375000000e+03) (126, 1.49434191894531250000e+03) (127, -1.99845984578132629395e-01) (128, -1.84620285034179687500e+01) (129, -3.22364544868469238281e+00) (130, -5.56262540817260742188e+00) (131, -6.14027557373046875000e+01) (132, -1.44273974609375000000e+03) (133, 1.49991528320312500000e+03) (134, 2.37294435501098632812e-01) (135, -1.87533855438232421875e+01) (136, -1.21636033058166503906e+00) (137, -5.55770921707153320312e+00) (138, -2.92669105529785156250e+01) (139, -1.44273974609375000000e+03) (140, -1.53081085205078125000e+02) (141, 1.96083831787109375000e+01) (142, -1.44641041755676269531e+00) (143, -5.26812866210937500000e+02) (144, -5.41662359237670898438e+00) (145, -2.93622131347656250000e+01) (146, -1.44273974609375000000e+03) (147, 1.50000000000000000000e+03) (148, 1.67125082015991210938e+00) (149, -1.20237703323364257812e+01) (150, 1.41860609874129295349e-02) (151, -5.48040151596069335938e+00) (152, -6.16602172851562500000e+01) (153, -1.44273974609375000000e+03) (154, 1.44007165527343750000e+03) (155, 3.70627313852310180664e-01) (156, -3.06956744194030761719e+00) (157, -2.79519009590148925781e+00) (158, -3.58458662033081054688e+00) (159, -6.17298278808593750000e+01) (160, -1.44273974609375000000e+03) (161, 5.95901184082031250000e+02) (162, 3.98865640163421630859e-01) (163, -1.91367511749267578125e+01) (164, -3.07372360229492187500e+01) (165, -3.58541440963745117188e+00) (166, -1.47612380981445312500e+02) (167, -1.44273974609375000000e+03) (168, -3.09419799804687500000e+02) (169, -2.07945242524147033691e-01) (170, -8.89105102539062500000e+02) (171, 2.21157112121582031250e+01) (172, -3.62267565727233886719e+00) (173, -1.47644653320312500000e+02) (174, -1.44273974609375000000e+03) (175, 1.24646411132812500000e+03) (176, 5.88051974773406982422e-01) (177, -1.47364477539062500000e+03) (178, -9.59156005859375000000e+02) (179, -3.43658447265625000000e+00) (180, -6.12037811279296875000e+01) (181, -1.44273974609375000000e+03) (182, 1.12362838745117187500e+02) (183, 1.44654614257812500000e+03) (184, -1.49454113769531250000e+03) (185, 1.31589245796203613281e+00) (186, -2.60217690467834472656e+00) (187, -1.42108011245727539062e+01) (188, -1.44273974609375000000e+03) (189, 2.21783142089843750000e+02) (190, 2.60713195800781250000e+02) (191, -1.49454113769531250000e+03) (192, -7.25381546020507812500e+01) (193, -4.87006425857543945312e+00) (194, -1.70294914245605468750e+01) (195, -1.44273974609375000000e+03) (196, 6.94257995605468750000e+02) (197, 5.16501379013061523438e+00) (198, -1.40725329589843750000e+03) (199, 1.13877709960937500000e+03) (200, -6.00483131408691406250e+00) (201, -1.70005569458007812500e+01) (202, -1.44273974609375000000e+03) (203, -2.64146137237548828125e+01) (204, 1.17779151916503906250e+02) (205, -3.92994537353515625000e+01) (206, 7.68447208404541015625e+00) (207, -5.25814628601074218750e+00) (208, -3.45014152526855468750e+01) (209, -1.44273974609375000000e+03) (210, 1.50000000000000000000e+03) (211, 7.64169869944453239441e-03) (212, -1.01095239257812500000e+03) (213, -8.92115712165832519531e-01) (214, -5.65504360198974609375e+00) (215, -3.44285240173339843750e+01) (216, -1.44273974609375000000e+03) (217, 1.50000000000000000000e+03) (218, 1.98703974485397338867e-01) (219, -8.81914749145507812500e+01) (220, -1.30802612304687500000e+01) (221, -5.56044721603393554688e+00) (222, -3.45412406921386718750e+01) (223, -1.44273974609375000000e+03) (224, 1.48444799804687500000e+03) (225, 4.60899505615234375000e+01) (226, -1.44980004882812500000e+03) (227, -1.30387649536132812500e+01) (228, -5.61037063598632812500e+00) (229, -3.45085182189941406250e+01) (230, -1.44273974609375000000e+03) (231, 1.43722570800781250000e+03) (232, 1.66020126342773437500e+01) (233, -2.34320850372314453125e+01) (234, -2.45660667419433593750e+01) (235, -5.49694967269897460938e+00) (236, -5.63526611328125000000e+01) (237, -1.44273974609375000000e+03) (238, 1.50000000000000000000e+03) (239, 2.25397903442382812500e+02) (240, -1.22248083496093750000e+03) (241, -2.45690269470214843750e+01) (242, -5.63972854614257812500e+00) (243, -5.63892135620117187500e+01) (244, -1.44273974609375000000e+03) (245, 1.50000000000000000000e+03) (246, 7.90207138061523437500e+01) (247, 3.28418502807617187500e+01) (248, -1.26926536560058593750e+01) (249, -3.90806531906127929688e+00) (250, -5.70591468811035156250e+01) (251, -1.44273974609375000000e+03) (252, 1.47148803710937500000e+03) (253, 7.90696868896484375000e+01) (254, -8.77106571197509765625e+00) (255, -1.26869201660156250000e+01) (256, -3.73017549514770507812e+00) (257, -5.69547424316406250000e+01) (258, -1.44273974609375000000e+03) (259, -1.60762680053710937500e+02) (260, 5.62486938476562500000e+02) (261, -5.79473205566406250000e+02) (262, -1.27752933502197265625e+01) (263, -4.48620605468750000000e+00) (264, -6.01323890686035156250e+01) (265, -1.44273974609375000000e+03) (266, -5.97088012695312500000e+02) (267, 1.82990503311157226562e+00) (268, 6.45744705200195312500e+01) (269, -1.26254882812500000000e+01) (270, -1.93119227886199951172e+00) (271, -5.99449005126953125000e+01) (272, -1.44273974609375000000e+03) (273, 1.30758129882812500000e+03) (274, -1.44203723144531250000e+03) (275, 1.49862219238281250000e+03) (276, -1.26367740631103515625e+01) (277, -2.35858082771301269531e+00) (278, -1.30599365234375000000e+02) (279, -1.44273974609375000000e+03) (280, 1.30758129882812500000e+03) (281, -1.22439990234375000000e+03) (282, 1.44036926269531250000e+03) (283, -1.26296081542968750000e+01) (284, -2.33974194526672363281e+00) (285, -2.10815258026123046875e+01) (286, -1.44273974609375000000e+03) (287, 1.50000000000000000000e+03) (288, -1.48574316406250000000e+03) (289, 1.47855371093750000000e+03) (290, -1.26657791137695312500e+01) (291, -2.17097210884094238281e+00) (292, -2.10231647491455078125e+01) (293, -1.44273974609375000000e+03) (294, 1.50000000000000000000e+03) (295, -1.49507653808593750000e+03) (296, 1.49504174804687500000e+03) (297, -1.27518730163574218750e+01) (298, -1.20707952976226806641e+00) (299, -2.09966144561767578125e+01) (300, -1.44273974609375000000e+03) (301, 1.50000000000000000000e+03) (302, -1.49507653808593750000e+03) (303, 1.49505224609375000000e+03) (304, -1.29456901550292968750e+01) (305, -1.01329648494720458984e+00) (306, -2.10292415618896484375e+01) (307, -1.44273974609375000000e+03) (308, 1.49993127441406250000e+03) (309, -1.49507653808593750000e+03) (310, 9.84326660156250000000e+02) (311, -1.28905639648437500000e+01) (312, -9.66914415359497070312e-01) (313, -2.11129131317138671875e+01) (314, -1.44273974609375000000e+03) (315, 1.49888452148437500000e+03) (316, -1.46322729492187500000e+03) (317, 9.84401855468750000000e+02) (318, -1.29967021942138671875e+01) (319, -1.13355791568756103516e+00) (320, -1.33705263137817382812e+01) (321, -1.45499938964843750000e+03) (322, 1.47767736816406250000e+03) (323, -1.46322729492187500000e+03) (324, 9.90495910644531250000e+02) (325, -1.30413475036621093750e+01) (326, -9.56784009933471679688e-01) (327, -1.34536657333374023438e+01) (328, -1.45499938964843750000e+03) (329, 1.49686816406250000000e+03) (330, -1.46322729492187500000e+03) (331, 9.90495910644531250000e+02) (332, -2.06752315163612365723e-01) (333, -1.31393158435821533203e+00) (334, -1.35077943801879882812e+01) (335, -1.45499938964843750000e+03) (336, 1.49694580078125000000e+03) (337, -1.34064147949218750000e+03) (338, 9.90495910644531250000e+02) (339, -3.66082214355468750000e+02) (340, -1.41425764560699462891e+00) (341, -1.35910177230834960938e+01) (342, -1.45499938964843750000e+03) (343, 1.49900280761718750000e+03) (344, -1.46322729492187500000e+03) (345, 9.90495910644531250000e+02) (346, -5.90198135375976562500e+01) (347, -1.27670371532440185547e+00) (348, -1.35814847946166992188e+01) (349, -1.45499938964843750000e+03) (350, 1.48444799804687500000e+03) (351, -1.46322729492187500000e+03) (352, 1.16072253417968750000e+03) (353, -5.90677108764648437500e+01) (354, -1.41271603107452392578e+00) (355, -1.35187406539916992188e+01) (356, -1.45499938964843750000e+03) (357, 1.48444799804687500000e+03) (358, -2.92083831787109375000e+02) (359, 1.16072253417968750000e+03) (360, -1.43144616699218750000e+03) (361, -1.25514519214630126953e+00) (362, -1.36090536117553710938e+01) (363, -1.45499938964843750000e+03) (364, 1.49900280761718750000e+03) (365, -1.34073339843750000000e+03) (366, 1.21012622070312500000e+03) (367, -3.79302930831909179688e+00) (368, -1.29178965091705322266e+00) (369, -1.34284391403198242188e+01) (370, -1.45499938964843750000e+03) (371, 1.49900280761718750000e+03) (372, -4.21725677490234375000e+02) (373, 1.21012622070312500000e+03) (374, -9.22328308105468750000e+02) (375, -1.39767467975616455078e+00) (376, -9.76660156250000000000e+00) (377, -1.45499938964843750000e+03) (378, 1.49900280761718750000e+03) (379, -1.34071228027343750000e+03) (380, 1.21012622070312500000e+03) (381, -3.91250276565551757812e+00) (382, -1.41027677059173583984e+00) (383, -1.01151790618896484375e+01) (384, -1.45499938964843750000e+03) (385, 1.49989819335937500000e+03) (386, -8.00357482910156250000e+02) (387, 1.22776354980468750000e+03) (388, -5.90472335815429687500e+01) (389, -1.43444693088531494141e+00) (390, -1.00763206481933593750e+01) (391, -1.45499938964843750000e+03) (392, 1.50000000000000000000e+03) (393, 4.50465631484985351562e+00) (394, 1.22776354980468750000e+03) (395, -1.50000000000000000000e+03) (396, -1.43268835544586181641e+00) (397, -1.24371147155761718750e+01) (398, -1.45499938964843750000e+03) (399, 1.45497827148437500000e+03) (400, 1.50000000000000000000e+03) (401, 1.31443371582031250000e+03) (402, -1.27282373046875000000e+03) (403, -1.29963290691375732422e+00) (404, -1.24921646118164062500e+01) (405, -1.45499938964843750000e+03) (406, 1.06435571289062500000e+03) (407, 6.67284667968750000000e+02) (408, 1.31443371582031250000e+03) (409, -1.11713928222656250000e+03) (410, -1.28184688091278076172e+00) (411, -8.93294906616210937500e+00) (412, -1.45499938964843750000e+03) (413, -1.03950964355468750000e+03) (414, 6.67308105468750000000e+02) (415, 1.32575109863281250000e+03) (416, -6.75116968154907226562e+00) (417, -1.27773296833038330078e+00) (418, -8.86085128784179687500e+00) (419, -1.45499938964843750000e+03) (420, 8.61301803588867187500e+00) (421, -1.23181372880935668945e-01) (422, 1.09353198242187500000e+03) (423, -1.39525500488281250000e+03) (424, -1.41823041439056396484e+00) (425, -7.49789810180664062500e+00) (426, -1.45499938964843750000e+03) (427, 1.00706219482421875000e+03) (428, -1.41509681940078735352e-01) (429, 5.52216369628906250000e+02) (430, -6.05921752929687500000e+02) (431, -1.03987371921539306641e+00) (432, -7.51558399200439453125e+00) (433, -1.45499938964843750000e+03) (434, 1.30922088623046875000e+01) (435, -5.11979389190673828125e+00) (436, 1.41449877929687500000e+03) (437, 9.00339543819427490234e-01) (438, -1.02571654319763183594e+00) (439, -7.24866104125976562500e+00) (440, -1.45499938964843750000e+03) (441, 1.49990576171875000000e+03) (442, 9.70916599035263061523e-02) (443, 1.35604980468750000000e+03) (444, -2.81856658935546875000e+02) (445, -1.22468268871307373047e+00) (446, -6.52906894683837890625e+00) (447, -1.45499938964843750000e+03) (448, 8.45258361816406250000e+02) (449, -4.04128837585449218750e+00) (450, 4.52027801513671875000e+02) (451, -1.47063952636718750000e+03) (452, -1.26375520229339599609e+00) (453, -6.55967617034912109375e+00) (454, -1.45499938964843750000e+03) (455, 2.84138927459716796875e+01) (456, 8.00203857421875000000e+01) (457, 1.24809350585937500000e+03) (458, -2.05618619918823242188e+00) (459, -1.18375658988952636719e+00) (460, -7.27835178375244140625e+00) (461, -1.45499938964843750000e+03) (462, 4.90092992782592773438e+00) (463, 7.41780578613281250000e+02) (464, 7.21838195800781250000e+02) (465, -1.23396655273437500000e+03) (466, -1.34183955192565917969e+00) (467, -7.18971824645996093750e+00) (468, -1.45499938964843750000e+03) (469, 1.49401184082031250000e+03) (470, -1.77203305065631866455e-02) (471, 7.25525329589843750000e+02) (472, -7.78883483886718750000e+02) (473, -1.15432643890380859375e+00) (474, -7.16336822509765625000e+00) (475, -1.45499938964843750000e+03) (476, 1.26546545410156250000e+03) (477, -1.29253752529621124268e-02) (478, 3.36585968017578125000e+02) (479, -4.66136665344238281250e+01) (480, -1.29937434196472167969e+00) (481, -7.31245040893554687500e+00) (482, -1.45499938964843750000e+03) (483, 4.88901824951171875000e+02) (484, 4.33762884140014648438e+00) (485, 1.46161926269531250000e+03) (486, -1.12967395019531250000e+03) (487, -1.16021418571472167969e+00) (488, -1.03094072341918945312e+01) (489, -1.45499938964843750000e+03) (490, 1.24950927734375000000e+03) (491, -9.38201099634170532227e-02) (492, 1.50000000000000000000e+03) (493, -1.12967395019531250000e+03) (494, -1.33636879920959472656e+00) (495, -1.02385683059692382812e+01) (496, -1.45499938964843750000e+03) (497, 6.39436960220336914062e+00) (498, 4.61397266387939453125e+00) (499, 1.50000000000000000000e+03) (500, -8.15902221679687500000e+02) (501, -1.30690479278564453125e+00) (502, -1.01493320465087890625e+01) (503, -1.45499938964843750000e+03) (504, 2.42079200744628906250e+01) (505, 6.93420946598052978516e-01) (506, 1.49998291015625000000e+03) (507, -1.12108007812500000000e+03) (508, -1.27543759346008300781e+00) (509, -2.29124641418457031250e+01) (510, -1.45499938964843750000e+03) (511, 4.57089347839355468750e+01) (512, 1.21268395996093750000e+03) (513, 4.36133850097656250000e+02) (514, -1.49312268066406250000e+03) (515, -1.44885337352752685547e+00) (516, -2.37952766418457031250e+01) (517, -1.45499938964843750000e+03) (518, 6.95645828247070312500e+01) (519, 2.67061233520507812500e+01) (520, 1.50000000000000000000e+03) (521, -1.44899035644531250000e+03) (522, -1.44462537765502929688e+00) (523, -2.36597518920898437500e+01) (524, -1.45499938964843750000e+03) (525, 1.49980541992187500000e+03) (526, 2.67731323242187500000e+01) (527, 1.50000000000000000000e+03) (528, -1.36394665527343750000e+03) (529, -1.32081019878387451172e+00) (530, -5.49371299743652343750e+01) (531, -1.45499938964843750000e+03) (532, 1.49980541992187500000e+03) (533, 4.88103568553924560547e-01) (534, 1.50000000000000000000e+03) (535, -1.36394665527343750000e+03) (536, -1.38003921508789062500e+00) (537, -5.49624900817871093750e+01) (538, -1.45499938964843750000e+03) (539, 1.49978186035156250000e+03) (540, 3.50989431142807006836e-01) (541, 1.50000000000000000000e+03) (542, -1.27714355468750000000e+03) (543, -1.42900085449218750000e+00) (544, -5.48400688171386718750e+01) (545, -1.45499938964843750000e+03) (546, 1.49760839843750000000e+03) (547, 6.01353868842124938965e-02) (548, -1.22790856933593750000e+03) (549, -1.47208190917968750000e+03) (550, -1.25781941413879394531e+00) (551, -5.48769340515136718750e+01) (552, -1.45499938964843750000e+03) (553, 1.49938549804687500000e+03) (554, -8.69134888052940368652e-02) (555, 1.27334094238281250000e+03) (556, -7.92256164550781250000e+02) (557, -1.37152767181396484375e+00) (558, -5.66032295227050781250e+01) (559, -1.45499938964843750000e+03) (560, 1.49285424804687500000e+03) (561, -1.64999529719352722168e-01) (562, 1.43050927734375000000e+03) (563, -1.15213049316406250000e+03) (564, -1.32869148254394531250e+00) (565, -2.60889930725097656250e+01) (566, -1.44273974609375000000e+03) (567, 5.40066671371459960938e+00) (568, -1.08612048625946044922e+00) (569, 9.95403625488281250000e+02) (570, -4.08217773437500000000e+02) (571, -1.36945414543151855469e+00) (572, -5.72110366821289062500e+01) (573, -1.44273974609375000000e+03) (574, 1.49536315917968750000e+03) (575, -8.24633911252021789551e-02) (576, 1.47873547363281250000e+03) (577, -4.94078613281250000000e+02) (578, -1.41375255584716796875e+00) (579, -1.14707975387573242188e+01) (580, -1.44273974609375000000e+03) (581, -6.86848974227905273438e+00) (582, 6.91497325897216796875e-01) (583, 1.47963183593750000000e+03) (584, 4.00338668823242187500e+01) (585, -1.32118678092956542969e+00) (586, -1.14442605972290039062e+01) (587, -1.44273974609375000000e+03) (588, -7.56257247924804687500e+00) (589, 7.31413483619689941406e-01) (590, 1.47963183593750000000e+03) (591, -1.47921826171875000000e+03) (592, -1.35250639915466308594e+00) (593, -1.13105077743530273438e+01) (594, -1.44273974609375000000e+03) (595, -1.91951522827148437500e+01) (596, -1.78206229209899902344e+00) (597, 1.47963183593750000000e+03) (598, 1.03924198150634765625e+01) (599, -1.40028524398803710938e+00) (600, -1.12246303558349609375e+01) (601, -1.44273974609375000000e+03) (602, -1.98696975708007812500e+02) (603, 3.10219556093215942383e-01) (604, 1.49427709960937500000e+03) (605, -1.12323339843750000000e+03) (606, -1.47040712833404541016e+00) (607, -5.72513580322265625000e+01) (608, -1.44273974609375000000e+03) (609, 2.88471896201372146606e-02) (610, 2.70590423583984375000e+02) (611, 1.49427709960937500000e+03) (612, -1.37637329101562500000e+03) (613, -1.44775807857513427734e+00) (614, -5.78203620910644531250e+01) (615, -1.44273974609375000000e+03) (616, 3.70081830024719238281e+00) (617, 1.74719107151031494141e+00) (618, 1.48704162597656250000e+03) (619, -1.34596789550781250000e+03) (620, -1.33396470546722412109e+00) (621, -5.79006004333496093750e+01) (622, -1.44273974609375000000e+03) (623, 3.78273844718933105469e+00) (624, 6.27248525619506835938e+00) (625, 1.40129235839843750000e+03) (626, -1.52189761400222778320e-01) (627, -1.42498171329498291016e+00) (628, -3.05718933105468750000e+02) (629, -1.44273974609375000000e+03) (630, -1.07393722534179687500e+01) (631, 6.37109422683715820312e+00) (632, 1.49886401367187500000e+03) (633, 8.67251813411712646484e-01) (634, -1.41255486011505126953e+00) (635, -2.99347900390625000000e+02) (636, -1.44273974609375000000e+03) (637, 6.55211985111236572266e-01) (638, 5.32238817214965820312e+00) (639, 1.46984838867187500000e+03) (640, -2.48953018188476562500e+01) (641, -1.46032559871673583984e+00) (642, -1.28531692504882812500e+02) (643, -1.44273974609375000000e+03) (644, 6.79841220378875732422e-01) (645, 9.14823150634765625000e+00) (646, 1.31329748535156250000e+03) (647, -1.15835461425781250000e+03) (648, -1.35210704803466796875e+00) (649, -1.26640571594238281250e+02) (650, -1.44273974609375000000e+03) (651, 6.31820142269134521484e-01) (652, 1.60877645015716552734e-01) (653, 3.35515856742858886719e-01) (654, -2.06106901168823242188e+00) (655, -1.37874913215637207031e+00) (656, -2.90208099365234375000e+02) (657, -1.44273974609375000000e+03) (658, 3.52486686706542968750e+01) (659, -9.01466560363769531250e+00) (660, 1.75726830959320068359e-01) (661, 1.56081863403320312500e+02) (662, -1.47878241539001464844e+00) (663, -2.90278961181640625000e+02) (664, -1.44273974609375000000e+03) (665, 6.42554950714111328125e+00) (666, -1.17549072265625000000e+02) (667, 2.76406459808349609375e+01) (668, 1.26754113769531250000e+03) (669, -1.49503374099731445312e+00) (670, -2.95980468750000000000e+02) (671, -1.44273974609375000000e+03) (672, 1.70852541923522949219e-01) (673, 1.52047121524810791016e+00) (674, 5.70693649351596832275e-02) (675, 9.63529479980468750000e+02) (676, -1.41708469390869140625e+00) (677, -3.07926757812500000000e+02) (678, -1.44273974609375000000e+03) (679, -1.80422916412353515625e+01) (680, 5.90117149353027343750e+01) (681, -1.82845764160156250000e+01) (682, 3.43426177978515625000e+02) (683, -1.58338952064514160156e+00) (684, -7.28807922363281250000e+02) (685, -1.44273974609375000000e+03) (686, -1.27324768066406250000e+03) (687, 1.48447082519531250000e+03) (688, 4.20947408676147460938e+00) (689, 1.50000000000000000000e+03) (690, -1.48567342758178710938e+00) (691, -1.01156030273437500000e+03) (692, -1.44273974609375000000e+03) (693, -4.48882354736328125000e+02) (694, 1.49607324218750000000e+03) (695, -5.69321773946285247803e-03) (696, 1.50000000000000000000e+03) (697, -1.59578347206115722656e+00) (698, -1.37020605468750000000e+03) (699, -1.44273974609375000000e+03) (700, 4.21105295419692993164e-01) (0, 4.48129034042358398438e+00) (1, 1.49859594726562500000e+03) (2, 2.52981739044189453125e+01) (3, -8.54173564910888671875e+00) (4, 7.19985127449035644531e-01) (5, 6.30533397197723388672e-01) (6, 6.14354848861694335938e-01) (7, 4.43903970718383789062e+00) (8, 1.49859594726562500000e+03) (9, 2.52240123748779296875e+01) (10, -8.54920482635498046875e+00) (11, 7.91188240051269531250e-01) (12, 5.79687297344207763672e-01) (13, 5.61508715152740478516e-01) (14, 1.36808135986328125000e+02) (15, 1.49249902343750000000e+03) (16, 8.64586181640625000000e+02) (17, -1.46624829101562500000e+03) (18, 6.14347100257873535156e-01) (19, 6.65143430233001708984e-01) (20, 5.56139051914215087891e-01) (21, 7.55596303939819335938e+00) (22, 1.10372093200683593750e+02) (23, 8.64664428710937500000e+02) (24, -1.46624829101562500000e+03) (25, 7.20213115215301513672e-01) (26, 6.24284267425537109375e-01) (27, 4.60398286581039428711e-01) (28, 2.01037311553955078125e+00) (29, 1.10371813964843750000e+03) (30, 1.49710437011718750000e+03) (31, -1.33539941406250000000e+03) (32, 7.62060284614562988281e-01) (33, 6.65511608123779296875e-01) (34, 6.16696000099182128906e-01) (35, 1.88963680267333984375e+01) (36, -2.80062683105468750000e+02) (37, 1.48244177246093750000e+03) (38, -1.33539941406250000000e+03) (39, 7.84632146358489990234e-01) (40, 6.80698096752166748047e-01) (41, 5.33267378807067871094e-01) (42, -6.37432434082031250000e+02) (43, 2.50395401000976562500e+02) (44, 8.36399414062500000000e+02) (45, 8.20433521270751953125e+00) (46, 6.31134450435638427734e-01) (47, 6.16771161556243896484e-01) (48, 6.15677356719970703125e-01) (49, -2.10738189697265625000e+02) (50, 9.25561279296875000000e+02) (51, 9.75318420410156250000e+02) (52, 1.10739593505859375000e+02) (53, 6.94052457809448242188e-01) (54, 5.68455278873443603516e-01) (55, 5.51423072814941406250e-01) (56, -7.30654174804687500000e+02) (57, 9.69131347656250000000e+02) (58, 3.48574737548828125000e+02) (59, 1.10793411254882812500e+02) (60, 6.05636060237884521484e-01) (61, 6.74009442329406738281e-01) (62, 5.05136966705322265625e-01) (63, -5.89283523559570312500e+01) (64, 1.43158129882812500000e+03) (65, 1.08590136718750000000e+03) (66, 1.10711013793945312500e+02) (67, 5.92395722866058349609e-01) (68, 6.74660146236419677734e-01) (69, 5.49774110317230224609e-01) (70, -1.20756005859375000000e+03) (71, 1.14692285156250000000e+03) (72, -3.96904937744140625000e+02) (73, 1.10622138977050781250e+02) (74, 7.68865048885345458984e-01) (75, 6.94123029708862304688e-01) (76, 6.43777191638946533203e-01) (77, -1.20753442382812500000e+03) (78, 1.14692285156250000000e+03) (79, 5.70526489257812500000e+02) (80, 8.10774612426757812500e+00) (81, 7.47299313545227050781e-01) (82, 5.42273461818695068359e-01) (83, 4.65418577194213867188e-01) (84, -1.50000000000000000000e+03) (85, 8.44999023437500000000e+02) (86, -3.96970367431640625000e+02) (87, 1.10731491088867187500e+02) (88, 6.58682703971862792969e-01) (89, 5.43745458126068115234e-01) (90, 5.30300855636596679688e-01) (91, -1.50000000000000000000e+03) (92, 1.48506945800781250000e+03) (93, -2.86422214508056640625e+01) (94, -1.47155258178710937500e+02) (95, 7.12257087230682373047e-01) (96, 6.64044857025146484375e-01) (97, 6.20644450187683105469e-01) (98, -1.50000000000000000000e+03) (99, 8.16265991210937500000e+02) (100, -2.87061252593994140625e+01) (101, 1.50000000000000000000e+03) (102, 6.62761092185974121094e-01) (103, 5.56434273719787597656e-01) (104, 5.76658010482788085938e-01) (105, -1.50000000000000000000e+03) (106, 8.16178100585937500000e+02) (107, -2.86438312530517578125e+01) (108, 1.50000000000000000000e+03) (109, 7.30859220027923583984e-01) (110, 5.91295301914215087891e-01) (111, 6.26684129238128662109e-01) (112, -1.50000000000000000000e+03) (113, 1.50000000000000000000e+03) (114, 7.98065429687500000000e+02) (115, -1.47626928710937500000e+03) (116, 6.19804978370666503906e-01) (117, 6.23739480972290039062e-01) (118, 5.31934261322021484375e-01) (119, -1.50000000000000000000e+03) (120, 1.50000000000000000000e+03) (121, 1.13313366699218750000e+03) (122, -1.47626928710937500000e+03) (123, 7.64406263828277587891e-01) (124, 6.21395707130432128906e-01) (125, 5.37805259227752685547e-01) (126, -1.50000000000000000000e+03) (127, 8.78469619750976562500e+01) (128, 1.39797705078125000000e+03) (129, -2.56397857666015625000e+02) (130, 6.32589101791381835938e-01) (131, 6.61677896976470947266e-01) (132, 4.37623023986816406250e-01) (133, -1.39211865234375000000e+03) (134, 1.28343749046325683594e+00) (135, 4.93834106445312500000e+02) (136, 2.00488586425781250000e+02) (137, 6.79328083992004394531e-01) (138, 5.89091658592224121094e-01) (139, 5.39584279060363769531e-01) (140, -1.57081939697265625000e+02) (141, 4.84270036220550537109e-01) (142, 9.00368774414062500000e+02) (143, 4.82420501708984375000e+02) (144, 7.29170918464660644531e-01) (145, 6.14251911640167236328e-01) (146, 5.98540484905242919922e-01) (147, -1.41325842285156250000e+03) (148, 3.41429412364959716797e-01) (149, 6.70005493164062500000e+02) (150, 1.50000000000000000000e+03) (151, 6.20160043239593505859e-01) (152, 5.54554283618927001953e-01) (153, 5.72372257709503173828e-01) (154, -8.05519287109375000000e+02) (155, 5.87316274642944335938e-01) (156, 4.29032379150390625000e+02) (157, 1.50000000000000000000e+03) (158, 6.89319968223571777344e-01) (159, 6.39577329158782958984e-01) (160, 4.44391250610351562500e-01) (161, -1.38428833007812500000e+03) (162, 5.11669158935546875000e-01) (163, 1.27375842285156250000e+03) (164, -1.44465563964843750000e+03) (165, 7.45932340621948242188e-01) (166, 6.72203958034515380859e-01) (167, 5.49635827541351318359e-01) (168, -1.46635144042968750000e+03) (169, 3.80474865436553955078e-01) (170, 1.18272558593750000000e+03) (171, -1.26769848632812500000e+03) (172, 6.68536901473999023438e-01) (173, 6.32004022598266601562e-01) (174, 5.28956651687622070312e-01) (175, -1.40919567871093750000e+03) (176, 1.57192888259887695312e+01) (177, 1.05562426757812500000e+03) (178, -1.30235046386718750000e+03) (179, 7.11747884750366210938e-01) (180, 6.33491158485412597656e-01) (181, 5.94920992851257324219e-01) (182, -1.38740466308593750000e+03) (183, 3.25608897209167480469e+00) (184, 1.37247912597656250000e+03) (185, 1.50000000000000000000e+03) (186, 5.89498281478881835938e-01) (187, 6.47300958633422851562e-01) (188, 6.08466506004333496094e-01) (189, -2.30309143066406250000e+01) (190, 7.39104366302490234375e+00) (191, 1.37247912597656250000e+03) (192, -1.40178637695312500000e+03) (193, 6.07775211334228515625e-01) (194, 6.89685463905334472656e-01) (195, 6.49355947971343994141e-01) (196, -1.42823547363281250000e+03) (197, 1.45142712402343750000e+03) (198, 1.48709118652343750000e+03) (199, 1.50000000000000000000e+03) (200, 6.43053293228149414062e-01) (201, 6.40828907489776611328e-01) (202, 6.40658617019653320312e-01) (203, -1.41927441406250000000e+03) (204, 1.04423034667968750000e+03) (205, 1.48334655761718750000e+03) (206, 1.50000000000000000000e+03) (207, 7.41766691207885742188e-01) (208, 6.46682620048522949219e-01) (209, 4.80687439441680908203e-01) (210, -8.19632995605468750000e+02) (211, 9.01856750488281250000e+02) (212, 9.85507263183593750000e+02) (213, 1.50000000000000000000e+03) (214, 6.98696911334991455078e-01) (215, 5.72523891925811767578e-01) (216, 5.24573385715484619141e-01) (217, -7.36832702636718750000e+02) (218, 9.01790588378906250000e+02) (219, 1.49654980468750000000e+03) (220, 1.50000000000000000000e+03) (221, 7.29657709598541259766e-01) (222, 6.92127823829650878906e-01) (223, 5.87592780590057373047e-01) (224, -8.43707214355468750000e+02) (225, -1.02731831371784210205e-01) (226, 1.04040905761718750000e+03) (227, 1.50000000000000000000e+03) (228, 7.65209257602691650391e-01) (229, 5.42731404304504394531e-01) (230, 4.89319711923599243164e-01) (231, -1.46572033691406250000e+03) (232, 9.01800170898437500000e+02) (233, 1.49987243652343750000e+03) (234, 1.48704003906250000000e+03) (235, 6.81608080863952636719e-01) (236, 6.02546572685241699219e-01) (237, 6.43909335136413574219e-01) (238, -1.50000000000000000000e+03) (239, 5.43266784667968750000e+02) (240, 1.48845690917968750000e+03) (241, 1.48704003906250000000e+03) (242, 7.57147014141082763672e-01) (243, 4.98405933380126953125e-01) (244, 4.75504010915756225586e-01) (245, -1.50000000000000000000e+03) (246, 7.71795654296875000000e+00) (247, 1.49982263183593750000e+03) (248, 1.50000000000000000000e+03) (249, 7.04018890857696533203e-01) (250, 6.18778645992279052734e-01) (251, 5.09748816490173339844e-01) (252, -1.50000000000000000000e+03) (253, 7.75670146942138671875e+00) (254, 1.49932312011718750000e+03) (255, 1.50000000000000000000e+03) (256, 7.03899025917053222656e-01) (257, 6.21146261692047119141e-01) (258, 4.64795023202896118164e-01) (259, -1.50000000000000000000e+03) (260, 1.63046300411224365234e+00) (261, 1.40950427246093750000e+03) (262, 1.50000000000000000000e+03) (263, 7.59816467761993408203e-01) (264, 5.65927088260650634766e-01) (265, 5.94988763332366943359e-01) (266, -1.50000000000000000000e+03) (267, 1.14969909191131591797e+00) (268, 1.47540405273437500000e+03) (269, 1.50000000000000000000e+03) (270, 6.34942889213562011719e-01) (271, 6.45286679267883300781e-01) (272, 5.37902593612670898438e-01) (273, -1.50000000000000000000e+03) (274, -1.31956018066406250000e+03) (275, 1.41575439453125000000e+03) (276, 1.50000000000000000000e+03) (277, 6.18607521057128906250e-01) (278, 6.93210780620574951172e-01) (279, 5.74599742889404296875e-01) (280, -1.50000000000000000000e+03) (281, -8.22081387042999267578e-01) (282, 1.49944396972656250000e+03) (283, 1.50000000000000000000e+03) (284, 6.24726653099060058594e-01) (285, 6.58838272094726562500e-01) (286, 5.03208458423614501953e-01) (287, -1.50000000000000000000e+03) (288, 9.97525095939636230469e-01) (289, 1.32577099609375000000e+03) (290, 1.50000000000000000000e+03) (291, 6.46265089511871337891e-01) (292, 5.88598489761352539062e-01) (293, 6.49295091629028320312e-01) (294, -1.50000000000000000000e+03) (295, -7.27569351196289062500e+01) (296, 1.22683557128906250000e+03) (297, 1.50000000000000000000e+03) (298, 7.26034104824066162109e-01) (299, 5.51944851875305175781e-01) (300, 4.84916895627975463867e-01) (301, 1.09920397949218750000e+03) (302, -7.27173843383789062500e+01) (303, 1.22683557128906250000e+03) (304, 1.50000000000000000000e+03) (305, 7.33928740024566650391e-01) (306, 5.04543423652648925781e-01) (307, 5.67021310329437255859e-01) (308, 2.29455123901367187500e+02) (309, -7.27178878784179687500e+01) (310, 1.35273437500000000000e+03) (311, 1.50000000000000000000e+03) (312, 7.04546093940734863281e-01) (313, 6.88670814037322998047e-01) (314, 5.87301015853881835938e-01) (315, -5.50317382812500000000e+02) (316, -8.00353820800781250000e+02) (317, 1.35273437500000000000e+03) (318, 1.50000000000000000000e+03) (319, 6.22331917285919189453e-01) (320, 5.16754746437072753906e-01) (321, 6.07904314994812011719e-01) (322, -4.38429931640625000000e+02) (323, -8.00353820800781250000e+02) (324, 1.33421411132812500000e+03) (325, 1.50000000000000000000e+03) (326, 6.48702919483184814453e-01) (327, 5.58198690414428710938e-01) (328, 4.72321271896362304688e-01) (329, -1.50000000000000000000e+03) (330, -8.00353820800781250000e+02) (331, 1.33421411132812500000e+03) (332, 1.50000000000000000000e+03) (333, 6.90050959587097167969e-01) (334, 6.35845005512237548828e-01) (335, 6.38549149036407470703e-01) (336, -1.50000000000000000000e+03) (337, -9.47210144042968750000e+02) (338, 1.33421411132812500000e+03) (339, 1.50000000000000000000e+03) (340, 7.19766974449157714844e-01) (341, 6.01357221603393554688e-01) (342, 5.97651660442352294922e-01) (343, -1.50000000000000000000e+03) (344, -8.00353820800781250000e+02) (345, 1.33421411132812500000e+03) (346, 1.48923510742187500000e+03) (347, 6.15133523941040039062e-01) (348, 5.28266727924346923828e-01) (349, 5.46017110347747802734e-01) (350, -1.50000000000000000000e+03) (351, -8.00353820800781250000e+02) (352, 1.40076953125000000000e+03) (353, 1.48923510742187500000e+03) (354, 7.23375797271728515625e-01) (355, 6.62499845027923583984e-01) (356, 5.14328598976135253906e-01) (357, -1.50000000000000000000e+03) (358, -6.60629089355468750000e+02) (359, 1.40076953125000000000e+03) (360, 1.46760791015625000000e+03) (361, 6.98301911354064941406e-01) (362, 5.90176105499267578125e-01) (363, 6.21604144573211669922e-01) (364, -1.50000000000000000000e+03) (365, -9.47336242675781250000e+02) (366, 1.41714636230468750000e+03) (367, 2.42975692749023437500e+02) (368, 7.30022966861724853516e-01) (369, 7.14252531528472900391e-01) (370, 5.26988327503204345703e-01) (371, -1.50000000000000000000e+03) (372, 1.17458386230468750000e+03) (373, 1.41714636230468750000e+03) (374, 1.99922851562500000000e+02) (375, 7.68665790557861328125e-01) (376, 5.47774255275726318359e-01) (377, 5.55837631225585937500e-01) (378, -1.50000000000000000000e+03) (379, -9.47291564941406250000e+02) (380, 1.41714636230468750000e+03) (381, 2.42975692749023437500e+02) (382, 6.70902371406555175781e-01) (383, 6.81024968624114990234e-01) (384, 6.72388315200805664062e-01) (385, -1.50000000000000000000e+03) (386, -9.73246948242187500000e+02) (387, 1.31041430664062500000e+03) (388, 1.48923510742187500000e+03) (389, 7.09352791309356689453e-01) (390, 5.86146533489227294922e-01) (391, 6.69460058212280273438e-01) (392, -1.50000000000000000000e+03) (393, 1.53918781280517578125e+01) (394, 1.31041430664062500000e+03) (395, 1.46760791015625000000e+03) (396, 7.43340075016021728516e-01) (397, 5.55382013320922851562e-01) (398, 5.62927424907684326172e-01) (399, -1.48980200195312500000e+03) (400, 3.71285647153854370117e-01) (401, 1.33711474609375000000e+03) (402, 5.82280578613281250000e+02) (403, 7.26357638835906982422e-01) (404, 6.12016856670379638672e-01) (405, 5.35921037197113037109e-01) (406, -1.50000000000000000000e+03) (407, 1.44483776855468750000e+03) (408, 1.33711474609375000000e+03) (409, 6.74081420898437500000e+02) (410, 7.71857202053070068359e-01) (411, 5.74742436408996582031e-01) (412, 6.46931350231170654297e-01) (413, -1.41561291503906250000e+03) (414, 1.44483776855468750000e+03) (415, 1.19819860839843750000e+03) (416, -7.77614929199218750000e+02) (417, 7.33653306961059570312e-01) (418, 6.66007220745086669922e-01) (419, 5.41469871997833251953e-01) (420, 1.49355847167968750000e+03) (421, 1.38394702148437500000e+03) (422, 7.12453186035156250000e+02) (423, 4.49495029449462890625e+00) (424, 7.61181950569152832031e-01) (425, 6.48251652717590332031e-01) (426, 5.78708946704864501953e-01) (427, 1.44086380004882812500e+02) (428, 1.72173106670379638672e+00) (429, 6.59748291015625000000e+02) (430, 1.23695874214172363281e+00) (431, 6.05634808540344238281e-01) (432, 5.78582048416137695312e-01) (433, 6.21427893638610839844e-01) (434, -7.58737060546875000000e+02) (435, 1.68352012634277343750e+01) (436, 1.26891467285156250000e+03) (437, 1.39198791503906250000e+03) (438, 6.82366073131561279297e-01) (439, 5.96675336360931396484e-01) (440, 6.26027226448059082031e-01) (441, -7.93281250000000000000e+02) (442, 5.03875684738159179688e+00) (443, 1.07645275878906250000e+03) (444, -1.49866003417968750000e+03) (445, 7.53622293472290039062e-01) (446, 5.29232501983642578125e-01) (447, 6.49082064628601074219e-01) (448, 6.77672851562500000000e+02) (449, 1.75975930690765380859e+00) (450, 1.37255566406250000000e+03) (451, -1.41134558105468750000e+03) (452, 7.73305833339691162109e-01) (453, 5.49833714962005615234e-01) (454, 4.92581427097320556641e-01) (455, -8.81937316894531250000e+02) (456, 6.37907648086547851562e+00) (457, 1.41023718261718750000e+03) (458, -1.35776721191406250000e+03) (459, 7.28676676750183105469e-01) (460, 5.63580393791198730469e-01) (461, 5.21619260311126708984e-01) (462, -1.07500073242187500000e+03) (463, 1.65941638946533203125e+01) (464, 1.48925402832031250000e+03) (465, 1.23636024475097656250e+02) (466, 6.59419178962707519531e-01) (467, 6.62151455879211425781e-01) (468, 5.95951139926910400391e-01) (469, -1.68201614379882812500e+02) (470, 2.63281250000000000000e+01) (471, 1.50000000000000000000e+03) (472, -1.48489208984375000000e+03) (473, 7.57153928279876708984e-01) (474, 6.57159268856048583984e-01) (475, 5.97347080707550048828e-01) (476, -1.42765344238281250000e+03) (477, 2.64550495147705078125e+01) (478, 1.49386132812500000000e+03) (479, -9.37425048828125000000e+02) (480, 7.08164751529693603516e-01) (481, 6.23177826404571533203e-01) (482, 6.33480846881866455078e-01) (483, -1.28835498046875000000e+03) (484, 1.50000000000000000000e+03) (485, 1.46033813476562500000e+03) (486, -1.49737548828125000000e+03) (487, 6.97465300559997558594e-01) (488, 5.94216227531433105469e-01) (489, 5.55758833885192871094e-01) (490, -7.12049194335937500000e+02) (491, 1.50000000000000000000e+03) (492, 1.44613330078125000000e+03) (493, -1.49737548828125000000e+03) (494, 6.27596795558929443359e-01) (495, 6.23509466648101806641e-01) (496, 5.28014421463012695312e-01) (497, -7.97378540039062500000e+02) (498, 1.45654846191406250000e+03) (499, 1.49504479980468750000e+03) (500, -1.36889709472656250000e+03) (501, 6.70341253280639648438e-01) (502, 5.49028217792510986328e-01) (503, 5.25413691997528076172e-01) (504, 9.40983032226562500000e+02) (505, -1.01781420409679412842e-01) (506, 1.26888464355468750000e+03) (507, 4.90935534238815307617e-01) (508, 7.17540085315704345703e-01) (509, 5.78957736492156982422e-01) (510, 6.56393766403198242188e-01) (511, 1.21082861328125000000e+03) (512, 6.72030866146087646484e-01) (513, 1.18838964843750000000e+03) (514, 3.60123664140701293945e-01) (515, 7.00334250926971435547e-01) (516, 6.46467447280883789062e-01) (517, 6.44890487194061279297e-01) (518, 2.51744232177734375000e+01) (519, 4.75912094116210937500e+00) (520, 1.49770812988281250000e+03) (521, -4.38210029602050781250e+01) (522, 7.24776744842529296875e-01) (523, 7.08419919013977050781e-01) (524, 5.05710422992706298828e-01) (525, 1.49999304199218750000e+03) (526, 4.84874725341796875000e+00) (527, 1.49770812988281250000e+03) (528, -8.86731445312500000000e+02) (529, 7.47358739376068115234e-01) (530, 5.86009025573730468750e-01) (531, 5.83629131317138671875e-01) (532, 1.49999304199218750000e+03) (533, 3.00355404615402221680e-01) (534, 1.50000000000000000000e+03) (535, -8.86728881835937500000e+02) (536, 6.73348963260650634766e-01) (537, 6.57944440841674804688e-01) (538, 5.05686581134796142578e-01) (539, 1.50000000000000000000e+03) (540, 