FANN_FLO_2.1
num_layers=3
learning_rate=0.001000
connection_rate=1.000000
network_type=0
learning_momentum=0.000000
training_algorithm=2
train_error_function=1
train_stop_function=0
cascade_output_change_fraction=0.010000
quickprop_decay=-0.000100
quickprop_mu=1.750000
rprop_increase_factor=1.200000
rprop_decrease_factor=0.500000
rprop_delta_min=0.000000
rprop_delta_max=50.000000
rprop_delta_zero=0.100000
cascade_output_stagnation_epochs=12
cascade_candidate_change_fraction=0.010000
cascade_candidate_stagnation_epochs=12
cascade_max_out_epochs=150
cascade_max_cand_epochs=150
cascade_num_candidate_groups=2
bit_fail_limit=3.49999994039535522461e-01
cascade_candidate_limit=1.00000000000000000000e+03
cascade_weight_multiplier=4.00000005960464477539e-01
cascade_activation_functions_count=10
cascade_activation_functions=3 5 7 8 10 11 14 15 16 17 
cascade_activation_steepnesses_count=4
cascade_activation_steepnesses=2.50000000000000000000e-01 5.00000000000000000000e-01 7.50000000000000000000e-01 1.00000000000000000000e+00 
layer_sizes=401 101 3 
scale_included=0
neurons (num_inputs, activation_function, activation_steepness)=(0, 0, 0.00000000000000000000e+00) (0, 0, 0.00000000000000000000e+00) (0, 0, 0.00000000000000000000e+00) (0, 0, 0.00000000000000000000e+00) (0, 0, 0.00000000000000000000e+00) (0, 0, 0.00000000000000000000e+00) (0, 0, 0.00000000000000000000e+00) (0, 0, 0.00000000000000000000e+00) (0, 0, 0.00000000000000000000e+00) (0, 0, 0.00000000000000000000e+00) (0, 0, 0.00000000000000000000e+00) (0, 0, 0.00000000000000000000e+00) (0, 0, 0.00000000000000000000e+00) (0, 0, 0.00000000000000000000e+00) (0, 0, 0.00000000000000000000e+00) (0, 0, 0.00000000000000000000e+00) (0, 0, 0.00000000000000000000e+00) (0, 0, 0.00000000000000000000e+00) (0, 0, 0.00000000000000000000e+00) (0, 0, 0.00000000000000000000e+00) (0, 0, 0.00000000000000000000e+00) (0, 0, 0.00000000000000000000e+00) (0, 0, 0.00000000000000000000e+00) (0, 0, 0.00000000000000000000e+00) (0, 0, 0.00000000000000000000e+00) (0, 0, 0.00000000000000000000e+00) (0, 0, 0.00000000000000000000e+00) (0, 0, 0.00000000000000000000e+00) (0, 0, 0.00000000000000000000e+00) (0, 0, 0.00000000000000000000e+00) (0, 0, 0.00000000000000000000e+00) (0, 0, 0.00000000000000000000e+00) (0, 0, 0.00000000000000000000e+00) (0, 0, 0.00000000000000000000e+00) (0, 0, 0.00000000000000000000e+00) (0, 0, 0.00000000000000000000e+00) (0, 0, 0.00000000000000000000e+00) (0, 0, 0.00000000000000000000e+00) (0, 0, 0.00000000000000000000e+00) (0, 0, 0.00000000000000000000e+00) (0, 0, 0.00000000000000000000e+00) (0, 0, 0.00000000000000000000e+00) (0, 0, 0.00000000000000000000e+00) (0, 0, 0.00000000000000000000e+00) (0, 0, 0.00000000000000000000e+00) (0, 0, 0.00000000000000000000e+00) (0, 0, 0.00000000000000000000e+00) (0, 0, 0.00000000000000000000e+00) (0, 0, 0.00000000000000000000e+00) (0, 0, 0.00000000000000000000e+00) (0, 0, 0.00000000000000000000e+00) (0, 0, 0.00000000000000000000e+00) (0, 0, 0.00000000000000000000e+00) (0, 0, 0.00000000000000000000e+00) (0, 0, 0.00000000000000000000e+00) (0, 0, 0.00000000000000000000e+00) (0, 0, 0.00000000000000000000e+00) (0, 0, 0.00000000000000000000e+00) (0, 0, 0.00000000000000000000e+00) (0, 0, 0.00000000000000000000e+00) (0, 0, 0.00000000000000000000e+00) (0, 0, 0.00000000000000000000e+00) (0, 0, 0.00000000000000000000e+00) (0, 0, 0.00000000000000000000e+00) (0, 0, 0.00000000000000000000e+00) (0, 0, 0.00000000000000000000e+00) (0, 0, 0.00000000000000000000e+00) (0, 0, 0.00000000000000000000e+00) (0, 0, 0.00000000000000000000e+00) (0, 0, 0.00000000000000000000e+00) (0, 0, 0.00000000000000000000e+00) (0, 0, 0.00000000000000000000e+00) (0, 0, 0.00000000000000000000e+00) (0, 0, 0.00000000000000000000e+00) (0, 0, 0.00000000000000000000e+00) (0, 0, 0.00000000000000000000e+00) (0, 0, 0.00000000000000000000e+00) (0, 0, 0.00000000000000000000e+00) (0, 0, 0.00000000000000000000e+00) (0, 0, 0.00000000000000000000e+00) (0, 0, 0.00000000000000000000e+00) (0, 0, 0.00000000000000000000e+00) (0, 0, 0.00000000000000000000e+00) (0, 0, 0.00000000000000000000e+00) (0, 0, 0.00000000000000000000e+00) (0, 0, 0.00000000000000000000e+00) (0, 0, 0.00000000000000000000e+00) (0, 0, 0.00000000000000000000e+00) (0, 0, 0.00000000000000000000e+00) (0, 0, 0.00000000000000000000e+00) (0, 0, 0.00000000000000000000e+00) (0, 0, 0.00000000000000000000e+00) (0, 0, 0.00000000000000000000e+00) (0, 0, 0.00000000000000000000e+00) (0, 0, 0.00000000000000000000e+00) (0, 0, 0.00000000000000000000e+00) (0, 0, 0.00000000000000000000e+00) (0, 0, 0.00000000000000000000e+00) (0, 0, 0.00000000000000000000e+00) (0, 0, 0.00000000000000000000e+00) (0, 0, 0.00000000000000000000e+00) (0, 0, 0.00000000000000000000e+00) (0, 0, 0.00000000000000000000e+00) (0, 0, 0.00000000000000000000e+00) (0, 0, 0.00000000000000000000e+00) (0, 0, 0.00000000000000000000e+00) (0, 0, 0.00000000000000000000e+00) (0, 0, 0.00000000000000000000e+00) (0, 0, 0.00000000000000000000e+00) (0, 0, 0.00000000000000000000e+00) (0, 0, 0.00000000000000000000e+00) (0, 0, 0.00000000000000000000e+00) (0, 0, 0.00000000000000000000e+00) (0, 0, 0.00000000000000000000e+00) (0, 0, 0.00000000000000000000e+00) (0, 0, 0.00000000000000000000e+00) (0, 0, 0.00000000000000000000e+00) (0, 0, 0.00000000000000000000e+00) (0, 0, 0.00000000000000000000e+00) (0, 0, 0.00000000000000000000e+00) (0, 0, 0.00000000000000000000e+00) (0, 0, 0.00000000000000000000e+00) (0, 0, 0.00000000000000000000e+00) (0, 0, 0.00000000000000000000e+00) (0, 0, 0.00000000000000000000e+00) (0, 0, 0.00000000000000000000e+00) (0, 0, 0.00000000000000000000e+00) (0, 0, 0.00000000000000000000e+00) (0, 0, 0.00000000000000000000e+00) (0, 0, 0.00000000000000000000e+00) (0, 0, 0.00000000000000000000e+00) (0, 0, 0.00000000000000000000e+00) (0, 0, 0.00000000000000000000e+00) (0, 0, 0.00000000000000000000e+00) (0, 0, 0.00000000000000000000e+00) (0, 0, 0.00000000000000000000e+00) (0, 0, 0.00000000000000000000e+00) (0, 0, 0.00000000000000000000e+00) (0, 0, 0.00000000000000000000e+00) (0, 0, 0.00000000000000000000e+00) (0, 0, 0.00000000000000000000e+00) (0, 0, 0.00000000000000000000e+00) (0, 0, 0.00000000000000000000e+00) (0, 0, 0.00000000000000000000e+00) (0, 0, 0.00000000000000000000e+00) (0, 0, 0.00000000000000000000e+00) (0, 0, 0.00000000000000000000e+00) (0, 0, 0.00000000000000000000e+00) (0, 0, 0.00000000000000000000e+00) (0, 0, 0.00000000000000000000e+00) (0, 0, 0.00000000000000000000e+00) (0, 0, 0.00000000000000000000e+00) (0, 0, 0.00000000000000000000e+00) (0, 0, 0.00000000000000000000e+00) (0, 0, 0.00000000000000000000e+00) (0, 0, 0.00000000000000000000e+00) (0, 0, 0.00000000000000000000e+00) (0, 0, 0.00000000000000000000e+00) (0, 0, 0.00000000000000000000e+00) (0, 0, 0.00000000000000000000e+00) (0, 0, 0.00000000000000000000e+00) (0, 0, 0.00000000000000000000e+00) (0, 0, 0.00000000000000000000e+00) (0, 0, 0.00000000000000000000e+00) (0, 0, 0.00000000000000000000e+00) (0, 0, 0.00000000000000000000e+00) (0, 0, 0.00000000000000000000e+00) (0, 0, 0.00000000000000000000e+00) (0, 0, 0.00000000000000000000e+00) (0, 0, 0.00000000000000000000e+00) (0, 0, 0.00000000000000000000e+00) (0, 0, 0.00000000000000000000e+00) (0, 0, 0.00000000000000000000e+00) (0, 0, 0.00000000000000000000e+00) (0, 0, 0.00000000000000000000e+00) (0, 0, 0.00000000000000000000e+00) (0, 0, 0.00000000000000000000e+00) (0, 0, 0.00000000000000000000e+00) (0, 0, 0.00000000000000000000e+00) (0, 0, 0.00000000000000000000e+00) (0, 0, 0.00000000000000000000e+00) (0, 0, 0.00000000000000000000e+00) (0, 0, 0.00000000000000000000e+00) (0, 0, 0.00000000000000000000e+00) (0, 0, 0.00000000000000000000e+00) (0, 0, 0.00000000000000000000e+00) (0, 0, 0.00000000000000000000e+00) (0, 0, 0.00000000000000000000e+00) (0, 0, 0.00000000000000000000e+00) (0, 0, 0.00000000000000000000e+00) (0, 0, 0.00000000000000000000e+00) (0, 0, 0.00000000000000000000e+00) (0, 0, 0.00000000000000000000e+00) (0, 0, 0.00000000000000000000e+00) (0, 0, 0.00000000000000000000e+00) (0, 0, 0.00000000000000000000e+00) (0, 0, 0.00000000000000000000e+00) (0, 0, 0.00000000000000000000e+00) (0, 0, 0.00000000000000000000e+00) (0, 0, 0.00000000000000000000e+00) (0, 0, 0.00000000000000000000e+00) (0, 0, 0.00000000000000000000e+00) (0, 0, 0.00000000000000000000e+00) (0, 0, 0.00000000000000000000e+00) (0, 0, 0.00000000000000000000e+00) (0, 0, 0.00000000000000000000e+00) (0, 0, 0.00000000000000000000e+00) (0, 0, 0.00000000000000000000e+00) (0, 0, 0.00000000000000000000e+00) (0, 0, 0.00000000000000000000e+00) (0, 0, 0.00000000000000000000e+00) (0, 0, 0.00000000000000000000e+00) (0, 0, 0.00000000000000000000e+00) (0, 0, 0.00000000000000000000e+00) (0, 0, 0.00000000000000000000e+00) (0, 0, 0.00000000000000000000e+00) (0, 0, 0.00000000000000000000e+00) (0, 0, 0.00000000000000000000e+00) (0, 0, 0.00000000000000000000e+00) (0, 0, 0.00000000000000000000e+00) (0, 0, 0.00000000000000000000e+00) (0, 0, 0.00000000000000000000e+00) (0, 0, 0.00000000000000000000e+00) (0, 0, 0.00000000000000000000e+00) (0, 0, 0.00000000000000000000e+00) (0, 0, 0.00000000000000000000e+00) (0, 0, 0.00000000000000000000e+00) (0, 0, 0.00000000000000000000e+00) (0, 0, 0.00000000000000000000e+00) (0, 0, 0.00000000000000000000e+00) (0, 0, 0.00000000000000000000e+00) (0, 0, 0.00000000000000000000e+00) (0, 0, 0.00000000000000000000e+00) (0, 0, 0.00000000000000000000e+00) (0, 0, 0.00000000000000000000e+00) (0, 0, 0.00000000000000000000e+00) (0, 0, 0.00000000000000000000e+00) (0, 0, 0.00000000000000000000e+00) (0, 0, 0.00000000000000000000e+00) (0, 0, 0.00000000000000000000e+00) (0, 0, 0.00000000000000000000e+00) (0, 0, 0.00000000000000000000e+00) (0, 0, 0.00000000000000000000e+00) (0, 0, 0.00000000000000000000e+00) (0, 0, 0.00000000000000000000e+00) (0, 0, 0.00000000000000000000e+00) (0, 0, 0.00000000000000000000e+00) (0, 0, 0.00000000000000000000e+00) (0, 0, 0.00000000000000000000e+00) (0, 0, 0.00000000000000000000e+00) (0, 0, 0.00000000000000000000e+00) (0, 0, 0.00000000000000000000e+00) (0, 0, 0.00000000000000000000e+00) (0, 0, 0.00000000000000000000e+00) (0, 0, 0.00000000000000000000e+00) (0, 0, 0.00000000000000000000e+00) (0, 0, 0.00000000000000000000e+00) (0, 0, 0.00000000000000000000e+00) (0, 0, 0.00000000000000000000e+00) (0, 0, 0.00000000000000000000e+00) (0, 0, 0.00000000000000000000e+00) (0, 0, 0.00000000000000000000e+00) (0, 0, 0.00000000000000000000e+00) (0, 0, 0.00000000000000000000e+00) (0, 0, 0.00000000000000000000e+00) (0, 0, 0.00000000000000000000e+00) (0, 0, 0.00000000000000000000e+00) (0, 0, 0.00000000000000000000e+00) (0, 0, 0.00000000000000000000e+00) (0, 0, 0.00000000000000000000e+00) (0, 0, 0.00000000000000000000e+00) (0, 0, 0.00000000000000000000e+00) (0, 0, 0.00000000000000000000e+00) (0, 0, 0.00000000000000000000e+00) (0, 0, 0.00000000000000000000e+00) (0, 0, 0.00000000000000000000e+00) (0, 0, 0.00000000000000000000e+00) (0, 0, 0.00000000000000000000e+00) (0, 0, 0.00000000000000000000e+00) (0, 0, 0.00000000000000000000e+00) (0, 0, 0.00000000000000000000e+00) (0, 0, 0.00000000000000000000e+00) (0, 0, 0.00000000000000000000e+00) (0, 0, 0.00000000000000000000e+00) (0, 0, 0.00000000000000000000e+00) (0, 0, 0.00000000000000000000e+00) (0, 0, 0.00000000000000000000e+00) (0, 0, 0.00000000000000000000e+00) (0, 0, 0.00000000000000000000e+00) (0, 0, 0.00000000000000000000e+00) (0, 0, 0.00000000000000000000e+00) (0, 0, 0.00000000000000000000e+00) (0, 0, 0.00000000000000000000e+00) (0, 0, 0.00000000000000000000e+00) (0, 0, 0.00000000000000000000e+00) (0, 0, 0.00000000000000000000e+00) (0, 0, 0.00000000000000000000e+00) (0, 0, 0.00000000000000000000e+00) (0, 0, 0.00000000000000000000e+00) (0, 0, 0.00000000000000000000e+00) (0, 0, 0.00000000000000000000e+00) (0, 0, 0.00000000000000000000e+00) (0, 0, 0.00000000000000000000e+00) (0, 0, 0.00000000000000000000e+00) (0, 0, 0.00000000000000000000e+00) (0, 0, 0.00000000000000000000e+00) (0, 0, 0.00000000000000000000e+00) (0, 0, 0.00000000000000000000e+00) (0, 0, 0.00000000000000000000e+00) (0, 0, 0.00000000000000000000e+00) (0, 0, 0.00000000000000000000e+00) (0, 0, 0.00000000000000000000e+00) (0, 0, 0.00000000000000000000e+00) (0, 0, 0.00000000000000000000e+00) (0, 0, 0.00000000000000000000e+00) (0, 0, 0.00000000000000000000e+00) (0, 0, 0.00000000000000000000e+00) (0, 0, 0.00000000000000000000e+00) (0, 0, 0.00000000000000000000e+00) (0, 0, 0.00000000000000000000e+00) (0, 0, 0.00000000000000000000e+00) (0, 0, 0.00000000000000000000e+00) (0, 0, 0.00000000000000000000e+00) (0, 0, 0.00000000000000000000e+00) (0, 0, 0.00000000000000000000e+00) (0, 0, 0.00000000000000000000e+00) (0, 0, 0.00000000000000000000e+00) (0, 0, 0.00000000000000000000e+00) (0, 0, 0.00000000000000000000e+00) (0, 0, 0.00000000000000000000e+00) (0, 0, 0.00000000000000000000e+00) (0, 0, 0.00000000000000000000e+00) (0, 0, 0.00000000000000000000e+00) (0, 0, 0.00000000000000000000e+00) (0, 0, 0.00000000000000000000e+00) (0, 0, 0.00000000000000000000e+00) (0, 0, 0.00000000000000000000e+00) (0, 0, 0.00000000000000000000e+00) (0, 0, 0.00000000000000000000e+00) (0, 0, 0.00000000000000000000e+00) (0, 0, 0.00000000000000000000e+00) (0, 0, 0.00000000000000000000e+00) (0, 0, 0.00000000000000000000e+00) (0, 0, 0.00000000000000000000e+00) (0, 0, 0.00000000000000000000e+00) (0, 0, 0.00000000000000000000e+00) (0, 0, 0.00000000000000000000e+00) (0, 0, 0.00000000000000000000e+00) (0, 0, 0.00000000000000000000e+00) (0, 0, 0.00000000000000000000e+00) (0, 0, 0.00000000000000000000e+00) (0, 0, 0.00000000000000000000e+00) (0, 0, 0.00000000000000000000e+00) (0, 0, 0.00000000000000000000e+00) (0, 0, 0.00000000000000000000e+00) (0, 0, 0.00000000000000000000e+00) (0, 0, 0.00000000000000000000e+00) (0, 0, 0.00000000000000000000e+00) (0, 0, 0.00000000000000000000e+00) (0, 0, 0.00000000000000000000e+00) (0, 0, 0.00000000000000000000e+00) (0, 0, 0.00000000000000000000e+00) (0, 0, 0.00000000000000000000e+00) (0, 0, 0.00000000000000000000e+00) (0, 0, 0.00000000000000000000e+00) (0, 0, 0.00000000000000000000e+00) (0, 0, 0.00000000000000000000e+00) (0, 0, 0.00000000000000000000e+00) (0, 0, 0.00000000000000000000e+00) (0, 0, 0.00000000000000000000e+00) (0, 0, 0.00000000000000000000e+00) (0, 0, 0.00000000000000000000e+00) (0, 0, 0.00000000000000000000e+00) (0, 0, 0.00000000000000000000e+00) (0, 0, 0.00000000000000000000e+00) (0, 0, 0.00000000000000000000e+00) (0, 0, 0.00000000000000000000e+00) (0, 0, 0.00000000000000000000e+00) (0, 0, 0.00000000000000000000e+00) (0, 0, 0.00000000000000000000e+00) (0, 0, 0.00000000000000000000e+00) (0, 0, 0.00000000000000000000e+00) (0, 0, 0.00000000000000000000e+00) (0, 0, 0.00000000000000000000e+00) (0, 0, 0.00000000000000000000e+00) (0, 0, 0.00000000000000000000e+00) (0, 0, 0.00000000000000000000e+00) (0, 0, 0.00000000000000000000e+00) (0, 0, 0.00000000000000000000e+00) (0, 0, 0.00000000000000000000e+00) (0, 0, 0.00000000000000000000e+00) (0, 0, 0.00000000000000000000e+00) (0, 0, 0.00000000000000000000e+00) (0, 0, 0.00000000000000000000e+00) (0, 0, 0.00000000000000000000e+00) (0, 0, 0.00000000000000000000e+00) (0, 0, 0.00000000000000000000e+00) (0, 0, 0.00000000000000000000e+00) (0, 0, 0.00000000000000000000e+00) (0, 0, 0.00000000000000000000e+00) (0, 0, 0.00000000000000000000e+00) (401, 5, 5.00000000000000000000e-01) (401, 5, 5.00000000000000000000e-01) (401, 5, 5.00000000000000000000e-01) (401, 5, 5.00000000000000000000e-01) (401, 5, 5.00000000000000000000e-01) (401, 5, 5.00000000000000000000e-01) (401, 5, 5.00000000000000000000e-01) (401, 5, 5.00000000000000000000e-01) (401, 5, 5.00000000000000000000e-01) (401, 5, 5.00000000000000000000e-01) (401, 5, 5.00000000000000000000e-01) (401, 5, 5.00000000000000000000e-01) (401, 5, 5.00000000000000000000e-01) (401, 5, 5.00000000000000000000e-01) (401, 5, 5.00000000000000000000e-01) (401, 5, 5.00000000000000000000e-01) (401, 5, 5.00000000000000000000e-01) (401, 5, 5.00000000000000000000e-01) (401, 5, 5.00000000000000000000e-01) (401, 5, 5.00000000000000000000e-01) (401, 5, 5.00000000000000000000e-01) (401, 5, 5.00000000000000000000e-01) (401, 5, 5.00000000000000000000e-01) (401, 5, 5.00000000000000000000e-01) (401, 5, 5.00000000000000000000e-01) (401, 5, 5.00000000000000000000e-01) (401, 5, 5.00000000000000000000e-01) (401, 5, 5.00000000000000000000e-01) (401, 5, 5.00000000000000000000e-01) (401, 5, 5.00000000000000000000e-01) (401, 5, 5.00000000000000000000e-01) (401, 5, 5.00000000000000000000e-01) (401, 5, 5.00000000000000000000e-01) (401, 5, 5.00000000000000000000e-01) (401, 5, 5.00000000000000000000e-01) (401, 5, 5.00000000000000000000e-01) (401, 5, 5.00000000000000000000e-01) (401, 5, 5.00000000000000000000e-01) (401, 5, 5.00000000000000000000e-01) (401, 5, 5.00000000000000000000e-01) (401, 5, 5.00000000000000000000e-01) (401, 5, 5.00000000000000000000e-01) (401, 5, 5.00000000000000000000e-01) (401, 5, 5.00000000000000000000e-01) (401, 5, 5.00000000000000000000e-01) (401, 5, 5.00000000000000000000e-01) (401, 5, 5.00000000000000000000e-01) (401, 5, 5.00000000000000000000e-01) (401, 5, 5.00000000000000000000e-01) (401, 5, 5.00000000000000000000e-01) (401, 5, 5.00000000000000000000e-01) (401, 5, 5.00000000000000000000e-01) (401, 5, 5.00000000000000000000e-01) (401, 5, 5.00000000000000000000e-01) (401, 5, 5.00000000000000000000e-01) (401, 5, 5.00000000000000000000e-01) (401, 5, 5.00000000000000000000e-01) (401, 5, 5.00000000000000000000e-01) (401, 5, 5.00000000000000000000e-01) (401, 5, 5.00000000000000000000e-01) (401, 5, 5.00000000000000000000e-01) (401, 5, 5.00000000000000000000e-01) (401, 5, 5.00000000000000000000e-01) (401, 5, 5.00000000000000000000e-01) (401, 5, 5.00000000000000000000e-01) (401, 5, 5.00000000000000000000e-01) (401, 5, 5.00000000000000000000e-01) (401, 5, 5.00000000000000000000e-01) (401, 5, 5.00000000000000000000e-01) (401, 5, 5.00000000000000000000e-01) (401, 5, 5.00000000000000000000e-01) (401, 5, 5.00000000000000000000e-01) (401, 5, 5.00000000000000000000e-01) (401, 5, 5.00000000000000000000e-01) (401, 5, 5.00000000000000000000e-01) (401, 5, 5.00000000000000000000e-01) (401, 5, 5.00000000000000000000e-01) (401, 5, 5.00000000000000000000e-01) (401, 5, 5.00000000000000000000e-01) (401, 5, 5.00000000000000000000e-01) (401, 5, 5.00000000000000000000e-01) (401, 5, 5.00000000000000000000e-01) (401, 5, 5.00000000000000000000e-01) (401, 5, 5.00000000000000000000e-01) (401, 5, 5.00000000000000000000e-01) (401, 5, 5.00000000000000000000e-01) (401, 5, 5.00000000000000000000e-01) (401, 5, 5.00000000000000000000e-01) (401, 5, 5.00000000000000000000e-01) (401, 5, 5.00000000000000000000e-01) (401, 5, 5.00000000000000000000e-01) (401, 5, 5.00000000000000000000e-01) (401, 5, 5.00000000000000000000e-01) (401, 5, 5.00000000000000000000e-01) (401, 5, 5.00000000000000000000e-01) (401, 5, 5.00000000000000000000e-01) (401, 5, 5.00000000000000000000e-01) (401, 5, 5.00000000000000000000e-01) (401, 5, 5.00000000000000000000e-01) (401, 5, 5.00000000000000000000e-01) (0, 5, 0.00000000000000000000e+00) (101, 5, 5.00000000000000000000e-01) (101, 5, 5.00000000000000000000e-01) (0, 5, 0.00000000000000000000e+00) 
connections (connected_to_neuron, weight)=(0, -6.04452937841415405273e-03) (1, -5.07902279496192932129e-02) (2, 8.04659798741340637207e-02) (3, -8.85733217000961303711e-03) (4, 9.16817858815193176270e-02) (5, 9.11334827542304992676e-02) (6, 8.84309485554695129395e-02) (7, -2.20603793859481811523e-02) (8, -9.45695862174034118652e-02) (9, 8.73380973935127258301e-02) (10, -2.65410393476486206055e-02) (11, -5.33825121819972991943e-02) (12, -5.97330331802368164062e-02) (13, 9.52143743634223937988e-02) (14, -3.58572751283645629883e-02) (15, -2.43835896253585815430e-02) (16, 6.67436346411705017090e-02) (17, -4.55812998116016387939e-02) (18, 3.19145098328590393066e-02) (19, 8.90243127942085266113e-02) (20, 4.19805720448493957520e-02) (21, 5.10798394680023193359e-03) (22, -8.16636160016059875488e-02) (23, 7.69211575388908386230e-02) (24, 3.86020913720130920410e-02) (25, -6.69053941965103149414e-02) (26, 3.26795876026153564453e-03) (27, -2.13943421840667724609e-03) (28, -4.09678407013416290283e-02) (29, 8.59254077076911926270e-02) (30, -9.84132364392280578613e-02) (31, 5.29876276850700378418e-02) (32, -6.48648217320442199707e-02) (33, 8.20527598261833190918e-02) (34, -5.58697097003459930420e-02) (35, -7.31830447912216186523e-02) (36, 7.31862261891365051270e-02) (37, -6.74387589097023010254e-02) (38, 4.75656986236572265625e-03) (39, 7.86166414618492126465e-02) (40, -8.01006630063056945801e-02) (41, 7.82155469059944152832e-02) (42, -7.47658759355545043945e-02) (43, -3.98336946964263916016e-02) (44, 7.34299048781394958496e-02) (45, -1.06231421232223510742e-02) (46, 3.57827171683311462402e-02) (47, 4.01735380291938781738e-02) (48, 4.37955483794212341309e-02) (49, -3.23027819395065307617e-02) (50, 2.91978791356086730957e-02) (51, -1.42238661646842956543e-02) (52, 7.28052183985710144043e-02) (53, 4.75342497229576110840e-02) (54, -3.73027175664901733398e-02) (55, 1.14073008298873901367e-02) (56, 8.06288644671440124512e-02) (57, 6.59652426838874816895e-02) (58, -9.07321348786354064941e-02) (59, -6.03389851748943328857e-02) (60, 5.18906638026237487793e-02) (61, -8.91453698277473449707e-02) (62, 9.26486477255821228027e-02) (63, 8.70258286595344543457e-02) (64, 9.29073914885520935059e-02) (65, -6.32210671901702880859e-02) (66, -8.61572101712226867676e-02) (67, 6.60936161875724792480e-02) (68, -3.06598171591758728027e-02) (69, 1.85993686318397521973e-02) (70, 4.47102561593055725098e-02) (71, -1.07604786753654479980e-02) (72, -3.18510085344314575195e-03) (73, 6.99443891644477844238e-02) (74, 4.94058206677436828613e-02) (75, -2.97551900148391723633e-02) (76, -4.06787581741809844971e-02) (77, -1.48114636540412902832e-02) (78, -8.95816460251808166504e-02) (79, -9.68832075595855712891e-02) (80, 5.28857633471488952637e-02) (81, 3.96162346005439758301e-02) (82, -1.11070722341537475586e-02) (83, 2.56909653544425964355e-02) (84, -1.28495246171951293945e-02) (85, 5.15902116894721984863e-02) (86, -6.29017353057861328125e-02) (87, -3.22206616401672363281e-02) (88, 1.75554603338241577148e-02) (89, -5.36338686943054199219e-02) (90, 7.44035094976425170898e-03) (91, -3.05538773536682128906e-02) (92, -4.27792333066463470459e-02) (93, 8.90046358108520507812e-05) (94, -4.35280464589595794678e-02) (95, -4.98718433082103729248e-02) (96, 3.68679389357566833496e-02) (97, -2.96852588653564453125e-02) (98, -8.37782323360443115234e-02) (99, -9.37918797135353088379e-02) (100, 8.89141038060188293457e-02) (101, 6.09320327639579772949e-02) (102, -4.55235689878463745117e-03) (103, -1.42709910869598388672e-02) (104, 3.08764055371284484863e-02) (105, -5.51465377211570739746e-02) (106, 5.59738203883171081543e-02) (107, 9.01976600289344787598e-02) (108, 3.00420001149177551270e-02) (109, 6.63921758532524108887e-02) (110, 9.33144465088844299316e-02) (111, -1.70722454786300659180e-02) (112, 6.00840151309967041016e-03) (113, -1.77926272153854370117e-02) (114, -9.13812890648841857910e-02) (115, 9.31588783860206604004e-02) (116, -6.62024095654487609863e-02) (117, -5.42830191552639007568e-02) (118, -3.90617847442626953125e-02) (119, 5.13530597090721130371e-02) (120, -7.91688263416290283203e-03) (121, 6.83785751461982727051e-02) (122, -7.92008191347122192383e-02) (123, 4.93038818240165710449e-02) (124, -3.15324217081069946289e-02) (125, -2.27288678288459777832e-02) (126, 9.94320437312126159668e-02) (127, -9.46644917130470275879e-02) (128, 4.75858822464942932129e-02) (129, -8.43461975455284118652e-02) (130, -8.84563699364662170410e-02) (131, 3.64999845623970031738e-02) (132, 7.65858367085456848145e-02) (133, 6.99126720428466796875e-03) (134, -7.77710080146789550781e-02) (135, 7.46224820613861083984e-03) (136, 5.18447384238243103027e-02) (137, 7.82028064131736755371e-02) (138, -2.34010070562362670898e-03) (139, -1.81132704019546508789e-02) (140, 4.45949807763099670410e-02) (141, -9.02564823627471923828e-03) (142, 6.48144856095314025879e-02) (143, -4.93966229259967803955e-02) (144, 7.31817260384559631348e-02) (145, 7.34331980347633361816e-02) (146, -5.62377460300922393799e-02) (147, -9.30206850171089172363e-02) (148, -8.08498188853263854980e-02) (149, 4.70046699047088623047e-03) (150, 5.83323761820793151855e-02) (151, 1.12332925200462341309e-02) (152, -2.69209593534469604492e-02) (153, 7.91315510869026184082e-02) (154, -3.94628234207630157471e-02) (155, 4.15466055274009704590e-02) (156, -4.35973107814788818359e-02) (157, -4.00307886302471160889e-02) (158, 4.68821302056312561035e-02) (159, -9.60114300251007080078e-02) (160, -2.43769809603691101074e-02) (161, 5.84257617592811584473e-02) (162, 4.04885485768318176270e-02) (163, -4.77911531925201416016e-02) (164, -3.45829725265502929688e-02) (165, 6.27175495028495788574e-02) (166, 5.96710965037345886230e-02) (167, -8.27382355928421020508e-02) (168, 4.09203395247459411621e-02) (169, -4.26690056920051574707e-02) (170, -8.51497054100036621094e-04) (171, -1.44846737384796142578e-02) (172, 4.83053401112556457520e-02) (173, -3.60370129346847534180e-02) (174, 3.61187085509300231934e-02) (175, 2.14870721101760864258e-02) (176, -6.26038163900375366211e-02) (177, 7.98809602856636047363e-02) (178, 2.84663811326026916504e-02) (179, -4.34536300599575042725e-02) (180, -1.54185742139816284180e-02) (181, -1.32012441754341125488e-02) (182, 6.77796676754951477051e-02) (183, 5.76604679226875305176e-02) (184, -3.40696796774864196777e-02) (185, -7.16831535100936889648e-02) (186, -7.92920589447021484375e-04) (187, 2.23330035805702209473e-02) (188, -1.17139443755149841309e-02) (189, -5.39107955992221832275e-02) (190, 2.63215824961662292480e-02) (191, 6.39090612530708312988e-02) (192, -9.54850390553474426270e-02) (193, -3.31898778676986694336e-02) (194, -8.38820785284042358398e-02) (195, -3.00680100917816162109e-02) (196, -7.04723373055458068848e-02) (197, 7.57890120148658752441e-02) (198, -1.28062441945075988770e-02) (199, 7.04480037093162536621e-02) (200, -6.68800026178359985352e-02) (201, 8.63422527909278869629e-02) (202, -4.40366640686988830566e-02) (203, 8.14253464341163635254e-02) (204, -4.96947579085826873779e-02) (205, 9.20820459723472595215e-02) (206, 2.91241705417633056641e-03) (207, -1.22985690832138061523e-02) (208, 7.19630047678947448730e-02) (209, -6.86212033033370971680e-02) (210, 4.42478135228157043457e-02) (211, -4.34555709362030029297e-02) (212, 1.81775540113449096680e-02) (213, 1.20274797081947326660e-02) (214, -8.57951045036315917969e-02) (215, 8.41078683733940124512e-02) (216, 4.03443202376365661621e-02) (217, 1.34119763970375061035e-02) (218, 6.44087791442871093750e-03) (219, -7.13696256279945373535e-02) (220, 5.95011785626411437988e-02) (221, -6.72375485301017761230e-02) (222, 9.25394371151924133301e-02) (223, 6.40161409974098205566e-02) (224, -4.27424907684326171875e-04) (225, -9.13426354527473449707e-02) (226, -6.60518705844879150391e-02) (227, 2.91002467274665832520e-02) (228, 8.44463780522346496582e-02) (229, 2.11418867111206054688e-02) (230, -4.51743602752685546875e-04) (231, -8.24336186051368713379e-02) (232, 7.48415291309356689453e-03) (233, 5.55116012692451477051e-02) (234, 9.89917293190956115723e-02) (235, 5.77893927693367004395e-02) (236, 4.75936308503150939941e-02) (237, 1.90412998199462890625e-03) (238, -5.45091778039932250977e-02) (239, 1.95566415786743164062e-02) (240, 3.32829281687736511230e-02) (241, 8.97386297583580017090e-02) (242, 7.61010721325874328613e-02) (243, -4.85395193099975585938e-02) (244, 1.76610052585601806641e-03) (245, 9.03059765696525573730e-02) (246, -6.44316524267196655273e-02) (247, -5.78895770013332366943e-02) (248, 3.71794402599334716797e-03) (249, 4.20092269778251647949e-02) (250, -2.92591974139213562012e-02) (251, -3.67808714509010314941e-02) (252, 7.47716799378395080566e-02) (253, -3.67197543382644653320e-02) (254, -7.27647244930267333984e-02) (255, -2.56557464599609375000e-02) (256, -2.80623883008956909180e-02) (257, -3.88165898621082305908e-02) (258, -9.65555086731910705566e-02) (259, -4.36160154640674591064e-02) (260, 8.23253020644187927246e-02) (261, 2.99274921417236328125e-03) (262, -2.60496288537979125977e-02) (263, -1.01905539631843566895e-02) (264, -4.14956584572792053223e-02) (265, -2.70579010248184204102e-02) (266, -5.24011664092540740967e-02) (267, -9.39020290970802307129e-02) (268, 7.48462304472923278809e-02) (269, -6.91034644842147827148e-03) (270, 2.56546214222908020020e-02) (271, 8.12915712594985961914e-03) (272, -1.71717181801795959473e-02) (273, 1.75567716360092163086e-03) (274, 5.95896318554878234863e-02) (275, 8.45943763852119445801e-02) (276, -7.93834775686264038086e-03) (277, 9.51579883694648742676e-02) (278, -7.32951909303665161133e-02) (279, 9.57796052098274230957e-02) (280, 3.71672138571739196777e-02) (281, -2.55439430475234985352e-03) (282, -4.10012714564800262451e-02) (283, 1.19388923048973083496e-02) (284, 6.07258602976799011230e-02) (285, -1.37659981846809387207e-02) (286, 8.62831547856330871582e-02) (287, -6.73365369439125061035e-02) (288, 4.74174097180366516113e-02) (289, 8.97276476025581359863e-02) (290, -1.09525471925735473633e-02) (291, 2.97427251935005187988e-02) (292, -7.27961212396621704102e-03) (293, 6.29978254437446594238e-02) (294, -8.04478377103805541992e-02) (295, 5.12247309088706970215e-02) (296, -6.40600919723510742188e-02) (297, -3.28490063548088073730e-02) (298, 5.73227033019065856934e-02) (299, -8.92138555645942687988e-02) (300, 6.02406486868858337402e-02) (301, -1.70226842164993286133e-02) (302, 1.89152956008911132812e-02) (303, -5.69310709834098815918e-02) (304, 8.47330018877983093262e-02) (305, -2.14950591325759887695e-02) (306, -7.23366886377334594727e-02) (307, -2.32053548097610473633e-02) (308, -2.63370722532272338867e-02) (309, -4.56318818032741546631e-02) (310, -2.74257659912109375000e-02) (311, -8.91698598861694335938e-02) (312, 5.18137291073799133301e-02) (313, 3.15729603171348571777e-02) (314, 2.27690190076828002930e-02) (315, 1.25395804643630981445e-02) (316, -8.21930319070816040039e-02) (317, 9.05217230319976806641e-03) (318, 4.52030524611473083496e-02) (319, 6.52243867516517639160e-02) (320, -1.22018903493881225586e-03) (321, -6.57494962215423583984e-02) (322, -5.03289699554443359375e-03) (323, 9.15002003312110900879e-02) (324, 9.72483232617378234863e-02) (325, 1.45192593336105346680e-02) (326, 4.27249148488044738770e-02) (327, -6.68117702007293701172e-02) (328, 8.16702619194984436035e-02) (329, 4.76241111755371093750e-05) (330, -5.60256205499172210693e-02) (331, 4.19109091162681579590e-02) (332, 8.30249264836311340332e-02) (333, 6.28896877169609069824e-02) (334, 8.49798396229743957520e-02) (335, 6.77579268813133239746e-02) (336, -5.86053840816020965576e-02) (337, -8.73568505048751831055e-02) (338, -5.54474294185638427734e-02) (339, 1.50575488805770874023e-02) (340, -3.29887345433235168457e-02) (341, 1.71268135309219360352e-02) (342, 2.58876755833625793457e-02) (343, -8.11749994754791259766e-02) (344, -5.13002276420593261719e-02) (345, -5.13432882726192474365e-02) (346, 3.13645824790000915527e-02) (347, -3.34932580590248107910e-02) (348, 5.77088817954063415527e-02) (349, -2.34323665499687194824e-02) (350, -6.82688802480697631836e-02) (351, -4.35113087296485900879e-02) (352, 1.08181387186050415039e-02) (353, 2.66982391476631164551e-02) (354, -5.20111136138439178467e-02) (355, 8.06645303964614868164e-03) (356, -5.87825104594230651855e-02) (357, 9.07138064503669738770e-02) (358, 4.12546917796134948730e-02) (359, -7.71122574806213378906e-02) (360, -9.23856347799301147461e-03) (361, 8.52290615439414978027e-02) (362, 6.47986605763435363770e-02) (363, -2.62136310338973999023e-02) (364, 4.81187477707862854004e-02) (365, 4.97784838080406188965e-02) (366, -5.84557019174098968506e-02) (367, 8.95133689045906066895e-02) (368, 6.24216273427009582520e-02) (369, -1.39031261205673217773e-02) (370, 4.57090139389038085938e-03) (371, -7.05670937895774841309e-02) (372, -9.67763289809226989746e-02) (373, -6.95414096117019653320e-02) (374, -5.17420992255210876465e-02) (375, -4.80765514075756072998e-02) (376, -2.08847001194953918457e-02) (377, 7.96224847435951232910e-02) (378, 1.84301882982254028320e-02) (379, -6.31758123636245727539e-02) (380, -4.38098907470703125000e-02) (381, 5.01613095402717590332e-02) (382, -6.68711960315704345703e-03) (383, 6.70082494616508483887e-02) (384, -2.31404528021812438965e-02) (385, 4.13017645478248596191e-02) (386, -2.49253064393997192383e-02) (387, 1.80770382285118103027e-02) (388, 3.20155695080757141113e-02) (389, -8.36706236004829406738e-02) (390, 4.09647896885871887207e-02) (391, -7.72229954600334167480e-02) (392, -9.84415635466575622559e-02) (393, 5.76343387365341186523e-03) (394, -3.43662500381469726562e-03) (395, 4.96771857142448425293e-02) (396, -4.44580800831317901611e-02) (397, 3.81076708436012268066e-02) (398, 3.91905382275581359863e-02) (399, -8.20364430546760559082e-02) (400, -7.57954642176628112793e-02) (0, -5.62385581433773040771e-02) (1, -5.26035428047180175781e-02) (2, -7.25717842578887939453e-02) (3, -2.57799625396728515625e-02) (4, -4.34564054012298583984e-03) (5, -2.06483453512191772461e-02) (6, 5.33353462815284729004e-02) (7, -2.47231572866439819336e-02) (8, 9.77818444371223449707e-02) (9, 9.01595279574394226074e-02) (10, 3.14669534564018249512e-02) (11, 4.79431673884391784668e-02) (12, -1.65275931358337402344e-02) (13, -1.52480602264404296875e-03) (14, -7.51972943544387817383e-02) (15, -7.52258300781250000000e-02) (16, 7.35498890280723571777e-02) (17, 4.28797379136085510254e-02) (18, 5.67897334694862365723e-02) (19, 8.98792669177055358887e-02) (20, -1.61554813385009765625e-02) (21, 7.95667394995689392090e-02) (22, 9.14377048611640930176e-02) (23, 8.96079614758491516113e-02) (24, -2.38698869943618774414e-02) (25, 4.11148741841316223145e-02) (26, -5.48501238226890563965e-02) (27, -8.57622176408767700195e-02) (28, -1.96945816278457641602e-02) (29, -3.68865653872489929199e-02) (30, -6.15576766431331634521e-02) (31, 2.40668654441833496094e-02) (32, 1.05098858475685119629e-02) (33, -3.41294631361961364746e-02) (34, 9.82869043946266174316e-02) (35, -9.38357487320899963379e-02) (36, 4.52222004532814025879e-02) (37, 5.16222342848777770996e-02) (38, -1.85589045286178588867e-02) (39, 4.30040434002876281738e-02) (40, 4.17817607522010803223e-02) (41, -8.70919525623321533203e-02) (42, -9.05279815196990966797e-03) (43, -7.47458338737487792969e-02) (44, 1.13832354545593261719e-02) (45, 1.57499089837074279785e-02) (46, -4.99716661870479583740e-02) (47, -1.50668770074844360352e-02) (48, -4.13703508675098419189e-02) (49, -9.31819304823875427246e-02) (50, -2.51876115798950195312e-02) (51, 4.24741730093955993652e-02) (52, 8.63848105072975158691e-02) (53, -3.37499082088470458984e-02) (54, 3.20821329951286315918e-02) (55, -3.74850779771804809570e-02) (56, -9.26350280642509460449e-02) (57, 7.72320106625556945801e-02) (58, -2.32472866773605346680e-02) (59, -1.23296082019805908203e-02) (60, -5.96545673906803131104e-02) (61, 1.51950344443321228027e-02) (62, -8.82627516984939575195e-02) (63, 5.08553311228752136230e-02) (64, 8.10655727982521057129e-02) (65, -8.99758487939834594727e-02) (66, 5.70195838809013366699e-02) (67, 2.62877568602561950684e-02) (68, 6.16463944315910339355e-02) (69, -6.15393333137035369873e-02) (70, -3.07082012295722961426e-02) (71, 3.42814624309539794922e-03) (72, -4.86312881112098693848e-02) (73, 6.02390095591545104980e-02) (74, 2.86823287606239318848e-02) (75, 6.27519562840461730957e-02) (76, -2.40110903978347778320e-02) (77, 7.87106677889823913574e-02) (78, -5.23149184882640838623e-02) (79, 3.46185639500617980957e-02) (80, 8.55287387967109680176e-02) (81, 2.24974751472473144531e-02) (82, -2.29072645306587219238e-02) (83, 7.19135478138923645020e-02) (84, 8.87475684285163879395e-02) (85, -9.08251404762268066406e-02) (86, -6.55715316534042358398e-02) (87, 9.61125418543815612793e-02) (88, 8.64068642258644104004e-02) (89, 1.11811906099319458008e-02) (90, -1.62170752882957458496e-02) (91, -7.32477009296417236328e-02) (92, -7.36237838864326477051e-02) (93, -4.47982549667358398438e-03) (94, 7.76076242327690124512e-02) (95, -9.25582200288772583008e-02) (96, 5.54432719945907592773e-03) (97, 3.46272066235542297363e-02) (98, 3.37295457720756530762e-02) (99, -3.28092873096466064453e-02) (100, 7.30878636240959167480e-02) (101, -9.69786569476127624512e-02) (102, 7.06188753247261047363e-02) (103, -7.55434259772300720215e-02) (104, 6.32603541016578674316e-02) (105, -6.98812305927276611328e-04) (106, 8.72085168957710266113e-02) (107, -6.07507340610027313232e-02) (108, -2.19881460070610046387e-02) (109, -6.51063919067382812500e-02) (110, 7.38678351044654846191e-02) (111, -3.64594161510467529297e-02) (112, 5.73910698294639587402e-02) (113, -4.90394346415996551514e-02) (114, -6.45458698272705078125e-02) (115, 4.61386367678642272949e-02) (116, -3.98645699024200439453e-02) (117, -3.01173925399780273438e-02) (118, 4.22511771321296691895e-02) (119, -5.34577108919620513916e-02) (120, 8.10637995600700378418e-02) (121, -7.39659070968627929688e-02) (122, -2.67054140567779541016e-02) (123, -9.25599932670593261719e-02) (124, 2.15542688965797424316e-02) (125, -4.90977875888347625732e-02) (126, -8.51182118058204650879e-02) (127, -7.29014053940773010254e-02) (128, 8.55294093489646911621e-02) (129, 4.86113354563713073730e-02) (130, -5.71069121360778808594e-03) (131, 5.86172714829444885254e-02) (132, 5.16326799988746643066e-02) (133, -3.50918173789978027344e-02) (134, 8.30738469958305358887e-02) (135, 1.48930326104164123535e-02) (136, 6.42093792557716369629e-02) (137, 7.02823624014854431152e-02) (138, 5.41423037648200988770e-02) (139, -5.77787756919860839844e-02) (140, -9.48240309953689575195e-02) (141, 2.80101373791694641113e-02) (142, 5.76180219650268554688e-03) (143, 6.25670477747917175293e-02) (144, 7.89706930518150329590e-02) (145, 4.12159487605094909668e-02) (146, 8.70569050312042236328e-03) (147, -6.08938820660114288330e-02) (148, -8.89014601707458496094e-02) (149, -4.90431450307369232178e-02) (150, -1.43515914678573608398e-02) (151, 9.21623334288597106934e-02) (152, -2.30090469121932983398e-02) (153, 5.89429959654808044434e-02) (154, 9.96023491024971008301e-02) (155, 9.85452160239219665527e-02) (156, -9.01547968387603759766e-02) (157, -8.55158716440200805664e-02) (158, -7.43561834096908569336e-02) (159, 9.53746065497398376465e-02) (160, 6.30954578518867492676e-02) (161, 1.99331268668174743652e-02) (162, 5.39918765425682067871e-02) (163, 1.47281438112258911133e-02) (164, 8.48413184285163879395e-02) (165, 3.70657220482826232910e-02) (166, -7.03788399696350097656e-02) (167, 4.90506812930107116699e-02) (168, 7.34808295965194702148e-03) (169, 8.37634578347206115723e-02) (170, 9.12718996405601501465e-02) (171, 1.25240534543991088867e-02) (172, 1.17735862731933593750e-02) (173, -2.96628475189208984375e-03) (174, -2.49088853597640991211e-02) (175, -9.25572961568832397461e-03) (176, -6.17503486573696136475e-02) (177, 8.37968066334724426270e-02) (178, 2.98503860831260681152e-02) (179, -5.06518036127090454102e-02) (180, -6.52463436126708984375e-02) (181, -8.45012068748474121094e-02) (182, -5.84894679486751556396e-02) (183, 1.17446035146713256836e-02) (184, 7.44417980313301086426e-02) (185, -5.88871277868747711182e-02) (186, 1.02898254990577697754e-02) (187, 8.42869952321052551270e-02) (188, -4.44029979407787322998e-02) (189, 3.59336510300636291504e-02) (190, 7.96616151928901672363e-02) (191, -8.13075378537178039551e-02) (192, -4.41332273185253143311e-02) (193, 3.36535051465034484863e-02) (194, 3.34205999970436096191e-02) (195, -5.92919178307056427002e-02) (196, -2.92807817459106445312e-02) (197, 6.30417689681053161621e-02) (198, 8.97587612271308898926e-02) (199, 7.80673101544380187988e-02) (200, 4.68052253127098083496e-02) (201, 8.10306742787361145020e-02) (202, -9.40863043069839477539e-03) (203, -4.14211936295032501221e-02) (204, -2.19356194138526916504e-02) (205, 6.56824782490730285645e-02) (206, 4.93230894207954406738e-02) (207, 1.63140296936035156250e-02) (208, 4.94792833924293518066e-02) (209, -2.08265334367752075195e-02) (210, 6.56622275710105895996e-02) (211, 8.42329338192939758301e-02) (212, -5.32773882150650024414e-03) (213, -9.28272381424903869629e-02) (214, -4.02246415615081787109e-03) (215, -3.08859422802925109863e-02) (216, -5.17143681645393371582e-02) (217, -9.37326326966285705566e-02) (218, -4.65989410877227783203e-02) (219, 3.88263165950775146484e-03) (220, 4.22010198235511779785e-02) (221, -6.69373273849487304688e-02) (222, 2.25751027464866638184e-02) (223, 9.80677828192710876465e-02) (224, 6.67161718010902404785e-02) (225, -4.40042987465858459473e-02) (226, -6.12241327762603759766e-02) (227, -6.25646114349365234375e-02) (228, -8.09625312685966491699e-02) (229, -7.14653655886650085449e-02) (230, -8.44973102211952209473e-02) (231, 6.58426955342292785645e-02) (232, -9.04347002506256103516e-02) (233, 6.09406083822250366211e-03) (234, -7.55785033106803894043e-02) (235, -1.23703181743621826172e-02) (236, -2.82234549522399902344e-02) (237, 7.37445726990699768066e-02) (238, -9.60562899708747863770e-02) (239, -7.87441805005073547363e-02) (240, -4.70819659531116485596e-02) (241, 6.96059390902519226074e-02) (242, -9.45112481713294982910e-02) (243, 4.75903078913688659668e-02) (244, 7.67787024378776550293e-02) (245, 1.46629661321640014648e-03) (246, -8.32956433296203613281e-02) (247, -7.49356672167778015137e-02) (248, 7.73366540670394897461e-03) (249, -2.98945829272270202637e-02) (250, 2.89469733834266662598e-02) (251, -5.00653274357318878174e-02) (252, 3.16809117794036865234e-03) (253, -4.84779253602027893066e-02) (254, -5.19975386559963226318e-02) (255, -3.01157385110855102539e-02) (256, 7.51777738332748413086e-03) (257, -1.32216662168502807617e-02) (258, 7.31964409351348876953e-03) (259, 2.65552476048469543457e-02) (260, 1.53129547834396362305e-02) (261, 2.28223428130149841309e-02) (262, -7.60206580162048339844e-03) (263, 2.48782634735107421875e-02) (264, -7.10835978388786315918e-02) (265, 1.68194323778152465820e-02) (266, -8.74920636415481567383e-02) (267, 6.92941248416900634766e-04) (268, -9.43599641323089599609e-03) (269, -8.35483521223068237305e-02) (270, 2.19487696886062622070e-02) (271, 4.34820428490638732910e-02) (272, 8.60575959086418151855e-02) (273, 2.74375155568122863770e-02) (274, -8.92765820026397705078e-03) (275, 6.28362968564033508301e-02) (276, -7.10961893200874328613e-02) (277, 7.77669996023178100586e-03) (278, 8.79006311297416687012e-02) (279, 3.66374775767326354980e-02) (280, 7.78821185231208801270e-02) (281, 1.68475955724716186523e-02) (282, 8.65721479058265686035e-02) (283, -1.89497917890548706055e-02) (284, 6.83696791529655456543e-02) (285, -6.54253959655761718750e-02) (286, 5.09344711899757385254e-02) (287, -2.41125524044036865234e-02) (288, 2.13529318571090698242e-02) (289, -4.17458824813365936279e-02) (290, -9.75573062896728515625e-02) (291, -6.33340999484062194824e-02) (292, 8.10764506459236145020e-02) (293, -5.15937060117721557617e-03) (294, 6.15441575646400451660e-02) (295, -9.00071412324905395508e-02) (296, -8.83399471640586853027e-02) (297, 7.40521028637886047363e-02) (298, 1.06858015060424804688e-02) (299, 2.22405046224594116211e-03) (300, 9.05037596821784973145e-02) (301, -6.73654377460479736328e-02) (302, -5.42939044535160064697e-02) (303, 7.65613391995429992676e-02) (304, 6.00720867514610290527e-02) (305, 3.67784425616264343262e-02) (306, 3.93976345658302307129e-02) (307, 8.89759138226509094238e-02) (308, -5.54448664188385009766e-02) (309, 2.72982642054557800293e-02) (310, 2.56133750081062316895e-02) (311, -7.75627493858337402344e-02) (312, -5.58541454374790191650e-02) (313, 1.21855288743972778320e-02) (314, 3.48746776580810546875e-03) (315, -8.74844714999198913574e-02) (316, 4.67601343989372253418e-02) (317, -4.55780699849128723145e-02) (318, -1.15970224142074584961e-02) (319, -3.18869277834892272949e-02) (320, 1.26760452985763549805e-02) (321, -9.15433466434478759766e-03) (322, 4.77896630764007568359e-03) (323, -6.24749809503555297852e-03) (324, 8.56862887740135192871e-02) (325, -3.36768701672554016113e-02) (326, 3.74536216259002685547e-03) (327, 9.73463580012321472168e-02) (328, -5.96247650682926177979e-02) (329, -8.55688378214836120605e-02) (330, -4.29585576057434082031e-04) (331, -6.91210180521011352539e-02) (332, -5.29342666268348693848e-02) (333, 4.52765151858329772949e-02) (334, -9.25596728920936584473e-02) (335, -9.28621813654899597168e-02) (336, -1.79450586438179016113e-02) (337, 4.68379631638526916504e-02) (338, 9.61137339472770690918e-02) (339, 2.66100838780403137207e-02) (340, -2.58637815713882446289e-02) (341, 2.17271000146865844727e-02) (342, 4.90473285317420959473e-02) (343, 1.82820707559585571289e-02) (344, -6.60873800516128540039e-02) (345, -4.74652126431465148926e-02) (346, 3.07976081967353820801e-02) (347, 8.06727632880210876465e-02) (348, 6.95671886205673217773e-03) (349, -8.07994231581687927246e-02) (350, -5.12141697108745574951e-02) (351, -8.03672298789024353027e-02) (352, 1.00462436676025390625e-02) (353, 5.35648092627525329590e-02) (354, 1.33852735161781311035e-02) (355, -4.26746159791946411133e-03) (356, -8.01120549440383911133e-02) (357, -8.28693583607673645020e-02) (358, -6.92110508680343627930e-03) (359, -3.97368259727954864502e-02) (360, -6.84381946921348571777e-02) (361, 9.26493033766746520996e-02) (362, -8.85783880949020385742e-03) (363, -2.13724598288536071777e-02) (364, 3.79258021712303161621e-02) (365, -1.41751021146774291992e-03) (366, -1.42346322536468505859e-02) (367, -8.00192505121231079102e-02) (368, -5.45795522630214691162e-02) (369, -1.81209072470664978027e-02) (370, 4.65908274054527282715e-02) (371, 1.95566639304161071777e-02) (372, -9.63938087224960327148e-02) (373, -4.36185300350189208984e-03) (374, -6.21612668037414550781e-02) (375, -6.24811835587024688721e-02) (376, 4.81729432940483093262e-02) (377, 6.86363354325294494629e-02) (378, -8.18084254860877990723e-02) (379, -4.48703356087207794189e-02) (380, 8.78369137644767761230e-02) (381, -3.30225899815559387207e-02) (382, -2.52375602722167968750e-02) (383, -2.11684405803680419922e-03) (384, -7.94577822089195251465e-02) (385, 8.81477072834968566895e-02) (386, 9.36157032847404479980e-02) (387, -5.95698393881320953369e-02) (388, -9.47216451168060302734e-02) (389, -1.33054107427597045898e-02) (390, 6.93336129188537597656e-04) (391, -6.31598383188247680664e-02) (392, -2.06561088562011718750e-02) (393, 9.18355062603950500488e-02) (394, 1.54677033424377441406e-02) (395, -8.27303007245063781738e-02) (396, -9.58201289176940917969e-03) (397, -9.87669304013252258301e-02) (398, -6.27495497465133666992e-02) (399, 3.58384326100349426270e-02) (400, -1.68878436088562011719e-02) (0, 8.38412716984748840332e-02) (1, -4.46049086749553680420e-02) (2, -1.32816508412361145020e-02) (3, -2.05205753445625305176e-02) (4, -6.76617771387100219727e-03) (5, 2.42371708154678344727e-02) (6, -7.23476335406303405762e-02) (7, -3.81298437714576721191e-02) (8, 4.24287393689155578613e-02) (9, -1.72179639339447021484e-02) (10, -5.02929314970970153809e-02) (11, -9.05938446521759033203e-02) (12, 5.75444772839546203613e-02) (13, 4.75902184844017028809e-02) (14, -7.00516253709793090820e-02) (15, 4.56921830773353576660e-02) (16, 4.12059202790260314941e-02) (17, -2.96214669942855834961e-02) (18, 5.09705469012260437012e-02) (19, -7.20994845032691955566e-02) (20, 7.10718706250190734863e-02) (21, 8.78107026219367980957e-02) (22, 7.24440813064575195312e-03) (23, 6.29073753952980041504e-02) (24, 3.27841192483901977539e-03) (25, 2.45141163468360900879e-02) (26, -4.66746389865875244141e-02) (27, 4.51147556304931640625e-03) (28, 6.17645606398582458496e-02) (29, 8.91637876629829406738e-02) (30, 8.76236334443092346191e-02) (31, 4.56058457493782043457e-02) (32, -5.54411187767982482910e-02) (33, -2.56580114364624023438e-02) (34, -7.49147385358810424805e-02) (35, 3.77927049994468688965e-02) (36, 9.85791608691215515137e-02) (37, -4.72623705863952636719e-02) (38, 9.96628627181053161621e-02) (39, 4.10078987479209899902e-02) (40, 3.55196669697761535645e-02) (41, -5.06300628185272216797e-02) (42, 5.04140481352806091309e-02) (43, -6.93586468696594238281e-03) (44, 9.69601646065711975098e-02) (45, 8.03624317049980163574e-02) (46, -6.12436793744564056396e-02) (47, 3.81660833954811096191e-02) (48, -4.92590330541133880615e-02) (49, 8.97268727421760559082e-02) (50, 6.60666003823280334473e-02) (51, -7.81871601939201354980e-02) (52, 7.75375738739967346191e-02) (53, -2.66889929771423339844e-02) (54, 8.47202166914939880371e-02) (55, -1.91840231418609619141e-02) (56, 9.78251174092292785645e-02) (57, -6.19544275104999542236e-02) (58, 8.53274539113044738770e-02) (59, 5.95896914601325988770e-02) (60, -7.27906376123428344727e-02) (61, 7.29510858654975891113e-02) (62, 5.19551336765289306641e-03) (63, -2.82317548990249633789e-02) (64, -5.27069233357906341553e-02) (65, 3.02807763218879699707e-02) (66, -9.04390439391136169434e-02) (67, -5.41277676820755004883e-02) (68, 8.30183997750282287598e-02) (69, -9.07761752605438232422e-02) (70, 8.68801400065422058105e-02) (71, 1.85380578041076660156e-02) (72, -4.14062403142452239990e-02) (73, 3.72941866517066955566e-02) (74, -8.83978083729743957520e-02) (75, -4.44460771977901458740e-02) (76, 1.76566243171691894531e-02) (77, -4.96414862573146820068e-02) (78, 9.37200114130973815918e-02) (79, 6.83975890278816223145e-02) (80, -5.99146187305450439453e-02) (81, 5.97866252064704895020e-02) (82, 9.02104303240776062012e-02) (83, -8.23770537972450256348e-02) (84, -6.69023841619491577148e-02) (85, 7.49306455254554748535e-02) (86, -1.56106799840927124023e-03) (87, -6.90772607922554016113e-02) (88, -8.70237872004508972168e-02) (89, -1.62336155772209167480e-02) (90, 9.05124172568321228027e-02) (91, -5.98144195973873138428e-02) (92, -4.32825200259685516357e-02) (93, -4.29207086563110351562e-03) (94, 1.19538307189941406250e-02) (95, 4.01055812835693359375e-03) (96, -7.40112960338592529297e-02) (97, 2.15147882699966430664e-02) (98, 4.98827919363975524902e-02) (99, -9.09929051995277404785e-02) (100, 3.07386144995689392090e-02) (101, 3.67629304528236389160e-02) (102, 2.75451615452766418457e-02) (103, 8.93323794007301330566e-02) (104, -2.59428843855857849121e-02) (105, 3.91473546624183654785e-02) (106, -5.51136992871761322021e-02) (107, 9.17137339711189270020e-02) (108, 8.95058587193489074707e-02) (109, -6.13936893641948699951e-02) (110, 6.01113215088844299316e-02) (111, -7.04087540507316589355e-02) (112, 9.83929261565208435059e-02) (113, 5.03217503428459167480e-02) (114, -5.27858100831508636475e-02) (115, -6.85094594955444335938e-02) (116, 2.52523943781852722168e-02) (117, 4.56531122326850891113e-02) (118, -3.75867150723934173584e-02) (119, 3.82286086678504943848e-02) (120, -7.05804899334907531738e-02) (121, -4.70742955803871154785e-02) (122, 7.84141942858695983887e-02) (123, -1.38630121946334838867e-02) (124, 4.86336424946784973145e-02) (125, -9.63198393583297729492e-03) (126, 9.01475474238395690918e-02) (127, 7.46223405003547668457e-02) (128, -8.81172046065330505371e-02) (129, 4.00303378701210021973e-02) (130, 8.36294367909431457520e-02) (131, 4.26214113831520080566e-02) (132, -2.32067406177520751953e-02) (133, 1.11745968461036682129e-02) (134, 3.19537743926048278809e-02) (135, 5.08503690361976623535e-02) (136, -4.96780574321746826172e-02) (137, 7.68400803208351135254e-02) (138, 4.25641015172004699707e-02) (139, -6.01721964776515960693e-02) (140, -8.45536068081855773926e-02) (141, 2.67542898654937744141e-03) (142, -3.05809527635574340820e-02) (143, -8.61606821417808532715e-02) (144, -4.70028333365917205811e-02) (145, 1.66332349181175231934e-02) (146, -5.46701364219188690186e-02) (147, 7.82495513558387756348e-02) (148, -3.77136357128620147705e-02) (149, 7.74315744638442993164e-03) (150, 1.64781585335731506348e-02) (151, -8.29412788152694702148e-03) (152, 6.06688633561134338379e-02) (153, -5.10765612125396728516e-03) (154, 7.78428539633750915527e-02) (155, 9.30249691009521484375e-03) (156, 8.52603539824485778809e-02) (157, 6.79903998970985412598e-02) (158, -1.60751566290855407715e-02) (159, 9.71431657671928405762e-02) (160, 8.02073627710342407227e-03) (161, -3.24457213282585144043e-02) (162, 3.97645607590675354004e-02) (163, 8.48140046000480651855e-02) (164, 7.87288621068000793457e-02) (165, -2.82816514372825622559e-02) (166, 3.56643870472908020020e-02) (167, -7.09491893649101257324e-02) (168, -5.14415763318538665771e-02) (169, -2.17715203762054443359e-02) (170, -3.11213880777359008789e-02) (171, -3.59951779246330261230e-02) (172, 8.09038951992988586426e-02) (173, 3.82976606488227844238e-02) (174, -2.21558660268783569336e-02) (175, -6.60989359021186828613e-02) (176, -4.50690984725952148438e-02) (177, 2.31740027666091918945e-02) (178, -8.78493785858154296875e-02) (179, 1.72172635793685913086e-02) (180, -6.90828412771224975586e-02) (181, 2.86287739872932434082e-02) (182, -9.10768657922744750977e-02) (183, 9.15860161185264587402e-02) (184, -7.64788761734962463379e-02) (185, 8.67659971117973327637e-02) (186, 8.88511538505554199219e-04) (187, -9.12185162305831909180e-02) (188, 5.47564104199409484863e-02) (189, 8.48133638501167297363e-02) (190, -9.40753594040870666504e-02) (191, -3.72228622436523437500e-02) (192, -4.76323664188385009766e-02) (193, 4.56892028450965881348e-02) (194, -5.24088591337203979492e-02) (195, -6.89034983515739440918e-02) (196, -8.25924500823020935059e-02) (197, 8.32555219531059265137e-02) (198, -3.98526899516582489014e-02) (199, -3.40340286493301391602e-02) (200, -3.85160036385059356689e-02) (201, 2.90259197354316711426e-02) (202, 2.99707874655723571777e-02) (203, -5.76121062040328979492e-02) (204, -3.26764136552810668945e-02) (205, -9.21850726008415222168e-02) (206, -2.37110406160354614258e-02) (207, 2.22544893622398376465e-02) (208, 3.09889391064643859863e-02) (209, -1.15604251623153686523e-02) (210, -6.05282448232173919678e-02) (211, 6.19060918688774108887e-02) (212, -8.29316377639770507812e-02) (213, -5.16051091253757476807e-02) (214, 5.34921064972877502441e-02) (215, -5.94105124473571777344e-02) (216, -6.48391097784042358398e-02) (217, -4.56193760037422180176e-02) (218, -5.06290309131145477295e-02) (219, 8.99172946810722351074e-02) (220, -6.08060173690319061279e-02) (221, -4.47043888270854949951e-02) (222, -4.73055727779865264893e-02) (223, -8.43838602304458618164e-03) (224, -9.90151837468147277832e-02) (225, 2.85565853118896484375e-04) (226, 2.26581245660781860352e-02) (227, -8.16076397895812988281e-02) (228, -1.64589136838912963867e-02) (229, 8.28054323792457580566e-02) (230, -1.56416669487953186035e-02) (231, 4.50250729918479919434e-02) (232, 1.18313431739807128906e-02) (233, -8.56708735227584838867e-02) (234, 8.74129757285118103027e-02) (235, 7.91549310088157653809e-02) (236, -7.78559446334838867188e-02) (237, -3.62980663776397705078e-02) (238, 1.40941143035888671875e-03) (239, 5.31329885125160217285e-02) (240, 5.21415099501609802246e-02) (241, 4.08811643719673156738e-02) (242, 1.50390863418579101562e-02) (243, 6.92098811268806457520e-02) (244, 8.92760679125785827637e-02) (245, -3.14688161015510559082e-02) (246, -9.02006402611732482910e-02) (247, -7.55630508065223693848e-02) (248, 2.29118093848228454590e-02) (249, -4.08296696841716766357e-02) (250, -8.56457650661468505859e-02) (251, 6.21057972311973571777e-02) (252, 1.44659429788589477539e-02) (253, -3.29513326287269592285e-02) (254, -4.63325940072536468506e-02) (255, 1.54507607221603393555e-02) (256, 6.73342421650886535645e-02) (257, 7.63255283236503601074e-02) (258, 3.38431224226951599121e-02) (259, -4.91246841847896575928e-02) (260, 5.91309592127799987793e-02) (261, -8.17985385656356811523e-02) (262, 9.59003940224647521973e-02) (263, -2.90376991033554077148e-02) (264, -6.74694180488586425781e-02) (265, 8.33133682608604431152e-02) (266, -4.98827695846557617188e-02) (267, -4.53253500163555145264e-02) (268, -5.29847033321857452393e-02) (269, 5.15266433358192443848e-02) (270, -9.21923592686653137207e-02) (271, 9.91568043828010559082e-02) (272, -7.59218633174896240234e-03) (273, 2.28467211127281188965e-02) (274, 6.83666840195655822754e-02) (275, -1.83161273598670959473e-02) (276, 9.13779065012931823730e-02) (277, 7.81660452485084533691e-02) (278, 6.12082332372665405273e-03) (279, 1.42897218465805053711e-02) (280, -6.26636296510696411133e-02) (281, 2.04750671982765197754e-02) (282, -2.36044898629188537598e-02) (283, 5.18023148179054260254e-02) (284, 8.75237360596656799316e-02) (285, 3.00629213452339172363e-02) (286, -3.27469259500503540039e-02) (287, 5.48579767346382141113e-02) (288, 6.38844817876815795898e-03) (289, -9.89037975668907165527e-02) (290, -9.42667201161384582520e-02) (291, -3.44805940985679626465e-02) (292, -8.07023420929908752441e-02) (293, -9.83663201332092285156e-02) (294, 3.64817008376121520996e-02) (295, -4.81717549264430999756e-02) (296, 8.49470570683479309082e-02) (297, 8.65989401936531066895e-02) (298, 6.50288909673690795898e-03) (299, -6.80376589298248291016e-02) (300, 3.81255820393562316895e-02) (301, 1.43105387687683105469e-02) (302, -6.88808411359786987305e-02) (303, -6.94666132330894470215e-02) (304, -6.28427416086196899414e-02) (305, 9.94858369231224060059e-02) (306, 1.22172608971595764160e-02) (307, -7.14648365974426269531e-02) (308, 7.76518806815147399902e-02) (309, -8.16619172692298889160e-02) (310, 4.28248718380928039551e-02) (311, -8.50117430090904235840e-02) (312, 3.88131514191627502441e-02) (313, -8.07796046137809753418e-02) (314, 6.67905882000923156738e-02) (315, 2.63368859887123107910e-02) (316, 4.92833331227302551270e-02) (317, -6.59563466906547546387e-02) (318, -1.88051536679267883301e-02) (319, -4.43282313644886016846e-02) (320, -6.48601502180099487305e-02) (321, -1.30718722939491271973e-02) (322, 2.11911797523498535156e-02) (323, -4.55624870955944061279e-02) (324, -1.14381909370422363281e-02) (325, -4.23271246254444122314e-02) (326, 6.26575946807861328125e-03) (327, -2.64911502599716186523e-02) (328, -5.57281933724880218506e-02) (329, -8.72313454747200012207e-02) (330, 5.47119230031967163086e-03) (331, 8.23973789811134338379e-02) (332, 2.70791873335838317871e-02) (333, 3.65903452038764953613e-02) (334, -8.70692357420921325684e-02) (335, 6.42364546656608581543e-02) (336, 3.60761955380439758301e-02) (337, 2.51480266451835632324e-02) (338, 9.27715972065925598145e-02) (339, 1.37280672788619995117e-02) (340, 4.34861108660697937012e-02) (341, 3.55964973568916320801e-02) (342, 2.87163332104682922363e-02) (343, -1.77007392048835754395e-02) (344, 5.48168942332267761230e-02) (345, -4.49310243129730224609e-03) (346, -9.13638621568679809570e-02) (347, 4.10020351409912109375e-03) (348, 2.95505598187446594238e-02) (349, -1.01690143346786499023e-02) (350, 5.97719773650169372559e-02) (351, 6.46904185414314270020e-02) (352, 7.67591223120689392090e-02) (353, -1.90368443727493286133e-02) (354, -8.08720812201499938965e-02) (355, -3.46790701150894165039e-02) (356, 3.86360362172126770020e-02) (357, 2.53936722874641418457e-02) (358, 3.88297811150550842285e-02) (359, 8.29078480601310729980e-02) (360, 3.81623432040214538574e-02) (361, -5.56990280747413635254e-02) (362, 6.53052255511283874512e-02) (363, -3.47584709525108337402e-02) (364, 8.08913186192512512207e-02) (365, 7.82359912991523742676e-02) (366, -7.05220252275466918945e-02) (367, 1.69675126671791076660e-02) (368, 3.38400900363922119141e-03) (369, -7.77504220604896545410e-02) (370, -6.93044140934944152832e-02) (371, -5.31298778951168060303e-02) (372, 5.78460767865180969238e-02) (373, 5.94119057059288024902e-02) (374, 2.91693881154060363770e-02) (375, 1.26629471778869628906e-02) (376, -4.50811870396137237549e-02) (377, 3.78055199980735778809e-02) (378, -8.32368433475494384766e-02) (379, 8.44693705439567565918e-02) (380, -7.23634809255599975586e-02) (381, 7.65351429581642150879e-02) (382, 4.91597726941108703613e-02) (383, -9.56043675541877746582e-02) (384, -4.25017140805721282959e-02) (385, 6.82876929640769958496e-02) (386, -3.02834361791610717773e-02) (387, 9.61343124508857727051e-02) (388, -6.31862133741378784180e-03) (389, -9.14536640048027038574e-02) (390, 7.90421590209007263184e-02) (391, -6.81562870740890502930e-02) (392, -4.71526868641376495361e-02) (393, 4.43473830819129943848e-02) (394, -2.91475653648376464844e-03) (395, -6.62613660097122192383e-02) (396, 2.25833654403686523438e-02) (397, 2.65632197260856628418e-02) (398, 5.07061555981636047363e-02) (399, -7.40326270461082458496e-02) (400, 4.88127991557121276855e-02) (0, 8.14017429947853088379e-02) (1, -2.71625071763992309570e-02) (2, 6.65886700153350830078e-03) (3, 4.08136472105979919434e-02) (4, -9.79931280016899108887e-02) (5, -8.06781873106956481934e-02) (6, 9.57324579358100891113e-02) (7, 3.98123934864997863770e-02) (8, -6.39150291681289672852e-02) (9, 8.02018269896507263184e-02) (10, 6.74489215016365051270e-02) (11, -8.73798951506614685059e-02) (12, 2.93616130948066711426e-02) (13, 7.18445554375648498535e-02) (14, -2.98816040158271789551e-02) (15, -2.35070288181304931641e-03) (16, -5.84388859570026397705e-02) (17, -3.37472781538963317871e-02) (18, 9.13306698203086853027e-02) (19, -4.98925447463989257812e-02) (20, -5.47051243484020233154e-02) (21, -7.68256112933158874512e-02) (22, 2.95476615428924560547e-03) (23, 8.96422490477561950684e-02) (24, 2.02596336603164672852e-02) (25, 3.66934016346931457520e-02) (26, 1.22256129980087280273e-02) (27, -5.31771592795848846436e-02) (28, -1.26004368066787719727e-02) (29, 3.81929948925971984863e-02) (30, 9.56356450915336608887e-02) (31, -3.11986953020095825195e-02) (32, -8.89695212244987487793e-02) (33, 2.29449570178985595703e-03) (34, -9.03850495815277099609e-02) (35, -8.69626402854919433594e-02) (36, 2.16163024306297302246e-02) (37, -9.46525931358337402344e-02) (38, 5.28497621417045593262e-02) (39, 5.77012822031974792480e-02) (40, 8.55492427945137023926e-02) (41, 2.02986821532249450684e-02) (42, 7.03213885426521301270e-02) (43, 1.49108394980430603027e-02) (44, -7.85677134990692138672e-03) (45, -5.95602132380008697510e-02) (46, -8.74398723244667053223e-02) (47, 3.37043479084968566895e-02) (48, 6.69250637292861938477e-03) (49, -9.61091965436935424805e-02) (50, 8.38117972016334533691e-02) (51, 5.19873872399330139160e-02) (52, -7.29348063468933105469e-02) (53, -1.32334306836128234863e-02) (54, 4.16296347975730895996e-02) (55, 4.73248288035392761230e-02) (56, -7.65400230884552001953e-02) (57, -4.61447425186634063721e-02) (58, 9.41476747393608093262e-02) (59, 1.08595490455627441406e-02) (60, 9.20482501387596130371e-02) (61, 8.97833034396171569824e-02) (62, 7.96608403325080871582e-02) (63, -9.69212725758552551270e-02) (64, -7.92220979928970336914e-03) (65, 8.92757996916770935059e-02) (66, -8.38839113712310791016e-02) (67, -8.63059014081954956055e-02) (68, 9.46232154965400695801e-02) (69, 6.89658597111701965332e-02) (70, 7.13953897356986999512e-02) (71, 8.01724418997764587402e-02) (72, -1.07354670763015747070e-02) (73, 4.17167618870735168457e-02) (74, -4.91671264171600341797e-03) (75, 8.14077630639076232910e-02) (76, 8.21565613150596618652e-02) (77, 7.64341652393341064453e-03) (78, 1.51121020317077636719e-02) (79, -1.11509412527084350586e-02) (80, 1.15342140197753906250e-02) (81, -1.07609480619430541992e-03) (82, -5.91635517776012420654e-02) (83, 3.85994091629981994629e-02) (84, 8.56904760003089904785e-02) (85, 8.24660882353782653809e-02) (86, -1.40757709741592407227e-02) (87, -9.08495485782623291016e-02) (88, -6.36786520481109619141e-02) (89, -1.99281051754951477051e-02) (90, 2.00099945068359375000e-02) (91, -7.16304033994674682617e-02) (92, -3.01448032259941101074e-02) (93, -3.29151749610900878906e-04) (94, -6.85516744852066040039e-02) (95, 6.19329884648323059082e-02) (96, -1.10533535480499267578e-02) (97, -5.24355769157409667969e-02) (98, 7.56270959973335266113e-02) (99, -1.64301469922065734863e-02) (100, -8.34697261452674865723e-02) (101, 4.70224693417549133301e-02) (102, -3.62576991319656372070e-02) (103, 5.79480081796646118164e-03) (104, -1.12607553601264953613e-02) (105, 5.88255897164344787598e-02) (106, -1.27974376082420349121e-02) (107, -2.91041955351829528809e-02) (108, -3.35310027003288269043e-02) (109, -9.76853370666503906250e-02) (110, 5.97448721528053283691e-02) (111, 7.80032202601432800293e-02) (112, 1.23856961727142333984e-03) (113, -9.94186848402023315430e-02) (114, 1.66026204824447631836e-02) (115, -1.30709558725357055664e-02) (116, 8.30473974347114562988e-02) (117, -9.74731370806694030762e-02) (118, -3.92050296068191528320e-03) (119, -8.06312412023544311523e-02) (120, -1.74012407660484313965e-02) (121, -8.39105024933815002441e-02) (122, -5.22616431117057800293e-02) (123, 5.24539574980735778809e-02) (124, 1.57603397965431213379e-02) (125, -2.08133086562156677246e-02) (126, 1.43869519233703613281e-02) (127, -9.52930152416229248047e-02) (128, 2.67511084675788879395e-02) (129, -9.98596101999282836914e-03) (130, -1.17231532931327819824e-02) (131, 4.32813838124275207520e-02) (132, -6.29634857177734375000e-02) (133, 5.20191416144371032715e-02) (134, -5.09238094091415405273e-02) (135, 2.57757529616355895996e-02) (136, 1.08447298407554626465e-02) (137, 3.62787470221519470215e-02) (138, 9.66715589165687561035e-02) (139, 7.73137286305427551270e-02) (140, 3.85934188961982727051e-02) (141, 5.64164295792579650879e-02) (142, 5.53169474005699157715e-02) (143, -6.01680055260658264160e-02) (144, 5.69977387785911560059e-02) (145, -2.80804261565208435059e-02) (146, 2.67610475420951843262e-02) (147, 4.00451496243476867676e-02) (148, -2.55535691976547241211e-02) (149, -7.71594569087028503418e-02) (150, 5.94139173626899719238e-02) (151, 5.70451840758323669434e-02) (152, -6.10699579119682312012e-02) (153, -9.28477346897125244141e-02) (154, 9.49914753437042236328e-03) (155, 5.46903833746910095215e-02) (156, -1.36610418558120727539e-02) (157, -7.61139094829559326172e-02) (158, 5.93973770737648010254e-02) (159, -8.69099274277687072754e-02) (160, 1.39001384377479553223e-02) (161, -5.23257814347743988037e-02) (162, 5.63714578747749328613e-02) (163, 5.09366467595100402832e-02) (164, 9.96933653950691223145e-02) (165, -9.45523455739021301270e-02) (166, -2.32875943183898925781e-02) (167, 1.05380862951278686523e-02) (168, 4.17264178395271301270e-02) (169, -2.66160294413566589355e-02) (170, -1.21481865644454956055e-02) (171, -1.96801647543907165527e-02) (172, -7.01996013522148132324e-02) (173, -5.68312406539916992188e-02) (174, 2.01518312096595764160e-02) (175, 8.67981389164924621582e-02) (176, 1.50883346796035766602e-02) (177, -5.30871264636516571045e-02) (178, 2.68433019518852233887e-02) (179, 8.95347669720649719238e-02) (180, -3.02465856075286865234e-02) (181, -1.37427970767021179199e-02) (182, 4.65799644589424133301e-02) (183, 8.68345797061920166016e-03) (184, -6.59053027629852294922e-03) (185, -4.39209006726741790771e-02) (186, -3.66261526942253112793e-02) (187, 7.97484442591667175293e-02) (188, -2.00348049402236938477e-02) (189, -7.72287845611572265625e-02) (190, 9.28385183215141296387e-02) (191, 9.38653424382209777832e-02) (192, -2.95545607805252075195e-02) (193, 4.92099747061729431152e-02) (194, 4.48019728064537048340e-02) (195, -2.98611968755722045898e-02) (196, 5.46576455235481262207e-02) (197, -7.84856155514717102051e-02) (198, 8.06768909096717834473e-02) (199, -3.61595302820205688477e-03) (200, -5.10164350271224975586e-03) (201, -3.14712971448898315430e-02) (202, 7.67038837075233459473e-02) (203, 2.46987491846084594727e-02) (204, 1.16974562406539916992e-02) (205, -3.14428657293319702148e-03) (206, 1.14968866109848022461e-02) (207, -7.32142031192779541016e-02) (208, 4.37685921788215637207e-02) (209, -6.16598166525363922119e-02) (210, -8.36794376373291015625e-02) (211, -8.64779949188232421875e-02) (212, 2.45973840355873107910e-02) (213, 6.29005208611488342285e-02) (214, 2.22054570913314819336e-02) (215, -8.19931402802467346191e-02) (216, -8.10203850269317626953e-02) (217, 8.55793133378028869629e-02) (218, 9.77553054690361022949e-02) (219, -1.05518847703933715820e-03) (220, -9.16494727134704589844e-02) (221, 9.05938223004341125488e-02) (222, -7.18985497951507568359e-03) (223, -2.12040394544601440430e-02) (224, 3.98037955164909362793e-02) (225, -6.23878799378871917725e-02) (226, 4.89347651600837707520e-02) (227, -5.53856790065765380859e-03) (228, -4.08734977245330810547e-02) (229, 2.96116545796394348145e-02) (230, 9.08454731106758117676e-02) (231, 5.40248677134513854980e-02) (232, 9.81403663754463195801e-02) (233, 6.75493553280830383301e-02) (234, -2.12763920426368713379e-02) (235, 9.83782112598419189453e-03) (236, -3.55949252843856811523e-02) (237, 9.02205035090446472168e-02) (238, 3.66236194968223571777e-02) (239, -9.18263345956802368164e-02) (240, -7.14393183588981628418e-02) (241, 5.29441758990287780762e-02) (242, -7.83043354749679565430e-02) (243, 5.31580671668052673340e-02) (244, 1.58446878194808959961e-02) (245, 4.39011380076408386230e-02) (246, 7.11649283766746520996e-02) (247, 3.48243191838264465332e-02) (248, 2.94804349541664123535e-02) (249, 6.89202174544334411621e-02) (250, -6.62308782339096069336e-02) (251, 3.78309562802314758301e-02) (252, 5.95140382647514343262e-02) (253, 2.65792682766914367676e-02) (254, -8.33730697631835937500e-02) (255, -6.82182610034942626953e-04) (256, 6.41913786530494689941e-02) (257, 6.55616894364356994629e-02) (258, 9.37792435288429260254e-02) (259, -7.66821131110191345215e-02) (260, -4.82665747404098510742e-03) (261, 8.46247151494026184082e-02) (262, 7.73427560925483703613e-02) (263, -6.68630003929138183594e-03) (264, 5.21740987896919250488e-02) (265, -4.39336486160755157471e-02) (266, -9.68484804034233093262e-02) (267, -8.34208354353904724121e-02) (268, -5.37131540477275848389e-02) (269, 3.97751405835151672363e-02) (270, -7.52471759915351867676e-02) (271, -2.51524671912193298340e-02) (272, -7.28069245815277099609e-03) (273, -5.35515062510967254639e-02) (274, -7.19944089651107788086e-02) (275, -9.14359986782073974609e-02) (276, 9.03496220707893371582e-02) (277, 9.91705134510993957520e-02) (278, 4.33883145451545715332e-02) (279, 1.98300629854202270508e-02) (280, 6.80907443165779113770e-02) (281, 7.71574303507804870605e-02) (282, -4.23389747738838195801e-02) (283, 2.76047661900520324707e-02) (284, 3.73668968677520751953e-03) (285, -2.57120504975318908691e-02) (286, -7.30774104595184326172e-02) (287, -3.20719331502914428711e-02) (288, -6.01503551006317138672e-02) (289, -7.92981609702110290527e-02) (290, -8.75403732061386108398e-03) (291, 3.50229814648628234863e-02) (292, -9.46734398603439331055e-02) (293, -3.14112976193428039551e-02) (294, -7.16633126139640808105e-02) (295, 5.75006529688835144043e-02) (296, 2.46550589799880981445e-02) (297, -6.85117989778518676758e-02) (298, 7.40798190236091613770e-02) (299, 7.09419026970863342285e-02) (300, 7.12633505463600158691e-02) (301, 9.88326445221900939941e-02) (302, -5.42105697095394134521e-02) (303, -3.60173434019088745117e-02) (304, -5.47188669443130493164e-02) (305, -2.62049734592437744141e-02) (306, -2.74533405900001525879e-02) (307, -6.43692463636398315430e-02) (308, -2.70344540476799011230e-02) (309, -8.40650275349617004395e-02) (310, 5.54608181118965148926e-02) (311, -5.89437149465084075928e-02) (312, 9.30923894047737121582e-02) (313, -8.68781656026840209961e-02) (314, 6.86610564589500427246e-02) (315, -3.17090749740600585938e-03) (316, -1.25902071595191955566e-02) (317, 9.55836549401283264160e-02) (318, 6.47571757435798645020e-02) (319, 2.72594317793846130371e-02) (320, -8.37145149707794189453e-02) (321, -4.39968779683113098145e-02) (322, -3.77175770699977874756e-02) (323, -7.83879458904266357422e-02) (324, 2.45918259024620056152e-02) (325, -9.38089191913604736328e-03) (326, 7.91127160191535949707e-02) (327, -5.07531240582466125488e-02) (328, 2.21073180437088012695e-02) (329, 5.31925186514854431152e-02) (330, -7.98112228512763977051e-02) (331, -6.62933290004730224609e-03) (332, 5.20251616835594177246e-02) (333, -3.40217947959899902344e-02) (334, 5.73533251881599426270e-02) (335, 9.73062887787818908691e-02) (336, 3.97732332348823547363e-02) (337, -7.01000168919563293457e-02) (338, -6.70629590749740600586e-02) (339, -8.72612223029136657715e-02) (340, -5.41650466620922088623e-02) (341, 8.83978679776191711426e-02) (342, -4.62049357593059539795e-02) (343, -6.10726438462734222412e-02) (344, -9.84803065657615661621e-02) (345, -7.75438770651817321777e-02) (346, 3.57564464211463928223e-02) (347, -1.10705122351646423340e-02) (348, -8.19602310657501220703e-02) (349, 5.13613224029541015625e-04) (350, -8.38110744953155517578e-02) (351, -6.56747370958328247070e-02) (352, 5.65167292952537536621e-02) (353, -2.15286463499069213867e-02) (354, -4.40626852214336395264e-02) (355, -1.88914462924003601074e-02) (356, 6.90904632210731506348e-02) (357, -6.49499818682670593262e-02) (358, 3.03554311394691467285e-02) (359, -8.80222022533416748047e-03) (360, 8.82425382733345031738e-02) (361, 5.05442097783088684082e-02) (362, 8.45684483647346496582e-02) (363, 4.02676984667778015137e-02) (364, -8.34775865077972412109e-02) (365, 4.19217720627784729004e-02) (366, 3.75739857554435729980e-02) (367, 5.62956407666206359863e-02) (368, 7.18217566609382629395e-02) (369, 7.05110356211662292480e-02) (370, 6.90344199538230895996e-02) (371, -8.23432952165603637695e-02) (372, 5.89088872075080871582e-02) (373, -7.71705135703086853027e-02) (374, -4.34159412980079650879e-02) (375, 6.04285821318626403809e-02) (376, -5.47143928706645965576e-02) (377, 9.23405066132545471191e-02) (378, -5.06419241428375244141e-02) (379, -3.66746187210083007812e-02) (380, -7.14588910341262817383e-03) (381, -3.44529971480369567871e-02) (382, -2.34936177730560302734e-03) (383, -5.06291575729846954346e-02) (384, 4.40183505415916442871e-02) (385, 5.35879656672477722168e-02) (386, 3.04793938994407653809e-02) (387, 1.31088122725486755371e-02) (388, 8.86379703879356384277e-02) (389, -3.91651764512062072754e-02) (390, -9.56934094429016113281e-02) (391, 7.68805220723152160645e-02) (392, -8.86209681630134582520e-02) (393, 8.88750329613685607910e-02) (394, 1.71482115983963012695e-02) (395, -7.20985531806945800781e-02) (396, 3.07968035340309143066e-02) (397, -4.52778004109859466553e-02) (398, 8.41970965266227722168e-02) (399, 2.61855125427246093750e-03) (400, -7.47667700052261352539e-02) (0, 5.32315149903297424316e-02) (1, 2.02752575278282165527e-02) (2, 8.41421261429786682129e-02) (3, 7.60610029101371765137e-02) (4, 7.68593177199363708496e-02) (5, 4.45707067847251892090e-02) (6, -7.86533877253532409668e-02) (7, 6.91998228430747985840e-02) (8, 9.39287915825843811035e-02) (9, -1.53280049562454223633e-02) (10, -3.79460640251636505127e-02) (11, -4.05242107808589935303e-02) (12, 8.23226347565650939941e-02) (13, 1.14247798919677734375e-02) (14, -9.65058580040931701660e-02) (15, 3.59105840325355529785e-02) (16, -5.80958239734172821045e-02) (17, 1.66029557585716247559e-02) (18, 2.45485678315162658691e-02) (19, 2.73899734020233154297e-03) (20, 2.09095478057861328125e-02) (21, 1.42908096313476562500e-03) (22, 1.41180381178855895996e-02) (23, 9.78457927703857421875e-03) (24, -8.14227163791656494141e-02) (25, 4.20194938778877258301e-02) (26, -5.94186149537563323975e-02) (27, -2.67005115747451782227e-02) (28, 2.62165740132331848145e-02) (29, 4.31999489665031433105e-02) (30, -1.46728008985519409180e-03) (31, -2.05519050359725952148e-02) (32, -3.65247949957847595215e-02) (33, -1.73251628875732421875e-02) (34, -4.44908998906612396240e-02) (35, -5.96654787659645080566e-02) (36, -7.27544501423835754395e-02) (37, -2.31442898511886596680e-02) (38, -9.04656499624252319336e-02) (39, -7.88256675004959106445e-02) (40, 6.15277066826820373535e-02) (41, -2.84117087721824645996e-02) (42, -1.93498730659484863281e-02) (43, 4.38503399491310119629e-02) (44, 8.30130651593208312988e-02) (45, -1.58557295799255371094e-02) (46, -2.02390775084495544434e-02) (47, -7.50827491283416748047e-02) (48, -9.92527827620506286621e-02) (49, -9.56905186176300048828e-02) (50, 2.76562646031379699707e-02) (51, 2.16567665338516235352e-02) (52, 5.73855638504028320312e-03) (53, -5.82257099449634552002e-02) (54, -6.85586556792259216309e-02) (55, 2.43158489465713500977e-02) (56, 8.37937667965888977051e-02) (57, -2.79772728681564331055e-02) (58, 9.76153388619422912598e-02) (59, 1.00103616714477539062e-02) (60, -8.47773253917694091797e-02) (61, -3.85195016860961914062e-03) (62, 8.94584581255912780762e-02) (63, -2.13021263480186462402e-02) (64, 7.88228884339332580566e-02) (65, -5.50324395298957824707e-02) (66, 1.90323963761329650879e-02) (67, -9.39315631985664367676e-02) (68, 2.18232721090316772461e-02) (69, 2.85667404532432556152e-02) (70, -7.27572217583656311035e-02) (71, -1.66490226984024047852e-02) (72, -9.98449623584747314453e-02) (73, 7.89290666580200195312e-03) (74, -7.27986842393875122070e-02) (75, 8.31680968403816223145e-02) (76, 9.20371785759925842285e-02) (77, 6.96222484111785888672e-03) (78, -9.19146463274955749512e-02) (79, 9.27843973040580749512e-02) (80, 1.12717151641845703125e-02) (81, 3.57416048645973205566e-02) (82, 1.44411548972129821777e-02) (83, -8.29897299408912658691e-02) (84, 7.75159075856208801270e-02) (85, 4.58825156092643737793e-02) (86, 4.13261130452156066895e-02) (87, 6.13096728920936584473e-02) (88, -8.20947587490081787109e-02) (89, 3.89414504170417785645e-02) (90, -2.86799669265747070312e-02) (91, -6.68720901012420654297e-02) (92, -6.49105012416839599609e-02) (93, -3.92215065658092498779e-02) (94, 1.18257850408554077148e-02) (95, -8.60876142978668212891e-02) (96, 5.74605166912078857422e-03) (97, -6.91418126225471496582e-02) (98, -8.00191685557365417480e-02) (99, -7.24306702613830566406e-02) (100, 5.94249442219734191895e-02) (101, -5.27763925492763519287e-02) (102, 1.09203085303306579590e-02) (103, 5.95799759030342102051e-02) (104, 5.51165118813514709473e-02) (105, 3.81216332316398620605e-02) (106, 4.27480861544609069824e-02) (107, 4.71536889672279357910e-02) (108, -5.49161434173583984375e-02) (109, 5.08334413170814514160e-02) (110, 3.99380847811698913574e-02) (111, 5.63555732369422912598e-02) (112, -1.34249553084373474121e-02) (113, -4.56207506358623504639e-02) (114, 7.33658447861671447754e-02) (115, -3.59090566635131835938e-02) (116, -9.97382476925849914551e-02) (117, 1.46919488906860351562e-02) (118, -7.45993852615356445312e-02) (119, -8.18330049514770507812e-02) (120, -4.63665984570980072021e-02) (121, -3.27935069799423217773e-03) (122, -4.87050898373126983643e-02) (123, -1.12770944833755493164e-02) (124, 5.74991479516029357910e-02) (125, 6.31207004189491271973e-02) (126, 2.63528525829315185547e-03) (127, -3.67548018693923950195e-02) (128, 9.39788892865180969238e-02) (129, 2.26161256432533264160e-02) (130, -9.18547809123992919922e-03) (131, 5.34038171172142028809e-02) (132, 6.98397234082221984863e-02) (133, -9.82651710510253906250e-02) (134, 1.29837840795516967773e-02) (135, 2.49562412500381469727e-02) (136, 3.98564562201499938965e-02) (137, -4.42681312561035156250e-02) (138, -2.78900712728500366211e-02) (139, 8.49403217434883117676e-02) (140, -9.34346988797187805176e-02) (141, -8.79519879817962646484e-02) (142, 4.12958934903144836426e-02) (143, -6.85965269804000854492e-03) (144, -3.35727408528327941895e-02) (145, 1.46617144346237182617e-02) (146, 5.72312846779823303223e-02) (147, -3.33109796047210693359e-02) (148, -7.06463232636451721191e-02) (149, 8.26318934559822082520e-02) (150, -1.51439830660820007324e-02) (151, -1.70129165053367614746e-02) (152, -2.06474512815475463867e-02) (153, 3.61509248614311218262e-02) (154, 7.17099830508232116699e-02) (155, -6.31483048200607299805e-02) (156, -7.28376209735870361328e-04) (157, -2.56547257304191589355e-02) (158, 9.68798995018005371094e-05) (159, -6.74949586391448974609e-03) (160, 9.69613865017890930176e-02) (161, 9.09114107489585876465e-02) (162, -5.33456765115261077881e-02) (163, 6.68011233210563659668e-02) (164, 9.26462486386299133301e-02) (165, 5.96381202340126037598e-02) (166, -8.24264436960220336914e-03) (167, 3.25027033686637878418e-02) (168, -8.46300199627876281738e-02) (169, 6.38672932982444763184e-02) (170, 1.74430161714553833008e-02) (171, -7.80647099018096923828e-02) (172, 7.59152993559837341309e-02) (173, -4.12611030042171478271e-02) (174, 1.50756388902664184570e-02) (175, -5.76574318110942840576e-02) (176, 7.34006240963935852051e-02) (177, -2.76930779218673706055e-02) (178, 9.03157889842987060547e-03) (179, -9.72457006573677062988e-02) (180, -4.50611822307109832764e-02) (181, 9.38876047730445861816e-02) (182, -1.42586231231689453125e-02) (183, 3.42913791537284851074e-02) (184, 3.00385281443595886230e-02) (185, -4.25486378371715545654e-02) (186, 7.11430683732032775879e-02) (187, -7.06898570060729980469e-02) (188, 3.17966416478157043457e-02) (189, -2.87600532174110412598e-02) (190, 2.25606560707092285156e-02) (191, 2.87580117583274841309e-02) (192, -3.78486402332782745361e-02) (193, 6.92149773240089416504e-02) (194, -4.44085896015167236328e-03) (195, -4.52024005353450775146e-02) (196, 2.88530960679054260254e-02) (197, 8.73165056109428405762e-02) (198, 8.73003080487251281738e-02) (199, 4.42230775952339172363e-02) (200, 5.11837825179100036621e-02) (201, 4.74331527948379516602e-03) (202, 6.61583617329597473145e-02) (203, 2.70990952849388122559e-02) (204, 6.34822174906730651855e-02) (205, -1.87660008668899536133e-02) (206, 6.94416686892509460449e-02) (207, 3.68828251957893371582e-02) (208, 5.35409227013587951660e-02) (209, -2.15267539024353027344e-02) (210, 3.96371409296989440918e-02) (211, -9.15202647447586059570e-02) (212, -2.76391580700874328613e-02) (213, -7.46214836835861206055e-02) (214, 4.27711084485054016113e-02) (215, -9.76006314158439636230e-02) (216, -1.71701312065124511719e-02) (217, 1.39141678810119628906e-02) (218, -6.82904869318008422852e-02) (219, -8.53734984993934631348e-02) (220, 8.51541236042976379395e-02) (221, 5.42701706290245056152e-02) (222, 4.33845147490501403809e-02) (223, -5.26945218443870544434e-02) (224, 2.34851464629173278809e-02) (225, -6.10563457012176513672e-02) (226, 2.10309028625488281250e-03) (227, -4.76617515087127685547e-02) (228, -7.37398490309715270996e-02) (229, -1.05966106057167053223e-02) (230, 9.65613350272178649902e-02) (231, 7.74439349770545959473e-02) (232, 9.41467061638832092285e-02) (233, 6.27197101712226867676e-02) (234, 4.54302877187728881836e-03) (235, 5.76289370656013488770e-02) (236, -5.60462996363639831543e-02) (237, -2.60153114795684814453e-02) (238, -5.48823922872543334961e-03) (239, 9.74946096539497375488e-02) (240, 5.24579361081123352051e-02) (241, -6.58511072397232055664e-02) (242, -9.40256491303443908691e-02) (243, -7.51812234520912170410e-02) (244, -4.04725968837738037109e-02) (245, 4.87454608082771301270e-02) (246, -7.27818533778190612793e-02) (247, 4.23572733998298645020e-02) (248, -3.73403728008270263672e-02) (249, -4.10723388195037841797e-02) (250, 5.69837763905525207520e-02) (251, -5.21862506866455078125e-02) (252, -8.68021696805953979492e-02) (253, 3.68297100067138671875e-04) (254, -4.88077104091644287109e-03) (255, 3.66829857230186462402e-02) (256, 3.93119528889656066895e-02) (257, 9.72223207354545593262e-02) (258, 8.90212282538414001465e-02) (259, 6.55721053481101989746e-02) (260, -1.33742988109588623047e-02) (261, 8.55825617909431457520e-02) (262, 4.30160388350486755371e-02) (263, -1.92275866866111755371e-02) (264, 4.83022704720497131348e-02) (265, -5.24409376084804534912e-02) (266, -6.15986660122871398926e-02) (267, 9.22559574246406555176e-02) (268, 2.15437561273574829102e-02) (269, 3.29130962491035461426e-02) (270, 8.97505953907966613770e-02) (271, -2.59983092546463012695e-02) (272, 6.70619830489158630371e-02) (273, 9.57249477505683898926e-02) (274, -1.17953121662139892578e-03) (275, -7.34106078743934631348e-02) (276, 4.44703921675682067871e-02) (277, 2.60386094450950622559e-02) (278, 6.89466670155525207520e-02) (279, -9.28699746727943420410e-02) (280, 8.49662795662879943848e-02) (281, 2.59304568171501159668e-02) (282, -4.50562238693237304688e-02) (283, 9.81641039252281188965e-02) (284, -7.37012550234794616699e-02) (285, 5.00630065798759460449e-02) (286, 3.48470881581306457520e-02) (287, 6.56106993556022644043e-02) (288, 4.72853258252143859863e-02) (289, 2.38683372735977172852e-02) (290, 3.11828032135963439941e-02) (291, -6.60889893770217895508e-02) (292, 9.45089757442474365234e-03) (293, -2.58011668920516967773e-02) (294, 1.46834254264831542969e-02) (295, -4.22468446195125579834e-02) (296, 2.17579007148742675781e-02) (297, 5.30847683548927307129e-02) (298, -4.99908737838268280029e-02) (299, -5.66983483731746673584e-02) (300, -1.40021443367004394531e-02) (301, -6.02402947843074798584e-02) (302, 1.73033326864242553711e-02) (303, -4.69401553273200988770e-02) (304, -6.45153522491455078125e-02) (305, -8.38762000203132629395e-02) (306, -2.03507617115974426270e-02) (307, 7.99550488591194152832e-02) (308, 4.21624258160591125488e-02) (309, -5.14040924608707427979e-02) (310, 8.70850756764411926270e-02) (311, 2.71286889910697937012e-02) (312, 7.45263621211051940918e-02) (313, -5.79711534082889556885e-02) (314, 2.52928063273429870605e-02) (315, -9.91749018430709838867e-02) (316, 9.20918509364128112793e-02) (317, -3.98601070046424865723e-02) (318, 6.64357915520668029785e-02) (319, 3.93771603703498840332e-02) (320, 8.40082243084907531738e-02) (321, -2.38141417503356933594e-03) (322, 7.32881799340248107910e-02) (323, -6.54087960720062255859e-03) (324, 7.18174204230308532715e-02) (325, -1.20283886790275573730e-02) (326, 5.12122735381126403809e-02) (327, -6.42468035221099853516e-03) (328, -5.89436255395412445068e-02) (329, -9.87785980105400085449e-02) (330, 3.68769839406013488770e-02) (331, 2.70542278885841369629e-02) (332, -5.90188913047313690186e-02) (333, -4.58196885883808135986e-02) (334, 8.01140740513801574707e-02) (335, -2.35342457890510559082e-02) (336, -2.96958833932876586914e-02) (337, -4.02366891503334045410e-02) (338, -4.35791984200477600098e-02) (339, -8.75334739685058593750e-02) (340, 8.35921615362167358398e-03) (341, -5.64941279590129852295e-02) (342, 3.95952239632606506348e-02) (343, -1.71144232153892517090e-02) (344, -1.44652798771858215332e-02) (345, -3.51119786500930786133e-02) (346, -1.62893310189247131348e-02) (347, -2.23734304308891296387e-02) (348, 2.50279232859611511230e-02) (349, -4.98535409569740295410e-02) (350, -8.29962641000747680664e-02) (351, 9.03613865375518798828e-03) (352, 4.77650538086891174316e-02) (353, 9.02919247746467590332e-02) (354, -9.75047424435615539551e-02) (355, 1.95824727416038513184e-02) (356, -2.17364728450775146484e-02) (357, 5.37075474858283996582e-02) (358, -8.68422091007232666016e-02) (359, 1.93199068307876586914e-02) (360, 5.49289360642433166504e-02) (361, 5.00347688794136047363e-02) (362, -5.36258667707443237305e-02) (363, 9.59100499749183654785e-02) (364, -9.57849174737930297852e-02) (365, -7.35117867588996887207e-02) (366, -2.76241898536682128906e-02) (367, -2.54807993769645690918e-02) (368, -1.37484744191169738770e-02) (369, 2.87966206669807434082e-02) (370, -1.30142718553543090820e-02) (371, 9.46107581257820129395e-02) (372, 7.23024830222129821777e-02) (373, -7.34190493822097778320e-02) (374, -2.25036740303039550781e-02) (375, -4.21627946197986602783e-02) (376, -8.53102654218673706055e-03) (377, 6.12070038914680480957e-02) (378, 3.54637727141380310059e-02) (379, -8.35031121969223022461e-02) (380, -8.86465460062026977539e-02) (381, 5.24675026535987854004e-02) (382, 2.55330279469490051270e-02) (383, 5.91185167431831359863e-02) (384, 4.27594259381294250488e-02) (385, 2.80282720923423767090e-02) (386, -2.12990194559097290039e-02) (387, -7.89770483970642089844e-02) (388, -1.82641893625259399414e-02) (389, -8.14122706651687622070e-03) (390, 4.03428599238395690918e-02) (391, -6.33352473378181457520e-02) (392, -5.81064596772193908691e-02) (393, 8.67169871926307678223e-02) (394, -6.74251914024353027344e-02) (395, -5.38913756608963012695e-02) (396, -8.67948010563850402832e-02) (397, 4.95062023401260375977e-03) (398, 2.06278190016746520996e-02) (399, -5.43281435966491699219e-04) (400, -6.62527680397033691406e-02) (0, -9.23864468932151794434e-02) (1, -5.93252480030059814453e-03) (2, -9.39502865076065063477e-02) (3, -6.58054947853088378906e-02) (4, 7.15637877583503723145e-02) (5, -3.61130759119987487793e-02) (6, 2.56634876132011413574e-02) (7, 3.27707901597023010254e-02) (8, 9.93506982922554016113e-02) (9, 4.21603545546531677246e-02) (10, 4.41242530941963195801e-02) (11, 5.18181994557380676270e-02) (12, -3.23066189885139465332e-02) (13, 3.24275344610214233398e-03) (14, -5.42237609624862670898e-03) (15, 9.57216694951057434082e-02) (16, 8.19437280297279357910e-02) (17, 1.56005769968032836914e-02) (18, -2.25425213575363159180e-02) (19, -2.61974930763244628906e-02) (20, -4.40565720200538635254e-02) (21, 1.41222327947616577148e-02) (22, 1.56960487365722656250e-02) (23, -5.73395900428295135498e-02) (24, 4.66970428824424743652e-02) (25, 6.18046596646308898926e-02) (26, -4.41343896090984344482e-02) (27, -4.83523420989513397217e-02) (28, -1.75675079226493835449e-02) (29, 5.53223416209220886230e-02) (30, -1.46051123738288879395e-02) (31, -9.95395332574844360352e-03) (32, -5.06101958453655242920e-02) (33, -8.55539739131927490234e-03) (34, 2.42405533790588378906e-02) (35, -7.90463984012603759766e-02) (36, 5.53315356373786926270e-02) (37, -5.00959679484367370605e-02) (38, 5.37243857979774475098e-02) (39, 5.46822175383567810059e-02) (40, 9.20643880963325500488e-02) (41, -2.15136259794235229492e-03) (42, 6.50042295455932617188e-03) (43, -4.02422212064266204834e-02) (44, -9.89086106419563293457e-02) (45, -9.89219546318054199219e-02) (46, -4.45205569267272949219e-02) (47, 8.30351188778877258301e-02) (48, 1.66786164045333862305e-02) (49, 3.29369232058525085449e-02) (50, -4.31623719632625579834e-02) (51, 7.26220533251762390137e-02) (52, -5.29408454895019531250e-02) (53, 7.25336745381355285645e-02) (54, -8.47175419330596923828e-02) (55, 9.37562063336372375488e-02) (56, 3.43383476138114929199e-02) (57, -2.88519337773323059082e-02) (58, -5.45961447060108184814e-02) (59, -8.32291692495346069336e-02) (60, -7.35295936465263366699e-02) (61, 3.07987406849861145020e-02) (62, 6.81688636541366577148e-03) (63, -2.41397842764854431152e-02) (64, -7.77566507458686828613e-02) (65, -6.89425617456436157227e-02) (66, -3.18618863821029663086e-03) (67, 7.75748714804649353027e-02) (68, -1.90385282039642333984e-02) (69, -4.94618006050586700439e-02) (70, 3.22571024298667907715e-02) (71, -2.69741266965866088867e-02) (72, 4.83868345618247985840e-02) (73, -6.12424798309803009033e-02) (74, 3.27836498618125915527e-02) (75, 4.94782403111457824707e-02) (76, -6.01644366979598999023e-02) (77, 8.82631018757820129395e-02) (78, 3.25133576989173889160e-02) (79, 5.65141811966896057129e-02) (80, 2.12000161409378051758e-02) (81, 8.93509909510612487793e-02) (82, 2.91362330317497253418e-02) (83, 6.82591721415519714355e-02) (84, 6.18846490979194641113e-02) (85, 4.44187000393867492676e-02) (86, 6.20153620839118957520e-02) (87, -3.77700477838516235352e-03) (88, -8.44332426786422729492e-02) (89, -9.25807803869247436523e-02) (90, 1.29938274621963500977e-02) (91, -5.79628385603427886963e-02) (92, 3.82179692387580871582e-02) (93, -8.01892876625061035156e-02) (94, 1.78973823785781860352e-02) (95, 6.04613199830055236816e-02) (96, -4.91318479180335998535e-02) (97, -8.52888152003288269043e-02) (98, 3.80361899733543395996e-02) (99, 3.18296328186988830566e-02) (100, -3.47506105899810791016e-02) (101, -2.97067090868949890137e-02) (102, -9.51445028185844421387e-02) (103, -8.63637700676918029785e-02) (104, 9.05080884695053100586e-03) (105, 3.76391485333442687988e-02) (106, 6.31144717335700988770e-02) (107, 4.88863661885261535645e-02) (108, 2.59022340178489685059e-02) (109, -4.37218695878982543945e-03) (110, 5.40055334568023681641e-03) (111, -5.28977476060390472412e-02) (112, -1.50212049484252929688e-02) (113, -6.54632151126861572266e-02) (114, -8.46385806798934936523e-02) (115, -5.31365536153316497803e-02) (116, 7.89554789662361145020e-02) (117, 7.73767903447151184082e-02) (118, 4.30864468216896057129e-02) (119, 9.45222303271293640137e-02) (120, 8.47960039973258972168e-02) (121, -4.39197234809398651123e-02) (122, -6.34406059980392456055e-02) (123, 2.30139642953872680664e-02) (124, -2.41090133786201477051e-02) (125, 5.44567778706550598145e-02) (126, -1.65247172117233276367e-02) (127, 2.67591401934623718262e-02) (128, 6.91679641604423522949e-02) (129, -7.84885287284851074219e-02) (130, -4.14112322032451629639e-02) (131, -6.55826553702354431152e-02) (132, -8.19523632526397705078e-03) (133, -3.65557298064231872559e-02) (134, -5.19464276731014251709e-02) (135, -9.91444364190101623535e-02) (136, -9.89165902137756347656e-02) (137, -8.88319686055183410645e-02) (138, 4.97419312596321105957e-02) (139, 2.69856527447700500488e-02) (140, 6.79584592580795288086e-03) (141, -4.48575094342231750488e-02) (142, 7.40879103541374206543e-02) (143, 9.17746499180793762207e-02) (144, -1.03207230567932128906e-02) (145, 8.94493237137794494629e-02) (146, -6.13619089126586914062e-02) (147, -3.13652530312538146973e-02) (148, 6.68261125683784484863e-02) (149, 8.17245319485664367676e-02) (150, -3.68430167436599731445e-02) (151, 5.16221001744270324707e-02) (152, -6.21951930224895477295e-02) (153, -2.83628702163696289062e-04) (154, -2.53639221191406250000e-02) (155, 1.36957988142967224121e-02) (156, -4.58268634974956512451e-02) (157, 5.81113621592521667480e-02) (158, -5.95450662076473236084e-02) (159, -7.66589120030403137207e-02) (160, 7.96228274703025817871e-02) (161, -9.56296920776367187500e-04) (162, -4.22415621578693389893e-02) (163, -2.85724177956581115723e-02) (164, 6.24879673123359680176e-02) (165, 5.81201165914535522461e-03) (166, -2.77168527245521545410e-02) (167, 6.35713860392570495605e-02) (168, 1.69800519943237304688e-02) (169, -7.79749155044555664062e-02) (170, -9.44297015666961669922e-03) (171, -7.62241035699844360352e-02) (172, -2.28324159979820251465e-02) (173, -3.53550612926483154297e-02) (174, -8.44494625926017761230e-02) (175, 6.68468549847602844238e-02) (176, -4.59057390689849853516e-02) (177, -4.58113662898540496826e-02) (178, -6.45183920860290527344e-02) (179, -7.90796354413032531738e-02) (180, -6.40868395566940307617e-02) (181, -1.36141479015350341797e-03) (182, 7.25424811244010925293e-02) (183, -2.62820273637771606445e-02) (184, 9.83549579977989196777e-02) (185, -5.28214499354362487793e-02) (186, 8.74137803912162780762e-02) (187, -4.74719069898128509521e-02) (188, -9.47100967168807983398e-02) (189, -7.21312910318374633789e-02) (190, -2.41308063268661499023e-02) (191, 8.49127247929573059082e-02) (192, 2.69124135375022888184e-02) (193, 3.36276367306709289551e-02) (194, -4.36596833169460296631e-02) (195, -1.05996206402778625488e-02) (196, -6.05603642761707305908e-02) (197, 2.86234691739082336426e-02) (198, -4.70282323658466339111e-02) (199, 5.64196780323982238770e-02) (200, 5.06485626101493835449e-02) (201, 4.35288026928901672363e-02) (202, 8.01955834031105041504e-02) (203, -7.21838623285293579102e-02) (204, -9.18262600898742675781e-02) (205, 9.57461073994636535645e-02) (206, 9.46630015969276428223e-02) (207, -3.77320013940334320068e-02) (208, -5.00652529299259185791e-02) (209, -6.98553845286369323730e-02) (210, -1.68116316199302673340e-02) (211, -1.41520872712135314941e-02) (212, 2.87832096219062805176e-02) (213, -4.42691557109355926514e-02) (214, 5.95658943057060241699e-02) (215, 2.71381810307502746582e-02) (216, 2.90939956903457641602e-03) (217, 4.69796732068061828613e-02) (218, 7.96662643551826477051e-02) (219, 8.19929689168930053711e-03) (220, 7.48483613133430480957e-02) (221, -4.44645471870899200439e-02) (222, -6.88796490430831909180e-03) (223, 1.76078081130981445312e-03) (224, 8.91630724072456359863e-02) (225, 4.94523569941520690918e-02) (226, 9.11611691117286682129e-02) (227, -7.13972896337509155273e-02) (228, -2.19241827726364135742e-02) (229, -5.58670721948146820068e-02) (230, 8.50223973393440246582e-02) (231, -7.12756291031837463379e-02) (232, 8.76617357134819030762e-02) (233, 6.52179792523384094238e-02) (234, -4.34594862163066864014e-02) (235, 9.58354696631431579590e-02) (236, 6.09640851616859436035e-02) (237, -4.87964823842048645020e-02) (238, -4.18965332210063934326e-02) (239, -8.91011655330657958984e-02) (240, -1.86518654227256774902e-02) (241, 4.12918403744697570801e-02) (242, -3.25325131416320800781e-03) (243, -8.98686572909355163574e-02) (244, 9.70226749777793884277e-02) (245, -4.36873622238636016846e-02) (246, 3.72695103287696838379e-02) (247, -6.79343938827514648438e-05) (248, -9.67077016830444335938e-02) (249, 1.69357806444168090820e-02) (250, -9.18686315417289733887e-02) (251, 7.81406834721565246582e-02) (252, 7.24712237715721130371e-02) (253, 1.24339759349822998047e-03) (254, -2.00985446572303771973e-02) (255, 6.16343095898628234863e-02) (256, -4.93042469024658203125e-02) (257, -2.89373844861984252930e-02) (258, 9.02370288968086242676e-02) (259, 2.87715867161750793457e-02) (260, 1.51955485343933105469e-02) (261, 7.52594098448753356934e-02) (262, 5.74959591031074523926e-02) (263, 2.85728275775909423828e-03) (264, 4.04774025082588195801e-02) (265, -8.59635397791862487793e-02) (266, -1.30725651979446411133e-03) (267, 1.44147872924804687500e-03) (268, -3.47600206732749938965e-02) (269, 5.67962154746055603027e-02) (270, 1.23403221368789672852e-02) (271, 4.65881153941154479980e-02) (272, -1.91195309162139892578e-03) (273, -9.09129381179809570312e-02) (274, 5.67194595932960510254e-02) (275, -4.88928705453872680664e-03) (276, -3.46002951264381408691e-02) (277, -6.01103156805038452148e-03) (278, 9.50427874922752380371e-02) (279, -3.13079953193664550781e-02) (280, -8.90752598643302917480e-02) (281, -9.68258455395698547363e-02) (282, -5.31673207879066467285e-02) (283, 8.33959653973579406738e-02) (284, 4.41756099462509155273e-03) (285, 2.67341360449790954590e-02) (286, 4.50302734971046447754e-02) (287, 5.51133230328559875488e-02) (288, 9.77967455983161926270e-02) (289, 3.52673009037971496582e-02) (290, -1.61151140928268432617e-02) (291, 1.29923000931739807129e-02) (292, 1.05267018079757690430e-02) (293, -5.86191639304161071777e-02) (294, -8.41504186391830444336e-02) (295, -4.89959008991718292236e-02) (296, -4.45827022194862365723e-02) (297, 1.45423263311386108398e-02) (298, 5.24455830454826354980e-02) (299, 2.06572785973548889160e-02) (300, -2.86614596843719482422e-02) (301, -3.52141112089157104492e-02) (302, -3.27546074986457824707e-02) (303, 6.94265887141227722168e-02) (304, -2.61270478367805480957e-02) (305, -7.60351493954658508301e-02) (306, -3.54626998305320739746e-02) (307, 3.92726734280586242676e-02) (308, 1.79538130760192871094e-02) (309, -4.04199138283729553223e-02) (310, -9.20353308320045471191e-02) (311, 2.88785621523857116699e-02) (312, -3.72457578778266906738e-02) (313, -4.52026501297950744629e-02) (314, 1.22745260596275329590e-02) (315, 6.71718046069145202637e-02) (316, 8.15314725041389465332e-02) (317, -4.26952056586742401123e-02) (318, 2.22851186990737915039e-02) (319, 7.93282464146614074707e-02) (320, 9.25721004605293273926e-02) (321, -9.38299894332885742188e-02) (322, -7.67946243286132812500e-03) (323, 3.09880077838897705078e-03) (324, -5.24491518735885620117e-02) (325, 8.17011296749114990234e-03) (326, 5.41029050946235656738e-02) (327, 2.96814739704132080078e-03) (328, -7.72875547409057617188e-02) (329, 6.54846429824829101562e-03) (330, -7.63745754957199096680e-02) (331, -5.94901293516159057617e-03) (332, 7.13343694806098937988e-02) (333, -9.12918150424957275391e-03) (334, -3.65224331617355346680e-02) (335, -5.47926835715770721436e-02) (336, 1.48356705904006958008e-02) (337, 2.80148759484291076660e-02) (338, 8.44799801707267761230e-02) (339, -6.72105252742767333984e-02) (340, 8.75949636101722717285e-02) (341, 9.24446508288383483887e-02) (342, 6.16680458188056945801e-02) (343, -4.96507994830608367920e-02) (344, -5.27580045163631439209e-02) (345, -2.60574445128440856934e-02) (346, -8.24790000915527343750e-02) (347, -7.12265223264694213867e-02) (348, 3.12473550438880920410e-02) (349, 3.98061349987983703613e-02) (350, -9.18982923030853271484e-02) (351, 2.38194316625595092773e-02) (352, 4.59761396050453186035e-02) (353, 4.22254204750061035156e-04) (354, -7.30817690491676330566e-02) (355, 9.35269817709922790527e-02) (356, -9.14076343178749084473e-02) (357, 8.10211375355720520020e-02) (358, -3.50487232208251953125e-03) (359, -6.86951875686645507812e-02) (360, 