FANN_FLO_2.1
num_layers=3
learning_rate=0.001000
connection_rate=1.000000
network_type=0
learning_momentum=0.000000
training_algorithm=2
train_error_function=1
train_stop_function=0
cascade_output_change_fraction=0.010000
quickprop_decay=-0.000100
quickprop_mu=1.750000
rprop_increase_factor=1.200000
rprop_decrease_factor=0.500000
rprop_delta_min=0.000000
rprop_delta_max=50.000000
rprop_delta_zero=0.100000
cascade_output_stagnation_epochs=12
cascade_candidate_change_fraction=0.010000
cascade_candidate_stagnation_epochs=12
cascade_max_out_epochs=150
cascade_min_out_epochs=50
cascade_max_cand_epochs=150
cascade_min_cand_epochs=50
cascade_num_candidate_groups=2
bit_fail_limit=3.49999994039535522461e-01
cascade_candidate_limit=1.00000000000000000000e+03
cascade_weight_multiplier=4.00000005960464477539e-01
cascade_activation_functions_count=10
cascade_activation_functions=3 5 7 8 10 11 14 15 16 17 
cascade_activation_steepnesses_count=4
cascade_activation_steepnesses=2.50000000000000000000e-01 5.00000000000000000000e-01 7.50000000000000000000e-01 1.00000000000000000000e+00 
layer_sizes=401 3 3 
scale_included=0
neurons (num_inputs, activation_function, activation_steepness)=(0, 0, 0.00000000000000000000e+00) (0, 0, 0.00000000000000000000e+00) (0, 0, 0.00000000000000000000e+00) (0, 0, 0.00000000000000000000e+00) (0, 0, 0.00000000000000000000e+00) (0, 0, 0.00000000000000000000e+00) (0, 0, 0.00000000000000000000e+00) (0, 0, 0.00000000000000000000e+00) (0, 0, 0.00000000000000000000e+00) (0, 0, 0.00000000000000000000e+00) (0, 0, 0.00000000000000000000e+00) (0, 0, 0.00000000000000000000e+00) (0, 0, 0.00000000000000000000e+00) (0, 0, 0.00000000000000000000e+00) (0, 0, 0.00000000000000000000e+00) (0, 0, 0.00000000000000000000e+00) (0, 0, 0.00000000000000000000e+00) (0, 0, 0.00000000000000000000e+00) (0, 0, 0.00000000000000000000e+00) (0, 0, 0.00000000000000000000e+00) (0, 0, 0.00000000000000000000e+00) (0, 0, 0.00000000000000000000e+00) (0, 0, 0.00000000000000000000e+00) (0, 0, 0.00000000000000000000e+00) (0, 0, 0.00000000000000000000e+00) (0, 0, 0.00000000000000000000e+00) (0, 0, 0.00000000000000000000e+00) (0, 0, 0.00000000000000000000e+00) (0, 0, 0.00000000000000000000e+00) (0, 0, 0.00000000000000000000e+00) (0, 0, 0.00000000000000000000e+00) (0, 0, 0.00000000000000000000e+00) (0, 0, 0.00000000000000000000e+00) (0, 0, 0.00000000000000000000e+00) (0, 0, 0.00000000000000000000e+00) (0, 0, 0.00000000000000000000e+00) (0, 0, 0.00000000000000000000e+00) (0, 0, 0.00000000000000000000e+00) (0, 0, 0.00000000000000000000e+00) (0, 0, 0.00000000000000000000e+00) (0, 0, 0.00000000000000000000e+00) (0, 0, 0.00000000000000000000e+00) (0, 0, 0.00000000000000000000e+00) (0, 0, 0.00000000000000000000e+00) (0, 0, 0.00000000000000000000e+00) (0, 0, 0.00000000000000000000e+00) (0, 0, 0.00000000000000000000e+00) (0, 0, 0.00000000000000000000e+00) (0, 0, 0.00000000000000000000e+00) (0, 0, 0.00000000000000000000e+00) (0, 0, 0.00000000000000000000e+00) (0, 0, 0.00000000000000000000e+00) (0, 0, 0.00000000000000000000e+00) (0, 0, 0.00000000000000000000e+00) (0, 0, 0.00000000000000000000e+00) (0, 0, 0.00000000000000000000e+00) (0, 0, 0.00000000000000000000e+00) (0, 0, 0.00000000000000000000e+00) (0, 0, 0.00000000000000000000e+00) (0, 0, 0.00000000000000000000e+00) (0, 0, 0.00000000000000000000e+00) (0, 0, 0.00000000000000000000e+00) (0, 0, 0.00000000000000000000e+00) (0, 0, 0.00000000000000000000e+00) (0, 0, 0.00000000000000000000e+00) (0, 0, 0.00000000000000000000e+00) (0, 0, 0.00000000000000000000e+00) (0, 0, 0.00000000000000000000e+00) (0, 0, 0.00000000000000000000e+00) (0, 0, 0.00000000000000000000e+00) (0, 0, 0.00000000000000000000e+00) (0, 0, 0.00000000000000000000e+00) (0, 0, 0.00000000000000000000e+00) (0, 0, 0.00000000000000000000e+00) (0, 0, 0.00000000000000000000e+00) (0, 0, 0.00000000000000000000e+00) (0, 0, 0.00000000000000000000e+00) (0, 0, 0.00000000000000000000e+00) (0, 0, 0.00000000000000000000e+00) (0, 0, 0.00000000000000000000e+00) (0, 0, 0.00000000000000000000e+00) (0, 0, 0.00000000000000000000e+00) (0, 0, 0.00000000000000000000e+00) (0, 0, 0.00000000000000000000e+00) (0, 0, 0.00000000000000000000e+00) (0, 0, 0.00000000000000000000e+00) (0, 0, 0.00000000000000000000e+00) (0, 0, 0.00000000000000000000e+00) (0, 0, 0.00000000000000000000e+00) (0, 0, 0.00000000000000000000e+00) (0, 0, 0.00000000000000000000e+00) (0, 0, 0.00000000000000000000e+00) (0, 0, 0.00000000000000000000e+00) (0, 0, 0.00000000000000000000e+00) (0, 0, 0.00000000000000000000e+00) (0, 0, 0.00000000000000000000e+00) (0, 0, 0.00000000000000000000e+00) (0, 0, 0.00000000000000000000e+00) (0, 0, 0.00000000000000000000e+00) (0, 0, 0.00000000000000000000e+00) (0, 0, 0.00000000000000000000e+00) (0, 0, 0.00000000000000000000e+00) (0, 0, 0.00000000000000000000e+00) (0, 0, 0.00000000000000000000e+00) (0, 0, 0.00000000000000000000e+00) (0, 0, 0.00000000000000000000e+00) (0, 0, 0.00000000000000000000e+00) (0, 0, 0.00000000000000000000e+00) (0, 0, 0.00000000000000000000e+00) (0, 0, 0.00000000000000000000e+00) (0, 0, 0.00000000000000000000e+00) (0, 0, 0.00000000000000000000e+00) (0, 0, 0.00000000000000000000e+00) (0, 0, 0.00000000000000000000e+00) (0, 0, 0.00000000000000000000e+00) (0, 0, 0.00000000000000000000e+00) (0, 0, 0.00000000000000000000e+00) (0, 0, 0.00000000000000000000e+00) (0, 0, 0.00000000000000000000e+00) (0, 0, 0.00000000000000000000e+00) (0, 0, 0.00000000000000000000e+00) (0, 0, 0.00000000000000000000e+00) (0, 0, 0.00000000000000000000e+00) (0, 0, 0.00000000000000000000e+00) (0, 0, 0.00000000000000000000e+00) (0, 0, 0.00000000000000000000e+00) (0, 0, 0.00000000000000000000e+00) (0, 0, 0.00000000000000000000e+00) (0, 0, 0.00000000000000000000e+00) (0, 0, 0.00000000000000000000e+00) (0, 0, 0.00000000000000000000e+00) (0, 0, 0.00000000000000000000e+00) (0, 0, 0.00000000000000000000e+00) (0, 0, 0.00000000000000000000e+00) (0, 0, 0.00000000000000000000e+00) (0, 0, 0.00000000000000000000e+00) (0, 0, 0.00000000000000000000e+00) (0, 0, 0.00000000000000000000e+00) (0, 0, 0.00000000000000000000e+00) (0, 0, 0.00000000000000000000e+00) (0, 0, 0.00000000000000000000e+00) (0, 0, 0.00000000000000000000e+00) (0, 0, 0.00000000000000000000e+00) (0, 0, 0.00000000000000000000e+00) (0, 0, 0.00000000000000000000e+00) (0, 0, 0.00000000000000000000e+00) (0, 0, 0.00000000000000000000e+00) (0, 0, 0.00000000000000000000e+00) (0, 0, 0.00000000000000000000e+00) (0, 0, 0.00000000000000000000e+00) (0, 0, 0.00000000000000000000e+00) (0, 0, 0.00000000000000000000e+00) (0, 0, 0.00000000000000000000e+00) (0, 0, 0.00000000000000000000e+00) (0, 0, 0.00000000000000000000e+00) (0, 0, 0.00000000000000000000e+00) (0, 0, 0.00000000000000000000e+00) (0, 0, 0.00000000000000000000e+00) (0, 0, 0.00000000000000000000e+00) (0, 0, 0.00000000000000000000e+00) (0, 0, 0.00000000000000000000e+00) (0, 0, 0.00000000000000000000e+00) (0, 0, 0.00000000000000000000e+00) (0, 0, 0.00000000000000000000e+00) (0, 0, 0.00000000000000000000e+00) (0, 0, 0.00000000000000000000e+00) (0, 0, 0.00000000000000000000e+00) (0, 0, 0.00000000000000000000e+00) (0, 0, 0.00000000000000000000e+00) (0, 0, 0.00000000000000000000e+00) (0, 0, 0.00000000000000000000e+00) (0, 0, 0.00000000000000000000e+00) (0, 0, 0.00000000000000000000e+00) (0, 0, 0.00000000000000000000e+00) (0, 0, 0.00000000000000000000e+00) (0, 0, 0.00000000000000000000e+00) (0, 0, 0.00000000000000000000e+00) (0, 0, 0.00000000000000000000e+00) (0, 0, 0.00000000000000000000e+00) (0, 0, 0.00000000000000000000e+00) (0, 0, 0.00000000000000000000e+00) (0, 0, 0.00000000000000000000e+00) (0, 0, 0.00000000000000000000e+00) (0, 0, 0.00000000000000000000e+00) (0, 0, 0.00000000000000000000e+00) (0, 0, 0.00000000000000000000e+00) (0, 0, 0.00000000000000000000e+00) (0, 0, 0.00000000000000000000e+00) (0, 0, 0.00000000000000000000e+00) (0, 0, 0.00000000000000000000e+00) (0, 0, 0.00000000000000000000e+00) (0, 0, 0.00000000000000000000e+00) (0, 0, 0.00000000000000000000e+00) (0, 0, 0.00000000000000000000e+00) (0, 0, 0.00000000000000000000e+00) (0, 0, 0.00000000000000000000e+00) (0, 0, 0.00000000000000000000e+00) (0, 0, 0.00000000000000000000e+00) (0, 0, 0.00000000000000000000e+00) (0, 0, 0.00000000000000000000e+00) (0, 0, 0.00000000000000000000e+00) (0, 0, 0.00000000000000000000e+00) (0, 0, 0.00000000000000000000e+00) (0, 0, 0.00000000000000000000e+00) (0, 0, 0.00000000000000000000e+00) (0, 0, 0.00000000000000000000e+00) (0, 0, 0.00000000000000000000e+00) (0, 0, 0.00000000000000000000e+00) (0, 0, 0.00000000000000000000e+00) (0, 0, 0.00000000000000000000e+00) (0, 0, 0.00000000000000000000e+00) (0, 0, 0.00000000000000000000e+00) (0, 0, 0.00000000000000000000e+00) (0, 0, 0.00000000000000000000e+00) (0, 0, 0.00000000000000000000e+00) (0, 0, 0.00000000000000000000e+00) (0, 0, 0.00000000000000000000e+00) (0, 0, 0.00000000000000000000e+00) (0, 0, 0.00000000000000000000e+00) (0, 0, 0.00000000000000000000e+00) (0, 0, 0.00000000000000000000e+00) (0, 0, 0.00000000000000000000e+00) (0, 0, 0.00000000000000000000e+00) (0, 0, 0.00000000000000000000e+00) (0, 0, 0.00000000000000000000e+00) (0, 0, 0.00000000000000000000e+00) (0, 0, 0.00000000000000000000e+00) (0, 0, 0.00000000000000000000e+00) (0, 0, 0.00000000000000000000e+00) (0, 0, 0.00000000000000000000e+00) (0, 0, 0.00000000000000000000e+00) (0, 0, 0.00000000000000000000e+00) (0, 0, 0.00000000000000000000e+00) (0, 0, 0.00000000000000000000e+00) (0, 0, 0.00000000000000000000e+00) (0, 0, 0.00000000000000000000e+00) (0, 0, 0.00000000000000000000e+00) (0, 0, 0.00000000000000000000e+00) (0, 0, 0.00000000000000000000e+00) (0, 0, 0.00000000000000000000e+00) (0, 0, 0.00000000000000000000e+00) (0, 0, 0.00000000000000000000e+00) (0, 0, 0.00000000000000000000e+00) (0, 0, 0.00000000000000000000e+00) (0, 0, 0.00000000000000000000e+00) (0, 0, 0.00000000000000000000e+00) (0, 0, 0.00000000000000000000e+00) (0, 0, 0.00000000000000000000e+00) (0, 0, 0.00000000000000000000e+00) (0, 0, 0.00000000000000000000e+00) (0, 0, 0.00000000000000000000e+00) (0, 0, 0.00000000000000000000e+00) (0, 0, 0.00000000000000000000e+00) (0, 0, 0.00000000000000000000e+00) (0, 0, 0.00000000000000000000e+00) (0, 0, 0.00000000000000000000e+00) (0, 0, 0.00000000000000000000e+00) (0, 0, 0.00000000000000000000e+00) (0, 0, 0.00000000000000000000e+00) (0, 0, 0.00000000000000000000e+00) (0, 0, 0.00000000000000000000e+00) (0, 0, 0.00000000000000000000e+00) (0, 0, 0.00000000000000000000e+00) (0, 0, 0.00000000000000000000e+00) (0, 0, 0.00000000000000000000e+00) (0, 0, 0.00000000000000000000e+00) (0, 0, 0.00000000000000000000e+00) (0, 0, 0.00000000000000000000e+00) (0, 0, 0.00000000000000000000e+00) (0, 0, 0.00000000000000000000e+00) (0, 0, 0.00000000000000000000e+00) (0, 0, 0.00000000000000000000e+00) (0, 0, 0.00000000000000000000e+00) (0, 0, 0.00000000000000000000e+00) (0, 0, 0.00000000000000000000e+00) (0, 0, 0.00000000000000000000e+00) (0, 0, 0.00000000000000000000e+00) (0, 0, 0.00000000000000000000e+00) (0, 0, 0.00000000000000000000e+00) (0, 0, 0.00000000000000000000e+00) (0, 0, 0.00000000000000000000e+00) (0, 0, 0.00000000000000000000e+00) (0, 0, 0.00000000000000000000e+00) (0, 0, 0.00000000000000000000e+00) (0, 0, 0.00000000000000000000e+00) (0, 0, 0.00000000000000000000e+00) (0, 0, 0.00000000000000000000e+00) (0, 0, 0.00000000000000000000e+00) (0, 0, 0.00000000000000000000e+00) (0, 0, 0.00000000000000000000e+00) (0, 0, 0.00000000000000000000e+00) (0, 0, 0.00000000000000000000e+00) (0, 0, 0.00000000000000000000e+00) (0, 0, 0.00000000000000000000e+00) (0, 0, 0.00000000000000000000e+00) (0, 0, 0.00000000000000000000e+00) (0, 0, 0.00000000000000000000e+00) (0, 0, 0.00000000000000000000e+00) (0, 0, 0.00000000000000000000e+00) (0, 0, 0.00000000000000000000e+00) (0, 0, 0.00000000000000000000e+00) (0, 0, 0.00000000000000000000e+00) (0, 0, 0.00000000000000000000e+00) (0, 0, 0.00000000000000000000e+00) (0, 0, 0.00000000000000000000e+00) (0, 0, 0.00000000000000000000e+00) (0, 0, 0.00000000000000000000e+00) (0, 0, 0.00000000000000000000e+00) (0, 0, 0.00000000000000000000e+00) (0, 0, 0.00000000000000000000e+00) (0, 0, 0.00000000000000000000e+00) (0, 0, 0.00000000000000000000e+00) (0, 0, 0.00000000000000000000e+00) (0, 0, 0.00000000000000000000e+00) (0, 0, 0.00000000000000000000e+00) (0, 0, 0.00000000000000000000e+00) (0, 0, 0.00000000000000000000e+00) (0, 0, 0.00000000000000000000e+00) (0, 0, 0.00000000000000000000e+00) (0, 0, 0.00000000000000000000e+00) (0, 0, 0.00000000000000000000e+00) (0, 0, 0.00000000000000000000e+00) (0, 0, 0.00000000000000000000e+00) (0, 0, 0.00000000000000000000e+00) (0, 0, 0.00000000000000000000e+00) (0, 0, 0.00000000000000000000e+00) (0, 0, 0.00000000000000000000e+00) (0, 0, 0.00000000000000000000e+00) (0, 0, 0.00000000000000000000e+00) (0, 0, 0.00000000000000000000e+00) (0, 0, 0.00000000000000000000e+00) (0, 0, 0.00000000000000000000e+00) (0, 0, 0.00000000000000000000e+00) (0, 0, 0.00000000000000000000e+00) (0, 0, 0.00000000000000000000e+00) (0, 0, 0.00000000000000000000e+00) (0, 0, 0.00000000000000000000e+00) (0, 0, 0.00000000000000000000e+00) (0, 0, 0.00000000000000000000e+00) (0, 0, 0.00000000000000000000e+00) (0, 0, 0.00000000000000000000e+00) (0, 0, 0.00000000000000000000e+00) (0, 0, 0.00000000000000000000e+00) (0, 0, 0.00000000000000000000e+00) (0, 0, 0.00000000000000000000e+00) (0, 0, 0.00000000000000000000e+00) (0, 0, 0.00000000000000000000e+00) (0, 0, 0.00000000000000000000e+00) (0, 0, 0.00000000000000000000e+00) (0, 0, 0.00000000000000000000e+00) (0, 0, 0.00000000000000000000e+00) (0, 0, 0.00000000000000000000e+00) (0, 0, 0.00000000000000000000e+00) (0, 0, 0.00000000000000000000e+00) (0, 0, 0.00000000000000000000e+00) (0, 0, 0.00000000000000000000e+00) (0, 0, 0.00000000000000000000e+00) (0, 0, 0.00000000000000000000e+00) (0, 0, 0.00000000000000000000e+00) (0, 0, 0.00000000000000000000e+00) (0, 0, 0.00000000000000000000e+00) (0, 0, 0.00000000000000000000e+00) (0, 0, 0.00000000000000000000e+00) (0, 0, 0.00000000000000000000e+00) (0, 0, 0.00000000000000000000e+00) (0, 0, 0.00000000000000000000e+00) (0, 0, 0.00000000000000000000e+00) (0, 0, 0.00000000000000000000e+00) (0, 0, 0.00000000000000000000e+00) (0, 0, 0.00000000000000000000e+00) (0, 0, 0.00000000000000000000e+00) (0, 0, 0.00000000000000000000e+00) (0, 0, 0.00000000000000000000e+00) (0, 0, 0.00000000000000000000e+00) (0, 0, 0.00000000000000000000e+00) (0, 0, 0.00000000000000000000e+00) (0, 0, 0.00000000000000000000e+00) (0, 0, 0.00000000000000000000e+00) (0, 0, 0.00000000000000000000e+00) (0, 0, 0.00000000000000000000e+00) (0, 0, 0.00000000000000000000e+00) (0, 0, 0.00000000000000000000e+00) (0, 0, 0.00000000000000000000e+00) (0, 0, 0.00000000000000000000e+00) (0, 0, 0.00000000000000000000e+00) (0, 0, 0.00000000000000000000e+00) (0, 0, 0.00000000000000000000e+00) (0, 0, 0.00000000000000000000e+00) (0, 0, 0.00000000000000000000e+00) (0, 0, 0.00000000000000000000e+00) (0, 0, 0.00000000000000000000e+00) (0, 0, 0.00000000000000000000e+00) (0, 0, 0.00000000000000000000e+00) (0, 0, 0.00000000000000000000e+00) (0, 0, 0.00000000000000000000e+00) (0, 0, 0.00000000000000000000e+00) (0, 0, 0.00000000000000000000e+00) (0, 0, 0.00000000000000000000e+00) (0, 0, 0.00000000000000000000e+00) (0, 0, 0.00000000000000000000e+00) (0, 0, 0.00000000000000000000e+00) (401, 5, 5.00000000000000000000e-01) (401, 5, 5.00000000000000000000e-01) (0, 5, 0.00000000000000000000e+00) (3, 5, 5.00000000000000000000e-01) (3, 5, 5.00000000000000000000e-01) (0, 5, 0.00000000000000000000e+00) 
connections (connected_to_neuron, weight)=(0, 1.58754944801330566406e+00) (1, 1.49647617340087890625e+00) (2, 5.67515194416046142578e-01) (3, 7.15106582641601562500e+00) (4, 1.61088299751281738281e+00) (5, 1.59778118133544921875e+00) (6, 5.72597503662109375000e-01) (7, 7.19600582122802734375e+00) (8, 1.46276581287384033203e+00) (9, 1.50387835502624511719e+00) (10, 6.04251623153686523438e-01) (11, 1.55158352851867675781e+00) (12, 1.48376393318176269531e+00) (13, 1.59388089179992675781e+00) (14, 5.14621198177337646484e-01) (15, 7.10635089874267578125e+00) (16, 1.54286944866180419922e+00) (17, 1.54480004310607910156e+00) (18, 5.68220674991607666016e-01) (19, 7.14882278442382812500e+00) (20, 1.60528373718261718750e+00) (21, 1.49072360992431640625e+00) (22, 5.14371633529663085938e-01) (23, 7.08410167694091796875e+00) (24, 1.48631417751312255859e+00) (25, 1.46677660942077636719e+00) (26, 5.67593514919281005859e-01) (27, 7.19849777221679687500e+00) (28, 1.56823396682739257812e+00) (29, 1.51226711273193359375e+00) (30, 4.74103569984436035156e-01) (31, 7.11975097656250000000e+00) (32, 1.58897030353546142578e+00) (33, 1.55820572376251220703e+00) (34, 5.15382230281829833984e-01) (35, 2.46415704488754272461e-01) (36, 1.09317719936370849609e+00) (37, 1.60456669330596923828e+00) (38, 6.04392170906066894531e-01) (39, 2.45542138814926147461e-01) (40, 1.04563534259796142578e+00) (41, 1.52523076534271240234e+00) (42, 5.42837321758270263672e-01) (43, 2.18998283147811889648e-01) (44, 1.49933862686157226562e+00) (45, 1.57404541969299316406e+00) (46, 4.87320065498352050781e-01) (47, 8.87705981731414794922e-02) (48, 1.49907255172729492188e+00) (49, 1.57212769985198974609e+00) (50, 5.99564611911773681641e-01) (51, 7.06832408905029296875e+00) (52, 1.44307839870452880859e+00) (53, 1.43052315711975097656e+00) (54, 5.96991300582885742188e-01) (55, 7.09335994720458984375e+00) (56, 1.47752678394317626953e+00) (57, 1.48117172718048095703e+00) (58, 5.36423265933990478516e-01) (59, 7.00972843170166015625e+00) (60, 1.57366585731506347656e+00) (61, 1.52711379528045654297e+00) (62, 5.74045181274414062500e-01) (63, 7.12660408020019531250e+00) (64, 1.46554648876190185547e+00) (65, 1.60601437091827392578e+00) (66, 5.34990489482879638672e-01) (67, 7.16572761535644531250e+00) (68, 1.59080803394317626953e+00) (69, 1.45596957206726074219e+00) (70, 5.73241114616394042969e-01) (71, 1.45970702171325683594e+00) (72, 1.56142735481262207031e+00) (73, 1.43266534805297851562e+00) (74, 6.24416887760162353516e-01) (75, 1.44099307060241699219e+00) (76, 1.58693778514862060547e+00) (77, 1.42832386493682861328e+00) (78, 4.75475192070007324219e-01) (79, 1.46623730659484863281e+00) (80, 1.58067858219146728516e+00) (81, 1.59162676334381103516e+00) (82, 5.62867641448974609375e-01) (83, 1.60398399829864501953e+00) (84, 1.60237681865692138672e+00) (85, 1.47644591331481933594e+00) (86, 5.25650560855865478516e-01) (87, 1.46013069152832031250e+00) (88, 1.53784465789794921875e+00) (89, 1.57866072654724121094e+00) (90, 4.98165428638458251953e-01) (91, 1.49173760414123535156e+00) (92, 1.48600161075592041016e+00) (93, 1.58879756927490234375e+00) (94, 6.46647751331329345703e-01) (95, 7.11551570892333984375e+00) (96, 1.57503890991210937500e+00) (97, 1.49822521209716796875e+00) (98, 5.25809526443481445312e-01) (99, 7.12981414794921875000e+00) (100, 1.53442180156707763672e+00) (101, 1.61563766002655029297e+00) (102, 6.17828011512756347656e-01) (103, 7.05981636047363281250e+00) (104, 9.85493361949920654297e-01) (105, 7.14257240295410156250e+00) (106, 5.29116213321685791016e-01) (107, 7.17943572998046875000e+00) (108, 1.12434601783752441406e+00) (109, 7.10491847991943359375e+00) (110, 4.73979175090789794922e-01) (111, 7.11202907562255859375e+00) (112, 1.04999542236328125000e+00) (113, 7.13717460632324218750e+00) (114, 5.44319391250610351562e-01) (115, 7.05937671661376953125e+00) (116, 1.16706991195678710938e+00) (117, 7.17029762268066406250e+00) (118, 5.47813594341278076172e-01) (119, 7.11191844940185546875e+00) (120, 1.10240793228149414062e+00) (121, 7.14630699157714843750e+00) (122, 6.31962895393371582031e-01) (123, 7.19541358947753906250e+00) (124, 7.50142216682434082031e-01) (125, 7.17893791198730468750e+00) (126, 7.96404778957366943359e-01) (127, 7.07059669494628906250e+00) (128, 6.92201495170593261719e-01) (129, 7.18163204193115234375e+00) (130, 8.85886907577514648438e-01) (131, 7.17203903198242187500e+00) (132, 8.12308251857757568359e-01) (133, 7.16313266754150390625e+00) (134, 4.76421654224395751953e-01) (135, 7.18625450134277343750e+00) (136, 7.37002968788146972656e-01) (137, 7.10586547851562500000e+00) (138, 8.51164817810058593750e-01) (139, 7.04980182647705078125e+00) (140, 6.42081856727600097656e-01) (141, 7.18456172943115234375e+00) (142, 7.93128073215484619141e-01) (143, 7.08053016662597656250e+00) (144, 7.53033995628356933594e-01) (145, 7.05104351043701171875e+00) (146, 7.71203756332397460938e-01) (147, 7.10855674743652343750e+00) (148, 6.52638316154479980469e-01) (149, 7.03261280059814453125e+00) (150, 1.43322122097015380859e+00) (151, 7.14349937438964843750e+00) (152, 8.10217320919036865234e-01) (153, 7.19733142852783203125e+00) (154, 1.10862183570861816406e+00) (155, 7.08722400665283203125e+00) (156, 8.07567417621612548828e-01) (157, 7.03930187225341796875e+00) (158, 1.57056641578674316406e+00) (159, 7.02663326263427734375e+00) (160, 6.52231454849243164062e-01) (161, 7.14769172668457031250e+00) (162, 1.61141788959503173828e+00) (163, 7.19140434265136718750e+00) (164, 7.42121934890747070312e-01) (165, 7.01998710632324218750e+00) (166, 1.59040379524230957031e+00) (167, 7.00598907470703125000e+00) (168, 7.57150053977966308594e-01) (169, 5.80886065959930419922e-01) (170, 1.46853637695312500000e+00) (171, 7.12609577178955078125e+00) (172, 7.48666286468505859375e-01) (173, 4.55159664154052734375e-01) (174, 1.61937153339385986328e+00) (175, 7.02856445312500000000e+00) (176, 6.89421176910400390625e-01) (177, 5.84070563316345214844e-01) (178, 1.54986655712127685547e+00) (179, 7.06892395019531250000e+00) (180, 7.99901902675628662109e-01) (181, 5.95134735107421875000e-01) (182, 1.42516827583312988281e+00) (183, 7.13698291778564453125e+00) (184, 7.75684475898742675781e-01) (185, 7.14079475402832031250e+00) (186, 1.43695259094238281250e+00) (187, 7.11011600494384765625e+00) (188, 8.11393439769744873047e-01) (189, 6.19565963745117187500e-01) (190, 1.54949486255645751953e+00) (191, 7.19048881530761718750e+00) (192, 7.50475525856018066406e-01) (193, 5.72959780693054199219e-01) (194, 1.59463858604431152344e+00) (195, 7.01946163177490234375e+00) (196, 7.76165008544921875000e-01) (197, 5.97089350223541259766e-01) (198, 1.43819630146026611328e+00) (199, 7.06017875671386718750e+00) (200, 7.13114142417907714844e-01) (201, 5.18779635429382324219e-01) (202, 1.59902095794677734375e+00) (203, 7.18864440917968750000e+00) (204, 7.09077954292297363281e-01) (205, 6.30439519882202148438e-01) (206, 1.42995452880859375000e+00) (207, 7.12536334991455078125e+00) (208, 7.49648809432983398438e-01) (209, 5.91868102550506591797e-01) (210, 1.60703253746032714844e+00) (211, 5.24494171142578125000e-01) (212, 7.22141623497009277344e-01) (213, 6.44247770309448242188e-01) (214, 1.42614376544952392578e+00) (215, 4.72769618034362792969e-01) (216, 7.68260240554809570312e-01) (217, 4.75143313407897949219e-01) (218, 1.54755198955535888672e+00) (219, 5.54597079753875732422e-01) (220, 1.16825950145721435547e+00) (221, 5.09093880653381347656e-01) (222, 1.50975239276885986328e+00) (223, 5.55266976356506347656e-01) (224, 1.59864056110382080078e+00) (225, 5.16437947750091552734e-01) (226, 1.53939485549926757812e+00) (227, 5.68300902843475341797e-01) (228, 1.43011426925659179688e+00) (229, 5.89638113975524902344e-01) (230, 1.59314644336700439453e+00) (231, 5.36723673343658447266e-01) (232, 1.42500460147857666016e+00) (233, 6.04214429855346679688e-01) (234, 1.49003446102142333984e+00) (235, 5.27577936649322509766e-01) (236, 1.55124092102050781250e+00) (237, 5.32036066055297851562e-01) (238, 1.61760747432708740234e+00) (239, 4.94384944438934326172e-01) (240, 1.44049119949340820312e+00) (241, 6.36687040328979492188e-01) (242, 1.53546607494354248047e+00) (243, 5.56128025054931640625e-01) (244, 1.59752178192138671875e+00) (245, 5.73656857013702392578e-01) (246, 1.54548454284667968750e+00) (247, 5.59277236461639404297e-01) (248, 1.56538712978363037109e+00) (249, 5.05083680152893066406e-01) (250, 1.43046128749847412109e+00) (251, 5.88730394840240478516e-01) (252, 1.53076446056365966797e+00) (253, 5.52260696887969970703e-01) (254, 1.46058440208435058594e+00) (255, 5.41452169418334960938e-01) (256, 1.58528554439544677734e+00) (257, 2.46541649103164672852e-01) (258, 1.42633998394012451172e+00) (259, 6.27446830272674560547e-01) (260, 1.51825129985809326172e+00) (261, 2.66048938035964965820e-01) (262, 1.48075747489929199219e+00) (263, 5.55302917957305908203e-01) (264, 1.55233490467071533203e+00) (265, 9.11158978939056396484e-01) (266, 7.18320846557617187500e+00) (267, 5.15622854232788085938e-01) (268, 1.43146193027496337891e+00) (269, 8.70031714439392089844e-01) (270, 1.92930191755294799805e-01) (271, 4.84000146389007568359e-01) (272, 1.58239626884460449219e+00) (273, 7.15017259120941162109e-01) (274, 2.23050564527511596680e-01) (275, 5.91965019702911376953e-01) (276, 1.56435167789459228516e+00) (277, 1.48242676258087158203e+00) (278, 1.34164661169052124023e-01) (279, 5.41785836219787597656e-01) (280, 1.53591728210449218750e+00) (281, 1.47851753234863281250e+00) (282, 1.13438695669174194336e-01) (283, 4.78728830814361572266e-01) (284, 1.57918512821197509766e+00) (285, 1.48791456222534179688e+00) (286, 2.03103393316268920898e-01) (287, 5.76517701148986816406e-01) (288, 1.44834768772125244141e+00) (289, 1.54333496093750000000e+00) (290, 1.86886936426162719727e-01) (291, 9.06966030597686767578e-01) (292, 1.52327549457550048828e+00) (293, 1.13849925994873046875e+00) (294, 1.16871327161788940430e-01) (295, 7.28566825389862060547e-01) (296, 1.51278185844421386719e+00) (297, 9.87194001674652099609e-01) (298, 7.38418936729431152344e-01) (299, 7.97200262546539306641e-01) (300, 1.60775983333587646484e+00) (301, 9.83652293682098388672e-01) (302, 7.75429725646972656250e-01) (303, 8.43112587928771972656e-01) (304, 1.44920372962951660156e+00) (305, 1.49382007122039794922e+00) (306, 7.29306817054748535156e-01) (307, 9.53922450542449951172e-01) (308, 1.55647373199462890625e+00) (309, 1.55881130695343017578e+00) (310, 7.02527046203613281250e-01) (311, 8.32758188247680664062e-01) (312, 1.61755573749542236328e+00) (313, 1.51130545139312744141e+00) (314, 1.66089385747909545898e-01) (315, 9.37107861042022705078e-01) (316, 1.57944703102111816406e+00) (317, 1.61674892902374267578e+00) (318, 1.68228000402450561523e-01) (319, 9.68161761760711669922e-01) (320, 1.54031085968017578125e+00) (321, 1.60267102718353271484e+00) (322, 2.01410144567489624023e-01) (323, 8.03953349590301513672e-01) (324, 1.56443393230438232422e+00) (325, 1.56583762168884277344e+00) (326, 1.46213144063949584961e-01) (327, 8.17582964897155761719e-01) (328, 1.57629525661468505859e+00) (329, 1.57997179031372070312e+00) (330, 5.93960642814636230469e-01) (331, 9.24422085285186767578e-01) (332, 1.58688771724700927734e+00) (333, 1.49924564361572265625e+00) (334, 5.46712279319763183594e-01) (335, 9.76458489894866943359e-01) (336, 1.57329261302947998047e+00) (337, 1.60587430000305175781e+00) (338, 6.22147977352142333984e-01) (339, 8.70133519172668457031e-01) (340, 7.12865352630615234375e+00) (341, 1.45453023910522460938e+00) (342, 5.94658553600311279297e-01) (343, 9.02835488319396972656e-01) (344, 7.12980365753173828125e+00) (345, 1.44281947612762451172e+00) (346, 5.31710267066955566406e-01) (347, 8.65876793861389160156e-01) (348, 7.02353572845458984375e+00) (349, 1.58200979232788085938e+00) (350, 5.25805413722991943359e-01) (351, 9.20473277568817138672e-01) (352, 7.14864826202392578125e+00) (353, 1.60928714275360107422e+00) (354, 7.16811370849609375000e+00) (355, 5.41388869285583496094e-01) (356, 7.13909244537353515625e+00) (357, 1.44447815418243408203e+00) (358, 5.79058706760406494141e-01) (359, 8.72014045715332031250e-01) (360, 7.18841743469238281250e+00) (361, 1.48960638046264648438e+00) (362, 4.88203048706054687500e-01) (363, 9.31931793689727783203e-01) (364, 7.15281963348388671875e+00) (365, 1.55150222778320312500e+00) (366, 6.00157320499420166016e-01) (367, 8.82738709449768066406e-01) (368, 7.12134456634521484375e+00) (369, 1.53889226913452148438e+00) (370, 8.31370890140533447266e-01) (371, 4.94563281536102294922e-01) (372, 7.15739059448242187500e+00) (373, 1.55588459968566894531e+00) (374, 8.58395099639892578125e-01) (375, 8.60079288482666015625e-01) (376, 7.16267204284667968750e+00) (377, 1.46578288078308105469e+00) (378, 6.17722868919372558594e-01) (379, 9.59093391895294189453e-01) (380, 7.01176071166992187500e+00) (381, 1.46011531352996826172e+00) (382, 5.71333646774291992188e-01) (383, 9.33294594287872314453e-01) (384, 7.03337001800537109375e+00) (385, 1.50411415100097656250e+00) (386, 4.94770407676696777344e-01) (387, 8.03759872913360595703e-01) (388, 7.11256027221679687500e+00) (389, 1.59041607379913330078e+00) (390, 5.09129047393798828125e-01) (391, 7.32275128364562988281e-01) (392, 7.04399013519287109375e+00) (393, 1.51391911506652832031e+00) (394, 4.97562170028686523438e-01) (395, 8.28107059001922607422e-01) (396, 1.44564831256866455078e+00) (397, 1.61430644989013671875e+00) (398, 5.44200897216796875000e-01) (399, 8.36208462715148925781e-01) (400, 7.51977562904357910156e-01) (0, 1.16236579418182373047e+00) (1, 1.26338803768157958984e+00) (2, -3.54477822780609130859e-01) (3, 7.02527904510498046875e+00) (4, 1.22928059101104736328e+00) (5, 1.22440731525421142578e+00) (6, -2.41083428263664245605e-01) (7, 7.20209217071533203125e+00) (8, 1.19053709506988525391e+00) (9, 1.23681581020355224609e+00) (10, -6.69191658496856689453e-01) (11, 1.23087942600250244141e+00) (12, 1.15655648708343505859e+00) (13, 1.23691868782043457031e+00) (14, -4.91992771625518798828e-01) (15, 7.16769981384277343750e+00) (16, 1.17942202091217041016e+00) (17, 1.22617089748382568359e+00) (18, -6.02784931659698486328e-01) (19, 7.17754077911376953125e+00) (20, 1.18303275108337402344e+00) (21, 1.24389433860778808594e+00) (22, -6.61513149738311767578e-01) (23, 7.10465431213378906250e+00) (24, 1.18918943405151367188e+00) (25, 1.08099782466888427734e+00) (26, -5.49000561237335205078e-01) (27, 7.01119899749755859375e+00) (28, 1.27293157577514648438e+00) (29, 1.14743423461914062500e+00) (30, -5.54678738117218017578e-01) (31, 7.18606185913085937500e+00) (32, 1.23343634605407714844e+00) (33, 1.26557898521423339844e+00) (34, -6.71703636646270751953e-01) (35, -1.54321241378784179688e+00) (36, 3.48947465419769287109e-01) (37, 1.26194870471954345703e+00) (38, -6.67470753192901611328e-01) (39, -1.50279188156127929688e+00) (40, 3.57725739479064941406e-01) (41, 1.09208333492279052734e+00) (42, -6.71461403369903564453e-01) (43, -1.52799463272094726562e+00) (44, 1.25229024887084960938e+00) (45, 1.36461722850799560547e+00) (46, -4.86645519733428955078e-01) (47, -1.37421703338623046875e+00) (48, 1.21475040912628173828e+00) (49, 1.23864126205444335938e+00) (50, -5.23026764392852783203e-01) (51, 7.14854717254638671875e+00) (52, 1.10649788379669189453e+00) (53, 1.24420559406280517578e+00) (54, -6.29842102527618408203e-01) (55, 7.04645156860351562500e+00) (56, 1.24849152565002441406e+00) (57, 1.24990308284759521484e+00) (58, -6.25394165515899658203e-01) (59, 7.07218742370605468750e+00) (60, 1.12062549591064453125e+00) (61, 1.24867272377014160156e+00) (62, -6.24795734882354736328e-01) (63, 7.10482597351074218750e+00) (64, 1.23753988742828369141e+00) (65, 1.13224649429321289062e+00) (66, -5.64737141132354736328e-01) (67, 7.10090446472167968750e+00) (68, 1.21680939197540283203e+00) (69, 1.19653761386871337891e+00) (70, -5.28238117694854736328e-01) (71, 1.26282441616058349609e+00) (72, 1.31123507022857666016e+00) (73, 1.22904610633850097656e+00) (74, -6.64718925952911376953e-01) (75, 1.18748760223388671875e+00) (76, 1.21762573719024658203e+00) (77, 1.07738137245178222656e+00) (78, -5.86278259754180908203e-01) (79, 1.15566432476043701172e+00) (80, 1.13998496532440185547e+00) (81, 1.11944031715393066406e+00) (82, -6.52030766010284423828e-01) (83, 1.16977107524871826172e+00) (84, 1.08693408966064453125e+00) (85, 1.14687263965606689453e+00) (86, -5.40019810199737548828e-01) (87, 1.25871384143829345703e+00) (88, 1.12006390094757080078e+00) (89, 1.26333165168762207031e+00) (90, -6.25341236591339111328e-01) (91, 1.16397750377655029297e+00) (92, 1.23529255390167236328e+00) (93, 1.17860877513885498047e+00) (94, -1.61429092288017272949e-01) (95, 7.12292194366455078125e+00) (96, 1.23414349555969238281e+00) (97, 1.17656946182250976562e+00) (98, -3.33207547664642333984e-01) (99, 7.20171737670898437500e+00) (100, 1.19572114944458007812e+00) (101, 1.24129009246826171875e+00) (102, -4.91700947284698486328e-01) (103, 7.15839481353759765625e+00) (104, 3.29297423362731933594e-01) (105, 7.19912815093994140625e+00) (106, -6.10360443592071533203e-01) (107, 7.06134033203125000000e+00) (108, 4.08668488264083862305e-01) (109, 7.15890884399414062500e+00) (110, -5.39237797260284423828e-01) (111, 7.06307029724121093750e+00) (112, 4.10508394241333007812e-01) (113, 7.16427898406982421875e+00) (114, -5.23400604724884033203e-01) (115, 7.01185989379882812500e+00) (116, 2.43310689926147460938e-01) (117, 7.09212684631347656250e+00) (118, -4.85668957233428955078e-01) (119, 7.07779121398925781250e+00) (120, 2.87617743015289306641e-01) (121, 7.04453754425048828125e+00) (122, -5.14473259449005126953e-01) (123, 7.03732776641845703125e+00) (124, 3.55305284261703491211e-01) (125, 7.15363502502441406250e+00) (126, -4.58864390850067138672e-01) (127, 7.10386562347412109375e+00) (128, 2.62363910675048828125e-01) (129, 7.17353534698486328125e+00) (130, -5.13531386852264404297e-01) (131, 7.07317638397216796875e+00) (132, 3.46985220909118652344e-01) (133, 7.08638477325439453125e+00) (134, -1.52863645553588867188e+00) (135, 7.05502700805664062500e+00) (136, 2.90870368480682373047e-01) (137, 7.09371376037597656250e+00) (138, -2.14029908180236816406e-01) (139, 7.07828330993652343750e+00) (140, 2.57979750633239746094e-01) (141, 7.04963207244873046875e+00) (142, -6.99135065078735351562e-02) (143, 7.04723262786865234375e+00) (144, 2.19268441200256347656e-01) (145, 7.09045600891113281250e+00) (146, -1.52175188064575195312e-01) (147, 7.04132270812988281250e+00) (148, 1.84893190860748291016e-01) (149, 7.04592609405517578125e+00) (150, 8.44125270843505859375e-01) (151, 7.05430221557617187500e+00) (152, 9.27737504243850708008e-02) (153, 7.07714462280273437500e+00) (154, 2.96986877918243408203e-01) (155, 7.02987003326416015625e+00) (156, 3.30904647707939147949e-02) (157, 7.04133796691894531250e+00) (158, 1.20342051982879638672e+00) (159, 7.07724571228027343750e+00) (160, 1.71845480799674987793e-02) (161, 7.02877807617187500000e+00) (162, 1.22010624408721923828e+00) (163, 7.14596080780029296875e+00) (164, 1.17473475635051727295e-01) (165, 7.17145156860351562500e+00) (166, 1.27067208290100097656e+00) (167, 7.19013500213623046875e+00) (168, -1.77324503660202026367e-01) (169, -5.72717010974884033203e-01) (170, 1.13810241222381591797e+00) (171, 7.10724639892578125000e+00) (172, -8.60437005758285522461e-02) (173, -4.80300247669219970703e-01) (174, 1.22416317462921142578e+00) (175, 7.15981578826904296875e+00) (176, -1.52803152799606323242e-01) (177, -4.76501047611236572266e-01) (178, 1.27082359790802001953e+00) (179, 7.06172847747802734375e+00) (180, -1.93533986806869506836e-01) (181, -5.69817364215850830078e-01) (182, 1.18571472167968750000e+00) (183, 7.12887763977050781250e+00) (184, -5.56317418813705444336e-02) (185, 7.19711875915527343750e+00) (186, 1.22843241691589355469e+00) (187, 7.00709724426269531250e+00) (188, 4.07673679292201995850e-02) (189, -5.97587406635284423828e-01) (190, 1.15402686595916748047e+00) (191, 7.04278945922851562500e+00) (192, 3.16078275442123413086e-01) (193, -6.55307590961456298828e-01) (194, 1.25843536853790283203e+00) (195, 7.01534271240234375000e+00) (196, 4.01032060384750366211e-01) (197, -5.00333130359649658203e-01) (198, 1.27516222000122070312e+00) (199, 7.05029869079589843750e+00) (200, 2.91368514299392700195e-01) (201, -6.16175949573516845703e-01) (202, 1.22722959518432617188e+00) (203, 7.03191566467285156250e+00) (204, 2.67942547798156738281e-01) (205, -5.78047811985015869141e-01) (206, 1.26141631603240966797e+00) (207, 7.14173030853271484375e+00) (208, 3.09869617223739624023e-01) (209, -4.97200548648834228516e-01) (210, 1.27314317226409912109e+00) (211, -5.36603748798370361328e-01) (212, 2.97400414943695068359e-01) (213, -5.70582687854766845703e-01) (214, 1.14148902893066406250e+00) (215, -6.11170589923858642578e-01) (216, 3.11423927545547485352e-01) (217, -6.59519016742706298828e-01) (218, 1.14514112472534179688e+00) (219, -5.45548260211944580078e-01) (220, 3.07311952114105224609e-01) (221, -5.30272543430328369141e-01) (222, 1.24645686149597167969e+00) (223, -4.77396309375762939453e-01) (224, 1.34249150753021240234e+00) (225, -5.24548351764678955078e-01) (226, 1.08716166019439697266e+00) (227, -5.20915806293487548828e-01) (228, 1.30319011211395263672e+00) (229, -6.67116463184356689453e-01) (230, 1.07859790325164794922e+00) (231, -6.69880688190460205078e-01) (232, 1.24477910995483398438e+00) (233, -5.23613035678863525391e-01) (234, 1.11125028133392333984e+00) (235, -5.51717579364776611328e-01) (236, 1.22641062736511230469e+00) (237, -6.56773865222930908203e-01) (238, 1.13922786712646484375e+00) (239, -5.28158962726593017578e-01) (240, 1.37409698963165283203e+00) (241, -6.17069542407989501953e-01) (242, 1.16398262977600097656e+00) (243, -5.92942059040069580078e-01) (244, 1.34041929244995117188e+00) (245, -5.23968994617462158203e-01) (246, 1.22463285923004150391e+00) (247, -6.12596333026885986328e-01) (248, 1.34458363056182861328e+00) (249, -6.59666359424591064453e-01) (250, 1.27060127258300781250e+00) (251, -6.12543880939483642578e-01) (252, 1.33813238143920898438e+00) (253, -5.12382328510284423828e-01) (254, 1.13880550861358642578e+00) (255, -5.47468483448028564453e-01) (256, 1.29114091396331787109e+00) (257, -1.48063659667968750000e+00) (258, 1.16036140918731689453e+00) (259, -6.33761227130889892578e-01) (260, 1.25748157501220703125e+00) (261, -1.46764421463012695312e+00) (262, 1.12510347366333007812e+00) (263, -5.25831520557403564453e-01) (264, 1.11465132236480712891e+00) (265, -6.32561504840850830078e-01) (266, 7.07799816131591796875e+00) (267, -5.87704479694366455078e-01) (268, 1.17888486385345458984e+00) (269, -1.86369180679321289062e-01) (270, -1.51700973510742187500e+00) (271, -5.75784504413604736328e-01) (272, 1.27265954017639160156e+00) (273, -1.99928641319274902344e-01) (274, -1.36987257003784179688e+00) (275, -5.15687525272369384766e-01) (276, 1.25152671337127685547e+00) (277, 1.30726599693298339844e+00) (278, -1.52942991256713867188e+00) (279, -6.31982147693634033203e-01) (280, 1.22429037094116210938e+00) (281, 1.19367730617523193359e+00) (282, -1.44567203521728515625e+00) (283, -5.66343605518341064453e-01) (284, 1.25798594951629638672e+00) (285, 1.34563934803009033203e+00) (286, -1.51495838165283203125e+00) (287, -2.53629744052886962891e-01) (288, 1.11885702610015869141e+00) (289, 1.29790890216827392578e+00) (290, -1.41454696655273437500e+00) (291, -2.26417943835258483887e-01) (292, 1.08411872386932373047e+00) (293, 1.54609277844429016113e-01) (294, -1.47940587997436523438e+00) (295, -2.78023183345794677734e-01) (296, 1.14666652679443359375e+00) (297, 1.15843430161476135254e-01) (298, 3.46043527126312255859e-01) (299, -1.51241779327392578125e-01) (300, 1.16197085380554199219e+00) (301, 1.37413635849952697754e-01) (302, 2.84744948148727416992e-01) (303, -2.42162704467773437500e-01) (304, 1.16998159885406494141e+00) (305, 1.13237929344177246094e+00) (306, 2.53920972347259521484e-01) (307, -1.81248232722282409668e-01) (308, 1.26360750198364257812e+00) (309, 1.14199805259704589844e+00) (310, 2.25178301334381103516e-01) (311, -2.15532705187797546387e-01) (312, 1.15963768959045410156e+00) (313, 1.19701325893402099609e+00) (314, -1.50903224945068359375e+00) (315, -2.85807073116302490234e-01) (316, 1.16661489009857177734e+00) (317, 1.15908110141754150391e+00) (318, -1.39260244369506835938e+00) (319, -2.17958852648735046387e-01) (320, 1.08095228672027587891e+00) (321, 1.17592191696166992188e+00) (322, -1.49754285812377929688e+00) (323, -3.38359773159027099609e-01) (324, 1.16294646263122558594e+00) (325, 1.20612347126007080078e+00) (326, -1.49618625640869140625e+00) (327, -1.93817660212516784668e-01) (328, 1.15438210964202880859e+00) (329, 1.26736414432525634766e+00) (330, -5.47699749469757080078e-01) (331, -1.87077566981315612793e-01) (332, 1.23719310760498046875e+00) (333, 1.07738924026489257812e+00) (334, -6.31880581378936767578e-01) (335, -2.96256005764007568359e-01) (336, 1.13305664062500000000e+00) (337, 1.16238427162170410156e+00) (338, -6.53507053852081298828e-01) (339, -3.06766569614410400391e-01) (340, 7.15447235107421875000e+00) (341, 1.11201512813568115234e+00) (342, -4.98301804065704345703e-01) (343, -3.16122472286224365234e-01) (344, 7.15911865234375000000e+00) (345, 1.09857428073883056641e+00) (346, -5.77932178974151611328e-01) (347, -3.04499328136444091797e-01) (348, 7.10774517059326171875e+00) (349, 1.13537371158599853516e+00) (350, -4.98461067676544189453e-01) (351, -2.41534873843193054199e-01) (352, 7.16138553619384765625e+00) (353, 1.10990512371063232422e+00) (354, 7.12363338470458984375e+00) (355, -3.05900394916534423828e-01) (356, 7.16611862182617187500e+00) (357, 1.25382483005523681641e+00) (358, -6.75720989704132080078e-01) (359, -3.09731781482696533203e-01) (360, 7.17127895355224609375e+00) (361, 1.20532500743865966797e+00) (362, -6.72812283039093017578e-01) (363, -2.21760317683219909668e-01) (364, 7.13280391693115234375e+00) (365, 1.12405276298522949219e+00) (366, -4.94019329547882080078e-01) (367, -1.64371654391288757324e-01) (368, 7.13652706146240234375e+00) (369, 1.08121931552886962891e+00) (370, -1.75363749265670776367e-01) (371, -2.33974084258079528809e-02) (372, 7.04332447052001953125e+00) (373, 1.08330261707305908203e+00) (374, -2.05512762069702148438e-01) (375, 8.80459025502204895020e-02) (376, 7.03196716308593750000e+00) (377, 1.09265315532684326172e+00) (378, -6.35093510150909423828e-01) (379, 2.53152772784233093262e-02) (380, 7.07811641693115234375e+00) (381, 1.09519100189208984375e+00) (382, -6.34859859943389892578e-01) (383, -7.48943910002708435059e-02) (384, 7.05518627166748046875e+00) (385, 1.23798823356628417969e+00) (386, -2.73425281047821044922e-01) (387, 2.26662158966064453125e-01) (388, 7.14190292358398437500e+00) (389, 1.15358960628509521484e+00) (390, -2.95454442501068115234e-01) (391, 3.18539619445800781250e-01) (392, 7.00900459289550781250e+00) (393, 1.13446915149688720703e+00) (394, -3.15605580806732177734e-01) (395, 3.47166359424591064453e-01) (396, 1.18181002140045166016e+00) (397, 1.09311103820800781250e+00) (398, -2.29590103030204772949e-01) (399, -3.57257843017578125000e-01) (400, 2.33291447162628173828e-01) (401, 8.41795325279235839844e-01) (402, 1.52152264118194580078e+00) (403, 7.53219902515411376953e-01) (401, 1.02727448940277099609e+00) (402, -1.94506728649139404297e+00) (403, 9.27523791790008544922e-01) 
