FANN_FLO_2.1
num_layers=4
learning_rate=0.700000
connection_rate=1.000000
network_type=0
learning_momentum=0.000000
training_algorithm=2
train_error_function=1
train_stop_function=0
cascade_output_change_fraction=0.010000
quickprop_decay=-0.000100
quickprop_mu=1.750000
rprop_increase_factor=1.200000
rprop_decrease_factor=0.500000
rprop_delta_min=0.000000
rprop_delta_max=50.000000
rprop_delta_zero=0.100000
cascade_output_stagnation_epochs=12
cascade_candidate_change_fraction=0.010000
cascade_candidate_stagnation_epochs=12
cascade_max_out_epochs=150
cascade_min_out_epochs=50
cascade_max_cand_epochs=150
cascade_min_cand_epochs=50
cascade_num_candidate_groups=2
bit_fail_limit=3.49999994039535522461e-01
cascade_candidate_limit=1.00000000000000000000e+03
cascade_weight_multiplier=4.00000005960464477539e-01
cascade_activation_functions_count=10
cascade_activation_functions=3 5 7 8 10 11 14 15 16 17 
cascade_activation_steepnesses_count=4
cascade_activation_steepnesses=2.50000000000000000000e-01 5.00000000000000000000e-01 7.50000000000000000000e-01 1.00000000000000000000e+00 
layer_sizes=7 101 101 5 
scale_included=0
neurons (num_inputs, activation_function, activation_steepness)=(0, 0, 0.00000000000000000000e+00) (0, 0, 0.00000000000000000000e+00) (0, 0, 0.00000000000000000000e+00) (0, 0, 0.00000000000000000000e+00) (0, 0, 0.00000000000000000000e+00) (0, 0, 0.00000000000000000000e+00) (0, 0, 0.00000000000000000000e+00) (7, 5, 5.00000000000000000000e-01) (7, 5, 5.00000000000000000000e-01) (7, 5, 5.00000000000000000000e-01) (7, 5, 5.00000000000000000000e-01) (7, 5, 5.00000000000000000000e-01) (7, 5, 5.00000000000000000000e-01) (7, 5, 5.00000000000000000000e-01) (7, 5, 5.00000000000000000000e-01) (7, 5, 5.00000000000000000000e-01) (7, 5, 5.00000000000000000000e-01) (7, 5, 5.00000000000000000000e-01) (7, 5, 5.00000000000000000000e-01) (7, 5, 5.00000000000000000000e-01) (7, 5, 5.00000000000000000000e-01) (7, 5, 5.00000000000000000000e-01) (7, 5, 5.00000000000000000000e-01) (7, 5, 5.00000000000000000000e-01) (7, 5, 5.00000000000000000000e-01) (7, 5, 5.00000000000000000000e-01) (7, 5, 5.00000000000000000000e-01) (7, 5, 5.00000000000000000000e-01) (7, 5, 5.00000000000000000000e-01) (7, 5, 5.00000000000000000000e-01) (7, 5, 5.00000000000000000000e-01) (7, 5, 5.00000000000000000000e-01) (7, 5, 5.00000000000000000000e-01) (7, 5, 5.00000000000000000000e-01) (7, 5, 5.00000000000000000000e-01) (7, 5, 5.00000000000000000000e-01) (7, 5, 5.00000000000000000000e-01) (7, 5, 5.00000000000000000000e-01) (7, 5, 5.00000000000000000000e-01) (7, 5, 5.00000000000000000000e-01) (7, 5, 5.00000000000000000000e-01) (7, 5, 5.00000000000000000000e-01) (7, 5, 5.00000000000000000000e-01) (7, 5, 5.00000000000000000000e-01) (7, 5, 5.00000000000000000000e-01) (7, 5, 5.00000000000000000000e-01) (7, 5, 5.00000000000000000000e-01) (7, 5, 5.00000000000000000000e-01) (7, 5, 5.00000000000000000000e-01) (7, 5, 5.00000000000000000000e-01) (7, 5, 5.00000000000000000000e-01) (7, 5, 5.00000000000000000000e-01) (7, 5, 5.00000000000000000000e-01) (7, 5, 5.00000000000000000000e-01) (7, 5, 5.00000000000000000000e-01) (7, 5, 5.00000000000000000000e-01) (7, 5, 5.00000000000000000000e-01) (7, 5, 5.00000000000000000000e-01) (7, 5, 5.00000000000000000000e-01) (7, 5, 5.00000000000000000000e-01) (7, 5, 5.00000000000000000000e-01) (7, 5, 5.00000000000000000000e-01) (7, 5, 5.00000000000000000000e-01) (7, 5, 5.00000000000000000000e-01) (7, 5, 5.00000000000000000000e-01) (7, 5, 5.00000000000000000000e-01) (7, 5, 5.00000000000000000000e-01) (7, 5, 5.00000000000000000000e-01) (7, 5, 5.00000000000000000000e-01) (7, 5, 5.00000000000000000000e-01) (7, 5, 5.00000000000000000000e-01) (7, 5, 5.00000000000000000000e-01) (7, 5, 5.00000000000000000000e-01) (7, 5, 5.00000000000000000000e-01) (7, 5, 5.00000000000000000000e-01) (7, 5, 5.00000000000000000000e-01) (7, 5, 5.00000000000000000000e-01) (7, 5, 5.00000000000000000000e-01) (7, 5, 5.00000000000000000000e-01) (7, 5, 5.00000000000000000000e-01) (7, 5, 5.00000000000000000000e-01) (7, 5, 5.00000000000000000000e-01) (7, 5, 5.00000000000000000000e-01) (7, 5, 5.00000000000000000000e-01) (7, 5, 5.00000000000000000000e-01) (7, 5, 5.00000000000000000000e-01) (7, 5, 5.00000000000000000000e-01) (7, 5, 5.00000000000000000000e-01) (7, 5, 5.00000000000000000000e-01) (7, 5, 5.00000000000000000000e-01) (7, 5, 5.00000000000000000000e-01) (7, 5, 5.00000000000000000000e-01) (7, 5, 5.00000000000000000000e-01) (7, 5, 5.00000000000000000000e-01) (7, 5, 5.00000000000000000000e-01) (7, 5, 5.00000000000000000000e-01) (7, 5, 5.00000000000000000000e-01) (7, 5, 5.00000000000000000000e-01) (7, 5, 5.00000000000000000000e-01) (7, 5, 5.00000000000000000000e-01) (7, 5, 5.00000000000000000000e-01) (7, 5, 5.00000000000000000000e-01) (7, 5, 5.00000000000000000000e-01) (7, 5, 5.00000000000000000000e-01) (7, 5, 5.00000000000000000000e-01) (7, 5, 5.00000000000000000000e-01) (7, 5, 5.00000000000000000000e-01) (0, 5, 0.00000000000000000000e+00) (101, 5, 5.00000000000000000000e-01) (101, 5, 5.00000000000000000000e-01) (101, 5, 5.00000000000000000000e-01) (101, 5, 5.00000000000000000000e-01) (101, 5, 5.00000000000000000000e-01) (101, 5, 5.00000000000000000000e-01) (101, 5, 5.00000000000000000000e-01) (101, 5, 5.00000000000000000000e-01) (101, 5, 5.00000000000000000000e-01) (101, 5, 5.00000000000000000000e-01) (101, 5, 5.00000000000000000000e-01) (101, 5, 5.00000000000000000000e-01) (101, 5, 5.00000000000000000000e-01) (101, 5, 5.00000000000000000000e-01) (101, 5, 5.00000000000000000000e-01) (101, 5, 5.00000000000000000000e-01) (101, 5, 5.00000000000000000000e-01) (101, 5, 5.00000000000000000000e-01) (101, 5, 5.00000000000000000000e-01) (101, 5, 5.00000000000000000000e-01) (101, 5, 5.00000000000000000000e-01) (101, 5, 5.00000000000000000000e-01) (101, 5, 5.00000000000000000000e-01) (101, 5, 5.00000000000000000000e-01) (101, 5, 5.00000000000000000000e-01) (101, 5, 5.00000000000000000000e-01) (101, 5, 5.00000000000000000000e-01) (101, 5, 5.00000000000000000000e-01) (101, 5, 5.00000000000000000000e-01) (101, 5, 5.00000000000000000000e-01) (101, 5, 5.00000000000000000000e-01) (101, 5, 5.00000000000000000000e-01) (101, 5, 5.00000000000000000000e-01) (101, 5, 5.00000000000000000000e-01) (101, 5, 5.00000000000000000000e-01) (101, 5, 5.00000000000000000000e-01) (101, 5, 5.00000000000000000000e-01) (101, 5, 5.00000000000000000000e-01) (101, 5, 5.00000000000000000000e-01) (101, 5, 5.00000000000000000000e-01) (101, 5, 5.00000000000000000000e-01) (101, 5, 5.00000000000000000000e-01) (101, 5, 5.00000000000000000000e-01) (101, 5, 5.00000000000000000000e-01) (101, 5, 5.00000000000000000000e-01) (101, 5, 5.00000000000000000000e-01) (101, 5, 5.00000000000000000000e-01) (101, 5, 5.00000000000000000000e-01) (101, 5, 5.00000000000000000000e-01) (101, 5, 5.00000000000000000000e-01) (101, 5, 5.00000000000000000000e-01) (101, 5, 5.00000000000000000000e-01) (101, 5, 5.00000000000000000000e-01) (101, 5, 5.00000000000000000000e-01) (101, 5, 5.00000000000000000000e-01) (101, 5, 5.00000000000000000000e-01) (101, 5, 5.00000000000000000000e-01) (101, 5, 5.00000000000000000000e-01) (101, 5, 5.00000000000000000000e-01) (101, 5, 5.00000000000000000000e-01) (101, 5, 5.00000000000000000000e-01) (101, 5, 5.00000000000000000000e-01) (101, 5, 5.00000000000000000000e-01) (101, 5, 5.00000000000000000000e-01) (101, 5, 5.00000000000000000000e-01) (101, 5, 5.00000000000000000000e-01) (101, 5, 5.00000000000000000000e-01) (101, 5, 5.00000000000000000000e-01) (101, 5, 5.00000000000000000000e-01) (101, 5, 5.00000000000000000000e-01) (101, 5, 5.00000000000000000000e-01) (101, 5, 5.00000000000000000000e-01) (101, 5, 5.00000000000000000000e-01) (101, 5, 5.00000000000000000000e-01) (101, 5, 5.00000000000000000000e-01) (101, 5, 5.00000000000000000000e-01) (101, 5, 5.00000000000000000000e-01) (101, 5, 5.00000000000000000000e-01) (101, 5, 5.00000000000000000000e-01) (101, 5, 5.00000000000000000000e-01) (101, 5, 5.00000000000000000000e-01) (101, 5, 5.00000000000000000000e-01) (101, 5, 5.00000000000000000000e-01) (101, 5, 5.00000000000000000000e-01) (101, 5, 5.00000000000000000000e-01) (101, 5, 5.00000000000000000000e-01) (101, 5, 5.00000000000000000000e-01) (101, 5, 5.00000000000000000000e-01) (101, 5, 5.00000000000000000000e-01) (101, 5, 5.00000000000000000000e-01) (101, 5, 5.00000000000000000000e-01) (101, 5, 5.00000000000000000000e-01) (101, 5, 5.00000000000000000000e-01) (101, 5, 5.00000000000000000000e-01) (101, 5, 5.00000000000000000000e-01) (101, 5, 5.00000000000000000000e-01) (101, 5, 5.00000000000000000000e-01) (101, 5, 5.00000000000000000000e-01) (101, 5, 5.00000000000000000000e-01) (101, 5, 5.00000000000000000000e-01) (0, 5, 0.00000000000000000000e+00) (101, 5, 5.00000000000000000000e-01) (101, 5, 5.00000000000000000000e-01) (101, 5, 5.00000000000000000000e-01) (101, 5, 5.00000000000000000000e-01) (0, 5, 0.00000000000000000000e+00) 
connections (connected_to_neuron, weight)=(0, 6.53632581233978271484e-02) (1, 7.85720944404602050781e-01) (2, 1.39545845985412597656e+00) (3, 3.09219248592853546143e-02) (4, 2.41920679807662963867e-01) (5, 1.87792271375656127930e-01) (6, -2.45975539088249206543e-01) (0, -7.46348977088928222656e-01) (1, -1.05983829125761985779e-02) (2, -2.95282989740371704102e-01) (3, 2.62752734124660491943e-02) (4, -2.72710132412612438202e-03) (5, 3.21632437407970428467e-02) (6, 2.60152578353881835938e-01) (0, -1.40021881088614463806e-02) (1, -1.21188089251518249512e-01) (2, -2.90812313556671142578e-01) (3, -7.47235417366027832031e-01) (4, 4.07252639532089233398e-01) (5, 3.21864724159240722656e-01) (6, -4.49550896883010864258e-01) (0, 1.87289488315582275391e+00) (1, 1.09183859825134277344e+00) (2, 1.60455298423767089844e+00) (3, -3.09949722141027450562e-02) (4, 1.81971102952957153320e-01) (5, 8.72790068387985229492e-02) (6, 1.74316430091857910156e+00) (0, -2.61709988117218017578e-01) (1, -1.93519353866577148438e+00) (2, -9.28910970687866210938e-01) (3, -6.31158411502838134766e-01) (4, -5.84105670452117919922e-01) (5, 3.57153177261352539062e-01) (6, -9.13048624992370605469e-01) (0, 6.36167478561401367188e+00) (1, -1.10619425773620605469e-01) (2, -1.34305000305175781250e+00) (3, -3.79430711269378662109e-01) (4, 1.99274897575378417969e-01) (5, -8.83974313735961914062e-01) (6, 2.93428480625152587891e-01) (0, -5.08269309997558593750e-01) (1, -1.56901761889457702637e-01) (2, 6.36463239789009094238e-02) (3, 1.86863479614257812500e+01) (4, 4.21211395263671875000e+02) (5, 5.09242951869964599609e-01) (6, -9.49443876743316650391e-02) (0, -2.16123151779174804688e+00) (1, -3.24329519271850585938e+00) (2, -6.22604274749755859375e+00) (3, 4.15408313274383544922e-02) (4, -3.04044634103775024414e-01) (5, 4.24530744552612304688e-01) (6, 2.27251172065734863281e+00) (0, -4.21656996011734008789e-01) (1, 1.27528774738311767578e+00) (2, 1.63991391658782958984e-01) (3, 1.71208664774894714355e-01) (4, 2.81095445156097412109e-01) (5, -4.96543765068054199219e-01) (6, 6.42984092235565185547e-01) (0, 2.00868034362792968750e+00) (1, -3.06994747370481491089e-02) (2, 6.97423964738845825195e-02) (3, -7.61933040618896484375e+00) (4, 4.60305362939834594727e-02) (5, 3.21421056985855102539e-01) (6, -2.01882794499397277832e-01) (0, 4.74311590194702148438e+00) (1, -2.11746692657470703125e-01) (2, -6.06762580573558807373e-02) (3, -1.88788279891014099121e-01) (4, 5.34338541328907012939e-02) (5, 1.37964263558387756348e-01) (6, -6.93405196070671081543e-02) (0, 1.41731560230255126953e-01) (1, 6.94838404655456542969e-01) (2, 1.20751798152923583984e+00) (3, -1.14215388894081115723e-02) (4, 6.62163085937500000000e+01) (5, 8.04271697998046875000e+01) (6, -1.17866897583007812500e+00) (0, 1.85336792469024658203e+00) (1, -1.06352424621582031250e+00) (2, -3.17016750574111938477e-01) (3, 1.51105642318725585938e-01) (4, -2.21050605177879333496e-01) (5, 6.91390335559844970703e-01) (6, -9.70169827342033386230e-02) (0, 4.35161180794239044189e-02) (1, -2.03864738345146179199e-01) (2, -3.03022414445877075195e-01) (3, 2.51043528318405151367e-01) (4, 8.39308857917785644531e-01) (5, -4.68335390090942382812e-01) (6, 1.57426103949546813965e-01) (0, -3.40386420488357543945e-01) (1, 5.19020795822143554688e-01) (2, 9.81602147221565246582e-02) (3, 1.48213281250000000000e+03) (4, 3.90693545341491699219e-01) (5, 1.30120173096656799316e-01) (6, 2.24339604377746582031e-01) (0, 5.35589307546615600586e-02) (1, -1.40666976571083068848e-01) (2, 3.46475362777709960938e-01) (3, -2.77936849743127822876e-02) (4, 1.95038656238466501236e-03) (5, -1.20513439178466796875e-01) (6, 1.00604929029941558838e-01) (0, -7.40555763244628906250e-01) (1, 1.25271216034889221191e-01) (2, 1.85531422495841979980e-01) (3, 6.22004508972167968750e-01) (4, 1.00901544094085693359e+00) (5, -7.49192833900451660156e-01) (6, 1.09917759895324707031e+00) (0, 1.28866004943847656250e+00) (1, 4.00868773460388183594e-01) (2, 4.23669070005416870117e-01) (3, -4.28921788930892944336e-01) (4, 1.48550152778625488281e+00) (5, 1.24568796157836914062e+00) (6, 2.89775189012289047241e-02) (0, 6.17034792900085449219e-01) (1, 3.69404649734497070312e+00) (2, 2.48269271850585937500e+00) (3, 2.00221642851829528809e-01) (4, 1.20180225372314453125e+00) (5, -1.40255320072174072266e+00) (6, 1.15896970033645629883e-01) (0, 1.23589551448822021484e+00) (1, 2.15171396732330322266e-01) (2, 5.74011027812957763672e-01) (3, 1.79972425103187561035e-01) (4, 9.93026554584503173828e-01) (5, -9.76823046803474426270e-02) (6, 8.51329982280731201172e-01) (0, -8.70796561241149902344e-01) (1, 1.26114511489868164062e+00) (2, 3.63498300313949584961e-01) (3, 1.48940905928611755371e-01) (4, 5.96838533878326416016e-01) (5, -3.23641330003738403320e-01) (6, 4.38989114761352539062e+00) (0, -4.00538384914398193359e-01) (1, 9.62222833186388015747e-03) (2, -3.18371430039405822754e-02) (3, 6.06302917003631591797e-03) (4, 1.21986933052539825439e-01) (5, 6.78037926554679870605e-02) (6, -2.38188996911048889160e-01) (0, 5.81627249717712402344e-01) (1, -1.65955219417810440063e-02) (2, -3.70945364236831665039e-01) (3, -1.10525369644165039062e-01) (4, -7.68170952796936035156e-01) (5, 2.90890663862228393555e-01) (6, -1.48318767547607421875e-01) (0, -2.69385874271392822266e-01) (1, 9.63207364082336425781e-01) (2, 1.32466268539428710938e+00) (3, 1.46935778808593750000e+03) (4, 1.47130004882812500000e+03) (5, 1.48793505859375000000e+03) (6, 1.95783269405364990234e+00) (0, 6.68300747871398925781e-01) (1, -4.21791493892669677734e-01) (2, 4.87595275044441223145e-02) (3, -1.05195898437500000000e+03) (4, 1.94326186180114746094e+00) (5, -1.03096980601549148560e-02) (6, 5.21823167800903320312e-01) (0, -9.03920531272888183594e-02) (1, 2.54544287919998168945e-01) (2, -7.54444748163223266602e-02) (3, 5.84069907665252685547e-01) (4, -4.35746088624000549316e-02) (5, -1.62044122815132141113e-01) (6, 1.66375294327735900879e-01) (0, 3.87935256958007812500e+00) (1, -1.01273798942565917969e+00) (2, 9.97492134571075439453e-01) (3, 1.50000000000000000000e+03) (4, 1.19640274047851562500e+01) (5, -8.98003280162811279297e-01) (6, -1.11136563122272491455e-01) (0, 1.50000000000000000000e+03) (1, 1.50000000000000000000e+03) (2, 1.50000000000000000000e+03) (3, -1.23029101562500000000e+03) (4, -1.33421398925781250000e+03) (5, -4.25771911621093750000e+02) (6, -6.23243212699890136719e-01) (0, 5.66135704517364501953e-01) (1, -4.66894418001174926758e-01) (2, 1.24842572212219238281e+00) (3, -8.92515294253826141357e-03) (4, 3.41549925506114959717e-02) (5, -3.84000271558761596680e-01) (6, -2.83465713262557983398e-01) (0, -1.59963704645633697510e-02) (1, -1.47369310259819030762e-01) (2, 8.92784893512725830078e-02) (3, 1.04047156870365142822e-01) (4, 1.51132285594940185547e+00) (5, 3.48290592432022094727e-01) (6, 9.52839851379394531250e-03) (0, -1.28561663627624511719e+00) (1, -6.25766217708587646484e-01) (2, -2.72385090589523315430e-01) (3, -9.26953732967376708984e-01) (4, 4.84889060258865356445e-01) (5, 6.90501332283020019531e-01) (6, -1.58890351653099060059e-01) (0, 4.33669537305831909180e-01) (1, -5.59629686176776885986e-03) (2, 1.36079147458076477051e-01) (3, -1.83930005878210067749e-02) (4, -1.04526281356811523438e-01) (5, -1.16548174992203712463e-02) (6, 1.39694467186927795410e-01) (0, -5.64856678247451782227e-02) (1, -4.72077041864395141602e-01) (2, 1.45167076587677001953e+00) (3, -2.80403226613998413086e-01) (4, 1.39825105667114257812e-01) (5, 2.18107402324676513672e-01) (6, -1.21272243559360504150e-01) (0, -8.08583736419677734375e-01) (1, 1.67274668812751770020e-01) (2, 8.17138627171516418457e-02) (3, -6.94888979196548461914e-02) (4, -6.47492036223411560059e-02) (5, 2.47151210904121398926e-01) (6, -4.06794667243957519531e-01) (0, -4.91120386123657226562e+00) (1, -1.17158830165863037109e+00) (2, -5.45017421245574951172e-01) (3, 4.40589427947998046875e-01) (4, 2.29652091860771179199e-01) (5, 9.44410338997840881348e-02) (6, 9.73561382293701171875e+00) (0, 1.80140805244445800781e+00) (1, 2.45171278715133666992e-01) (2, -3.01670551300048828125e+00) (3, 5.04026114940643310547e-02) (4, -3.33997935056686401367e-01) (5, 2.84086644649505615234e-01) (6, 3.64940786361694335938e+00) (0, -7.69767677411437034607e-03) (1, 1.97930783033370971680e-01) (2, 1.20509517192840576172e+00) (3, -8.24629422277212142944e-03) (4, -4.26754504442214965820e-02) (5, -9.70637076534330844879e-04) (6, 8.09920281171798706055e-02) (0, 6.87473833560943603516e-01) (1, -7.07487761974334716797e-02) (2, -3.21092903614044189453e-01) (3, -1.50000000000000000000e+03) (4, -2.48068404197692871094e+00) (5, 3.22094535827636718750e+00) (6, 4.31669689714908599854e-02) (0, 1.30560100078582763672e+00) (1, 1.13842093944549560547e+00) (2, -1.41418027877807617188e+00) (3, -1.13902136683464050293e-01) (4, 3.43173414468765258789e-01) (5, -2.26145952939987182617e-01) (6, -2.72118113934993743896e-02) (0, -2.46270567178726196289e-01) (1, -1.84052228927612304688e-01) (2, 2.39396635442972183228e-02) (3, -1.41708421707153320312e+00) (4, 4.15200978517532348633e-01) (5, -1.59642189741134643555e-01) (6, -6.31782934069633483887e-02) (0, 2.55056929588317871094e+00) (1, 1.02740705013275146484e-01) (2, -5.34938834607601165771e-02) (3, -1.37138858437538146973e-01) (4, 1.28569051623344421387e-01) (5, 2.62950658798217773438e-01) (6, 1.24297939240932464600e-01) (0, -4.72823753952980041504e-02) (1, 2.33048558235168457031e-01) (2, 5.22913455963134765625e-01) (3, 2.17815473675727844238e-01) (4, 1.23195648193359375000e+00) (5, 1.76777079701423645020e-01) (6, 2.88316696882247924805e-01) (0, -7.83961191773414611816e-02) (1, -2.90066093206405639648e-01) (2, 3.60118955373764038086e-01) (3, 7.91974365711212158203e-03) (4, -1.52737230062484741211e-01) (5, 8.64793732762336730957e-03) (6, -2.49079912900924682617e-01) (0, 3.75505208969116210938e-01) (1, -1.65068998932838439941e-01) (2, 4.92926873266696929932e-02) (3, 2.89494514465332031250e-01) (4, -5.10678410530090332031e-01) (5, 2.23045662045478820801e-01) (6, 7.07938432693481445312e-01) (0, -2.95525759458541870117e-01) (1, 3.27592611312866210938e-01) (2, 5.00592365860939025879e-02) (3, 3.29742908477783203125e-01) (4, -1.90135002136230468750e-01) (5, -9.39826667308807373047e-01) (6, 5.23565828800201416016e-01) (0, 2.89446651935577392578e-01) (1, -8.88180583715438842773e-02) (2, -2.00912684202194213867e-01) (3, -4.38963085412979125977e-01) (4, -2.91422098875045776367e-01) (5, 5.47848880290985107422e-01) (6, 7.77605101466178894043e-02) (0, -6.36421203613281250000e-01) (1, 8.20421278476715087891e-01) (2, 4.48716735839843750000e+00) (3, -7.61699974536895751953e-02) (4, 2.52904146909713745117e-01) (5, -2.29434296488761901855e-01) (6, -3.32028079032897949219e+00) (0, 1.36152550578117370605e-01) (1, -1.10555462539196014404e-01) (2, -8.97864282131195068359e-01) (3, 1.06877364218235015869e-01) (4, -9.56246405839920043945e-02) (5, 5.54938204586505889893e-02) (6, 3.04343551397323608398e-01) (0, -2.31055736541748046875e+00) (1, 9.23096656799316406250e-01) (2, -1.40188665390014648438e+01) (3, -1.79627820849418640137e-01) (4, 1.39153331518173217773e-01) (5, 9.43176507949829101562e-01) (6, -3.19555664062500000000e+00) (0, 9.84655618667602539062e-01) (1, -1.13559734821319580078e+00) (2, 1.04263797402381896973e-01) (3, -2.99816131591796875000e-01) (4, 2.83214300870895385742e-01) (5, 2.04261398315429687500e+00) (6, -6.57266974449157714844e-01) (0, 1.05526924133300781250e-01) (1, -7.22217708826065063477e-02) (2, -8.23761403560638427734e-01) (3, 4.86544631421566009521e-02) (4, -2.95768052339553833008e-01) (5, -1.50948226451873779297e-01) (6, -1.30619481205940246582e-01) (0, 9.28364336490631103516e-01) (1, 4.11331027746200561523e-01) (2, -1.08439333736896514893e-01) (3, 1.07695810496807098389e-01) (4, 1.90604314208030700684e-01) (5, 5.92233426868915557861e-02) (6, 4.81006622314453125000e-01) (0, -2.18539878726005554199e-01) (1, 9.31702256202697753906e-02) (2, 1.40370830893516540527e-01) (3, 2.55684256553649902344e-01) (4, -2.67550610005855560303e-02) (5, -1.51444986462593078613e-01) (6, 4.68314550817012786865e-02) (0, -3.75386923551559448242e-02) (1, 6.80856704711914062500e-02) (2, 1.30943909287452697754e-01) (3, -4.66279029846191406250e-01) (4, -8.07414710521697998047e-01) (5, 9.54505503177642822266e-01) (6, 1.85116883367300033569e-02) (0, 1.80383110046386718750e+00) (1, -1.02077007293701171875e+00) (2, 5.29025435447692871094e-01) (3, 4.00646030902862548828e-02) (4, 1.50085436180233955383e-02) (5, 6.60850927233695983887e-02) (6, 9.50172364711761474609e-01) (0, -6.36420965194702148438e-01) (1, 3.52645337581634521484e-01) (2, 9.38639119267463684082e-02) (3, 2.20460176467895507812e-01) (4, 6.22788250446319580078e-01) (5, 1.96049928665161132812e-01) (6, 2.62613981962203979492e-01) (0, 4.69881892204284667969e-01) (1, 3.66752818226814270020e-02) (2, 4.76722925901412963867e-01) (3, 1.03710651397705078125e-01) (4, 1.10423982143402099609e+00) (5, 1.72349244356155395508e-01) (6, -2.14383572340011596680e-01) (0, 3.68642640113830566406e+00) (1, 7.55130434036254882812e+00) (2, -6.02877140045166015625e-01) (3, 1.50000000000000000000e+03) (4, 9.40452158451080322266e-01) (5, 1.17425405979156494141e+00) (6, -5.53281128406524658203e-01) (0, 6.10614681243896484375e+00) (1, -1.16326836869120597839e-02) (2, 2.03526878356933593750e+00) (3, 7.73185789585113525391e-02) (4, -1.25846356153488159180e-01) (5, 4.68948744237422943115e-02) (6, -5.35710016265511512756e-03) (0, 2.32464358210563659668e-01) (1, 2.75838166475296020508e-01) (2, -2.82337486743927001953e-01) (3, 5.55793084204196929932e-02) (4, 5.65923452377319335938e-02) (5, 7.88620486855506896973e-03) (6, 3.61498981714248657227e-01) (0, -2.66384899616241455078e-01) (1, 2.06031307578086853027e-01) (2, 3.30432951450347900391e-01) (3, 1.27712953090667724609e+00) (4, -5.98502308130264282227e-02) (5, -1.36770987510681152344e+00) (6, 1.64726283401250839233e-02) (0, 3.86400014162063598633e-01) (1, -6.08311712741851806641e-01) (2, -1.32911324501037597656e-01) (3, -1.50000000000000000000e+03) (4, -4.89919960498809814453e-01) (5, -7.29389116168022155762e-02) (6, -5.74653923511505126953e-01) (0, -8.32007050514221191406e-01) (1, -1.96839228272438049316e-01) (2, -5.76081633567810058594e-01) (3, -1.01803674697875976562e+01) (4, -6.89920949935913085938e+00) (5, 6.03467941284179687500e-01) (6, 1.09389744699001312256e-01) (0, 3.99296909570693969727e-01) (1, -5.45125156641006469727e-02) (2, 3.52056741714477539062e-01) (3, 9.92512032389640808105e-02) (4, 8.97334396839141845703e-01) (5, 1.81111916899681091309e-01) (6, 6.16369806230068206787e-02) (0, -8.20852220058441162109e-02) (1, 3.66743147373199462891e-01) (2, -2.00636684894561767578e-01) (3, -1.77254498004913330078e-01) (4, 4.40148413181304931641e-02) (5, -2.17412173748016357422e-01) (6, 1.50124445557594299316e-01) (0, 3.95618788897991180420e-02) (1, 5.07642149925231933594e-01) (2, -3.37154835462570190430e-01) (3, 1.17989033460617065430e-01) (4, -1.03203609585762023926e-01) (5, 2.00186237692832946777e-01) (6, 1.51258423924446105957e-01) (0, -5.56813716888427734375e-01) (1, 4.30555403232574462891e-01) (2, 1.42543661594390869141e+00) (3, 2.72218197584152221680e-01) (4, 6.72878444194793701172e-01) (5, -5.66359519958496093750e-01) (6, 8.33920478820800781250e-01) (0, 5.52518546581268310547e-01) (1, 8.54858815670013427734e-01) (2, 1.20340847969055175781e+00) (3, 3.00068914890289306641e-01) (4, 4.09463316202163696289e-01) (5, 1.41220659017562866211e-01) (6, 1.32857739925384521484e+00) (0, 5.19315385818481445312e+00) (1, 1.10382810235023498535e-01) (2, 1.11392170190811157227e-01) (3, 4.37003634870052337646e-02) (4, 1.34812006726861000061e-02) (5, -2.45083053596317768097e-03) (6, 4.96491134166717529297e-01) (0, -1.62951901555061340332e-01) (1, 6.82626724243164062500e-01) (2, 1.44562035799026489258e-01) (3, 1.31237283349037170410e-01) (4, 5.90918242931365966797e-01) (5, -1.25618532299995422363e-01) (6, 9.90251064300537109375e-01) (0, 3.21448415517807006836e-01) (1, -6.05868458747863769531e-01) (2, -5.71941614151000976562e-01) (3, -3.55163753032684326172e-01) (4, -1.86373323202133178711e-01) (5, 7.19495415687561035156e-01) (6, -1.23489968478679656982e-01) (0, 4.69438314437866210938e+00) (1, 3.17786395549774169922e-01) (2, 3.18629920482635498047e-01) (3, 4.95785437524318695068e-02) (4, 3.14927287399768829346e-02) (5, 7.98489689826965332031e-01) (6, -1.23260629177093505859e+00) (0, 1.05034399032592773438e+00) (1, -5.73412954807281494141e-01) (2, 6.59266352653503417969e-01) (3, 6.28171768039464950562e-03) (4, -7.09713622927665710449e-02) (5, -1.30061745643615722656e-01) (6, 1.36117830872535705566e-01) (0, 2.42193555831909179688e+00) (1, 8.80677878856658935547e-01) (2, 2.91609853506088256836e-01) (3, -4.74194139242172241211e-01) (4, 4.21202480792999267578e-01) (5, -5.50025105476379394531e-02) (6, 2.08762288093566894531e+00) (0, 2.72611570358276367188e+00) (1, 1.43477594852447509766e+00) (2, 1.01508057117462158203e+00) (3, -4.40069362521171569824e-02) (4, -4.80436980724334716797e-02) (5, 9.02645811438560485840e-02) (6, 8.87697398662567138672e-01) (0, -1.34831464290618896484e+00) (1, 6.37821793556213378906e-01) (2, -1.10919916629791259766e+00) (3, -3.19430381059646606445e-01) (4, 1.46490648388862609863e-01) (5, 8.23066234588623046875e-01) (6, -1.77063035964965820312e+00) (0, 4.45389524102210998535e-02) (1, -3.17982137203216552734e-01) (2, 2.38070115447044372559e-01) (3, 4.33973461389541625977e-01) (4, -2.71170020103454589844e-01) (5, 3.17404240369796752930e-01) (6, -1.19002833962440490723e-01) (0, 4.61117982864379882812e-01) (1, 2.69381523132324218750e-01) (2, 3.39706763625144958496e-02) (3, 6.25176727771759033203e-02) (4, -2.45865374803543090820e-01) (5, 1.54546082019805908203e-01) (6, 2.08339762687683105469e+00) (0, -5.14793694019317626953e-01) (1, -9.63889420032501220703e-01) (2, 1.55450189113616943359e+00) (3, 4.91190515458583831787e-02) (4, 1.34883806109428405762e-01) (5, 3.23717772960662841797e-01) (6, -1.48863255977630615234e+00) (0, -2.47808051109313964844e+00) (1, 4.20274925231933593750e+00) (2, 1.23903913497924804688e+01) (3, 9.16718244552612304688e-01) (4, 8.23280155658721923828e-01) (5, -5.38983643054962158203e-01) (6, -2.67114424705505371094e+00) (0, 2.32852473855018615723e-01) (1, -2.90872216224670410156e-01) (2, 1.45324063301086425781e+00) (3, 1.50000000000000000000e+03) (4, 8.06704025268554687500e+01) (5, 1.04329566955566406250e+02) (6, -2.22944879531860351562e+00) (0, 1.06583061218261718750e+01) (1, 6.18042230606079101562e-01) (2, 1.47530353069305419922e+00) (3, -7.61780980974435806274e-03) (4, 6.25882158055901527405e-03) (5, -4.33674501255154609680e-03) (6, -2.38706660270690917969e+00) (0, 7.94659674167633056641e-01) (1, 6.99802935123443603516e-01) (2, 4.19948399066925048828e-01) (3, 1.37400197982788085938e+00) (4, 7.45730757713317871094e-01) (5, 1.66087210178375244141e-01) (6, 2.58784055709838867188e-01) (0, 2.93258011341094970703e-01) (1, -5.02428054809570312500e-01) (2, -3.98685991764068603516e-01) (3, 3.85384559631347656250e-02) (4, 1.21613323688507080078e-01) (5, 6.50898873805999755859e-01) (6, 3.13568413257598876953e-01) (0, 4.86872285604476928711e-01) (1, 1.28949373960494995117e-01) (2, 3.84961068630218505859e-01) (3, -2.54685968160629272461e-01) (4, 2.17663064599037170410e-01) (5, -1.02339237928390502930e-01) (6, -1.12708285450935363770e-01) (0, -5.69779098033905029297e-01) (1, 1.33876442909240722656e-01) (2, 1.51650719344615936279e-02) (3, -2.48504943847656250000e+02) (4, -8.23153182864189147949e-02) (5, 1.32350305175781250000e+03) (6, 2.49682873487472534180e-01) (0, 2.36645281314849853516e-01) (1, 5.32797813415527343750e-01) (2, -1.05051755905151367188e-01) (3, 2.85600394010543823242e-01) (4, 5.30536890029907226562e-01) (5, -4.24250394105911254883e-01) (6, 5.29757082462310791016e-01) (0, -5.00162830576300621033e-03) (1, -7.72895932197570800781e-01) (2, 4.43903744220733642578e-01) (3, 1.07422560453414916992e-01) (4, -2.79662422835826873779e-02) (5, 1.13566562533378601074e-01) (6, -1.42072319984436035156e-01) (0, -1.94165050983428955078e+00) (1, 5.82946538925170898438e-01) (2, 1.45269364118576049805e-01) (3, -6.17824085056781768799e-02) (4, -3.39232608675956726074e-02) (5, 9.62449908256530761719e-02) (6, 3.38978543877601623535e-02) (0, -1.71509590148925781250e+01) (1, 4.15956306457519531250e+00) (2, 1.03423767089843750000e+01) (3, 4.56044614315032958984e-01) (4, 4.00699377059936523438e-01) (5, 2.09115719795227050781e+00) (6, -9.55412209033966064453e-01) (0, 5.14322614669799804688e+00) (1, 2.52723312377929687500e+00) (2, -4.17607367038726806641e-01) (3, -7.11169615387916564941e-02) (4, 2.22299724817276000977e-01) (5, 1.85417402535676956177e-02) (6, -1.65695682168006896973e-01) (0, 3.34522753953933715820e-01) (1, -1.44650027155876159668e-01) (2, 2.57231593132019042969e-02) (3, -4.14141744375228881836e-01) (4, -2.34898075461387634277e-01) (5, 1.76027595996856689453e-01) (6, -8.34609493613243103027e-02) (0, -3.40574979782104492188e+00) (1, -5.23709841072559356689e-02) (2, 6.14588260650634765625e-02) (3, 5.51461847499012947083e-03) (4, -1.41294494271278381348e-01) (5, 8.83992612361907958984e-02) (6, 5.56805022060871124268e-02) (0, 1.06591844558715820312e+01) (1, 3.28559303283691406250e+00) (2, 8.40041065216064453125e+00) (3, 1.78006198257207870483e-02) (4, 1.41934859752655029297e+00) (5, 1.13406145572662353516e+00) (6, -4.95688152313232421875e+00) (0, -3.67612950503826141357e-02) (1, 2.47382268309593200684e-01) (2, 1.54629290103912353516e-01) (3, 2.57959246635437011719e-01) (4, 7.25308597087860107422e-01) (5, -7.17526853084564208984e-01) (6, 1.32063314318656921387e-01) (0, -1.31740242242813110352e-01) (1, -1.58490747213363647461e-01) (2, 2.46401518583297729492e-01) (3, 1.03285568237304687500e+02) (4, -1.52238123118877410889e-02) (5, -6.82987243652343750000e+02) (6, 1.07263907790184020996e-01) (0, 4.62288349866867065430e-01) (1, 2.88847655057907104492e-01) (2, -1.63984343409538269043e-01) (3, 2.51716673374176025391e-01) (4, -2.99352258443832397461e-01) (5, 2.41829808801412582397e-02) (6, 5.18868803977966308594e-01) (0, 4.15463352203369140625e+00) (1, -8.32207012176513671875e+00) (2, -5.52380418777465820312e+00) (3, 1.08771361410617828369e-01) (4, 2.81036734580993652344e+00) (5, 1.43931958007812500000e+03) (6, -3.22619438171386718750e+00) (0, -1.06113898754119873047e+00) (1, -7.93286919593811035156e-01) (2, 8.45580577850341796875e-01) (3, 1.36972973123192787170e-02) (4, 5.33716440200805664062e-01) (5, 7.84577205777168273926e-02) (6, 6.91525191068649291992e-02) (0, 3.36334037780761718750e+00) (1, 1.14282876253128051758e-01) (2, 3.38065296411514282227e-01) (3, -9.96191940307617187500e+01) (4, 1.97223541259765625000e+02) (5, 9.09300765991210937500e+01) (6, 3.07421624660491943359e-01) (7, 9.05583858489990234375e-01) (8, -2.07709360122680664062e+00) (9, 2.77159530669450759888e-02) (10, -3.21713757514953613281e+00) (11, -9.40630733966827392578e-02) (12, 6.59862339496612548828e-01) (13, -2.33011737465858459473e-01) (14, 1.80903207510709762573e-02) (15, -1.60658285021781921387e-01) (16, 1.09558299183845520020e-01) (17, 6.39483749866485595703e-01) (18, 3.24304848909378051758e-01) (19, -6.89614534378051757812e-01) (20, 3.58327448368072509766e-01) (21, -1.68027147650718688965e-01) (22, 4.51569050550460815430e-01) (23, 3.34496736526489257812e-01) (24, -3.46896536648273468018e-02) (25, 4.54948633909225463867e-01) (26, -1.43644779920578002930e-01) (27, -1.43739640712738037109e-01) (28, 1.25387561321258544922e+00) (29, 1.02675688266754150391e+00) (30, 2.01389893889427185059e-01) (31, -2.70823389291763305664e-01) (32, 1.66071936488151550293e-01) (33, -2.66478359699249267578e-02) (34, -9.36077013611793518066e-02) (35, 7.12133526802062988281e-01) (36, -1.07059431076049804688e+00) (37, -6.90012395381927490234e-01) (38, 6.94013297557830810547e-01) (39, 8.32007408142089843750e-01) (40, 6.62204205989837646484e-01) (41, 4.34321016073226928711e-01) (42, 2.32631742954254150391e-01) (43, -4.15647596120834350586e-01) (44, -8.45448255538940429688e-01) (45, -1.91008806228637695312e+00) (46, -2.16430574655532836914e-01) (47, 7.10038244724273681641e-01) (48, -2.13170552253723144531e+00) (49, -1.23636767268180847168e-01) (50, -1.16838574409484863281e-01) (51, 2.15537381172180175781e+00) (52, 1.80613055825233459473e-01) (53, 9.82392847537994384766e-01) (54, 1.18118084967136383057e-01) (55, -5.77658534049987792969e-01) (56, 1.41964107751846313477e-01) (57, -9.51097607612609863281e-01) (58, -6.11781358718872070312e-01) (59, 2.13767957687377929688e+00) (60, -6.29674866795539855957e-02) (61, -3.35159361362457275391e-01) (62, -1.13477790355682373047e+00) (63, -1.33108067512512207031e+00) (64, 1.83015286922454833984e-01) (65, -1.20037265121936798096e-01) (66, -1.13209450244903564453e+00) (67, -1.51294946670532226562e-01) (68, 2.86286562681198120117e-01) (69, -5.46350896358489990234e-01) (70, -1.19340586662292480469e+00) (71, 1.04290437698364257812e+00) (72, 9.62988659739494323730e-02) (73, 4.74411666393280029297e-01) (74, 2.43782978504896163940e-02) (75, -4.93162035942077636719e-01) (76, -1.99810355901718139648e-01) (77, -2.10905503481626510620e-02) (78, 2.40211784839630126953e-01) (79, 2.70573757588863372803e-02) (80, -3.83539676666259765625e-01) (81, 1.30914285778999328613e-01) (82, 3.01142156124114990234e-01) (83, -4.20233577489852905273e-01) (84, 1.59745410084724426270e-01) (85, -1.21218666434288024902e-01) (86, 4.60357815027236938477e-01) (87, -4.54998284578323364258e-01) (88, 3.26559454202651977539e-01) (89, 1.08688175678253173828e-02) (90, -4.47386838495731353760e-02) (91, 3.66262912750244140625e-01) (92, 3.21867801249027252197e-02) (93, 2.06699818372726440430e-01) (94, 2.98644572496414184570e-01) (95, 7.80709147453308105469e-01) (96, 6.81533277034759521484e-01) (97, 3.63128595054149627686e-02) (98, 6.12081587314605712891e-02) (99, -3.83463241159915924072e-02) (100, -4.32756811380386352539e-01) (101, 3.79690200090408325195e-01) (102, 4.45255845785140991211e-01) (103, 2.67788916826248168945e-01) (104, -1.43223986029624938965e-01) (105, -4.51300203800201416016e-01) (106, -2.26588442921638488770e-01) (107, 1.28977537155151367188e+00) (7, 3.05138647556304931641e-01) (8, 8.21489393711090087891e-01) (9, 6.67902648448944091797e-01) (10, 9.68234658241271972656e-01) (11, 8.36832046508789062500e-01) (12, 3.34891468286514282227e-01) (13, 9.82164382934570312500e-01) (14, 1.89590379595756530762e-02) (15, -1.28504306077957153320e-01) (16, 7.60459721088409423828e-01) (17, 3.75194311141967773438e-01) (18, 4.25928622484207153320e-01) (19, 1.86531081795692443848e-01) (20, -3.37323434650897979736e-02) (21, -3.77943247556686401367e-01) (22, 4.66754764318466186523e-01) (23, 8.39890539646148681641e-02) (24, 2.11036682128906250000e-01) (25, 7.48603418469429016113e-02) (26, 6.35451404377818107605e-03) (27, -7.83995315432548522949e-02) (28, -3.84870231151580810547e-01) (29, 5.46323478221893310547e-01) (30, -5.92265762388706207275e-02) (31, 2.35939040780067443848e-01) (32, -3.58527332544326782227e-01) (33, -8.12424495816230773926e-02) (34, -6.00976943969726562500e-02) (35, 5.77190630137920379639e-02) (36, 1.79439261555671691895e-01) (37, 7.47549176216125488281e-01) (38, 4.43039029836654663086e-01) (39, 5.77400028705596923828e-01) (40, -3.81946384906768798828e-01) (41, 3.80894571542739868164e-01) (42, 4.44797396659851074219e-01) (43, -4.25893545150756835938e-01) (44, 4.36795592308044433594e-01) (45, 4.22920346260070800781e-01) (46, 1.24309587478637695312e+00) (47, 3.78777384757995605469e-01) (48, 3.00950258970260620117e-01) (49, -9.71878618001937866211e-02) (50, -1.73719391226768493652e-01) (51, -2.71539062261581420898e-01) (52, 9.57501351833343505859e-01) (53, 3.85597735643386840820e-01) (54, -4.00368422269821166992e-01) (55, -8.96326545625925064087e-03) (56, 7.82003700733184814453e-01) (57, 3.11737120151519775391e-01) (58, 2.78021842241287231445e-01) (59, -3.36730659008026123047e-01) (60, 7.82564640045166015625e-01) (61, -1.31507182121276855469e+00) (62, 3.91289442777633666992e-01) (63, 1.34679704904556274414e-01) (64, -3.59307639300823211670e-02) (65, -1.63194155693054199219e+00) (66, 1.13709366321563720703e+00) (67, -8.27924609184265136719e-02) (68, 1.05680418014526367188e+00) (69, 3.92577111721038818359e-01) (70, 2.17979073524475097656e-01) (71, 2.57524430751800537109e-01) (72, 1.02947242558002471924e-01) (73, -1.22190125286579132080e-01) (74, 2.60034918785095214844e-01) (75, -6.25558078289031982422e-01) (76, 5.12661784887313842773e-03) (77, 1.11733901500701904297e+00) (78, -1.76987349987030029297e-01) (79, -3.82706761360168457031e-01) (80, 5.13867318630218505859e-01) (81, -5.17379403114318847656e-01) (82, 4.87347900867462158203e-01) (83, 2.13682465255260467529e-02) (84, -1.04822814464569091797e+00) (85, 5.64667463302612304688e-01) (86, -2.07541912794113159180e-01) (87, 5.77428758144378662109e-01) (88, 1.74010708928108215332e-01) (89, -2.36794695258140563965e-01) (90, 9.93908524513244628906e-01) (91, -2.05421507358551025391e-01) (92, 3.19122850894927978516e-01) (93, 1.23237632215023040771e-01) (94, 2.48336419463157653809e-01) (95, -4.02094796299934387207e-02) (96, -1.11967313289642333984e+00) (97, 6.69981360435485839844e-01) (98, 2.71298795938491821289e-01) (99, -3.14289629459381103516e-02) (100, 8.66640955209732055664e-02) (101, 6.43411278724670410156e-02) (102, 1.74927040934562683105e-01) (103, -9.52833890914916992188e-01) (104, 3.43219898641109466553e-02) (105, 3.07453926652669906616e-02) (106, 1.56985592842102050781e+00) (107, 4.93649989366531372070e-01) (7, 6.27261579036712646484e-01) (8, 5.17962408065795898438e+00) (9, 6.01274430751800537109e-01) (10, -4.94678765535354614258e-02) (11, 6.51990354061126708984e-01) (12, 6.36979699134826660156e-01) (13, -7.37589374184608459473e-02) (14, 7.96475112438201904297e-01) (15, 4.71446849405765533447e-02) (16, 9.98066663742065429688e-02) (17, 6.52597248554229736328e-01) (18, 2.02435016632080078125e+00) (19, -5.52350997924804687500e-01) (20, 4.27218258380889892578e-01) (21, 6.87828719615936279297e-01) (22, -5.06566464900970458984e-01) (23, 7.43758380413055419922e-01) (24, -5.51288008689880371094e-01) (25, 1.24509580433368682861e-01) (26, 2.35451832413673400879e-01) (27, -7.18913525342941284180e-02) (28, 8.83792459964752197266e-01) (29, 5.00396549701690673828e-01) (30, 1.22186446189880371094e+00) (31, 1.45363128185272216797e+00) (32, 2.20174372196197509766e-01) (33, 1.88986793160438537598e-01) (34, 1.49460911750793457031e+00) (35, 2.89887809753417968750e+00) (36, 1.40169620513916015625e+00) (37, 7.14488774538040161133e-02) (38, 6.62930846214294433594e-01) (39, 1.03466951847076416016e+00) (40, -2.95844953507184982300e-02) (41, 7.13175162672996520996e-02) (42, 2.90100991725921630859e-01) (43, 4.41857576370239257812e-01) (44, 8.29394757747650146484e-01) (45, 2.51786112785339355469e-01) (46, -1.70957911014556884766e+00) (47, 3.65239441394805908203e-01) (48, 4.98479217290878295898e-01) (49, 1.41138270497322082520e-01) (50, 2.68598890304565429688e+00) (51, 4.93820190429687500000e-01) (52, 6.42819344997406005859e-01) (53, 2.54216492176055908203e-01) (54, 5.60953915119171142578e-01) (55, 7.41502881050109863281e-01) (56, 5.97431957721710205078e-01) (57, 4.62482362985610961914e-01) (58, -3.06192129850387573242e-01) (59, 1.57388710975646972656e+00) (60, 2.23982021212577819824e-01) (61, 2.67980098724365234375e+00) (62, -5.63113912940025329590e-02) (63, 1.09252834320068359375e+00) (64, -2.95664608478546142578e-01) (65, 6.36801004409790039062e-01) (66, -1.21076241135597229004e-01) (67, -1.37349918484687805176e-01) (68, 1.61454826593399047852e-01) (69, 2.65226185321807861328e-01) (70, 9.27360773086547851562e-01) (71, 4.23122383654117584229e-02) (72, 1.63875073194503784180e-01) (73, 2.46246322989463806152e-01) (74, -1.79301112890243530273e-01) (75, 3.94934463500976562500e+00) (76, 1.52281522750854492188e-01) (77, 5.40441930294036865234e-01) (78, 1.08252310752868652344e+00) (79, -1.59825527667999267578e+00) (80, 1.37571823596954345703e+00) (81, 2.05754280090332031250e+00) (82, 2.27364659309387207031e-01) (83, 2.22864270210266113281e+00) (84, -1.03621624410152435303e-01) (85, 1.73166632652282714844e+00) (86, 4.85993057489395141602e-01) (87, 1.55775058269500732422e+00) (88, 1.96359291672706604004e-01) (89, 3.57801944017410278320e-01) (90, 7.72474765777587890625e-01) (91, 4.16399896144866943359e-01) (92, 9.54265177249908447266e-01) (93, 2.78445422649383544922e-01) (94, 1.73180806636810302734e+00) (95, -1.82677283883094787598e-01) (96, 1.67173027992248535156e+00) (97, 6.35610818862915039062e-01) (98, 1.42324316501617431641e+00) (99, -2.76948601007461547852e-01) (100, 1.55401790142059326172e+00) (101, 1.21618606150150299072e-01) (102, -4.02300536632537841797e-01) (103, 1.18541002273559570312e+00) (104, 2.87210643291473388672e-01) (105, 2.36973810195922851562e+00) (106, 4.50638979673385620117e-01) (107, 1.78427565097808837891e+00) (7, 1.27661180496215820312e+00) (8, 1.17324841022491455078e+00) (9, 9.64486479759216308594e-01) (10, -5.23353964090347290039e-02) (11, 8.00280928611755371094e-01) (12, 4.26294416189193725586e-01) (13, 2.37060710787773132324e-01) (14, 1.41425266861915588379e-01) (15, -1.79965746402740478516e+00) (16, 8.93495559692382812500e-01) (17, 8.28719913959503173828e-01) (18, 7.92172372341156005859e-01) (19, 1.36765331029891967773e-01) (20, 9.27715748548507690430e-02) (21, 4.77730818092823028564e-02) (22, 8.46691787242889404297e-01) (23, -1.60756826400756835938e-01) (24, 8.94440770149230957031e-01) (25, -2.76171296834945678711e-01) (26, -7.53812134265899658203e-01) (27, -1.06265604496002197266e+00) (28, -2.01521083712577819824e-01) (29, 7.34737455844879150391e-01) (30, -7.92821943759918212891e-01) (31, -1.48371323943138122559e-01) (32, -6.89553618431091308594e-01) (33, -2.36527514457702636719e+00) (34, -2.72920839488506317139e-02) (35, 6.77218019962310791016e-01) (36, 9.69740211963653564453e-01) (37, -1.18081890046596527100e-01) (38, -1.25023335218429565430e-01) (39, 1.28987956047058105469e+00) (40, 8.19817423820495605469e-01) (41, -7.69536852836608886719e-01) (42, -2.64301061630249023438e-01) (43, -9.09469127655029296875e-02) (44, 1.06280481815338134766e+00) (45, -9.00597497820854187012e-02) (46, 7.24942922592163085938e-01) (47, 5.66835045814514160156e-01) (48, 6.36471033096313476562e-01) (49, -1.06094740331172943115e-02) (50, -8.80472600460052490234e-01) (51, -3.30938172340393066406e+00) (52, 1.49479925632476806641e+00) (53, 2.39075556397438049316e-01) (54, 1.29693105816841125488e-01) (55, -1.04893422126770019531e+00) (56, 4.30295288562774658203e-01) (57, 2.53901362419128417969e-01) (58, -4.87821668386459350586e-01) (59, -5.68607139587402343750e+00) (60, -2.53879725933074951172e-02) (61, -6.70129537582397460938e-01) (62, -5.76155222952365875244e-02) (63, 6.79718315601348876953e-01) (64, -2.72488087415695190430e-01) (65, 4.07874077558517456055e-01) (66, 2.17675939202308654785e-01) (67, -6.08226776123046875000e-01) (68, 1.14798402786254882812e+00) (69, -8.30053567886352539062e-01) (70, 7.29253053665161132812e-01) (71, 7.71869122982025146484e-01) (72, -3.26400995254516601562e-01) (73, -4.43264275789260864258e-01) (74, -3.99371832609176635742e-01) (75, -1.17841672897338867188e+00) (76, -1.12701809406280517578e+00) (77, 3.84366750717163085938e-01) (78, 1.38136053085327148438e+00) (79, -6.20955288410186767578e-01) (80, 4.51666325330734252930e-01) (81, -1.00477766990661621094e+00) (82, 1.14644372463226318359e+00) (83, -2.83587396144866943359e-01) (84, 1.51146221160888671875e+00) (85, 3.80802065134048461914e-01) (86, -1.03649222850799560547e+00) (87, 1.32350397109985351562e+00) (88, 1.12798845767974853516e+00) (89, 3.06288391351699829102e-01) (90, -2.07756891846656799316e-01) (91, -8.55654418468475341797e-01) (92, 8.98473799228668212891e-01) (93, -8.71114730834960937500e-01) (94, -1.26593321561813354492e-01) (95, -9.89579081535339355469e-01) (96, -4.69143241643905639648e-02) (97, 9.84782576560974121094e-02) (98, 1.06507086753845214844e+00) (99, -2.81692951917648315430e-01) (100, 5.77268600463867187500e-01) (101, -9.85769107937812805176e-02) (102, -1.13018050789833068848e-01) (103, -4.10395324230194091797e-01) (104, -5.26769220829010009766e-01) (105, 7.05375730991363525391e-01) (106, 3.66999119520187377930e-01) (107, 9.34092164039611816406e-01) (7, 7.57352709770202636719e-02) (8, -9.69735346734523773193e-03) (9, 6.48618936538696289062e-01) (10, -6.20254397392272949219e-01) (11, -1.09852224588394165039e-01) (12, 3.50503355264663696289e-01) (13, 1.74186319112777709961e-01) (14, 1.66724109649658203125e+00) (15, 3.05046975612640380859e-01) (16, 1.13963568210601806641e+00) (17, 2.45883211493492126465e-01) (18, 7.72269248962402343750e-01) (19, -4.40891176462173461914e-01) (20, -2.31140398979187011719e+00) (21, -1.19098752737045288086e-01) (22, 1.57401347160339355469e+00) (23, 2.28244483470916748047e-01) (24, -5.30398368835449218750e-01) (25, 5.71029663085937500000e-01) (26, -4.72830533981323242188e-01) (27, 3.39027792215347290039e-01) (28, 3.89698982238769531250e-01) (29, -4.98503595590591430664e-01) (30, 2.37457245588302612305e-01) (31, 2.78089702129364013672e-01) (32, 2.58446764200925827026e-02) (33, -4.44645673036575317383e-01) (34, 4.01487708091735839844e-01) (35, 1.15038263797760009766e+00) (36, 3.73978167772293090820e-01) (37, 4.22139689326286315918e-02) (38, 3.40618640184402465820e-01) (39, 1.54110074043273925781e+00) (40, 7.65520989894866943359e-01) (41, -8.17258358001708984375e-01) (42, -8.47904086112976074219e-02) (43, 9.38585922122001647949e-02) (44, 6.90229117870330810547e-01) (45, 6.86117589473724365234e-01) (46, 1.92443445324897766113e-01) (47, -1.05875516310334205627e-02) (48, 4.35178756713867187500e-01) (49, 9.67793822288513183594e-01) (50, 1.93071687221527099609e+00) (51, 2.93181706219911575317e-02) (52, 8.51581811904907226562e-01) (53, -2.48110532760620117188e-01) (54, -2.38872838020324707031e+00) (55, 8.55825096368789672852e-02) (56, -9.63343307375907897949e-03) (57, 1.07121214270591735840e-01) (58, -9.85589206218719482422e-01) (59, 1.66999042034149169922e-01) (60, -8.98175239562988281250e-01) (61, -1.05849415063858032227e-01) (62, 8.17273199558258056641e-01) (63, 6.37344598770141601562e-01) (64, 2.01928639411926269531e+00) (65, 5.96014820039272308350e-02) (66, -1.22362005710601806641e+00) (67, 6.96909070014953613281e-01) (68, 1.31495451927185058594e+00) (69, -3.95871818065643310547e-01) (70, 4.65980827808380126953e-01) (71, 3.19659143686294555664e-01) (72, 7.32989311218261718750e-01) (73, 3.48813265562057495117e-01) (74, 3.39494675397872924805e-01) (75, 2.24635171890258789062e+00) (76, 3.18668037652969360352e-01) (77, -4.77019846439361572266e-01) (78, 2.67251729965209960938e-01) (79, 1.27628982067108154297e+00) (80, 1.13377049565315246582e-02) (81, 2.38710665702819824219e+00) (82, 1.95980265736579895020e-01) (83, -9.35685575008392333984e-01) (84, -4.45821695029735565186e-02) (85, 1.93901091814041137695e-01) (86, 1.34388399124145507812e+00) (87, 4.92899388074874877930e-01) (88, 1.59943306446075439453e+00) (89, -9.80690717697143554688e-02) (90, -8.70114445686340332031e-01) (91, 2.84468340873718261719e+00) (92, -6.70422837138175964355e-02) (93, 3.87396484613418579102e-01) (94, -1.66701531410217285156e+00) (95, 1.00929832458496093750e+00) (96, -7.32795536518096923828e-01) (97, 1.17619776725769042969e+00) (98, 6.00780248641967773438e-01) (99, 1.36964130401611328125e+00) (100, 9.51186060905456542969e-01) (101, 5.80810904502868652344e-01) (102, 2.14686083793640136719e+00) (103, -1.35279437527060508728e-02) (104, -3.00867483019828796387e-02) (105, 3.99823844432830810547e-01) (106, -5.63101842999458312988e-02) (107, -2.78799462318420410156e+00) (7, -1.91088512539863586426e-01) (8, 5.24763047695159912109e-01) (9, 1.31193804740905761719e+00) (10, 1.53841912746429443359e-01) (11, -2.06060111522674560547e-01) (12, 5.02481222152709960938e-01) (13, 5.69085121154785156250e-01) (14, -1.19342356920242309570e-01) (15, -1.18827656842768192291e-03) (16, 1.19295251369476318359e+00) (17, 9.30859863758087158203e-01) (18, 1.63217306137084960938e+00) (19, 4.60733294486999511719e-01) (20, -6.54378175735473632812e-01) (21, 1.87331050634384155273e-01) (22, -7.00391456484794616699e-02) (23, -4.77153450250625610352e-01) (24, 8.04326087236404418945e-02) (25, 8.98405551910400390625e-01) (26, -4.74616318941116333008e-01) (27, -2.95162826776504516602e-01) (28, -3.33570688962936401367e-01) (29, 2.61619806289672851562e+00) (30, -5.05484752357006072998e-02) (31, -1.64881363511085510254e-01) (32, 1.89287811517715454102e-01) (33, 3.39557863771915435791e-02) (34, 6.60625457763671875000e-01) (35, 1.24986693263053894043e-01) (36, -7.00499355792999267578e-01) (37, 7.54112839698791503906e-01) (38, 5.01186549663543701172e-01) (39, 5.44526398181915283203e-01) (40, 2.62008762359619140625e+00) (41, 1.93541169166564941406e-01) (42, 4.02801483869552612305e-01) (43, 2.80214309692382812500e-01) (44, 4.42021429538726806641e-01) (45, 2.94680465012788772583e-02) (46, -2.02668771147727966309e-01) (47, 5.64802348613739013672e-01) (48, -3.26202541589736938477e-01) (49, 3.51020783185958862305e-01) (50, -9.13592725992202758789e-02) (51, -1.85166999697685241699e-01) (52, -1.60210907459259033203e-01) (53, 1.87182411551475524902e-01) (54, 3.37889432907104492188e-01) (55, -1.58232718706130981445e-01) (56, 1.09924077987670898438e+00) (57, 3.00372362136840820312e-01) (58, -9.52051803469657897949e-02) (59, -1.36934146285057067871e-01) (60, 1.11397874355316162109e+00) (61, 2.37247943878173828125e+00) (62, 5.97677469253540039062e-01) (63, -2.71670579910278320312e+00) (64, 6.45231246948242187500e-01) (65, 1.35647201538085937500e+00) (66, 7.58552774786949157715e-02) (67, -1.19815602898597717285e-01) (68, 4.28337812423706054688e-01) (69, -8.19655656814575195312e-02) (70, -8.73575150966644287109e-01) (71, -7.25862830877304077148e-02) (72, -1.31642445921897888184e-01) (73, -3.60427230596542358398e-01) (74, 6.55641853809356689453e-01) (75, -2.19526275992393493652e-01) (76, -3.37488055229187011719e-01) (77, 6.45855128765106201172e-01) (78, 4.35525625944137573242e-01) (79, 4.30106371641159057617e-01) (80, 2.52048134803771972656e-01) (81, 9.97614383697509765625e-01) (82, 7.23769426345825195312e-01) (83, -2.37488597631454467773e-01) (84, 2.15783163905143737793e-01) (85, 1.00171065330505371094e+00) (86, -7.74477779865264892578e-01) (87, 3.85697811841964721680e-01) (88, 5.58807730674743652344e-01) (89, 2.68768340349197387695e-01) (90, 5.78017175197601318359e-01) (91, 7.12290182709693908691e-02) (92, -3.95539432764053344727e-01) (93, -5.97607076168060302734e-01) (94, 2.88760453462600708008e-01) (95, 1.15498149394989013672e+00) (96, 2.47152730822563171387e-01) (97, -4.20172214508056640625e-01) (98, 1.49683415889739990234e-01) (99, 9.36303615570068359375e-01) (100, 4.13625165820121765137e-02) (101, 7.15327143669128417969e-01) (102, 2.88704782724380493164e-01) (103, 9.51326265931129455566e-02) (104, 4.86968636512756347656e-01) (105, -3.13630074262619018555e-01) (106, 1.73179507255554199219e-01) (107, 5.02228617668151855469e-01) (7, 1.07404842972755432129e-01) (8, 4.28450524806976318359e-01) (9, 4.71707791090011596680e-01) (10, 2.46849134564399719238e-01) (11, 5.73851346969604492188e-01) (12, 1.33854579925537109375e+00) (13, 4.33148860931396484375e-01) (14, -6.51864290237426757812e-01) (15, -1.56142130494117736816e-01) (16, 3.50976169109344482422e-01) (17, 5.58979988098144531250e-01) (18, 1.15941357612609863281e+00) (19, 6.33830606937408447266e-01) (20, -7.67240881919860839844e-01) (21, 1.08603872358798980713e-01) (22, -2.71454900503158569336e-02) (23, 1.79680228233337402344e-01) (24, -6.37755930423736572266e-01) (25, -8.87531757354736328125e-01) (26, -3.76763105392456054688e-01) (27, -4.41111624240875244141e-01) (28, 1.64894178509712219238e-01) (29, 6.35092020034790039062e-01) (30, 3.67443934082984924316e-02) (31, 1.15573382377624511719e+00) (32, 2.71982789039611816406e-01) (33, -3.91233563423156738281e-01) (34, 4.96938407421112060547e-01) (35, 1.24262738227844238281e+00) (36, 1.89136409759521484375e+00) (37, 4.06074196100234985352e-01) (38, 2.12816548347473144531e+00) (39, 4.52786564826965332031e-01) (40, 7.06405043601989746094e-01) (41, 9.26105082035064697266e-02) (42, -1.81957805156707763672e+00) (43, 3.07271718978881835938e-01) (44, 2.36762568354606628418e-01) (45, -3.87069582939147949219e-02) (46, 6.02221488952636718750e-01) (47, 3.36316645145416259766e-01) (48, 3.18101406097412109375e-01) (49, 1.05704092979431152344e+00) (50, -2.55255624651908874512e-02) (51, -1.09630613587796688080e-03) (52, 3.71769666671752929688e-01) (53, -4.67104688286781311035e-02) (54, 5.24387538433074951172e-01) (55, -1.61851793527603149414e-02) (56, 2.11706662178039550781e+00) (57, 6.55639022588729858398e-02) (58, -7.04576373100280761719e-02) (59, -2.61874467134475708008e-01) (60, 5.82316756248474121094e-01) (61, 2.22662711143493652344e+00) (62, -8.88414680957794189453e-02) (63, 4.74665969610214233398e-01) (64, 2.14764618873596191406e+00) (65, 4.07361841201782226562e+00) (66, 4.08471286296844482422e-01) (67, -9.68643426895141601562e-01) (68, 3.68735700845718383789e-01) (69, 2.07763805985450744629e-01) (70, 3.59492063522338867188e-01) (71, -2.02002912759780883789e-01) (72, 3.68423849344253540039e-01) (73, 1.98929905891418457031e-01) (74, 3.20029854774475097656e-01) (75, 1.69341790676116943359e+00) (76, -3.93311917781829833984e-01) (77, 1.14160931110382080078e+00) (78, 2.99939751625061035156e-01) (79, 7.26234197616577148438e-01) (80, 1.30402296781539916992e-01) (81, 9.18341398239135742188e-01) (82, 7.21261262893676757812e-01) (83, 6.16500675678253173828e-01) (84, -1.83760449290275573730e-01) (85, 3.64351296424865722656e+00) (86, 2.95869767665863037109e-01) (87, 1.52161443233489990234e+00) (88, -2.12765669822692871094e+00) (89, 5.97225315868854522705e-02) (90, 8.50760400295257568359e-01) (91, 7.54463255405426025391e-01) (92, 1.02071595191955566406e+00) (93, -8.02332103252410888672e-01) (94, 3.20039272308349609375e-01) (95, 2.83892691135406494141e-01) (96, 3.73384445905685424805e-01) (97, 4.16924238204956054688e-01) (98, 4.76001381874084472656e-01) (99, 6.42746746540069580078e-01) (100, 2.43404102325439453125e+00) (101, -9.20788347721099853516e-01) (102, 8.21751236915588378906e-01) (103, -1.78662467002868652344e+00) (104, 1.06845474243164062500e+00) (105, 1.48762834072113037109e+00) (106, 3.58278036117553710938e-01) (107, 1.67583495378494262695e-01) (7, 7.16192722320556640625e-01) (8, 1.44337981939315795898e-01) (9, -9.03769657015800476074e-02) (10, 5.28112147003412246704e-03) (11, 5.30491530895233154297e-01) (12, 1.68178692460060119629e-01) (13, 7.30172753334045410156e-01) (14, 1.97523653507232666016e-01) (15, -3.09065669775009155273e-01) (16, 3.23760032653808593750e-01) (17, 2.85651117563247680664e-01) (18, -3.90452481806278228760e-02) (19, 7.29141771793365478516e-01) (20, -4.29191678762435913086e-01) (21, 1.81937769055366516113e-01) (22, 2.95757800340652465820e-01) (23, 6.70105963945388793945e-02) (24, 2.28043839335441589355e-01) (25, -2.73471444845199584961e-01) (26, -2.94017255306243896484e-01) (27, -3.21862429380416870117e-01) (28, 6.64066448807716369629e-02) (29, 1.09284675121307373047e+00) (30, 1.29851549863815307617e-01) (31, -3.12783509492874145508e-01) (32, -4.37832653522491455078e-01) (33, -8.39341998100280761719e-01) (34, 2.91032224893569946289e-01) (35, -9.49798151850700378418e-02) (36, -4.15717244148254394531e-01) (37, 2.21765011548995971680e-01) (38, -1.90408200025558471680e-01) (39, 6.09738051891326904297e-01) (40, -2.07871258258819580078e-01) (41, -3.97213071584701538086e-01) (42, 1.21145240962505340576e-01) (43, 1.58699190616607666016e+00) (44, 5.20171463489532470703e-01) (45, 1.85014933347702026367e-01) (46, 1.62776887416839599609e-01) (47, 3.74689877033233642578e-01) (48, -3.53201389312744140625e-01) (49, 3.08879286050796508789e-01) (50, -9.51466485857963562012e-02) (51, 8.19086655974388122559e-02) (52, -1.08622498810291290283e-01) (53, 1.20490506291389465332e-01) (54, 5.35230278968811035156e-01) (55, 3.12762558460235595703e-01) (56, 4.07506376504898071289e-01) (57, 7.93041467666625976562e-01) (58, 5.85210807621479034424e-02) (59, 1.62855729460716247559e-01) (60, -2.88440465927124023438e-01) (61, 1.39146700501441955566e-01) (62, -1.00489549338817596436e-01) (63, -5.86524844169616699219e-01) (64, -8.06789696216583251953e-02) (65, -8.76858174800872802734e-01) (66, 2.41870000958442687988e-01) (67, -1.71204134821891784668e-01) (68, 7.29321956634521484375e-01) (69, 3.32630306482315063477e-01) (70, -4.08130913972854614258e-01) (71, 7.99888372421264648438e-01) (72, -3.44537198543548583984e-01) (73, -8.28758597373962402344e-01) (74, -1.47150069475173950195e-01) (75, 1.60444200038909912109e+00) (76, -2.19804465770721435547e-01) (77, 6.33821785449981689453e-02) (78, 4.27595078945159912109e-01) (79, 2.74152815341949462891e-01) (80, 2.60758012533187866211e-01) (81, -5.23117661476135253906e-01) (82, 5.71214199066162109375e-01) (83, 2.21631512045860290527e-01) (84, 9.05536953359842300415e-03) (85, 2.28086709976196289062e-01) (86, -1.63173079490661621094e+00) (87, -4.80726733803749084473e-03) (88, 7.93699622154235839844e-01) (89, -5.84183216094970703125e-01) (90, 1.39084890484809875488e-01) (91, -2.11547221988439559937e-02) (92, -6.42713233828544616699e-02) (93, -6.78996026515960693359e-01) (94, 5.93763947486877441406e-01) (95, 2.53435403108596801758e-01) (96, 5.45448303222656250000e-01) (97, -1.69601231813430786133e-01) (98, 4.72036063671112060547e-01) (99, -1.24733410775661468506e-02) (100, -4.46810662746429443359e-01) (101, -3.96521359682083129883e-01) (102, -3.09051930904388427734e-01) (103, 4.80423688888549804688e-01) (104, -1.24344099313020706177e-02) (105, -4.62815046310424804688e-01) (106, -9.43562611937522888184e-02) (107, 1.43459159880876541138e-02) (7, 8.86095538735389709473e-02) (8, 1.25456806272268295288e-02) (9, 1.71387040615081787109e+00) (10, 2.06418752670288085938e-01) (11, 8.94422650337219238281e-01) (12, 1.16717326641082763672e+00) (13, -4.26709763705730438232e-02) (14, -1.77946209907531738281e-01) (15, -5.43178841471672058105e-02) (16, 4.17462921142578125000e+00) (17, 1.51094317436218261719e+00) (18, -2.51927256584167480469e+00) (19, -1.98711156845092773438e-01) (20, 4.27358686923980712891e-01) (21, -1.12191939353942871094e+00) (22, 9.46219563484191894531e-01) (23, 3.42223614454269409180e-01) (24, 8.10379803180694580078e-01) (25, 1.85224279761314392090e-01) (26, 4.37701642513275146484e-01) (27, 2.69118875265121459961e-01) (28, -2.30694144964218139648e-01) (29, 5.28757274150848388672e-01) (30, -1.92084565758705139160e-01) (31, 3.00313979387283325195e-01) (32, -1.03249990940093994141e+00) (33, -2.05942463874816894531e+00) (34, 2.59128272533416748047e-01) (35, 1.21115408837795257568e-01) (36, 1.48554348945617675781e+00) (37, 5.29524266719818115234e-01) (38, 5.94432950019836425781e-01) (39, -4.30508628487586975098e-02) (40, 2.65461474657058715820e-01) (41, 4.65754181146621704102e-01) (42, 9.35137331485748291016e-01) (43, 4.21367549896240234375e+00) (44, 3.98030996322631835938e-01) (45, -1.13461665809154510498e-01) (46, -9.33977365493774414062e-02) (47, 3.11003947257995605469e+00) (48, 1.58832982182502746582e-01) (49, 7.52584218978881835938e-01) (50, -9.95685234665870666504e-02) (51, 1.94823235273361206055e-01) (52, 2.76854008436203002930e-01) (53, -4.88438725471496582031e-01) (54, 8.84704291820526123047e-02) (55, -1.70041859149932861328e-01) (56, -2.94260442256927490234e-01) (57, 2.48409318923950195312e+00) (58, 7.68598496913909912109e-01) (59, 1.57809957861900329590e-01) (60, 9.82416048645973205566e-02) (61, 3.77248317003250122070e-01) (62, -2.46289540082216262817e-02) (63, -7.21177959442138671875e+00) (64, 2.19488954544067382812e+00) (65, -1.80987584590911865234e+00) (66, -4.81873035430908203125e-01) (67, -1.27261006832122802734e+00) (68, 9.25191760063171386719e-01) (69, 8.17079842090606689453e-01) (70, 1.47829875349998474121e-02) (71, 7.17025339603424072266e-01) (72, -5.72857223451137542725e-02) (73, 3.68855074048042297363e-02) (74, -6.78380951285362243652e-02) (75, 2.03433129936456680298e-02) (76, -2.04949095845222473145e-01) (77, 1.14736266434192657471e-01) (78, 1.42915904521942138672e-01) (79, 5.49478113651275634766e-01) (80, -3.13146114349365234375e-02) (81, -2.37958818674087524414e-01) (82, 5.02773299813270568848e-02) (83, -2.77624815702438354492e-01) (84, -1.33496809005737304688e+00) (85, -3.45996826887130737305e-01) (86, -9.24520850181579589844e-01) (87, -2.84746110439300537109e-01) (88, 1.24135160446166992188e+00) (89, 3.70284110307693481445e-01) (90, 2.84194850921630859375e+00) (91, -8.90412807464599609375e-01) (92, -2.46913895010948181152e-01) (93, 1.94199532270431518555e-01) (94, 7.90651321411132812500e-01) (95, 1.33936464786529541016e-01) (96, 3.42704534530639648438e-01) (97, 7.41130173206329345703e-01) (98, 3.14612954854965209961e-01) (99, 9.42246913909912109375e-01) (100, -1.57370042800903320312e+00) (101, 1.37208378314971923828e+00) (102, 1.31908655166625976562e-01) (103, -2.46613979339599609375e-01) (104, -3.14794294536113739014e-02) (105, -7.84928165376186370850e-03) (106, 4.75118249654769897461e-01) (107, 4.72029352188110351562e+00) (7, 2.53547448664903640747e-02) (8, -3.68784964084625244141e-01) (9, -1.63667678833007812500e-01) (10, -5.44804990291595458984e-01) (11, 5.61720728874206542969e-02) (12, 2.13948547840118408203e-01) (13, -4.73015338182449340820e-01) (14, -5.84340840578079223633e-02) (15, -2.83246785402297973633e-02) (16, 9.79414701461791992188e-01) (17, 9.28326308727264404297e-01) (18, -1.59108012914657592773e-01) (19, 5.39463043212890625000e-01) (20, -1.02381348609924316406e+00) (21, -4.85280722379684448242e-01) (22, -3.11811268329620361328e-01) (23, -4.58334058523178100586e-01) (24, 3.48585426807403564453e-01) (25, 1.27466604113578796387e-01) (26, -3.56945484876632690430e-01) (27, -4.36353588104248046875e+00) (28, -1.20256051421165466309e-01) (29, 1.47140574455261230469e+00) (30, 2.03114181756973266602e-01) (31, 6.30375087261199951172e-01) (32, -7.02233791351318359375e-01) (33, -3.62756073474884033203e-01) (34, -5.05764603614807128906e-01) (35, 3.57983559370040893555e-01) (36, 1.03184711933135986328e+00) (37, 4.26834315061569213867e-01) (38, 1.65390670299530029297e+00) (39, 1.30700170993804931641e-01) (40, 6.29733324050903320312e-01) (41, -3.07626634836196899414e-01) (42, -1.21885068714618682861e-01) (43, 1.90484213829040527344e+00) (44, 1.23765744268894195557e-01) (45, 3.92022562026977539062e+00) (46, 7.84035027027130126953e-01) (47, 2.42220535874366760254e-01) (48, -1.72155350446701049805e-01) (49, 3.27774077653884887695e-01) (50, 3.53104948997497558594e-01) (51, 1.20191767811775207520e-01) (52, 7.72863328456878662109e-01) (53, 4.12663847208023071289e-01) (54, -5.21983504295349121094e-02) (55, -2.35955208539962768555e-01) (56, 8.45520079135894775391e-01) (57, 8.51571023464202880859e-01) (58, 3.34435343742370605469e-01) (59, 5.46584129333496093750e-01) (60, 1.59332382678985595703e+00) (61, 5.90009726583957672119e-02) (62, 5.33569574356079101562e-01) (63, -2.89684951305389404297e-01) (64, 4.81791406869888305664e-01) (65, -2.85474252700805664062e+00) (66, -5.08013926446437835693e-03) (67, -3.53806525468826293945e-01) (68, 1.51453948020935058594e+00) (69, -1.62770116329193115234e+00) (70, 1.81093662977218627930e-01) (71, 2.49781578779220581055e-01) (72, 1.51027232408523559570e-01) (73, -5.34041643142700195312e+00) (74, -1.76260256767272949219e+00) (75, 5.30796670913696289062e+00) (76, -2.85174280405044555664e-01) (77, 5.66461645066738128662e-02) (78, -6.83536052703857421875e-01) (79, 4.47683304548263549805e-01) (80, -2.52133309841156005859e-01) (81, 4.48650211095809936523e-01) (82, 4.30167764425277709961e-01) (83, 4.74262475967407226562e-01) (84, 8.61638784408569335938e-01) (85, 3.48332852125167846680e-01) (86, 1.45936763286590576172e+00) (87, -3.67319464683532714844e-01) (88, -5.92853248119354248047e-01) (89, 3.42885613441467285156e-01) (90, 5.50876334309577941895e-02) (91, 1.83134853839874267578e+00) (92, 2.39890322089195251465e-01) (93, 2.82199764251708984375e+00) (94, 7.91350066661834716797e-01) (95, 7.67357945442199707031e-01) (96, 8.62591624259948730469e-01) (97, -5.17803907394409179688e-01) (98, -1.52327525615692138672e+00) (99, 3.79288744926452636719e+00) (100, -1.20551049709320068359e-01) (101, -2.36706590652465820312e+00) (102, -8.81913229823112487793e-02) (103, 9.07632827758789062500e-01) (104, 2.04251140356063842773e-01) (105, 5.10119855403900146484e-01) (106, -3.04150611162185668945e-01) (107, -3.22002351284027099609e-01) (7, 3.00791800022125244141e-01) (8, 3.18419635295867919922e-01) (9, 3.69518339633941650391e-01) (10, 6.92184448242187500000e-01) (11, 1.51642346382141113281e+00) (12, 3.72987568378448486328e-01) (13, 1.22818684577941894531e+00) (14, 2.91646420955657958984e-01) (15, -1.51215866208076477051e-01) (16, -7.10177481174468994141e-01) (17, 1.37580916285514831543e-01) (18, 3.88883769512176513672e-01) (19, 1.36068254709243774414e-01) (20, 4.40877564251422882080e-02) (21, -1.39099508523941040039e-02) (22, 9.09199118614196777344e-01) (23, 5.99034018814563751221e-02) (24, -4.17175263166427612305e-01) (25, -2.95392304658889770508e-01) (26, -1.47505652904510498047e+00) (27, -3.17522108554840087891e-01) (28, 1.11264860630035400391e+00) (29, 1.39359068870544433594e+00) (30, 6.64278984069824218750e-01) (31, 2.47993066906929016113e-01) (32, 1.67769238352775573730e-01) (33, 4.63005751371383666992e-01) (34, -5.16784131526947021484e-01) (35, 6.83433771133422851562e-01) (36, 8.17873179912567138672e-01) (37, 1.96645534038543701172e+00) (38, 1.63079693913459777832e-01) (39, 8.28572750091552734375e-01) (40, -2.31619521975517272949e-01) (41, -1.16940748691558837891e+00) (42, 2.43405222892761230469e-01) (43, 6.25295352935791015625e+00) (44, -2.21795961260795593262e-01) (45, 7.45104014873504638672e-01) (46, 1.58288870006799697876e-02) (47, 8.01411986351013183594e-01) (48, 2.11743816733360290527e-01) (49, 1.63925325870513916016e+00) (50, -2.17099237442016601562e+00) (51, -1.81574881076812744141e-01) (52, 1.92771609872579574585e-02) (53, 5.59338033199310302734e-01) (54, -1.58937089145183563232e-02) (55, 1.31428015232086181641e+00) (56, 6.88190758228302001953e-01) (57, -1.68864503502845764160e-01) (58, 4.14222441613674163818e-02) (59, -2.49250940978527069092e-02) (60, -7.93588757514953613281e-01) (61, 9.12833273410797119141e-01) (62, 1.56718716025352478027e-01) (63, 4.64737057685852050781e-01) (64, -2.61471807956695556641e-01) (65, 7.58739054203033447266e-01) (66, -1.27304300665855407715e-01) (67, 6.02080039680004119873e-02) (68, 6.08344793319702148438e-01) (69, -1.88249826431274414062e+00) (70, 1.01353144645690917969e+00) (71, 8.80200982093811035156e-01) (72, 4.76032018661499023438e-01) (73, 3.05241316556930541992e-01) (74, 5.00492453575134277344e-01) (75, 2.89850687980651855469e+00) (76, -5.48561692237854003906e-01) (77, 4.24328260123729705811e-02) (78, 1.61536857485771179199e-01) (79, -5.47719150781631469727e-02) (80, -3.01532298326492309570e-01) (81, -1.84884279966354370117e-01) (82, 6.76505684852600097656e-01) (83, 1.34350880980491638184e-01) (84, -1.17442913055419921875e+01) (85, 4.10143196582794189453e-01) (86, -6.75395607948303222656e-01) (87, 4.22704517841339111328e-01) (88, 2.31970930099487304688e+00) (89, -5.78711330890655517578e-01) (90, 1.68357685208320617676e-01) (91, 7.12566554546356201172e-01) (92, -1.05263471603393554688e+00) (93, -3.59187334775924682617e-01) (94, 1.25677689909934997559e-01) (95, -2.52736359834671020508e-01) (96, 1.58268988132476806641e-01) (97, 2.30502104759216308594e+00) (98, 5.86554348468780517578e-01) (99, -7.62733966112136840820e-02) (100, 4.56380754709243774414e-01) (101, -4.76012639701366424561e-02) (102, 9.55364286899566650391e-01) (103, -2.76111125946044921875e-01) (104, 1.02359735965728759766e+00) (105, 7.91090250015258789062e-01) (106, 3.06528151035308837891e-01) (107, 1.18072247505187988281e+00) (7, 3.94250489771366119385e-02) (8, -7.52213075757026672363e-02) (9, -9.05699431896209716797e-01) (10, -8.95300090312957763672e-01) (11, -2.33798250555992126465e-01) (12, -2.49259993433952331543e-01) (13, 2.93578952550888061523e-01) (14, 9.50625091791152954102e-02) (15, 5.73123335838317871094e-01) (16, -4.97947841882705688477e-01) (17, -1.50297796726226806641e+00) (18, 7.05977499485015869141e-01) (19, 4.25230830907821655273e-01) (20, 9.04409527778625488281e-01) (21, 1.68733155727386474609e+00) (22, -4.30995851755142211914e-01) (23, 1.67164489626884460449e-01) (24, -1.19169689714908599854e-01) (25, 4.58518527448177337646e-02) (26, -9.12353396415710449219e-02) (27, 7.57275372743606567383e-02) (28, 5.79556643962860107422e-01) (29, 3.28706055879592895508e-01) (30, 3.45107883214950561523e-01) (31, -4.36503440141677856445e-01) (32, 1.25819849967956542969e+00) (33, 2.14514076709747314453e-01) (34, 1.52355337142944335938e+00) (35, 1.69147655367851257324e-01) (36, -4.99278038740158081055e-01) (37, -9.19900119304656982422e-01) (38, 9.87211689352989196777e-02) (39, -1.35682773590087890625e+00) (40, 2.32586935162544250488e-02) (41, -3.68854224681854248047e-01) (42, 2.58136689662933349609e-01) (43, -1.05211161077022552490e-01) (44, 1.39380112290382385254e-01) (45, -1.09331272542476654053e-01) (46, 3.53463530540466308594e-01) (47, 5.92926889657974243164e-02) (48, -3.24933230876922607422e-01) (49, -5.00130094587802886963e-02) (50, 2.88465917110443115234e-01) (51, 9.39222514629364013672e-01) (52, -1.59268766641616821289e-01) (53, -5.18338978290557861328e-01) (54, 4.49206203222274780273e-01) (55, -1.55852392315864562988e-01) (56, -1.07554823160171508789e-01) (57, 2.43229246139526367188e+00) (58, -2.63959407806396484375e-01) (59, 6.32454335689544677734e-01) (60, 3.49704980850219726562e-01) (61, 8.00986230373382568359e-01) (62, 4.24267739057540893555e-01) (63, 1.12474076449871063232e-01) (64, 1.37222617864608764648e-01) (65, 5.63228964805603027344e-01) (66, -1.08798861503601074219e-01) (67, 4.84807282686233520508e-01) (68, -1.35074961185455322266e+00) (69, 2.79249459505081176758e-01) (70, -7.20893621444702148438e-01) (71, -2.09156632423400878906e-01) (72, 3.62543404102325439453e-01) (73, -3.27915735542774200439e-02) (74, -1.51730075478553771973e-01) (75, 7.94420391321182250977e-02) (76, 5.77808432281017303467e-02) (77, -5.23656457662582397461e-02) (78, -1.49822115898132324219e-01) (79, 1.15978872776031494141e+00) (80, 2.26362347602844238281e-01) (81, -2.02896624803543090820e-01) (82, 2.85653144121170043945e-01) (83, 1.56948059797286987305e-01) (84, 4.90539491176605224609e-01) (85, 2.74022500962018966675e-02) (86, 7.49869644641876220703e-02) (87, -6.91342294216156005859e-01) (88, -1.08030885457992553711e-01) (89, 1.01773209869861602783e-01) (90, -5.76794862747192382812e-01) (91, -1.72028923034667968750e+00) (92, 7.63119906187057495117e-02) (93, 7.25804194808006286621e-02) (94, 1.18215656280517578125e+00) (95, 7.94510900974273681641e-01) (96, -2.53943264484405517578e-01) (97, -8.32142531871795654297e-01) (98, 4.46672171354293823242e-01) (99, -7.30964839458465576172e-02) (100, -2.00643628835678100586e-01) (101, 6.86597451567649841309e-02) (102, -2.79369294643402099609e-01) (103, 1.80109918117523193359e+00) (104, 2.17577978968620300293e-01) (105, 2.04549878835678100586e-01) (106, -2.73739027976989746094e+00) (107, 2.57150292396545410156e+00) (7, 9.01502221822738647461e-02) (8, 2.62961238622665405273e-01) (9, 4.10552680492401123047e-01) (10, -8.27277123928070068359e-01) (11, 4.74866300821304321289e-01) (12, -2.63064932823181152344e+00) (13, -4.56545829772949218750e-01) (14, 4.07676309347152709961e-01) (15, 1.33362281322479248047e+00) (16, -3.36481451988220214844e-01) (17, -2.44789052009582519531e+00) (18, 3.27624529600143432617e-01) (19, 3.20957392454147338867e-01) (20, -1.52078233659267425537e-02) (21, 9.30238127708435058594e-01) (22, 1.37272566556930541992e-01) (23, -1.53059780597686767578e-01) (24, -1.68669268488883972168e-01) (25, -1.32707342505455017090e-01) (26, 4.26810473203659057617e-01) (27, 9.71532911062240600586e-02) (28, -2.89925616234540939331e-02) (29, -1.27651467919349670410e-02) (30, -6.87759280204772949219e-01) (31, -9.15445834398269653320e-02) (32, 1.25743293762207031250e+00) (33, 6.61125540733337402344e-01) (34, -1.49276137351989746094e-01) (35, 7.23404735326766967773e-02) (36, -1.27964437007904052734e-01) (37, 1.98671996593475341797e-01) (38, 3.69507372379302978516e-01) (39, 3.24826054275035858154e-02) (40, -1.05457223951816558838e-01) (41, -9.43032801151275634766e-01) (42, -4.69792336225509643555e-01) (43, -1.66341078281402587891e+00) (44, -6.15245521068572998047e-01) (45, 2.96924293041229248047e-01) (46, 2.58920580148696899414e-01) (47, -3.02426218986511230469e+00) (48, 8.53942811489105224609e-01) (49, 1.29486012458801269531e+00) (50, 6.56024992465972900391e-01) (51, -1.05886265635490417480e-01) (52, -1.78083464503288269043e-01) (53, -3.02991300821304321289e-01) (54, -1.08885183930397033691e-01) (55, -1.04105293750762939453e-01) (56, 5.86924552917480468750e-01) (57, 2.52446174621582031250e-01) (58, 3.09805095195770263672e-01) (59, 4.87800687551498413086e-01) (60, 1.06905889511108398438e+00) (61, -1.87309518456459045410e-01) (62, 5.12306272983551025391e-01) (63, -3.03974986076354980469e-01) (64, -4.49993968009948730469e-01) (65, 1.06777518987655639648e-01) (66, 1.23250603675842285156e+00) (67, 9.80258464813232421875e-01) (68, -9.25295233726501464844e-01) (69, -1.19411788880825042725e-01) (70, -4.71309619024395942688e-03) (71, 2.92785793542861938477e-01) (72, 3.57888370752334594727e-01) (73, 2.76910454034805297852e-01) (74, -6.82284235954284667969e-02) (75, 3.18276000022888183594e+00) (76, 1.40721470117568969727e-01) (77, 2.85314172506332397461e-01) (78, -1.48890388011932373047e+00) (79, 8.14591109752655029297e-01) (80, 1.59191843122243881226e-02) (81, 2.54150867462158203125e-01) (82, 3.59940797090530395508e-01) (83, 6.62096977233886718750e-01) (84, -4.99328732490539550781e-01) (85, 1.77840650081634521484e-01) (86, 4.89846557378768920898e-01) (87, 1.13997340202331542969e+00) (88, 5.16230881214141845703e-01) (89, -1.89812749624252319336e-01) (90, -4.58756946027278900146e-02) (91, -8.31156194210052490234e-01) (92, -2.93358433991670608521e-02) (93, 3.77242684364318847656e-01) (94, 3.30633819103240966797e-01) (95, 1.65742337703704833984e-01) (96, -3.13962176442146301270e-02) (97, -6.01870179176330566406e-01) (98, 4.38755571842193603516e-01) (99, 1.62426859140396118164e-01) (100, -2.15077698230743408203e-01) (101, 5.91683201491832733154e-03) (102, -4.48025733232498168945e-01) (103, 1.18319892883300781250e+00) (104, 2.56051182746887207031e-01) (105, -1.11907705664634704590e-01) (106, -1.42675113677978515625e+00) (107, 8.92562925815582275391e-01) (7, 8.43969359993934631348e-03) (8, 1.11195814609527587891e+00) (9, 1.65951073169708251953e-01) (10, -6.15885891020298004150e-02) (11, 6.04979991912841796875e-01) (12, 4.21910941600799560547e-01) (13, 8.27175796031951904297e-01) (14, 1.25156408175826072693e-02) (15, 2.96360880136489868164e-01) (16, 9.78236377239227294922e-01) (17, 8.79711508750915527344e-01) (18, -5.38831889629364013672e-01) (19, -8.03249776363372802734e-01) (20, 4.74951893091201782227e-01) (21, 2.11756721138954162598e-01) (22, 2.37934499979019165039e-01) (23, -1.43713951110839843750e-01) (24, 7.57911324501037597656e-01) (25, -3.04912060499191284180e-01) (26, 8.08213651180267333984e-01) (27, 7.22367823123931884766e-01) (28, -3.20126473903656005859e-01) (29, 5.68312369287014007568e-02) (30, -3.49983870983123779297e-01) (31, -2.10468959808349609375e+00) (32, -6.15443438291549682617e-02) (33, -5.29487669467926025391e-01) (34, 1.87331438064575195312e-01) (35, -2.39295199513435363770e-01) (36, 1.48299169540405273438e+00) (37, 6.85496211051940917969e-01) (38, 3.13427627086639404297e-01) (39, -1.34785318374633789062e+00) (40, 7.91976675391197204590e-02) (41, 3.06643068790435791016e-01) (42, 5.03190815448760986328e-01) (43, 4.24785554409027099609e-01) (44, 3.46949028968811035156e+00) (45, 1.40774726867675781250e+00) (46, -1.06291222572326660156e+00) (47, -2.40114003419876098633e-01) (48, 5.75418770313262939453e-01) (49, 6.23411178588867187500e-01) (50, 2.21835866570472717285e-01) (51, -1.27440929412841796875e+00) (52, 8.68891835212707519531e-01) (53, 2.35160514712333679199e-01) (54, -2.48886510729789733887e-01) (55, 3.43551129102706909180e-01) (56, -2.07407355308532714844e-01) (57, 6.70696139335632324219e-01) (58, 1.69553899765014648438e+00) (59, -1.91351819038391113281e+00) (60, 1.56398749351501464844e+00) (61, 1.39216944575309753418e-01) (62, 2.88971096277236938477e-01) (63, 3.43386381864547729492e-01) (64, -1.68343210220336914062e+00) (65, -5.84681093692779541016e-01) (66, 1.57571470737457275391e+00) (67, 1.46207094192504882812e-01) (68, 4.01486039161682128906e-01) (69, 7.34963536262512207031e-01) (70, 1.56682813167572021484e+00) (71, 3.00618052482604980469e-01) (72, -1.63273587822914123535e-01) (73, 3.22920680046081542969e-02) (74, -2.16485738754272460938e-01) (75, -1.16239190101623535156e-01) (76, 7.80322194099426269531e-01) (77, 6.38816803693771362305e-02) (78, -3.29216361045837402344e-01) (79, -4.63601678609848022461e-01) (80, 1.97673416137695312500e+00) (81, 6.97328984737396240234e-01) (82, 2.67500758171081542969e-01) (83, -1.50473070144653320312e+00) (84, 5.50897479057312011719e-01) (85, -6.47448673844337463379e-02) (86, -4.43165838718414306641e-01) (87, 1.55668407678604125977e-01) (88, -6.66006654500961303711e-02) (89, -4.78795558214187622070e-01) (90, -2.47858441434800624847e-03) (91, 3.29512096941471099854e-02) (92, 6.22641265392303466797e-01) (93, 8.17453444004058837891e-01) (94, -6.05266571044921875000e-01) (95, 4.86530870199203491211e-01) (96, -3.31362523138523101807e-02) (97, 1.24433100223541259766e+00) (98, 6.85479223728179931641e-01) (99, 1.39599192142486572266e+00) (100, 1.51834916323423385620e-02) (101, -7.19245314598083496094e-01) (102, -1.54300751164555549622e-02) (103, -6.71963989734649658203e-02) (104, -2.04697042703628540039e-01) (105, 3.16197097301483154297e-01) (106, 3.03002268075942993164e-01) (107, 7.20934927463531494141e-01) (7, 5.07509469985961914062e-01) (8, -1.46170449256896972656e+00) (9, 9.69547867774963378906e-01) (10, -4.95368629693984985352e-01) (11, -8.45977887511253356934e-02) (12, 5.06907701492309570312e-01) (13, -7.98924326896667480469e-01) (14, 9.41535457968711853027e-02) (15, 8.20901453495025634766e-01) (16, 1.31979048252105712891e-01) (17, 7.88972675800323486328e-02) (18, 4.92122560739517211914e-01) (19, -6.55580461025238037109e-01) (20, -9.94848549365997314453e-01) (21, 6.65636360645294189453e-01) (22, 3.25718879699707031250e-01) (23, 5.79153478145599365234e-01) (24, 5.88389821350574493408e-02) (25, 8.28805208206176757812e-01) (26, 9.24045622348785400391e-01) (27, 5.95160782337188720703e-01) (28, 1.16725337505340576172e+00) (29, 5.66291391849517822266e-01) (30, 2.98487603664398193359e-01) (31, 1.31052330136299133301e-01) (32, 3.89305293560028076172e-01) (33, 6.06448233127593994141e-01) (34, 8.81668686866760253906e-01) (35, 2.15212136507034301758e-01) (36, 1.73741483688354492188e+00) (37, 2.37405091524124145508e-01) (38, 2.44667157530784606934e-01) (39, 2.09244862198829650879e-01) (40, 3.81435543298721313477e-01) (41, 3.14143061637878417969e+00) (42, -8.78264188766479492188e-01) (43, 7.15566992759704589844e-01) (44, -1.86355948448181152344e-01) (45, -5.30916750431060791016e-01) (46, -4.69237625598907470703e-01) (47, 2.31838002800941467285e-02) (48, 6.98788821697235107422e-01) (49, 5.97191274166107177734e-01) (50, 1.20862843468785285950e-02) (51, 5.17045915126800537109e-01) (52, 6.02264881134033203125e-01) (53, 2.51753950119018554688e+00) (54, 1.08202129602432250977e-01) (55, 1.58312052488327026367e-01) (56, 2.35951259732246398926e-01) (57, -3.89357328414916992188e-01) (58, 6.14369153976440429688e-01) (59, 1.06279455125331878662e-01) (60, 4.02293056249618530273e-01) (61, -2.07033351063728332520e-01) (62, 3.70462894439697265625e-01) (63, 1.05759727954864501953e+00) (64, 1.19744539260864257812e-01) (65, -2.58294135332107543945e-01) (66, -6.67330443859100341797e-01) (67, 4.52763229608535766602e-01) (68, -1.05824761092662811279e-01) (69, 1.45763230323791503906e+00) (70, 7.96144843101501464844e-01) (71, 3.61476182937622070312e-01) (72, 3.16323608160018920898e-01) (73, 2.89147377014160156250e-01) (74, 5.12283504009246826172e-01) (75, -2.51031661033630371094e+00) (76, 3.24469834566116333008e-01) (77, -1.89392030239105224609e-01) (78, -1.53728514909744262695e-01) (79, 3.46794396638870239258e-01) (80, 1.13602721691131591797e+00) (81, -2.19785284996032714844e+00) (82, -2.07495704293251037598e-01) (83, 1.09639540314674377441e-01) (84, 6.34048402309417724609e-01) (85, 1.34604442864656448364e-02) (86, 4.60832566022872924805e-01) (87, 2.75577813386917114258e-01) (88, 3.90145480632781982422e-01) (89, 6.10729634761810302734e-01) (90, -6.68219402432441711426e-02) (91, 4.37947750091552734375e-01) (92, -7.67149478197097778320e-02) (93, 2.66684144735336303711e-01) (94, 1.89297437667846679688e-01) (95, -3.45867395401000976562e-01) (96, 3.08177876472473144531e+00) (97, 4.54920589923858642578e-01) (98, 2.28497274219989776611e-02) (99, 7.70715236663818359375e-01) (100, 8.76890838146209716797e-01) (101, -3.94173383712768554688e-01) (102, 2.39344879984855651855e-01) (103, -5.23929238319396972656e-01) (104, -1.06891584396362304688e+00) (105, 7.93695151805877685547e-01) (106, 8.91647040843963623047e-02) (107, 8.41139033436775207520e-02) (7, 1.24658894538879394531e+00) (8, 5.14372944831848144531e-01) (9, 9.10896182060241699219e-01) (10, 7.75596052408218383789e-02) (11, 6.15777254104614257812e-01) (12, 4.98906761407852172852e-01) (13, -2.75929030030965805054e-02) (14, -1.70978391170501708984e+00) (15, -2.81618833541870117188e-01) (16, 2.66494369506835937500e+00) (17, 2.52403140068054199219e+00) (18, 4.94724333286285400391e-01) (19, 3.74381840229034423828e-01) (20, -2.91490796953439712524e-02) (21, -5.58355510234832763672e-01) (22, -1.09656294807791709900e-02) (23, -2.92346090078353881836e-01) (24, 5.13048470020294189453e-01) (25, -3.07159036397933959961e-01) (26, -1.80576577782630920410e-01) (27, -2.78852283954620361328e-01) (28, -2.18868628144264221191e-01) (29, 6.34751379489898681641e-01) (30, -2.08953991532325744629e-01) (31, -6.66444540023803710938e-01) (32, -4.02939438819885253906e-01) (33, 7.71257430315017700195e-02) (34, 3.38586419820785522461e-02) (35, -1.02861396968364715576e-01) (36, 1.77106821537017822266e+00) (37, 1.38787734508514404297e+00) (38, 1.17460095882415771484e+00) (39, 1.64379394054412841797e+00) (40, 1.05969481170177459717e-01) (41, 2.89978861808776855469e-01) (42, 1.12750232219696044922e+00) (43, 1.45605847239494323730e-01) (44, 1.48551845550537109375e+00) (45, 1.41663992404937744141e+00) (46, 1.51653146743774414062e+00) (47, 6.56895160675048828125e-01) (48, -3.82250785827636718750e-01) (49, 7.96651422977447509766e-01) (50, 1.47917258739471435547e+00) (51, -1.05525279045104980469e+00) (52, 1.46486413478851318359e+00) (53, -1.78284561634063720703e+00) (54, 2.58379876613616943359e-01) (55, 3.04970771074295043945e-01) (56, 1.79480209946632385254e-01) (57, 5.87665915489196777344e-01) (58, 8.84701386094093322754e-02) (59, -4.90214377641677856445e-01) (60, 4.49340045452117919922e-01) (61, -2.00611889362335205078e-01) (62, 4.27232891321182250977e-01) (63, -1.10252305865287780762e-01) (64, -6.89209997653961181641e-01) (65, 3.21997106075286865234e-01) (66, 7.46202766895294189453e-01) (67, -1.48048353195190429688e+00) (68, 9.32128727436065673828e-01) (69, 8.80120515823364257812e-01) (70, -2.09773659706115722656e-01) (71, 9.04466807842254638672e-02) (72, 5.06443381309509277344e-02) (73, 5.85726082324981689453e-01) (74, -1.12075887620449066162e-01) (75, 2.36096918582916259766e-01) (76, -3.76204043626785278320e-01) (77, 1.26430237293243408203e+00) (78, 6.36055171489715576172e-01) (79, 4.46871876716613769531e-01) (80, 3.24370384216308593750e-01) (81, -1.84845650196075439453e+00) (82, 3.84387582540512084961e-01) (83, 2.73153364658355712891e-01) (84, -2.91626960039138793945e-01) (85, -6.76833152770996093750e-01) (86, 1.26238429546356201172e+00) (87, 4.89305138587951660156e-01) (88, -5.47343015670776367188e-01) (89, -9.26963746547698974609e-01) (90, 2.13636338710784912109e-01) (91, -1.30832672119140625000e-01) (92, 1.34084895253181457520e-01) (93, -3.74764472246170043945e-01) (94, 2.57704257965087890625e-01) (95, 1.46431131362915039062e+01) (96, 8.40371966361999511719e-01) (97, 1.90769672393798828125e-01) (98, 2.59290218353271484375e+00) (99, 1.23882383108139038086e-01) (100, -6.97417557239532470703e-01) (101, 1.44212186336517333984e-01) (102, 4.09772753715515136719e-01) (103, 9.01202782988548278809e-02) (104, 2.41893753409385681152e-01) (105, -8.24855089187622070312e-01) (106, 4.02116417884826660156e-01) (107, 2.36276149749755859375e-01) (7, 1.00846254825592041016e+00) (8, 1.50599539279937744141e-01) (9, -1.20542176067829132080e-01) (10, 1.99104547500610351562e+00) (11, 9.81334447860717773438e-01) (12, -4.85620319843292236328e-01) (13, 2.99322217702865600586e-01) (14, -3.90417993068695068359e-01) (15, 1.90508246421813964844e-01) (16, -5.91955244541168212891e-01) (17, 9.94768559932708740234e-01) (18, -4.22880440950393676758e-01) (19, -5.99513292312622070312e-01) (20, 4.32445973157882690430e-01) (21, -4.69417214393615722656e-01) (22, 1.34666442871093750000e+00) (23, 1.52443364262580871582e-01) (24, -2.00875091552734375000e+00) (25, 8.37493896484375000000e-01) (26, -3.50353658199310302734e-01) (27, 6.26787692308425903320e-02) (28, 1.06466546654701232910e-01) (29, 1.66586792469024658203e+00) (30, 2.90896613150835037231e-02) (31, 9.40367162227630615234e-01) (32, 9.06487405300140380859e-01) (33, 4.16270315647125244141e-01) (34, -1.64226934313774108887e-01) (35, 1.16395890712738037109e+00) (36, 1.51627510786056518555e-01) (37, -2.05045744776725769043e-01) (38, 9.95731413364410400391e-01) (39, 6.30345642566680908203e-01) (40, 8.98642361164093017578e-01) (41, 1.47944390773773193359e-01) (42, -1.47829443216323852539e-01) (43, 4.98287916183471679688e+00) (44, -2.60145127773284912109e-01) (45, 4.08168601989746093750e+00) (46, 1.65370374917984008789e-01) (47, 2.08429503440856933594e+00) (48, 4.92195308208465576172e-01) (49, 1.32131493091583251953e+00) (50, 6.02600693702697753906e-01) (51, 1.16949856281280517578e+00) (52, 1.03226315975189208984e+00) (53, 1.96338427066802978516e+00) (54, -1.22558891773223876953e+00) (55, 3.88166397809982299805e-01) (56, 8.70303809642791748047e-01) (57, -1.73848912119865417480e-01) (58, 1.31335008144378662109e+00) (59, 1.66664338111877441406e+00) (60, -4.11309242248535156250e-01) (61, -2.69155412912368774414e-01) (62, -8.58514785766601562500e-01) (63, -1.16985046863555908203e+00) (64, -5.46135425567626953125e-01) (65, 3.62023919820785522461e-01) (66, 6.54444873332977294922e-01) (67, 4.86806213855743408203e-01) (68, 6.67564749717712402344e-01) (69, 7.60896027088165283203e-01) (70, 3.29827338457107543945e-01) (71, 6.61449491977691650391e-01) (72, -2.46270060539245605469e-01) (73, 3.61153692007064819336e-01) (74, 3.39079117774963378906e+00) (75, -1.62504076957702636719e+00) (76, 5.33997677266597747803e-02) (77, 1.24667845666408538818e-02) (78, -8.92944559454917907715e-02) (79, 1.02218520641326904297e+00) (80, -7.28284120559692382812e-02) (81, 1.23692023754119873047e+00) (82, 1.11060571670532226562e+00) (83, -4.05672609806060791016e-01) (84, 1.51909673213958740234e+00) (85, -4.43782985210418701172e-01) (86, 7.17002630233764648438e-01) (87, -7.51854702830314636230e-02) (88, 4.34802055358886718750e+00) (89, 9.37132835388183593750e-01) (90, -4.21614855527877807617e-01) (91, 2.08168911933898925781e+00) (92, 1.91103374958038330078e+00) (93, 1.67009025812149047852e-01) (94, -9.98344898223876953125e-01) (95, 2.64868187904357910156e+00) (96, 8.06949317455291748047e-01) (97, 1.88898241519927978516e+00) (98, 1.50086617469787597656e+00) (99, 6.72796607017517089844e-01) (100, -1.23894721269607543945e-01) (101, -5.52385337650775909424e-02) (102, 3.10575437545776367188e+00) (103, 2.78938096016645431519e-02) (104, -4.66143429279327392578e-01) (105, -1.45939588546752929688e-01) (106, -4.94725629687309265137e-02) (107, -1.58347427845001220703e-01) (7, 1.80145189166069030762e-01) (8, -4.05092030763626098633e-01) (9, 2.13935852050781250000e+00) (10, -7.03638672828674316406e-01) (11, -1.19747817516326904297e+00) (12, 1.23792481422424316406e+00) (13, 1.23514556884765625000e+00) (14, 8.71966406702995300293e-02) (15, 1.88722446560859680176e-01) (16, -2.44511628150939941406e+00) (17, 5.57165086269378662109e-01) (18, 1.15278553962707519531e+00) (19, 1.92406564950942993164e-01) (20, -2.27288335561752319336e-01) (21, 4.28496390581130981445e-01) (22, 3.77705872058868408203e-01) (23, 1.26312112808227539062e+00) (24, 8.47031772136688232422e-01) (25, 9.13390338420867919922e-01) (26, 1.12795078754425048828e+00) (27, 1.10398375988006591797e+00) (28, 8.67075562477111816406e-01) (29, -6.13930106163024902344e-01) (30, 1.17219138145446777344e+00) (31, 3.73976528644561767578e-02) (32, 1.28079861402511596680e-01) (33, 5.48314511775970458984e-01) (34, -1.70365273952484130859e+00) (35, 1.54348433017730712891e-01) (36, 3.40421140193939208984e-01) (37, 2.78071523644030094147e-03) (38, -1.37270808219909667969e+00) (39, -1.16755917668342590332e-01) (40, 2.74037152528762817383e-01) (41, 1.37539342045783996582e-01) (42, 3.37505191564559936523e-01) (43, -4.23135966062545776367e-01) (44, -4.99323099851608276367e-01) (45, 4.26811814308166503906e-01) (46, 5.71566522121429443359e-01) (47, 2.43272170424461364746e-01) (48, 4.34644706547260284424e-02) (49, -1.77761137485504150391e+00) (50, 3.04956257343292236328e-01) (51, 7.08891808986663818359e-01) (52, 5.12625873088836669922e-02) (53, 9.21828746795654296875e-01) (54, -1.00684449076652526855e-01) (55, 1.53429672122001647949e-01) (56, 1.05156445503234863281e+00) (57, -3.95818382501602172852e-01) (58, 5.77576875686645507812e-01) (59, 7.54284143447875976562e-01) (60, 1.78250864148139953613e-01) (61, 4.55064773559570312500e-01) (62, -1.08704663813114166260e-01) (63, 2.91295742988586425781e+00) (64, 6.24161422252655029297e-01) (65, -9.83435094356536865234e-01) (66, 5.23771718144416809082e-02) (67, -8.82665514945983886719e-02) (68, -8.07508751749992370605e-02) (69, -3.65831464529037475586e-01) (70, 3.93948316574096679688e-01) (71, 7.51354157924652099609e-01) (72, 6.65562629699707031250e-01) (73, 3.47281783819198608398e-01) (74, 9.36340808868408203125e-01) (75, 2.64610505104064941406e+00) (76, 1.18189656734466552734e+00) (77, -3.45847696065902709961e-01) (78, 2.07777261734008789062e-01) (79, -5.95662416890263557434e-03) (80, -8.51593911647796630859e-03) (81, 6.36983588337898254395e-02) (82, 1.12068414688110351562e-01) (83, -3.47589820623397827148e-01) (84, -2.43876785039901733398e-01) (85, 6.28329575061798095703e-01) (86, -1.34726703166961669922e+00) (87, 3.36185336112976074219e-01) (88, 6.97681903839111328125e-01) (89, 1.37259733676910400391e+00) (90, 3.34042906761169433594e-02) (91, 5.30630469322204589844e-01) (92, 2.43112687021493911743e-02) (93, 1.14174926280975341797e+00) (94, -1.30510970950126647949e-01) (95, 3.34810346364974975586e-01) (96, 4.50339913368225097656e-01) (97, 1.19407391548156738281e+00) (98, 4.41932864487171173096e-03) (99, -7.85526812076568603516e-01) (100, 9.73249793052673339844e-01) (101, 6.46121263504028320312e-01) (102, 3.50026309490203857422e-01) (103, -4.36459779739379882812e-01) (104, 1.03779457509517669678e-01) (105, 3.07374286651611328125e+00) (106, 8.35049390792846679688e-01) (107, 2.10981369018554687500e+00) (7, 3.12057554721832275391e-01) (8, -4.18621480464935302734e-01) (9, 2.47893154621124267578e-01) (10, -2.95040154457092285156e+00) (11, 1.40229380130767822266e+00) (12, 2.62730538845062255859e-01) (13, 5.95496356487274169922e-01) (14, 3.92854952812194824219e+00) (15, -1.34022116661071777344e+00) (16, 7.35525012016296386719e-01) (17, 6.41370713710784912109e-01) (18, 1.42877554893493652344e+00) (19, 1.22032761573791503906e+00) (20, 3.19771021604537963867e-01) (21, -5.40952384471893310547e-01) (22, 2.02574402093887329102e-01) (23, -1.09115827083587646484e+00) (24, 3.40554326772689819336e-01) (25, -3.73766005039215087891e-01) (26, -1.05114495754241943359e+00) (27, -9.07461524009704589844e-01) (28, -4.58557829260826110840e-02) (29, 5.93349695205688476562e-01) (30, -6.72124266624450683594e-01) (31, -1.97384834289550781250e-01) (32, 9.28766205906867980957e-02) (33, -2.45453500747680664062e+00) (34, 1.10662043094635009766e+00) (35, -2.29783594608306884766e-01) (36, -3.14186900854110717773e-01) (37, 1.47396504878997802734e+00) (38, 2.21051573753356933594e+00) (39, 4.69717621803283691406e-01) (40, -1.01995714008808135986e-01) (41, 6.93394601345062255859e-01) (42, -3.59178364276885986328e-01) (43, -3.91170215606689453125e+00) (44, 1.11428070068359375000e+00) (45, 2.20259889960289001465e-01) (46, 6.17979824542999267578e-01) (47, 3.75792682170867919922e-01) (48, -3.63498926162719726562e-01) (49, 2.33717513084411621094e+00) (50, -4.34738963842391967773e-01) (51, -1.68172314763069152832e-01) (52, 3.75503921508789062500e+00) (53, -7.55050003528594970703e-01) (54, 2.52517044544219970703e-01) (55, 1.52655512094497680664e-01) (56, -1.64189469814300537109e+00) (57, 6.80506885051727294922e-01) (58, -8.48520398139953613281e-02) (59, -4.35333395004272460938e+00) (60, 5.01709818840026855469e-01) (61, -4.53032813966274261475e-02) (62, 8.77050757408142089844e-01) (63, -3.08285176753997802734e-01) (64, 3.01896870136260986328e-01) (65, 4.16589230298995971680e-01) (66, 7.76254907250404357910e-02) (67, -3.49548190832138061523e-01) (68, 7.22059071063995361328e-01) (69, 7.28766977787017822266e-01) (70, -3.15639495849609375000e-01) (71, -1.13376855850219726562e+00) (72, -9.09950882196426391602e-02) (73, -3.91326236724853515625e+00) (74, -3.62576007843017578125e-01) (75, -7.40213298797607421875e+00) (76, -7.07483649253845214844e-01) (77, 4.57932144403457641602e-01) (78, 4.74432826042175292969e-01) (79, 3.71222257614135742188e-01) (80, 3.23029577732086181641e-01) (81, -2.72529780864715576172e-01) (82, -2.16446258127689361572e-02) (83, 5.00949859619140625000e-01) (84, -4.19599145650863647461e-01) (85, 6.40341341495513916016e-01) (86, 9.26945865154266357422e-01) (87, -2.78297591209411621094e+00) (88, -3.06023120880126953125e-01) (89, 3.08673095703125000000e+00) (90, 4.87104505300521850586e-01) (91, 5.55543527007102966309e-02) (92, 5.04877269268035888672e-01) (93, -9.81306850910186767578e-01) (94, 2.86179691553115844727e-01) (95, -2.89622575044631958008e-01) (96, 5.17516955733299255371e-02) (97, -2.19913035631179809570e-01) (98, 7.33959615230560302734e-01) (99, -8.66663813591003417969e-01) (100, -1.34541824460029602051e-01) (101, -3.15100997686386108398e-01) (102, 2.65559840202331542969e+00) (103, 1.19219832122325897217e-01) (104, 3.51821959018707275391e-01) (105, -1.20370793342590332031e+00) (106, 5.95040142536163330078e-01) (107, -1.40285348892211914062e+00) (7, 5.70243656635284423828e-01) (8, -5.57878398895263671875e+00) (9, 2.87930101156234741211e-01) (10, -7.17155635356903076172e-01) (11, 5.48695325851440429688e-01) (12, 1.76190465688705444336e-01) (13, 5.60428082942962646484e-01) (14, -9.60688769817352294922e-01) (15, 3.74409496784210205078e-01) (16, 2.81812727451324462891e-01) (17, 1.43282353878021240234e+00) (18, -4.97763484716415405273e-01) (19, -2.73087114095687866211e-01) (20, 9.33800876140594482422e-01) (21, 5.99275767803192138672e-01) (22, 1.93872869014739990234e+00) (23, 3.83187592029571533203e-01) (24, 6.61560118198394775391e-01) (25, 3.62849473953247070312e-01) (26, 5.02700686454772949219e-01) (27, -1.37238930910825729370e-02) (28, 4.00248654186725616455e-02) (29, -1.08442351222038269043e-01) (30, -1.21943084523081779480e-02) (31, 9.13694679737091064453e-01) (32, 1.98864564299583435059e-01) (33, 6.93092167377471923828e-01) (34, 7.95464158058166503906e-01) (35, 6.46253287792205810547e-01) (36, -1.66750401258468627930e-02) (37, 7.02980279922485351562e-01) (38, -6.22227415442466735840e-03) (39, 6.21555030345916748047e-01) (40, 2.55437880754470825195e-01) (41, -1.24862253665924072266e-01) (42, 2.99751400947570800781e+00) (43, 5.72904884815216064453e-01) (44, 4.18739986419677734375e+00) (45, -4.21164655685424804688e+00) (46, 4.35296678543090820312e+00) (47, -1.35773375630378723145e-01) (48, 2.61820256710052490234e-01) (49, 1.01537215709686279297e+00) (50, -3.98454880714416503906e+00) (51, -5.15439271926879882812e-01) (52, 1.21503245830535888672e+00) (53, 1.99877345561981201172e+00) (54, -1.08886623382568359375e+00) (55, 2.35980991274118423462e-02) (56, 3.10000814497470855713e-02) (57, 4.59362715482711791992e-01) (58, -7.43227601051330566406e-01) (59, 1.93195998668670654297e-01) (60, -6.34892582893371582031e-01) (61, -2.73382574319839477539e-01) (62, 1.57973602414131164551e-01) (63, 2.18818008899688720703e-01) (64, -5.42321562767028808594e-01) (65, 5.61491250991821289062e-01) (66, -1.30363070964813232422e+00) (67, 2.03770980238914489746e-01) (68, 3.83975774049758911133e-01) (69, 1.86942994594573974609e-01) (70, 3.89461934566497802734e-01) (71, 1.47023081779479980469e+00) (72, -1.50119900703430175781e+00) (73, 5.16654968261718750000e-01) (74, 3.34968119859695434570e-01) (75, -2.17810058593750000000e+00) (76, -2.74338334798812866211e-01) (77, 2.36593112349510192871e-01) (78, 3.04126977920532226562e-01) (79, 1.96602082252502441406e+00) (80, -4.39629524946212768555e-01) (81, -1.08950883150100708008e-01) (82, 2.43718847632408142090e-02) (83, -3.30031186342239379883e-01) (84, -5.07360637187957763672e-01) (85, -8.89475569128990173340e-02) (86, 1.34636655449867248535e-01) (87, 1.02625751495361328125e+00) (88, 8.02420794963836669922e-01) (89, 1.48805737495422363281e-01) (90, -5.25479763746261596680e-02) (91, -8.43725383281707763672e-01) (92, 4.61931467056274414062e-01) (93, 2.51126259565353393555e-01) (94, -3.25634908676147460938e+00) (95, 4.13403600454330444336e-01) (96, 1.30861079692840576172e+00) (97, -8.70330433826893568039e-04) (98, 2.65507102012634277344e-01) (99, 9.47111606597900390625e-01) (100, 6.99172079563140869141e-01) (101, 1.20233643054962158203e+00) (102, 3.77843737602233886719e-01) (103, 1.03241898119449615479e-01) (104, -1.66749104857444763184e-01) (105, 1.53932547569274902344e+00) (106, -6.94634675979614257812e-01) (107, -3.74973833560943603516e-01) (7, 4.84040498733520507812e-01) (8, 1.78993451595306396484e+00) (9, 4.55705523490905761719e-01) (10, 4.08948570489883422852e-01) (11, -2.64623731374740600586e-01) (12, -1.23533047735691070557e-02) (13, 6.15824043750762939453e-01) (14, 5.86934864521026611328e-01) (15, -2.56831198930740356445e-01) (16, -1.14354319870471954346e-01) (17, 1.35431277751922607422e+00) (18, -7.64978706836700439453e-01) (19, 9.30754765868186950684e-02) (20, 2.32670202851295471191e-01) (21, 1.08163309097290039062e+00) (22, -7.35148131847381591797e-01) (23, 3.30424189567565917969e-01) (24, 8.89475226402282714844e-01) (25, 1.51189041137695312500e+00) (26, 1.91564396023750305176e-01) (27, 5.06703794002532958984e-01) (28, -1.30458867549896240234e+00) (29, -8.08830857276916503906e-01) (30, 4.89380240440368652344e-01) (31, -6.60455882549285888672e-01) (32, 6.28789141774177551270e-02) (33, 5.37307560443878173828e-01) 