FANN_FLO_2.1
num_layers=3
learning_rate=0.001000
connection_rate=1.000000
network_type=0
learning_momentum=0.000000
training_algorithm=2
train_error_function=1
train_stop_function=0
cascade_output_change_fraction=0.010000
quickprop_decay=-0.000100
quickprop_mu=1.750000
rprop_increase_factor=1.200000
rprop_decrease_factor=0.500000
rprop_delta_min=0.000000
rprop_delta_max=50.000000
rprop_delta_zero=0.100000
cascade_output_stagnation_epochs=12
cascade_candidate_change_fraction=0.010000
cascade_candidate_stagnation_epochs=12
cascade_max_out_epochs=150
cascade_min_out_epochs=50
cascade_max_cand_epochs=150
cascade_min_cand_epochs=50
cascade_num_candidate_groups=2
bit_fail_limit=3.49999994039535522461e-01
cascade_candidate_limit=1.00000000000000000000e+03
cascade_weight_multiplier=4.00000005960464477539e-01
cascade_activation_functions_count=10
cascade_activation_functions=3 5 7 8 10 11 14 15 16 17 
cascade_activation_steepnesses_count=4
cascade_activation_steepnesses=2.50000000000000000000e-01 5.00000000000000000000e-01 7.50000000000000000000e-01 1.00000000000000000000e+00 
layer_sizes=7 101 5 
scale_included=0
neurons (num_inputs, activation_function, activation_steepness)=(0, 0, 0.00000000000000000000e+00) (0, 0, 0.00000000000000000000e+00) (0, 0, 0.00000000000000000000e+00) (0, 0, 0.00000000000000000000e+00) (0, 0, 0.00000000000000000000e+00) (0, 0, 0.00000000000000000000e+00) (0, 0, 0.00000000000000000000e+00) (7, 5, 5.00000000000000000000e-01) (7, 5, 5.00000000000000000000e-01) (7, 5, 5.00000000000000000000e-01) (7, 5, 5.00000000000000000000e-01) (7, 5, 5.00000000000000000000e-01) (7, 5, 5.00000000000000000000e-01) (7, 5, 5.00000000000000000000e-01) (7, 5, 5.00000000000000000000e-01) (7, 5, 5.00000000000000000000e-01) (7, 5, 5.00000000000000000000e-01) (7, 5, 5.00000000000000000000e-01) (7, 5, 5.00000000000000000000e-01) (7, 5, 5.00000000000000000000e-01) (7, 5, 5.00000000000000000000e-01) (7, 5, 5.00000000000000000000e-01) (7, 5, 5.00000000000000000000e-01) (7, 5, 5.00000000000000000000e-01) (7, 5, 5.00000000000000000000e-01) (7, 5, 5.00000000000000000000e-01) (7, 5, 5.00000000000000000000e-01) (7, 5, 5.00000000000000000000e-01) (7, 5, 5.00000000000000000000e-01) (7, 5, 5.00000000000000000000e-01) (7, 5, 5.00000000000000000000e-01) (7, 5, 5.00000000000000000000e-01) (7, 5, 5.00000000000000000000e-01) (7, 5, 5.00000000000000000000e-01) (7, 5, 5.00000000000000000000e-01) (7, 5, 5.00000000000000000000e-01) (7, 5, 5.00000000000000000000e-01) (7, 5, 5.00000000000000000000e-01) (7, 5, 5.00000000000000000000e-01) (7, 5, 5.00000000000000000000e-01) (7, 5, 5.00000000000000000000e-01) (7, 5, 5.00000000000000000000e-01) (7, 5, 5.00000000000000000000e-01) (7, 5, 5.00000000000000000000e-01) (7, 5, 5.00000000000000000000e-01) (7, 5, 5.00000000000000000000e-01) (7, 5, 5.00000000000000000000e-01) (7, 5, 5.00000000000000000000e-01) (7, 5, 5.00000000000000000000e-01) (7, 5, 5.00000000000000000000e-01) (7, 5, 5.00000000000000000000e-01) (7, 5, 5.00000000000000000000e-01) (7, 5, 5.00000000000000000000e-01) (7, 5, 5.00000000000000000000e-01) (7, 5, 5.00000000000000000000e-01) (7, 5, 5.00000000000000000000e-01) (7, 5, 5.00000000000000000000e-01) (7, 5, 5.00000000000000000000e-01) (7, 5, 5.00000000000000000000e-01) (7, 5, 5.00000000000000000000e-01) (7, 5, 5.00000000000000000000e-01) (7, 5, 5.00000000000000000000e-01) (7, 5, 5.00000000000000000000e-01) (7, 5, 5.00000000000000000000e-01) (7, 5, 5.00000000000000000000e-01) (7, 5, 5.00000000000000000000e-01) (7, 5, 5.00000000000000000000e-01) (7, 5, 5.00000000000000000000e-01) (7, 5, 5.00000000000000000000e-01) (7, 5, 5.00000000000000000000e-01) (7, 5, 5.00000000000000000000e-01) (7, 5, 5.00000000000000000000e-01) (7, 5, 5.00000000000000000000e-01) (7, 5, 5.00000000000000000000e-01) (7, 5, 5.00000000000000000000e-01) (7, 5, 5.00000000000000000000e-01) (7, 5, 5.00000000000000000000e-01) (7, 5, 5.00000000000000000000e-01) (7, 5, 5.00000000000000000000e-01) (7, 5, 5.00000000000000000000e-01) (7, 5, 5.00000000000000000000e-01) (7, 5, 5.00000000000000000000e-01) (7, 5, 5.00000000000000000000e-01) (7, 5, 5.00000000000000000000e-01) (7, 5, 5.00000000000000000000e-01) (7, 5, 5.00000000000000000000e-01) (7, 5, 5.00000000000000000000e-01) (7, 5, 5.00000000000000000000e-01) (7, 5, 5.00000000000000000000e-01) (7, 5, 5.00000000000000000000e-01) (7, 5, 5.00000000000000000000e-01) (7, 5, 5.00000000000000000000e-01) (7, 5, 5.00000000000000000000e-01) (7, 5, 5.00000000000000000000e-01) (7, 5, 5.00000000000000000000e-01) (7, 5, 5.00000000000000000000e-01) (7, 5, 5.00000000000000000000e-01) (7, 5, 5.00000000000000000000e-01) (7, 5, 5.00000000000000000000e-01) (7, 5, 5.00000000000000000000e-01) (7, 5, 5.00000000000000000000e-01) (7, 5, 5.00000000000000000000e-01) (7, 5, 5.00000000000000000000e-01) (7, 5, 5.00000000000000000000e-01) (7, 5, 5.00000000000000000000e-01) (7, 5, 5.00000000000000000000e-01) (7, 5, 5.00000000000000000000e-01) (0, 5, 0.00000000000000000000e+00) (101, 5, 5.00000000000000000000e-01) (101, 5, 5.00000000000000000000e-01) (101, 5, 5.00000000000000000000e-01) (101, 5, 5.00000000000000000000e-01) (0, 5, 0.00000000000000000000e+00) 
connections (connected_to_neuron, weight)=(0, 5.25115633010864257812e+00) (1, -1.21733798980712890625e+01) (2, -4.27216738462448120117e-02) (3, 3.94133508205413818359e-01) (4, 4.21325117349624633789e-02) (5, 9.33890603482723236084e-03) (6, -5.74833452701568603516e-02) (0, 7.60347962379455566406e-01) (1, -2.11052227020263671875e+01) (2, -6.70840591192245483398e-02) (3, 8.09996798634529113770e-02) (4, -4.19358238577842712402e-02) (5, -3.41479241847991943359e-01) (6, -1.38116478919982910156e-01) (0, -1.34406604003906250000e+03) (1, 2.85937166213989257812e+00) (2, 4.66557860374450683594e-01) (3, 2.04477101564407348633e-01) (4, 4.04843807220458984375e-01) (5, 4.08848077058792114258e-01) (6, 2.58285850286483764648e-01) (0, 1.23145654296875000000e+03) (1, 3.14581960439682006836e-01) (2, -3.41795265674591064453e-01) (3, 2.51788884401321411133e-01) (4, 2.01919287443161010742e-01) (5, 6.08451843261718750000e-01) (6, 8.13023597002029418945e-02) (0, 1.58922231197357177734e+00) (1, -1.70042908191680908203e+00) (2, -2.02778473496437072754e-01) (3, -1.77155643701553344727e-01) (4, -9.06733050942420959473e-02) (5, -3.31078648567199707031e-01) (6, -8.77985805273056030273e-02) (0, 1.50000000000000000000e+03) (1, -2.05033332109451293945e-01) (2, 3.24397385120391845703e-01) (3, 6.12363338470458984375e-01) (4, 3.99766206741333007812e-01) (5, 3.33674818277359008789e-01) (6, 4.22490924596786499023e-01) (0, 3.25894045829772949219e+00) (1, 5.07748651504516601562e+00) (2, -2.43901882171630859375e+01) (3, 8.18839594721794128418e-02) (4, 2.35873963683843612671e-02) (5, -1.35009095072746276855e-01) (6, 8.72429460287094116211e-02) (0, 1.37853015136718750000e+03) (1, -6.05334602296352386475e-02) (2, -1.19458094239234924316e-01) (3, 1.09106041491031646729e-01) (4, 1.48225829005241394043e-01) (5, 2.20970541238784790039e-01) (6, -3.01394774578511714935e-03) (0, -5.84423720836639404297e-01) (1, 1.53640632629394531250e+01) (2, -6.68604564666748046875e+00) (3, 1.97583004832267761230e-01) (4, -2.48650461435317993164e-01) (5, -2.28633850812911987305e-01) (6, -2.23154708743095397949e-01) (0, -2.46847915649414062500e+00) (1, -1.20149254798889160156e+00) (2, 5.96644133329391479492e-02) (3, -4.80021536350250244141e-02) (4, 2.24589183926582336426e-02) (5, 1.97213841602206230164e-03) (6, -5.38992844521999359131e-02) (0, 2.42945861816406250000e+00) (1, 6.23009490966796875000e+01) (2, -3.25717367231845855713e-02) (3, -1.78780481219291687012e-01) (4, -2.69800066947937011719e-01) (5, -1.04352153837680816650e-01) (6, -2.31163337826728820801e-01) (0, 6.97767114639282226562e+00) (1, 1.33114814758300781250e+01) (2, -9.55451667308807373047e-01) (3, 9.41073417663574218750e-01) (4, 2.66436517238616943359e-01) (5, 4.84901487827301025391e-01) (6, 2.80835956335067749023e-01) (0, 5.81916475296020507812e+00) (1, 7.43279663085937500000e+02) (2, 2.79075633734464645386e-02) (3, 1.19762670993804931641e+00) (4, 1.02984392642974853516e+00) (5, 9.79343712329864501953e-01) (6, 9.95048582553863525391e-01) (0, -1.38416320800781250000e+03) (1, 1.09162068367004394531e+00) (2, 6.24796390533447265625e-01) (3, 2.90037065744400024414e-01) (4, 3.88216704130172729492e-01) (5, 5.01437306404113769531e-01) (6, 3.93776774406433105469e-01) (0, -7.08421447753906250000e+02) (1, -3.72495144605636596680e-01) (2, 3.73813211917877197266e-01) (3, 6.05004966259002685547e-01) (4, 4.55301225185394287109e-01) (5, 3.37210863828659057617e-01) (6, 3.84370833635330200195e-01) (0, 1.50000000000000000000e+03) (1, 1.18147268891334533691e-01) (2, 1.52284532785415649414e-01) (3, 1.25363022089004516602e-01) (4, 1.17187865078449249268e-01) (5, 1.94549679756164550781e-01) (6, 4.75557856261730194092e-02) (0, -1.41291223144531250000e+03) (1, 8.58175158500671386719e-01) (2, 7.80479729175567626953e-01) (3, 1.23344846069812774658e-01) (4, 4.05903965234756469727e-01) (5, 4.73225235939025878906e-01) (6, 5.32023668289184570312e-01) (0, -2.78402282714843750000e+02) (1, -1.24943428039550781250e+01) (2, 1.53249931335449218750e+00) (3, 2.99191594123840332031e-01) (4, 5.23394405841827392578e-01) (5, 4.95367497205734252930e-01) (6, 4.21301335096359252930e-01) (0, -1.29041882324218750000e+03) (1, 7.57352733612060546875e+00) (2, 4.87189680337905883789e-01) (3, 3.68958234786987304688e-01) (4, 5.71821510791778564453e-01) (5, 4.11562144756317138672e-01) (6, 6.11868739128112792969e-01) (0, 5.18328132629394531250e+01) (1, -1.46910607814788818359e+00) (2, -1.44451885716989636421e-04) (3, 2.91600003838539123535e-02) (4, 5.96820376813411712646e-02) (5, -1.16060659289360046387e-01) (6, -4.44916337728500366211e-02) (0, -1.31038793945312500000e+03) (1, 1.70049858093261718750e+00) (2, 6.07384443283081054688e-01) (3, 4.58239287137985229492e-01) (4, 4.83415186405181884766e-01) (5, 6.30281865596771240234e-01) (6, 6.02738976478576660156e-01) (0, 1.54153037071228027344e+00) (1, -1.73622798919677734375e+00) (2, -1.87686547636985778809e-01) (3, -4.64022494852542877197e-02) (4, -1.45072937011718750000e-01) (5, -3.57872784137725830078e-01) (6, -1.87393411993980407715e-01) (0, -1.30702099609375000000e+03) (1, 3.22588706016540527344e+00) (2, 4.55732166767120361328e-01) (3, 4.87258344888687133789e-01) (4, 4.75153595209121704102e-01) (5, 3.99751335382461547852e-01) (6, 5.49589872360229492188e-01) (0, 9.00212341308593750000e+02) (1, -9.70630493164062500000e+02) (2, -1.28528758883476257324e-01) (3, -4.12732809782028198242e-01) (4, -5.06434798240661621094e-01) (5, -3.32441985607147216797e-01) (6, -2.58237779140472412109e-01) (0, -1.41354260253906250000e+03) (1, 9.09509658813476562500e-01) (2, 9.00073349475860595703e-01) (3, 8.71184319257736206055e-02) (4, 4.86631453037261962891e-01) (5, 5.16471505165100097656e-01) (6, 4.05304640531539916992e-01) (0, -1.08890354633331298828e-01) (1, 7.41802001953125000000e+02) (2, 8.02859842777252197266e-01) (3, 1.16882181167602539062e+00) (4, 1.02782738208770751953e+00) (5, 8.99175345897674560547e-01) (6, 9.97700512409210205078e-01) (0, -1.40537927246093750000e+03) (1, 6.68574333190917968750e-01) (2, 1.48486864566802978516e+00) (3, 7.46055459603667259216e-03) (4, 4.05807405710220336914e-01) (5, 5.57065665721893310547e-01) (6, 5.42704164981842041016e-01) (0, 6.86996307373046875000e+01) (1, 7.82668781280517578125e+00) (2, -1.07678607106208801270e-01) (3, -3.50999981164932250977e-02) (4, -3.24263945221900939941e-02) (5, -1.73636272549629211426e-01) (6, 3.46636772155761718750e-02) (0, 1.50000000000000000000e+03) (1, -1.49385166168212890625e+00) (2, 3.00299316644668579102e-01) (3, 6.08976840972900390625e-01) (4, 2.97083348035812377930e-01) (5, 3.68693292140960693359e-01) (6, 2.99759119749069213867e-01) (0, 1.37090325355529785156e+00) (1, -1.62658138275146484375e+01) (2, 1.02219348773360252380e-02) (3, 4.91397678852081298828e-01) (4, -1.26494899392127990723e-01) (5, 1.02959193289279937744e-01) (6, -1.89430024474859237671e-02) (0, 1.43193139648437500000e+03) (1, 7.37626892089843750000e+02) (2, 1.51568844914436340332e-01) (3, 1.01966887712478637695e-01) (4, -2.35556870698928833008e-01) (5, 6.82358741760253906250e-01) (6, -2.87937730550765991211e-01) (0, -1.42687243652343750000e+03) (1, 6.67757630348205566406e-01) (2, 1.91124999523162841797e+00) (3, 1.63066774606704711914e-01) (4, 3.72386723756790161133e-01) (5, 5.02481222152709960938e-01) (6, 5.04673779010772705078e-01) (0, 1.50000000000000000000e+03) (1, -2.08323049545288085938e+00) (2, 1.52253955602645874023e-01) (3, 5.74946641921997070312e-01) (4, 3.86088222265243530273e-01) (5, 5.79867720603942871094e-01) (6, 4.19592529535293579102e-01) (0, 1.04897924804687500000e+03) (1, -1.17408850097656250000e+03) (2, -3.23030538856983184814e-02) (3, -8.09002518653869628906e-02) (4, -4.05826531350612640381e-02) (5, -1.63921982049942016602e-01) (6, -1.07485800981521606445e-01) (0, 9.99337707519531250000e+02) (1, -1.08376413583755493164e-01) (2, -1.22631713747978210449e-01) (3, 1.82987555861473083496e-01) (4, 3.39089967310428619385e-02) (5, 2.87404209375381469727e-01) (6, 1.18398778140544891357e-01) (0, -1.19722900390625000000e+03) (1, -3.67985224723815917969e+00) (2, 3.99433135986328125000e-01) (3, 4.78974342346191406250e-01) (4, 2.68827289342880249023e-01) (5, 3.72104018926620483398e-01) (6, 4.09195005893707275391e-01) (0, 1.50000000000000000000e+03) (1, -2.95075148344039916992e-01) (2, 2.99395412206649780273e-01) (3, 3.53560626506805419922e-01) (4, 3.64211916923522949219e-01) (5, 3.44017237424850463867e-01) (6, 3.32244008779525756836e-01) (0, 1.50000000000000000000e+03) (1, 1.24648354947566986084e-01) (2, 1.84109792113304138184e-01) (3, 8.74900102615356445312e-01) (4, 3.71603667736053466797e-01) (5, 3.63342314958572387695e-01) (6, 3.59343737363815307617e-01) (0, 3.87143737792968750000e+02) (1, -7.04299621582031250000e+01) (2, 1.50000000000000000000e+03) (3, 1.96817174553871154785e-01) (4, 7.05455720424652099609e-01) (5, 7.91980981826782226562e-01) (6, 6.03607356548309326172e-01) (0, 3.74485443115234375000e+02) (1, -2.37344086170196533203e-01) (2, 3.66811990737915039062e-01) (3, 5.65897762775421142578e-01) (4, 4.48824197053909301758e-01) (5, 3.36481779813766479492e-01) (6, 4.33741211891174316406e-01) (0, 6.20785999298095703125e+00) (1, -1.73851716518402099609e+00) (2, -1.89567491412162780762e-01) (3, -2.49326433986425399780e-02) (4, -1.95165634155273437500e-01) (5, -2.65983760356903076172e-01) (6, -9.38485041260719299316e-02) (0, 1.85211334228515625000e+01) (1, -4.38552141189575195312e+00) (2, -5.21406054496765136719e-01) (3, 9.44809466600418090820e-02) (4, -3.90990674495697021484e-01) (5, -3.68008285760879516602e-01) (6, -3.76243352890014648438e-01) (0, -7.01603622436523437500e+01) (1, -2.36812648773193359375e+01) (2, 4.61534881591796875000e+00) (3, 9.84539557248353958130e-03) (4, 3.64828296005725860596e-02) (5, -5.00746928155422210693e-02) (6, 1.69526800513267517090e-01) (0, -5.17545654296875000000e+02) (1, -4.02967338562011718750e+01) (2, 1.50000000000000000000e+03) (3, 1.08993001282215118408e-01) (4, 3.79472643136978149414e-01) (5, 7.25940287113189697266e-01) (6, 7.22905516624450683594e-01) (0, 8.29832946777343750000e+02) (1, -3.34948897361755371094e+00) (2, 1.45207494497299194336e-01) (3, 4.63147103786468505859e-01) (4, -3.50918881595134735107e-02) (5, 7.85076916217803955078e-02) (6, 9.41467750817537307739e-03) (0, -2.66684783935546875000e+02) (1, 1.35582122802734375000e+01) (2, -4.81380653381347656250e+01) (3, 5.30709505081176757812e-01) (4, 3.33635956048965454102e-01) (5, 3.29631179571151733398e-01) (6, 4.04570788145065307617e-01) (0, -3.93906280517578125000e+02) (1, 8.61957967281341552734e-01) (2, -1.84480011463165283203e-01) (3, -6.71677812933921813965e-02) (4, -1.46815711632370948792e-02) (5, -1.66200965642929077148e-01) (6, 5.68433180451393127441e-02) (0, 1.50000000000000000000e+03) (1, -5.46634912490844726562e-01) (2, 2.94097125530242919922e-01) (3, 3.61965984106063842773e-01) (4, 2.76113867759704589844e-01) (5, -1.38958215713500976562e-01) (6, 3.81940186023712158203e-01) (0, -1.35369165039062500000e+03) (1, 3.21974983215332031250e+01) (2, 4.80040997266769409180e-01) (3, 5.66723525524139404297e-01) (4, 4.74071413278579711914e-01) (5, 4.68071490526199340820e-01) (6, 3.76642256975173950195e-01) (0, -1.35510754394531250000e+03) (1, 2.62900280952453613281e+00) (2, 5.26632547378540039062e-01) (3, 3.52872997522354125977e-01) (4, 4.42147761583328247070e-01) (5, 5.50171315670013427734e-01) (6, 5.52362382411956787109e-01) (0, 1.50000000000000000000e+03) (1, 2.66841560602188110352e-01) (2, -8.52018147706985473633e-02) (3, 3.98815423250198364258e-01) (4, 4.23633575439453125000e-01) (5, 3.49879443645477294922e-01) (6, 3.87435793876647949219e-01) (0, -3.25676971435546875000e+02) (1, 2.40967636108398437500e+01) (2, -9.67828929424285888672e-02) (3, -6.15479648113250732422e-02) (4, -9.52069386839866638184e-02) (5, -1.75215557217597961426e-01) (6, 6.13311156630516052246e-02) (0, -1.43638488769531250000e+03) (1, 1.99110552668571472168e-01) (2, 4.84688606262207031250e+01) (3, 1.71411290764808654785e-01) (4, 1.86760514974594116211e-01) (5, 2.04075589776039123535e-01) (6, 1.72367185354232788086e-01) (0, 1.37120485305786132812e+00) (1, -1.31517755985260009766e+00) (2, -2.62000709772109985352e-01) (3, 4.45290684700012207031e-01) (4, -3.39731983840465545654e-02) (5, -1.69259179383516311646e-02) (6, 6.72120898962020874023e-02) (0, 1.50000000000000000000e+03) (1, 9.80916023254394531250e-02) (2, 1.83063730597496032715e-01) (3, 4.23398762941360473633e-01) (4, 4.26993370056152343750e-01) (5, 4.05207097530364990234e-01) (6, 3.42286884784698486328e-01) (0, 1.49958947753906250000e+03) (1, 6.39516235351562500000e+02) (2, 2.03465576171875000000e+02) (3, -1.97209462523460388184e-01) (4, 2.41466194391250610352e-01) (5, 2.69799053668975830078e-01) (6, 2.19882741570472717285e-01) (0, 3.46764068603515625000e+02) (1, -2.09820117950439453125e+01) (2, 1.50000000000000000000e+03) (3, 7.70962983369827270508e-02) (4, 3.70810687541961669922e-01) (5, 4.64986562728881835938e-01) (6, 3.68001818656921386719e-01) (0, 1.22395477294921875000e+01) (1, 1.42828872680664062500e+02) (2, 5.26314198970794677734e-01) (3, -1.07094839215278625488e-01) (4, -3.40285524725914001465e-02) (5, 4.48377698659896850586e-01) (6, 3.82786422967910766602e-01) (0, -7.79808654785156250000e+02) (1, -3.30598330497741699219e+00) (2, 1.74432009458541870117e-01) (3, -9.54890996217727661133e-02) (4, 2.57868431508541107178e-02) (5, -1.75611481070518493652e-01) (6, 1.07611119747161865234e-01) (0, -7.14096374511718750000e+02) (1, 1.49999975585937500000e+03) (2, -1.49187377929687500000e+03) (3, 3.03912013769149780273e-01) (4, 3.67550134658813476562e-01) (5, -1.93696647882461547852e-01) (6, 3.71348083019256591797e-01) (0, 1.50000000000000000000e+03) (1, 1.12136162817478179932e-01) (2, 2.21529930830001831055e-01) (3, 3.83284986019134521484e-01) (4, 4.10986632108688354492e-01) (5, 3.74032050371170043945e-01) (6, 3.84708911180496215820e-01) (0, -1.39345935058593750000e+03) (1, 6.75198822021484375000e+01) (2, 1.00478723144531250000e+03) (3, -2.83248312771320343018e-02) (4, 1.84756055474281311035e-01) (5, 3.28799188137054443359e-01) (6, 3.41493159532546997070e-01) (0, -3.61546897888183593750e+01) (1, -7.77609169483184814453e-01) (2, -2.46461942791938781738e-01) (3, -8.65081325173377990723e-02) (4, 6.78100958466529846191e-02) (5, 4.31407615542411804199e-02) (6, -5.96663504838943481445e-02) (0, -8.86156368255615234375e+00) (1, 1.09853899478912353516e+00) (2, 7.06694349646568298340e-02) (3, -1.89117770642042160034e-02) (4, 7.20300525426864624023e-02) (5, -6.26083537936210632324e-02) (6, -5.04161405842751264572e-04) (0, 1.01321801757812500000e+03) (1, 1.49309484863281250000e+03) (2, 5.10940253734588623047e-01) (3, -1.64956539869308471680e-01) (4, -2.37534329295158386230e-01) (5, 5.61976075172424316406e-01) (6, -6.06926009058952331543e-02) (0, -1.30952062988281250000e+03) (1, 6.39679288864135742188e+00) (2, 1.51930572465062141418e-02) (3, 4.38171595335006713867e-01) (4, 4.72556650638580322266e-01) (5, 4.83434617519378662109e-01) (6, 5.68800032138824462891e-01) (0, 1.50000000000000000000e+03) (1, -5.02632141113281250000e+00) (2, 2.32480332255363464355e-01) (3, 5.31377851963043212891e-01) (4, 3.71442973613739013672e-01) (5, 5.21841049194335937500e-01) (6, 3.83445352315902709961e-01) (0, -1.34341308593750000000e+03) (1, 1.33954267501831054688e+01) (2, 5.12570321559906005859e-01) (3, 4.18348789215087890625e-01) (4, 2.62147277593612670898e-01) (5, 4.95092123746871948242e-01) (6, 4.16749268770217895508e-01) (0, 2.85363483428955078125e+00) (1, 4.17623877525329589844e-01) (2, -2.37722826004028320312e+00) (3, 6.98099434375762939453e-01) (4, -1.09136074781417846680e-01) (5, 7.00756311416625976562e-02) (6, -1.18477299809455871582e-01) (0, 1.50000000000000000000e+03) (1, -3.87561172246932983398e-01) (2, -1.05199202895164489746e-01) (3, 3.64656776189804077148e-01) (4, 3.91980171203613281250e-01) (5, 3.71072679758071899414e-01) (6, 4.60282772779464721680e-01) (0, 1.28586730957031250000e+02) (1, 8.61660461425781250000e+01) (2, -2.62161910533905029297e-01) (3, -1.45132280886173248291e-02) (4, -1.18610663339495658875e-02) (5, 4.26702015101909637451e-02) (6, 2.47770711779594421387e-01) (0, -1.37314807128906250000e+03) (1, 1.77915000915527343750e+00) (2, 5.50238072872161865234e-01) (3, 1.09433047473430633545e-01) (4, 3.74255090951919555664e-01) (5, 5.75223207473754882812e-01) (6, 4.84772711992263793945e-01) (0, 6.51938232421875000000e+02) (1, 5.87702209472656250000e+02) (2, 9.15850043296813964844e-01) (3, 4.18427912518382072449e-03) (4, -4.00981232523918151855e-02) (5, 5.17203271389007568359e-01) (6, -3.88841107487678527832e-02) (0, -1.40266235351562500000e+03) (1, 1.68425393104553222656e+00) (2, 6.09664678573608398438e-01) (3, 1.59000128507614135742e-01) (4, 4.05225396156311035156e-01) (5, 6.52839303016662597656e-01) (6, 5.07210850715637207031e-01) (0, 1.33290542602539062500e+02) (1, -2.02330608367919921875e+01) (2, -1.67561069130897521973e-01) (3, 2.30518609285354614258e-01) (4, -2.27277114987373352051e-01) (5, 1.08862347900867462158e-01) (6, -2.26564824581146240234e-01) (0, -5.17077209472656250000e+02) (1, -8.93523254394531250000e+01) (2, -3.71148079633712768555e-01) (3, 3.03604453802108764648e-01) (4, -1.53554946184158325195e-01) (5, -1.01206891238689422607e-01) (6, -1.47573143243789672852e-01) (0, -8.04082763671875000000e+02) (1, -7.00959777832031250000e+01) (2, 2.26108469069004058838e-02) (3, 2.32363909482955932617e-01) (4, 9.33119952678680419922e-02) (5, -9.19530019164085388184e-02) (6, 1.93999722599983215332e-01) (0, 2.26781539916992187500e+02) (1, 1.93359966278076171875e+01) (2, -1.47698807716369628906e+00) (3, 6.23868703842163085938e-02) (4, -8.06527212262153625488e-02) (5, 2.73307431489229202271e-02) (6, 9.72259715199470520020e-02) (0, 5.58965206146240234375e-01) (1, -6.07530295848846435547e-01) (2, -5.90689517557621002197e-02) (3, 1.27334311604499816895e-01) (4, -1.92989874631166458130e-03) (5, -4.13515001535415649414e-01) (6, -6.51169940829277038574e-02) (0, -1.38166967773437500000e+03) (1, 8.97169649600982666016e-01) (2, 8.82134318351745605469e-01) (3, 3.16572815179824829102e-01) (4, 3.32829922437667846680e-01) (5, 4.62200909852981567383e-01) (6, 3.94816488027572631836e-01) (0, 8.59613647460937500000e+02) (1, 1.25977963209152221680e-01) (2, 2.33251541852951049805e-01) (3, 5.36332011222839355469e-01) (4, 4.88460361957550048828e-01) (5, 6.10348224639892578125e-01) (6, 4.75959807634353637695e-01) (0, -1.01588562011718750000e+03) (1, -3.89615941047668457031e+00) (2, 4.62441802024841308594e-01) (3, 4.72238361835479736328e-01) (4, 4.20085579156875610352e-01) (5, 4.46886986494064331055e-01) (6, 4.71589177846908569336e-01) (0, -1.09491137695312500000e+03) (1, -7.21002426147460937500e+01) (2, -1.43617236328125000000e+03) (3, 4.96210068464279174805e-01) (4, 3.35763484239578247070e-01) (5, 1.08650773763656616211e-01) (6, 4.94644075632095336914e-01) (0, 1.50993549823760986328e+00) (1, -3.32747054100036621094e+00) (2, -2.98154622316360473633e-01) (3, -1.49462968111038208008e-01) (4, -1.13352820277214050293e-01) (5, -3.43263775110244750977e-01) (6, -2.09594443440437316895e-01) (0, 5.84249694824218750000e+02) (1, 1.58464893698692321777e-01) (2, 2.61627107858657836914e-01) (3, 4.88848268985748291016e-01) (4, 4.42898422479629516602e-01) (5, 3.90692561864852905273e-01) (6, 4.72324490547180175781e-01) (0, -1.24251489257812500000e+03) (1, -2.53837829589843750000e+02) (2, -3.57966399192810058594e+00) (3, 3.06338779628276824951e-02) (4, 6.04403689503669738770e-02) (5, -1.32643759250640869141e-01) (6, -1.51537269353866577148e-01) (0, -5.30666625976562500000e+02) (1, -9.03992004394531250000e+01) (2, 1.50000000000000000000e+03) (3, 1.17381505668163299561e-01) (4, 4.80175405740737915039e-01) (5, 7.32433855533599853516e-01) (6, 4.24761563539505004883e-01) (0, -6.25022399902343750000e+02) (1, -6.76515161991119384766e-01) (2, 2.50609964132308959961e-01) (3, 4.10420030355453491211e-01) (4, 4.37745571136474609375e-01) (5, 3.39091211557388305664e-01) (6, 3.05074155330657958984e-01) (0, -1.50291366577148437500e+02) (1, 8.09371337890625000000e+01) (2, -1.29826995849609375000e+02) (3, 4.54204827547073364258e-02) (4, 2.07593917846679687500e-01) (5, -1.80156484246253967285e-01) (6, 8.82665887475013732910e-02) (0, 1.56392898559570312500e+02) (1, 7.10113754272460937500e+01) (2, -6.38507423400878906250e+01) (3, 1.86691313982009887695e-01) (4, 1.19634969159960746765e-02) (5, -2.15044990181922912598e-01) (6, -4.25136499106884002686e-02) (0, 7.80368713378906250000e+02) (1, -3.50881271362304687500e+01) (2, 1.27588958740234375000e+02) (3, -1.94326221942901611328e-01) (4, -1.89524367451667785645e-02) (5, 1.88147082924842834473e-01) (6, -7.24233388900756835938e-02) (0, 1.50000000000000000000e+03) (1, 7.37343057990074157715e-02) (2, 9.89924594759941101074e-02) (3, 4.98168677091598510742e-01) (4, 4.67409461736679077148e-01) (5, 3.16221535205841064453e-01) (6, 4.10118550062179565430e-01) (0, 1.50000000000000000000e+03) (1, -3.00894117355346679688e+00) (2, -2.07568913698196411133e-01) (3, 4.50831204652786254883e-01) (4, 4.44352596998214721680e-01) (5, 9.44680571556091308594e-02) (6, 3.03222566843032836914e-01) (0, -3.60316205024719238281e+00) (1, 4.05171600341796875000e+02) (2, -1.63688659667968750000e-01) (3, 2.78978288173675537109e-01) (4, 2.68210738897323608398e-01) (5, 1.79687291383743286133e-01) (6, 2.47236475348472595215e-01) (0, 3.52262908935546875000e+02) (1, 4.22396755218505859375e+00) (2, 2.15116047859191894531e+00) (3, -3.23427408933639526367e-01) (4, 2.79729038476943969727e-01) (5, 2.29040905833244323730e-01) (6, 1.92535161972045898438e-01) (0, -5.32758951187133789062e+00) (1, -3.79427909851074218750e-01) (2, 3.16576182842254638672e-01) (3, -1.12669169902801513672e-01) (4, 1.35533197317272424698e-03) (5, 1.56939119100570678711e-01) (6, -1.54081569053232669830e-03) (0, 2.74151210784912109375e+01) (1, 1.77835739135742187500e+02) (2, 6.56681489944458007812e+00) (3, 6.98363780975341796875e-02) (4, -7.27199092507362365723e-02) (5, -4.83763590455055236816e-02) (6, -7.89147242903709411621e-02) (0, -1.41360656738281250000e+03) (1, 5.94618499279022216797e-01) (2, 1.94525182247161865234e+00) (3, 1.15631274878978729248e-01) (4, 4.33665275573730468750e-01) (5, 5.31149327754974365234e-01) (6, 5.48263370990753173828e-01) (0, -1.34549987792968750000e+03) (1, 1.25743436813354492188e+01) (2, 3.69294792413711547852e-01) (3, 3.42583566904067993164e-01) (4, 3.48872870206832885742e-01) (5, 3.68271321058273315430e-01) (6, 2.72937625646591186523e-01) (0, -1.38373999023437500000e+03) (1, 7.78595566749572753906e-01) (2, 6.30684494972229003906e-01) (3, -1.85725629329681396484e-01) (4, 3.71204584836959838867e-01) (5, 4.09833908081054687500e-01) (6, 3.62991005182266235352e-01) (7, 4.22303497791290283203e-01) (8, 3.66683363914489746094e-01) (9, -1.42229363322257995605e-01) (10, 3.58492434024810791016e-01) (11, 6.79483771324157714844e-01) (12, 2.63320446014404296875e-01) (13, 1.54084756970405578613e-01) (14, 3.55026662349700927734e-01) (15, 7.98601508140563964844e-01) (16, 2.65738051384687423706e-02) (17, 2.06728845834732055664e-01) (18, 5.80928742885589599609e-01) (19, 3.42584311962127685547e-01) (20, -1.82193413376808166504e-01) (21, 1.79113849997520446777e-01) (22, 4.11193400621414184570e-01) (23, -2.04137787222862243652e-01) (24, -1.44033774733543395996e-01) (25, -1.34934708476066589355e-01) (26, 2.03687902539968490601e-02) (27, -1.19582906365394592285e-01) (28, 7.02789545059204101562e-01) (29, -1.44736722111701965332e-01) (30, 2.07179725170135498047e-01) (31, -2.15595170855522155762e-01) (32, 3.13854277133941650391e-01) (33, -2.48195007443428039551e-01) (34, 3.34900826215744018555e-01) (35, 2.29260757565498352051e-01) (36, 1.71190854161977767944e-02) (37, 1.94128565490245819092e-02) (38, -2.75041788816452026367e-01) (39, 3.35057735443115234375e-01) (40, 1.73756152391433715820e-01) (41, 4.62266892194747924805e-01) (42, 1.71694740653038024902e-01) (43, 2.73513942956924438477e-01) (44, 3.38587760925292968750e-01) (45, -2.59724855422973632812e-01) (46, 2.26479575037956237793e-01) (47, 7.62713551521301269531e-01) (48, 6.89223945140838623047e-01) (49, -1.10106348991394042969e+00) (50, -2.05548956990242004395e-01) (51, 1.04165039956569671631e-01) (52, 1.93935588002204895020e-01) (53, 3.84566336870193481445e-01) (54, 2.26225957274436950684e-01) (55, -1.19905173778533935547e-01) (56, -1.47609487175941467285e-01) (57, 3.51247668266296386719e-01) (58, 3.55744749307632446289e-01) (59, -2.81773954629898071289e-01) (60, 3.93034577369689941406e-01) (61, 3.35024654865264892578e-01) (62, -5.50190620124340057373e-02) (63, -2.19218537211418151855e-01) (64, 3.66972804069519042969e-01) (65, 1.78039982914924621582e-01) (66, 3.05398732423782348633e-01) (67, 3.29849302768707275391e-01) (68, -2.08870545029640197754e-01) (69, -1.58313199877738952637e-01) (70, 8.91299825161695480347e-03) (71, 7.23708644509315490723e-02) (72, -1.24730378389358520508e-01) (73, 2.97003984451293945312e-01) (74, -1.00877314805984497070e-01) (75, 5.65040349960327148438e-01) (76, 3.35487306118011474609e-01) (77, 4.45808142423629760742e-01) (78, -2.36089229583740234375e-01) (79, 5.70885650813579559326e-02) (80, -2.29382112622261047363e-01) (81, -1.51850171387195587158e-02) (82, -4.36927797272801399231e-03) (83, 2.27787584066390991211e-01) (84, 3.91702175140380859375e-01) (85, 3.65384727716445922852e-01) (86, -2.26961120963096618652e-01) (87, 2.62466907501220703125e-01) (88, 1.82103946805000305176e-01) (89, 7.22703114151954650879e-02) (90, 7.46041476726531982422e-01) (91, 3.17003011703491210938e-01) (92, -5.98178617656230926514e-02) (93, -1.01905159652233123779e-01) (94, 1.95992693305015563965e-01) (95, 3.38990658521652221680e-01) (96, 1.21132567524909973145e-01) (97, -1.15022897720336914062e+00) (98, 3.38464796543121337891e-01) (99, 2.78656393289566040039e-01) (100, 4.04053598642349243164e-01) (101, 1.41566753387451171875e-01) (102, -2.66763359308242797852e-01) (103, -1.90175324678421020508e-01) (104, -2.76999801397323608398e-01) (105, -9.84121635556221008301e-02) (106, -2.56270766258239746094e-01) (107, 3.56695771217346191406e-01) (7, 7.52798497676849365234e-01) (8, 8.74783098697662353516e-01) (9, -2.07186236977577209473e-01) (10, 3.23756307363510131836e-01) (11, 9.23558592796325683594e-01) (12, 3.74544322490692138672e-01) (13, 8.57172682881355285645e-02) (14, 3.75109046697616577148e-01) (15, 3.33424538373947143555e-01) (16, 1.05567783117294311523e-01) (17, 1.84908524155616760254e-01) (18, 5.20582616329193115234e-01) (19, 3.16075652837753295898e-01) (20, -2.09411054849624633789e-01) (21, 3.64895731210708618164e-01) (22, 4.05139595270156860352e-01) (23, -2.13118851184844970703e-01) (24, 3.91082465648651123047e-01) (25, -2.89260953664779663086e-01) (26, 7.22707360982894897461e-02) (27, -2.51623243093490600586e-01) (28, 9.50326442718505859375e-01) (29, -2.78806716203689575195e-01) (30, 9.45505082607269287109e-01) (31, -2.26581946015357971191e-01) (32, 3.30981552600860595703e-01) (33, -2.25721508264541625977e-01) (34, 9.21271443367004394531e-02) (35, 3.30767750740051269531e-01) (36, 1.70508265495300292969e-01) (37, -4.47798594832420349121e-02) (38, -2.22762912511825561523e-01) (39, 3.27578365802764892578e-01) (40, 2.53161102533340454102e-01) (41, 6.08011186122894287109e-01) (42, 3.86385679244995117188e-01) (43, 3.61190468072891235352e-01) (44, 3.22687298059463500977e-01) (45, 3.87275725603103637695e-01) (46, 3.65417361259460449219e-01) (47, 8.73057007789611816406e-01) (48, 9.44424748420715332031e-01) (49, 6.57622873783111572266e-01) (50, 3.24381321668624877930e-01) (51, 4.71848279237747192383e-01) (52, -2.61644512414932250977e-01) (53, 1.23546786606311798096e-01) (54, 2.70607143640518188477e-01) (55, -2.71721690893173217773e-01) (56, -2.57752627134323120117e-01) (57, 2.89094448089599609375e-01) (58, 1.80332288146018981934e-01) (59, -2.11824420839548110962e-02) (60, 5.17198443412780761719e-01) (61, 3.70894789695739746094e-01) (62, 5.53384244441986083984e-01) (63, 3.46272230148315429688e-01) (64, 7.88942098617553710938e-01) (65, 3.97008329629898071289e-01) (66, -3.30108016729354858398e-01) (67, 3.73695164918899536133e-01) (68, 1.96364913135766983032e-02) (69, -2.53656297922134399414e-01) (70, 4.01481315493583679199e-02) (71, 3.82741913199424743652e-02) (72, -2.42065101861953735352e-01) (73, 2.85340815782546997070e-01) (74, -2.57465630769729614258e-01) (75, 5.89691281318664550781e-01) (76, 2.71461069583892822266e-01) (77, 1.59661564975976943970e-02) (78, -3.12235325574874877930e-01) (79, 7.38400518894195556641e-01) (80, -3.12425404787063598633e-01) (81, 1.23185604810714721680e-01) (82, 1.23045086860656738281e-01) (83, 1.25023946166038513184e-01) (84, 6.18400514125823974609e-01) (85, 8.93586337566375732422e-01) (86, -2.33458399772644042969e-01) (87, 3.98227840662002563477e-01) (88, 3.84916961193084716797e-01) (89, -2.40264106541872024536e-02) (90, 8.95805060863494873047e-01) (91, 4.00207608938217163086e-01) (92, 1.66352525353431701660e-01) (93, 2.45784789323806762695e-01) (94, 3.45320165157318115234e-01) (95, -1.37124192714691162109e+00) (96, -2.74300158023834228516e-01) (97, 7.24292933940887451172e-01) (98, 3.55276048183441162109e-01) (99, 2.62136518955230712891e-01) (100, 1.98841765522956848145e-01) (101, 4.51429694890975952148e-01) (102, 8.82267430424690246582e-02) (103, 4.78480309247970581055e-01) (104, -2.68912404775619506836e-01) (105, -2.07816496491432189941e-01) (106, -2.79456108808517456055e-01) (107, 2.08720996975898742676e-01) (7, 2.93045580387115478516e-01) (8, 5.99240541458129882812e-01) (9, -1.59179493784904479980e-02) (10, 2.75586485862731933594e-01) (11, 6.16229772567749023438e-01) (12, 4.54455733299255371094e-01) (13, 1.50940373539924621582e-01) (14, 2.54235506057739257812e-01) (15, 1.44688725471496582031e-01) (16, 6.56007111072540283203e-01) (17, 1.93942964076995849609e-01) (18, 2.75130551308393478394e-02) (19, -9.57738608121871948242e-02) (20, -5.88695369660854339600e-02) (21, 3.33084017038345336914e-01) (22, 4.45775151252746582031e-01) (23, -1.42599605023860931396e-02) (24, 2.77247041463851928711e-01) (25, -8.27794894576072692871e-02) (26, 2.11918175220489501953e-01) (27, -1.47860705852508544922e-01) (28, 6.23215556144714355469e-01) (29, -9.43424254655838012695e-02) (30, 2.12991923093795776367e-01) (31, -7.55926072597503662109e-02) (32, -4.47092987596988677979e-02) (33, -2.97920648008584976196e-02) (34, 1.45521402359008789062e-01) (35, 3.97615194320678710938e-01) (36, 1.83274075388908386230e-02) (37, -2.08056047558784484863e-01) (38, -1.35083734989166259766e-01) (39, 3.61542642116546630859e-01) (40, 5.78593552112579345703e-01) (41, 3.80071938037872314453e-01) (42, 3.99326801300048828125e-01) (43, 4.54610526561737060547e-01) (44, 3.57209205627441406250e-01) (45, -1.58217668533325195312e-01) (46, 3.34331184625625610352e-01) (47, 6.81075870990753173828e-01) (48, 2.09154322743415832520e-01) (49, 1.94573596119880676270e-01) (50, 6.85482425615191459656e-03) (51, 4.38499115407466888428e-02) (52, 1.63428038358688354492e-02) (53, 1.99794933199882507324e-01) (54, 4.43016946315765380859e-01) (55, 2.30290405452251434326e-02) (56, 6.58123986795544624329e-03) (57, 4.61138963699340820312e-01) (58, 1.32459759712219238281e-01) (59, 1.15947432816028594971e-01) (60, 2.50084161758422851562e-01) (61, 3.95146489143371582031e-01) (62, -3.38296055793762207031e-01) (63, 2.49617435038089752197e-02) (64, -3.84326756000518798828e-01) (65, 7.27919280529022216797e-01) (66, -4.76930961012840270996e-02) (67, 4.09138917922973632812e-01) (68, -8.31626877188682556152e-02) (69, 2.94638544321060180664e-01) (70, -4.37548719346523284912e-02) (71, -5.84517538547515869141e-01) (72, -1.66261255741119384766e-01) (73, 4.28892016410827636719e-01) (74, 1.11285224556922912598e-02) (75, 5.78524991869926452637e-02) (76, 4.44102525711059570312e-01) (77, -2.87292957305908203125e-01) (78, 2.30144057422876358032e-02) (79, -3.79042446613311767578e-01) (80, 2.15227203443646430969e-03) (81, 6.33569657802581787109e-01) (82, 2.04027086496353149414e-01) (83, 4.37226653099060058594e-01) (84, -2.92819961905479431152e-02) (85, 6.37192904949188232422e-01) (86, -1.16081889718770980835e-02) (87, 3.16672533750534057617e-01) (88, 3.19147080183029174805e-01) (89, 3.84462252259254455566e-02) (90, 6.49345219135284423828e-01) (91, 3.88817965984344482422e-01) (92, 7.02358722686767578125e-01) (93, 2.00915541499853134155e-02) (94, 3.87213766574859619141e-01) (95, -2.69026774913072586060e-02) (96, 2.84765601158142089844e-01) (97, 1.84695601463317871094e-01) (98, 3.85814964771270751953e-01) (99, 4.22156155109405517578e-01) (100, -2.44333341717720031738e-01) (101, -6.64053931832313537598e-02) (102, 1.02127641439437866211e-01) (103, -1.22984252870082855225e-01) (104, -7.02771544456481933594e-02) (105, -3.67639772593975067139e-02) (106, -3.93993668258190155029e-02) (107, 3.47258567810058593750e-01) (7, 4.00558263063430786133e-02) (8, 2.28704005479812622070e-01) (9, 3.59205126762390136719e-01) (10, -9.71565917134284973145e-02) (11, 2.16918900609016418457e-01) (12, -2.23228871822357177734e-01) (13, 2.48716920614242553711e-01) (14, -2.72608548402786254883e-01) (15, 1.62024796009063720703e-01) (16, 6.78345322608947753906e-01) (17, 7.73144304752349853516e-01) (18, 4.45252284407615661621e-02) (19, 2.81878173351287841797e-01) (20, 2.73430585861206054688e-01) (21, -1.98371902108192443848e-01) (22, -2.14826017618179321289e-01) (23, 2.66958594322204589844e-01) (24, -8.17219316959381103516e-02) (25, 3.66999268531799316406e-01) (26, 1.23635351657867431641e-01) (27, 2.28392258286476135254e-01) (28, 2.08858326077461242676e-01) (29, 3.69795441627502441406e-01) (30, 1.60880029201507568359e-01) (31, 2.27095201611518859863e-01) (32, 3.21903556585311889648e-01) (33, 2.47370719909667968750e-01) (34, 7.00849056243896484375e-01) (35, -2.09408998489379882812e-01) (36, -9.45062492974102497101e-04) (37, 1.45618095993995666504e-01) (38, 2.43597149848937988281e-01) (39, -2.10399568080902099609e-01) (40, 2.44149297475814819336e-01) (41, -2.63815194368362426758e-01) (42, -1.30323052406311035156e-01) (43, -7.75741711258888244629e-02) (44, -1.37854874134063720703e-01) (45, 2.83835500478744506836e-01) (46, -1.85045763850212097168e-01) (47, 1.44507810473442077637e-01) (48, 2.02726989984512329102e-01) (49, -3.37137848138809204102e-01) (50, 2.89548397064208984375e-01) (51, 1.11325986683368682861e-01) (52, 2.83420413732528686523e-01) (53, 6.39279484748840332031e-01) (54, -7.19590038061141967773e-02) (55, 2.59455412626266479492e-01) (56, 2.26408317685127258301e-01) (57, -6.40012919902801513672e-02) (58, 6.48197889328002929688e-01) (59, 4.20385390520095825195e-01) (60, 8.35369527339935302734e-03) (61, -1.66358664631843566895e-01) (62, 3.17207247018814086914e-01) (63, 2.75207757949829101562e-01) (64, 6.55958473682403564453e-01) (65, 2.61936157941818237305e-01) (66, 9.55526232719421386719e-02) (67, -1.85239896178245544434e-01) (68, 3.53913277387619018555e-01) (69, -1.16747848689556121826e-01) (70, 8.51522207260131835938e-01) (71, 7.99911856651306152344e-01) (72, 3.50814819335937500000e-01) (73, -2.10475802421569824219e-01) (74, 3.57770800590515136719e-01) (75, -3.61230559647083282471e-02) (76, -1.36880010366439819336e-01) (77, 2.03348889946937561035e-01) (78, 2.78373509645462036133e-01) (79, 3.73853772878646850586e-01) (80, 2.44294524192810058594e-01) (81, -2.54121929407119750977e-01) (82, -2.15752378106117248535e-01) (83, 4.69462543725967407227e-01) (84, -1.29421603679656982422e+00) (85, 5.17086982727050781250e-01) (86, 3.66666018962860107422e-01) (87, -2.34761938452720642090e-01) (88, -1.62381604313850402832e-01) (89, -2.80358731746673583984e-01) (90, 2.47998356819152832031e-01) (91, -2.09078192710876464844e-01) (92, -8.40197086334228515625e-01) (93, 2.26417198777198791504e-01) (94, -1.44110873341560363770e-01) (95, 2.01020002365112304688e-01) (96, -1.09995156526565551758e-01) (97, -5.11863734573125839233e-03) (98, -1.41586899757385253906e-01) (99, -1.94885894656181335449e-01) (100, 4.22216027975082397461e-01) (101, 1.22074134647846221924e-01) (102, 2.16847315430641174316e-01) (103, 7.26189017295837402344e-02) (104, 2.93511152267456054688e-01) (105, 3.87984395027160644531e-01) (106, 3.84854614734649658203e-01) (107, -2.53625541925430297852e-01) 
