FANN_FLO_2.1
num_layers=3
learning_rate=0.001000
connection_rate=1.000000
network_type=0
learning_momentum=0.000000
training_algorithm=2
train_error_function=1
train_stop_function=0
cascade_output_change_fraction=0.010000
quickprop_decay=-0.000100
quickprop_mu=1.750000
rprop_increase_factor=1.200000
rprop_decrease_factor=0.500000
rprop_delta_min=0.000000
rprop_delta_max=50.000000
rprop_delta_zero=0.100000
cascade_output_stagnation_epochs=12
cascade_candidate_change_fraction=0.010000
cascade_candidate_stagnation_epochs=12
cascade_max_out_epochs=150
cascade_min_out_epochs=50
cascade_max_cand_epochs=150
cascade_min_cand_epochs=50
cascade_num_candidate_groups=2
bit_fail_limit=3.49999994039535522461e-01
cascade_candidate_limit=1.00000000000000000000e+03
cascade_weight_multiplier=4.00000005960464477539e-01
cascade_activation_functions_count=10
cascade_activation_functions=3 5 7 8 10 11 14 15 16 17 
cascade_activation_steepnesses_count=4
cascade_activation_steepnesses=2.50000000000000000000e-01 5.00000000000000000000e-01 7.50000000000000000000e-01 1.00000000000000000000e+00 
layer_sizes=7 101 5 
scale_included=0
neurons (num_inputs, activation_function, activation_steepness)=(0, 0, 0.00000000000000000000e+00) (0, 0, 0.00000000000000000000e+00) (0, 0, 0.00000000000000000000e+00) (0, 0, 0.00000000000000000000e+00) (0, 0, 0.00000000000000000000e+00) (0, 0, 0.00000000000000000000e+00) (0, 0, 0.00000000000000000000e+00) (7, 5, 5.00000000000000000000e-01) (7, 5, 5.00000000000000000000e-01) (7, 5, 5.00000000000000000000e-01) (7, 5, 5.00000000000000000000e-01) (7, 5, 5.00000000000000000000e-01) (7, 5, 5.00000000000000000000e-01) (7, 5, 5.00000000000000000000e-01) (7, 5, 5.00000000000000000000e-01) (7, 5, 5.00000000000000000000e-01) (7, 5, 5.00000000000000000000e-01) (7, 5, 5.00000000000000000000e-01) (7, 5, 5.00000000000000000000e-01) (7, 5, 5.00000000000000000000e-01) (7, 5, 5.00000000000000000000e-01) (7, 5, 5.00000000000000000000e-01) (7, 5, 5.00000000000000000000e-01) (7, 5, 5.00000000000000000000e-01) (7, 5, 5.00000000000000000000e-01) (7, 5, 5.00000000000000000000e-01) (7, 5, 5.00000000000000000000e-01) (7, 5, 5.00000000000000000000e-01) (7, 5, 5.00000000000000000000e-01) (7, 5, 5.00000000000000000000e-01) (7, 5, 5.00000000000000000000e-01) (7, 5, 5.00000000000000000000e-01) (7, 5, 5.00000000000000000000e-01) (7, 5, 5.00000000000000000000e-01) (7, 5, 5.00000000000000000000e-01) (7, 5, 5.00000000000000000000e-01) (7, 5, 5.00000000000000000000e-01) (7, 5, 5.00000000000000000000e-01) (7, 5, 5.00000000000000000000e-01) (7, 5, 5.00000000000000000000e-01) (7, 5, 5.00000000000000000000e-01) (7, 5, 5.00000000000000000000e-01) (7, 5, 5.00000000000000000000e-01) (7, 5, 5.00000000000000000000e-01) (7, 5, 5.00000000000000000000e-01) (7, 5, 5.00000000000000000000e-01) (7, 5, 5.00000000000000000000e-01) (7, 5, 5.00000000000000000000e-01) (7, 5, 5.00000000000000000000e-01) (7, 5, 5.00000000000000000000e-01) (7, 5, 5.00000000000000000000e-01) (7, 5, 5.00000000000000000000e-01) (7, 5, 5.00000000000000000000e-01) (7, 5, 5.00000000000000000000e-01) (7, 5, 5.00000000000000000000e-01) (7, 5, 5.00000000000000000000e-01) (7, 5, 5.00000000000000000000e-01) (7, 5, 5.00000000000000000000e-01) (7, 5, 5.00000000000000000000e-01) (7, 5, 5.00000000000000000000e-01) (7, 5, 5.00000000000000000000e-01) (7, 5, 5.00000000000000000000e-01) (7, 5, 5.00000000000000000000e-01) (7, 5, 5.00000000000000000000e-01) (7, 5, 5.00000000000000000000e-01) (7, 5, 5.00000000000000000000e-01) (7, 5, 5.00000000000000000000e-01) (7, 5, 5.00000000000000000000e-01) (7, 5, 5.00000000000000000000e-01) (7, 5, 5.00000000000000000000e-01) (7, 5, 5.00000000000000000000e-01) (7, 5, 5.00000000000000000000e-01) (7, 5, 5.00000000000000000000e-01) (7, 5, 5.00000000000000000000e-01) (7, 5, 5.00000000000000000000e-01) (7, 5, 5.00000000000000000000e-01) (7, 5, 5.00000000000000000000e-01) (7, 5, 5.00000000000000000000e-01) (7, 5, 5.00000000000000000000e-01) (7, 5, 5.00000000000000000000e-01) (7, 5, 5.00000000000000000000e-01) (7, 5, 5.00000000000000000000e-01) (7, 5, 5.00000000000000000000e-01) (7, 5, 5.00000000000000000000e-01) (7, 5, 5.00000000000000000000e-01) (7, 5, 5.00000000000000000000e-01) (7, 5, 5.00000000000000000000e-01) (7, 5, 5.00000000000000000000e-01) (7, 5, 5.00000000000000000000e-01) (7, 5, 5.00000000000000000000e-01) (7, 5, 5.00000000000000000000e-01) (7, 5, 5.00000000000000000000e-01) (7, 5, 5.00000000000000000000e-01) (7, 5, 5.00000000000000000000e-01) (7, 5, 5.00000000000000000000e-01) (7, 5, 5.00000000000000000000e-01) (7, 5, 5.00000000000000000000e-01) (7, 5, 5.00000000000000000000e-01) (7, 5, 5.00000000000000000000e-01) (7, 5, 5.00000000000000000000e-01) (7, 5, 5.00000000000000000000e-01) (7, 5, 5.00000000000000000000e-01) (7, 5, 5.00000000000000000000e-01) (7, 5, 5.00000000000000000000e-01) (7, 5, 5.00000000000000000000e-01) (7, 5, 5.00000000000000000000e-01) (7, 5, 5.00000000000000000000e-01) (0, 5, 0.00000000000000000000e+00) (101, 5, 5.00000000000000000000e-01) (101, 5, 5.00000000000000000000e-01) (101, 5, 5.00000000000000000000e-01) (101, 5, 5.00000000000000000000e-01) (0, 5, 0.00000000000000000000e+00) 
connections (connected_to_neuron, weight)=(0, 1.03405175781250000000e+03) (1, 1.49482885742187500000e+03) (2, 1.49518680572509765625e+00) (3, 7.55080401897430419922e-01) (4, 6.79184079170227050781e-01) (5, 5.45134902000427246094e-01) (6, -4.32204633951187133789e-01) (0, -7.60811767578125000000e+02) (1, -1.08709680175781250000e+03) (2, -1.45728295898437500000e+03) (3, 7.97176241874694824219e-01) (4, 6.93745315074920654297e-01) (5, 1.50000000000000000000e+03) (6, 1.38559532165527343750e+00) (0, 5.85433898925781250000e+02) (1, -1.43610424804687500000e+03) (2, 1.49651843261718750000e+03) (3, -2.83099532127380371094e-01) (4, 8.05146038532257080078e-01) (5, -5.10559201240539550781e-01) (6, 8.43881309032440185547e-01) (0, 5.44434570312500000000e+02) (1, 1.31882400512695312500e+01) (2, 4.98318290710449218750e+00) (3, 8.34428668022155761719e-02) (4, 8.72723609209060668945e-02) (5, -8.25159475207328796387e-02) (6, 8.51129218935966491699e-02) (0, -8.48374176025390625000e+01) (1, -1.36845910644531250000e+03) (2, 4.36180152893066406250e+01) (3, 8.03489446640014648438e-01) (4, 8.24927330017089843750e-01) (5, 7.11974918842315673828e-01) (6, 1.29885077476501464844e+00) (0, 1.03692913055419921875e+01) (1, 5.36700487136840820312e-02) (2, 2.64353632926940917969e-01) (3, -5.15243895351886749268e-02) (4, 1.49622121825814247131e-02) (5, 3.36807854473590850830e-02) (6, 5.17314560711383819580e-02) (0, 1.77844512939453125000e+02) (1, -8.88131469726562500000e+02) (2, 2.43311691284179687500e+01) (3, 1.02352939546108245850e-01) (4, 5.70441544055938720703e-01) (5, -1.45157143473625183105e-01) (6, 7.28711605072021484375e-01) (0, -1.49158874511718750000e+03) (1, -1.46681848144531250000e+03) (2, 1.49984082031250000000e+03) (3, -1.45198754882812500000e+03) (4, -3.23995612561702728271e-02) (5, -1.46422399902343750000e+03) (6, 8.11961531639099121094e-01) (0, 1.27869995117187500000e+03) (1, -6.83540649414062500000e+02) (2, 9.46411252021789550781e-01) (3, 7.25424051284790039062e-01) (4, 7.33855962753295898438e-01) (5, 6.37029349803924560547e-01) (6, 2.53514885902404785156e-01) (0, 1.49996875000000000000e+03) (1, -1.47132983398437500000e+03) (2, -1.31059875488281250000e+03) (3, 1.58839249610900878906e+00) (4, 8.70139956474304199219e-01) (5, 1.37042236328125000000e+00) (6, 6.95195496082305908203e-01) (0, -1.18533801269531250000e+03) (1, -1.49660852050781250000e+03) (2, 1.49937707519531250000e+03) (3, -1.49436181640625000000e+03) (4, 7.12391018867492675781e-01) (5, -1.47943347167968750000e+03) (6, 1.50814759731292724609e+00) (0, 1.00580261230468750000e+03) (1, -1.17812097167968750000e+03) (2, 1.60126531124114990234e+00) (3, 4.84700500965118408203e-01) (4, 5.50401806831359863281e-01) (5, -1.21636718511581420898e-01) (6, 5.04984438419342041016e-01) (0, 6.78957702636718750000e+02) (1, 9.55736694335937500000e+01) (2, 3.00357437133789062500e+01) (3, 6.76267072558403015137e-02) (4, 2.29974031448364257812e-01) (5, -1.87423191964626312256e-02) (6, 5.56913614273071289062e-02) (0, 2.47347961425781250000e+02) (1, -1.65232940673828125000e+02) (2, 3.41434702277183532715e-02) (3, 4.18790578842163085938e-02) (4, 1.43511161208152770996e-01) (5, -9.14614126086235046387e-02) (6, -1.14201948046684265137e-01) (0, -1.23997033691406250000e+03) (1, -1.49177001953125000000e+03) (2, -5.09276056289672851562e+00) (3, -8.46567973494529724121e-02) (4, 1.04070290923118591309e-01) (5, -1.49739733886718750000e+03) (6, -3.04561018943786621094e-01) (0, -9.93938964843750000000e+02) (1, -1.40114697265625000000e+03) (2, -3.34380686283111572266e-01) (3, 6.98433458805084228516e-01) (4, 3.83362233638763427734e-01) (5, 7.53058269619941711426e-02) (6, 4.86541017889976501465e-02) (0, 6.65488525390625000000e+02) (1, 1.49610314941406250000e+03) (2, 5.41555225849151611328e-01) (3, 1.13731014728546142578e+00) (4, 5.36383986473083496094e-01) (5, 1.62962794303894042969e+00) (6, 8.54932367801666259766e-01) (0, 1.44107763671875000000e+03) (1, -2.18079254150390625000e+02) (2, 1.49913464355468750000e+03) (3, -1.87309592962265014648e-01) (4, 4.42682385444641113281e-01) (5, -1.02855429053306579590e-01) (6, 3.50052118301391601562e-01) (0, 1.47730651855468750000e+03) (1, 1.46916967773437500000e+03) (2, -5.34895263671875000000e+02) (3, 6.87588274478912353516e-01) (4, 3.54968339204788208008e-01) (5, 1.49999987792968750000e+03) (6, -5.69837868213653564453e-01) (0, 1.09454727172851562500e+02) (1, 6.41739959716796875000e+01) (2, 7.83661842346191406250e+00) (3, 9.80750620365142822266e-01) (4, 8.98260056972503662109e-01) (5, 1.16849839687347412109e+00) (6, 1.27092850208282470703e+00) (0, 1.30075085449218750000e+03) (1, -1.49166516113281250000e+03) (2, 5.10326027870178222656e-01) (3, 5.99094152450561523438e-01) (4, 3.60983222723007202148e-01) (5, 2.94618546962738037109e-01) (6, 1.43694743514060974121e-01) (0, 1.46619714355468750000e+03) (1, 1.49994384765625000000e+03) (2, -4.11537857055664062500e+01) (3, 1.90893054008483886719e+00) (4, 7.44045555591583251953e-01) (5, 1.50000000000000000000e+03) (6, 2.72524863481521606445e-01) (0, 1.42809997558593750000e+03) (1, 1.43990466308593750000e+03) (2, -1.36690246582031250000e+03) (3, 1.28517997264862060547e+00) (4, 8.20747256278991699219e-01) (5, 1.42743554687500000000e+03) (6, 1.94359689950942993164e-01) (0, -1.37367089843750000000e+03) (1, -1.49003173828125000000e+03) (2, -1.25148463249206542969e+00) (3, 6.66464209556579589844e-01) (4, 4.26868110895156860352e-01) (5, -1.57604023814201354980e-01) (6, 1.94303337484598159790e-02) (0, -1.32877227783203125000e+02) (1, 1.47512316894531250000e+03) (2, -5.80276451110839843750e+01) (3, 7.29197859764099121094e-02) (4, 3.99701714515686035156e-01) (5, -2.35578149557113647461e-01) (6, 3.53790730237960815430e-01) (0, -7.97983093261718750000e+01) (1, -1.42811840820312500000e+03) (2, 1.50000000000000000000e+03) (3, -3.03190201520919799805e-01) (4, 3.72595041990280151367e-01) (5, -1.42904077148437500000e+03) (6, 6.40595853328704833984e-01) (0, -1.01003601074218750000e+03) (1, -1.46766467285156250000e+03) (2, 2.30375576019287109375e+00) (3, 1.37363147735595703125e+00) (4, 7.95589566230773925781e-01) (5, 3.23024383544921875000e+02) (6, 1.02243019104003906250e+02) (0, 1.49083630371093750000e+03) (1, 1.49992895507812500000e+03) (2, 1.35181115722656250000e+03) (3, -2.91863799095153808594e+00) (4, -4.18325006961822509766e-01) (5, 1.49996740722656250000e+03) (6, -9.38605117797851562500e+00) (0, 5.30597686767578125000e+01) (1, -1.66098862886428833008e-01) (2, 4.51069951057434082031e-01) (3, 1.72486126422882080078e-01) (4, -1.06360539793968200684e-01) (5, -2.80761457979679107666e-02) (6, 1.94457903504371643066e-01) (0, -1.22325549316406250000e+03) (1, -1.43396240234375000000e+03) (2, -4.68930542469024658203e-01) (3, 1.24604992568492889404e-01) (4, 3.78202736377716064453e-01) (5, 1.54218569397926330566e-01) (6, -3.93074937164783477783e-02) (0, 1.49999316406250000000e+03) (1, 1.49808996582031250000e+03) (2, 1.49903247070312500000e+03) (3, -7.14264512062072753906e-01) (4, -8.56117188930511474609e-01) (5, -5.40697807446122169495e-03) (6, -8.65273296833038330078e-01) (0, -1.35515747070312500000e+03) (1, -3.59367553710937500000e+02) (2, -6.39531631469726562500e+01) (3, 5.78324496746063232422e-01) (4, 5.38337290287017822266e-01) (5, 1.90038010478019714355e-01) (6, 2.06159144639968872070e-01) (0, -1.45292150878906250000e+03) (1, -7.71450683593750000000e+02) (2, 3.20442348718643188477e-01) (3, 7.93764889240264892578e-01) (4, 5.20513415336608886719e-01) (5, 1.15427446365356445312e+00) (6, -5.16826584935188293457e-02) (0, 1.75132064819335937500e+02) (1, -1.12439376831054687500e+02) (2, 1.26592028141021728516e+00) (3, -2.71595835685729980469e-01) (4, 1.59603431820869445801e-02) (5, -8.00874423980712890625e+00) (6, -2.38344281911849975586e-01) (0, 3.51990165710449218750e+01) (1, 1.25521093750000000000e+03) (2, 1.38135925292968750000e+02) (3, 9.68674182891845703125e-01) (4, 8.72645497322082519531e-01) (5, 1.46541467285156250000e+03) (6, 8.26495230197906494141e-01) (0, -1.44714477539062500000e+03) (1, -7.60121093750000000000e+02) (2, -4.87382446289062500000e+02) (3, 5.89662671089172363281e-01) (4, 7.29589343070983886719e-01) (5, 2.36887726932764053345e-02) (6, 1.21618902683258056641e+00) (0, 1.46168688964843750000e+03) (1, -4.43451995849609375000e+02) (2, 1.31383991241455078125e+00) (3, 5.89358747005462646484e-01) (4, 3.89711946249008178711e-01) (5, 1.70668795704841613770e-01) (6, 7.20009058713912963867e-02) (0, -8.71734619140625000000e+02) (1, 1.30081835937500000000e+03) (2, -1.16490319824218750000e+03) (3, 1.14669281005859375000e+02) (4, 1.41473209857940673828e+00) (5, 1.47754870605468750000e+03) (6, 1.19879114627838134766e+00) (0, -9.68597290039062500000e+02) (1, -1.36852355957031250000e+03) (2, 1.04367942810058593750e+01) (3, 8.79583775997161865234e-01) (4, 9.34478104114532470703e-01) (5, 8.43650162220001220703e-01) (6, 1.20857071876525878906e+00) (0, 1.49973120117187500000e+03) (1, 1.49956713867187500000e+03) (2, -5.60680656433105468750e+01) (3, 2.45707058906555175781e+00) (4, 1.04523122310638427734e+00) (5, 1.49926501464843750000e+03) (6, 5.01827120780944824219e-01) (0, -8.71424743652343750000e+02) (1, -1.41294165039062500000e+03) (2, 1.41772055625915527344e+00) (3, 3.29883217811584472656e-01) (4, 4.03189182281494140625e-01) (5, -7.79192000627517700195e-02) (6, 1.80067136883735656738e-01) (0, -1.33624060058593750000e+03) (1, -1.02259289550781250000e+03) (2, -7.91243530273437500000e+02) (3, 4.68931287527084350586e-01) (4, 6.58324301242828369141e-01) (5, 5.28344535827636718750e+00) (6, 1.81577312946319580078e+00) (0, 1.45329125976562500000e+03) (1, 1.28257568359375000000e+03) (2, 1.48853468894958496094e+00) (3, 4.37148004770278930664e-01) (4, 2.12773919105529785156e-01) (5, 3.52102696895599365234e-01) (6, -3.61625885963439941406e+00) (0, -1.48282922363281250000e+03) (1, -1.36954382324218750000e+03) (2, -6.64818786621093750000e+02) (3, 2.77471041679382324219e+00) (4, 1.04546856880187988281e+00) (5, 4.78728175163269042969e-01) (6, 5.76195359230041503906e-01) (0, -4.74447288513183593750e+01) (1, -1.49120275878906250000e+03) (2, -2.29937171936035156250e+00) (3, -1.96448743343353271484e-01) (4, -1.93576008081436157227e-01) (5, -6.28532111644744873047e-01) (6, -3.28633755445480346680e-01) (0, -1.23408715820312500000e+03) (1, -7.83574951171875000000e+02) (2, 3.37114906311035156250e+00) (3, -2.59404629468917846680e-01) (4, -8.42716842889785766602e-02) (5, -2.76682357788085937500e+01) (6, 2.08849415183067321777e-01) (0, 2.71259857177734375000e+02) (1, 1.41400256347656250000e+03) (2, -1.63580214977264404297e+00) (3, -3.75044465065002441406e-01) (4, -2.37085074186325073242e-01) (5, -6.69630527496337890625e-01) (6, -5.09053051471710205078e-01) (0, 1.36897229003906250000e+03) (1, 5.29734916687011718750e+01) (2, -1.97224426269531250000e+01) (3, -4.37339693307876586914e-02) (4, -3.39487157762050628662e-02) (5, 1.37456357479095458984e-01) (6, -5.31900525093078613281e-01) (0, 1.44661877441406250000e+03) (1, 5.89414184570312500000e+02) (2, 7.97104501724243164062e+00) (3, 4.98176842927932739258e-01) (4, 9.30225968360900878906e-01) (5, 1.44759368896484375000e+00) (6, 1.09670782089233398438e+00) (0, 6.90330627441406250000e+02) (1, 3.65114288330078125000e+02) (2, 2.83519622802734375000e+02) (3, 2.38155350089073181152e-01) (4, 5.45548021793365478516e-01) (5, -1.44930053502321243286e-02) (6, 3.96524190902709960938e-01) (0, 2.16951690673828125000e+02) (1, 1.49999987792968750000e+03) (2, -2.85863739013671875000e+02) (3, 7.76887774467468261719e-01) (4, 5.71172654628753662109e-01) (5, 1.49736926269531250000e+03) (6, 5.23411154747009277344e-01) (0, 3.69553863525390625000e+02) (1, 3.18071990966796875000e+02) (2, 1.72909088134765625000e+01) (3, 7.39668071269989013672e-01) (4, 1.07120800018310546875e+00) (5, 1.13093924522399902344e+00) (6, 1.30775296688079833984e+00) (0, 1.19054577636718750000e+03) (1, 1.43961804199218750000e+03) (2, 1.91393852233886718750e+00) (3, -3.90043646097183227539e-01) (4, -3.38171780109405517578e-01) (5, 1.87168419361114501953e-01) (6, -1.20057788085937500000e+03) (0, 1.48203405761718750000e+03) (1, 1.48769299316406250000e+03) (2, 4.57503938674926757812e+00) (3, 6.74364745616912841797e-01) (4, 1.42203235626220703125e+00) (5, 1.39876818656921386719e+00) (6, -7.89142227172851562500e+00) (0, -1.20724621582031250000e+03) (1, -1.49539099121093750000e+03) (2, 1.49999987792968750000e+03) (3, -1.27075402832031250000e+03) (4, 4.43315237760543823242e-01) (5, -1.49413562011718750000e+03) (6, 1.37002456188201904297e+00) (0, 1.39417773437500000000e+03) (1, -1.18393603515625000000e+03) (2, 2.88363099098205566406e+00) (3, 4.35278415679931640625e-01) (4, 1.17446947097778320312e+00) (5, 3.25197726488113403320e-01) (6, 1.21158623695373535156e+00) (0, 6.69408569335937500000e+02) (1, 1.47223547363281250000e+03) (2, 1.21726071834564208984e+00) (3, 6.49810492992401123047e-01) (4, 1.33650720119476318359e+00) (5, 1.36325740814208984375e+00) (6, -7.86231517791748046875e-01) (0, -6.67211425781250000000e+02) (1, -1.40476037597656250000e+03) (2, 8.71949035644531250000e+02) (3, 7.04082071781158447266e-01) (4, 7.53981947898864746094e-01) (5, 5.59676051139831542969e-01) (6, 1.33778226375579833984e+00) (0, 1.49533544921875000000e+03) (1, 1.48698754882812500000e+03) (2, -1.30388220214843750000e+03) (3, 1.20484793186187744141e+00) (4, 5.81158161163330078125e-01) (5, 1.49999987792968750000e+03) (6, 3.53674471378326416016e-01) (0, 1.46569165039062500000e+03) (1, -1.32795059204101562500e+02) (2, 7.53616273403167724609e-01) (3, 6.28215670585632324219e-01) (4, 2.88711696863174438477e-01) (5, 3.65385919809341430664e-01) (6, 9.24621671438217163086e-02) (0, -1.35474450683593750000e+03) (1, 9.51709045410156250000e+02) (2, -1.34494055175781250000e+03) (3, 1.01273608398437500000e+03) (4, 1.70631647109985351562e-01) (5, 1.48307287597656250000e+03) (6, -5.76234748587012290955e-03) (0, -1.32133874511718750000e+03) (1, 3.36374664306640625000e+01) (2, -1.12187585449218750000e+03) (3, 6.52261316776275634766e-01) (4, 4.14684534072875976562e-01) (5, 3.22609400749206542969e+00) (6, 5.13525540009140968323e-03) (0, 1.21263720703125000000e+03) (1, 1.50000000000000000000e+03) (2, -1.48565808105468750000e+03) (3, 2.03976638793945312500e+02) (4, 2.60833129286766052246e-02) (5, 1.49997814941406250000e+03) (6, -1.19375526905059814453e+00) (0, -1.14129907226562500000e+03) (1, -1.49087365722656250000e+03) (2, 1.49999987792968750000e+03) (3, -1.02427795529365539551e-01) (4, 5.49996972084045410156e-01) (5, -1.49876049804687500000e+03) (6, 5.19889652729034423828e-01) (0, 2.31752716064453125000e+02) (1, -1.28851611328125000000e+03) (2, 1.03270506858825683594e+00) (3, 4.64944511651992797852e-01) (4, 5.49967169761657714844e-01) (5, -3.17711289972066879272e-03) (6, 3.68359535932540893555e-01) (0, 1.67427947998046875000e+02) (1, -7.66135215759277343750e+00) (2, 3.44737625122070312500e+01) (3, -1.71088963747024536133e-01) (4, 3.36534082889556884766e-01) (5, -8.86990427970886230469e-02) (6, 1.03836643695831298828e+00) (0, -3.33577362060546875000e+02) (1, -1.22384643554687500000e+03) (2, 1.23135543823242187500e+02) (3, 6.50265157222747802734e-01) (4, 7.44035959243774414062e-01) (5, -5.96889913082122802734e-01) (6, 1.34221971035003662109e+00) (0, 9.03509094238281250000e+02) (1, 1.19183789062500000000e+03) (2, -1.78552551269531250000e+01) (3, -1.80644944310188293457e-01) (4, 8.02202895283699035645e-02) (5, -2.74948596954345703125e-01) (6, -4.23463955521583557129e-02) (0, 1.43697485351562500000e+03) (1, -9.53768249511718750000e+02) (2, 1.01845753192901611328e+00) (3, 5.13968944549560546875e-01) (4, 4.83446121215820312500e-01) (5, 3.05123683065176010132e-02) (6, 2.73527652025222778320e-01) (0, 1.03779711914062500000e+03) (1, -4.28927246093750000000e+02) (2, 1.00682926177978515625e+00) (3, 1.13970983028411865234e+00) (4, 1.00353991985321044922e+00) (5, 1.08044457435607910156e+00) (6, 7.06507980823516845703e-01) (0, -1.11367407226562500000e+03) (1, -1.48554516601562500000e+03) (2, 5.88644027709960937500e-01) (3, 7.66277134418487548828e-01) (4, 4.41668421030044555664e-01) (5, 5.04319429397583007812e-01) (6, 2.04580321907997131348e-01) (0, 1.10820068359375000000e+03) (1, -6.61121582031250000000e+02) (2, -1.98913419246673583984e+00) (3, -1.68175205588340759277e-01) (4, -2.62266844511032104492e-01) (5, -8.86850714683532714844e-01) (6, -4.02836859226226806641e-01) (0, -1.39210620117187500000e+03) (1, -1.49696203613281250000e+03) (2, 1.49999951171875000000e+03) (3, -1.05952075195312500000e+03) (4, 1.54423424974083900452e-02) (5, -1.49945751953125000000e+03) (6, 2.00578808784484863281e+00) (0, -7.38254577636718750000e+02) (1, -6.41259033203125000000e+02) (2, 3.67116889953613281250e+01) (3, 7.06481575965881347656e-01) (4, 9.15280520915985107422e-01) (5, 5.79036045074462890625e+00) (6, 1.49811047363281250000e+03) (0, 1.34388647460937500000e+03) (1, 1.49453930664062500000e+03) (2, -1.49992980957031250000e+03) (3, 1.36030712890625000000e+03) (4, 2.08310794830322265625e+00) (5, 1.30679248046875000000e+03) (6, 2.35454812645912170410e-02) (0, 1.25925305175781250000e+03) (1, 1.49002270507812500000e+03) (2, 2.27202892303466796875e+00) (3, 7.61090636253356933594e-01) (4, 6.30793750286102294922e-01) (5, 7.23696887493133544922e-01) (6, -4.84355330467224121094e-01) (0, 9.51344604492187500000e+02) (1, -4.16940574645996093750e+01) (2, 6.91697061061859130859e-01) (3, 2.27309003472328186035e-01) (4, 2.95542389154434204102e-01) (5, -1.26023009419441223145e-01) (6, 7.13995099067687988281e-02) (0, 1.32635705566406250000e+03) (1, 1.50000000000000000000e+03) (2, -6.29948425292968750000e+02) (3, 9.49720218777656555176e-02) (4, -1.05496853590011596680e-01) (5, 4.58247482776641845703e-01) (6, -6.98845982551574707031e-01) (0, -5.48345153808593750000e+02) (1, -1.31366552734375000000e+03) (2, 7.43434143066406250000e+01) (3, 7.11023807525634765625e-01) (4, 8.19539725780487060547e-01) (5, 7.54170775413513183594e-01) (6, 1.35084366798400878906e+00) (0, -4.64904357910156250000e+02) (1, -1.63659469604492187500e+02) (2, 2.70694434642791748047e-01) (3, 1.51269704103469848633e-01) (4, 1.36995807290077209473e-01) (5, -9.13109406828880310059e-02) (6, -8.24642032384872436523e-02) (0, 1.44141723632812500000e+03) (1, 1.43961987304687500000e+03) (2, 1.34429132938385009766e+00) (3, 1.00972926616668701172e+00) (4, 7.71718442440032958984e-01) (5, 1.50000000000000000000e+03) (6, 5.70140719413757324219e-01) (0, 1.18225317382812500000e+03) (1, 8.61290435791015625000e+01) (2, 5.43736338615417480469e-01) (3, -1.06162630021572113037e-01) (4, -2.75472760200500488281e-01) (5, 2.56678640842437744141e-01) (6, -2.97282886505126953125e+00) (0, -1.47243078613281250000e+03) (1, 1.30750122070312500000e+03) (2, -4.54335832595825195312e+00) (3, 1.09571230411529541016e+00) (4, 8.94677400588989257812e-01) (5, 1.49995104980468750000e+03) (6, 6.81290626525878906250e-01) (0, 9.12753417968750000000e+02) (1, 1.47419177246093750000e+03) (2, -6.35018806457519531250e+01) (3, 5.01027226448059082031e-01) (4, 2.66883611679077148438e-01) (5, 8.22411596775054931641e-01) (6, -3.07090640068054199219e-01) (0, -1.28296411132812500000e+03) (1, -1.45864660644531250000e+03) (2, 3.72640788555145263672e-01) (3, 2.25849151611328125000e-01) (4, 2.96011000871658325195e-01) (5, 2.58461862802505493164e-01) (6, 9.34527739882469177246e-02) (0, 1.44828381347656250000e+03) (1, 1.42926977539062500000e+03) (2, -4.15115432739257812500e+01) (3, -2.29712322354316711426e-01) (4, -1.93241499364376068115e-02) (5, -3.37288379669189453125e-01) (6, -3.06389212608337402344e-01) (0, 1.03109130859375000000e+03) (1, 1.30470703125000000000e+03) (2, 2.71367263793945312500e+00) (3, 9.69155013561248779297e-01) (4, 1.01433801651000976562e+00) (5, 1.46364295482635498047e+00) (6, 1.34173822402954101562e+00) (0, -1.50000000000000000000e+03) (1, -1.44618591308593750000e+03) (2, 1.49757348632812500000e+03) (3, -2.33687423706054687500e+02) (4, 6.48066043853759765625e-01) (5, -1.49398095703125000000e+03) (6, 7.49630279541015625000e+01) (0, -8.32716522216796875000e+01) (1, 1.35687207031250000000e+03) (2, -1.06730337142944335938e+01) (3, 3.95085990428924560547e-01) (4, 4.98697012662887573242e-01) (5, 2.97976255416870117188e-01) (6, 6.80772587656974792480e-02) (0, -1.38843872070312500000e+03) (1, -1.45926196289062500000e+03) (2, -1.12547485351562500000e+03) (3, 4.07244980335235595703e-01) (4, 2.44522556662559509277e-01) (5, -1.40610009765625000000e+03) (6, 5.22898398339748382568e-02) (0, 1.12523828125000000000e+03) (1, 1.50000000000000000000e+03) (2, 1.54208076000213623047e+00) (3, 1.16096937656402587891e+00) (4, 8.56969892978668212891e-01) (5, 1.29786169528961181641e+00) (6, 9.87178146839141845703e-01) (0, -1.01522814941406250000e+03) (1, -1.49697094726562500000e+03) (2, 1.49774072265625000000e+03) (3, -7.02070474624633789062e-01) (4, 6.52894005179405212402e-02) (5, -1.44586010742187500000e+03) (6, -1.99500650167465209961e-01) (0, -4.07756500244140625000e+02) (1, -2.23156738281250000000e+02) (2, -1.37837028503417968750e+01) (3, -2.78755314648151397705e-02) (4, -3.09366229921579360962e-02) (5, -1.24698869884014129639e-01) (6, -2.99067258834838867188e-01) (0, -1.04767749023437500000e+03) (1, -7.88407226562500000000e+02) (2, -1.07400787353515625000e+02) (3, 5.11297821998596191406e-01) (4, 6.19985163211822509766e-01) (5, 4.60693567991256713867e-01) (6, 2.78892070055007934570e-01) (0, 1.20437048339843750000e+03) (1, 1.45093859863281250000e+03) (2, -7.17556810379028320312e+00) (3, -2.30449020862579345703e-01) (4, -1.50881975889205932617e-01) (5, -4.93876308202743530273e-01) (6, -4.23533588647842407227e-01) (0, -7.31953308105468750000e+02) (1, -8.53446472167968750000e+02) (2, -4.14275836944580078125e+00) (3, 5.43477945029735565186e-02) (4, 6.86461389064788818359e-01) (5, -4.43982362747192382812e-01) (6, 1.32406663894653320312e+00) (0, 1.18751562500000000000e+03) (1, 1.49825048828125000000e+03) (2, -9.56516906738281250000e+02) (3, 2.35201907157897949219e+00) (4, 1.56562238931655883789e-01) (5, 1.49999987792968750000e+03) (6, -6.68813169002532958984e-01) (0, 1.28521984863281250000e+03) (1, -4.14148101806640625000e+02) (2, -2.04391994476318359375e+01) (3, -3.02120983600616455078e-01) (4, -8.74921232461929321289e-02) (5, 1.50768622756004333496e-01) (6, -3.38907867670059204102e-01) (0, -6.05991315841674804688e+00) (1, 8.35977600097656250000e+02) (2, -7.81067276000976562500e+01) (3, -3.21714691817760467529e-02) (4, -7.34808668494224548340e-02) (5, -1.98465764522552490234e-01) (6, -2.17152580618858337402e-01) (0, 1.49921166992187500000e+03) (1, 1.43902685546875000000e+03) (2, -3.42236518859863281250e+01) (3, 7.18509256839752197266e-01) (4, 6.91797137260437011719e-01) (5, 1.07319445800781250000e+03) (6, 6.15846037864685058594e-01) (7, 2.58088737726211547852e-01) (8, 2.86006852984428405762e-02) (9, -1.33093607425689697266e+00) (10, 1.55314460396766662598e-01) (11, -4.14435416460037231445e-01) (12, -3.35655122995376586914e-01) (13, 3.26378718018531799316e-02) (14, -1.30715787410736083984e-01) (15, 2.89029091596603393555e-01) (16, 7.64381140470504760742e-02) (17, -2.99784000962972640991e-02) (18, 2.25909501314163208008e-01) (19, 1.02899737656116485596e-01) (20, 2.81835168600082397461e-01) (21, -3.06272692978382110596e-03) (22, 2.76566118001937866211e-01) (23, -3.65761995315551757812e-01) (24, -1.37702882289886474609e-01) (25, 2.12420567870140075684e-01) (26, -3.78602862358093261719e-01) (27, 2.77194470167160034180e-01) (28, -1.04146242141723632812e-01) (29, 1.19855850934982299805e-01) (30, 2.57169127464294433594e-01) (31, 1.70605089515447616577e-02) (32, -3.35905432701110839844e-01) (33, -5.56619912385940551758e-02) (34, -3.19399721920490264893e-02) (35, -3.02745938301086425781e-01) (36, 9.29903462529182434082e-02) (37, 6.67264819145202636719e-01) (38, 1.08675263822078704834e-01) (39, 4.40083146095275878906e-01) (40, 6.71293020248413085938e-01) (41, 1.28330603241920471191e-01) (42, 9.89231839776039123535e-02) (43, 2.02730998396873474121e-01) (44, 1.44119188189506530762e-01) (45, -3.57211649417877197266e-01) (46, -4.68040257692337036133e-02) (47, 1.84706762433052062988e-01) (48, 6.25907257199287414551e-02) (49, 2.95540541410446166992e-01) (50, 2.63647466897964477539e-01) (51, 6.04573547840118408203e-01) (52, 5.92765688896179199219e-01) (53, 3.64931046962738037109e-01) (54, 3.30060869455337524414e-02) (55, -4.09949392080307006836e-01) (56, 6.55873864889144897461e-02) (57, 1.82148173451423645020e-01) (58, -4.26757812500000000000e-01) (59, -3.53010624647140502930e-01) (60, 2.22522839903831481934e-01) (61, -1.38661554083228111267e-02) (62, 1.61703661084175109863e-01) (63, 2.33082607388496398926e-01) (64, -4.05839115381240844727e-01) (65, 2.61067509651184082031e-01) (66, 2.15619325637817382812e-01) (67, 4.24996279180049896240e-02) (68, 1.48810580372810363770e-01) (69, 1.66718482971191406250e-01) (70, -9.43941175937652587891e-02) (71, 2.20345228910446166992e-01) (72, -4.59436297416687011719e-01) (73, -1.59579485654830932617e-01) (74, 2.21525058150291442871e-02) (75, 2.14466392993927001953e-01) (76, 2.12459519505500793457e-01) (77, 2.32792735099792480469e-01) (78, 6.59350335597991943359e-01) (79, -5.14986962080001831055e-02) (80, 1.48877250030636787415e-02) (81, 2.98765033483505249023e-01) (82, 2.58646637201309204102e-01) (83, 3.52824091911315917969e-01) (84, 4.35982160270214080811e-02) (85, -4.37448024749755859375e-01) (86, 7.24169313907623291016e-01) (87, -1.17634154856204986572e-01) (88, -5.24861097335815429688e-01) (89, -1.72807723283767700195e-01) (90, 5.05234301090240478516e-01) (91, 1.21822871267795562744e-01) (92, 6.54492795467376708984e-01) (93, -3.94905835390090942383e-01) (94, 1.79093718528747558594e-01) (95, 1.43498271703720092773e-01) (96, 6.32078275084495544434e-02) (97, -3.45526695251464843750e-01) (98, 6.27147853374481201172e-02) (99, 6.32906615734100341797e-01) (100, 2.16983467340469360352e-01) (101, 6.63234829902648925781e-01) (102, 5.35205900669097900391e-01) (103, 7.40000069141387939453e-01) (104, 2.07314621657133102417e-02) (105, 6.29040658473968505859e-01) (106, 1.74545139074325561523e-01) (107, 1.77575200796127319336e-01) (7, 5.09593367576599121094e-01) (8, -3.23812335729598999023e-01) (9, 3.07614579796791076660e-02) (10, -4.91445250809192657471e-02) (11, -3.01435738801956176758e-01) (12, 1.47789990901947021484e+00) (13, 1.93213909864425659180e-01) (14, 8.92568305134773254395e-02) (15, 4.76789385080337524414e-01) (16, 3.44152271747589111328e-01) (17, 3.69263663887977600098e-02) (18, 4.83752042055130004883e-01) (19, 1.45612493157386779785e-01) (20, 6.73662731423974037170e-03) (21, -1.80157255381345748901e-02) (22, 3.47202569246292114258e-01) (23, -2.98093587160110473633e-01) (24, -3.21500636637210845947e-02) (25, 5.37081956863403320312e-01) (26, -2.99260050058364868164e-01) (27, 4.89968448877334594727e-01) (28, 1.07560127973556518555e-01) (29, 4.93042737245559692383e-01) (30, 3.54063868522644042969e-01) (31, 1.70976087450981140137e-01) (32, 4.13882918655872344971e-02) (33, -1.24528082087635993958e-02) (34, 1.11661320552229881287e-02) (35, 1.48664450645446777344e+00) (36, 1.70413434505462646484e-01) (37, 1.29751777648925781250e+00) (38, -3.60539913177490234375e-01) (39, 1.93310245871543884277e-01) (40, 5.57731270790100097656e-01) (41, 7.50374421477317810059e-02) (42, -2.05227538943290710449e-01) (43, 5.23390352725982666016e-01) (44, 4.82011884450912475586e-02) (45, -3.61010462045669555664e-01) (46, 3.09674531221389770508e-01) (47, 4.13751035928726196289e-01) (48, -1.76538124680519104004e-01) (49, 6.96694850921630859375e-01) (50, -2.89887636899948120117e-01) (51, 4.21803921461105346680e-01) (52, 8.05410742759704589844e-01) (53, 3.18510770797729492188e-01) (54, 6.46224431693553924561e-03) (55, -2.02894568443298339844e-01) (56, 2.44000181555747985840e-01) (57, -6.29310160875320434570e-02) (58, -2.36326828598976135254e-01) (59, 1.32632911205291748047e+00) (60, 4.80283528566360473633e-01) (61, 2.84370854496955871582e-02) (62, 4.26591664552688598633e-01) (63, 4.62287098169326782227e-01) (64, -2.37430289387702941895e-01) (65, 3.63104730844497680664e-01) (66, 4.91692513227462768555e-01) (67, 2.09876596927642822266e-02) (68, -1.17503531277179718018e-01) (69, 3.67905832827091217041e-02) (70, 2.05918811261653900146e-02) (71, 4.26553517580032348633e-01) (72, 1.14475404843688011169e-02) (73, -2.95088142156600952148e-01) (74, -7.71176517009735107422e-02) (75, 5.07811307907104492188e-01) (76, 4.17257040739059448242e-01) (77, 3.79910141229629516602e-01) (78, 4.82883125543594360352e-01) (79, 6.78925141692161560059e-02) (80, 4.35439236462116241455e-02) (81, -4.30543981492519378662e-02) (82, 5.16834139823913574219e-01) (83, 4.65784430503845214844e-01) (84, 1.00889094173908233643e-02) (85, -2.85884529352188110352e-01) (86, 7.99961209297180175781e-01) (87, 3.42751085758209228516e-01) (88, 1.54211592674255371094e+00) (89, -8.93061697483062744141e-01) (90, 5.12747287750244140625e-01) (91, 1.86291188001632690430e-01) (92, 4.90859270095825195312e-01) (93, -2.09522753953933715820e-01) (94, 2.99528688192367553711e-02) (95, 1.74157202243804931641e-01) (96, 2.32125185430049896240e-02) (97, -2.34538674354553222656e-01) (98, 7.15400874614715576172e-02) (99, 3.98939311504364013672e-01) (100, -1.13601040840148925781e+00) (101, 4.87696111202239990234e-01) (102, -9.75560620427131652832e-02) (103, 4.20541673898696899414e-01) (104, 8.00115689635276794434e-02) (105, 3.32553029060363769531e-01) (106, 3.87403130531311035156e-01) (107, 3.70033562183380126953e-01) (7, 4.36125576496124267578e-01) (8, -1.86237975955009460449e-01) (9, 1.57213854789733886719e+00) (10, -1.10033228993415832520e-01) (11, -1.96579158306121826172e-01) (12, -1.19090199470520019531e-01) (13, 2.26529538631439208984e-01) (14, 3.61498564481735229492e-01) (15, 4.73312735557556152344e-01) (16, 2.00661152601242065430e-01) (17, 1.03939306735992431641e+00) (18, 5.57573914527893066406e-01) (19, 4.56525422632694244385e-02) (20, 1.65870599448680877686e-02) (21, 4.34506028890609741211e-01) (22, 5.36430299282073974609e-01) (23, -2.82532006502151489258e-01) (24, 6.41705542802810668945e-02) (25, 2.71024480462074279785e-02) (26, -2.23171651363372802734e-01) (27, 5.27136921882629394531e-01) (28, -2.03072279691696166992e-01) (29, -2.11472198367118835449e-01) (30, 4.48070794343948364258e-01) (31, 6.06824047863483428955e-02) (32, 3.70087683200836181641e-01) (33, 1.04298004880547523499e-02) (34, -3.56353186070919036865e-02) (35, 1.46270859241485595703e+00) (36, 2.67583966255187988281e-01) (37, 4.58295047283172607422e-01) (38, 2.33342543244361877441e-01) (39, 5.02972900867462158203e-01) (40, 4.79580163955688476562e-01) (41, -8.69153067469596862793e-02) (42, 1.08502924442291259766e-01) (43, 4.82251048088073730469e-01) (44, 1.51780024170875549316e-01) (45, -1.69240385293960571289e-01) (46, -2.25966438651084899902e-01) (47, 4.77374613285064697266e-01) (48, 5.33095449209213256836e-02) (49, 5.11620759963989257812e-01) (50, 4.20664846897125244141e-01) (51, 5.16602516174316406250e-01) (52, 1.05644643306732177734e+00) (53, 2.38646119832992553711e-01) (54, -1.23340776190161705017e-02) (55, -2.35642924904823303223e-01) (56, 2.47852325439453125000e-01) (57, -4.59493100643157958984e-02) (58, -2.70090162754058837891e-01) (59, 4.78232473134994506836e-01) (60, 4.03369635343551635742e-01) (61, 1.14163622260093688965e-01) (62, 4.89474534988403320312e-01) (63, 4.25111144781112670898e-01) (64, -1.82107657194137573242e-01) (65, 1.30077123641967773438e-01) (66, 4.64851886034011840820e-01) (67, 7.16711357235908508301e-02) (68, 1.99609890580177307129e-01) (69, -5.34214615821838378906e-01) (70, 3.34098875522613525391e-01) (71, 5.18144130706787109375e-01) (72, -3.61570864915847778320e-02) (73, -3.01774680614471435547e-01) (74, -5.97367137670516967773e-02) (75, 5.21911680698394775391e-01) (76, 4.75154101848602294922e-01) (77, 4.71202522516250610352e-01) (78, 5.02131760120391845703e-01) (79, 6.70158565044403076172e-02) (80, 3.62257435917854309082e-02) (81, -5.88472262024879455566e-02) (82, 4.20450836420059204102e-01) (83, 4.38454031944274902344e-01) (84, -4.72483992576599121094e-01) (85, -2.19827204942703247070e-01) (86, 8.66471767425537109375e-01) (87, -1.98708653450012207031e-01) (88, 9.52076613903045654297e-02) (89, -4.46708649396896362305e-01) (90, 3.55375975370407104492e-01) (91, 2.84839481115341186523e-01) (92, 4.54187601804733276367e-01) (93, -2.88177728652954101562e-01) (94, 5.81000030040740966797e-01) (95, 2.26488411426544189453e-01) (96, 2.18263521790504455566e-01) (97, -2.76421785354614257812e-01) (98, 3.96440118551254272461e-01) (99, 4.33328956365585327148e-01) (100, 1.42872571945190429688e-01) (101, 4.16587591171264648438e-01) (102, -1.57619304955005645752e-02) (103, 3.75234663486480712891e-01) (104, 6.66263028979301452637e-02) (105, 4.28137451410293579102e-01) (106, 1.14298887550830841064e-01) (107, 4.82573926448822021484e-01) (7, 4.09524410963058471680e-01) (8, -6.41902387142181396484e-02) (9, 2.90253516286611557007e-02) (10, -4.88704890012741088867e-02) (11, -1.36019930243492126465e-01) (12, -1.84095930308103561401e-02) (13, 3.91034632921218872070e-01) (14, 6.18554651737213134766e-01) (15, 3.52779299020767211914e-01) (16, -2.30719402432441711426e-01) (17, 4.61466014385223388672e-02) (18, 3.86182814836502075195e-01) (19, -9.90596413612365722656e-02) (20, -4.16393652558326721191e-02) (21, -3.44369374215602874756e-02) (22, 2.52370506525039672852e-01) (23, -1.22449539601802825928e-01) (24, 3.07199452072381973267e-02) (25, 4.16453897953033447266e-01) (26, -1.26355364918708801270e-01) (27, 2.41994187235832214355e-01) (28, 1.44594341516494750977e-01) (29, 3.88288825750350952148e-01) (30, 3.01446288824081420898e-01) (31, 1.39293923974037170410e-01) (32, 3.41544076800346374512e-02) (33, -6.49653077125549316406e-02) (34, 2.61670630425214767456e-02) (35, -1.94389975070953369141e+00) (36, 3.74923229217529296875e-01) (37, 6.78406357765197753906e-01) (38, 1.39150261878967285156e-01) (39, 3.09044625610113143921e-02) (40, 6.54371857643127441406e-01) (41, 1.20069749653339385986e-01) (42, -1.70701637864112854004e-01) (43, 2.71369934082031250000e-01) (44, 4.75838966667652130127e-02) (45, -1.62614196538925170898e-01) (46, -1.94593742489814758301e-01) (47, 3.36254596710205078125e-01) (48, -1.17302700877189636230e-01) (49, 1.43467798829078674316e-01) (50, 2.91960924863815307617e-01) (51, 4.90533113479614257812e-01) (52, 6.48199200630187988281e-01) (53, 4.96504127979278564453e-01) (54, -1.83712970465421676636e-02) (55, 3.93917530775070190430e-01) (56, 4.27633017301559448242e-01) (57, 1.14685911685228347778e-02) (58, -5.15349805355072021484e-02) (59, 1.72991175204515457153e-02) (60, 4.11929577589035034180e-01) (61, 5.39760515093803405762e-02) (62, 3.57002675533294677734e-01) (63, 3.84033054113388061523e-01) (64, -5.14538101851940155029e-02) (65, 2.75932133197784423828e-01) (66, 2.36660242080688476562e-01) (67, 2.85594235174357891083e-03) (68, 1.10490225255489349365e-01) (69, 2.00780034065246582031e-02) (70, 2.15188991278409957886e-02) (71, 3.35350751876831054688e-01) (72, -6.01018629968166351318e-02) (73, -1.00021831691265106201e-01) (74, 2.67593234777450561523e-01) (75, 3.52372735738754272461e-01) (76, 4.08301025629043579102e-01) (77, -9.54600423574447631836e-02) (78, 6.90397739410400390625e-01) (79, 4.83230724930763244629e-02) (80, 4.57461960613727569580e-02) (81, 1.84114381670951843262e-01) (82, 2.63263344764709472656e-01) (83, 4.03128266334533691406e-01) (84, -2.35419697128236293793e-03) (85, -1.03249326348304748535e-01) (86, 4.18973118066787719727e-01) (87, -1.94410234689712524414e-01) (88, 9.56850573420524597168e-02) (89, -5.74034489691257476807e-02) (90, 3.67994189262390136719e-01) (91, 4.33928519487380981445e-01) (92, 7.86713778972625732422e-01) (93, -9.99786928296089172363e-02) (94, 7.39901885390281677246e-02) (95, 4.17650550603866577148e-01) (96, 1.15658424794673919678e-01) (97, -1.05341516435146331787e-01) (98, 3.53221185505390167236e-02) (99, 5.74079036712646484375e-01) (100, 1.56451478600502014160e-01) (101, 6.46394848823547363281e-01) (102, 5.16095347702503204346e-02) (103, 3.32275360822677612305e-01) (104, 3.44884037971496582031e-01) (105, 6.52092874050140380859e-01) (106, 9.35999900102615356445e-02) (107, 3.20388078689575195312e-01) 
