FANN_FLO_2.1
num_layers=3
learning_rate=0.001000
connection_rate=1.000000
network_type=0
learning_momentum=0.000000
training_algorithm=2
train_error_function=1
train_stop_function=0
cascade_output_change_fraction=0.010000
quickprop_decay=-0.000100
quickprop_mu=1.750000
rprop_increase_factor=1.200000
rprop_decrease_factor=0.500000
rprop_delta_min=0.000000
rprop_delta_max=50.000000
rprop_delta_zero=0.100000
cascade_output_stagnation_epochs=12
cascade_candidate_change_fraction=0.010000
cascade_candidate_stagnation_epochs=12
cascade_max_out_epochs=150
cascade_min_out_epochs=50
cascade_max_cand_epochs=150
cascade_min_cand_epochs=50
cascade_num_candidate_groups=2
bit_fail_limit=3.49999994039535522461e-01
cascade_candidate_limit=1.00000000000000000000e+03
cascade_weight_multiplier=4.00000005960464477539e-01
cascade_activation_functions_count=10
cascade_activation_functions=3 5 7 8 10 11 14 15 16 17 
cascade_activation_steepnesses_count=4
cascade_activation_steepnesses=2.50000000000000000000e-01 5.00000000000000000000e-01 7.50000000000000000000e-01 1.00000000000000000000e+00 
layer_sizes=7 101 5 
scale_included=0
neurons (num_inputs, activation_function, activation_steepness)=(0, 0, 0.00000000000000000000e+00) (0, 0, 0.00000000000000000000e+00) (0, 0, 0.00000000000000000000e+00) (0, 0, 0.00000000000000000000e+00) (0, 0, 0.00000000000000000000e+00) (0, 0, 0.00000000000000000000e+00) (0, 0, 0.00000000000000000000e+00) (7, 5, 5.00000000000000000000e-01) (7, 5, 5.00000000000000000000e-01) (7, 5, 5.00000000000000000000e-01) (7, 5, 5.00000000000000000000e-01) (7, 5, 5.00000000000000000000e-01) (7, 5, 5.00000000000000000000e-01) (7, 5, 5.00000000000000000000e-01) (7, 5, 5.00000000000000000000e-01) (7, 5, 5.00000000000000000000e-01) (7, 5, 5.00000000000000000000e-01) (7, 5, 5.00000000000000000000e-01) (7, 5, 5.00000000000000000000e-01) (7, 5, 5.00000000000000000000e-01) (7, 5, 5.00000000000000000000e-01) (7, 5, 5.00000000000000000000e-01) (7, 5, 5.00000000000000000000e-01) (7, 5, 5.00000000000000000000e-01) (7, 5, 5.00000000000000000000e-01) (7, 5, 5.00000000000000000000e-01) (7, 5, 5.00000000000000000000e-01) (7, 5, 5.00000000000000000000e-01) (7, 5, 5.00000000000000000000e-01) (7, 5, 5.00000000000000000000e-01) (7, 5, 5.00000000000000000000e-01) (7, 5, 5.00000000000000000000e-01) (7, 5, 5.00000000000000000000e-01) (7, 5, 5.00000000000000000000e-01) (7, 5, 5.00000000000000000000e-01) (7, 5, 5.00000000000000000000e-01) (7, 5, 5.00000000000000000000e-01) (7, 5, 5.00000000000000000000e-01) (7, 5, 5.00000000000000000000e-01) (7, 5, 5.00000000000000000000e-01) (7, 5, 5.00000000000000000000e-01) (7, 5, 5.00000000000000000000e-01) (7, 5, 5.00000000000000000000e-01) (7, 5, 5.00000000000000000000e-01) (7, 5, 5.00000000000000000000e-01) (7, 5, 5.00000000000000000000e-01) (7, 5, 5.00000000000000000000e-01) (7, 5, 5.00000000000000000000e-01) (7, 5, 5.00000000000000000000e-01) (7, 5, 5.00000000000000000000e-01) (7, 5, 5.00000000000000000000e-01) (7, 5, 5.00000000000000000000e-01) (7, 5, 5.00000000000000000000e-01) (7, 5, 5.00000000000000000000e-01) (7, 5, 5.00000000000000000000e-01) (7, 5, 5.00000000000000000000e-01) (7, 5, 5.00000000000000000000e-01) (7, 5, 5.00000000000000000000e-01) (7, 5, 5.00000000000000000000e-01) (7, 5, 5.00000000000000000000e-01) (7, 5, 5.00000000000000000000e-01) (7, 5, 5.00000000000000000000e-01) (7, 5, 5.00000000000000000000e-01) (7, 5, 5.00000000000000000000e-01) (7, 5, 5.00000000000000000000e-01) (7, 5, 5.00000000000000000000e-01) (7, 5, 5.00000000000000000000e-01) (7, 5, 5.00000000000000000000e-01) (7, 5, 5.00000000000000000000e-01) (7, 5, 5.00000000000000000000e-01) (7, 5, 5.00000000000000000000e-01) (7, 5, 5.00000000000000000000e-01) (7, 5, 5.00000000000000000000e-01) (7, 5, 5.00000000000000000000e-01) (7, 5, 5.00000000000000000000e-01) (7, 5, 5.00000000000000000000e-01) (7, 5, 5.00000000000000000000e-01) (7, 5, 5.00000000000000000000e-01) (7, 5, 5.00000000000000000000e-01) (7, 5, 5.00000000000000000000e-01) (7, 5, 5.00000000000000000000e-01) (7, 5, 5.00000000000000000000e-01) (7, 5, 5.00000000000000000000e-01) (7, 5, 5.00000000000000000000e-01) (7, 5, 5.00000000000000000000e-01) (7, 5, 5.00000000000000000000e-01) (7, 5, 5.00000000000000000000e-01) (7, 5, 5.00000000000000000000e-01) (7, 5, 5.00000000000000000000e-01) (7, 5, 5.00000000000000000000e-01) (7, 5, 5.00000000000000000000e-01) (7, 5, 5.00000000000000000000e-01) (7, 5, 5.00000000000000000000e-01) (7, 5, 5.00000000000000000000e-01) (7, 5, 5.00000000000000000000e-01) (7, 5, 5.00000000000000000000e-01) (7, 5, 5.00000000000000000000e-01) (7, 5, 5.00000000000000000000e-01) (7, 5, 5.00000000000000000000e-01) (7, 5, 5.00000000000000000000e-01) (7, 5, 5.00000000000000000000e-01) (7, 5, 5.00000000000000000000e-01) (7, 5, 5.00000000000000000000e-01) (7, 5, 5.00000000000000000000e-01) (7, 5, 5.00000000000000000000e-01) (7, 5, 5.00000000000000000000e-01) (7, 5, 5.00000000000000000000e-01) (0, 5, 0.00000000000000000000e+00) (101, 5, 5.00000000000000000000e-01) (101, 5, 5.00000000000000000000e-01) (101, 5, 5.00000000000000000000e-01) (101, 5, 5.00000000000000000000e-01) (0, 5, 0.00000000000000000000e+00) 
connections (connected_to_neuron, weight)=(0, 7.72602498531341552734e-01) (1, -4.37649846076965332031e-01) (2, -8.71314108371734619141e-01) (3, -4.61817830801010131836e-02) (4, 1.40057010576128959656e-02) (5, -1.41660310328006744385e-02) (6, -1.21555536985397338867e-01) (0, -6.70891967773437500000e+02) (1, -1.48807311058044433594e+00) (2, -7.20871016383171081543e-02) (3, 3.44524770975112915039e-01) (4, 6.42355740070343017578e-01) (5, 3.07703673839569091797e-01) (6, 5.94820261001586914062e-01) (0, -1.18935363769531250000e+02) (1, 9.54535156488418579102e-02) (2, 2.49856397509574890137e-01) (3, 3.70090335607528686523e-01) (4, 4.48625475168228149414e-01) (5, 4.63993906974792480469e-01) (6, 4.17022436857223510742e-01) (0, -1.46899792480468750000e+03) (1, 1.00759401917457580566e-01) (2, 9.93590068817138671875e+00) (3, 4.57325756549835205078e-01) (4, 4.83209431171417236328e-01) (5, 4.61326420307159423828e-01) (6, 5.71759462356567382812e-01) (0, 4.88619781494140625000e+02) (1, -1.05048775672912597656e+00) (2, 1.95049238204956054688e+00) (3, 4.75665658712387084961e-01) (4, 4.88090753555297851562e-01) (5, 6.74139022827148437500e-01) (6, 5.81759393215179443359e-01) (0, -2.59762420654296875000e+01) (1, -5.30043900012969970703e-01) (2, -1.08018505573272705078e+00) (3, 7.40324929356575012207e-02) (4, -3.25440149754285812378e-03) (5, -1.22955545783042907715e-01) (6, -8.11002478003501892090e-02) (0, -1.34684994816780090332e-01) (1, 9.32692512869834899902e-02) (2, 7.68668532371520996094e-01) (3, 5.86498677730560302734e-01) (4, 4.62751626968383789062e-01) (5, -1.96053963154554367065e-02) (6, 6.61768555641174316406e-01) (0, -4.55800018310546875000e+02) (1, -5.13755559921264648438e+00) (2, -1.27364650368690490723e-01) (3, 8.84768962860107421875e-01) (4, -7.83294439315795898438e-04) (5, 6.91357403993606567383e-02) (6, -2.00105714611709117889e-03) (0, 1.85691261291503906250e+01) (1, 4.36232596635818481445e-01) (2, 1.13576352596282958984e+00) (3, 4.61286246776580810547e-01) (4, 4.56598669290542602539e-01) (5, 4.65102195739746093750e-01) (6, 5.66201388835906982422e-01) (0, 5.75663375854492187500e+01) (1, -1.94954204559326171875e+01) (2, -2.25328197479248046875e+01) (3, -2.26663928478956222534e-02) (4, 1.00578144192695617676e-02) (5, 3.53752262890338897705e-03) (6, -1.38091430068016052246e-01) (0, -2.33708557128906250000e+02) (1, 1.47071182727813720703e-01) (2, 2.94169008731842041016e-01) (3, 4.55118536949157714844e-01) (4, 4.15023893117904663086e-01) (5, 4.35877263545989990234e-01) (6, 3.64564359188079833984e-01) (0, 3.06134307861328125000e+02) (1, -1.35290527343750000000e+02) (2, -8.80407571792602539062e-01) (3, -7.76884555816650390625e-02) (4, -1.28487586975097656250e-01) (5, 9.00902673602104187012e-02) (6, -4.65582609176635742188e-02) (0, -3.78802795410156250000e+01) (1, -1.15594816207885742188e+00) (2, -5.79171609878540039062e+00) (3, 8.43156799674034118652e-02) (4, 5.98286427557468414307e-02) (5, 1.79058369249105453491e-02) (6, -1.21694363653659820557e-01) (0, 1.95450958251953125000e+02) (1, 1.75966949462890625000e+02) (2, -4.88229691982269287109e-01) (3, -7.64113012701272964478e-03) (4, 6.21838308870792388916e-02) (5, -1.03742823004722595215e-01) (6, 2.57396399974822998047e-02) (0, -2.34849929809570312500e+02) (1, 7.79682844877243041992e-02) (2, 3.47030431032180786133e-01) (3, 4.46291118860244750977e-01) (4, 3.90953421592712402344e-01) (5, 4.15917664766311645508e-01) (6, 4.05722349882125854492e-01) (0, 5.04593253135681152344e-02) (1, -2.67888832092285156250e+00) (2, 4.91542369127273559570e-01) (3, 5.57161331176757812500e-01) (4, 5.03545582294464111328e-01) (5, 4.87824499607086181641e-01) (6, 5.55717408657073974609e-01) (0, -1.32550155639648437500e+02) (1, -3.51496279239654541016e-01) (2, -2.41121381521224975586e-01) (3, 9.13761649280786514282e-03) (4, -1.81113168597221374512e-01) (5, 9.10419225692749023438e-02) (6, -6.70430585741996765137e-02) (0, -1.39724536132812500000e+03) (1, 3.24328653514385223389e-02) (2, 1.49640112304687500000e+03) (3, 4.33646976947784423828e-01) (4, 4.36391294002532958984e-01) (5, 5.26909351348876953125e-01) (6, 6.01630687713623046875e-01) (0, 1.18483316898345947266e+00) (1, 1.16863703727722167969e+00) (2, -1.90053209662437438965e-01) (3, 2.56566200405359268188e-02) (4, -7.12735727429389953613e-02) (5, 2.05922387540340423584e-02) (6, -4.23152558505535125732e-02) (0, 2.97773681640625000000e+02) (1, -3.63886779785156250000e+02) (2, -1.40389823913574218750e+00) (3, 1.42695158720016479492e-02) (4, 9.97956320643424987793e-02) (5, 5.94740174710750579834e-02) (6, 7.85634070634841918945e-02) (0, -1.59358306884765625000e+02) (1, 1.74302024841308593750e+01) (2, 2.42617622017860412598e-01) (3, 2.33496949076652526855e-02) (4, -5.71826696395874023438e-02) (5, 9.72976386547088623047e-01) (6, -7.44701474905014038086e-02) (0, -3.88470825195312500000e+02) (1, 2.00554418563842773438e+00) (2, -6.42999053001403808594e-01) (3, 1.04291690513491630554e-02) (4, -4.60200272500514984131e-02) (5, -1.52095239609479904175e-02) (6, 4.06105042202398180962e-04) (0, 1.49984460449218750000e+03) (1, 2.87806835174560546875e+01) (2, -7.46081390380859375000e+01) (3, 5.29206633567810058594e-01) (4, -5.97522668540477752686e-02) (5, -1.95483401417732238770e-01) (6, -6.17458857595920562744e-02) (0, -1.33593127441406250000e+03) (1, 4.87152397632598876953e-01) (2, -2.38756728172302246094e+00) (3, 4.71920907497406005859e-01) (4, 2.25343868136405944824e-01) (5, 5.90488970279693603516e-01) (6, 1.42009541392326354980e-01) (0, -1.50000000000000000000e+03) (1, 3.28617393970489501953e-01) (2, 1.49776696777343750000e+03) (3, 4.00966912508010864258e-01) (4, 4.73007619380950927734e-01) (5, 4.79599744081497192383e-01) (6, 6.16098046302795410156e-01) (0, -1.49896311759948730469e+00) (1, -4.55167531967163085938e+00) (2, 1.51453793048858642578e-01) (3, -4.16104769101366400719e-04) (4, 2.30418853461742401123e-02) (5, -2.35324762761592864990e-02) (6, 6.75313100218772888184e-02) (0, -5.83725891113281250000e+01) (1, -5.77979795634746551514e-02) (2, 4.07644994556903839111e-02) (3, 5.04149436950683593750e-01) (4, 3.34203660488128662109e-01) (5, 5.10528802871704101562e-01) (6, 2.40464746952056884766e-01) (0, 1.33749663829803466797e+00) (1, 2.30265474319458007812e+00) (2, -4.90400820970535278320e-01) (3, -4.12236481904983520508e-01) (4, -2.87137955427169799805e-01) (5, 3.29235762357711791992e-01) (6, -2.74358361959457397461e-01) (0, -2.97652282714843750000e+02) (1, -4.50013950467109680176e-02) (2, -2.29382783174514770508e-01) (3, 4.31801736354827880859e-01) (4, 4.13518995046615600586e-01) (5, 4.27646011114120483398e-01) (6, 3.46054702997207641602e-01) (0, -2.34669982910156250000e+02) (1, 1.27233698964118957520e-01) (2, 2.60224312543869018555e-01) (3, 3.68411749601364135742e-01) (4, 4.14807945489883422852e-01) (5, 4.26080107688903808594e-01) (6, 3.58279258012771606445e-01) (0, 8.85225391387939453125e+00) (1, 5.74669897556304931641e-01) (2, 9.46475505828857421875e-01) (3, 4.39597845077514648438e-01) (4, 4.93143349885940551758e-01) (5, 4.61173444986343383789e-01) (6, 6.67955279350280761719e-01) (0, -1.13268234252929687500e+02) (1, -4.39438343048095703125e+00) (2, -1.37304830551147460938e+00) (3, 7.08715766668319702148e-02) (4, -6.77669942378997802734e-02) (5, -6.91124126315116882324e-02) (6, -1.53987139463424682617e-01) (0, 1.26414779663085937500e+02) (1, 6.00373191833496093750e+01) (2, 7.08827823400497436523e-02) (3, -8.65925401449203491211e-02) (4, -5.24632707238197326660e-02) (5, 4.76224929094314575195e-01) (6, -1.66153118014335632324e-01) (0, -1.12993627929687500000e+03) (1, 2.81316339969635009766e-01) (2, -5.90612888336181640625e+00) (3, -5.05922362208366394043e-02) (4, -5.75821548700332641602e-02) (5, -1.08595401048660278320e-01) (6, 2.03910376876592636108e-02) (0, 1.49999206542968750000e+03) (1, -1.17188654839992523193e-01) (2, 6.36383891105651855469e-01) (3, 3.91027368605136871338e-02) (4, 1.35177865624427795410e-01) (5, 4.89582836627960205078e-01) (6, 5.38234040141105651855e-02) (0, -1.05025256347656250000e+03) (1, 2.50440658569335937500e+02) (2, 1.88183951377868652344e+00) (3, -3.83708268404006958008e-01) (4, 1.15040183067321777344e-01) (5, -9.27718132734298706055e-02) (6, 2.19217061996459960938e-01) (0, -2.33526168823242187500e+02) (1, -1.39490682631731033325e-02) (2, 3.30893814563751220703e-01) (3, 4.39376533031463623047e-01) (4, 3.69327396154403686523e-01) (5, 4.46568727493286132812e-01) (6, 2.98491746187210083008e-01) (0, -1.45294628906250000000e+03) (1, 1.23228445649147033691e-01) (2, 1.49686218261718750000e+03) (3, 4.11917716264724731445e-01) (4, 5.00718653202056884766e-01) (5, 4.10140693187713623047e-01) (6, 5.71243882179260253906e-01) (0, -5.28074800968170166016e-01) (1, -1.75390571355819702148e-01) (2, 3.29313218593597412109e-01) (3, 3.23673576116561889648e-01) (4, 2.34196305274963378906e-01) (5, -4.00976896286010742188e-01) (6, 3.63847285509109497070e-01) (0, 5.93293845653533935547e-01) (1, -8.32289606332778930664e-02) (2, -2.47417226433753967285e-01) (3, 3.13026122748851776123e-02) (4, 5.82563038915395736694e-03) (5, -6.31616637110710144043e-02) (6, -2.79073230922222137451e-02) (0, -2.79500865936279296875e+01) (1, 1.83009171485900878906e+00) (2, 2.46481984853744506836e-01) (3, 4.53624993562698364258e-01) (4, 3.97071242332458496094e-01) (5, 3.43582510948181152344e-01) (6, 4.00399833917617797852e-01) (0, 1.64408889770507812500e+02) (1, -5.52288675308227539062e+00) (2, 3.18578422069549560547e-01) (3, 5.01761078834533691406e-01) (4, 4.57554876804351806641e-01) (5, 5.89682400226593017578e-01) (6, 5.57034611701965332031e-01) (0, -7.52249267578125000000e+02) (1, 5.21342529296875000000e+02) (2, -4.61459999084472656250e+01) (3, -7.25268274545669555664e-02) (4, -4.49804700911045074463e-02) (5, -6.80852755904197692871e-02) (6, -3.70307378470897674561e-02) (0, -3.80671215057373046875e+00) (1, 1.78766265511512756348e-01) (2, -2.39387750625610351562e-01) (3, 5.14138996601104736328e-01) (4, 4.51023221015930175781e-01) (5, 3.95663022994995117188e-01) (6, 3.57639014720916748047e-01) (0, 5.38182640075683593750e+01) (1, -7.18088817596435546875e+00) (2, -1.98972845077514648438e+00) (3, 4.98123392462730407715e-02) (4, -7.84430652856826782227e-02) (5, 1.05759827420115470886e-02) (6, 5.39160929620265960693e-02) (0, 1.28776611328125000000e+03) (1, -1.23973417282104492188e+00) (2, 1.86964340209960937500e+01) (3, -5.11222124099731445312e-01) (4, -6.98277801275253295898e-02) (5, 5.10886490345001220703e-01) (6, -4.68987450003623962402e-02) (0, -4.07236846923828125000e+02) (1, 2.31149390339851379395e-01) (2, 7.42394506931304931641e-01) (3, 4.11159753799438476562e-01) (4, 5.13246595859527587891e-01) (5, 4.49679642915725708008e-01) (6, 4.80939358472824096680e-01) (0, 4.10296529531478881836e-01) (1, -3.00925463438034057617e-01) (2, -9.44497585296630859375e-01) (3, 1.87081813812255859375e-01) (4, -3.01357746124267578125e-01) (5, -4.05809521675109863281e-01) (6, -2.85600036382675170898e-01) (0, 3.63413352966308593750e+01) (1, 2.46202766895294189453e-01) (2, 1.12940223693847656250e+02) (3, -5.91473430395126342773e-02) (4, 4.75456602871417999268e-02) (5, 3.21404039859771728516e-02) (6, -8.34337845444679260254e-02) (0, -6.07137441635131835938e-01) (1, -2.50395722687244415283e-02) (2, 3.20073634386062622070e-01) (3, 3.97293299436569213867e-01) (4, 3.92780512571334838867e-01) (5, 4.40436571836471557617e-01) (6, 3.89658689498901367188e-01) (0, -1.06725012207031250000e+03) (1, 3.97303986549377441406e+00) (2, -6.54726922512054443359e-01) (3, 6.01693615317344665527e-02) (4, -4.75337542593479156494e-02) (5, -8.55929329991340637207e-02) (6, 3.63000184297561645508e-02) (0, 8.01719427108764648438e-01) (1, -9.92191210389137268066e-03) (2, 2.09155376069247722626e-03) (3, -8.36998224258422851562e-02) (4, 6.85747489333152770996e-02) (5, -1.34731724392622709274e-03) (6, -1.11912101507186889648e-01) (0, -1.49982617187500000000e+03) (1, 2.53548126220703125000e+01) (2, 7.37025527954101562500e+01) (3, 3.70423376560211181641e-01) (4, 5.91507792472839355469e-01) (5, 4.43603575229644775391e-01) (6, 5.96177995204925537109e-01) (0, 1.48716247558593750000e+03) (1, 2.19272384643554687500e+02) (2, 1.31385526657104492188e+01) (3, -2.35863327980041503906e-02) (4, -9.33052822947502136230e-02) (5, 6.82573392987251281738e-02) (6, -8.46930369734764099121e-02) (0, -1.89299368858337402344e+00) (1, -7.21659839153289794922e-01) (2, -3.45288634300231933594e-01) (3, 6.35038688778877258301e-02) (4, -3.28653492033481597900e-02) (5, -7.96650499105453491211e-02) (6, -1.04479007422924041748e-01) (0, 9.27545349121093750000e+02) (1, -2.51319527626037597656e-01) (2, 2.52332687377929687500e+02) (3, 1.14156892523169517517e-02) (4, -1.79143752902746200562e-02) (5, -6.39899224042892456055e-02) (6, 1.00233547389507293701e-01) (0, -2.91851348876953125000e+02) (1, -3.01364094018936157227e-01) (2, -6.43514618277549743652e-02) (3, 6.32550148293375968933e-03) (4, -1.18736505508422851562e-01) (5, 5.14202266931533813477e-02) (6, -2.07935616374015808105e-01) (0, 1.47519067382812500000e+03) (1, 4.80508506298065185547e-02) (2, 2.13380098342895507812e+00) (3, -7.13582038879394531250e-02) (4, -1.15373514592647552490e-01) (5, -5.21849244832992553711e-02) (6, 3.50997954607009887695e-01) (0, -5.62477064132690429688e+00) (1, -2.68567591905593872070e-01) (2, -1.30252416992187500000e+03) (3, 9.44280773401260375977e-02) (4, -7.30655267834663391113e-02) (5, -2.28906143456697463989e-02) (6, 4.81863208115100860596e-02) (0, 1.29927217960357666016e-01) (1, -1.76728773117065429688e+00) (2, 4.58417385816574096680e-01) (3, 4.82830286026000976562e-01) (4, 5.19850313663482666016e-01) (5, 5.81270754337310791016e-01) (6, 6.16240382194519042969e-01) (0, 2.22700715065002441406e-01) (1, 1.43282389640808105469e+00) (2, 8.07939291000366210938e-01) (3, 5.09969949722290039062e-01) (4, 6.46764099597930908203e-01) (5, 5.87758004665374755859e-01) (6, 7.40765333175659179688e-01) (0, 9.39687043428421020508e-02) (1, 2.15164050459861755371e-01) (2, 3.25802624225616455078e-01) (3, 3.65873306989669799805e-01) (4, 3.70321482419967651367e-01) (5, 4.20452982187271118164e-01) (6, 2.49907135963439941406e-01) (0, -6.01221084594726562500e-01) (1, 2.67838239669799804688e-01) (2, 1.72234952449798583984e-01) (3, 4.16910916566848754883e-01) (4, 3.68554830551147460938e-01) (5, -4.59777377545833587646e-02) (6, 3.81696760654449462891e-01) (0, -9.44396704435348510742e-02) (1, 6.77156805992126464844e-01) (2, 8.31502318382263183594e-01) (3, 5.95647156238555908203e-01) (4, 5.91327309608459472656e-01) (5, 3.80962103605270385742e-01) (6, 6.62226140499114990234e-01) (0, -1.49679565429687500000e+03) (1, -5.31397155761718750000e+02) (2, -3.16327190399169921875e+00) (3, 1.52578279376029968262e-01) (4, 8.25940221548080444336e-02) (5, -3.01248431205749511719e-01) (6, 1.00541256368160247803e-01) (0, -5.75478088378906250000e+02) (1, -2.25388377904891967773e-01) (2, -1.57221293449401855469e+00) (3, 4.53357011079788208008e-01) (4, -5.48284761607646942139e-02) (5, 2.03217521309852600098e-01) (6, -1.20903514325618743896e-01) (0, -3.99477267265319824219e+00) (1, -4.93567287921905517578e-01) (2, -3.37724089622497558594e-01) (3, -3.78588587045669555664e-02) (4, 3.88572216033935546875e-02) (5, -4.78179864585399627686e-02) (6, -1.13613724708557128906e-01) (0, -1.12914962768554687500e+02) (1, -5.70500791072845458984e-01) (2, -1.08276486396789550781e-01) (3, -8.30432921648025512695e-02) (4, 2.03631203621625900269e-02) (5, -2.30357218533754348755e-02) (6, 2.16623954474925994873e-03) (0, -5.59877319335937500000e+02) (1, -1.37468681335449218750e+01) (2, -2.23448905944824218750e+01) (3, 3.85253369808197021484e-01) (4, -9.93344001471996307373e-03) (5, -2.31727585196495056152e-01) (6, 8.52300897240638732910e-02) (0, -1.50000000000000000000e+03) (1, 1.00409135222434997559e-01) (2, 1.48331201171875000000e+03) (3, 3.21313440799713134766e-01) (4, 5.25441288948059082031e-01) (5, 4.25358861684799194336e-01) (6, 4.12251323461532592773e-01) (0, 2.04382467269897460938e+00) (1, 2.30947132110595703125e+01) (2, -3.32319624722003936768e-02) (3, -8.21569785475730895996e-02) (4, 7.22137792035937309265e-03) (5, 4.87629562616348266602e-01) (6, -1.90056022256612777710e-02) (0, 8.16350280761718750000e+02) (1, 2.90506243705749511719e-01) (2, -5.58423101902008056641e-01) (3, -2.52940915524959564209e-02) (4, 1.21216289699077606201e-02) (5, 5.26557583361864089966e-03) (6, -1.85259450227022171021e-02) (0, -7.15609598159790039062e+00) (1, 1.01006068289279937744e-01) (2, 1.95196014828979969025e-04) (3, -2.59506665170192718506e-02) (4, -2.85978186875581741333e-02) (5, 9.16800349950790405273e-02) (6, 9.52433142811059951782e-03) (0, 1.49999255371093750000e+03) (1, -3.64430993795394897461e-01) (2, 2.87789374589920043945e-01) (3, -1.35469054803252220154e-02) (4, -2.32240818440914154053e-02) (5, 6.30357768386602401733e-03) (6, -5.52895478904247283936e-03) (0, 7.16794357299804687500e+01) (1, -1.28750312328338623047e+00) (2, 7.86725158691406250000e+01) (3, -5.33230649307370185852e-03) (4, -1.22283779084682464600e-01) (5, 8.30527842044830322266e-02) (6, -4.58916164934635162354e-02) (0, -2.87562608718872070312e+00) (1, -4.63716357946395874023e-01) (2, -2.47294053435325622559e-01) (3, 4.24313545227050781250e-01) (4, 7.22738541662693023682e-03) (5, 3.99323463439941406250e-01) (6, -2.11073219776153564453e-01) (0, -4.11325721740722656250e+01) (1, 4.16358917951583862305e-01) (2, -5.01374423503875732422e-01) (3, -5.15122525393962860107e-02) (4, -1.13325081765651702881e-01) (5, 9.23649594187736511230e-02) (6, -2.93242037296295166016e-02) (0, 1.38638476562500000000e+03) (1, 7.19411075115203857422e-02) (2, 1.55282461643218994141e+00) (3, 3.83083999156951904297e-01) (4, 4.40308839082717895508e-01) (5, 1.45133823156356811523e-01) (6, 7.10389494895935058594e-01) (0, -2.46054275512695312500e+02) (1, -7.09681167602539062500e+01) (2, -3.93435537815093994141e-01) (3, 2.09935933351516723633e-01) (4, 1.15802899003028869629e-01) (5, 4.88853640854358673096e-02) (6, 8.98704975843429565430e-02) (0, 2.60886609554290771484e-01) (1, -1.15338165283203125000e+02) (2, -6.96890497207641601562e+00) (3, 6.99253529310226440430e-02) (4, 2.25570369511842727661e-02) (5, -8.64725932478904724121e-02) (6, -3.66455391049385070801e-02) (0, 5.58329916000366210938e+00) (1, 7.23513543605804443359e-01) (2, 1.06473255157470703125e+00) (3, 4.53432232141494750977e-01) (4, 4.88678842782974243164e-01) (5, 3.48892956972122192383e-01) (6, 6.71099185943603515625e-01) (0, -5.49849609375000000000e+02) (1, 4.76619213819503784180e-01) (2, 2.33174189925193786621e-01) (3, 4.85424309968948364258e-01) (4, 4.01695996522903442383e-01) (5, 3.79771053791046142578e-01) (6, 2.80991107225418090820e-01) (0, 5.13353767395019531250e+01) (1, -7.26022243499755859375e-01) (2, -1.48197159171104431152e-01) (3, -4.78075295686721801758e-02) (4, 6.10165372490882873535e-02) (5, 9.68367829918861389160e-02) (6, -9.66214910149574279785e-02) (0, 1.49997766113281250000e+03) (1, 5.67291617393493652344e-01) (2, 1.34963858127593994141e+00) (3, 4.62619550526142120361e-02) (4, 3.84724706411361694336e-01) (5, 4.84113156795501708984e-01) (6, 3.08385163545608520508e-01) (0, 1.49998583984375000000e+03) (1, 1.20066761970520019531e-01) (2, 2.21977639198303222656e+00) (3, -2.81115770339965820312e-02) (4, -2.17487998306751251221e-02) (5, 5.72629796806722879410e-04) (6, 3.11737786978483200073e-02) (0, 1.50985931977629661560e-02) (1, -7.34288513660430908203e-01) (2, 1.50511622428894042969e-01) (3, 3.56429427862167358398e-01) (4, 3.40491056442260742188e-01) (5, 6.98563754558563232422e-02) (6, 2.91807740926742553711e-01) (0, -2.35121490478515625000e+02) (1, 7.44056940078735351562e-01) (2, 2.13288947939872741699e-01) (3, 4.19809371232986450195e-01) (4, 4.39884334802627563477e-01) (5, 4.12214845418930053711e-01) (6, 2.77074545621871948242e-01) (0, 2.35401290893554687500e+02) (1, 4.34062164306640625000e+02) (2, 1.45902419090270996094e+00) (3, -3.74134212732315063477e-01) (4, 5.23152530193328857422e-01) (5, -2.93895334005355834961e-01) (6, 5.87427675724029541016e-01) (0, -6.72895193099975585938e+00) (1, -3.46506953239440917969e-01) (2, -9.84543040394783020020e-02) (3, -2.38423533737659454346e-02) (4, -5.21576264873147010803e-03) (5, 6.24867528676986694336e-03) (6, -6.83576911687850952148e-02) (0, 1.47633630371093750000e+03) (1, 1.14810241699218750000e+02) (2, 4.28342533111572265625e+00) (3, -1.45033910870552062988e-01) (4, 1.11199654638767242432e-02) (5, 3.86480987071990966797e-02) (6, 3.57011780142784118652e-02) (0, -2.88187866210937500000e+02) (1, -4.13774162530899047852e-01) (2, -3.81637334823608398438e-01) (3, -7.47975483536720275879e-02) (4, -6.05004606768488883972e-03) (5, -1.78090122062712907791e-03) (6, -2.35056146979331970215e-01) (0, 7.06857621669769287109e-01) (1, 1.35956478118896484375e+01) (2, -2.29978099465370178223e-01) (3, 3.01346033811569213867e-02) (4, -2.64936964958906173706e-02) (5, 6.66284263134002685547e-02) (6, -7.45533257722854614258e-02) (0, -7.22746398925781250000e+02) (1, 2.58541660308837890625e+01) (2, 1.04830527305603027344e+00) (3, -1.30591973662376403809e-01) (4, 3.25229763984680175781e-01) (5, -2.23801702260971069336e-01) (6, 5.10650753974914550781e-01) (0, -1.37470996093750000000e+03) (1, 1.51489675045013427734e+00) (2, -3.00467610359191894531e-01) (3, 2.91224032640457153320e-01) (4, 2.86764830350875854492e-01) (5, 2.45197340846061706543e-01) (6, 2.69670337438583374023e-01) (0, -7.88074806332588195801e-02) (1, 1.19114190340042114258e-01) (2, 3.26533079147338867188e-01) (3, 5.92051446437835693359e-01) (4, 4.76342886686325073242e-01) (5, 2.93165203183889389038e-02) (6, 6.98164641857147216797e-01) (0, 1.49992382812500000000e+03) (1, -2.80087432861328125000e+01) (2, -1.04056857526302337646e-01) (3, -9.20745432376861572266e-02) (4, 3.85855436325073242188e-02) (5, -5.72937950491905212402e-02) (6, 3.61089296638965606689e-02) (0, -8.93868103027343750000e+02) (1, 6.70315742492675781250e+00) (2, -2.18211889266967773438e-01) (3, 1.22335806488990783691e-01) (4, 2.59907007217407226562e-01) (5, -8.39956551790237426758e-02) (6, 1.92590266466140747070e-01) (0, -2.64223194122314453125e+00) (1, -3.63185435533523559570e-01) (2, -2.53084957599639892578e-01) (3, 1.28573151305317878723e-02) (4, -8.86617377400398254395e-02) (5, 5.05345687270164489746e-03) (6, -1.54260709881782531738e-01) (0, -1.19951423645019531250e+02) (1, -2.67728835344314575195e-01) (2, -5.87307453155517578125e-01) (3, -1.20281428098678588867e-01) (4, -8.98674596101045608521e-03) (5, 1.75008047372102737427e-02) (6, -1.28250196576118469238e-01) (0, -4.65754241943359375000e+01) (1, -1.65047999471426010132e-02) (2, -2.46014699339866638184e-01) (3, 3.42355489730834960938e-01) (4, 4.08144980669021606445e-01) (5, 5.08865714073181152344e-01) (6, 2.39395871758460998535e-01) (7, 3.44128876924514770508e-01) (8, 9.98536348342895507812e-02) (9, 4.57194566726684570312e-01) (10, -8.99863839149475097656e-02) (11, -2.65362877398729324341e-02) (12, 3.31537514925003051758e-01) (13, -4.04204055666923522949e-02) (14, 6.55938684940338134766e-03) (15, -6.28647282719612121582e-02) (16, 1.17176614701747894287e-01) (17, 3.92126917839050292969e-01) (18, 1.19556762278079986572e-01) (19, 4.68701899051666259766e-01) (20, 2.25395616143941879272e-02) (21, 4.01697695255279541016e-01) (22, 1.75845250487327575684e-02) (23, 5.64145863056182861328e-01) (24, -1.45930260419845581055e-01) (25, 1.73343718051910400391e-01) (26, 1.03208936750888824463e-01) (27, 3.97417664527893066406e-01) (28, 4.15275171399116516113e-02) (29, -1.47356584668159484863e-01) (30, 3.99949669837951660156e-01) (31, -9.39935296773910522461e-02) (32, -3.23270201683044433594e-01) (33, 4.45292949676513671875e-01) (34, 4.60630446672439575195e-01) (35, 4.22692060470581054688e-01) (36, 4.35141444206237792969e-01) (37, -6.25207573175430297852e-02) (38, 2.13276579976081848145e-01) (39, 2.29083999991416931152e-01) (40, 1.98594555258750915527e-02) (41, 7.50676989555358886719e-02) (42, 2.94719904661178588867e-01) (43, 4.07565832138061523438e-01) (44, -1.28212511539459228516e-01) (45, 2.68392741680145263672e-01) (46, 1.39109402894973754883e-01) (47, 3.46583873033523559570e-01) (48, -4.29538916796445846558e-03) (49, -5.38379922509193420410e-02) (50, 4.10544157028198242188e-01) (51, -1.42673119902610778809e-01) (52, -3.52253884077072143555e-01) (53, -3.73174846172332763672e-02) (54, 2.90834516286849975586e-01) (55, -3.43608796596527099609e-01) (56, 3.01131725311279296875e-01) (57, 4.35771569609642028809e-02) (58, 1.58565863966941833496e-01) (59, -6.01244866847991943359e-02) (60, -9.69736203551292419434e-02) (61, 2.14117780327796936035e-01) (62, -9.81618463993072509766e-02) (63, 4.68357503414154052734e-01) (64, 9.18373242020606994629e-02) (65, 7.02653467655181884766e-01) (66, 9.99778416007757186890e-03) (67, -4.39693430962506681681e-05) (68, 2.82919526100158691406e-01) (69, 2.77634799480438232422e-01) (70, -4.00788784027099609375e-02) (71, 3.99547964334487915039e-02) (72, 3.89832019805908203125e-01) (73, 4.17286425828933715820e-01) (74, 6.20614647865295410156e-01) (75, -1.07841953635215759277e-01) (76, -8.05344954133033752441e-02) (77, 2.50732243061065673828e-01) (78, 2.48037613928318023682e-02) (79, 4.49974328279495239258e-01) (80, 7.28363394737243652344e-02) (81, -9.50985252857208251953e-01) (82, 3.71681213378906250000e-01) (83, 4.50876772403717041016e-01) (84, -3.59405070543289184570e-01) (85, 5.71930594742298126221e-02) (86, 1.73139236867427825928e-02) (87, -6.81925565004348754883e-04) (88, 4.42556500434875488281e-01) (89, 4.64450605213642120361e-02) (90, -8.22612494230270385742e-02) (91, 4.78385575115680694580e-02) (92, 2.97772824764251708984e-01) (93, 3.64697575569152832031e-01) (94, -1.27453049644827842712e-02) (95, 5.07018923759460449219e-01) (96, -9.89425554871559143066e-02) (97, 5.79915642738342285156e-01) (98, 6.27083852887153625488e-02) (99, -1.27486062049865722656e+00) (100, 1.82225838303565979004e-01) (101, -2.04457882791757583618e-02) (102, 6.64035305380821228027e-02) (103, -6.52086883783340454102e-02) (104, 5.63325822353363037109e-01) (105, 5.65567970275878906250e-01) (106, 4.03285562992095947266e-01) (107, 3.71995866298675537109e-01) (7, 4.50800865888595581055e-01) (8, -1.30616292357444763184e-01) (9, 4.92442846298217773438e-01) (10, 2.36341506242752075195e-02) (11, 6.42818883061408996582e-02) (12, 1.45775079727172851562e-01) (13, -1.29182308912277221680e-01) (14, -1.10861837863922119141e-01) (15, 1.70725565403699874878e-02) (16, 1.17035031318664550781e-01) (17, 4.28312718868255615234e-01) (18, 1.41232565045356750488e-01) (19, 2.73936539888381958008e-01) (20, -1.22159374877810478210e-02) (21, 4.44890856742858886719e-01) (22, 1.54232559725642204285e-02) (23, 5.40612816810607910156e-01) (24, 3.89135368168354034424e-02) (25, 1.88906088471412658691e-01) (26, -4.67234402894973754883e-02) (27, 2.57822990417480468750e-01) (28, -5.34476824104785919189e-02) (29, 6.25806987285614013672e-01) (30, 3.48201245069503784180e-01) (31, 3.42884734272956848145e-02) (32, 3.65014493465423583984e-01) (33, 5.11339247226715087891e-01) (34, 8.00320923328399658203e-01) (35, 3.96922141313552856445e-01) (36, 4.49169278144836425781e-01) (37, -5.06200119853019714355e-02) (38, 4.59898203611373901367e-01) (39, 3.58853846788406372070e-01) (40, -3.36449384689331054688e-01) (41, 4.09532576799392700195e-01) (42, -7.00485408306121826172e-01) (43, 4.57224518060684204102e-01) (44, 4.40364368259906768799e-02) (45, -4.52028721570968627930e-01) (46, -2.11890116333961486816e-02) (47, 3.98110210895538330078e-01) (48, 4.50039803981781005859e-02) (49, 4.47704166173934936523e-01) (50, 5.11573255062103271484e-01) (51, 2.54913270473480224609e-01) (52, 3.17437767982482910156e-01) (53, 1.33527703583240509033e-02) (54, 7.78976500034332275391e-01) (55, 3.26980620622634887695e-01) (56, 4.44255501031875610352e-01) (57, -1.50679061189293861389e-02) (58, 2.21181530505418777466e-02) (59, 6.81070936843752861023e-03) (60, 3.02423238754272460938e-01) (61, 3.46907526254653930664e-01) (62, 1.70619890093803405762e-01) (63, 4.21472609043121337891e-01) (64, 1.60872265696525573730e-01) (65, 1.71260070055723190308e-02) (66, -3.80218401551246643066e-02) (67, -5.06423637270927429199e-02) (68, 4.68369483947753906250e-01) (69, 4.25204098224639892578e-01) (70, -1.21409669518470764160e-01) (71, 3.07310782372951507568e-02) (72, 3.98430466651916503906e-01) (73, 5.69497942924499511719e-01) (74, 6.39052450656890869141e-01) (75, -2.31893286108970642090e-01) (76, 6.31304159760475158691e-02) (77, 4.42991673946380615234e-01) (78, 1.66970238089561462402e-01) (79, 1.16981364786624908447e-01) (80, 8.83628800511360168457e-02) (81, 5.37142574787139892578e-01) (82, 4.68805432319641113281e-01) (83, 4.95362102985382080078e-01) (84, -3.28662097454071044922e-01) (85, -7.49321356415748596191e-02) (86, 1.89240314066410064697e-02) (87, -1.14422783255577087402e-01) (88, 3.72794359922409057617e-01) (89, 3.04581314325332641602e-01) (90, 4.66729670763015747070e-01) (91, 2.18703895807266235352e-01) (92, 4.98391926288604736328e-01) (93, 3.68542790412902832031e-01) (94, -5.57805551216006278992e-03) (95, 5.58582007884979248047e-01) (96, 1.72007828950881958008e-01) (97, 5.79042077064514160156e-01) (98, 1.91355332732200622559e-01) (99, -4.28283333778381347656e-01) (100, -2.45588302612304687500e-01) (101, -1.12759798765182495117e-01) (102, 1.15340463817119598389e-01) (103, -4.08014863729476928711e-01) (104, 6.35111451148986816406e-01) (105, 5.39494574069976806641e-01) (106, 4.66274559497833251953e-01) (107, 4.57519143819808959961e-01) (7, 4.30592298507690429688e-01) (8, 8.36110711097717285156e-02) (9, 4.52793091535568237305e-01) (10, 6.22152760624885559082e-02) (11, -6.60258382558822631836e-02) (12, 5.51444351673126220703e-01) (13, 7.24877938628196716309e-02) (14, 2.19396159052848815918e-01) (15, 1.56838987022638320923e-02) (16, 9.66120138764381408691e-02) (17, 4.79198604822158813477e-01) (18, 1.74104973673820495605e-01) (19, 4.33786839246749877930e-01) (20, 7.26757943630218505859e-03) (21, 5.14545977115631103516e-01) (22, 2.18833349645137786865e-02) (23, 5.28374552726745605469e-01) (24, 7.52934664487838745117e-02) (25, 5.11875599622726440430e-02) (26, -5.73337776586413383484e-03) (27, -2.74096459150314331055e-01) (28, 7.43422359228134155273e-02) (29, 3.31873563118278980255e-03) (30, -1.89702548086643218994e-02) (31, -2.29372605681419372559e-02) (32, -9.31481178849935531616e-03) (33, 5.18483698368072509766e-01) (34, 2.97003388404846191406e-02) (35, 4.54484283924102783203e-01) (36, 4.71111834049224853516e-01) (37, 7.13462531566619873047e-02) (38, 7.65807688236236572266e-01) (39, -7.04281687736511230469e-01) (40, 9.82670634984970092773e-02) (41, 7.93349072337150573730e-02) (42, 2.73963306099176406860e-02) (43, 4.95977908372879028320e-01) (44, 5.57543598115444183350e-02) (45, 1.24242566525936126709e-02) (46, 5.14399766921997070312e-01) (47, 4.02525454759597778320e-01) (48, 2.36873179674148559570e-02) (49, -6.57076062634587287903e-03) (50, 3.43581855297088623047e-01) (51, -3.04038804024457931519e-02) (52, -2.44615424890071153641e-04) (53, 2.54067108035087585449e-02) (54, 5.50553679466247558594e-01) (55, 4.50454890727996826172e-01) (56, 5.24165332317352294922e-01) (57, 2.65611112117767333984e-02) (58, -6.80765450000762939453e-01) (59, -5.64382039010524749756e-02) (60, -2.20066099427640438080e-03) (61, 5.56705296039581298828e-01) (62, 3.04630422033369541168e-03) (63, 3.97961348295211791992e-01) (64, 1.42290547490119934082e-01) (65, -2.00859844684600830078e-01) (66, 7.58745074272155761719e-02) (67, -2.51819789409637451172e-02) (68, 4.75217014551162719727e-01) (69, 5.37009835243225097656e-01) (70, 2.17998400330543518066e-03) (71, 5.71578681468963623047e-01) (72, 7.62603729963302612305e-02) (73, 6.35125339031219482422e-01) (74, 6.45796656608581542969e-01) (75, -1.71719220816157758236e-04) (76, 5.59253878891468048096e-02) (77, -5.60829751193523406982e-02) (78, 4.03974996879696846008e-03) (79, -4.13180321455001831055e-01) (80, 9.70186386257410049438e-03) (81, 1.56966987997293472290e-02) (82, 4.47389930486679077148e-01) (83, 8.11553001403808593750e-02) (84, 2.52819389104843139648e-01) (85, 1.92671462893486022949e-01) (86, 6.84731781482696533203e-01) (87, 1.53657486662268638611e-02) (88, 4.58446204662322998047e-01) (89, 2.77116179466247558594e-01) (90, 6.28582611680030822754e-02) (91, 1.72852389514446258545e-02) (92, 5.39433002471923828125e-01) (93, 4.35336738824844360352e-01) (94, 7.82804470509290695190e-03) (95, 5.70897996425628662109e-01) (96, -2.55603957921266555786e-02) (97, 6.34882867336273193359e-01) (98, 2.72848635911941528320e-01) (99, 6.91073894500732421875e-01) (100, 6.47569745779037475586e-02) (101, 2.79743690043687820435e-02) (102, -1.11329997889697551727e-03) (103, 3.68514172732830047607e-02) (104, 5.70266783237457275391e-01) (105, 6.59573376178741455078e-01) (106, 4.26384061574935913086e-01) (107, 4.03200596570968627930e-01) (7, 4.08741474151611328125e-01) (8, -2.54299938678741455078e-01) (9, 4.55224543809890747070e-01) (10, 1.67576503008604049683e-02) (11, -4.48448210954666137695e-02) (12, 2.06591144204139709473e-01) (13, -4.55162823200225830078e-02) (14, -2.78001248836517333984e-01) (15, -7.10302311927080154419e-03) (16, 6.58682286739349365234e-02) (17, 4.53651070594787597656e-01) (18, 7.34064429998397827148e-02) (19, 2.11516663432121276855e-01) (20, -4.60096374154090881348e-02) (21, 4.79418545961380004883e-01) (22, -7.03646466135978698730e-02) (23, 4.30956751108169555664e-01) (24, 2.49502118676900863647e-02) (25, 4.10875491797924041748e-02) (26, 3.71228121221065521240e-02) (27, -1.06834722682833671570e-02) (28, -5.04943281412124633789e-02) (29, -5.89341996237635612488e-03) (30, -3.94662097096443176270e-02) (31, 3.43783982098102569580e-02) (32, -4.24483977258205413818e-02) (33, 3.50972354412078857422e-01) (34, 7.42040634155273437500e-01) (35, 3.67264032363891601562e-01) (36, 4.37297940254211425781e-01) (37, 8.05291638243943452835e-04) (38, 3.89862865209579467773e-01) (39, 3.64522397518157958984e-01) (40, 1.05895243585109710693e-01) (41, 3.17227989435195922852e-01) (42, 1.06630042195320129395e-01) (43, 4.53364908695220947266e-01) (44, 2.04897224903106689453e-02) (45, 5.42641766369342803955e-02) (46, 2.47255548834800720215e-01) (47, 5.04095911979675292969e-01) (48, -4.46892529726028442383e-02) (49, -3.56082245707511901855e-02) (50, 3.73762339353561401367e-01) (51, -4.41612564027309417725e-02) (52, 1.04407541453838348389e-01) (53, -1.20939954649657011032e-03) (54, 7.61557459831237792969e-01) (55, -1.29984900355339050293e-01) (56, 4.58845585584640502930e-01) (57, -2.34674103558063507080e-02) (58, 1.12182819843292236328e+00) (59, 5.67114427685737609863e-02) (60, 4.16299328207969665527e-03) (61, 3.49128574132919311523e-01) (62, -3.95911745727062225342e-02) (63, 4.32434856891632080078e-01) (64, 1.62447407841682434082e-01) (65, 3.78646880388259887695e-01) (66, -6.21411241590976715088e-02) (67, -5.58842197060585021973e-02) (68, 4.91705715656280517578e-01) (69, 4.91712599992752075195e-01) (70, -3.45220491290092468262e-02) (71, -2.87082284688949584961e-01) (72, -8.62712860107421875000e-02) (73, 4.56815898418426513672e-01) (74, 5.20973682403564453125e-01) (75, 3.84741509333252906799e-03) (76, 2.70327273756265640259e-02) (77, 3.63844782114028930664e-01) (78, -1.33398082107305526733e-02) (79, 4.57445532083511352539e-01) (80, -1.03232720866799354553e-02) (81, -4.98854443430900573730e-02) (82, 3.76250982284545898438e-01) (83, 2.41851091384887695312e-01) (84, 5.51952496170997619629e-02) (85, -1.74583375453948974609e-01) (86, -4.62056130170822143555e-01) (87, 3.46572920680046081543e-02) (88, 4.85813170671463012695e-01) (89, 2.78607785701751708984e-01) (90, 4.74745810031890869141e-01) (91, 1.38278268277645111084e-02) (92, 4.30373579263687133789e-01) (93, 4.44606602191925048828e-01) (94, 5.35961352288722991943e-02) (95, 5.11371672153472900391e-01) (96, 1.62359774112701416016e-02) (97, 5.11377096176147460938e-01) (98, 3.23645770549774169922e-01) (99, 8.13742399215698242188e-01) (100, -2.93143153190612792969e-01) (101, -7.44441151618957519531e-02) (102, 4.24792431294918060303e-03) (103, 9.83548760414123535156e-02) (104, 5.79622626304626464844e-01) (105, 5.72498857975006103516e-01) (106, 3.75354468822479248047e-01) (107, 3.56730937957763671875e-01) 
