FANN_FLO_2.1
num_layers=4
learning_rate=0.700000
connection_rate=1.000000
network_type=0
learning_momentum=0.000000
training_algorithm=2
train_error_function=1
train_stop_function=0
cascade_output_change_fraction=0.010000
quickprop_decay=-0.000100
quickprop_mu=1.750000
rprop_increase_factor=1.200000
rprop_decrease_factor=0.500000
rprop_delta_min=0.000000
rprop_delta_max=50.000000
rprop_delta_zero=0.100000
cascade_output_stagnation_epochs=12
cascade_candidate_change_fraction=0.010000
cascade_candidate_stagnation_epochs=12
cascade_max_out_epochs=150
cascade_min_out_epochs=50
cascade_max_cand_epochs=150
cascade_min_cand_epochs=50
cascade_num_candidate_groups=2
bit_fail_limit=3.49999994039535522461e-01
cascade_candidate_limit=1.00000000000000000000e+03
cascade_weight_multiplier=4.00000005960464477539e-01
cascade_activation_functions_count=10
cascade_activation_functions=3 5 7 8 10 11 14 15 16 17 
cascade_activation_steepnesses_count=4
cascade_activation_steepnesses=2.50000000000000000000e-01 5.00000000000000000000e-01 7.50000000000000000000e-01 1.00000000000000000000e+00 
layer_sizes=7 201 201 5 
scale_included=0
neurons (num_inputs, activation_function, activation_steepness)=(0, 0, 0.00000000000000000000e+00) (0, 0, 0.00000000000000000000e+00) (0, 0, 0.00000000000000000000e+00) (0, 0, 0.00000000000000000000e+00) (0, 0, 0.00000000000000000000e+00) (0, 0, 0.00000000000000000000e+00) (0, 0, 0.00000000000000000000e+00) (7, 5, 5.00000000000000000000e-01) (7, 5, 5.00000000000000000000e-01) (7, 5, 5.00000000000000000000e-01) (7, 5, 5.00000000000000000000e-01) (7, 5, 5.00000000000000000000e-01) (7, 5, 5.00000000000000000000e-01) (7, 5, 5.00000000000000000000e-01) (7, 5, 5.00000000000000000000e-01) (7, 5, 5.00000000000000000000e-01) (7, 5, 5.00000000000000000000e-01) (7, 5, 5.00000000000000000000e-01) (7, 5, 5.00000000000000000000e-01) (7, 5, 5.00000000000000000000e-01) (7, 5, 5.00000000000000000000e-01) (7, 5, 5.00000000000000000000e-01) (7, 5, 5.00000000000000000000e-01) (7, 5, 5.00000000000000000000e-01) (7, 5, 5.00000000000000000000e-01) (7, 5, 5.00000000000000000000e-01) (7, 5, 5.00000000000000000000e-01) (7, 5, 5.00000000000000000000e-01) (7, 5, 5.00000000000000000000e-01) (7, 5, 5.00000000000000000000e-01) (7, 5, 5.00000000000000000000e-01) (7, 5, 5.00000000000000000000e-01) (7, 5, 5.00000000000000000000e-01) (7, 5, 5.00000000000000000000e-01) (7, 5, 5.00000000000000000000e-01) (7, 5, 5.00000000000000000000e-01) (7, 5, 5.00000000000000000000e-01) (7, 5, 5.00000000000000000000e-01) (7, 5, 5.00000000000000000000e-01) (7, 5, 5.00000000000000000000e-01) (7, 5, 5.00000000000000000000e-01) (7, 5, 5.00000000000000000000e-01) (7, 5, 5.00000000000000000000e-01) (7, 5, 5.00000000000000000000e-01) (7, 5, 5.00000000000000000000e-01) (7, 5, 5.00000000000000000000e-01) (7, 5, 5.00000000000000000000e-01) (7, 5, 5.00000000000000000000e-01) (7, 5, 5.00000000000000000000e-01) (7, 5, 5.00000000000000000000e-01) (7, 5, 5.00000000000000000000e-01) (7, 5, 5.00000000000000000000e-01) (7, 5, 5.00000000000000000000e-01) (7, 5, 5.00000000000000000000e-01) (7, 5, 5.00000000000000000000e-01) (7, 5, 5.00000000000000000000e-01) (7, 5, 5.00000000000000000000e-01) (7, 5, 5.00000000000000000000e-01) (7, 5, 5.00000000000000000000e-01) (7, 5, 5.00000000000000000000e-01) (7, 5, 5.00000000000000000000e-01) (7, 5, 5.00000000000000000000e-01) (7, 5, 5.00000000000000000000e-01) (7, 5, 5.00000000000000000000e-01) (7, 5, 5.00000000000000000000e-01) (7, 5, 5.00000000000000000000e-01) (7, 5, 5.00000000000000000000e-01) (7, 5, 5.00000000000000000000e-01) (7, 5, 5.00000000000000000000e-01) (7, 5, 5.00000000000000000000e-01) (7, 5, 5.00000000000000000000e-01) (7, 5, 5.00000000000000000000e-01) (7, 5, 5.00000000000000000000e-01) (7, 5, 5.00000000000000000000e-01) (7, 5, 5.00000000000000000000e-01) (7, 5, 5.00000000000000000000e-01) (7, 5, 5.00000000000000000000e-01) (7, 5, 5.00000000000000000000e-01) (7, 5, 5.00000000000000000000e-01) (7, 5, 5.00000000000000000000e-01) (7, 5, 5.00000000000000000000e-01) (7, 5, 5.00000000000000000000e-01) (7, 5, 5.00000000000000000000e-01) (7, 5, 5.00000000000000000000e-01) (7, 5, 5.00000000000000000000e-01) (7, 5, 5.00000000000000000000e-01) (7, 5, 5.00000000000000000000e-01) (7, 5, 5.00000000000000000000e-01) (7, 5, 5.00000000000000000000e-01) (7, 5, 5.00000000000000000000e-01) (7, 5, 5.00000000000000000000e-01) (7, 5, 5.00000000000000000000e-01) (7, 5, 5.00000000000000000000e-01) (7, 5, 5.00000000000000000000e-01) (7, 5, 5.00000000000000000000e-01) (7, 5, 5.00000000000000000000e-01) (7, 5, 5.00000000000000000000e-01) (7, 5, 5.00000000000000000000e-01) (7, 5, 5.00000000000000000000e-01) (7, 5, 5.00000000000000000000e-01) (7, 5, 5.00000000000000000000e-01) (7, 5, 5.00000000000000000000e-01) (7, 5, 5.00000000000000000000e-01) (7, 5, 5.00000000000000000000e-01) (7, 5, 5.00000000000000000000e-01) (7, 5, 5.00000000000000000000e-01) (7, 5, 5.00000000000000000000e-01) (7, 5, 5.00000000000000000000e-01) (7, 5, 5.00000000000000000000e-01) (7, 5, 5.00000000000000000000e-01) (7, 5, 5.00000000000000000000e-01) (7, 5, 5.00000000000000000000e-01) (7, 5, 5.00000000000000000000e-01) (7, 5, 5.00000000000000000000e-01) (7, 5, 5.00000000000000000000e-01) (7, 5, 5.00000000000000000000e-01) (7, 5, 5.00000000000000000000e-01) (7, 5, 5.00000000000000000000e-01) (7, 5, 5.00000000000000000000e-01) (7, 5, 5.00000000000000000000e-01) (7, 5, 5.00000000000000000000e-01) (7, 5, 5.00000000000000000000e-01) (7, 5, 5.00000000000000000000e-01) (7, 5, 5.00000000000000000000e-01) (7, 5, 5.00000000000000000000e-01) (7, 5, 5.00000000000000000000e-01) (7, 5, 5.00000000000000000000e-01) (7, 5, 5.00000000000000000000e-01) (7, 5, 5.00000000000000000000e-01) (7, 5, 5.00000000000000000000e-01) (7, 5, 5.00000000000000000000e-01) (7, 5, 5.00000000000000000000e-01) (7, 5, 5.00000000000000000000e-01) (7, 5, 5.00000000000000000000e-01) (7, 5, 5.00000000000000000000e-01) (7, 5, 5.00000000000000000000e-01) (7, 5, 5.00000000000000000000e-01) (7, 5, 5.00000000000000000000e-01) (7, 5, 5.00000000000000000000e-01) (7, 5, 5.00000000000000000000e-01) (7, 5, 5.00000000000000000000e-01) (7, 5, 5.00000000000000000000e-01) (7, 5, 5.00000000000000000000e-01) (7, 5, 5.00000000000000000000e-01) (7, 5, 5.00000000000000000000e-01) (7, 5, 5.00000000000000000000e-01) (7, 5, 5.00000000000000000000e-01) (7, 5, 5.00000000000000000000e-01) (7, 5, 5.00000000000000000000e-01) (7, 5, 5.00000000000000000000e-01) (7, 5, 5.00000000000000000000e-01) (7, 5, 5.00000000000000000000e-01) (7, 5, 5.00000000000000000000e-01) (7, 5, 5.00000000000000000000e-01) (7, 5, 5.00000000000000000000e-01) (7, 5, 5.00000000000000000000e-01) (7, 5, 5.00000000000000000000e-01) (7, 5, 5.00000000000000000000e-01) (7, 5, 5.00000000000000000000e-01) (7, 5, 5.00000000000000000000e-01) (7, 5, 5.00000000000000000000e-01) (7, 5, 5.00000000000000000000e-01) (7, 5, 5.00000000000000000000e-01) (7, 5, 5.00000000000000000000e-01) (7, 5, 5.00000000000000000000e-01) (7, 5, 5.00000000000000000000e-01) (7, 5, 5.00000000000000000000e-01) (7, 5, 5.00000000000000000000e-01) (7, 5, 5.00000000000000000000e-01) (7, 5, 5.00000000000000000000e-01) (7, 5, 5.00000000000000000000e-01) (7, 5, 5.00000000000000000000e-01) (7, 5, 5.00000000000000000000e-01) (7, 5, 5.00000000000000000000e-01) (7, 5, 5.00000000000000000000e-01) (7, 5, 5.00000000000000000000e-01) (7, 5, 5.00000000000000000000e-01) (7, 5, 5.00000000000000000000e-01) (7, 5, 5.00000000000000000000e-01) (7, 5, 5.00000000000000000000e-01) (7, 5, 5.00000000000000000000e-01) (7, 5, 5.00000000000000000000e-01) (7, 5, 5.00000000000000000000e-01) (7, 5, 5.00000000000000000000e-01) (7, 5, 5.00000000000000000000e-01) (7, 5, 5.00000000000000000000e-01) (7, 5, 5.00000000000000000000e-01) (7, 5, 5.00000000000000000000e-01) (7, 5, 5.00000000000000000000e-01) (7, 5, 5.00000000000000000000e-01) (7, 5, 5.00000000000000000000e-01) (7, 5, 5.00000000000000000000e-01) (7, 5, 5.00000000000000000000e-01) (7, 5, 5.00000000000000000000e-01) (7, 5, 5.00000000000000000000e-01) (7, 5, 5.00000000000000000000e-01) (7, 5, 5.00000000000000000000e-01) (7, 5, 5.00000000000000000000e-01) (7, 5, 5.00000000000000000000e-01) (7, 5, 5.00000000000000000000e-01) (7, 5, 5.00000000000000000000e-01) (7, 5, 5.00000000000000000000e-01) (7, 5, 5.00000000000000000000e-01) (7, 5, 5.00000000000000000000e-01) (7, 5, 5.00000000000000000000e-01) (7, 5, 5.00000000000000000000e-01) (7, 5, 5.00000000000000000000e-01) (0, 5, 0.00000000000000000000e+00) (201, 5, 5.00000000000000000000e-01) (201, 5, 5.00000000000000000000e-01) (201, 5, 5.00000000000000000000e-01) (201, 5, 5.00000000000000000000e-01) (201, 5, 5.00000000000000000000e-01) (201, 5, 5.00000000000000000000e-01) (201, 5, 5.00000000000000000000e-01) (201, 5, 5.00000000000000000000e-01) (201, 5, 5.00000000000000000000e-01) (201, 5, 5.00000000000000000000e-01) (201, 5, 5.00000000000000000000e-01) (201, 5, 5.00000000000000000000e-01) (201, 5, 5.00000000000000000000e-01) (201, 5, 5.00000000000000000000e-01) (201, 5, 5.00000000000000000000e-01) (201, 5, 5.00000000000000000000e-01) (201, 5, 5.00000000000000000000e-01) (201, 5, 5.00000000000000000000e-01) (201, 5, 5.00000000000000000000e-01) (201, 5, 5.00000000000000000000e-01) (201, 5, 5.00000000000000000000e-01) (201, 5, 5.00000000000000000000e-01) (201, 5, 5.00000000000000000000e-01) (201, 5, 5.00000000000000000000e-01) (201, 5, 5.00000000000000000000e-01) (201, 5, 5.00000000000000000000e-01) (201, 5, 5.00000000000000000000e-01) (201, 5, 5.00000000000000000000e-01) (201, 5, 5.00000000000000000000e-01) (201, 5, 5.00000000000000000000e-01) (201, 5, 5.00000000000000000000e-01) (201, 5, 5.00000000000000000000e-01) (201, 5, 5.00000000000000000000e-01) (201, 5, 5.00000000000000000000e-01) (201, 5, 5.00000000000000000000e-01) (201, 5, 5.00000000000000000000e-01) (201, 5, 5.00000000000000000000e-01) (201, 5, 5.00000000000000000000e-01) (201, 5, 5.00000000000000000000e-01) (201, 5, 5.00000000000000000000e-01) (201, 5, 5.00000000000000000000e-01) (201, 5, 5.00000000000000000000e-01) (201, 5, 5.00000000000000000000e-01) (201, 5, 5.00000000000000000000e-01) (201, 5, 5.00000000000000000000e-01) (201, 5, 5.00000000000000000000e-01) (201, 5, 5.00000000000000000000e-01) (201, 5, 5.00000000000000000000e-01) (201, 5, 5.00000000000000000000e-01) (201, 5, 5.00000000000000000000e-01) (201, 5, 5.00000000000000000000e-01) (201, 5, 5.00000000000000000000e-01) (201, 5, 5.00000000000000000000e-01) (201, 5, 5.00000000000000000000e-01) (201, 5, 5.00000000000000000000e-01) (201, 5, 5.00000000000000000000e-01) (201, 5, 5.00000000000000000000e-01) (201, 5, 5.00000000000000000000e-01) (201, 5, 5.00000000000000000000e-01) (201, 5, 5.00000000000000000000e-01) (201, 5, 5.00000000000000000000e-01) (201, 5, 5.00000000000000000000e-01) (201, 5, 5.00000000000000000000e-01) (201, 5, 5.00000000000000000000e-01) (201, 5, 5.00000000000000000000e-01) (201, 5, 5.00000000000000000000e-01) (201, 5, 5.00000000000000000000e-01) (201, 5, 5.00000000000000000000e-01) (201, 5, 5.00000000000000000000e-01) (201, 5, 5.00000000000000000000e-01) (201, 5, 5.00000000000000000000e-01) (201, 5, 5.00000000000000000000e-01) (201, 5, 5.00000000000000000000e-01) (201, 5, 5.00000000000000000000e-01) (201, 5, 5.00000000000000000000e-01) (201, 5, 5.00000000000000000000e-01) (201, 5, 5.00000000000000000000e-01) (201, 5, 5.00000000000000000000e-01) (201, 5, 5.00000000000000000000e-01) (201, 5, 5.00000000000000000000e-01) (201, 5, 5.00000000000000000000e-01) (201, 5, 5.00000000000000000000e-01) (201, 5, 5.00000000000000000000e-01) (201, 5, 5.00000000000000000000e-01) (201, 5, 5.00000000000000000000e-01) (201, 5, 5.00000000000000000000e-01) (201, 5, 5.00000000000000000000e-01) (201, 5, 5.00000000000000000000e-01) (201, 5, 5.00000000000000000000e-01) (201, 5, 5.00000000000000000000e-01) (201, 5, 5.00000000000000000000e-01) (201, 5, 5.00000000000000000000e-01) (201, 5, 5.00000000000000000000e-01) (201, 5, 5.00000000000000000000e-01) (201, 5, 5.00000000000000000000e-01) (201, 5, 5.00000000000000000000e-01) (201, 5, 5.00000000000000000000e-01) (201, 5, 5.00000000000000000000e-01) (201, 5, 5.00000000000000000000e-01) (201, 5, 5.00000000000000000000e-01) (201, 5, 5.00000000000000000000e-01) (201, 5, 5.00000000000000000000e-01) (201, 5, 5.00000000000000000000e-01) (201, 5, 5.00000000000000000000e-01) (201, 5, 5.00000000000000000000e-01) (201, 5, 5.00000000000000000000e-01) (201, 5, 5.00000000000000000000e-01) (201, 5, 5.00000000000000000000e-01) (201, 5, 5.00000000000000000000e-01) (201, 5, 5.00000000000000000000e-01) (201, 5, 5.00000000000000000000e-01) (201, 5, 5.00000000000000000000e-01) (201, 5, 5.00000000000000000000e-01) (201, 5, 5.00000000000000000000e-01) (201, 5, 5.00000000000000000000e-01) (201, 5, 5.00000000000000000000e-01) (201, 5, 5.00000000000000000000e-01) (201, 5, 5.00000000000000000000e-01) (201, 5, 5.00000000000000000000e-01) (201, 5, 5.00000000000000000000e-01) (201, 5, 5.00000000000000000000e-01) (201, 5, 5.00000000000000000000e-01) (201, 5, 5.00000000000000000000e-01) (201, 5, 5.00000000000000000000e-01) (201, 5, 5.00000000000000000000e-01) (201, 5, 5.00000000000000000000e-01) (201, 5, 5.00000000000000000000e-01) (201, 5, 5.00000000000000000000e-01) (201, 5, 5.00000000000000000000e-01) (201, 5, 5.00000000000000000000e-01) (201, 5, 5.00000000000000000000e-01) (201, 5, 5.00000000000000000000e-01) (201, 5, 5.00000000000000000000e-01) (201, 5, 5.00000000000000000000e-01) (201, 5, 5.00000000000000000000e-01) (201, 5, 5.00000000000000000000e-01) (201, 5, 5.00000000000000000000e-01) (201, 5, 5.00000000000000000000e-01) (201, 5, 5.00000000000000000000e-01) (201, 5, 5.00000000000000000000e-01) (201, 5, 5.00000000000000000000e-01) (201, 5, 5.00000000000000000000e-01) (201, 5, 5.00000000000000000000e-01) (201, 5, 5.00000000000000000000e-01) (201, 5, 5.00000000000000000000e-01) (201, 5, 5.00000000000000000000e-01) (201, 5, 5.00000000000000000000e-01) (201, 5, 5.00000000000000000000e-01) (201, 5, 5.00000000000000000000e-01) (201, 5, 5.00000000000000000000e-01) (201, 5, 5.00000000000000000000e-01) (201, 5, 5.00000000000000000000e-01) (201, 5, 5.00000000000000000000e-01) (201, 5, 5.00000000000000000000e-01) (201, 5, 5.00000000000000000000e-01) (201, 5, 5.00000000000000000000e-01) (201, 5, 5.00000000000000000000e-01) (201, 5, 5.00000000000000000000e-01) (201, 5, 5.00000000000000000000e-01) (201, 5, 5.00000000000000000000e-01) (201, 5, 5.00000000000000000000e-01) (201, 5, 5.00000000000000000000e-01) (201, 5, 5.00000000000000000000e-01) (201, 5, 5.00000000000000000000e-01) (201, 5, 5.00000000000000000000e-01) (201, 5, 5.00000000000000000000e-01) (201, 5, 5.00000000000000000000e-01) (201, 5, 5.00000000000000000000e-01) (201, 5, 5.00000000000000000000e-01) (201, 5, 5.00000000000000000000e-01) (201, 5, 5.00000000000000000000e-01) (201, 5, 5.00000000000000000000e-01) (201, 5, 5.00000000000000000000e-01) (201, 5, 5.00000000000000000000e-01) (201, 5, 5.00000000000000000000e-01) (201, 5, 5.00000000000000000000e-01) (201, 5, 5.00000000000000000000e-01) (201, 5, 5.00000000000000000000e-01) (201, 5, 5.00000000000000000000e-01) (201, 5, 5.00000000000000000000e-01) (201, 5, 5.00000000000000000000e-01) (201, 5, 5.00000000000000000000e-01) (201, 5, 5.00000000000000000000e-01) (201, 5, 5.00000000000000000000e-01) (201, 5, 5.00000000000000000000e-01) (201, 5, 5.00000000000000000000e-01) (201, 5, 5.00000000000000000000e-01) (201, 5, 5.00000000000000000000e-01) (201, 5, 5.00000000000000000000e-01) (201, 5, 5.00000000000000000000e-01) (201, 5, 5.00000000000000000000e-01) (201, 5, 5.00000000000000000000e-01) (201, 5, 5.00000000000000000000e-01) (201, 5, 5.00000000000000000000e-01) (201, 5, 5.00000000000000000000e-01) (201, 5, 5.00000000000000000000e-01) (201, 5, 5.00000000000000000000e-01) (201, 5, 5.00000000000000000000e-01) (201, 5, 5.00000000000000000000e-01) (201, 5, 5.00000000000000000000e-01) (0, 5, 0.00000000000000000000e+00) (201, 5, 5.00000000000000000000e-01) (201, 5, 5.00000000000000000000e-01) (201, 5, 5.00000000000000000000e-01) (201, 5, 5.00000000000000000000e-01) (0, 5, 0.00000000000000000000e+00) 
connections (connected_to_neuron, weight)=(0, -1.80812299251556396484e-01) (1, 3.44810634851455688477e-01) (2, 3.01536887884140014648e-01) (3, 4.02056396007537841797e-01) (4, 2.59127318859100341797e-01) (5, 1.85540020465850830078e-01) (6, 3.50688606500625610352e-01) (0, 6.54716789722442626953e-01) (1, -2.48176589608192443848e-01) (2, -5.42272865772247314453e-01) (3, 9.37177389860153198242e-02) (4, -2.71284431219100952148e-01) (5, -1.52250692248344421387e-01) (6, -1.44149780273437500000e-01) (0, -1.36098653078079223633e-01) (1, 8.57718661427497863770e-02) (2, 1.08005903661251068115e-01) (3, 1.06658533215522766113e-01) (4, 8.95719509571790695190e-03) (5, 8.67706015706062316895e-02) (6, 2.97891721129417419434e-02) (0, 4.31033372879028320312e-01) (1, -2.99763113260269165039e-01) (2, -3.19882065057754516602e-01) (3, -2.92378008365631103516e-01) (4, -3.52881729602813720703e-01) (5, 3.20684850215911865234e-01) (6, -3.74262630939483642578e-01) (0, -6.58195316791534423828e-02) (1, -2.48193636536598205566e-01) (2, -2.33095064759254455566e-01) (3, -2.89615094661712646484e-01) (4, -3.12774896621704101562e-01) (5, -1.65015459060668945312e-01) (6, -2.90180474519729614258e-01) (0, 3.57341170310974121094e-02) (1, 9.59780290722846984863e-02) (2, 1.81797400116920471191e-01) (3, -5.71794211864471435547e-01) (4, 1.32103353738784790039e-01) (5, 1.59326612949371337891e-01) (6, 1.55125081539154052734e-01) (0, 3.38205657899379730225e-02) (1, 3.68431985378265380859e-01) (2, 3.04754137992858886719e-01) (3, 7.35752936452627182007e-03) (4, 4.80116009712219238281e-01) (5, 5.44032573699951171875e-01) (6, 5.93579351902008056641e-01) (0, 1.24508433043956756592e-01) (1, 4.51569467782974243164e-01) (2, 4.65514183044433593750e-01) (3, 3.99062126874923706055e-01) (4, 3.89015406370162963867e-01) (5, 4.09041821956634521484e-01) (6, 2.18764692544937133789e-01) (0, 1.73490703105926513672e+00) (1, 1.76211461424827575684e-01) (2, -1.61119326949119567871e-01) (3, 1.17474958300590515137e-01) (4, 1.93146467208862304688e-02) (5, 1.64804518222808837891e-01) (6, 1.26530081033706665039e-01) (0, 3.54758501052856445312e-01) (1, 3.44885945320129394531e-01) (2, 1.59480482339859008789e-01) (3, 1.04750417172908782959e-01) (4, -5.62590397894382476807e-02) (5, 2.92430430650711059570e-01) (6, 1.21477402746677398682e-01) (0, 6.65522441267967224121e-02) (1, -3.70522029697895050049e-02) (2, -2.95945024117827415466e-03) (3, 4.51452314853668212891e-01) (4, 1.66855111718177795410e-01) (5, 1.74398377537727355957e-01) (6, 1.54471024870872497559e-01) (0, 5.23802153766155242920e-02) (1, -1.66993960738182067871e-01) (2, -2.15410292148590087891e-01) (3, 4.17047142982482910156e-01) (4, 3.15280705690383911133e-01) (5, 2.94596999883651733398e-01) (6, 4.03535097837448120117e-01) (0, -5.08574342727661132812e+00) (1, -2.84497529268264770508e-01) (2, 4.26580309867858886719e-01) (3, 7.96916067600250244141e-01) (4, 2.39114195108413696289e-01) (5, -2.46159598231315612793e-01) (6, 2.86588460206985473633e-01) (0, -9.96055245399475097656e-01) (1, 7.60582029819488525391e-01) (2, 5.69824397563934326172e-01) (3, 5.20932793617248535156e-01) (4, 2.33020544052124023438e-01) (5, 1.86860993504524230957e-01) (6, 1.79167389869689941406e-01) (0, 1.89037486910820007324e-01) (1, 2.38788560032844543457e-01) (2, 4.26481932401657104492e-01) (3, 1.97262227535247802734e-01) (4, 2.12019503116607666016e-01) (5, 2.20635682344436645508e-01) (6, 1.06085434556007385254e-01) (0, 7.55774900317192077637e-02) (1, 2.90894120931625366211e-01) (2, 3.81506830453872680664e-01) (3, 3.34594488143920898438e-01) (4, 1.82961106300354003906e-01) (5, 3.93376648426055908203e-01) (6, 1.95257782936096191406e-01) (0, 2.45123907923698425293e-01) (1, -2.38540187478065490723e-01) (2, 2.94451266527175903320e-01) (3, 3.96994262933731079102e-01) (4, 1.62739247083663940430e-01) (5, 4.09444689750671386719e-01) (6, 2.35006228089332580566e-01) (0, 1.42977809906005859375e+00) (1, 5.88331043720245361328e-01) (2, 6.68302178382873535156e-01) (3, -6.77270740270614624023e-02) (4, 2.00370728969573974609e-01) (5, 6.34300470352172851562e-01) (6, 2.20755457878112792969e-01) (0, 7.24508464336395263672e-01) (1, 2.84609675407409667969e-01) (2, 3.50505858659744262695e-01) (3, 3.73242378234863281250e-01) (4, 3.94177794456481933594e-01) (5, 2.86532551050186157227e-01) (6, 2.71036624908447265625e-01) (0, 3.14392387866973876953e-01) (1, 4.76013571023941040039e-01) (2, 3.18479537963867187500e-01) (3, 1.25397339463233947754e-01) (4, 2.68854647874832153320e-01) (5, 2.79908269643783569336e-01) (6, 1.28614842891693115234e-01) (0, 7.90213525295257568359e-01) (1, 4.52660351991653442383e-01) (2, 3.60951125621795654297e-01) (3, 2.96742081642150878906e-01) (4, 2.87465542554855346680e-01) (5, 2.48965471982955932617e-01) (6, 2.86797374486923217773e-01) (0, 1.00947988033294677734e+00) (1, 7.92434066534042358398e-02) (2, -4.17446643114089965820e-02) (3, 3.44816237688064575195e-01) (4, 1.09368070960044860840e-01) (5, 5.02038836479187011719e-01) (6, 1.10878691077232360840e-01) (0, -5.40373563766479492188e-01) (1, -1.40434324741363525391e-01) (2, -4.95085632428526878357e-03) (3, 4.74212574772536754608e-04) (4, -7.50944986939430236816e-02) (5, -9.34042707085609436035e-02) (6, -1.13658502697944641113e-01) (0, -1.93776115775108337402e-01) (1, 6.92967057228088378906e-01) (2, 3.13821524381637573242e-01) (3, 9.37591612339019775391e-01) (4, 8.34086835384368896484e-01) (5, 7.39993810653686523438e-01) (6, 8.42846870422363281250e-01) (0, -9.27647948265075683594e-01) (1, 6.85990750789642333984e-02) (2, -6.15059118717908859253e-03) (3, 5.93518801033496856689e-02) (4, 2.50897184014320373535e-02) (5, -1.92797239869832992554e-02) (6, -1.20283029973506927490e-02) (0, 6.59269690513610839844e-02) (1, -7.80994398519396781921e-03) (2, 3.42146843671798706055e-01) (3, 5.13080298900604248047e-01) (4, -4.88684251904487609863e-02) (5, 9.80644859373569488525e-03) (6, -1.03188768029212951660e-01) (0, -1.17300301790237426758e-02) (1, 2.04941183328628540039e-02) (2, 4.73787903785705566406e-01) (3, 9.62124094367027282715e-02) (4, 1.24911688268184661865e-01) (5, -1.51757737621665000916e-02) (6, 1.34666472673416137695e-01) (0, 7.18608796596527099609e-01) (1, 1.44099399447441101074e-01) (2, 2.91059106588363647461e-01) (3, 2.74550080299377441406e-01) (4, 2.18242973089218139648e-01) (5, 2.82571762800216674805e-01) (6, 2.73041874170303344727e-01) (0, 1.43907475285232067108e-03) (1, -3.35421711206436157227e-02) (2, 1.95198103785514831543e-01) (3, 1.56017675995826721191e-01) (4, 2.59016633033752441406e-01) (5, 2.76170760393142700195e-01) (6, 2.65861958265304565430e-01) (0, 8.25229942798614501953e-01) (1, -9.46641042828559875488e-02) (2, -2.15202987194061279297e-01) (3, -2.87685811519622802734e-01) (4, -1.34288370609283447266e-01) (5, -1.54776886105537414551e-01) (6, -1.27453416585922241211e-01) (0, 8.12395960092544555664e-02) (1, 1.24088123440742492676e-01) (2, -7.07392543554306030273e-02) (3, 5.53369820117950439453e-02) (4, 2.67230235040187835693e-02) (5, 2.32663080096244812012e-01) (6, 4.81662563979625701904e-02) (0, -1.50845372676849365234e+00) (1, 7.86015540361404418945e-02) (2, 1.16583064198493957520e-01) (3, 1.20138108730316162109e-01) (4, 2.22506344318389892578e-01) (5, -3.32764238119125366211e-02) (6, 2.52267748117446899414e-01) (0, -6.19974076747894287109e-01) (1, 1.55527615547180175781e+00) (2, 5.78773260116577148438e-01) (3, 3.97930979728698730469e-01) (4, 5.11310100555419921875e-01) (5, 3.02228391170501708984e-01) (6, 4.68449562788009643555e-01) (0, 5.50302410125732421875e+00) (1, -6.65488913655281066895e-02) (2, -2.59162411093711853027e-02) (3, -4.27872613072395324707e-02) (4, -6.83890208601951599121e-02) (5, 5.15992403030395507812e-01) (6, -2.59696505963802337646e-02) (0, 4.88524496555328369141e-01) (1, 8.48987549543380737305e-02) (2, 1.07918888330459594727e-01) (3, 1.43085271120071411133e-01) (4, 1.74245778471231460571e-02) (5, 7.11467638611793518066e-02) (6, 5.23877069354057312012e-02) (0, -2.01028268784284591675e-02) (1, 2.42701813578605651855e-01) (2, 2.21542432904243469238e-01) (3, 4.25500184297561645508e-01) (4, 3.79138946533203125000e-01) (5, 2.99743592739105224609e-01) (6, 2.33799174427986145020e-01) (0, -5.60753569006919860840e-02) (1, 3.17365795373916625977e-01) (2, 2.24670097231864929199e-01) (3, 4.23507124185562133789e-01) (4, 3.19405019283294677734e-01) (5, 1.37659162282943725586e-01) (6, 3.01595389842987060547e-01) (0, -4.77880620956420898438e+00) (1, -4.45675998926162719727e-01) (2, -1.45695015788078308105e-01) (3, 2.56030291318893432617e-01) (4, 2.34979197382926940918e-01) (5, 3.42957109212875366211e-01) (6, 2.99687147140502929688e-01) (0, -1.33894205093383789062e-01) (1, 5.59782803058624267578e-01) (2, 6.23741805553436279297e-01) (3, -1.36786043643951416016e-01) (4, 4.15839962661266326904e-02) (5, 4.29644398391246795654e-02) (6, -7.88874030113220214844e-02) (0, -6.17809057235717773438e-01) (1, 3.09235067106783390045e-03) (2, 3.05252093821763992310e-02) (3, -3.29565699212253093719e-03) (4, 1.36264143511652946472e-02) (5, -2.94517520815134048462e-02) (6, -1.73199269920587539673e-02) (0, -5.04279375076293945312e-01) (1, 9.26086962223052978516e-01) (2, 3.69004666805267333984e-01) (3, -3.37964624166488647461e-01) (4, 7.95233368873596191406e-01) (5, 3.71216356754302978516e-01) (6, 7.39468574523925781250e-01) (0, 2.32344478368759155273e-01) (1, 2.20989808440208435059e-02) (2, 2.12806556373834609985e-02) (3, 5.13386487960815429688e-01) (4, 3.45113664865493774414e-01) (5, 4.47846949100494384766e-01) (6, 5.43759703636169433594e-01) (0, -1.70437586307525634766e+00) (1, -9.68221276998519897461e-02) (2, 1.77184477448463439941e-01) (3, 4.71619190648198127747e-03) (4, 1.65073666721582412720e-02) (5, 6.64447322487831115723e-02) (6, 2.91229248046875000000e-01) (0, -4.77272510528564453125e+00) (1, 4.12213593721389770508e-01) (2, 2.52082705497741699219e-01) (3, 1.87001988291740417480e-01) (4, 6.09138965606689453125e-01) (5, 5.44142127037048339844e-01) (6, 6.51378631591796875000e-01) (0, 6.87463805079460144043e-02) (1, 6.10487043857574462891e-01) (2, 6.70830249786376953125e-01) (3, -6.46759495139122009277e-02) (4, 4.72395956516265869141e-01) (5, 2.69795924425125122070e-01) (6, 3.66845816373825073242e-01) (0, 4.02663499116897583008e-02) (1, 4.04856741428375244141e-01) (2, 5.11582195758819580078e-01) (3, 4.13988798856735229492e-01) (4, 3.81727129220962524414e-01) (5, 3.66399019956588745117e-01) (6, 3.67825746536254882812e-01) (0, -4.87410068511962890625e-01) (1, 7.67009735107421875000e-01) (2, 3.48083585500717163086e-01) (3, 9.06271278858184814453e-01) (4, 8.56386959552764892578e-01) (5, -7.60438013821840286255e-03) (6, 7.48817861080169677734e-01) (0, 1.03751969337463378906e+00) (1, 2.60671257972717285156e-01) (2, 3.19283485412597656250e-01) (3, 3.78651112318038940430e-01) (4, 4.10826891660690307617e-01) (5, 3.49701523780822753906e-01) (6, 4.02214318513870239258e-01) (0, 1.08136916160583496094e+00) (1, 4.29593890905380249023e-01) (2, 1.46049574017524719238e-01) (3, -1.91041961312294006348e-01) (4, -1.01741351187229156494e-01) (5, 2.45863184332847595215e-01) (6, -1.06306605041027069092e-01) (0, 8.33366692066192626953e-01) (1, -2.44996741414070129395e-01) (2, -2.84331858158111572266e-01) (3, -1.02604694664478302002e-01) (4, -2.82460898160934448242e-01) (5, -1.67886629700660705566e-01) (6, -1.37266844511032104492e-01) (0, 4.65388268232345581055e-01) (1, 2.01350107789039611816e-01) (2, 4.94628250598907470703e-02) (3, 6.77204728126525878906e-01) (4, 5.26063919067382812500e-01) (5, 8.02418470382690429688e-01) (6, 5.54011166095733642578e-01) (0, 5.61969935894012451172e-01) (1, 5.58288455009460449219e-01) (2, 3.97603303194046020508e-01) (3, -6.53706071898341178894e-03) (4, -2.65965685248374938965e-02) (5, 1.20652094483375549316e-01) (6, -6.27585425972938537598e-02) (0, 1.98228681087493896484e+00) (1, 1.49408876895904541016e-01) (2, -4.81938743591308593750e+00) (3, 3.60524326562881469727e-01) (4, 4.86892282962799072266e-01) (5, 5.99051237106323242188e-01) (6, 4.89512264728546142578e-01) (0, 1.23169787228107452393e-01) (1, 3.01061689853668212891e-01) (2, 4.11726772785186767578e-01) (3, 1.98700383305549621582e-01) (4, 2.00300812721252441406e-01) (5, 2.58008241653442382812e-01) (6, 1.94886624813079833984e-01) (0, 1.40195369720458984375e-01) (1, 6.23262934386730194092e-02) (2, 9.04964059591293334961e-02) (3, -9.42759066820144653320e-02) (4, -3.77097725868225097656e-02) (5, -1.93893294781446456909e-02) (6, 7.04818125814199447632e-03) (0, 5.51718883216381072998e-02) (1, 2.24670067429542541504e-01) (2, 3.04754436016082763672e-01) (3, 3.61464023590087890625e-01) (4, 2.83092737197875976562e-01) (5, 1.43563047051429748535e-01) (6, 2.58575648069381713867e-01) (0, 1.00956523418426513672e+00) (1, 2.92051404714584350586e-01) (2, 3.13457101583480834961e-01) (3, -1.17730982601642608643e-01) (4, 3.35485935211181640625e-02) (5, 4.78675544261932373047e-01) (6, -1.05562517419457435608e-02) (0, 2.46689736843109130859e-01) (1, 2.94930398464202880859e-01) (2, 5.05042672157287597656e-01) (3, 4.26433384418487548828e-01) (4, 3.30844640731811523438e-01) (5, 3.03952217102050781250e-01) (6, 3.10322672128677368164e-01) (0, 9.33076292276382446289e-02) (1, -9.78290736675262451172e-02) (2, 5.67154325544834136963e-02) (3, 6.26420006155967712402e-02) (4, 6.90736714750528335571e-03) (5, -1.29590276628732681274e-02) (6, 6.25915229320526123047e-02) (0, -1.86057221889495849609e+00) (1, 2.65999644994735717773e-01) (2, 2.01484575867652893066e-01) (3, 3.99058014154434204102e-01) (4, 2.66466796398162841797e-01) (5, 1.00417017936706542969e+00) (6, 2.64128834009170532227e-01) (0, -3.46088409423828125000e-02) (1, 8.99237468838691711426e-02) (2, 5.71310259401798248291e-02) (3, 3.06737534701824188232e-02) (4, -5.34750446677207946777e-02) (5, -4.10123094916343688965e-02) (6, -1.64727136492729187012e-01) (0, 9.22987088561058044434e-02) (1, 2.88185954093933105469e-01) (2, 3.40863883495330810547e-01) (3, -1.44508242607116699219e-01) (4, 4.06891733407974243164e-01) (5, 3.03958266973495483398e-01) (6, 3.09086769819259643555e-01) (0, 8.00955832004547119141e-01) (1, 3.85406762361526489258e-01) (2, 3.93015027046203613281e-01) (3, 1.60131439566612243652e-01) (4, 2.72698014974594116211e-01) (5, 2.14152365922927856445e-01) (6, 2.69495964050292968750e-01) (0, 1.80717289447784423828e+00) (1, -2.25477777421474456787e-02) (2, -1.79751992225646972656e-01) (3, 6.75808906555175781250e-01) (4, -4.17753569781780242920e-02) (5, -5.18383719027042388916e-02) (6, 3.28633487224578857422e-02) (0, 5.25444000959396362305e-02) (1, 5.98831474781036376953e-01) (2, 9.96044874191284179688e-01) (3, 7.51437962055206298828e-01) (4, 4.00723785161972045898e-01) (5, 4.21009391546249389648e-01) (6, 3.78477215766906738281e-01) (0, 1.19473338127136230469e+00) (1, 2.71792650222778320312e-01) (2, 3.18543940782546997070e-01) (3, -2.82702624797821044922e-01) (4, -4.60225641727447509766e-01) (5, 2.65770018100738525391e-01) (6, -4.15034502744674682617e-01) (0, -3.63626480102539062500e-01) (1, -6.15890659391880035400e-02) (2, -1.75078928470611572266e-01) (3, 4.91071164608001708984e-01) (4, -9.44926962256431579590e-02) (5, 1.95769332349300384521e-02) (6, -1.12538956105709075928e-01) (0, 1.16165466606616973877e-02) (1, 3.97894710302352905273e-01) (2, 1.95561721920967102051e-01) (3, 3.87639760971069335938e-01) (4, 3.32355976104736328125e-01) (5, 4.13412094116210937500e-01) (6, 3.22725296020507812500e-01) (0, -2.02135220170021057129e-01) (1, 2.40783439949154853821e-03) (2, 9.68152433633804321289e-02) (3, 2.72974580526351928711e-01) (4, 1.29643261432647705078e-01) (5, 2.21468865871429443359e-01) (6, 1.72941461205482482910e-01) (0, -1.66641652584075927734e+00) (1, 2.75616437196731567383e-01) (2, 2.17441856861114501953e-01) (3, 7.26732134819030761719e-01) (4, 3.97881507873535156250e-01) (5, 2.28031069040298461914e-01) (6, 3.15218985080718994141e-01) (0, 1.96265563368797302246e-01) (1, 3.43768000602722167969e-01) (2, 4.43631500005722045898e-01) (3, 3.77669095993041992188e-01) (4, 3.09694111347198486328e-01) (5, 2.84057229757308959961e-01) (6, 4.05329138040542602539e-01) (0, -1.61593437194824218750e-01) (1, 3.19561897777020931244e-03) (2, -1.39871552586555480957e-01) (3, 2.84504801034927368164e-01) (4, -2.02282533049583435059e-01) (5, -1.64404690265655517578e-01) (6, -2.93092489242553710938e-01) (0, 1.41408891677856445312e+01) (1, 8.41618478298187255859e-02) (2, 5.49997724592685699463e-02) (3, 1.58533919602632522583e-02) (4, -3.02371028810739517212e-02) (5, 1.52705326676368713379e-01) (6, 1.25371336936950683594e-01) (0, -7.55128860473632812500e-01) (1, 1.67718097567558288574e-01) (2, 1.07386338710784912109e+00) (3, -1.53645887970924377441e-01) (4, -1.76347866654396057129e-02) (5, -7.52175226807594299316e-02) (6, 6.17311336100101470947e-02) (0, 1.14547836780548095703e+00) (1, 1.16828247904777526855e-01) (2, -1.91688507795333862305e-01) (3, 1.53879091143608093262e-01) (4, 3.65533322095870971680e-01) (5, 5.06429135799407958984e-01) (6, 3.39954018592834472656e-01) (0, 1.16496729850769042969e+00) (1, -3.45594704151153564453e-01) (2, -4.08035725355148315430e-01) (3, -1.71685367822647094727e-01) (4, -4.18547630310058593750e-01) (5, -1.57264024019241333008e-01) (6, -2.86837697029113769531e-01) (0, 2.48697206377983093262e-01) (1, 3.98050695657730102539e-01) (2, 4.66249883174896240234e-01) (3, 3.68612021207809448242e-01) (4, 2.80753016471862792969e-01) (5, 3.07475537061691284180e-01) (6, 2.93334215879440307617e-01) (0, -9.73430156707763671875e-01) (1, 7.30913728475570678711e-02) (2, -6.33813589811325073242e-02) (3, 5.27634978294372558594e-01) (4, -4.33274060487747192383e-02) (5, -2.28718563914299011230e-01) (6, -7.64508098363876342773e-02) (0, 6.58512413501739501953e-01) (1, 3.12407612800598144531e-01) (2, 1.50679945945739746094e-01) (3, 3.87358784675598144531e-01) (4, 4.12844151258468627930e-01) (5, 4.04017180204391479492e-01) (6, 2.89928704500198364258e-01) (0, 5.81905320286750793457e-02) (1, 3.51276367902755737305e-01) (2, 4.25135672092437744141e-01) (3, -5.10344058275222778320e-02) (4, 3.21910738945007324219e-01) (5, 3.69627803564071655273e-01) (6, 2.39160671830177307129e-01) (0, -1.71301230788230895996e-01) (1, 1.01129472255706787109e-01) (2, 2.79947578907012939453e-01) (3, 3.85165184736251831055e-01) (4, 4.17357504367828369141e-01) (5, 3.40704023838043212891e-02) (6, 3.33715856075286865234e-01) (0, 4.72488403320312500000e-02) (1, 2.65684902667999267578e-01) (2, 1.24944545328617095947e-01) (3, 9.68285441398620605469e-01) (4, 7.88688182830810546875e-01) (5, 9.82209086418151855469e-01) (6, 5.45664906501770019531e-01) (0, -9.76413208991289138794e-03) (1, -1.63078546524047851562e-01) (2, 1.71608552336692810059e-01) (3, 4.71911251544952392578e-01) (4, 4.44841593503952026367e-01) (5, 2.88961917161941528320e-01) (6, 3.19146186113357543945e-01) (0, -8.13929438591003417969e-01) (1, -1.08156144618988037109e-01) (2, -1.88719723373651504517e-02) (3, 1.22215457260608673096e-01) (4, -7.19714015722274780273e-02) (5, -8.28083828091621398926e-02) (6, 1.24845011159777641296e-02) (0, -4.87794685363769531250e+00) (1, 2.05330699682235717773e-02) (2, 1.98266610503196716309e-01) (3, -2.73976147174835205078e-01) (4, 1.48390948772430419922e-01) (5, -2.46136486530303955078e-01) (6, 1.63395419716835021973e-01) (0, 5.53580343723297119141e-01) (1, 1.50721222162246704102e-01) (2, 1.04639992117881774902e-01) (3, -1.19163626804947853088e-02) (4, -7.80818536877632141113e-02) (5, 5.76983913779258728027e-02) (6, -6.23391456902027130127e-02) (0, -1.80044442415237426758e-01) (1, -5.10361433029174804688e-01) (2, -2.70478963851928710938e-01) (3, 2.58672554045915603638e-02) (4, 1.52866557240486145020e-01) (5, -2.00683921575546264648e-01) (6, 1.69817462563514709473e-01) (0, 7.17944562435150146484e-01) (1, 3.17655712366104125977e-01) (2, 3.69811028242111206055e-01) (3, 2.70784884691238403320e-01) (4, 2.97228604555130004883e-01) (5, 1.08681648969650268555e-01) (6, 2.43192315101623535156e-01) (0, -1.92458224296569824219e+00) (1, -3.10995399951934814453e-01) (2, -1.13557212054729461670e-01) (3, 5.42134463787078857422e-01) (4, -4.88222800195217132568e-02) (5, -1.28454297780990600586e-01) (6, -6.74864500761032104492e-02) (0, -1.89503228664398193359e+00) (1, 2.78090965002775192261e-02) (2, -8.46581608057022094727e-02) (3, 5.57058900594711303711e-02) (4, -7.39769116044044494629e-02) (5, -1.99744347482919692993e-02) (6, -3.10213603079319000244e-02) (0, -4.93831038475036621094e-02) (1, -1.32654592394828796387e-01) (2, 1.70846655964851379395e-02) (3, 2.15713158249855041504e-02) (4, -2.58296877145767211914e-02) (5, -1.21716484427452087402e-01) (6, 7.51102119684219360352e-02) (0, -4.43919134140014648438e+00) (1, 6.96711659431457519531e-01) (2, 5.29210329055786132812e-01) (3, 1.89191445708274841309e-01) (4, 3.92900377511978149414e-01) (5, -8.23931545019149780273e-02) (6, 3.95726382732391357422e-01) (0, 8.68116283416748046875e+00) (1, 7.56635442376136779785e-02) (2, 1.60916611552238464355e-01) (3, -1.95460021495819091797e-01) (4, -1.39067754149436950684e-01) (5, 2.10176467895507812500e-01) (6, -1.55952960252761840820e-01) (0, 8.53977382183074951172e-01) (1, 1.97246506810188293457e-01) (2, 3.60449522733688354492e-01) (3, 2.22278967499732971191e-01) (4, 2.81489312648773193359e-01) (5, 2.07323893904685974121e-01) (6, 2.13510960340499877930e-01) (0, -7.48168081045150756836e-02) (1, 7.14313089847564697266e-02) (2, -1.30417680740356445312e+00) (3, 4.77288626134395599365e-02) (4, -6.06255419552326202393e-03) (5, 5.42493939399719238281e-01) (6, -3.84999513626098632812e-02) (0, 2.04953346401453018188e-02) (1, 3.59708636999130249023e-01) (2, 2.56595820188522338867e-01) (3, 3.73299837112426757812e-01) (4, 3.45333456993103027344e-01) (5, 1.17219358682632446289e-01) (6, 3.81402552127838134766e-01) (0, 2.04559743404388427734e-01) (1, 6.25853896141052246094e-01) (2, 7.18025624752044677734e-01) (3, 1.06926091015338897705e-01) (4, 1.99538320302963256836e-01) (5, 5.03268003463745117188e-01) (6, 1.20144866406917572021e-01) (0, 1.06251907348632812500e+00) (1, 9.27801057696342468262e-02) (2, 1.73279225826263427734e-01) (3, 4.45019930601119995117e-01) (4, 1.11849732697010040283e-01) (5, 6.82582035660743713379e-02) (6, 1.37251511216163635254e-01) (0, 2.05252766609191894531e-01) (1, 1.93434327840805053711e-01) (2, -1.83228954672813415527e-01) (3, 8.06859927251935005188e-04) (4, -3.69671136140823364258e-02) (5, 3.67420583963394165039e-01) (6, 4.80316877365112304688e-02) (0, -5.97639903426170349121e-02) (1, 3.30038398504257202148e-01) (2, 2.22631782293319702148e-01) (3, 4.33347851037979125977e-01) (4, 3.28938186168670654297e-01) (5, 2.93743073940277099609e-01) (6, 3.72767597436904907227e-01) (0, -1.49981826543807983398e-02) (1, 2.82578647136688232422e-01) (2, 2.47499197721481323242e-01) (3, 2.86889195442199707031e-01) (4, 3.14225822687149047852e-01) (5, 4.34437572956085205078e-01) (6, 3.65492314100265502930e-01) (0, 3.11283230781555175781e-01) (1, 2.87621229887008666992e-01) (2, 1.15812219679355621338e-01) (3, 2.23693609237670898438e-01) (4, 2.05379173159599304199e-01) (5, 4.05016183853149414062e-01) (6, 1.95873707532882690430e-01) (0, -1.63194417953491210938e-01) (1, 2.25131765007972717285e-01) (2, 2.06903964281082153320e-01) (3, 3.19206476211547851562e-01) (4, 4.18636530637741088867e-01) (5, -1.74177542328834533691e-01) (6, 4.06073898077011108398e-01) (0, 2.01241970062255859375e+00) (1, 2.99330055713653564453e-01) (2, -3.64173746109008789062e+00) (3, 6.01493157446384429932e-02) (4, -6.12006597220897674561e-02) (5, 6.05666995048522949219e-01) (6, 1.66796296834945678711e-02) (0, 1.49567961692810058594e+00) (1, 3.74070465564727783203e-01) (2, 5.80759823322296142578e-01) (3, -2.23508849740028381348e-01) (4, 3.23737740516662597656e-01) (5, 2.46316269040107727051e-01) (6, 3.33378612995147705078e-01) (0, 9.88434180617332458496e-02) (1, 4.37924116849899291992e-01) (2, 3.82281422615051269531e-01) (3, 2.47520744800567626953e-01) (4, 2.29819059371948242188e-01) (5, 2.70876020193099975586e-01) (6, 1.67816922068595886230e-01) (0, 4.88779753446578979492e-01) (1, 4.30044263601303100586e-01) (2, 4.03152465820312500000e-01) (3, 2.26913958787918090820e-01) (4, 2.91853189468383789062e-01) (5, 3.59776973724365234375e-01) (6, 1.84514224529266357422e-01) (0, -1.20505678653717041016e+00) (1, 6.99613809585571289062e-01) (2, -3.86103749275207519531e-01) (3, 1.07240695506334304810e-02) (4, 5.82106737419962882996e-03) (5, -4.59314323961734771729e-02) (6, 1.23951777815818786621e-01) (0, -1.19263596832752227783e-01) (1, 1.97606533765792846680e-01) (2, -5.30760399997234344482e-02) (3, 1.40647292137145996094e+00) (4, 4.22002732753753662109e-01) (5, 2.94026970863342285156e-01) (6, 5.39434671401977539062e-01) (0, -2.98623886108398437500e+01) (1, 7.43680536746978759766e-01) (2, 8.45715045928955078125e-01) (3, 7.51197159290313720703e-01) (4, 8.30401599407196044922e-01) (5, 4.52383011579513549805e-01) (6, 6.64842486381530761719e-01) (0, -6.90109133720397949219e-02) (1, 9.36898827552795410156e-01) (2, 9.76729869842529296875e-01) (3, 1.01543653011322021484e+00) (4, 1.11397778987884521484e+00) (5, 9.09257292747497558594e-01) (6, 1.06130433082580566406e+00) (0, 4.55665215849876403809e-02) (1, 4.01264131069183349609e-01) (2, 1.53322085738182067871e-01) (3, 3.79801541566848754883e-01) (4, 3.71387302875518798828e-01) (5, 2.84768581390380859375e-01) (6, 2.27875933051109313965e-01) (0, -6.72521710395812988281e-01) (1, -2.77029871940612792969e-01) (2, -1.07963927090167999268e-01) (3, 1.52309432625770568848e-01) (4, -2.13093981146812438965e-01) (5, 1.41182199120521545410e-01) (6, -1.53112709522247314453e-01) (0, 1.25627666711807250977e-01) (1, -2.26799845695495605469e-01) (2, 6.87748372554779052734e-01) (3, -2.95090377330780029297e-01) (4, -2.99350917339324951172e-01) (5, -1.80542707443237304688e-01) (6, -3.99796515703201293945e-01) (0, 2.51885533332824707031e+00) (1, 7.77377128601074218750e-01) (2, 6.52030944824218750000e-01) (3, 4.56939265131950378418e-02) (4, 2.66869459301233291626e-02) (5, 2.37571701407432556152e-01) (6, 2.11960509419441223145e-01) (0, 3.16038399934768676758e-01) (1, 4.27209645509719848633e-01) (2, 3.73529672622680664062e-01) (3, 2.81281471252441406250e-01) (4, 2.09658741950988769531e-01) (5, 2.53247380256652832031e-01) (6, 2.26024925708770751953e-01) (0, -3.10698270797729492188e-01) (1, 1.07026386260986328125e+00) (2, 1.15845334529876708984e+00) (3, 2.52071142196655273438e-01) (4, 2.37031221389770507812e-01) (5, 2.90572077035903930664e-01) (6, 3.18050742149353027344e-01) (0, 1.72630831599235534668e-01) (1, 3.44230204820632934570e-01) (2, 4.50836151838302612305e-01) (3, 3.90982627868652343750e-01) (4, 4.08520430326461791992e-01) (5, 2.70064085721969604492e-01) (6, 3.79498332738876342773e-01) (0, 4.68778699636459350586e-01) (1, 3.80801916122436523438e-01) (2, 3.06271344423294067383e-01) (3, -4.72037903964519500732e-02) (4, -5.50310574471950531006e-02) (5, -6.17928989231586456299e-02) (6, -4.46314737200736999512e-03) (0, 5.91945230960845947266e-01) (1, -2.66028270125389099121e-02) (2, 6.34890437126159667969e-01) (3, 3.06990474462509155273e-01) (4, 1.74518853425979614258e-01) (5, 4.55314189195632934570e-01) (6, 2.83409386873245239258e-01) (0, -8.62344354391098022461e-03) (1, 2.74378836154937744141e-01) (2, 2.55437254905700683594e-01) (3, 3.92357468605041503906e-01) (4, 2.89564222097396850586e-01) (5, 1.40576720237731933594e-01) (6, 2.30263590812683105469e-01) (0, 2.38512054085731506348e-01) (1, 3.52799206972122192383e-01) (2, 3.84484320878982543945e-01) (3, 2.65177398920059204102e-01) (4, 3.74907791614532470703e-01) (5, 3.93821507692337036133e-01) (6, 4.11545068025588989258e-01) (0, 2.12745833396911621094e+00) (1, 1.23572178184986114502e-01) (2, 1.28074243664741516113e-01) (3, -1.84289708733558654785e-01) (4, -2.90813054889440536499e-02) (5, 4.07357454299926757812e-01) (6, -1.92205175757408142090e-01) (0, 8.31378519535064697266e-01) (1, 3.12513113021850585938e-01) (2, 2.48472437262535095215e-01) (3, 2.60606318712234497070e-01) (4, 3.74417483806610107422e-01) (5, 3.83687943220138549805e-01) (6, 3.96693587303161621094e-01) (0, 7.43972063064575195312e-02) (1, 8.55069383978843688965e-02) (2, 2.00631901621818542480e-01) (3, -7.29764774441719055176e-02) (4, -6.19881749153137207031e-02) (5, -5.13153634965419769287e-02) (6, -1.28006964921951293945e-01) (0, 4.95592385530471801758e-01) (1, 8.53390619158744812012e-02) (2, 1.74262151122093200684e-01) (3, -8.25680643320083618164e-02) (4, -6.15586638450622558594e-02) (5, -4.57977922633290290833e-03) (6, -5.33233247697353363037e-02) (0, -1.31078675389289855957e-01) (1, 1.01610553264617919922e+00) (2, 9.87819850444793701172e-01) (3, 8.59492719173431396484e-01) (4, 1.03987109661102294922e+00) (5, 9.35964405536651611328e-01) (6, 9.84884381294250488281e-01) (0, 3.15823316574096679688e-01) (1, 2.76809900999069213867e-01) (2, 4.19765263795852661133e-01) (3, 2.83855468034744262695e-01) (4, 3.60487550497055053711e-01) (5, 3.53189229965209960938e-01) (6, 3.33490967750549316406e-01) (0, 2.19142697751522064209e-02) (1, 1.60034492611885070801e-01) (2, 1.40667364001274108887e-01) (3, -8.49871784448623657227e-02) (4, -4.04579611495137214661e-03) (5, 1.44835095852613449097e-02) (6, -1.31892580538988113403e-02) (0, 6.88457131385803222656e-01) (1, 4.47171807289123535156e-01) (2, 2.95226335525512695312e-01) (3, 2.02642083168029785156e-01) (4, 3.04512470960617065430e-01) (5, 3.11160534620285034180e-01) (6, 2.81379878520965576172e-01) (0, -1.82978856563568115234e+00) (1, 1.36806041002273559570e-01) (2, 1.70944049954414367676e-01) (3, 1.19336500763893127441e-01) (4, 7.46209546923637390137e-02) (5, 1.56338348984718322754e-01) (6, 8.09849798679351806641e-02) (0, 2.22739353775978088379e-01) (1, 3.40361446142196655273e-01) (2, 2.83069759607315063477e-01) (3, 7.57546544075012207031e-01) (4, 7.27468371391296386719e-01) (5, 6.56484365463256835938e-01) (6, 2.60204583406448364258e-01) (0, -1.68228417634963989258e-01) (1, 3.50583970546722412109e-01) (2, 5.95485627651214599609e-01) (3, -3.40142883360385894775e-02) (4, 5.88234663009643554688e-01) (5, -3.25541906058788299561e-02) (6, 5.55300652980804443359e-01) (0, 1.91862940788269042969e-01) (1, 4.73519653081893920898e-01) (2, 1.06447327136993408203e+00) (3, 3.22378486394882202148e-01) (4, 5.72414100170135498047e-01) (5, 5.16485214233398437500e-01) (6, 5.33494055271148681641e-01) (0, -1.63351166248321533203e+00) (1, 1.59097298979759216309e-01) (2, 6.19233511388301849365e-02) (3, 7.88300558924674987793e-02) (4, 3.59240174293518066406e-02) (5, -2.93211527168750762939e-02) (6, 4.79789488017559051514e-02) (0, -6.49827361106872558594e-01) (1, 2.66933590173721313477e-01) (2, 1.17657318711280822754e-01) (3, 4.51045215129852294922e-01) (4, 5.00482916831970214844e-01) (5, 2.95099794864654541016e-01) (6, 4.18503969907760620117e-01) (0, -1.57045614719390869141e+00) (1, -1.25846460461616516113e-01) (2, -1.26493070274591445923e-02) (3, -2.78131246566772460938e-01) (4, -1.09063878655433654785e-01) (5, -2.60340154170989990234e-01) (6, -2.60556995868682861328e-01) (0, -6.24310374259948730469e-01) (1, -5.63473165035247802734e-01) (2, -1.76854077726602554321e-02) (3, 2.70746469497680664062e-01) (4, -7.91713222861289978027e-02) (5, -2.05251842737197875977e-01) (6, -5.83987176418304443359e-01) (0, -2.14835548400878906250e+00) (1, 1.84002593159675598145e-01) (2, 8.97130370140075683594e-02) (3, -1.30402356386184692383e-01) (4, 1.31713226437568664551e-01) (5, -4.66266460716724395752e-02) (6, 1.64046287536621093750e-01) (0, 8.00636649131774902344e-01) (1, 1.28726422786712646484e-01) (2, 1.33644610643386840820e-01) (3, 4.24294590950012207031e-01) (4, -2.08848398178815841675e-02) (5, 4.62287515401840209961e-01) (6, -7.50419031828641891479e-03) (0, 1.50809027254581451416e-02) (1, 2.54204738885164260864e-02) (2, -5.10052144527435302734e-01) (3, 9.08807143568992614746e-02) (4, 2.51216799020767211914e-01) (5, -2.62390524148941040039e-01) (6, 3.97594608366489410400e-02) (0, -4.75831180810928344727e-01) (1, -2.68705133348703384399e-02) (2, -6.55284896492958068848e-02) (3, 3.33406090736389160156e-01) (4, -1.35404035449028015137e-01) (5, -1.75531074404716491699e-01) (6, -2.53521967679262161255e-02) (0, -7.93981194496154785156e-01) (1, 6.48945802822709083557e-03) (2, 9.75716173648834228516e-01) (3, 5.90829014778137207031e-01) (4, 8.79783451557159423828e-01) (5, -4.53535355627536773682e-02) (6, 8.86475086212158203125e-01) (0, 2.18900308012962341309e-01) (1, 2.50810593366622924805e-01) (2, 2.17840403318405151367e-01) (3, 1.93474054336547851562e-01) (4, 5.81349492073059082031e-01) (5, 8.29686582088470458984e-01) (6, 5.72932660579681396484e-01) (0, 1.37536466121673583984e+00) (1, -5.68396866321563720703e-01) (2, -1.15543104708194732666e-01) (3, -2.18451917171478271484e-01) (4, -1.87062472105026245117e-01) (5, -6.15801632404327392578e-01) (6, -7.46861398220062255859e-02) (0, -7.62205481529235839844e-01) (1, 5.40783219039440155029e-02) (2, 1.05504882335662841797e+00) (3, 3.01705207675695419312e-02) (4, 2.10117429494857788086e-01) (5, 1.35933876037597656250e-01) (6, 1.50839865207672119141e-01) (0, 7.54609525203704833984e-01) (1, -1.78831115365028381348e-01) (2, -2.23600789904594421387e-01) (3, -2.92302697896957397461e-01) (4, -3.37885200977325439453e-01) (5, 2.79419749975204467773e-01) (6, -3.80175173282623291016e-01) (0, 1.90342858433723449707e-01) (1, 2.03007608652114868164e-01) (2, 3.12602669000625610352e-01) (3, 2.34906151890754699707e-01) (4, 2.97122120857238769531e-01) (5, 2.34235480427742004395e-01) (6, 2.64758467674255371094e-01) (0, 4.00117784738540649414e-02) (1, 4.89169508218765258789e-01) (2, 4.29243296384811401367e-01) (3, 7.59706854820251464844e-01) (4, 3.39693963527679443359e-01) (5, 6.79577887058258056641e-01) (6, 3.40150892734527587891e-01) (0, 5.68420365452766418457e-02) (1, -2.96901166439056396484e-01) (2, -3.78055334091186523438e-01) (3, 4.28790152072906494141e-01) (4, -2.92751431465148925781e-01) (5, -1.95486649870872497559e-01) (6, -3.04726481437683105469e-01) (0, 1.57986700534820556641e-01) (1, -1.50732830166816711426e-01) (2, 3.35424542427062988281e-01) (3, -2.89947181940078735352e-01) (4, -1.77833974361419677734e-01) (5, -1.14433869719505310059e-01) (6, -2.71788388490676879883e-01) (0, 1.51513025164604187012e-01) (1, 2.27337583899497985840e-01) (2, 3.86270374059677124023e-01) (3, 2.59077996015548706055e-01) (4, 2.14705854654312133789e-01) (5, 2.84852653741836547852e-01) (6, 1.98728203773498535156e-01) (0, 2.26186722517013549805e-01) (1, 2.28317290544509887695e-01) (2, 3.01994204521179199219e-01) (3, 2.97361940145492553711e-01) (4, 2.66809403896331787109e-01) (5, 2.04325020313262939453e-01) (6, 2.55563020706176757812e-01) (0, 1.59973591566085815430e-01) (1, 2.27426975965499877930e-01) (2, 1.38998493552207946777e-01) (3, 2.17350557446479797363e-01) (4, 2.20834776759147644043e-01) (5, 3.68064045906066894531e-01) (6, 2.17534333467483520508e-01) (0, -6.13609194755554199219e-01) (1, 2.72851943969726562500e-01) (2, 1.23544074594974517822e-01) (3, 1.87826126813888549805e-01) (4, 2.68274515867233276367e-01) (5, 3.08942049741744995117e-01) (6, 2.33482390642166137695e-01) (0, 1.35232639312744140625e+00) (1, 3.60074639320373535156e-02) (2, 7.09648132324218750000e-02) (3, -4.06831324100494384766e-01) (4, -4.17632907629013061523e-01) (5, -2.48803272843360900879e-01) (6, -4.14693117141723632812e-01) (0, 7.09853410720825195312e-01) (1, -1.07648752629756927490e-01) (2, -1.72184601426124572754e-01) (3, -2.66994595527648925781e-01) (4, -3.79540503025054931641e-01) (5, -1.32642805576324462891e-01) (6, -4.44228410720825195312e-01) (0, -7.42988958954811096191e-02) (1, 2.13995333760976791382e-02) (2, 1.28849208354949951172e-01) (3, 9.95146259665489196777e-02) (4, 6.45860657095909118652e-02) (5, 3.55916656553745269775e-02) (6, 1.19461782276630401611e-01) (0, 8.91996681690216064453e-01) (1, 4.16464596986770629883e-01) (2, 4.33673501014709472656e-01) (3, 3.57920169830322265625e-01) (4, 2.71558821201324462891e-01) (5, 3.92167389392852783203e-01) (6, 3.81386101245880126953e-01) (0, -1.80120900273323059082e-01) (1, 3.74369770288467407227e-01) (2, 3.93832981586456298828e-01) (3, -1.32960423827171325684e-01) (4, 4.25538182258605957031e-01) (5, -3.13679277896881103516e-02) (6, 6.08913719654083251953e-01) (0, 9.88936841487884521484e-01) (1, 2.11887687444686889648e-01) (2, 3.39390575885772705078e-01) (3, -1.26009851694107055664e-01) (4, -4.28782492876052856445e-01) (5, 3.27455073595046997070e-01) (6, -4.72147285938262939453e-01) (0, -4.82814222574234008789e-01) (1, -4.75327968597412109375e-02) (2, -7.24450051784515380859e-02) (3, -4.61237728595733642578e-02) (4, 8.73431712388992309570e-02) (5, -2.80185043811798095703e-02) (6, 1.78201647941023111343e-03) (0, -5.22104978561401367188e-01) (1, -1.48596748709678649902e-01) (2, 2.92211592197418212891e-01) (3, -1.18892386555671691895e-01) (4, -2.07488536834716796875e-01) (5, -2.56743729114532470703e-01) (6, -1.97156071662902832031e-01) (0, -5.98411440849304199219e-01) (1, -1.78663851693272590637e-03) (2, 1.97821572422981262207e-01) (3, 2.25925430655479431152e-01) (4, -9.66157093644142150879e-02) (5, -1.63003295660018920898e-01) (6, -6.08548000454902648926e-02) (0, 1.50426268577575683594e-01) (1, -7.74153321981430053711e-02) (2, 2.33934268355369567871e-01) (3, -1.56983882188796997070e-02) (4, -2.64071337878704071045e-02) (5, -5.67605756223201751709e-02) (6, -7.08269998431205749512e-02) (0, 6.40819907188415527344e-01) (1, 1.21800638735294342041e-01) (2, 1.66421562433242797852e-01) (3, 2.45474636554718017578e-01) (4, 1.98396429419517517090e-01) (5, 2.48737365007400512695e-01) (6, -1.55367359519004821777e-01) (0, 7.43202819824218750000e+01) (1, 7.49622136354446411133e-02) (2, -5.82331568002700805664e-02) (3, -4.75874319672584533691e-02) (4, -6.61693066358566284180e-02) (5, 4.65426325798034667969e-01) (6, 6.33467063307762145996e-02) (0, 7.88593888282775878906e-02) (1, 2.40851059556007385254e-01) (2, 2.88365751504898071289e-01) (3, 4.06206697225570678711e-01) (4, 2.19258472323417663574e-01) (5, 2.55039274692535400391e-01) (6, 1.32263466715812683105e-01) (0, 4.78509776294231414795e-02) (1, 1.76177784800529479980e-01) (2, 2.33776628971099853516e-01) (3, 4.95761543512344360352e-01) (4, 4.93558824062347412109e-01) (5, 4.29612189531326293945e-01) (6, 3.77763211727142333984e-01) (0, -5.42372512817382812500e+00) (1, -1.33880525827407836914e-01) (2, 3.86228561401367187500e-02) (3, -4.03700023889541625977e-01) (4, -1.15160688757896423340e-01) (5, 1.17711789906024932861e-01) (6, -9.29548591375350952148e-02) (0, 2.76780754327774047852e-01) (1, 2.27767109870910644531e-01) (2, 1.32286772131919860840e-01) (3, 3.64628165960311889648e-01) (4, 2.18785077333450317383e-01) (5, 3.34556639194488525391e-01) (6, 2.02663019299507141113e-01) (0, 4.25511002540588378906e-02) (1, 1.47943004965782165527e-01) (2, 2.18556582927703857422e-01) (3, 2.20760881900787353516e-01) (4, 2.32055634260177612305e-01) (5, 2.70979732275009155273e-01) (6, 2.14525908231735229492e-01) (0, -1.18156224489212036133e-01) (1, 6.10054656863212585449e-02) (2, 1.19418121874332427979e-01) (3, -2.35276415944099426270e-01) (4, 7.15088471770286560059e-02) (5, 1.17443859577178955078e-01) (6, 1.77144780755043029785e-01) (0, -3.05761843919754028320e-01) (1, -2.62431532144546508789e-01) (2, -1.30765035748481750488e-01) (3, 2.98025846481323242188e-01) (4, 1.75899639725685119629e-01) (5, -2.29244485497474670410e-01) (6, 2.37941786646842956543e-01) (0, -8.31355340778827667236e-03) (1, 2.15247809886932373047e-01) (2, 4.46490049362182617188e-02) (3, 4.51351404190063476562e-01) (4, 3.20127099752426147461e-01) (5, 3.11887294054031372070e-01) (6, 3.26960265636444091797e-01) (0, -2.94447021484375000000e+01) (1, -3.31150799989700317383e-01) (2, -2.89471536874771118164e-01) (3, 5.22746145725250244141e-01) (4, 1.32931038737297058105e-01) (5, -2.66529351472854614258e-01) (6, 2.69226014614105224609e-01) (0, -1.20931637287139892578e+00) (1, 3.11018489301204681396e-02) (2, -2.31280416250228881836e-01) (3, 2.52802997827529907227e-01) (4, -4.06255153939127922058e-03) (5, -1.20227210223674774170e-01) (6, -2.94439923018217086792e-02) (0, 1.02273568511009216309e-01) (1, 4.60191890597343444824e-02) (2, 1.99125736951828002930e-01) (3, 6.78181469440460205078e-01) (4, 2.09741860628128051758e-01) (5, 6.98257803916931152344e-01) (6, 3.12272042036056518555e-01) (0, 1.95718795061111450195e-01) (1, 8.41241031885147094727e-02) (2, 2.98302937299013137817e-02) (3, 2.94891018420457839966e-02) (4, 8.87434780597686767578e-02) (5, 8.47035497426986694336e-02) (6, 1.07738576829433441162e-01) (0, 2.89850160479545593262e-02) (1, 9.07663777470588684082e-02) (2, 6.58558532595634460449e-02) (3, -2.04981528222560882568e-02) (4, 9.11381095647811889648e-03) (5, -1.02673778310418128967e-02) (6, 7.46901482343673706055e-02) (0, -1.71868312358856201172e+00) (1, -1.61133304238319396973e-01) (2, -2.26301878690719604492e-01) (3, 2.06173375248908996582e-01) (4, -9.92646068334579467773e-02) (5, -1.20755612850189208984e-01) (6, 3.94858747720718383789e-01) (0, 8.76641795039176940918e-02) (1, 4.03432577848434448242e-01) (2, 3.92646521329879760742e-01) (3, 3.25069367885589599609e-01) (4, 3.96116107702255249023e-01) (5, 2.99027860164642333984e-01) (6, 2.81872570514678955078e-01) (0, -1.69813364744186401367e-01) (1, -1.67779669165611267090e-01) (2, -5.01219451427459716797e-01) (3, -1.84163153171539306641e-01) (4, -2.31549084186553955078e-01) (5, -1.87546104192733764648e-01) (6, -1.36114895343780517578e-01) (0, 2.41018876433372497559e-01) (1, 4.84693288803100585938e-01) (2, 3.72997909784317016602e-01) (3, 3.23202818632125854492e-01) (4, 3.40027391910552978516e-01) (5, 3.10012519359588623047e-01) (6, 3.38399291038513183594e-01) (0, 2.09843322634696960449e-01) (1, 3.85388493537902832031e-01) (2, 4.17523056268692016602e-01) (3, 4.01801228523254394531e-01) (4, 3.95378381013870239258e-01) (5, 4.12287682294845581055e-01) (6, 4.12153840065002441406e-01) (0, -5.51893830299377441406e-01) (1, 5.54162621498107910156e-01) (2, 4.68665286898612976074e-02) (3, -1.93988215178251266479e-02) (4, 7.07119423896074295044e-03) (5, 1.37980701401829719543e-02) (6, 8.88998955488204956055e-02) (0, -5.34427070617675781250e+00) (1, 1.65980741381645202637e-01) (2, 4.24902826547622680664e-01) (3, 3.68199986405670642853e-03) (4, 2.87506170570850372314e-02) (5, -3.58340032398700714111e-02) (6, 1.54771611094474792480e-01) (0, 2.68497020006179809570e-01) (1, 4.04481977224349975586e-01) (2, 4.83897775411605834961e-01) (3, -9.59395840764045715332e-02) (4, 1.02961480617523193359e-01) (5, 3.28640758991241455078e-01) (6, 1.98438212275505065918e-01) (0, -1.07080678939819335938e+01) (1, 1.43541805446147918701e-02) (2, 5.58519661426544189453e-01) (3, -1.27793908119201660156e+00) (4, -8.62034410238265991211e-03) (5, -2.01743721961975097656e-01) (6, 2.24018432199954986572e-02) (0, -2.14172136038541793823e-02) (1, 3.64219993352890014648e-01) (2, 2.56032973527908325195e-01) (3, 3.05736750364303588867e-01) (4, 2.15279608964920043945e-01) (5, 3.13702225685119628906e-01) (6, 3.23547840118408203125e-01) (0, 1.17075240612030029297e+00) (1, 2.27476675063371658325e-02) (2, -9.47971940040588378906e-02) (3, 5.24690113961696624756e-02) (4, -2.74591031484305858612e-03) (5, 5.29398560523986816406e-01) (6, 4.40748706459999084473e-02) (0, -3.67115885019302368164e-01) (1, 2.89723336696624755859e-01) (2, 2.71309554576873779297e-01) (3, 3.21878433227539062500e-01) (4, 3.90559464693069458008e-01) (5, 3.45468938350677490234e-01) (6, 3.95260959863662719727e-01) (0, 4.73147071897983551025e-02) (1, 1.53212733566761016846e-02) (2, 6.93167448043823242188e-01) (3, 7.45161026716232299805e-02) (4, 2.64565087854862213135e-02) (5, 8.24562311172485351562e-02) (6, 6.15564063191413879395e-02) (0, 1.39203393459320068359e+00) (1, 2.90478855371475219727e-01) (2, 3.27657103538513183594e-01) (3, -7.02540278434753417969e-02) (4, 4.23466444015502929688e-01) (5, 3.72255772352218627930e-01) (6, 4.19957906007766723633e-01) (0, 2.93823808431625366211e-01) (1, -6.68135657906532287598e-02) (2, -2.66124084591865539551e-02) (3, 2.23513230681419372559e-01) (4, 6.06019049882888793945e-02) (5, 6.01562142372131347656e-01) (6, 1.76491379737854003906e-01) (0, 2.76343971490859985352e-01) (1, 5.70795163512229919434e-02) (2, 1.62569701671600341797e-01) (3, 1.66394457221031188965e-01) (4, 6.54727518558502197266e-01) (5, 7.35418021678924560547e-01) (6, 7.68000781536102294922e-01) (0, -1.16285524368286132812e+01) (1, -4.65562231838703155518e-02) (2, 5.64614355564117431641e-01) (3, -1.70999258756637573242e-01) (4, -1.28807937726378440857e-02) (5, -8.54844078421592712402e-02) (6, -7.96941965818405151367e-02) (0, -3.33592355251312255859e-01) (1, 6.94154918193817138672e-01) (2, 6.15027964115142822266e-01) (3, 2.71003663539886474609e-01) (4, 1.01257227361202239990e-01) (5, 2.55560547113418579102e-01) (6, 8.32834720611572265625e-01) (0, 5.77855169773101806641e-01) (1, -1.00055575370788574219e-01) (2, -2.20038428902626037598e-01) (3, -2.85128802061080932617e-01) (4, -2.05405101180076599121e-01) (5, -1.28142356872558593750e-01) (6, -2.13995963335037231445e-01) (0, -1.83378279209136962891e+00) (1, 2.36494764685630798340e-01) (2, 2.49968066811561584473e-01) (3, 1.82509757578372955322e-02) (4, 2.07533821463584899902e-01) (5, 1.99933379888534545898e-01) (6, 2.72942900657653808594e-01) (7, 3.65323036909103393555e-01) (8, 2.63827323913574218750e-01) (9, 1.94614306092262268066e-01) (10, -1.39224782586097717285e-01) (11, -1.61517933011054992676e-01) (12, 3.78304451704025268555e-01) (13, 3.12685906887054443359e-01) (14, 1.93634152412414550781e-01) (15, 3.21418493986129760742e-01) (16, 4.01891529560089111328e-01) (17, 7.44510412216186523438e-01) (18, 5.90536415576934814453e-01) (19, 5.98110258579254150391e-01) (20, 5.25398850440979003906e-01) (21, 5.51581569015979766846e-02) (22, 1.43124058842658996582e-01) (23, 5.46003021299839019775e-02) (24, -2.62949913740158081055e-01) (25, 1.51054367423057556152e-01) (26, 1.17756485939025878906e-01) (27, 7.81513303518295288086e-02) (28, 1.70829921960830688477e-01) (29, -2.33382150530815124512e-01) (30, 7.14186549186706542969e-01) (31, 2.21835851669311523438e-01) (32, 1.65885359048843383789e-01) (33, 3.23754638433456420898e-01) (34, 2.08114050328731536865e-02) (35, 7.23985582590103149414e-02) (36, -8.69041979312896728516e-02) (37, 6.85248553752899169922e-01) (38, 2.92242586612701416016e-01) (39, 7.47438818216323852539e-02) (40, 2.00377643108367919922e-01) (41, 1.51151865720748901367e-01) (42, 2.61907368898391723633e-01) (43, 4.56987082958221435547e-01) (44, 1.01337718963623046875e+00) (45, -3.26001971960067749023e-01) (46, -5.60529902577400207520e-02) (47, -2.64118164777755737305e-01) (48, 5.99707961082458496094e-01) (49, 6.88492476940155029297e-01) (50, 1.26361048221588134766e+00) (51, -6.34179532527923583984e-01) (52, 3.52532356977462768555e-01) (53, 6.82263612747192382812e-01) (54, 8.29205587506294250488e-02) (55, -1.31769940257072448730e-01) (56, -1.16212606430053710938e-01) (57, 3.52596700191497802734e-01) (58, -1.35372087359428405762e-01) (59, 2.52751439809799194336e-01) (60, 8.17997083067893981934e-02) (61, -1.43752768635749816895e-01) (62, 3.72334599494934082031e-01) (63, -5.78608512878417968750e-01) (64, 2.52833813428878784180e-01) (65, 1.46533653140068054199e-01) (66, 6.92290604114532470703e-01) (67, -3.34152877330780029297e-02) (68, 6.08372867107391357422e-01) (69, 1.10487617552280426025e-01) (70, 7.48227685689926147461e-02) (71, 2.58892357349395751953e-01) (72, -6.21406212449073791504e-02) (73, 3.61515134572982788086e-02) (74, 2.46752485632896423340e-01) (75, 4.11256551742553710938e-01) (76, 1.57222971320152282715e-01) (77, 1.07295982539653778076e-01) (78, -1.73355359584093093872e-03) (79, 5.04125118255615234375e-01) (80, -3.10178428888320922852e-01) (81, 5.71167230606079101562e-01) (82, -1.20778931304812431335e-02) (83, 1.59511834383010864258e-01) (84, 3.43378990888595581055e-01) (85, 6.89767375588417053223e-02) (86, 4.41079974174499511719e-01) (87, -4.62029390037059783936e-02) (88, 6.17054343223571777344e-01) (89, 6.12942814826965332031e-01) (90, 8.25513340532779693604e-03) (91, 2.58489459753036499023e-01) (92, 1.63580566644668579102e-01) (93, -4.85487490892410278320e-01) (94, 1.89500562846660614014e-02) (95, 2.13229179382324218750e-01) (96, -2.03077822923660278320e-01) (97, 1.05050936341285705566e-01) (98, 7.77566969394683837891e-01) (99, 5.53771145641803741455e-02) (100, 7.03317373991012573242e-02) (101, 3.66798698902130126953e-01) (102, 4.37779903411865234375e-01) (103, 2.46325284242630004883e-01) (104, 2.27824971079826354980e-01) (105, 2.57059514522552490234e-01) (106, 5.89909017086029052734e-01) (107, 1.49891793727874755859e-01) (108, 1.23356491327285766602e-01) (109, 6.83178544044494628906e-01) (110, 2.41608694195747375488e-01) (111, 1.04286813735961914062e+00) (112, 1.67905315756797790527e-02) (113, 3.22438664734363555908e-02) (114, -6.00414834916591644287e-02) (115, 5.81065654754638671875e-01) (116, 6.49620175361633300781e-01) (117, 6.08546137809753417969e-01) (118, 3.26811015605926513672e-01) (119, 2.01413297653198242188e+00) (120, -7.74401873350143432617e-02) (121, 2.77015656232833862305e-01) (122, 1.14336065948009490967e-01) (123, 1.69110476970672607422e-01) (124, 2.79823482036590576172e-01) (125, -6.68459236621856689453e-02) (126, 7.24404692649841308594e-01) (127, 4.00735646486282348633e-01) (128, 9.21312496066093444824e-02) (129, 5.44695034623146057129e-02) (130, 4.17129397392272949219e-02) (131, -3.76690924167633056641e-02) (132, -1.29163727164268493652e-01) (133, 5.59764444828033447266e-01) (134, 1.66790276765823364258e-01) (135, -1.50136306881904602051e-01) (136, 2.64263488352298736572e-02) (137, 5.94766914844512939453e-01) (138, 3.34795355796813964844e-01) (139, 3.88783872127532958984e-01) (140, 6.88481390476226806641e-01) (141, 1.59321412444114685059e-01) (142, 7.64667093753814697266e-02) (143, 3.91811698675155639648e-01) (144, 6.79604291915893554688e-01) (145, -1.65546506643295288086e-01) (146, 1.60736113786697387695e-01) (147, -4.06338162720203399658e-02) (148, 5.78502535820007324219e-01) (149, 6.62407159805297851562e-01) (150, 5.20353376865386962891e-01) (151, -1.39957800507545471191e-01) (152, 1.61377325654029846191e-01) (153, -7.81061593443155288696e-03) (154, 1.79125517606735229492e-01) (155, 3.44201833009719848633e-01) (156, 1.96349248290061950684e-01) (157, -1.19713200256228446960e-02) (158, 7.74646103382110595703e-02) (159, 1.37428594753146171570e-02) (160, 2.60823339223861694336e-01) (161, 2.48669520020484924316e-01) (162, 2.24156752228736877441e-02) (163, 1.69663457199931144714e-04) (164, 2.54544049501419067383e-01) (165, 1.39999181032180786133e-01) (166, 9.50990319252014160156e-02) (167, 1.80906616151332855225e-02) (168, 3.24976444244384765625e-01) (169, 6.49858057498931884766e-01) (170, 8.33236813545227050781e-01) (171, -1.15747213363647460938e-01) (172, 1.63390353322029113770e-01) (173, 3.74031931161880493164e-01) (174, 3.72611582279205322266e-02) (175, 1.82849153876304626465e-01) (176, 3.87555867433547973633e-01) (177, 5.71203172206878662109e-01) (178, 8.63813683390617370605e-02) (179, 2.44931459426879882812e-01) (180, 2.52510942518711090088e-02) (181, 7.88908958435058593750e-01) (182, -1.20079845190048217773e-01) (183, 7.09723234176635742188e-01) (184, 2.15131178498268127441e-01) (185, 2.03331902623176574707e-01) (186, 2.20271691679954528809e-01) (187, 5.36030530929565429688e-02) (188, 6.24960772693157196045e-02) (189, 1.67627066373825073242e-01) (190, 8.80466327071189880371e-02) (191, 3.90175402164459228516e-01) (192, 2.23777160048484802246e-01) (193, -1.60603940486907958984e-01) (194, 1.90133258700370788574e-01) (195, -2.18221411108970642090e-01) (196, 2.61695772409439086914e-01) (197, 2.31855735182762145996e-01) (198, 2.13561072945594787598e-01) (199, 2.68206775188446044922e-01) (200, 2.86314904689788818359e-01) (201, 7.40515232086181640625e-01) (202, 2.66945600509643554688e-01) (203, 4.17515546083450317383e-01) (204, 1.51640444993972778320e-01) (205, -1.35925307869911193848e-01) (206, 5.30926167964935302734e-01) (207, 2.70902961492538452148e-02) (7, -3.59509021043777465820e-01) (8, 4.27571386098861694336e-01) (9, 4.36579316854476928711e-01) (10, 4.04163986444473266602e-01) (11, 3.89940112829208374023e-01) (12, 3.22925180196762084961e-01) (13, 5.30541641637682914734e-03) (14, -9.34199243783950805664e-02) (15, 6.40980601310729980469e-01) (16, 1.47356092929840087891e-01) (17, 3.85684043169021606445e-01) (18, -2.30885550379753112793e-01) (19, 2.86603301763534545898e-01) (20, 2.49166861176490783691e-01) (21, -2.40055054426193237305e-01) (22, -1.38431727886199951172e-01) (23, -7.18119293451309204102e-02) (24, 3.37174162268638610840e-02) (25, -7.61893242597579956055e-02) (26, -7.25551694631576538086e-02) (27, -2.15485006570816040039e-01) (28, 4.39531058073043823242e-01) (29, -4.63545650243759155273e-01) (30, -1.98297172784805297852e-01) (31, -4.41241562366485595703e-01) (32, -3.31608280539512634277e-02) (33, 1.86882078647613525391e-01) (34, -5.87966665625572204590e-02) (35, -2.40840077400207519531e-01) (36, 5.71189105510711669922e-01) (37, 3.66258054971694946289e-01) (38, 2.47774511575698852539e-01) (39, -1.48826032876968383789e-01) (40, 1.84483289718627929688e-01) (41, 2.63604283332824707031e-01) (42, -3.20019930601119995117e-01) (43, -3.64716500043869018555e-01) (44, 2.31758445501327514648e-01) (45, 9.85669866204261779785e-02) (46, 3.78470033407211303711e-01) (47, -4.28703784942626953125e-01) (48, 3.83688002824783325195e-01) (49, 4.85065877437591552734e-01) (50, 5.08481264114379882812e-01) (51, -3.61464291810989379883e-01) (52, -2.86080092191696166992e-01) (53, -9.10215452313423156738e-02) (54, -1.49564474821090698242e-01) (55, -1.30045616626739501953e+00) (56, -4.98405843973159790039e-02) (57, 2.75262594223022460938e-01) (58, 6.69932812452316284180e-02) (59, 3.67756277322769165039e-01) (60, -5.56789711117744445801e-02) (61, -4.19767946004867553711e-02) (62, -4.28833425045013427734e-01) (63, -3.81480120122432708740e-02) (64, -1.78628981113433837891e-01) (65, 1.22877478599548339844e-01) (66, -1.04131802916526794434e-01) (67, -3.01218256354331970215e-02) (68, -2.30093881487846374512e-01) (69, -2.14239418506622314453e-01) (70, -1.60888537764549255371e-01) (71, -3.28287810087203979492e-01) (72, -3.88649925589561462402e-02) (73, 1.82262063026428222656e-01) (74, -2.50481009483337402344e-01) (75, 4.17516857385635375977e-01) (76, 8.11942154541611671448e-04) (77, -1.21338628232479095459e-01) (78, 4.88671362400054931641e-01) (79, 3.08796048164367675781e-01) (80, 6.15088462829589843750e-01) (81, 6.76770865917205810547e-01) (82, 4.88909631967544555664e-01) (83, -2.13725984096527099609e-01) (84, 3.56209367513656616211e-01) (85, -4.89890500903129577637e-02) (86, -1.59290909767150878906e-01) (87, -3.78425508737564086914e-01) (88, 4.29127573966979980469e-01) (89, 5.52185595035552978516e-01) (90, 5.31152725219726562500e-01) (91, 5.98969995975494384766e-01) (92, 5.86321949958801269531e-01) (93, 4.05756682157516479492e-01) (94, -2.46925249695777893066e-01) (95, -3.22792083024978637695e-02) (96, 4.94974404573440551758e-01) (97, -4.37889307737350463867e-01) (98, 1.37230277061462402344e-01) (99, 1.19677102565765380859e+00) (100, -6.98604136705398559570e-02) (101, 1.86535239219665527344e-01) (102, -4.15099591016769409180e-01) (103, -4.57465112209320068359e-01) (104, 1.70691683888435363770e-02) (105, 8.67408812046051025391e-02) (106, -7.27132111787796020508e-02) (107, 2.90185332298278808594e-01) (108, -2.00677752494812011719e-01) (109, -1.40947103500366210938e-01) (110, 1.30327075719833374023e-01) (111, 6.14273071289062500000e-01) (112, -1.61770820617675781250e-01) (113, -2.09097564220428466797e-01) (114, 5.25782227516174316406e-01) (115, 3.78902137279510498047e-01) (116, -2.10368573665618896484e-01) (117, -1.01904317736625671387e-01) (118, -2.57800042629241943359e-01) (119, 7.52442538738250732422e-01) (120, 5.09243130683898925781e-01) (121, 2.65932172536849975586e-01) (122, -7.42385983467102050781e-02) (123, 1.62561297416687011719e-01) (124, -2.87973701953887939453e-01) (125, -3.79359489306807518005e-03) (126, 4.48901236057281494141e-01) (127, -3.92409652471542358398e-01) (128, -1.29066839814186096191e-01) (129, 4.71232563257217407227e-01) (130, -1.85610473155975341797e-01) (131, -8.15569758415222167969e-02) (132, -5.12287765741348266602e-02) (133, 4.46613550186157226562e-01) (134, -2.34150812029838562012e-01) (135, -8.93630012869834899902e-02) (136, -2.37525731325149536133e-01) (137, 6.33966684341430664062e-01) (138, -2.69176542758941650391e-01) (139, 4.95145618915557861328e-02) (140, 4.52425122261047363281e-01) (141, 1.04673124849796295166e-01) (142, -1.67090922594070434570e-01) (143, 6.00344419479370117188e-01) (144, 3.64816784858703613281e-01) (145, 5.45254409313201904297e-01) (146, -1.74719810485839843750e-01) (147, -1.37215936183929443359e+00) (148, 2.22960039973258972168e-02) (149, -1.58689856529235839844e-01) (150, 5.55033326148986816406e-01) (151, -1.81009441614151000977e-01) (152, 4.26096349954605102539e-01) (153, 5.59765100479125976562e-01) (154, -2.10888534784317016602e-01) (155, -3.34959477186203002930e-01) (156, 1.50115624070167541504e-01) (157, 5.33530235290527343750e-01) (158, -1.88845843076705932617e-01) (159, -1.83363795280456542969e-01) (160, 2.08247885107994079590e-01) (161, 2.51447916030883789062e-01) (162, 6.83597326278686523438e-01) (163, 3.92950952053070068359e-01) (164, 2.64297306537628173828e-01) (165, -7.32877403497695922852e-02) (166, 1.11722901463508605957e-01) (167, -1.57362312078475952148e-01) (168, 1.28054082393646240234e-01) (169, 5.17837345600128173828e-01) (170, 4.38883692026138305664e-01) (171, -1.19720511138439178467e-01) (172, -2.41149246692657470703e-01) (173, 1.45240604877471923828e-01) (174, -2.08082497119903564453e-01) (175, -5.21458461880683898926e-02) (176, -2.14888416230678558350e-02) (177, 3.99827927350997924805e-01) (178, -1.01385757327079772949e-01) (179, 4.74972367286682128906e-01) (180, -3.82163435220718383789e-01) (181, 5.21373987197875976562e-01) (182, 1.85296460986137390137e-01) (183, 9.85422953963279724121e-02) (184, 2.46182665228843688965e-01) (185, 2.75756359100341796875e-01) (186, 4.42725777626037597656e-01) (187, 2.39183813333511352539e-01) (188, -8.05517882108688354492e-02) (189, -2.56470143795013427734e-02) (190, -1.21946237981319427490e-01) (191, -2.98771947622299194336e-01) (192, 3.94660145044326782227e-01) (193, 4.08365577459335327148e-01) (194, 3.80442827939987182617e-01) (195, 7.54055798053741455078e-01) (196, 1.91533297300338745117e-01) (197, 1.61285609006881713867e-01) (198, -2.39104807376861572266e-01) (199, 1.81949466466903686523e-01) (200, -8.47321003675460815430e-02) (201, 5.59639632701873779297e-01) (202, 7.46947899460792541504e-02) (203, 5.88608980178833007812e-01) (204, 2.71580696105957031250e-01) (205, 5.10382533073425292969e-01) (206, 3.60698968172073364258e-01) (207, -2.10028558969497680664e-01) (7, 4.54038232564926147461e-02) (8, 3.77195715904235839844e-01) (9, -1.83637619018554687500e-01) (10, 1.63361221551895141602e-01) (11, -2.23068416118621826172e-01) (12, -1.71242356300354003906e-01) (13, -3.18952053785324096680e-02) (14, 5.93209803104400634766e-01) (15, 1.31575047969818115234e-01) (16, -1.38348609209060668945e-01) (17, -1.80112570524215698242e-03) (18, 7.51919806003570556641e-01) (19, 4.63518016040325164795e-02) (20, -5.51794245839118957520e-02) (21, 5.96865832805633544922e-01) (22, 6.60269021987915039062e-01) (23, 6.67034029960632324219e-01) (24, 5.62428474426269531250e-01) (25, 7.44178712368011474609e-01) (26, 7.28099167346954345703e-01) (27, 6.15432083606719970703e-01) (28, -2.10984289646148681641e-01) (29, 6.53011023998260498047e-01) (30, 5.78418076038360595703e-01) (31, 5.07169783115386962891e-01) (32, 3.02293151617050170898e-01) (33, -1.11803434789180755615e-01) (34, 5.72453856468200683594e-01) (35, 7.56627857685089111328e-01) (36, -3.25260490179061889648e-01) (37, -2.54352241754531860352e-02) (38, -1.38354271650314331055e-01) (39, 6.64966166019439697266e-01) (40, -1.45007058978080749512e-01) (41, -2.41786122322082519531e-01) (42, 1.83456450700759887695e-01) (43, 1.96015506982803344727e-01) (44, -7.78181403875350952148e-02) (45, -4.17852494865655899048e-03) (46, -1.05730593204498291016e-01) (47, 4.01820778846740722656e-01) (48, -2.43845432996749877930e-02) (49, 2.85225324332714080811e-02) (50, 1.04343652725219726562e-01) (51, 3.96247059106826782227e-01) (52, 2.02908366918563842773e-01) (53, 6.02291047573089599609e-01) (54, 7.23987817764282226562e-01) (55, 3.88914376497268676758e-01) (56, 2.30905249714851379395e-01) (57, -1.95241421461105346680e-02) (58, -3.56222718954086303711e-01) (59, -1.83612048625946044922e-01) (60, 2.87276618182659149170e-02) (61, 2.91981041431427001953e-01) (62, 6.90176486968994140625e-02) (63, 5.27938082814216613770e-02) (64, 1.52964740991592407227e-01) (65, 4.36690300703048706055e-01) (66, 1.00837409496307373047e-01) (67, 2.96159654855728149414e-01) (68, 6.11456334590911865234e-01) (69, 7.19139099121093750000e-01) (70, 1.57692715525627136230e-01) (71, 1.96688473224639892578e-01) (72, 2.21564695239067077637e-01) (73, 2.89143502712249755859e-01) (74, 2.68611341714859008789e-01) (75, 1.10488822683691978455e-02) (76, 6.05981767177581787109e-01) (77, 6.49195432662963867188e-01) (78, -1.50508642196655273438e-01) (79, 1.16634041070938110352e-01) (80, 6.27426326274871826172e-01) (81, 3.63344885408878326416e-02) (82, -3.17524760961532592773e-01) (83, 6.65510058403015136719e-01) (84, 1.68196052312850952148e-01) (85, 7.47478127479553222656e-01) (86, 6.79205536842346191406e-01) (87, 6.52759522199630737305e-02) (88, 2.40391567349433898926e-02) (89, 1.28747686743736267090e-01) (90, 5.72907865047454833984e-01) (91, 9.26792323589324951172e-02) (92, -3.15740942955017089844e-01) (93, -1.48929491639137268066e-01) (94, 6.06712996959686279297e-01) (95, 3.20714078843593597412e-02) (96, 5.52649736404418945312e-01) (97, 5.05274415016174316406e-01) (98, -2.31547877192497253418e-02) (99, 4.40616697072982788086e-01) (100, 5.64020514488220214844e-01) (101, -8.40244740247726440430e-02) (102, -5.58840967714786529541e-02) (103, 1.65623739361763000488e-01) (104, 5.94183862209320068359e-01) (105, 1.99145436286926269531e-01) (106, 6.39881491661071777344e-01) (107, -8.34388192743062973022e-04) (108, 7.05220520496368408203e-01) (109, 6.12411141395568847656e-01) (110, -1.97646945714950561523e-01) (111, 2.57314741611480712891e-01) (112, 7.26962924003601074219e-01) (113, -5.77849261462688446045e-02) (114, 1.03037431836128234863e-01) (115, 5.15274144709110260010e-03) (116, 5.86572945117950439453e-01) (117, 7.09984004497528076172e-01) (118, 1.85467064380645751953e-01) (119, 6.71283826231956481934e-02) (120, -2.01344087719917297363e-01) (121, -2.89571225643157958984e-01) (122, 7.54018008708953857422e-01) (123, -3.25476974248886108398e-02) (124, 1.76438510417938232422e-01) (125, 2.45166465640068054199e-01) (126, 2.05490678548812866211e-01) (127, 7.19583779573440551758e-02) (128, 6.46063625812530517578e-01) (129, 5.03117799758911132812e-01) (130, 6.93807780742645263672e-01) (131, 2.94519454240798950195e-01) (132, 3.51853370666503906250e-01) (133, 1.00885525345802307129e-01) (134, 6.73038780689239501953e-01) (135, 2.75344759225845336914e-01) (136, 6.13339126110076904297e-01) (137, 1.33749395608901977539e-01) (138, 1.92116141319274902344e-01) (139, -1.37893473729491233826e-02) (140, -5.01946732401847839355e-02) (141, -2.21960023045539855957e-01) (142, 6.83827996253967285156e-01) (143, 9.17804062366485595703e-01) (144, 6.84942156076431274414e-02) (145, 6.63824975490570068359e-01) (146, 3.66069823503494262695e-01) (147, -4.63741086423397064209e-02) (148, 1.06226541101932525635e-02) (149, 6.07730686664581298828e-01) (150, 4.88103777170181274414e-02) (151, 1.61755681037902832031e+00) (152, 9.03867334127426147461e-02) (153, -2.00855627655982971191e-01) (154, 6.22067272663116455078e-01) (155, 2.35276699066162109375e-01) (156, 3.87079030275344848633e-01) (157, -3.06585878133773803711e-01) (158, 7.10081636905670166016e-01) (159, 6.27856314182281494141e-01) (160, 3.62034281715750694275e-03) (161, 3.48894596099853515625e-02) (162, 2.35687285661697387695e-01) (163, -3.39171797037124633789e-01) (164, -1.19174294173717498779e-01) (165, 6.32332921028137207031e-01) (166, -1.44452661275863647461e-01) (167, 3.40204387903213500977e-01) (168, -3.53360101580619812012e-02) (169, 9.07553359866142272949e-02) (170, 3.88955846428871154785e-02) (171, 3.16824734210968017578e-01) (172, 6.75999224185943603516e-01) (173, -1.53606638312339782715e-01) (174, 6.86939775943756103516e-01) (175, 2.36053660511970520020e-01) (176, 2.02131584286689758301e-01) (177, 6.25747144222259521484e-01) (178, 6.44469141960144042969e-01) (179, 1.42090201377868652344e-01) (180, 2.88796007633209228516e-01) (181, -2.98775546252727508545e-02) (182, 8.23745727539062500000e-01) (183, 3.45609217882156372070e-01) (184, 1.20867311954498291016e-01) (185, -1.73409849405288696289e-01) (186, -1.97703406214714050293e-01) (187, -3.80918048322200775146e-02) (188, 6.22299611568450927734e-01) (189, 2.86468386650085449219e-01) (190, 5.80418825149536132812e-01) (191, 1.92366063594818115234e-01) (192, 1.12935490906238555908e-01) (193, 2.66455203294754028320e-01) (194, 2.12370827794075012207e-02) (195, 3.75109255313873291016e-01) (196, 3.04593332111835479736e-03) (197, -2.63358820229768753052e-02) (198, 2.62724459171295166016e-01) (199, -1.80672347545623779297e-01) (200, 7.31286704540252685547e-01) (201, 2.55618318915367126465e-02) (202, -1.80404514074325561523e-01) (203, 1.34341537952423095703e-01) (204, 1.32627919316291809082e-01) (205, -1.80776953697204589844e-01) (206, 3.34484517574310302734e-01) (207, 7.57225573062896728516e-01) (7, -2.55890414118766784668e-02) (8, 6.51157617568969726562e-01) (9, 3.40891778469085693359e-01) (10, 7.31692075729370117188e-01) (11, 6.81768119335174560547e-01) (12, 7.60905086994171142578e-01) (13, -2.33893338590860366821e-02) (14, -3.15762102603912353516e-01) (15, 2.10896238684654235840e-01) (16, 2.09932371973991394043e-01) (17, 1.04800425469875335693e-01) (18, -2.02232673764228820801e-01) (19, 3.17408055067062377930e-01) (20, 3.38672637939453125000e-01) (21, -2.85959184169769287109e-01) (22, -2.80323863029479980469e-01) (23, -3.62165331840515136719e-01) (24, -5.20434156060218811035e-02) (25, -2.30039313435554504395e-01) (26, -3.09217035770416259766e-01) (27, -1.80926814675331115723e-01) (28, 4.12711560726165771484e-01) (29, -2.21778228878974914551e-01) (30, -2.09188923239707946777e-01) (31, -3.70936214923858642578e-01) (32, 3.94641518592834472656e-01) (33, 3.35118442773818969727e-01) (34, -3.38435530662536621094e-01) (35, -1.96576967835426330566e-01) (36, 6.22661173343658447266e-01) (37, 3.40243458747863769531e-01) (38, 2.85978287458419799805e-01) (39, -3.45356583595275878906e-01) (40, 3.29430013895034790039e-01) (41, 4.26794886589050292969e-01) (42, 3.22688072919845581055e-01) (43, -1.81404188275337219238e-01) (44, 2.95561343431472778320e-01) (45, -1.72714114189147949219e-01) (46, 6.51156842708587646484e-01) (47, 4.69477660953998565674e-02) (48, 3.07004332542419433594e-01) (49, 3.03800255060195922852e-01) (50, 1.63358509540557861328e-01) (51, -6.29633516073226928711e-02) (52, 1.57926648855209350586e-01) (53, -2.42377474904060363770e-01) (54, -2.68222928047180175781e-01) (55, 6.58352822065353393555e-02) (56, 6.73307478427886962891e-01) (57, 5.93866169452667236328e-01) (58, 3.58342051506042480469e-01) (59, 2.95143544673919677734e-01) (60, -2.12252944707870483398e-01) (61, 3.39389383792877197266e-01) (62, 2.08821687847375869751e-02) (63, 1.38773187994956970215e-01) (64, 1.88665553927421569824e-01) (65, 4.02196824550628662109e-01) (66, -2.10796102881431579590e-01) (67, 2.27598831057548522949e-01) (68, -2.28862240910530090332e-01) (69, -2.03512355685234069824e-01) (70, 3.13052505254745483398e-01) (71, 2.43271738290786743164e-01) (72, 7.12887883186340332031e-01) (73, 3.48077118396759033203e-01) (74, 2.82372832298278808594e-01) (75, 1.71321839094161987305e-01) (76, -4.37049955129623413086e-01) (77, -2.83237159252166748047e-01) (78, 6.29340171813964843750e-01) (79, 4.00124609470367431641e-01) (80, 1.96271732449531555176e-01) (81, 2.57891774177551269531e-01) (82, 7.44040012359619140625e-01) (83, -3.38304460048675537109e-01) (84, 1.89774051308631896973e-01) (85, -3.15058410167694091797e-01) (86, -3.10523509979248046875e-01) (87, 9.61209312081336975098e-02) (88, 2.87931710481643676758e-01) (89, 3.39336156845092773438e-01) (90, 4.80286389589309692383e-01) (91, 5.70504516363143920898e-02) (92, 4.01378065347671508789e-01) (93, -1.09955227375030517578e+00) (94, -1.86697110533714294434e-01) (95, 1.74218878149986267090e-01) (96, 4.04509693384170532227e-01) (97, 2.55062319338321685791e-02) (98, 2.46780604124069213867e-01) (99, 2.49532759189605712891e-01) (100, -2.46156781911849975586e-01) (101, 3.49640667438507080078e-01) (102, -5.05199953913688659668e-02) (103, -3.84144365787506103516e-01) (104, -2.95526504516601562500e-01) (105, -2.93273866176605224609e-01) (106, -3.39996516704559326172e-01) (107, 4.83174949884414672852e-01) (108, -3.39086592197418212891e-01) (109, -2.47275441884994506836e-01) (110, 1.64989158511161804199e-01) (111, 2.47293725609779357910e-01) (112, -3.16608071327209472656e-01) (113, -2.22765356302261352539e-01) (114, 1.29347801208496093750e-01) (115, 3.74687433242797851562e-01) (116, -3.60399365425109863281e-01) (117, -2.12144643068313598633e-01) (118, 2.14404657483100891113e-01) (119, 3.94911885261535644531e-01) (120, 6.47334575653076171875e-01) (121, 4.55729544162750244141e-01) (122, -3.15678060054779052734e-01) (123, 4.81054991483688354492e-01) (124, 2.16502800583839416504e-01) (125, 1.99348881840705871582e-01) (126, 2.31111973524093627930e-01) (127, 3.69902014732360839844e-01) (128, -3.67595255374908447266e-01) (129, -2.31777913868427276611e-02) (130, -2.53288656473159790039e-01) (131, 2.87972152233123779297e-01) (132, 2.19159916043281555176e-01) (133, -2.51783251762390136719e-01) (134, -1.83047518134117126465e-01) (135, 1.60580486059188842773e-01) (136, -3.07632684707641601562e-01) (137, 1.95288211107254028320e-01) (138, 2.96182602643966674805e-01) (139, -2.92948484420776367188e-02) (140, -2.15470641851425170898e-01) (141, 8.55048954486846923828e-01) (142, -2.10035964846611022949e-01) (143, 7.48741850256919860840e-02) (144, 2.70334899425506591797e-01) (145, 2.42493808269500732422e-01) (146, 3.65751653909683227539e-01) (147, 9.10093367099761962891e-01) (148, 3.00004109740257263184e-02) (149, -3.53446662425994873047e-01) (150, 2.77009069919586181641e-01) (151, -1.00768610835075378418e-01) (152, -3.74174416065216064453e-01) (153, 6.39055311679840087891e-01) (154, -3.49765896797180175781e-01) (155, 2.79752790927886962891e-01) (156, 5.29094398021697998047e-01) (157, 6.91317677497863769531e-01) (158, -2.11224898695945739746e-01) (159, -2.66941845417022705078e-01) (160, 5.27483522891998291016e-01) (161, 4.31237787008285522461e-01) (162, 1.70038610696792602539e-01) (163, 6.49740815162658691406e-01) (164, 2.38552108407020568848e-01) (165, -3.31468224525451660156e-01) (166, -6.43765479326248168945e-02) (167, 6.76643610000610351562e-01) (168, -7.83234179019927978516e-01) (169, 3.24218183755874633789e-01) (170, 3.88840883970260620117e-01) (171, 1.86589971184730529785e-01) (172, -1.89972117543220520020e-01) (173, 3.29714834690093994141e-01) (174, -3.14939618110656738281e-01) (175, 4.97681915760040283203e-01) (176, 1.41695010662078857422e+00) (177, 1.02361164987087249756e-01) (178, -3.47730278968811035156e-01) (179, 6.42249286174774169922e-01) (180, 2.88862943649291992188e-01) (181, 2.64284402132034301758e-01) (182, 2.74665415287017822266e-01) (183, -2.22621694207191467285e-01) (184, 4.05209958553314208984e-01) (185, 3.95840466022491455078e-01) (186, 6.99280500411987304688e-01) (187, 3.19476127624511718750e-01) (188, -3.03717315196990966797e-01) (189, 1.52113229036331176758e-01) (190, -3.01981031894683837891e-01) (191, 2.00015440583229064941e-01) (192, 7.10654914379119873047e-01) (193, 3.91081362962722778320e-01) (194, 2.09728732705116271973e-01) (195, -7.67250210046768188477e-02) (196, 5.13881683349609375000e-01) (197, 3.55695456266403198242e-01) (198, 3.37045431137084960938e-01) (199, 3.29434394836425781250e-01) (200, -5.48016354441642761230e-02) (201, 2.81791090965270996094e-01) (202, -4.69698831439018249512e-02) (203, 6.12600594758987426758e-02) (204, 4.93404150009155273438e-01) (205, 7.43814766407012939453e-01) (206, 9.63906943798065185547e-02) (207, -1.97869375348091125488e-01) (7, 2.36312374472618103027e-01) (8, 3.98196689784526824951e-02) (9, 4.45434719324111938477e-01) (10, -3.48765134811401367188e-01) (11, 5.59473037719726562500e-02) (12, 2.11574122309684753418e-01) (13, 5.64880967140197753906e-01) (14, -3.16874712705612182617e-01) (15, -5.40339112281799316406e-01) (16, 6.03919446468353271484e-01) (17, 3.89872729778289794922e-01) (18, 2.35799834132194519043e-01) (19, 2.82027661800384521484e-01) (20, -2.68861263990402221680e-01) (21, -2.45699182152748107910e-01) (22, -2.96869486570358276367e-01) (23, -1.49447754025459289551e-01) (24, -2.66546159982681274414e-01) (25, -1.85319811105728149414e-01) (26, -1.76468864083290100098e-01) (27, -3.34345191717147827148e-01) (28, 5.55997967720031738281e-01) (29, 3.02038222551345825195e-01) (30, 2.29145392775535583496e-01) (31, 4.20886456966400146484e-01) (32, -1.26532567664980888367e-02) (33, 5.28642654418945312500e-01) (34, -2.44284942746162414551e-01) (35, -2.82335311174392700195e-01) (36, 4.28606271743774414062e-02) (37, 6.10335350036621093750e-01) (38, 5.14517605304718017578e-01) (39, 2.72642046213150024414e-01) (40, 6.19745433330535888672e-01) (41, 5.15005767345428466797e-01) (42, 1.17088496685028076172e-01) (43, 1.63995042443275451660e-01) (44, 3.02600294351577758789e-01) (45, -9.54367667436599731445e-02) (46, 6.04922533035278320312e-01) (47, -1.21294170618057250977e-01) (48, 2.10594385862350463867e-01) (49, 2.78830528259277343750e-01) (50, 1.57443091273307800293e-01) (51, -1.16390474140644073486e-01) (52, 2.50876337289810180664e-01) (53, 2.45834812521934509277e-01) (54, -2.50144153833389282227e-01) (55, -8.26224386692047119141e-02) (56, 7.45372354984283447266e-01) (57, 3.64228665828704833984e-01) (58, 1.17558822035789489746e-01) (59, 5.47167241573333740234e-01) (60, -2.79901057481765747070e-01) (61, -9.42732542753219604492e-02) (62, 5.38273155689239501953e-01) (63, -9.03072059154510498047e-02) (64, 1.02500462532043457031e+00) (65, 4.30732220411300659180e-01) (66, -3.25069755315780639648e-01) (67, 8.04136395454406738281e-02) (68, 2.47814163565635681152e-01) (69, -3.06459635496139526367e-01) (70, 1.41638949513435363770e-01) (71, 2.32581332325935363770e-01) (72, 6.03062272071838378906e-01) (73, 3.44298064708709716797e-01) (74, 1.24988771975040435791e-01) (75, 3.37838500738143920898e-01) (76, 3.43294829130172729492e-01) (77, 2.98301339149475097656e-01) (78, -9.72687155008316040039e-02) (79, 4.48595434427261352539e-01) (80, -4.27981376647949218750e-01) (81, 2.12419882416725158691e-01) (82, -8.71852505952119827271e-03) (83, -1.94628745317459106445e-01) (84, 2.41003051400184631348e-01) (85, -1.59771516919136047363e-01) (86, -2.15265348553657531738e-01) (87, 5.16405344009399414062e-01) (88, 2.27843284606933593750e-01) (89, 2.73234546184539794922e-01) (90, 4.53219980001449584961e-01) (91, -5.29447495937347412109e-01) (92, 3.42587828636169433594e-02) (93, -1.70835852622985839844e-01) (94, -3.00358504056930541992e-01) (95, 4.35775756835937500000e-01) (96, -5.55757820606231689453e-01) (97, 3.38559657335281372070e-01) (98, -2.63907968997955322266e-01) (99, -8.54942381381988525391e-01) (100, -2.59446769952774047852e-01) (101, 6.49816632270812988281e-01) (102, 4.99013900756835937500e-01) (103, 5.91012597084045410156e-01) (104, 2.72485047578811645508e-01) (105, 5.48743307590484619141e-01) (106, 2.98658043146133422852e-01) (107, 2.89747387170791625977e-01) (108, -1.60121455788612365723e-01) (109, 3.23256611824035644531e-01) (110, 4.88669484853744506836e-01) (111, 1.84728339314460754395e-01) (112, -1.93013936281204223633e-01) (113, -2.22557857632637023926e-01) (114, -5.48329114913940429688e-01) (115, 2.65781849622726440430e-01) (116, 2.95677721500396728516e-01) (117, 2.16115176677703857422e-01) (118, 1.47132590413093566895e-01) (119, 2.96818554401397705078e-01) (120, 1.36517221108078956604e-02) (121, 5.58194220066070556641e-01) (122, -1.45235255360603332520e-01) (123, 2.77281075716018676758e-01) (124, 2.18637689948081970215e-01) (125, -7.22438395023345947266e-02) (126, 3.71959269046783447266e-01) (127, 6.42822325229644775391e-01) (128, -2.62360364198684692383e-01) (129, -9.27884951233863830566e-02) (130, -2.64680951833724975586e-01) (131, 5.15429377555847167969e-02) (132, -2.62647662311792373657e-02) (133, -2.25118413567543029785e-01) (134, -2.59953469038009643555e-01) (135, 5.42368553578853607178e-02) (136, -1.41754642128944396973e-01) (137, 3.48279416561126708984e-01) (138, 2.66940504312515258789e-01) (139, 6.35944426059722900391e-01) (140, -2.49170839786529541016e-01) (141, 5.85959196090698242188e-01) (142, 3.24132919311523437500e-01) (143, 1.22603043913841247559e-01) (144, 3.05077731609344482422e-01) (145, -5.91483473777770996094e-01) (146, -7.43518322706222534180e-02) (147, 1.15853942930698394775e-01) (148, 1.96015045046806335449e-01) (149, 3.10758590698242187500e-01) (150, -2.11014464497566223145e-01) (151, 4.66083586215972900391e-02) (152, -1.08741328120231628418e-01) (153, 1.71001609414815902710e-02) (154, -1.85013383626937866211e-01) (155, 1.86116948723793029785e-01) (156, 6.52879416942596435547e-01) (157, 1.64356138557195663452e-02) (158, -2.47920155525207519531e-01) (159, -3.19321662187576293945e-01) (160, 2.61442422866821289062e-01) (161, 4.17366325855255126953e-01) (162, -4.92351084947586059570e-01) (163, -2.23486814647912979126e-02) (164, 4.78721529245376586914e-01) (165, -2.92420476675033569336e-01) (166, 4.95653957128524780273e-01) (167, 6.19406998157501220703e-01) (168, 5.17913997173309326172e-01) (169, 2.14536383748054504395e-01) (170, 2.38525137305259704590e-01) (171, 1.11775880213826894760e-03) (172, -3.11150044202804565430e-01) (173, 6.65139317512512207031e-01) (174, 3.36031258106231689453e-01) (175, 1.07582420110702514648e-01) (176, 6.32903456687927246094e-01) (177, -1.66507914662361145020e-01) (178, -1.75626948475837707520e-01) (179, -8.39819014072418212891e-02) (180, 7.00577974319458007812e-01) (181, 2.56840229034423828125e-01) (182, 4.07521784305572509766e-01) (183, -4.47589159011840820312e-02) (184, 2.59517282247543334961e-01) (185, 4.71848994493484497070e-01) (186, 7.03302383422851562500e-01) (187, 6.12282574176788330078e-01) (188, -1.56624212861061096191e-01) (189, 5.89817225933074951172e-01) (190, -1.74292042851448059082e-01) (191, 2.64699876308441162109e-01) (192, 6.62055313587188720703e-01) (193, 6.12316429615020751953e-01) (194, -2.75965720415115356445e-01) (195, -9.66816067695617675781e-01) (196, 4.30787950754165649414e-01) (197, 5.55908918380737304688e-01) (198, 2.12991699576377868652e-01) (199, 6.82328343391418457031e-01) (200, -2.29663595557212829590e-01) (201, 3.38817656040191650391e-01) (202, 5.52009344100952148438e-01) (203, -4.76416707038879394531e-01) (204, 4.81366634368896484375e-01) (205, -8.19962024688720703125e-02) (206, 1.04819983243942260742e-01) (207, -2.51203358173370361328e-01) (7, 3.76070469617843627930e-01) (8, 1.40772819519042968750e-01) (9, 4.47849392890930175781e-01) (10, -4.03911679983139038086e-01) (11, -3.39827626943588256836e-01) (12, 7.84773901104927062988e-02) (13, 5.69359838962554931641e-01) (14, 3.53050678968429565430e-01) (15, -5.29962070286273956299e-02) (16, 5.16673684120178222656e-01) (17, 9.02880012989044189453e-01) (18, 8.53018105030059814453e-01) (19, 9.46450889110565185547e-01) (20, 3.22390526533126831055e-01) (21, 2.31730639934539794922e-01) (22, 3.07742208242416381836e-01) (23, 3.89470189809799194336e-01) (24, 6.99776709079742431641e-01) (25, 3.74138444662094116211e-01) (26, 3.62731784582138061523e-01) (27, 3.82514983415603637695e-01) (28, 4.62101995944976806641e-01) (29, 2.75065332651138305664e-01) (30, 8.93871665000915527344e-01) (31, 2.19732701778411865234e-01) (32, 7.03673809766769409180e-02) (33, 6.72762811183929443359e-01) (34, 3.96036535501480102539e-01) (35, 2.52877384424209594727e-01) (36, -3.90784412622451782227e-01) (37, 3.43435525894165039062e-01) (38, 4.91748392581939697266e-01) (39, 8.60899984836578369141e-01) (40, 5.78911840915679931641e-01) (41, 5.53461372852325439453e-01) (42, 1.69896960258483886719e-01) (43, 7.94561445713043212891e-01) (44, 6.46963000297546386719e-01) (45, -5.05257129669189453125e-01) (46, 5.18722414970397949219e-01) (47, 6.64696931838989257812e-01) (48, 5.38088202476501464844e-01) (49, 5.73796451091766357422e-01) (50, 5.24642646312713623047e-01) (51, 7.46944174170494079590e-02) (52, 3.03552657365798950195e-01) (53, 8.31210196018218994141e-01) (54, 2.65455096960067749023e-01) (55, -1.11520536243915557861e-01) (56, -3.15601438283920288086e-01) (57, 1.05424571037292480469e+00) (58, -2.09039986133575439453e-01) (59, 4.12125021219253540039e-01) (60, 3.26813846826553344727e-01) (61, -4.03551012277603149414e-01) (62, 2.68422484397888183594e-01) (63, -3.20061832666397094727e-01) (64, 1.86772644519805908203e-01) (65, 1.69662877917289733887e-01) (66, 9.69747781753540039062e-01) (67, -3.33274632692337036133e-01) (68, 9.35786724090576171875e-01) (69, 3.79370123147964477539e-01) (70, -1.54903411865234375000e-01) (71, 1.57204806804656982422e-01) (72, -4.35382276773452758789e-01) (73, -2.12015032768249511719e-01) (74, 2.58712291717529296875e-01) (75, -1.04437269270420074463e-01) (76, 8.02305698394775390625e-01) (77, 2.99578875303268432617e-01) (78, 7.41156563162803649902e-02) (79, 5.92952549457550048828e-01) (80, 1.93313479423522949219e-01) (81, 4.00540739297866821289e-01) (82, -2.92157381772994995117e-01) (83, 2.41690516471862792969e-01) (84, 1.50111883878707885742e-01) (85, 2.38922178745269775391e-01) (86, 7.50494062900543212891e-01) (87, 3.01218658685684204102e-01) (88, 1.02138328552246093750e+00) (89, 5.52553594112396240234e-01) (90, 2.51726627349853515625e-01) (91, -1.82443074882030487061e-02) (92, -3.03987413644790649414e-01) (93, -1.12996447086334228516e+00) (94, 2.30204761028289794922e-01) (95, -5.24769604206085205078e-01) (96, 1.62482023239135742188e-01) (97, 2.35357686877250671387e-01) (98, 5.74368655681610107422e-01) (99, 3.89877021312713623047e-01) (100, 3.23997169733047485352e-01) (101, 6.20087444782257080078e-01) (102, 1.94680094718933105469e-01) (103, 5.94239056110382080078e-01) (104, 7.88708627223968505859e-01) (105, 6.00129425525665283203e-01) (106, 9.69513177871704101562e-01) (107, 5.94359338283538818359e-01) (108, 2.34445571899414062500e-01) (109, 1.01163029670715332031e+00) (110, 6.61633670330047607422e-01) (111, 8.35985302925109863281e-01) (112, 3.67615729570388793945e-01) (113, 3.95100980997085571289e-01) (114, -1.91834792494773864746e-01) (115, 5.86315929889678955078e-01) (116, 1.01356029510498046875e+00) (117, 9.55251157283782958984e-01) (118, 1.45504191517829895020e-01) (119, 3.87927830219268798828e-01) (120, 2.81668573617935180664e-01) (121, 6.36226236820220947266e-01) (122, 2.92952150106430053711e-01) (123, 5.94141423702239990234e-01) (124, 3.09980779886245727539e-01) (125, -3.92993241548538208008e-01) (126, 3.44818294048309326172e-01) (127, 2.41732060909271240234e-01) (128, 2.42521047592163085938e-01) (129, 1.41755685210227966309e-01) (130, 2.55207270383834838867e-01) (131, -3.49632054567337036133e-01) (132, -3.29203277826309204102e-01) (133, 8.65424454212188720703e-01) (134, 2.70231664180755615234e-01) (135, -2.86881387233734130859e-01) (136, 3.95491331815719604492e-01) (137, 5.03194093704223632812e-01) (138, 2.07218825817108154297e-01) (139, 6.44673824310302734375e-01) (140, 9.96049404144287109375e-01) (141, 5.57077944278717041016e-01) (142, 2.55994617938995361328e-01) (143, -2.77613406069576740265e-03) (144, 2.47127383947372436523e-01) (145, 