FANN_FLO_2.1
num_layers=3
learning_rate=0.001000
connection_rate=1.000000
network_type=0
learning_momentum=0.000000
training_algorithm=2
train_error_function=1
train_stop_function=0
cascade_output_change_fraction=0.010000
quickprop_decay=-0.000100
quickprop_mu=1.750000
rprop_increase_factor=1.200000
rprop_decrease_factor=0.500000
rprop_delta_min=0.000000
rprop_delta_max=50.000000
rprop_delta_zero=0.100000
cascade_output_stagnation_epochs=12
cascade_candidate_change_fraction=0.010000
cascade_candidate_stagnation_epochs=12
cascade_max_out_epochs=150
cascade_max_cand_epochs=150
cascade_num_candidate_groups=2
bit_fail_limit=3.49999994039535522461e-01
cascade_candidate_limit=1.00000000000000000000e+03
cascade_weight_multiplier=4.00000005960464477539e-01
cascade_activation_functions_count=10
cascade_activation_functions=3 5 7 8 10 11 14 15 16 17 
cascade_activation_steepnesses_count=4
cascade_activation_steepnesses=2.50000000000000000000e-01 5.00000000000000000000e-01 7.50000000000000000000e-01 1.00000000000000000000e+00 
layer_sizes=7 101 5 
scale_included=0
neurons (num_inputs, activation_function, activation_steepness)=(0, 0, 0.00000000000000000000e+00) (0, 0, 0.00000000000000000000e+00) (0, 0, 0.00000000000000000000e+00) (0, 0, 0.00000000000000000000e+00) (0, 0, 0.00000000000000000000e+00) (0, 0, 0.00000000000000000000e+00) (0, 0, 0.00000000000000000000e+00) (7, 5, 5.00000000000000000000e-01) (7, 5, 5.00000000000000000000e-01) (7, 5, 5.00000000000000000000e-01) (7, 5, 5.00000000000000000000e-01) (7, 5, 5.00000000000000000000e-01) (7, 5, 5.00000000000000000000e-01) (7, 5, 5.00000000000000000000e-01) (7, 5, 5.00000000000000000000e-01) (7, 5, 5.00000000000000000000e-01) (7, 5, 5.00000000000000000000e-01) (7, 5, 5.00000000000000000000e-01) (7, 5, 5.00000000000000000000e-01) (7, 5, 5.00000000000000000000e-01) (7, 5, 5.00000000000000000000e-01) (7, 5, 5.00000000000000000000e-01) (7, 5, 5.00000000000000000000e-01) (7, 5, 5.00000000000000000000e-01) (7, 5, 5.00000000000000000000e-01) (7, 5, 5.00000000000000000000e-01) (7, 5, 5.00000000000000000000e-01) (7, 5, 5.00000000000000000000e-01) (7, 5, 5.00000000000000000000e-01) (7, 5, 5.00000000000000000000e-01) (7, 5, 5.00000000000000000000e-01) (7, 5, 5.00000000000000000000e-01) (7, 5, 5.00000000000000000000e-01) (7, 5, 5.00000000000000000000e-01) (7, 5, 5.00000000000000000000e-01) (7, 5, 5.00000000000000000000e-01) (7, 5, 5.00000000000000000000e-01) (7, 5, 5.00000000000000000000e-01) (7, 5, 5.00000000000000000000e-01) (7, 5, 5.00000000000000000000e-01) (7, 5, 5.00000000000000000000e-01) (7, 5, 5.00000000000000000000e-01) (7, 5, 5.00000000000000000000e-01) (7, 5, 5.00000000000000000000e-01) (7, 5, 5.00000000000000000000e-01) (7, 5, 5.00000000000000000000e-01) (7, 5, 5.00000000000000000000e-01) (7, 5, 5.00000000000000000000e-01) (7, 5, 5.00000000000000000000e-01) (7, 5, 5.00000000000000000000e-01) (7, 5, 5.00000000000000000000e-01) (7, 5, 5.00000000000000000000e-01) (7, 5, 5.00000000000000000000e-01) (7, 5, 5.00000000000000000000e-01) (7, 5, 5.00000000000000000000e-01) (7, 5, 5.00000000000000000000e-01) (7, 5, 5.00000000000000000000e-01) (7, 5, 5.00000000000000000000e-01) (7, 5, 5.00000000000000000000e-01) (7, 5, 5.00000000000000000000e-01) (7, 5, 5.00000000000000000000e-01) (7, 5, 5.00000000000000000000e-01) (7, 5, 5.00000000000000000000e-01) (7, 5, 5.00000000000000000000e-01) (7, 5, 5.00000000000000000000e-01) (7, 5, 5.00000000000000000000e-01) (7, 5, 5.00000000000000000000e-01) (7, 5, 5.00000000000000000000e-01) (7, 5, 5.00000000000000000000e-01) (7, 5, 5.00000000000000000000e-01) (7, 5, 5.00000000000000000000e-01) (7, 5, 5.00000000000000000000e-01) (7, 5, 5.00000000000000000000e-01) (7, 5, 5.00000000000000000000e-01) (7, 5, 5.00000000000000000000e-01) (7, 5, 5.00000000000000000000e-01) (7, 5, 5.00000000000000000000e-01) (7, 5, 5.00000000000000000000e-01) (7, 5, 5.00000000000000000000e-01) (7, 5, 5.00000000000000000000e-01) (7, 5, 5.00000000000000000000e-01) (7, 5, 5.00000000000000000000e-01) (7, 5, 5.00000000000000000000e-01) (7, 5, 5.00000000000000000000e-01) (7, 5, 5.00000000000000000000e-01) (7, 5, 5.00000000000000000000e-01) (7, 5, 5.00000000000000000000e-01) (7, 5, 5.00000000000000000000e-01) (7, 5, 5.00000000000000000000e-01) (7, 5, 5.00000000000000000000e-01) (7, 5, 5.00000000000000000000e-01) (7, 5, 5.00000000000000000000e-01) (7, 5, 5.00000000000000000000e-01) (7, 5, 5.00000000000000000000e-01) (7, 5, 5.00000000000000000000e-01) (7, 5, 5.00000000000000000000e-01) (7, 5, 5.00000000000000000000e-01) (7, 5, 5.00000000000000000000e-01) (7, 5, 5.00000000000000000000e-01) (7, 5, 5.00000000000000000000e-01) (7, 5, 5.00000000000000000000e-01) (7, 5, 5.00000000000000000000e-01) (7, 5, 5.00000000000000000000e-01) (7, 5, 5.00000000000000000000e-01) (7, 5, 5.00000000000000000000e-01) (7, 5, 5.00000000000000000000e-01) (7, 5, 5.00000000000000000000e-01) (0, 5, 0.00000000000000000000e+00) (101, 5, 5.00000000000000000000e-01) (101, 5, 5.00000000000000000000e-01) (101, 5, 5.00000000000000000000e-01) (101, 5, 5.00000000000000000000e-01) (0, 5, 0.00000000000000000000e+00) 
connections (connected_to_neuron, weight)=(0, 3.11847162246704101562e+00) (1, 8.31383228302001953125e-01) (2, 3.44224840402603149414e-01) (3, 1.95008218288421630859e-02) (4, -3.06140370666980743408e-02) (5, -4.95840329676866531372e-03) (6, -4.38508577644824981689e-02) (0, 1.44299365234375000000e+03) (1, 1.49986645507812500000e+03) (2, 2.16239871978759765625e+01) (3, -1.79396235942840576172e+00) (4, -2.00365662574768066406e+00) (5, -8.67096722126007080078e-01) (6, -1.97104978561401367188e+00) (0, 1.19625358581542968750e+02) (1, 9.23095867037773132324e-02) (2, -5.52614443004131317139e-02) (3, 4.87282454967498779297e-01) (4, 5.13372898101806640625e-01) (5, 4.65577691793441772461e-01) (6, 3.47556769847869873047e-01) (0, 5.20713844299316406250e+01) (1, -4.61172103881835937500e-01) (2, -9.05023872852325439453e-01) (3, 5.51745712757110595703e-01) (4, 3.78608703613281250000e-01) (5, 6.17984414100646972656e-01) (6, 4.49493259191513061523e-01) (0, -2.24157424926757812500e+02) (1, -9.40051257610321044922e-01) (2, 5.15944404602050781250e+01) (3, 4.75294440984725952148e-01) (4, 5.15998601913452148438e-01) (5, -5.37355184555053710938e-01) (6, 4.20426368713378906250e-01) (0, 2.21855640411376953125e+00) (1, 6.26098556518554687500e+01) (2, -2.65037250518798828125e+00) (3, 8.85070025920867919922e-01) (4, 7.22990870475769042969e-01) (5, 8.84536921977996826172e-01) (6, 7.69549429416656494141e-01) (0, 2.90370666503906250000e+02) (1, 1.38355588912963867188e+00) (2, 1.64779571533203125000e+02) (3, -8.65032374858856201172e-02) (4, 1.14441856741905212402e-01) (5, 1.79111082106828689575e-02) (6, 2.46307834982872009277e-01) (0, 1.94649906158447265625e+01) (1, 3.40784873962402343750e+01) (2, -1.07154816389083862305e-01) (3, 3.25523078441619873047e-01) (4, -9.41582322120666503906e-02) (5, 4.26709242165088653564e-02) (6, -3.79050895571708679199e-02) (0, 2.39596252441406250000e+02) (1, 4.91204820573329925537e-02) (2, 1.81956395506858825684e-01) (3, 5.44331789016723632812e-01) (4, 3.72453063726425170898e-01) (5, 6.34868443012237548828e-01) (6, 3.97687643766403198242e-01) (0, 3.76606941223144531250e+00) (1, -1.73493847250938415527e-02) (2, 9.67534780502319335938e-02) (3, 3.56009863317012786865e-02) (4, -2.22071050666272640228e-03) (5, -2.55663767457008361816e-02) (6, 4.89597953855991363525e-02) (0, 5.18082336425781250000e+02) (1, -6.03041425347328186035e-03) (2, -9.35646057128906250000e-01) (3, 4.78317230939865112305e-01) (4, 4.31375920772552490234e-01) (5, 8.29419314861297607422e-01) (6, 3.46658408641815185547e-01) (0, -6.92814147949218750000e+02) (1, 5.29434700012207031250e+01) (2, 6.53925085067749023438e+00) (3, 4.64576691389083862305e-01) (4, 4.19420659542083740234e-01) (5, 1.92981176078319549561e-02) (6, 4.81664121150970458984e-01) (0, -4.57476196289062500000e+01) (1, -1.48195703125000000000e+03) (2, -2.44060587882995605469e+00) (3, -1.41830071806907653809e-01) (4, -4.64483410120010375977e-01) (5, -8.15070495009422302246e-02) (6, -9.15131032466888427734e-01) (0, -7.99971801757812500000e+02) (1, 3.86539001464843750000e+01) (2, 2.57501811981201171875e+01) (3, 4.30827528238296508789e-01) (4, 5.22984981536865234375e-01) (5, -4.30666744709014892578e-01) (6, 3.72457683086395263672e-01) (0, 1.83435516357421875000e+01) (1, 1.26639900207519531250e+02) (2, 9.55690670013427734375e+00) (3, -1.16927117109298706055e-01) (4, 5.65548129379749298096e-02) (5, 2.52733260393142700195e-01) (6, 1.57755628228187561035e-01) (0, -1.63915996551513671875e+01) (1, -1.49265039062500000000e+03) (2, -2.49312400817871093750e-01) (3, 9.78135943412780761719e-01) (4, 8.34467351436614990234e-01) (5, 1.62082344293594360352e-01) (6, 8.80719423294067382812e-01) (0, 5.75033187866210937500e+01) (1, 4.26986885070800781250e+00) (2, 4.51972484588623046875e+00) (3, 4.85126435756683349609e-01) (4, 4.57613229751586914062e-01) (5, 4.05134618282318115234e-01) (6, 4.79321390390396118164e-01) (0, 4.81317367553710937500e+01) (1, 1.08179295063018798828e+00) (2, 1.49999963378906250000e+03) (3, -3.78616005182266235352e-02) (4, -3.42217064462602138519e-03) (5, 2.61049479246139526367e-01) (6, 2.08286996930837631226e-02) (0, 1.47845373153686523438e+01) (1, 4.04521942138671875000e+00) (2, -6.01176582276821136475e-02) (3, 3.69187891483306884766e-02) (4, -6.02901168167591094971e-02) (5, -6.30160467699170112610e-03) (6, 1.23580545186996459961e-02) (0, 2.69835388183593750000e+02) (1, -9.25745239257812500000e+01) (2, -7.10711050033569335938e+00) (3, -9.55799892544746398926e-02) (4, -7.58266150951385498047e-02) (5, 3.35120439529418945312e-01) (6, 1.98451057076454162598e-02) (0, -7.06535797119140625000e+01) (1, 2.22450790405273437500e+01) (2, 3.29329147338867187500e+01) (3, 3.20470005273818969727e-01) (4, 4.47555869817733764648e-01) (5, 1.15417957305908203125e-01) (6, 5.11721968650817871094e-01) (0, 1.13409042358398437500e+01) (1, -6.91983196884393692017e-03) (2, -5.58911003172397613525e-02) (3, 2.59228944778442382812e-02) (4, -3.86185236275196075439e-02) (5, -8.38421843945980072021e-03) (6, -5.84816634654998779297e-02) (0, -7.74349243164062500000e+02) (1, -8.93511413574218750000e+02) (2, -1.09204309082031250000e+03) (3, 4.31637853384017944336e-01) (4, 2.38882109522819519043e-01) (5, 4.56275224685668945312e-01) (6, 4.57065925002098083496e-02) (0, 2.51888298988342285156e+00) (1, 1.01830472946166992188e+01) (2, -8.05571670532226562500e+01) (3, 8.02669405937194824219e-01) (4, 6.91158294677734375000e-01) (5, 9.16494905948638916016e-01) (6, 7.73011088371276855469e-01) (0, 2.96831202507019042969e+00) (1, -2.19539567828178405762e-01) (2, -4.19594114646315574646e-03) (3, -3.21666747331619262695e-02) (4, 1.60073321312665939331e-02) (5, -1.07307564467191696167e-02) (6, -7.91010931134223937988e-02) (0, -1.74180206298828125000e+02) (1, 9.41180114746093750000e+01) (2, 1.34437036514282226562e+01) (3, 2.38065317273139953613e-01) (4, 4.65054929256439208984e-01) (5, 8.81481170654296875000e-02) (6, 5.38651585578918457031e-01) (0, -2.99753784179687500000e+02) (1, 3.98676757812500000000e+02) (2, 5.75651306152343750000e+02) (3, -1.29087150096893310547e-01) (4, 1.54349222779273986816e-01) (5, -1.89186558127403259277e-02) (6, 3.68031300604343414307e-02) (0, 9.02761688232421875000e+01) (1, 4.63594049215316772461e-02) (2, -3.48426885902881622314e-02) (3, 4.73101466894149780273e-01) (4, 4.84633713960647583008e-01) (5, 6.02300107479095458984e-01) (6, 3.81527841091156005859e-01) (0, 3.85802793502807617188e+00) (1, 1.21552574634552001953e+00) (2, -1.07755258679389953613e-01) (3, -4.25503328442573547363e-02) (4, -1.67158283293247222900e-02) (5, 2.08904929459095001221e-02) (6, -4.72955889999866485596e-02) (0, 4.08963623046875000000e+02) (1, 9.06194335937500000000e+02) (2, 1.31936120605468750000e+03) (3, 2.45567098259925842285e-01) (4, 7.16020703315734863281e-01) (5, 4.42495226860046386719e-01) (6, 7.21179664134979248047e-01) (0, -6.31605102539062500000e+02) (1, -1.47490991210937500000e+03) (2, -2.29736747741699218750e+01) (3, 1.36132776737213134766e-01) (4, -3.38174283504486083984e-01) (5, 1.01063817739486694336e-01) (6, -1.69337466359138488770e-01) (0, 1.76266769409179687500e+02) (1, 1.54478296637535095215e-01) (2, -1.03351427242159843445e-02) (3, 6.19470417499542236328e-01) (4, 4.00449067354202270508e-01) (5, 5.43764054775238037109e-01) (6, 4.83437061309814453125e-01) (0, -3.81148895263671875000e+02) (1, -2.11283721923828125000e+02) (2, -2.56050676107406616211e-01) (3, 2.50252544879913330078e-01) (4, -8.85891243815422058105e-02) (5, -9.79536920785903930664e-02) (6, -1.76709294319152832031e-01) (0, -7.99503021240234375000e+01) (1, -6.25619544982910156250e+01) (2, 1.39930158853530883789e-01) (3, 6.89322361722588539124e-03) (4, 7.85058811306953430176e-02) (5, -5.48391565680503845215e-02) (6, 7.33904466032981872559e-02) (0, -4.83071929931640625000e+02) (1, 2.89620094299316406250e+01) (2, 1.32317504882812500000e+03) (3, 2.44159668684005737305e-01) (4, 4.79599356651306152344e-01) (5, 4.17116843163967132568e-02) (6, 3.50812911987304687500e-01) (0, 4.52379608154296875000e+01) (1, -7.33267724514007568359e-01) (2, -1.78676724433898925781e+00) (3, 4.24421906471252441406e-01) (4, 3.86053949594497680664e-01) (5, 6.18657469749450683594e-01) (6, 4.78950351476669311523e-01) (0, -1.11559310913085937500e+02) (1, -5.04706539213657379150e-02) (2, -6.25306987762451171875e+00) (3, -8.03344547748565673828e-01) (4, 5.09938597679138183594e-01) (5, 3.61627638339996337891e-01) (6, 5.49832820892333984375e-01) (0, 4.81507072448730468750e+01) (1, 9.99836547851562500000e+02) (2, 6.72023803710937500000e+02) (3, 9.45444226264953613281e-01) (4, 1.00474238395690917969e+00) (5, 9.84088122844696044922e-01) (6, 1.06741333007812500000e+00) (0, -1.43761389160156250000e+03) (1, 9.68917999267578125000e+01) (2, 1.66327362060546875000e+02) (3, 2.13298082351684570312e-01) (4, 6.54891312122344970703e-01) (5, -1.27601876854896545410e-01) (6, 5.27370929718017578125e-01) (0, 1.46307106018066406250e+01) (1, -4.98235082626342773438e+00) (2, -7.19226524233818054199e-02) (3, 1.51367515325546264648e-01) (4, -1.28248661756515502930e-01) (5, -1.31591618061065673828e-01) (6, -2.31541469693183898926e-01) (0, -3.40288238525390625000e+01) (1, 2.58442044258117675781e+00) (2, -5.67337349057197570801e-02) (3, -4.83528850600123405457e-03) (4, -9.18439254164695739746e-02) (5, 5.36903031170368194580e-02) (6, 8.07659178972244262695e-02) (0, 1.98403530120849609375e+01) (1, -5.39406538009643554688e-01) (2, -7.40115284919738769531e-01) (3, 4.30412024259567260742e-01) (4, 5.27308225631713867188e-01) (5, 4.62551891803741455078e-01) (6, 4.26760047674179077148e-01) (0, -1.41508728027343750000e+03) (1, 6.76143951416015625000e+01) (2, 1.49999975585937500000e+03) (3, -9.34510082006454467773e-02) (4, 6.36853158473968505859e-01) (5, 2.51853078603744506836e-01) (6, 6.63441777229309082031e-01) (0, 7.50484514236450195312e+00) (1, -3.21478176116943359375e+00) (2, -1.46355032920837402344e-01) (3, -7.93475657701492309570e-02) (4, -1.29078635945916175842e-02) (5, 7.67107754945755004883e-02) (6, -2.72305328398942947388e-02) (0, 2.78812011718750000000e+02) (1, 9.17535324096679687500e+01) (2, 3.09114605188369750977e-01) (3, -1.13474987447261810303e-01) (4, -8.14413093030452728271e-03) (5, -1.33364319801330566406e-01) (6, -6.31548045203089714050e-03) (0, 4.20690093994140625000e+02) (1, -1.30493057250976562500e+02) (2, 2.00068935751914978027e-01) (3, 5.90163648128509521484e-01) (4, 4.63068455457687377930e-01) (5, 7.67524093389511108398e-02) (6, 5.61318457126617431641e-01) (0, 7.61349105834960937500e+01) (1, -4.08278822898864746094e-01) (2, -1.28724440932273864746e-01) (3, 4.88782763481140136719e-01) (4, 4.75461870431900024414e-01) (5, 5.72795808315277099609e-01) (6, 5.20324289798736572266e-01) (0, -1.66335937500000000000e+02) (1, 1.50000000000000000000e+03) (2, 1.49963049316406250000e+03) (3, 9.06127691268920898438e-01) (4, 1.14199173450469970703e+00) (5, 9.70403432846069335938e-01) (6, 1.08899295330047607422e+00) (0, -5.57828178405761718750e+01) (1, 3.82135711669921875000e+02) (2, 4.29016590118408203125e+00) (3, 2.68663704395294189453e-01) (4, 5.16852736473083496094e-01) (5, 5.31851202249526977539e-02) (6, 3.60931098461151123047e-01) (0, -2.90720520019531250000e+02) (1, 3.12335371971130371094e+00) (2, 1.16624412536621093750e+01) (3, 2.25667878985404968262e-01) (4, -6.14457614719867706299e-02) (5, -2.11237013339996337891e-01) (6, -2.67857074737548828125e-01) (0, 7.99727172851562500000e+02) (1, 1.47115002441406250000e+03) (2, 4.41070348024368286133e-01) (3, 7.85835564136505126953e-01) (4, 2.71032661199569702148e-01) (5, 1.44908770918846130371e-01) (6, 2.55410432815551757812e-01) (0, 3.96938252449035644531e+00) (1, -2.74369354248046875000e+01) (2, -5.06158638000488281250e+00) (3, 1.19659125804901123047e-01) (4, 7.20696970820426940918e-02) (5, -1.57365098595619201660e-01) (6, 8.66643935441970825195e-02) (0, 2.72581085205078125000e+02) (1, 7.24032897949218750000e+02) (2, 1.29928024291992187500e+02) (3, 2.44364351034164428711e-01) (4, 3.55461210012435913086e-01) (5, 8.24027240276336669922e-01) (6, 4.16854530572891235352e-01) (0, -4.30825042724609375000e+01) (1, 1.10897040367126464844e+00) (2, 3.67711856961250305176e-02) (3, 1.21306935325264930725e-02) (4, -9.28471982479095458984e-02) (5, 4.27188612520694732666e-02) (6, -1.00188076496124267578e-01) (0, -2.44010581970214843750e+01) (1, 3.25833916664123535156e-01) (2, 1.24022901058197021484e-01) (3, 6.82153413072228431702e-03) (4, 1.25859558582305908203e-01) (5, -8.18877592682838439941e-02) (6, 1.04304753243923187256e-01) (0, 6.96492553710937500000e+02) (1, -9.02542400360107421875e+00) (2, -4.02301907539367675781e-01) (3, 1.78305044770240783691e-01) (4, -2.86659505218267440796e-02) (5, 5.38149923086166381836e-02) (6, 9.30460169911384582520e-03) (0, -2.60833465576171875000e+02) (1, -2.89625453948974609375e+01) (2, -2.96987748146057128906e+00) (3, 1.31932318210601806641e+00) (4, 5.07082581520080566406e-01) (5, 1.11805915832519531250e-01) (6, 1.60463601350784301758e-01) (0, 2.77389587402343750000e+02) (1, -1.60088745117187500000e+02) (2, -7.45356811523437500000e+02) (3, 6.91911816596984863281e-01) (4, 3.24056416749954223633e-01) (5, 3.70953649282455444336e-01) (6, 2.56443858146667480469e-01) (0, 7.05390380859375000000e+02) (1, 1.28338769531250000000e+03) (2, 1.17101989746093750000e+03) (3, -1.38183072209358215332e-01) (4, 6.18301212787628173828e-01) (5, 4.97977554798126220703e-01) (6, 5.81153094768524169922e-01) (0, -1.46269213867187500000e+03) (1, 6.32408499717712402344e-01) (2, 5.45372070312500000000e+02) (3, 3.45614373683929443359e-01) (4, 4.34197753667831420898e-01) (5, -3.77107709646224975586e-01) (6, 4.38917189836502075195e-01) (0, -6.22785583496093750000e+02) (1, 1.86119903564453125000e+02) (2, 2.75100499391555786133e-01) (3, 5.60514740645885467529e-02) (4, 2.48288094997406005859e-01) (5, -1.06332689523696899414e-01) (6, 1.77149757742881774902e-01) (0, 8.87314819335937500000e+02) (1, 1.98900535702705383301e-01) (2, -3.24269342422485351562e+00) (3, 4.38022494316101074219e-01) (4, 3.91452699899673461914e-01) (5, 8.98399710655212402344e-01) (6, 5.08682250976562500000e-01) (0, -1.51716445922851562500e+02) (1, 2.78887200355529785156e+00) (2, -1.89275833129882812500e+02) (3, 3.47272545099258422852e-01) (4, 2.83181816339492797852e-01) (5, 9.14864003658294677734e-01) (6, 3.54474812746047973633e-01) (0, 2.85415222167968750000e+02) (1, 2.66065783798694610596e-02) (2, 5.05128949880599975586e-02) (3, 5.93124210834503173828e-01) (4, 3.75538170337677001953e-01) (5, 5.36684989929199218750e-01) (6, 3.75226557254791259766e-01) (0, -5.47815734863281250000e+02) (1, -2.95463226318359375000e+02) (2, -7.43711352348327636719e-01) (3, 7.01898872852325439453e-01) (4, 4.69405144453048706055e-01) (5, 7.01506435871124267578e-01) (6, 2.49865472316741943359e-01) (0, -3.70811233520507812500e+01) (1, 5.30733764171600341797e-01) (2, -1.82253036499023437500e+02) (3, -1.15850433707237243652e-01) (4, -1.71612858772277832031e-01) (5, 4.40584540367126464844e-01) (6, -1.31305620074272155762e-01) (0, -3.74622283935546875000e+02) (1, 2.78256714344024658203e-01) (2, 5.60945160686969757080e-02) (3, 8.21523442864418029785e-02) (4, 2.04151540994644165039e-01) (5, -1.89422488212585449219e-01) (6, 1.22120648622512817383e-01) (0, -2.43672393798828125000e+02) (1, 4.64239929199218750000e+02) (2, 4.47443809509277343750e+01) (3, 2.23027523607015609741e-02) (4, 6.66407525539398193359e-01) (5, 4.98271167278289794922e-01) (6, 6.99273228645324707031e-01) (0, 2.40155914306640625000e+02) (1, -9.56557989120483398438e-01) (2, -1.38612523674964904785e-01) (3, 4.29000586271286010742e-01) (4, 4.74429130554199218750e-01) (5, 8.44044864177703857422e-01) (6, 5.13297498226165771484e-01) (0, -1.33685644531250000000e+03) (1, 2.40480446815490722656e+00) (2, 5.30288879394531250000e+02) (3, 3.43234390020370483398e-02) (4, 2.67658144235610961914e-01) (5, 6.34816810488700866699e-02) (6, 2.58232980966567993164e-01) (0, 5.17499542236328125000e+01) (1, -3.31425398588180541992e-01) (2, 2.68077589571475982666e-02) (3, 4.72036302089691162109e-01) (4, 3.95098835229873657227e-01) (5, 5.49589931964874267578e-01) (6, 4.71958816051483154297e-01) (0, 9.70063018798828125000e+00) (1, 2.11075153350830078125e+01) (2, 2.05012106895446777344e+00) (3, -1.49603053927421569824e-01) (4, -1.33944347500801086426e-01) (5, 4.71349328756332397461e-01) (6, -4.13111224770545959473e-02) (0, -2.06555509567260742188e+00) (1, -1.79829330444335937500e+02) (2, -1.35158166289329528809e-01) (3, 2.07024946808815002441e-01) (4, 1.67138054966926574707e-01) (5, -1.53913855552673339844e-01) (6, 1.33667320013046264648e-01) (0, 4.34015502929687500000e+02) (1, -7.75621520996093750000e+02) (2, -1.26734155273437500000e+03) (3, 7.30703175067901611328e-01) (4, 4.12957191467285156250e-01) (5, 4.02938365936279296875e-01) (6, 3.81559491157531738281e-01) (0, 5.15380554199218750000e+02) (1, 4.23912353515625000000e+02) (2, 4.73657569885253906250e+01) (3, 1.14548802375793457031e-02) (4, 1.67144581675529479980e-01) (5, 1.17172122001647949219e-01) (6, 2.25759714841842651367e-01) (0, 1.10819738769531250000e+03) (1, 1.87878713011741638184e-01) (2, -1.47655102539062500000e+03) (3, 9.46625053882598876953e-01) (4, 3.58316272497177124023e-01) (5, 2.39582943916320800781e+00) (6, 4.13984775543212890625e-01) (0, 1.56826156616210937500e+02) (1, 1.78797066211700439453e+00) (2, 5.96309394836425781250e+01) (3, -7.70681500434875488281e-02) (4, 1.49269342422485351562e-01) (5, -3.66281606256961822510e-02) (6, 2.57553279399871826172e-01) (0, 3.30241050720214843750e+01) (1, 3.76462966203689575195e-01) (2, -4.32613492012023925781e-02) (3, 1.20836697518825531006e-01) (4, -1.14628486335277557373e-01) (5, -8.93653556704521179199e-02) (6, -1.03994175791740417480e-01) (0, -7.16717605590820312500e+01) (1, 1.24372854232788085938e+01) (2, 3.50897521972656250000e+02) (3, 2.63967335224151611328e-01) (4, 4.72678989171981811523e-01) (5, 1.87324896454811096191e-01) (6, 3.89730632305145263672e-01) (0, 2.38202934265136718750e+01) (1, 9.37137901782989501953e-02) (2, 4.11864882335066795349e-03) (3, -6.91068992018699645996e-02) (4, 1.75868254154920578003e-03) (5, 5.72490803897380828857e-02) (6, -5.88069148361682891846e-02) (0, 9.44671058654785156250e+00) (1, -9.95828568935394287109e-01) (2, -2.03078567981719970703e-01) (3, 1.31750211119651794434e-01) (4, -4.25005853176116943359e-02) (5, -1.34106189012527465820e-01) (6, 7.82977696508169174194e-03) (0, 2.81260711669921875000e+02) (1, 3.34241981506347656250e+01) (2, 5.58552122116088867188e+00) (3, -4.86483007669448852539e-01) (4, 2.25596249103546142578e-01) (5, -1.67471557855606079102e-01) (6, 3.23134362697601318359e-01) (0, -1.36938827514648437500e+02) (1, -1.38615997314453125000e+02) (2, -1.05022776126861572266e+00) (3, 1.20980846881866455078e+00) (4, -1.44473925232887268066e-01) (5, 4.77438181638717651367e-01) (6, -4.93747085332870483398e-01) (0, -1.25339021682739257812e+01) (1, 2.31254577636718750000e-01) (2, 5.94943165779113769531e-02) (3, 2.62998908758163452148e-01) (4, 2.22117409110069274902e-01) (5, 5.87311387062072753906e-02) (6, 3.70885401964187622070e-01) (0, -1.13694421386718750000e+03) (1, 2.00831394195556640625e+01) (2, 7.16930389404296875000e+01) (3, 2.40198329091072082520e-01) (4, 4.66033190488815307617e-01) (5, -2.28924378752708435059e-01) (6, 4.48760509490966796875e-01) (0, -1.48782446289062500000e+03) (1, -9.79211273193359375000e+01) (2, 1.96662545204162597656e+00) (3, 1.61787062883377075195e-01) (4, 2.98831701278686523438e-01) (5, -1.00260317325592041016e-01) (6, 4.16543334722518920898e-01) (0, -9.74634960293769836426e-02) (1, -4.99433167278766632080e-02) (2, -9.66617202758789062500e+01) (3, 1.86783626675605773926e-01) (4, -2.04576641321182250977e-01) (5, 3.95895959809422492981e-03) (6, -3.03713560104370117188e-01) (0, 4.88722076416015625000e+02) (1, 2.70787835121154785156e-01) (2, 1.00957609713077545166e-01) (3, 6.09879374504089355469e-01) (4, 4.06788021326065063477e-01) (5, 5.25230824947357177734e-01) (6, 5.23628056049346923828e-01) (0, 4.80295658111572265625e+00) (1, -5.03723831176757812500e+01) (2, -3.69143396615982055664e-01) (3, 1.85938060283660888672e-01) (4, -9.44266840815544128418e-02) (5, -5.86626976728439331055e-02) (6, 3.50627303123474121094e-02) (0, -1.55994100570678710938e+01) (1, -1.59320622682571411133e-01) (2, 3.69361899793148040771e-02) (3, 4.03405636548995971680e-01) (4, 1.27354606986045837402e-01) (5, 3.86705249547958374023e-01) (6, 2.45824530720710754395e-01) (0, 1.38157501220703125000e+02) (1, -8.94594252109527587891e-01) (2, -3.64520168304443359375e+00) (3, 4.77440893650054931641e-01) (4, 3.97915452718734741211e-01) (5, 5.50838232040405273438e-01) (6, 4.53535586595535278320e-01) (0, 4.14070701599121093750e+01) (1, -9.38435649871826171875e+00) (2, 9.26766932010650634766e-01) (3, -4.26008909940719604492e-01) (4, 1.17762535810470581055e-01) (5, 2.14911937713623046875e-01) (6, 1.70934602618217468262e-01) (0, -4.46184921264648437500e+01) (1, 1.97273299098014831543e-01) (2, 6.95634889602661132812e+00) (3, 7.12105259299278259277e-02) (4, 1.91107243299484252930e-01) (5, -1.99965402483940124512e-01) (6, 1.66838064789772033691e-01) (0, -5.29271911621093750000e+02) (1, -3.97903404235839843750e+01) (2, -1.33227844238281250000e+02) (3, 7.62463510036468505859e-01) (4, 1.38452559709548950195e-01) (5, 5.79936861991882324219e-01) (6, 1.52246132493019104004e-01) (0, -2.42155590057373046875e+01) (1, -3.00254611968994140625e+01) (2, -1.66069641113281250000e+01) (3, 8.35796952247619628906e-01) (4, -5.57062104344367980957e-02) (5, 2.56657212972640991211e-01) (6, -5.20116835832595825195e-02) (0, -1.02716918945312500000e+03) (1, 5.74159126281738281250e+01) (2, 1.85799491405487060547e+00) (3, -1.03033564984798431396e-01) (4, 1.67341664433479309082e-01) (5, 9.47056263685226440430e-02) (6, 6.19353242218494415283e-02) (0, -4.14965179443359375000e+02) (1, 1.78659912109375000000e+02) (2, 1.49999963378906250000e+03) (3, 2.12317049503326416016e-01) (4, 1.66566312313079833984e+00) (5, 5.90713858604431152344e-01) (6, 1.83443748950958251953e+00) (0, 1.47931652832031250000e+03) (1, 6.11510375976562500000e+02) (2, 1.42067810058593750000e+03) (3, 4.20211292803287506104e-02) (4, 1.62260293960571289062e-01) (5, 2.22497180104255676270e-01) (6, 2.57006317377090454102e-01) (0, 2.15577651977539062500e+02) (1, 2.58195400238037109375e-01) (2, 1.82167723774909973145e-01) (3, 5.94545960426330566406e-01) (4, 4.07355219125747680664e-01) (5, 6.63380920886993408203e-01) (6, 5.10404169559478759766e-01) (0, -8.44985473632812500000e+02) (1, -7.48995239257812500000e+02) (2, -5.64156866073608398438e+00) (3, -2.47422993183135986328e-01) (4, 1.39452487230300903320e-01) (5, 3.67619782686233520508e-01) (6, -3.11401057988405227661e-02) (7, 5.11646509170532226562e-01) (8, 4.91945371031761169434e-02) (9, 4.07310158014297485352e-01) (10, 2.97567099332809448242e-01) (11, 2.02203597873449325562e-02) (12, 3.91298741102218627930e-01) (13, -1.20313493534922599792e-02) (14, 3.68367761373519897461e-01) (15, 3.26318293809890747070e-01) (16, -1.13413184881210327148e-02) (17, 2.30202332139015197754e-01) (18, -1.60976126790046691895e-01) (19, 5.09526789188385009766e-01) (20, -1.12193815410137176514e-01) (21, -2.41687968373298645020e-01) (22, 7.09465593099594116211e-02) (23, -2.12411925196647644043e-01) (24, -5.13122417032718658447e-02) (25, 5.34914493560791015625e-01) (26, 1.95703022181987762451e-02) (27, -2.15821966528892517090e-01) (28, 5.77897250652313232422e-01) (29, 3.91013473272323608398e-01) (30, 2.25155308842658996582e-01) (31, 6.13517701625823974609e-01) (32, -1.53205618262290954590e-01) (33, -1.32151201367378234863e-01) (34, 3.61912816762924194336e-01) (35, 6.65296316146850585938e-01) (36, -1.11230365931987762451e-01) (37, 4.65892970561981201172e-01) (38, 4.15309160947799682617e-01) (39, 5.93514204025268554688e-01) (40, 6.02988481521606445312e-01) (41, -1.72059759497642517090e-01) (42, 2.94743180274963378906e-01) (43, 9.33947920799255371094e-01) (44, -5.25295920670032501221e-02) (45, -8.28619971871376037598e-02) (46, 2.02923730015754699707e-01) (47, 4.61150556802749633789e-02) (48, 3.98385852575302124023e-01) (49, -1.69964626431465148926e-01) (50, 7.10519194602966308594e-01) (51, 9.75624918937683105469e-02) (52, -1.13712216261774301529e-03) (53, 2.63382405042648315430e-01) (54, -9.90007296204566955566e-02) (55, -1.30607888102531433105e-01) (56, -3.05970400571823120117e-01) (57, -3.50752770900726318359e-02) (58, 2.56192654371261596680e-01) (59, -6.38220906257629394531e-01) (60, 4.73007053136825561523e-01) (61, -1.26381799578666687012e-01) (62, 2.75912612676620483398e-01) (63, 3.74120384454727172852e-01) (64, 2.51813590526580810547e-01) (65, -1.57240852713584899902e-01) (66, 6.08428008854389190674e-02) (67, 2.42098066955804824829e-02) (68, 2.18552038073539733887e-01) (69, -7.25073274224996566772e-03) (70, 3.31877678632736206055e-01) (71, 3.16705346107482910156e-01) (72, 4.53164726495742797852e-01) (73, -4.35232043266296386719e-01) (74, -7.87738934159278869629e-02) (75, 2.25466266274452209473e-01) (76, 2.26725414395332336426e-02) (77, 3.71112912893295288086e-01) (78, -5.63448946923017501831e-03) (79, 1.51280447840690612793e-01) (80, 2.43085458874702453613e-01) (81, 3.06289345026016235352e-02) (82, 2.01406940817832946777e-01) (83, -7.70348131656646728516e-01) (84, 5.61287641525268554688e-01) (85, -2.43216976523399353027e-01) (86, -5.82696676254272460938e-01) (87, 4.53908175230026245117e-01) (88, 6.24019205570220947266e-02) (89, 4.97782558202743530273e-01) (90, 4.68905746936798095703e-01) (91, -9.86237600445747375488e-02) (92, 1.49007692933082580566e-01) (93, 6.10287427902221679688e-01) (94, 3.26549082994461059570e-01) (95, 6.44433259963989257812e-01) (96, 1.97107180953025817871e-01) (97, 2.59184837341308593750e-01) (98, 9.25991386175155639648e-02) (99, -4.95966821908950805664e-02) (100, 1.88593938946723937988e-01) (101, 3.86147022247314453125e-01) (102, 6.69731432572007179260e-03) (103, -2.36290112137794494629e-01) (104, -1.16577774286270141602e-01) (105, 2.63220399618148803711e-01) (106, 2.72345185279846191406e-01) (107, -9.68627408146858215332e-02) (7, 4.93452131748199462891e-01) (8, 5.82537889480590820312e-01) (9, 3.14583837985992431641e-01) (10, 2.44616687297821044922e-01) (11, -8.35053697228431701660e-02) (12, 3.70365679264068603516e-01) (13, 7.78348818421363830566e-02) (14, 6.55308663845062255859e-01) (15, 3.78199219703674316406e-01) (16, 3.60956698656082153320e-01) (17, 3.14679443836212158203e-01) (18, -1.96697086095809936523e-01) (19, 2.70855613052845001221e-03) (20, -2.23327413201332092285e-01) (21, 2.23610118031501770020e-01) (22, -2.63517722487449645996e-03) (23, -1.44502699375152587891e-01) (24, -6.54526129364967346191e-02) (25, 6.15274190902709960938e-01) (26, -3.40055786073207855225e-02) (27, -9.24227684736251831055e-02) (28, 5.30495464801788330078e-01) (29, -1.97632014751434326172e-01) (30, 3.48816275596618652344e-01) (31, 3.10285151004791259766e-01) (32, -1.23633317649364471436e-01) (33, 4.95992898941040039062e-02) (34, 4.15654063224792480469e-01) (35, 6.99128806591033935547e-01) (36, 3.23806643486022949219e-01) (37, 1.17378784343600273132e-02) (38, 3.91084313392639160156e-01) (39, -1.66950419545173645020e-01) (40, -1.14474046230316162109e+00) (41, -5.03281578421592712402e-02) (42, 2.44653344154357910156e-01) (43, 3.79521436989307403564e-02) (44, 2.80302405357360839844e-01) (45, -8.33838135004043579102e-02) (46, 1.53021067380905151367e-01) (47, 6.14559590816497802734e-01) (48, 2.81264960765838623047e-01) (49, 9.28944349288940429688e-02) (50, 4.30260360240936279297e-01) (51, 4.00647036731243133545e-02) (52, 9.88824758678674697876e-03) (53, 2.38067030906677246094e-01) (54, 4.13368046283721923828e-01) (55, -1.14806473255157470703e-01) (56, 4.49424907565116882324e-02) (57, 1.56119108200073242188e-01) (58, 1.85269303619861602783e-02) (59, -1.24358460307121276855e-02) (60, 6.58929109573364257812e-01) (61, -3.02101224660873413086e-01) (62, 1.19670860469341278076e-01) (63, 4.21386025846004486084e-02) (64, -1.12441837787628173828e-01) (65, 3.62128257751464843750e-01) (66, -2.25246801972389221191e-01) (67, -9.89434868097305297852e-02) (68, 3.13946425914764404297e-01) (69, 1.28586515784263610840e-01) (70, 4.16498959064483642578e-01) (71, -1.05672039091587066650e-01) (72, 8.21773856878280639648e-02) (73, -7.61138617992401123047e-01) (74, -1.04955509305000305176e-01) (75, 2.77722895145416259766e-01) (76, 5.45086637139320373535e-02) (77, 3.23929548263549804688e-01) (78, 5.06119541823863983154e-02) (79, 5.13105690479278564453e-02) (80, -1.29902839660644531250e-01) (81, 2.76657164096832275391e-01) (82, 1.61230087280273437500e-01) (83, 3.09927929192781448364e-02) (84, 5.22821426391601562500e-01) (85, -1.09830096364021301270e-01) (86, 1.16949342191219329834e-01) (87, 8.78299549221992492676e-02) (88, 4.66438412666320800781e-01) (89, 1.09433066099882125854e-02) (90, 4.78654444217681884766e-01) (91, -1.10614396631717681885e-01) (92, -4.16465282440185546875e-01) (93, 4.95103225111961364746e-02) (94, 4.09489154815673828125e-01) (95, 1.58523112535476684570e-01) (96, 2.49454796314239501953e-01) (97, 2.34216749668121337891e-01) (98, -1.75017088651657104492e-01) (99, 1.96662601083517074585e-02) (100, 3.03919930011034011841e-02) (101, 1.60635203123092651367e-01) (102, 1.65210694074630737305e-01) (103, 1.16036996245384216309e-01) (104, 4.49430823326110839844e-01) (105, 3.48054826259613037109e-01) (106, -2.19550088047981262207e-01) (107, -6.25954121351242065430e-02) (7, 1.66711106896400451660e-01) (8, 1.60344734787940979004e-01) (9, -2.62055397033691406250e-01) (10, -1.48343235254287719727e-01) (11, 2.16040704399347305298e-02) (12, -1.17252960801124572754e-01) (13, 4.38983798027038574219e-01) (14, 1.85189783573150634766e-01) (15, -1.77112370729446411133e-01) (16, 1.40635296702384948730e-01) (17, -2.52416610717773437500e-01) (18, 2.80460268259048461914e-01) (19, 1.46859005093574523926e-01) (20, 2.41185650229454040527e-01) (21, -3.27836023643612861633e-03) (22, 2.97451745718717575073e-02) (23, 2.46505588293075561523e-01) (24, 4.68663007020950317383e-01) (25, 1.89351454377174377441e-01) (26, -1.77902579307556152344e-01) (27, 2.27469056844711303711e-01) (28, 1.75045177340507507324e-01) (29, -2.11978763341903686523e-01) (30, -2.02569127082824707031e-01) (31, 8.46327692270278930664e-02) (32, 2.17036813497543334961e-01) (33, 9.98337328433990478516e-01) (34, -1.07008785009384155273e-01) (35, 1.49874210357666015625e-01) (36, 3.23885738849639892578e-01) (37, 1.56926445197314023972e-03) (38, -2.61007726192474365234e-01) (39, -3.53063195943832397461e-02) (40, 2.05258816480636596680e-01) (41, 3.38989377021789550781e-01) (42, -1.41939878463745117188e-01) (43, -2.82008022069931030273e-01) (44, 2.34915286302566528320e-01) (45, 2.41880565881729125977e-01) (46, 3.82379561662673950195e-01) (47, 2.50296056270599365234e-01) (48, -1.50188595056533813477e-01) (49, 5.68364441394805908203e-01) (50, 1.85756124556064605713e-02) (51, 7.76411294937133789062e-02) (52, 6.19430877268314361572e-02) (53, -1.69197291135787963867e-01) (54, 3.06801438331604003906e-01) (55, 1.73572570085525512695e-01) (56, 1.04508554935455322266e+00) (57, -1.39842092990875244141e-01) (58, -1.01264066994190216064e-01) (59, -4.53781895339488983154e-02) (60, 2.40475893020629882812e-01) (61, -4.17471267282962799072e-02) (62, 6.75886198878288269043e-02) (63, 8.81879404187202453613e-02) (64, -1.67693346738815307617e-01) (65, 1.63721442222595214844e-01) (66, 1.79825901985168457031e-01) (67, -9.76557433605194091797e-02) (68, -2.95577824115753173828e-01) (69, -2.94408947229385375977e-01) (70, -1.87044441699981689453e-01) (71, 1.75429344177246093750e-01) (72, -3.46242934465408325195e-01) (73, -1.67590007185935974121e-01) (74, 1.89518123865127563477e-01) (75, -1.70470923185348510742e-01) (76, 2.32776910066604614258e-01) (77, -1.13167226314544677734e-01) (78, -4.06802594661712646484e-02) (79, -4.29509505629539489746e-02) (80, -2.31040894985198974609e-01) (81, 8.71433392167091369629e-02) (82, -3.65314096212387084961e-01) (83, 1.52030497789382934570e-01) (84, 2.72742867469787597656e-01) (85, 3.03173333406448364258e-01) (86, 4.01651933789253234863e-02) (87, 4.07588213682174682617e-01) (88, 1.78853452205657958984e-01) (89, 1.82677909731864929199e-01) (90, 3.37633490562438964844e-01) (91, 2.33126431703567504883e-01) (92, 2.46870338916778564453e-01) (93, -1.82724595069885253906e-01) (94, -2.22342744469642639160e-01) (95, 7.72916749119758605957e-02) (96, 2.85384625196456909180e-01) (97, -2.26405531167984008789e-01) (98, -1.75079293549060821533e-02) (99, 5.72393555194139480591e-03) (100, -2.39317324012517929077e-02) (101, -4.76058125495910644531e-02) (102, 2.44834214448928833008e-01) (103, 4.30955022573471069336e-01) (104, 2.92886763811111450195e-01) (105, -1.99687331914901733398e-01) (106, 1.47803546860814094543e-02) (107, 1.90811097621917724609e-01) (7, 5.77974654734134674072e-02) (8, 5.27091883122920989990e-02) (9, -2.78592020273208618164e-01) (10, -2.96684712171554565430e-01) (11, -3.96993160247802734375e-02) (12, 4.29466098546981811523e-01) (13, 6.01593852043151855469e-01) (14, -7.53351077437400817871e-02) (15, -3.18699389696121215820e-01) (16, 8.95196720957756042480e-02) (17, -2.96104699373245239258e-01) (18, 3.75299841165542602539e-01) (19, -2.15197969228029251099e-02) (20, 3.58633786439895629883e-01) (21, 4.49223965406417846680e-01) (22, -3.85662645101547241211e-01) (23, 3.61241012811660766602e-01) (24, -1.29614055156707763672e-01) (25, -4.87028015777468681335e-03) (26, -1.03748716413974761963e-01) (27, 4.28699225187301635742e-01) (28, 6.63516670465469360352e-02) (29, -3.21164995431900024414e-01) (30, 3.45911115407943725586e-01) (31, 6.22761696577072143555e-02) (32, 4.45315808057785034180e-01) (33, 1.43901154398918151855e-01) (34, -3.03286701440811157227e-01) (35, 6.69810175895690917969e-02) (36, 3.91431957483291625977e-01) (37, -2.99148671329021453857e-02) (38, -2.65889316797256469727e-01) (39, -6.97406113147735595703e-01) (40, 7.35387429594993591309e-02) (41, 4.14924591779708862305e-01) (42, -3.35426002740859985352e-01) (43, 1.27196982502937316895e-01) (44, 4.19638603925704956055e-01) (45, 4.11590903997421264648e-01) (46, -3.05494278669357299805e-01) (47, 8.92510116100311279297e-02) (48, -3.30387741327285766602e-01) (49, 5.24125039577484130859e-01) (50, -3.52120757102966308594e-01) (51, 3.89584958553314208984e-01) (52, -3.81891041994094848633e-01) (53, -2.72249966859817504883e-01) (54, 4.25839155912399291992e-01) (55, 4.34685558080673217773e-01) (56, 1.38210222125053405762e-01) (57, 2.98472940921783447266e-01) (58, 1.32034629583358764648e-01) (59, 3.86106520891189575195e-01) (60, 3.53733859956264495850e-02) (61, 2.80922591686248779297e-01) (62, -1.97361722588539123535e-01) (63, -4.16135460138320922852e-01) (64, -3.38275283575057983398e-01) (65, 4.30518597364425659180e-01) (66, 1.95639207959175109863e-01) (67, 3.08894246816635131836e-01) (68, -2.67490535974502563477e-01) (69, 2.15888783335685729980e-01) (70, -3.57336193323135375977e-01) (71, -2.66593128442764282227e-01) (72, 5.47938883304595947266e-01) (73, 8.54000627994537353516e-01) (74, 4.29582744836807250977e-01) (75, -3.69302123785018920898e-01) (76, 2.39573404192924499512e-01) (77, -3.50500911474227905273e-01) (78, 1.45274937152862548828e-01) (79, -2.29421794414520263672e-01) (80, -2.89472371339797973633e-01) (81, 2.61787295341491699219e-01) (82, -1.61203816533088684082e-01) (83, 2.75057777762413024902e-02) (84, -2.13334877043962478638e-02) (85, 4.30441409349441528320e-01) (86, 1.32322490215301513672e-01) (87, 5.82543075084686279297e-01) (88, 8.08579623699188232422e-01) (89, -7.76084661483764648438e-01) (90, -6.71628117561340332031e-02) (91, 3.86263996362686157227e-01) (92, 5.84607161581516265869e-02) (93, 1.81577667593955993652e-01) (94, -2.75745362043380737305e-01) (95, -1.00580883026123046875e+00) (96, -2.12391182780265808105e-01) (97, -3.21973592042922973633e-01) (98, 3.04264008998870849609e-01) (99, 3.51140052080154418945e-01) (100, -6.82752430438995361328e-02) (101, -4.04320031404495239258e-01) (102, 2.32156347483396530151e-02) (103, 5.31894087791442871094e-01) (104, 9.96240600943565368652e-02) (105, -2.72433906793594360352e-01) (106, -4.91484433412551879883e-01) (107, 2.90808141231536865234e-01) 
