FANN_FLO_2.1
num_layers=3
learning_rate=0.001000
connection_rate=1.000000
network_type=0
learning_momentum=0.000000
training_algorithm=2
train_error_function=1
train_stop_function=0
cascade_output_change_fraction=0.010000
quickprop_decay=-0.000100
quickprop_mu=1.750000
rprop_increase_factor=1.200000
rprop_decrease_factor=0.500000
rprop_delta_min=0.000000
rprop_delta_max=50.000000
rprop_delta_zero=0.100000
cascade_output_stagnation_epochs=12
cascade_candidate_change_fraction=0.010000
cascade_candidate_stagnation_epochs=12
cascade_max_out_epochs=150
cascade_min_out_epochs=50
cascade_max_cand_epochs=150
cascade_min_cand_epochs=50
cascade_num_candidate_groups=2
bit_fail_limit=3.49999994039535522461e-01
cascade_candidate_limit=1.00000000000000000000e+03
cascade_weight_multiplier=4.00000005960464477539e-01
cascade_activation_functions_count=10
cascade_activation_functions=3 5 7 8 10 11 14 15 16 17 
cascade_activation_steepnesses_count=4
cascade_activation_steepnesses=2.50000000000000000000e-01 5.00000000000000000000e-01 7.50000000000000000000e-01 1.00000000000000000000e+00 
layer_sizes=7 101 5 
scale_included=0
neurons (num_inputs, activation_function, activation_steepness)=(0, 0, 0.00000000000000000000e+00) (0, 0, 0.00000000000000000000e+00) (0, 0, 0.00000000000000000000e+00) (0, 0, 0.00000000000000000000e+00) (0, 0, 0.00000000000000000000e+00) (0, 0, 0.00000000000000000000e+00) (0, 0, 0.00000000000000000000e+00) (7, 5, 5.00000000000000000000e-01) (7, 5, 5.00000000000000000000e-01) (7, 5, 5.00000000000000000000e-01) (7, 5, 5.00000000000000000000e-01) (7, 5, 5.00000000000000000000e-01) (7, 5, 5.00000000000000000000e-01) (7, 5, 5.00000000000000000000e-01) (7, 5, 5.00000000000000000000e-01) (7, 5, 5.00000000000000000000e-01) (7, 5, 5.00000000000000000000e-01) (7, 5, 5.00000000000000000000e-01) (7, 5, 5.00000000000000000000e-01) (7, 5, 5.00000000000000000000e-01) (7, 5, 5.00000000000000000000e-01) (7, 5, 5.00000000000000000000e-01) (7, 5, 5.00000000000000000000e-01) (7, 5, 5.00000000000000000000e-01) (7, 5, 5.00000000000000000000e-01) (7, 5, 5.00000000000000000000e-01) (7, 5, 5.00000000000000000000e-01) (7, 5, 5.00000000000000000000e-01) (7, 5, 5.00000000000000000000e-01) (7, 5, 5.00000000000000000000e-01) (7, 5, 5.00000000000000000000e-01) (7, 5, 5.00000000000000000000e-01) (7, 5, 5.00000000000000000000e-01) (7, 5, 5.00000000000000000000e-01) (7, 5, 5.00000000000000000000e-01) (7, 5, 5.00000000000000000000e-01) (7, 5, 5.00000000000000000000e-01) (7, 5, 5.00000000000000000000e-01) (7, 5, 5.00000000000000000000e-01) (7, 5, 5.00000000000000000000e-01) (7, 5, 5.00000000000000000000e-01) (7, 5, 5.00000000000000000000e-01) (7, 5, 5.00000000000000000000e-01) (7, 5, 5.00000000000000000000e-01) (7, 5, 5.00000000000000000000e-01) (7, 5, 5.00000000000000000000e-01) (7, 5, 5.00000000000000000000e-01) (7, 5, 5.00000000000000000000e-01) (7, 5, 5.00000000000000000000e-01) (7, 5, 5.00000000000000000000e-01) (7, 5, 5.00000000000000000000e-01) (7, 5, 5.00000000000000000000e-01) (7, 5, 5.00000000000000000000e-01) (7, 5, 5.00000000000000000000e-01) (7, 5, 5.00000000000000000000e-01) (7, 5, 5.00000000000000000000e-01) (7, 5, 5.00000000000000000000e-01) (7, 5, 5.00000000000000000000e-01) (7, 5, 5.00000000000000000000e-01) (7, 5, 5.00000000000000000000e-01) (7, 5, 5.00000000000000000000e-01) (7, 5, 5.00000000000000000000e-01) (7, 5, 5.00000000000000000000e-01) (7, 5, 5.00000000000000000000e-01) (7, 5, 5.00000000000000000000e-01) (7, 5, 5.00000000000000000000e-01) (7, 5, 5.00000000000000000000e-01) (7, 5, 5.00000000000000000000e-01) (7, 5, 5.00000000000000000000e-01) (7, 5, 5.00000000000000000000e-01) (7, 5, 5.00000000000000000000e-01) (7, 5, 5.00000000000000000000e-01) (7, 5, 5.00000000000000000000e-01) (7, 5, 5.00000000000000000000e-01) (7, 5, 5.00000000000000000000e-01) (7, 5, 5.00000000000000000000e-01) (7, 5, 5.00000000000000000000e-01) (7, 5, 5.00000000000000000000e-01) (7, 5, 5.00000000000000000000e-01) (7, 5, 5.00000000000000000000e-01) (7, 5, 5.00000000000000000000e-01) (7, 5, 5.00000000000000000000e-01) (7, 5, 5.00000000000000000000e-01) (7, 5, 5.00000000000000000000e-01) (7, 5, 5.00000000000000000000e-01) (7, 5, 5.00000000000000000000e-01) (7, 5, 5.00000000000000000000e-01) (7, 5, 5.00000000000000000000e-01) (7, 5, 5.00000000000000000000e-01) (7, 5, 5.00000000000000000000e-01) (7, 5, 5.00000000000000000000e-01) (7, 5, 5.00000000000000000000e-01) (7, 5, 5.00000000000000000000e-01) (7, 5, 5.00000000000000000000e-01) (7, 5, 5.00000000000000000000e-01) (7, 5, 5.00000000000000000000e-01) (7, 5, 5.00000000000000000000e-01) (7, 5, 5.00000000000000000000e-01) (7, 5, 5.00000000000000000000e-01) (7, 5, 5.00000000000000000000e-01) (7, 5, 5.00000000000000000000e-01) (7, 5, 5.00000000000000000000e-01) (7, 5, 5.00000000000000000000e-01) (7, 5, 5.00000000000000000000e-01) (7, 5, 5.00000000000000000000e-01) (7, 5, 5.00000000000000000000e-01) (7, 5, 5.00000000000000000000e-01) (0, 5, 0.00000000000000000000e+00) (101, 5, 5.00000000000000000000e-01) (101, 5, 5.00000000000000000000e-01) (101, 5, 5.00000000000000000000e-01) (101, 5, 5.00000000000000000000e-01) (0, 5, 0.00000000000000000000e+00) 
connections (connected_to_neuron, weight)=(0, 1.07764086914062500000e+03) (1, -1.80075576782226562500e+02) (2, 1.53771650791168212891e+00) (3, 2.02244475483894348145e-01) (4, 1.57563820481300354004e-01) (5, 2.62582898139953613281e-01) (6, 3.41966420412063598633e-01) (0, 3.61023071289062500000e+02) (1, 7.27973031997680664062e+00) (2, 5.58967888355255126953e-01) (3, 1.49118646979331970215e-01) (4, 1.21768191456794738770e-01) (5, 1.22969269752502441406e+00) (6, 6.37866377830505371094e-01) (0, 1.09982104492187500000e+03) (1, 1.51723451614379882812e+01) (2, 8.88005971908569335938e-01) (3, 2.03606083989143371582e-01) (4, 1.69841587543487548828e-01) (5, 4.39695388078689575195e-01) (6, 1.24107547104358673096e-01) (0, -5.25882324218750000000e+02) (1, 1.50000000000000000000e+03) (2, 3.59300196170806884766e-01) (3, 3.87516915798187255859e-01) (4, 3.46120893955230712891e-01) (5, 4.13765728473663330078e-01) (6, 3.02645117044448852539e-01) (0, -1.46731481933593750000e+03) (1, -6.60245835781097412109e-01) (2, 5.49034996032714843750e+01) (3, -7.59360611438751220703e-01) (4, -1.77295446395874023438e-01) (5, -2.76725947856903076172e-01) (6, -1.96937069296836853027e-01) (0, -2.63826007843017578125e+01) (1, -1.91652965545654296875e+01) (2, -3.25695902109146118164e-01) (3, 3.53508025407791137695e-01) (4, 5.31317412853240966797e-01) (5, -1.80062115192413330078e-01) (6, 4.47960197925567626953e-01) (0, -3.63577941894531250000e+02) (1, -1.07163619995117187500e+01) (2, -2.65116959810256958008e-01) (3, 2.09470644593238830566e-01) (4, 9.31524485349655151367e-02) (5, 5.99087029695510864258e-02) (6, 7.82334357500076293945e-02) (0, 1.50000000000000000000e+03) (1, -1.50000000000000000000e+03) (2, -1.50000000000000000000e+03) (3, -8.84572193026542663574e-02) (4, -3.53269219398498535156e-01) (5, -1.66940078139305114746e-01) (6, -1.79805830121040344238e-01) (0, 5.19128723144531250000e+02) (1, 3.67921371459960937500e+01) (2, 7.38293945789337158203e-01) (3, 2.52394199371337890625e-01) (4, 6.72902539372444152832e-02) (5, 1.11256289482116699219e+00) (6, 2.81836986541748046875e-01) (0, 9.07556335449218750000e+02) (1, -1.12525665760040283203e+00) (2, -2.91000753641128540039e-01) (3, 1.21785506606101989746e-01) (4, 1.04037187993526458740e-01) (5, -6.60428553819656372070e-02) (6, 7.99982994794845581055e-02) (0, 1.50000000000000000000e+03) (1, -1.50000000000000000000e+03) (2, -1.50000000000000000000e+03) (3, -1.57279327511787414551e-01) (4, -3.08228284120559692383e-01) (5, -3.79237085580825805664e-01) (6, -2.29438081383705139160e-01) (0, 9.57200256347656250000e+02) (1, -1.48734301757812500000e+03) (2, 1.54592216014862060547e+00) (3, 1.88588142395019531250e-01) (4, 2.64896124601364135742e-01) (5, 5.12357234954833984375e-01) (6, 1.75938174128532409668e-01) (0, 1.04867687988281250000e+03) (1, 1.50000000000000000000e+03) (2, 5.08026480674743652344e-01) (3, -6.74198120832443237305e-02) (4, 2.34627664089202880859e-01) (5, 5.30616641044616699219e-01) (6, 1.45001485943794250488e-01) (0, 6.24475280761718750000e+02) (1, -9.18056583404541015625e+00) (2, 1.93183116912841796875e+01) (3, 2.48500943183898925781e-01) (4, 1.35858356952667236328e-01) (5, 6.24206364154815673828e-01) (6, 1.05416737496852874756e-01) (0, 3.56801910400390625000e+01) (1, -2.52197708129882812500e+02) (2, -2.51655654907226562500e+02) (3, 1.05738505721092224121e-01) (4, 1.46970348432660102844e-02) (5, 5.12287132441997528076e-02) (6, -4.77861315011978149414e-02) (0, -1.50000000000000000000e+03) (1, 1.30556054687500000000e+03) (2, 1.50000000000000000000e+03) (3, 1.89194485545158386230e-01) (4, 8.94965305924415588379e-02) (5, 4.68164533376693725586e-01) (6, 2.42200106382369995117e-01) (0, 1.50000000000000000000e+03) (1, -1.32799491286277770996e-01) (2, -6.09366912841796875000e+01) (3, 2.02743068337440490723e-01) (4, 2.13755726814270019531e-01) (5, 3.37006509304046630859e-01) (6, 1.66828557848930358887e-01) (0, -7.94112205505371093750e-01) (1, -1.19364097595214843750e+02) (2, 3.10083603858947753906e+00) (3, 1.38679578900337219238e-01) (4, -9.31773483753204345703e-02) (5, 5.19939116202294826508e-04) (6, -8.00566747784614562988e-02) (0, -5.20318756103515625000e+01) (1, -4.33616981506347656250e+01) (2, 1.58414351940155029297e+00) (3, 1.17634236812591552734e-01) (4, -4.82177101075649261475e-02) (5, -2.55541242659091949463e-02) (6, 5.60200493782758712769e-03) (0, 1.50000000000000000000e+03) (1, 1.40496647357940673828e+00) (2, -1.38431882858276367188e+01) (3, 2.58935183286666870117e-01) (4, 2.40955352783203125000e-01) (5, -3.64370085299015045166e-02) (6, 1.06654837727546691895e-01) (0, 1.17948474121093750000e+03) (1, -1.50000000000000000000e+03) (2, 1.26488947868347167969e+00) (3, 1.75616398453712463379e-01) (4, 2.28114083409309387207e-01) (5, 7.42423713207244873047e-01) (6, 2.13577821850776672363e-01) (0, 1.50000000000000000000e+03) (1, 2.07582235336303710938e+00) (2, -1.11174356937408447266e+00) (3, 5.41161060333251953125e-01) (4, 4.60198760032653808594e-01) (5, 3.63982766866683959961e-01) (6, 4.93035048246383666992e-01) (0, 1.50000000000000000000e+03) (1, -1.98311824798583984375e+01) (2, -8.14320945739746093750e+00) (3, 5.97616493701934814453e-01) (4, 4.29706484079360961914e-01) (5, 7.74209126830101013184e-02) (6, 5.01520693302154541016e-01) (0, 1.50000000000000000000e+03) (1, -1.50000000000000000000e+03) (2, 4.77924615144729614258e-01) (3, -8.67220535874366760254e-02) (4, -6.68267533183097839355e-02) (5, -3.00346314907073974609e-01) (6, 7.60267749428749084473e-02) (0, 1.50000000000000000000e+03) (1, -1.29883125424385070801e-01) (2, -1.08586051940917968750e+02) (3, 2.85917311906814575195e-01) (4, 1.57045483589172363281e-01) (5, 9.50587633997201919556e-03) (6, 1.10412977635860443115e-01) (0, 1.11445007324218750000e+03) (1, -1.48316003417968750000e+03) (2, 6.02219104766845703125e-01) (3, 5.89823484420776367188e-01) (4, 3.81042838096618652344e-01) (5, 4.63902145624160766602e-01) (6, 5.76999127864837646484e-01) (0, 6.33280944824218750000e+02) (1, -2.63174700736999511719e+00) (2, -3.21334540843963623047e-01) (3, 2.76770234107971191406e-01) (4, 7.50332117080688476562e-01) (5, -2.19674676656723022461e-01) (6, 2.12328016757965087891e-01) (0, 1.92648178100585937500e+02) (1, -7.45602321624755859375e+00) (2, -3.10614168643951416016e-01) (3, 5.74558317661285400391e-01) (4, 3.99723321199417114258e-01) (5, 3.16252171993255615234e-01) (6, 1.71192631125450134277e-01) (0, 1.50000000000000000000e+03) (1, -1.50000000000000000000e+03) (2, -1.50000000000000000000e+03) (3, 2.17924490571022033691e-01) (4, 6.85686469078063964844e-01) (5, 7.74196445941925048828e-01) (6, 5.81914961338043212891e-01) (0, -7.20522033691406250000e+02) (1, 4.97845172882080078125e+00) (2, 7.57431945800781250000e+01) (3, 1.53512164950370788574e-01) (4, -2.42572464048862457275e-02) (5, -2.60117411613464355469e-01) (6, 1.46991550922393798828e-01) (0, 7.58826782226562500000e+02) (1, -3.68003501892089843750e+01) (2, 1.02492642402648925781e+00) (3, -7.38045526668429374695e-03) (4, 2.27230235934257507324e-01) (5, 3.27364176511764526367e-01) (6, 2.25617736577987670898e-01) (0, 1.50000000000000000000e+03) (1, -1.89087891578674316406e+00) (2, -3.86362314224243164062e-01) (3, 2.96208739280700683594e-01) (4, 3.17506156861782073975e-02) (5, 6.92390874028205871582e-02) (6, -4.51792702078819274902e-02) (0, 1.12558433532714843750e+02) (1, 4.87945604324340820312e+00) (2, 1.03473913669586181641e+00) (3, 8.93526449799537658691e-02) (4, 1.83956120163202285767e-02) (5, 9.11313533782958984375e-01) (6, 3.74260723590850830078e-01) (0, 1.48300646972656250000e+03) (1, 1.05457963943481445312e+01) (2, -9.65746678411960601807e-03) (3, 5.12957513332366943359e-01) (4, 4.61157053709030151367e-01) (5, 4.93140295147895812988e-02) (6, 3.99754226207733154297e-01) (0, 8.38943405151367187500e+01) (1, -1.28793999552726745605e-01) (2, -1.99214190244674682617e-01) (3, -1.10628016293048858643e-01) (4, 3.76773566007614135742e-01) (5, -1.28854081034660339355e-01) (6, 2.27994114160537719727e-01) (0, 1.50000000000000000000e+03) (1, -1.50000000000000000000e+03) (2, 5.08495010435581207275e-02) (3, -1.29416421055793762207e-01) (4, -5.49693405628204345703e-02) (5, -3.06256264448165893555e-01) (6, -1.27660408616065979004e-01) (0, 1.50000000000000000000e+03) (1, -1.75667613744735717773e-01) (2, 3.97309996187686920166e-02) (3, 4.54311370849609375000e-01) (4, 2.93751507997512817383e-01) (5, 2.60927766561508178711e-01) (6, 4.49943274259567260742e-01) (0, 1.50000000000000000000e+03) (1, 3.15346896648406982422e-01) (2, -5.52109003067016601562e-01) (3, 2.02423244714736938477e-01) (4, 2.45399653911590576172e-01) (5, 6.61899596452713012695e-02) (6, 1.42420917749404907227e-01) (0, 2.89440822601318359375e+00) (1, 3.25093126296997070312e+00) (2, -1.91190659999847412109e-01) (3, 1.39268547296524047852e-01) (4, -1.84588730335235595703e-02) (5, -4.30814027786254882812e-02) (6, -1.25827550888061523438e-01) (0, 5.13557861328125000000e+02) (1, 1.98284797668457031250e+01) (2, 1.51254510879516601562e+01) (3, 9.78915169835090637207e-02) (4, 1.23744653537869453430e-02) (5, 9.26722586154937744141e-01) (6, 5.43295294046401977539e-02) (0, 1.50000000000000000000e+03) (1, -1.50000000000000000000e+03) (2, 1.73190176486968994141e-01) (3, 2.81530380249023437500e-01) (4, 1.20228484272956848145e-01) (5, 1.33801853656768798828e+00) (6, 3.83551448583602905273e-01) (0, 6.27251220703125000000e+02) (1, 6.53634023666381835938e+00) (2, 3.08263450860977172852e-01) (3, 1.92860603332519531250e-01) (4, 1.14912837743759155273e-01) (5, 1.12186372280120849609e+00) (6, 1.61665558815002441406e-01) (0, 1.50000000000000000000e+03) (1, -1.50000000000000000000e+03) (2, -1.49841650390625000000e+03) (3, -2.89284557104110717773e-01) (4, 2.31563866138458251953e-01) (5, -4.24527734518051147461e-01) (6, 3.82292807102203369141e-01) (0, -4.79224151611328125000e+02) (1, 2.67708450555801391602e-01) (2, -1.61878630518913269043e-01) (3, 1.21349014341831207275e-01) (4, 1.65093988180160522461e-01) (5, -1.89805120229721069336e-01) (6, 6.08599595725536346436e-02) (0, -1.49291479492187500000e+03) (1, 1.50000000000000000000e+03) (2, -3.33449356257915496826e-02) (3, 3.31548780202865600586e-01) (4, 6.11994154751300811768e-02) (5, 2.40720093250274658203e-01) (6, 4.91908937692642211914e-02) (0, 1.59083618164062500000e+02) (1, 1.30767526626586914062e+01) (2, 8.39007568359375000000e+00) (3, 7.38921314477920532227e-02) (4, 1.50225413963198661804e-02) (5, 6.01942062377929687500e-01) (6, 2.28987053036689758301e-01) (0, -1.50000000000000000000e+03) (1, 1.50000000000000000000e+03) (2, 5.09758949279785156250e-01) (3, 1.49360969662666320801e-01) (4, 1.29594430327415466309e-01) (5, 7.77601897716522216797e-02) (6, 1.01670445874333381653e-02) (0, 1.50000000000000000000e+03) (1, -1.48446630859375000000e+03) (2, -1.19584191894531250000e+03) (3, 5.10914623737335205078e-01) (4, 9.44066047668457031250e-02) (5, 7.55127012729644775391e-01) (6, -4.09869886934757232666e-02) (0, 1.45480798339843750000e+03) (1, -1.36070056152343750000e+03) (2, -7.52683288574218750000e+02) (3, 1.47378534078598022461e-01) (4, 3.40584635734558105469e-01) (5, 3.42219889163970947266e-01) (6, 1.76652207970619201660e-01) (0, 1.10358312988281250000e+03) (1, -2.46769571304321289062e+00) (2, 2.02634200453758239746e-01) (3, 2.70273119211196899414e-01) (4, 4.51252967119216918945e-01) (5, -3.01392763853073120117e-01) (6, 3.13134968280792236328e-01) (0, -1.49937194824218750000e+03) (1, 1.50000000000000000000e+03) (2, -1.84807624816894531250e+01) (3, 3.86125981807708740234e-01) (4, 4.56897884607315063477e-01) (5, -2.35826119780540466309e-01) (6, 3.54988068342208862305e-01) (0, 5.49036750793457031250e+01) (1, -7.40149545669555664062e+00) (2, -3.97080928087234497070e-01) (3, 5.02912223339080810547e-01) (4, 4.15493607521057128906e-01) (5, -2.20433428883552551270e-01) (6, 3.48233222961425781250e-01) (0, -7.92306640625000000000e+02) (1, -6.08543395996093750000e+02) (2, 2.01773241162300109863e-01) (3, 1.71439275145530700684e-02) (4, 1.80766761302947998047e-01) (5, 9.94433239102363586426e-02) (6, 6.67811110615730285645e-02) (0, 1.07925280761718750000e+03) (1, -1.20499984741210937500e+02) (2, 1.21431815624237060547e+00) (3, 2.50960230827331542969e-01) (4, 2.04000070691108703613e-01) (5, 4.16081875562667846680e-01) (6, 2.24997341632843017578e-01) (0, 7.20996704101562500000e+02) (1, 4.17209959030151367188e+00) (2, 6.89365565776824951172e-01) (3, 2.13801607489585876465e-01) (4, 1.60263121128082275391e-01) (5, 4.89737749099731445312e-01) (6, 1.63315147161483764648e-01) (0, 8.16986816406250000000e+02) (1, -1.01774938964843750000e+03) (2, 1.60041141510009765625e+00) (3, 1.43554046750068664551e-01) (4, 1.54394254088401794434e-01) (5, 5.25013446807861328125e-01) (6, 1.32285237312316894531e-01) (0, -1.41800305175781250000e+03) (1, -1.12447965145111083984e+00) (2, 9.20584678649902343750e-01) (3, 1.06637954711914062500e-01) (4, 2.15265423059463500977e-01) (5, 2.69536543637514114380e-02) (6, 1.83542221784591674805e-01) (0, 1.50000000000000000000e+03) (1, -1.50000000000000000000e+03) (2, 1.33850657939910888672e+00) (3, 3.14891904592514038086e-01) (4, 4.55503195524215698242e-01) (5, 5.82293212413787841797e-01) (6, 5.63303291797637939453e-01) (0, 9.17065734863281250000e+01) (1, 6.75884366035461425781e-01) (2, 5.48203201293945312500e+01) (3, -5.37199787795543670654e-02) (4, 7.90869742631912231445e-02) (5, -1.33924577385187149048e-02) (6, 7.66874998807907104492e-02) (0, 7.33633117675781250000e+02) (1, 7.73348435759544372559e-02) (2, 2.43692830204963684082e-01) (3, 1.32409393787384033203e-01) (4, 1.79154098033905029297e-01) (5, 1.71555072069168090820e-01) (6, 1.78098738193511962891e-01) (0, 1.50000000000000000000e+03) (1, 2.23839974403381347656e+00) (2, -3.65997290611267089844e+00) (3, 6.01313471794128417969e-01) (4, 5.26581346988677978516e-01) (5, 4.25755649805068969727e-01) (6, 2.92575389146804809570e-01) (0, -1.41998876953125000000e+03) (1, -3.67121124267578125000e+00) (2, 4.67172712087631225586e-01) (3, 1.49996593594551086426e-01) (4, 2.81979739665985107422e-01) (5, 4.97056275606155395508e-01) (6, 2.92271673679351806641e-01) (0, 1.50000000000000000000e+03) (1, 9.46053504943847656250e-01) (2, -1.46092176437377929688e+00) (3, 2.65748322010040283203e-01) (4, 1.87757521867752075195e-01) (5, 4.62501645088195800781e-02) (6, 3.22289526462554931641e-01) (0, 2.61102104187011718750e+01) (1, 2.39202475547790527344e+00) (2, 2.17275352478027343750e+01) (3, 6.46334514021873474121e-02) (4, 6.36213719844818115234e-02) (5, 3.29512596130371093750e-01) (6, 4.78536486625671386719e-01) (0, 4.64839172363281250000e+00) (1, -1.87104644775390625000e+01) (2, -7.72379100322723388672e-01) (3, 8.76440629363059997559e-02) (4, 4.43056583404541015625e-01) (5, 7.33873844146728515625e-02) (6, 3.66570591926574707031e-01) (0, -1.50000000000000000000e+03) (1, 1.50000000000000000000e+03) (2, 4.08518880605697631836e-01) (3, 2.39315629005432128906e-02) (4, 3.91466408967971801758e-01) (5, 6.68134629726409912109e-01) (6, 4.22066658735275268555e-01) (0, 1.50000000000000000000e+03) (1, -1.29104900360107421875e+00) (2, -3.62054538726806640625e+00) (3, 3.50668579339981079102e-01) (4, 4.08909171819686889648e-01) (5, 5.91829344630241394043e-02) (6, 2.39999234676361083984e-01) (0, -1.41827026367187500000e+03) (1, 1.50000000000000000000e+03) (2, -1.28971740603446960449e-01) (3, 1.12917177379131317139e-01) (4, 2.69609361886978149414e-01) (5, 2.04052895307540893555e-01) (6, 2.14301556348800659180e-01) (0, 5.11611175537109375000e+02) (1, 2.84318494796752929688e+00) (2, 4.90879207849502563477e-01) (3, 1.70406013727188110352e-01) (4, 1.40780910849571228027e-01) (5, 5.33131599426269531250e-01) (6, 3.10436785221099853516e-01) (0, 1.50000000000000000000e+03) (1, 3.17647270858287811279e-02) (2, -6.32678556442260742188e+00) (3, 1.92056775093078613281e-01) (4, 3.25936436653137207031e-01) (5, 2.98781156539916992188e-01) (6, 1.78456798195838928223e-01) (0, 1.07769006347656250000e+03) (1, -4.28655426025390625000e+02) (2, 1.73489284515380859375e+00) (3, 1.43529757857322692871e-01) (4, 2.19355195760726928711e-01) (5, 2.75833725929260253906e-01) (6, 3.39145779609680175781e-01) (0, 3.60079231262207031250e+01) (1, -1.25551673889160156250e+02) (2, 1.52496185302734375000e+01) (3, 9.09360721707344055176e-02) (4, 3.56853120028972625732e-02) (5, -2.51409839838743209839e-02) (6, 3.54813374578952789307e-02) (0, 2.90526855468750000000e+02) (1, -2.79338653564453125000e+02) (2, -2.82141137123107910156e+00) (3, 1.35816320776939392090e-01) (4, 7.37829431891441345215e-02) (5, -8.20464491844177246094e-02) (6, 1.38909935951232910156e-01) (0, 3.11499938964843750000e+01) (1, -1.87954006195068359375e+01) (2, -2.87935674190521240234e-01) (3, 4.11185204982757568359e-01) (4, 4.72461849451065063477e-01) (5, -5.55459819734096527100e-02) (6, 3.06273311376571655273e-01) (0, 7.51284973144531250000e+02) (1, 1.58288230895996093750e+01) (2, 9.40495908260345458984e-01) (3, 1.54342770576477050781e-01) (4, 1.46793544292449951172e-01) (5, 1.19692111015319824219e+00) (6, 2.43244126439094543457e-01) (0, 1.50000000000000000000e+03) (1, -1.50000000000000000000e+03) (2, 4.93332475423812866211e-01) (3, 4.29996460676193237305e-01) (4, 3.38106125593185424805e-01) (5, 2.01383426785469055176e-01) (6, 4.21765089035034179688e-01) (0, 1.50000000000000000000e+03) (1, -6.83918476104736328125e-01) (2, -3.13128948211669921875e+00) (3, 4.71744239330291748047e-01) (4, 4.38086479902267456055e-01) (5, 2.41699919104576110840e-01) (6, 2.73311644792556762695e-01) (0, 9.16179138183593750000e+02) (1, -1.12301440429687500000e+03) (2, 2.21665501594543457031e+00) (3, 7.63647109270095825195e-02) (4, 1.99059605598449707031e-01) (5, 2.38854929804801940918e-01) (6, 3.45046937465667724609e-01) (0, 1.07454528808593750000e+03) (1, -1.08778125000000000000e+03) (2, 1.07607352733612060547e+00) (3, 7.76690319180488586426e-02) (4, 2.09674254059791564941e-01) (5, 7.84732520580291748047e-01) (6, 2.47201368212699890137e-01) (0, 7.22593078613281250000e+02) (1, -1.97487655639648437500e+02) (2, 8.33307862281799316406e-01) (3, 3.04565221071243286133e-01) (4, 1.30079314112663269043e-01) (5, 5.53872883319854736328e-01) (6, 3.31857323646545410156e-01) (0, -3.83316131591796875000e+02) (1, 8.50633773803710937500e+01) (2, -1.42813175916671752930e-01) (3, 1.12524740397930145264e-01) (4, 2.47645303606986999512e-01) (5, -3.51307615637779235840e-02) (6, 5.87629415094852447510e-02) (0, 7.75688415527343750000e+02) (1, -7.06801593303680419922e-01) (2, -5.42166717350482940674e-02) (3, 1.46344333887100219727e-01) (4, 3.67518007755279541016e-01) (5, 2.06685245037078857422e-01) (6, 1.31963312625885009766e-01) (0, 1.50000000000000000000e+03) (1, -1.43765148925781250000e+03) (2, 3.79495441913604736328e-01) (3, 1.13875076174736022949e-01) (4, 2.97911942005157470703e-01) (5, 8.46965789794921875000e-01) (6, 3.39080750942230224609e-01) (0, 2.81773406982421875000e+02) (1, -4.13367271423339843750e-01) (2, 3.40928770601749420166e-02) (3, -6.89873620867729187012e-02) (4, 7.43802413344383239746e-02) (5, -3.36436778306961059570e-02) (6, 8.81096795201301574707e-02) (0, 7.07546813964843750000e+02) (1, 9.99219036102294921875e+00) (2, 4.02056545019149780273e-01) (3, 1.84523388743400573730e-01) (4, 9.82763916254043579102e-02) (5, 4.58233505487442016602e-01) (6, 2.88993984460830688477e-01) (0, 7.48886474609375000000e+02) (1, -1.29338208007812500000e+03) (2, 5.77111244201660156250e-01) (3, 5.85030257701873779297e-01) (4, 3.53645026683807373047e-01) (5, 5.45244514942169189453e-01) (6, 5.95481097698211669922e-01) (0, -1.50000000000000000000e+03) (1, 4.59884246826171875000e+02) (2, 2.75916652679443359375e+01) (3, 9.89318415522575378418e-02) (4, 1.40936478972434997559e-01) (5, 6.81385576725006103516e-01) (6, 2.41161212325096130371e-01) (0, 1.21982666015625000000e+02) (1, 4.48313045501708984375e+00) (2, -1.67454206943511962891e+00) (3, 3.64564433693885803223e-02) (4, -5.38725033402442932129e-02) (5, 2.27490346878767013550e-02) (6, -1.61828607320785522461e-01) (0, 1.44477325439453125000e+02) (1, -1.92370986938476562500e+01) (2, -2.79825061559677124023e-01) (3, 3.61277073621749877930e-01) (4, 3.62415164709091186523e-01) (5, -1.98184549808502197266e-01) (6, 3.19294601678848266602e-01) (0, 1.14946830749511718750e+02) (1, 3.29062581062316894531e+00) (2, 8.99781823158264160156e-01) (3, -6.71370625495910644531e-02) (4, 1.66348144412040710449e-02) (5, 5.10170459747314453125e-02) (6, -9.48686897754669189453e-02) (0, 8.00684082031250000000e+02) (1, -2.73477125167846679688e+00) (2, -2.98846382647752761841e-02) (3, 4.88621085882186889648e-01) (4, 3.83739024400711059570e-01) (5, -1.37578189373016357422e-01) (6, 3.48393559455871582031e-01) (0, -9.00181579589843750000e+01) (1, -9.05456006526947021484e-01) (2, -4.42669183015823364258e-01) (3, 4.77161079645156860352e-01) (4, 5.29226601123809814453e-01) (5, -1.60160392522811889648e-01) (6, 4.67096507549285888672e-01) (0, 5.00369140625000000000e+02) (1, 2.66487669944763183594e+00) (2, 6.80925011634826660156e-01) (3, 1.74807459115982055664e-01) (4, 7.29789137840270996094e-02) (5, 5.18615067005157470703e-01) (6, 1.34312614798545837402e-01) (0, 9.66165161132812500000e+02) (1, -1.48347351074218750000e+03) (2, 1.44110596179962158203e+00) (3, 2.98280566930770874023e-01) (4, 1.42809048295021057129e-01) (5, 5.67861735820770263672e-01) (6, 1.89594194293022155762e-01) (0, 6.87692504882812500000e+02) (1, 6.51328086853027343750e+00) (2, 1.22834198176860809326e-01) (3, 1.34380519390106201172e-01) (4, 9.97124239802360534668e-02) (5, 4.28020685911178588867e-01) (6, 3.00056427717208862305e-01) (0, -3.17700805664062500000e+02) (1, -2.58821105957031250000e+02) (2, -2.63439357280731201172e-01) (3, 6.21883496642112731934e-02) (4, 7.29733780026435852051e-02) (5, -7.76709243655204772949e-02) (6, -1.98581758886575698853e-02) (0, -1.49488647460937500000e+03) (1, 8.64720630645751953125e+00) (2, 2.57597279548645019531e+00) (3, 1.41972497105598449707e-01) (4, 1.45997449755668640137e-01) (5, 3.94842058420181274414e-01) (6, 2.26940721273422241211e-01) (0, 1.50000000000000000000e+03) (1, -1.50000000000000000000e+03) (2, -1.50000000000000000000e+03) (3, -7.55189836025238037109e-01) (4, -6.19401693344116210938e-01) (5, 1.02332361042499542236e-01) (6, -5.51258087158203125000e-01) (0, -1.50000000000000000000e+03) (1, 1.49999987792968750000e+03) (2, 1.69144257903099060059e-01) (3, 1.18161529302597045898e-01) (4, 2.25898236036300659180e-01) (5, 1.71042427420616149902e-01) (6, 1.60510465502738952637e-01) (0, -4.12671875000000000000e+02) (1, 1.37388896942138671875e+00) (2, -2.15896785259246826172e-01) (3, 1.66976422071456909180e-01) (4, 2.60248094797134399414e-01) (5, -7.22940042614936828613e-02) (6, 1.29497915506362915039e-01) (7, -2.67361849546432495117e-01) (8, -1.65875345468521118164e-01) (9, -1.96799337863922119141e-01) (10, 2.35146835446357727051e-01) (11, -1.89058966934680938721e-02) (12, 2.31737226247787475586e-01) (13, 2.75472402572631835938e-01) (14, 4.12349313497543334961e-01) (15, -1.53700828552246093750e-01) (16, 5.07282853126525878906e-01) (17, 9.11058723926544189453e-01) (18, -1.56718879938125610352e-01) (19, 1.57898649573326110840e-01) (20, -2.62391626834869384766e-01) (21, -6.81470632553100585938e-02) (22, -2.64029979705810546875e-01) (23, 1.47243931889533996582e-01) (24, -8.30211341381072998047e-01) (25, -4.18412536382675170898e-01) (26, 3.22540909051895141602e-01) (27, -1.95792078971862792969e-01) (28, 2.91183471679687500000e-01) (29, 3.76082509756088256836e-01) (30, 1.01062171161174774170e-01) (31, 2.37024590373039245605e-01) (32, -1.78861647844314575195e-01) (33, 1.92828744649887084961e-01) (34, 1.99880808591842651367e-01) (35, 5.00492036342620849609e-01) (36, -7.91677157394587993622e-04) (37, -1.67690217494964599609e-01) (38, 5.54092638194561004639e-02) (39, -2.34293833374977111816e-01) (40, 2.56793200969696044922e-01) (41, 4.85735148191452026367e-01) (42, 2.81116127967834472656e-01) (43, 9.74473357200622558594e-02) (44, 3.02087038755416870117e-01) (45, 2.78050601482391357422e-01) (46, -2.76541173458099365234e-01) (47, -9.01720020920038223267e-03) (48, -2.07077533006668090820e-01) (49, 9.82589423656463623047e-02) (50, 2.88774102926254272461e-01) (51, 5.41569925844669342041e-02) (52, -2.65671491622924804688e-01) (53, -8.68141651153564453125e-03) (54, 5.70608317852020263672e-01) (55, 1.09824448823928833008e-01) (56, 1.56924635171890258789e-01) (57, 3.37387472391128540039e-02) (58, 2.49599456787109375000e-01) (59, 4.31090593338012695312e-02) (60, -2.44662776589393615723e-01) (61, -1.91055566072463989258e-01) (62, -2.31874454766511917114e-02) (63, 1.29702880978584289551e-01) (64, 7.86796733736991882324e-02) (65, -6.70534729957580566406e-01) (66, 4.43314092990476638079e-05) (67, 2.80550956726074218750e-01) (68, 8.02315622568130493164e-02) (69, 2.60082155466079711914e-01) (70, -2.74533361196517944336e-01) (71, 2.50331670045852661133e-01) (72, -1.48586910218000411987e-02) (73, 4.38827902078628540039e-01) (74, 8.14553946256637573242e-02) (75, -2.10268139839172363281e-01) (76, 2.23876148462295532227e-01) (77, -2.99834340810775756836e-01) (78, -1.81797295808792114258e-01) (79, 2.66777068376541137695e-01) (80, 2.23472684621810913086e-01) (81, -1.71058624982833862305e-01) (82, 6.07202313840389251709e-02) (83, 3.11094313859939575195e-01) (84, -1.70496895909309387207e-01) (85, -1.85699820518493652344e-01) (86, -1.79500848054885864258e-01) (87, 2.97800034284591674805e-01) (88, 4.61372524499893188477e-01) (89, 1.13045439124107360840e-01) (90, 3.84095370769500732422e-01) (91, -1.94140017032623291016e-01) (92, -2.82383769750595092773e-01) (93, -3.07107299566268920898e-01) (94, 1.40147078037261962891e+00) (95, 2.25988954305648803711e-01) (96, -8.21676850318908691406e-01) (97, 1.90108388662338256836e-01) (98, 4.27513152360916137695e-01) (99, -2.25925981998443603516e-01) (100, -2.08647906780242919922e-01) (101, -1.95936828851699829102e-01) (102, 3.03128778934478759766e-01) (103, -1.92666783928871154785e-01) (104, 3.15799623727798461914e-01) (105, 2.46069822460412979126e-02) (106, 2.28122085332870483398e-01) (107, 1.98129296302795410156e-01) (7, 3.16692590713500976562e-01) (8, 2.16359555721282958984e-01) (9, 2.74171084165573120117e-01) (10, -2.42535695433616638184e-01) (11, 9.65084806084632873535e-02) (12, -1.71417444944381713867e-01) (13, -2.46137872338294982910e-01) (14, 7.39463746547698974609e-01) (15, 2.64168947935104370117e-01) (16, 9.24683660268783569336e-02) (17, 7.23916947841644287109e-01) (18, 3.14683020114898681641e-01) (19, -1.49264082312583923340e-01) (20, 3.28431665897369384766e-01) (21, 9.46461036801338195801e-02) (22, -5.33466823399066925049e-02) (23, 4.08033803105354309082e-02) (24, 4.14565235376358032227e-01) (25, 4.04545605182647705078e-01) (26, -1.39805585145950317383e-01) (27, 3.91456782817840576172e-01) (28, -1.04310572147369384766e-01) (29, -2.41894368082284927368e-02) (30, 3.07041645050048828125e-01) (31, 8.29088967293500900269e-03) (32, 3.78542542457580566406e-01) (33, -1.61495983600616455078e-01) (34, -1.04031533002853393555e-01) (35, 3.40542107820510864258e-01) (36, 1.62942670285701751709e-02) (37, 2.47393786907196044922e-01) (38, -2.82448120415210723877e-02) (39, 2.30791926383972167969e-01) (40, -1.51912361383438110352e-01) (41, -2.37539082765579223633e-01) (42, 1.78521111607551574707e-01) (43, 9.79501381516456604004e-02) (44, -1.44115865230560302734e-01) (45, 1.53601258993148803711e-01) (46, 1.82301327586174011230e-01) (47, 2.62548089027404785156e-01) (48, 2.79027163982391357422e-01) (49, 1.44593492150306701660e-01) (50, -8.49716365337371826172e-01) (51, -3.01280885934829711914e-01) (52, 2.43210807442665100098e-01) (53, -7.30101987719535827637e-02) (54, 2.31635630130767822266e-01) (55, -1.47395417094230651855e-01) (56, -1.44228398799896240234e-01) (57, -8.79111468791961669922e-01) (58, -1.27997159957885742188e-01) (59, 1.03015173226594924927e-02) (60, 3.43633294105529785156e-01) (61, 2.70620793104171752930e-01) (62, 8.72468948364257812500e-03) (63, -1.42167687416076660156e-01) (64, 2.62411147356033325195e-01) (65, 7.96547755599021911621e-02) (66, 9.06229391694068908691e-02) (67, -8.19248184561729431152e-02) (68, -7.15182647109031677246e-02) (69, -1.02305524051189422607e-01) (70, 2.11384296417236328125e-01) (71, -1.60913139581680297852e-01) (72, -5.34478835761547088623e-02) (73, -1.09951406717300415039e-01) (74, -1.59216731786727905273e-01) (75, 2.29965507984161376953e-01) (76, -1.44448816776275634766e-01) (77, 3.69157016277313232422e-01) (78, 6.64511978626251220703e-01) (79, -2.00739413499832153320e-01) (80, -1.29237949848175048828e-01) (81, 2.65966445207595825195e-01) (82, 1.44377887248992919922e-01) (83, -9.12873223423957824707e-02) (84, 2.43976041674613952637e-01) (85, 2.98684567213058471680e-01) (86, 3.25239002704620361328e-01) (87, -2.46531635522842407227e-01) (88, -1.31812334060668945312e-01) (89, 6.41589984297752380371e-02) (90, 7.50700235366821289062e-02) (91, 2.65218615531921386719e-01) (92, 3.24897706508636474609e-01) (93, -1.92823112010955810547e-02) (94, 5.00155985355377197266e-02) (95, -1.76930636167526245117e-01) (96, 4.04640614986419677734e-01) (97, -1.49510771036148071289e-01) (98, -4.29247796535491943359e-01) (99, 2.28666901588439941406e-01) (100, 4.02545630931854248047e-01) (101, 2.76320397853851318359e-01) (102, -3.45874130725860595703e-01) (103, 7.83550739288330078125e-02) (104, 7.00502991676330566406e-01) (105, -2.33397912234067916870e-02) (106, -1.94882690906524658203e-01) (107, -1.88067123293876647949e-01) (7, -1.77135318517684936523e-01) (8, -3.08227002620697021484e-01) (9, -2.42839410901069641113e-01) (10, 3.24772655963897705078e-01) (11, 4.62634712457656860352e-01) (12, 3.73921453952789306641e-01) (13, 2.96002089977264404297e-01) (14, 7.15547576546669006348e-02) (15, -3.01230013370513916016e-01) (16, 5.90803027153015136719e-01) (17, 7.79224932193756103516e-01) (18, -1.79633259773254394531e-01) (19, 2.96944063156843185425e-02) (20, -2.41552457213401794434e-01) (21, 9.93286538869142532349e-03) (22, -1.81568235158920288086e-01) (23, -1.27050325274467468262e-01) (24, 1.80205464363098144531e+00) (25, -4.29339380934834480286e-03) (26, 2.01721489429473876953e-01) (27, -2.35927700996398925781e-01) (28, 3.41225445270538330078e-01) (29, 5.44598162174224853516e-01) (30, 8.74395668506622314453e-01) (31, 4.82423081994056701660e-02) (32, -1.78318619728088378906e-01) (33, 3.72927427291870117188e-01) (34, 3.09679388999938964844e-01) (35, -1.65593311190605163574e-01) (36, 4.21534776687622070312e-01) (37, -1.84507489204406738281e-01) (38, 1.75702162086963653564e-02) (39, -2.67408490180969238281e-01) (40, 3.10186028480529785156e-01) (41, -4.95558716356754302979e-02) (42, 7.67029941082000732422e-01) (43, 1.32169220596551895142e-02) (44, 4.64396059513092041016e-01) (45, 2.53590375185012817383e-01) (46, -2.16585248708724975586e-01) (47, -1.36982887983322143555e-01) (48, -2.92498409748077392578e-01) (49, 1.24150753021240234375e-01) (50, -3.12289013527333736420e-03) (51, -1.16140380501747131348e-01) (52, -1.78325861692428588867e-01) (53, 2.09102127701044082642e-02) (54, -3.13594222068786621094e-01) (55, 1.67551904916763305664e-01) (56, 3.82817804813385009766e-01) (57, 3.94379273056983947754e-02) (58, 3.43236207962036132812e-01) (59, 3.46365064382553100586e-01) (60, -2.46303156018257141113e-01) (61, -2.95376420021057128906e-01) (62, -2.31214672327041625977e-01) (63, 6.52459263801574707031e-01) (64, -2.46913656592369079590e-02) (65, 7.66039267182350158691e-03) (66, 3.39765548706054687500e-02) (67, 2.87279009819030761719e-01) (68, 4.65139448642730712891e-01) (69, 3.41976106166839599609e-01) (70, -1.79852873086929321289e-01) (71, 3.42634916305541992188e-01) (72, 5.79708535224199295044e-03) (73, 4.90481704473495483398e-01) (74, 2.27279797196388244629e-01) (75, -2.59524554014205932617e-01) (76, -8.34672525525093078613e-02) (77, -1.89060956239700317383e-01) (78, 1.48194693028926849365e-02) (79, 1.45447794348001480103e-02) (80, 3.21140408515930175781e-01) (81, -2.93754160404205322266e-01) (82, 6.20121620595455169678e-02) (83, 3.11708092689514160156e-01) (84, -1.85723796486854553223e-01) (85, -2.21277415752410888672e-01) (86, -2.46404752135276794434e-01) (87, 3.64934563636779785156e-01) (88, 2.47863337397575378418e-01) (89, -3.18543799221515655518e-02) (90, 2.74147599935531616211e-01) (91, -2.41875141859054565430e-01) (92, -2.29363679885864257812e-01) (93, -1.46234422922134399414e-01) (94, -1.80922484397888183594e+00) (95, 3.85990321636199951172e-01) (96, -1.33247906342148780823e-02) (97, 3.71766209602355957031e-01) (98, 7.50630676746368408203e-01) (99, -2.59709388017654418945e-01) (100, -2.54645973443984985352e-01) (101, -3.06078255176544189453e-01) (102, -1.68935139663517475128e-03) (103, -1.76950484514236450195e-01) (104, 1.27222001552581787109e-01) (105, -1.82307269424200057983e-02) (106, 3.01067411899566650391e-01) (107, 3.27538490295410156250e-01) (7, 2.22245633602142333984e-01) (8, 2.21238136291503906250e-01) (9, 2.20259994268417358398e-01) (10, 3.43630701303482055664e-01) (11, 2.75302469730377197266e-01) (12, -9.03209596872329711914e-02) (13, -1.88384547829627990723e-01) (14, 3.25020104646682739258e-01) (15, 3.01284909248352050781e-01) (16, 9.31828618049621582031e-02) (17, 2.91024416685104370117e-01) (18, 3.05707216262817382812e-01) (19, -1.42599772661924362183e-02) (20, 3.35866600275039672852e-01) (21, -1.04366326704621315002e-02) (22, -9.98445600271224975586e-02) (23, 2.96100616455078125000e-01) (24, -1.71873652935028076172e+00) (25, -2.41602554917335510254e-01) (26, -2.79493749141693115234e-01) (27, 2.44973063468933105469e-01) (28, -2.00316652655601501465e-01) (29, -5.75247943401336669922e-01) (30, 2.14052557945251464844e-01) (31, -6.91275447607040405273e-02) (32, -2.41389170289039611816e-01) (33, -9.28260982036590576172e-02) (34, 1.81057095527648925781e-01) (35, -1.75548747181892395020e-01) (36, -1.43922241404652595520e-02) (37, 3.08840274810791015625e-01) (38, -3.46836268901824951172e-01) (39, 3.10936868190765380859e-01) (40, -2.77692854404449462891e-01) (41, 8.71661230921745300293e-02) (42, 7.58274614810943603516e-01) (43, 3.81327271461486816406e-01) (44, -3.05449247360229492188e-01) (45, -1.29462912678718566895e-01) (46, 2.56383717060089111328e-01) (47, -2.67376303672790527344e-01) (48, 2.43600308895111083984e-01) (49, 1.10866948962211608887e-01) (50, 3.95750515162944793701e-02) (51, -2.03302368521690368652e-01) (52, 3.08302521705627441406e-01) (53, 3.40950414538383483887e-02) (54, 1.21322922408580780029e-01) (55, 3.66016775369644165039e-02) (56, -1.04048848152160644531e-01) (57, 6.63915509358048439026e-03) (58, -1.43060356378555297852e-01) (59, 5.52812144160270690918e-02) (60, 2.84710526466369628906e-01) (61, 2.97367364168167114258e-01) (62, -5.68153224885463714600e-02) (63, 5.52235960960388183594e-01) (64, 3.09882223606109619141e-01) (65, -1.01760942488908767700e-02) (66, 3.73152673244476318359e-01) (67, -2.68531441688537597656e-01) (68, 8.88899564743041992188e-02) (69, -4.28083002567291259766e-01) (70, 3.23628395795822143555e-01) (71, -1.11578047275543212891e-01) (72, 1.87791302800178527832e-01) (73, -2.52398401498794555664e-01) (74, 8.68419781327247619629e-02) (75, 2.35219538211822509766e-01) (76, -3.17128181457519531250e-01) (77, 2.59768545627593994141e-01) (78, 8.23936164379119873047e-02) (79, 2.69736647605895996094e-02) (80, -1.08367569744586944580e-01) (81, 2.52327740192413330078e-01) (82, 3.62504303455352783203e-01) (83, -1.62549167871475219727e-01) (84, 8.54127481579780578613e-02) (85, 1.93596407771110534668e-01) (86, 3.37401479482650756836e-01) (87, -2.43047162890434265137e-01) (88, 5.55955171585083007812e-01) (89, 2.69378751516342163086e-01) (90, 5.84957242012023925781e-01) (91, 2.50203967094421386719e-01) (92, -2.33848303556442260742e-01) (93, 6.02952122688293457031e-01) (94, -2.92692389339208602905e-02) (95, -1.10872991383075714111e-01) (96, 4.98425699770450592041e-02) (97, -1.50833517313003540039e-01) (98, -5.79947650432586669922e-01) (99, 2.45529413223266601562e-01) (100, 3.53251904249191284180e-01) (101, 3.03993523120880126953e-01) (102, -1.71408941969275474548e-03) (103, 6.01897463202476501465e-02) (104, 3.94985884428024291992e-01) (105, 3.08373034000396728516e-01) (106, -1.98452949523925781250e-01) (107, -2.53835558891296386719e-01) 
