FANN_FLO_2.1
num_layers=3
learning_rate=0.001000
connection_rate=1.000000
network_type=0
learning_momentum=0.000000
training_algorithm=2
train_error_function=1
train_stop_function=0
cascade_output_change_fraction=0.010000
quickprop_decay=-0.000100
quickprop_mu=1.750000
rprop_increase_factor=1.200000
rprop_decrease_factor=0.500000
rprop_delta_min=0.000000
rprop_delta_max=50.000000
rprop_delta_zero=0.100000
cascade_output_stagnation_epochs=12
cascade_candidate_change_fraction=0.010000
cascade_candidate_stagnation_epochs=12
cascade_max_out_epochs=150
cascade_min_out_epochs=50
cascade_max_cand_epochs=150
cascade_min_cand_epochs=50
cascade_num_candidate_groups=2
bit_fail_limit=3.49999994039535522461e-01
cascade_candidate_limit=1.00000000000000000000e+03
cascade_weight_multiplier=4.00000005960464477539e-01
cascade_activation_functions_count=10
cascade_activation_functions=3 5 7 8 10 11 14 15 16 17 
cascade_activation_steepnesses_count=4
cascade_activation_steepnesses=2.50000000000000000000e-01 5.00000000000000000000e-01 7.50000000000000000000e-01 1.00000000000000000000e+00 
layer_sizes=7 101 5 
scale_included=0
neurons (num_inputs, activation_function, activation_steepness)=(0, 0, 0.00000000000000000000e+00) (0, 0, 0.00000000000000000000e+00) (0, 0, 0.00000000000000000000e+00) (0, 0, 0.00000000000000000000e+00) (0, 0, 0.00000000000000000000e+00) (0, 0, 0.00000000000000000000e+00) (0, 0, 0.00000000000000000000e+00) (7, 5, 5.00000000000000000000e-01) (7, 5, 5.00000000000000000000e-01) (7, 5, 5.00000000000000000000e-01) (7, 5, 5.00000000000000000000e-01) (7, 5, 5.00000000000000000000e-01) (7, 5, 5.00000000000000000000e-01) (7, 5, 5.00000000000000000000e-01) (7, 5, 5.00000000000000000000e-01) (7, 5, 5.00000000000000000000e-01) (7, 5, 5.00000000000000000000e-01) (7, 5, 5.00000000000000000000e-01) (7, 5, 5.00000000000000000000e-01) (7, 5, 5.00000000000000000000e-01) (7, 5, 5.00000000000000000000e-01) (7, 5, 5.00000000000000000000e-01) (7, 5, 5.00000000000000000000e-01) (7, 5, 5.00000000000000000000e-01) (7, 5, 5.00000000000000000000e-01) (7, 5, 5.00000000000000000000e-01) (7, 5, 5.00000000000000000000e-01) (7, 5, 5.00000000000000000000e-01) (7, 5, 5.00000000000000000000e-01) (7, 5, 5.00000000000000000000e-01) (7, 5, 5.00000000000000000000e-01) (7, 5, 5.00000000000000000000e-01) (7, 5, 5.00000000000000000000e-01) (7, 5, 5.00000000000000000000e-01) (7, 5, 5.00000000000000000000e-01) (7, 5, 5.00000000000000000000e-01) (7, 5, 5.00000000000000000000e-01) (7, 5, 5.00000000000000000000e-01) (7, 5, 5.00000000000000000000e-01) (7, 5, 5.00000000000000000000e-01) (7, 5, 5.00000000000000000000e-01) (7, 5, 5.00000000000000000000e-01) (7, 5, 5.00000000000000000000e-01) (7, 5, 5.00000000000000000000e-01) (7, 5, 5.00000000000000000000e-01) (7, 5, 5.00000000000000000000e-01) (7, 5, 5.00000000000000000000e-01) (7, 5, 5.00000000000000000000e-01) (7, 5, 5.00000000000000000000e-01) (7, 5, 5.00000000000000000000e-01) (7, 5, 5.00000000000000000000e-01) (7, 5, 5.00000000000000000000e-01) (7, 5, 5.00000000000000000000e-01) (7, 5, 5.00000000000000000000e-01) (7, 5, 5.00000000000000000000e-01) (7, 5, 5.00000000000000000000e-01) (7, 5, 5.00000000000000000000e-01) (7, 5, 5.00000000000000000000e-01) (7, 5, 5.00000000000000000000e-01) (7, 5, 5.00000000000000000000e-01) (7, 5, 5.00000000000000000000e-01) (7, 5, 5.00000000000000000000e-01) (7, 5, 5.00000000000000000000e-01) (7, 5, 5.00000000000000000000e-01) (7, 5, 5.00000000000000000000e-01) (7, 5, 5.00000000000000000000e-01) (7, 5, 5.00000000000000000000e-01) (7, 5, 5.00000000000000000000e-01) (7, 5, 5.00000000000000000000e-01) (7, 5, 5.00000000000000000000e-01) (7, 5, 5.00000000000000000000e-01) (7, 5, 5.00000000000000000000e-01) (7, 5, 5.00000000000000000000e-01) (7, 5, 5.00000000000000000000e-01) (7, 5, 5.00000000000000000000e-01) (7, 5, 5.00000000000000000000e-01) (7, 5, 5.00000000000000000000e-01) (7, 5, 5.00000000000000000000e-01) (7, 5, 5.00000000000000000000e-01) (7, 5, 5.00000000000000000000e-01) (7, 5, 5.00000000000000000000e-01) (7, 5, 5.00000000000000000000e-01) (7, 5, 5.00000000000000000000e-01) (7, 5, 5.00000000000000000000e-01) (7, 5, 5.00000000000000000000e-01) (7, 5, 5.00000000000000000000e-01) (7, 5, 5.00000000000000000000e-01) (7, 5, 5.00000000000000000000e-01) (7, 5, 5.00000000000000000000e-01) (7, 5, 5.00000000000000000000e-01) (7, 5, 5.00000000000000000000e-01) (7, 5, 5.00000000000000000000e-01) (7, 5, 5.00000000000000000000e-01) (7, 5, 5.00000000000000000000e-01) (7, 5, 5.00000000000000000000e-01) (7, 5, 5.00000000000000000000e-01) (7, 5, 5.00000000000000000000e-01) (7, 5, 5.00000000000000000000e-01) (7, 5, 5.00000000000000000000e-01) (7, 5, 5.00000000000000000000e-01) (7, 5, 5.00000000000000000000e-01) (7, 5, 5.00000000000000000000e-01) (7, 5, 5.00000000000000000000e-01) (7, 5, 5.00000000000000000000e-01) (7, 5, 5.00000000000000000000e-01) (7, 5, 5.00000000000000000000e-01) (7, 5, 5.00000000000000000000e-01) (0, 5, 0.00000000000000000000e+00) (101, 5, 5.00000000000000000000e-01) (101, 5, 5.00000000000000000000e-01) (101, 5, 5.00000000000000000000e-01) (101, 5, 5.00000000000000000000e-01) (0, 5, 0.00000000000000000000e+00) 
connections (connected_to_neuron, weight)=(0, -5.44628381729125976562e-01) (1, 7.20432773232460021973e-02) (2, 9.64653074741363525391e-01) (3, 8.49962905049324035645e-02) (4, 1.91921293735504150391e-01) (5, -2.66905009746551513672e-01) (6, 1.31658241152763366699e-01) (0, -2.18451227992773056030e-02) (1, 3.59699904918670654297e-01) (2, 4.03905302286148071289e-01) (3, 3.47128063440322875977e-01) (4, 4.70265060663223266602e-01) (5, 4.91668879985809326172e-01) (6, 3.48745077848434448242e-01) (0, -1.79146194458007812500e+01) (1, -6.08144663274288177490e-02) (2, -4.19108390808105468750e+00) (3, -3.13746854662895202637e-02) (4, -4.73444648087024688721e-02) (5, 2.33226139098405838013e-02) (6, 7.47563093900680541992e-02) (0, -1.49996875000000000000e+03) (1, 5.93696177005767822266e-01) (2, 1.41631603240966796875e+01) (3, 3.97949814796447753906e-01) (4, 4.77496117353439331055e-01) (5, 4.75847899913787841797e-01) (6, 6.05606138706207275391e-01) (0, 7.26432323455810546875e-01) (1, -9.29068997502326965332e-02) (2, -1.34542271494865417480e-01) (3, 3.38185462169349193573e-03) (4, 5.26190921664237976074e-02) (5, -5.48506192862987518311e-02) (6, 1.77969876676797866821e-02) (0, -2.75595277547836303711e-01) (1, 5.96462249755859375000e-01) (2, 6.28850400447845458984e-01) (3, 3.88120561838150024414e-01) (4, 4.13103967905044555664e-01) (5, 4.11616861820220947266e-01) (6, 4.60091829299926757812e-01) (0, 5.35336494445800781250e-01) (1, 5.10960817337036132812e-01) (2, 4.17099237442016601562e-01) (3, 3.31017449498176574707e-02) (4, 2.28116773068904876709e-02) (5, 9.13939401507377624512e-02) (6, 2.34605409204959869385e-02) (0, 9.99573528766632080078e-01) (1, 3.69458866119384765625e+00) (2, -3.55572327971458435059e-02) (3, -5.27925975620746612549e-02) (4, -3.40573377907276153564e-02) (5, 3.83059084415435791016e-02) (6, -2.05558743327856063843e-02) (0, 1.07487380504608154297e-01) (1, -4.58331741392612457275e-02) (2, -3.49988639354705810547e-02) (3, -2.58652940392494201660e-02) (4, 2.18186564743518829346e-02) (5, 2.15083602815866470337e-02) (6, -1.08589835464954376221e-01) (0, 1.08094970703125000000e+03) (1, 3.06421220302581787109e-01) (2, 1.88843655586242675781e+00) (3, 4.36240434646606445312e-02) (4, 6.41604304313659667969e-01) (5, 2.55110919475555419922e-01) (6, 5.79360902309417724609e-01) (0, -2.87224352359771728516e-01) (1, 4.69836384057998657227e-01) (2, 4.16590005159378051758e-01) (3, 4.38335478305816650391e-01) (4, 4.97299224138259887695e-01) (5, 4.73659723997116088867e-01) (6, 3.49007338285446166992e-01) (0, -1.21947173029184341431e-02) (1, 3.13886380195617675781e+00) (2, 1.13667762279510498047e+00) (3, 4.81790035963058471680e-01) (4, 4.55156683921813964844e-01) (5, 5.71198642253875732422e-01) (6, 5.70645630359649658203e-01) (0, -1.35177343750000000000e+03) (1, 4.37564522027969360352e-01) (2, -2.81471347808837890625e+00) (3, 4.31612104177474975586e-01) (4, 2.92863816022872924805e-01) (5, 4.96832847595214843750e-01) (6, 4.21497821807861328125e-01) (0, -1.57746791839599609375e-01) (1, -5.75124472379684448242e-02) (2, -2.70922183990478515625e-01) (3, 4.07727248966693878174e-02) (4, -4.30568568408489227295e-02) (5, -8.32746997475624084473e-02) (6, 1.89591739326715469360e-02) (0, -1.15100145339965820312e-01) (1, 4.74145829677581787109e-01) (2, 3.48245888948440551758e-01) (3, 4.89917248487472534180e-01) (4, 4.72790092229843139648e-01) (5, 4.12846297025680541992e-01) (6, 3.47935229539871215820e-01) (0, 3.11884045600891113281e-01) (1, 5.63317358493804931641e-01) (2, 8.00424396991729736328e-01) (3, 4.19227778911590576172e-01) (4, 5.94254195690155029297e-01) (5, 4.02658939361572265625e-01) (6, 5.74809849262237548828e-01) (0, -6.66815643310546875000e+01) (1, 2.09780596196651458740e-02) (2, 3.92017439007759094238e-02) (3, 2.71985325962305068970e-02) (4, -5.40701448917388916016e-02) (5, 6.01394698023796081543e-02) (6, -6.37198016047477722168e-02) (0, 5.12369811534881591797e-01) (1, 7.20906972885131835938e-01) (2, 6.37558221817016601562e-01) (3, 5.19176661968231201172e-01) (4, 4.71748620271682739258e-01) (5, 5.07539749145507812500e-01) (6, 4.66705650091171264648e-01) (0, -8.16415222167968750000e+02) (1, -1.15241253376007080078e+00) (2, -1.98553442955017089844e-01) (3, -2.12208795547485351562e+00) (4, -1.02809882164001464844e+00) (5, -3.29218953847885131836e-01) (6, -1.03579604625701904297e+00) (0, 2.36190080642700195312e-01) (1, 3.85436683893203735352e-01) (2, -2.23502181470394134521e-02) (3, 5.06325542926788330078e-01) (4, 4.44121807813644409180e-01) (5, 4.85259532928466796875e-01) (6, 5.16577363014221191406e-01) (0, -6.00181408226490020752e-02) (1, -1.91187053918838500977e-01) (2, 1.11150993034243583679e-02) (3, -1.48491887375712394714e-02) (4, 3.09657845646142959595e-02) (5, -1.15248620510101318359e-01) (6, -2.22960971295833587646e-02) (0, -1.45902282714843750000e+02) (1, -1.65131747722625732422e-01) (2, -2.45162427425384521484e-01) (3, 6.86514005064964294434e-02) (4, 2.46344413608312606812e-02) (5, -7.89922773838043212891e-02) (6, -5.94391636550426483154e-02) (0, 3.32892149686813354492e-01) (1, 3.30460011959075927734e-01) (2, 1.98637992143630981445e-02) (3, 4.82988715171813964844e-01) (4, 4.67486530542373657227e-01) (5, 4.29123848676681518555e-01) (6, 4.33313310146331787109e-01) (0, -2.99271017313003540039e-01) (1, 4.12234276533126831055e-01) (2, 3.56371253728866577148e-01) (3, 4.43562984466552734375e-01) (4, 5.28487145900726318359e-01) (5, 4.57704007625579833984e-01) (6, 3.73389869928359985352e-01) (0, 1.09332907199859619141e+00) (1, -2.58759918212890625000e+02) (2, 1.23593549728393554688e+01) (3, -3.03947441279888153076e-02) (4, 7.22491666674613952637e-02) (5, 1.67011484503746032715e-01) (6, 1.02381393313407897949e-01) (0, 1.26185034179687500000e+03) (1, 1.49999682617187500000e+03) (2, 1.57160878181457519531e-01) (3, -4.56774868071079254150e-02) (4, 2.20272094011306762695e-01) (5, 1.52357053756713867188e+00) (6, 1.04992724955081939697e-01) (0, 1.22068764176219701767e-03) (1, 4.71996575593948364258e-01) (2, 5.25160253047943115234e-01) (3, 4.83842045068740844727e-01) (4, 4.89639878273010253906e-01) (5, 3.87968778610229492188e-01) (6, 4.28230494260787963867e-01) (0, -1.47663012695312500000e+03) (1, -1.99599277973175048828e+00) (2, 3.60227376222610473633e-01) (3, 4.57782030105590820312e-01) (4, 4.09709036350250244141e-01) (5, 2.90886849164962768555e-01) (6, 3.58328789472579956055e-01) (0, -3.03840190172195434570e-01) (1, -5.25382578372955322266e-01) (2, 2.64967292547225952148e-01) (3, 1.06002101674675941467e-02) (4, -3.17581072449684143066e-02) (5, 1.28911748528480529785e-01) (6, -5.82940727472305297852e-02) (0, 2.05302886962890625000e+02) (1, 3.35556549072265625000e+02) (2, -3.93595546483993530273e-02) (3, -3.42432968318462371826e-02) (4, 4.55374829471111297607e-02) (5, -5.54310157895088195801e-02) (6, 9.44076701998710632324e-02) (0, 4.37736846506595611572e-02) (1, 6.57926619052886962891e-01) (2, 6.16481840610504150391e-01) (3, 4.77718651294708251953e-01) (4, 4.31234449148178100586e-01) (5, 4.15050059556961059570e-01) (6, 4.43738043308258056641e-01) (0, 3.69495123624801635742e-01) (1, 4.06388700008392333984e-01) (2, -1.44936824217438697815e-02) (3, 4.49590355157852172852e-01) (4, 4.27044570446014404297e-01) (5, 4.67960655689239501953e-01) (6, 3.82134318351745605469e-01) (0, 1.76623214721679687500e+02) (1, -7.90419101715087890625e-01) (2, 1.52573394775390625000e+01) (3, 3.15947234630584716797e-01) (4, -1.09329618513584136963e-01) (5, -7.47638761997222900391e-01) (6, -1.94440990686416625977e-01) (0, -2.15216445922851562500e+01) (1, -1.15434534847736358643e-01) (2, -1.16595182418823242188e+01) (3, 5.86343035101890563965e-02) (4, -8.48691016435623168945e-02) (5, 1.08181741088628768921e-02) (6, -1.45890936255455017090e-01) (0, -2.99693786621093750000e+02) (1, -3.76951724290847778320e-01) (2, 1.45931481933593750000e+03) (3, -1.03719145059585571289e-01) (4, -5.43627589941024780273e-02) (5, 3.74657586216926574707e-02) (6, 8.39920565485954284668e-02) (0, 8.11128675937652587891e-01) (1, -2.90076404809951782227e-01) (2, 1.60913821309804916382e-02) (3, -3.08715701103210449219e-01) (4, 7.03957676887512207031e-02) (5, -2.01201245188713073730e-01) (6, 1.51048405095934867859e-02) (0, 3.64762425422668457031e-01) (1, -2.65575021505355834961e-01) (2, 1.17053389549255371094e-01) (3, 1.10356640070676803589e-02) (4, -3.11917830258607864380e-02) (5, 2.82855406403541564941e-02) (6, 1.52064576745033264160e-01) (0, 7.62484312057495117188e-01) (1, 7.02835998535156250000e+01) (2, -1.11121034622192382812e+00) (3, -9.20914039015769958496e-02) (4, -4.71356883645057678223e-02) (5, 3.60754542052745819092e-02) (6, 7.74739906191825866699e-02) (0, -5.20507879555225372314e-02) (1, 3.53347063064575195312e-01) (2, 3.76658141613006591797e-01) (3, 4.40340906381607055664e-01) (4, 4.59367066621780395508e-01) (5, 5.02318382263183593750e-01) (6, 4.63302373886108398438e-01) (0, 5.97147464752197265625e-01) (1, 5.56403338909149169922e-01) (2, 5.67452132701873779297e-01) (3, 4.57106322050094604492e-01) (4, 4.96504366397857666016e-01) (5, 4.97288256883621215820e-01) (6, 4.61169958114624023438e-01) (0, -1.37648327636718750000e+03) (1, 5.25410644531250000000e+02) (2, 1.77525901794433593750e+01) (3, 3.10579329729080200195e-01) (4, 1.38263180851936340332e-01) (5, 5.80223693847656250000e+02) (6, 2.40317702293395996094e-01) (0, -6.59075832366943359375e+00) (1, -1.51274785399436950684e-01) (2, 2.91449762880802154541e-02) (3, -2.09248345345258712769e-02) (4, -2.00953595340251922607e-02) (5, 5.58094633743166923523e-03) (6, -6.46287724375724792480e-02) (0, 5.92989802360534667969e-01) (1, 6.75402820110321044922e-01) (2, 5.11426366865634918213e-02) (3, 5.39994835853576660156e-01) (4, 2.51018833369016647339e-02) (5, 5.10842978954315185547e-01) (6, -3.82058396935462951660e-02) (0, 4.54836130142211914062e-01) (1, -1.31691277027130126953e-01) (2, 7.37322628498077392578e-01) (3, 4.60754990577697753906e-01) (4, 5.62930822372436523438e-01) (5, 1.74520481377840042114e-02) (6, 5.62115073204040527344e-01) (0, -3.87991523742675781250e+01) (1, -6.94993555545806884766e-01) (2, -1.03579282760620117188e-01) (3, 1.49130094796419143677e-02) (4, -2.45818272233009338379e-01) (5, -2.27323383092880249023e-01) (6, -2.28300377726554870605e-01) (0, 7.05439269542694091797e-01) (1, -4.23073023557662963867e-02) (2, 1.09304559230804443359e+00) (3, 4.51112501323223114014e-02) (4, -8.80569294095039367676e-02) (5, -1.03312730789184570312e-01) (6, -7.16616446152329444885e-03) (0, 4.92492914199829101562e-01) (1, 4.80238869786262512207e-02) (2, 6.11257702112197875977e-02) (3, -1.47204166278243064880e-02) (4, 3.32562774419784545898e-02) (5, -5.18483743071556091309e-02) (6, -1.35492935776710510254e-01) (0, 2.71558225154876708984e-01) (1, -2.23603174090385437012e-02) (2, -1.52678995132446289062e+01) (3, 8.18505825009196996689e-04) (4, -1.24051153659820556641e-01) (5, -7.75773078203201293945e-02) (6, -1.41990091651678085327e-03) (0, 1.37023448944091796875e+00) (1, -9.79820638895034790039e-02) (2, -4.28231835365295410156e-01) (3, 5.91292884200811386108e-03) (4, -3.16725820302963256836e-02) (5, -2.60239001363515853882e-02) (6, -1.07543626800179481506e-02) (0, -9.68469493091106414795e-03) (1, -1.83320324867963790894e-02) (2, 1.49876503273844718933e-02) (3, 1.53182288631796836853e-02) (4, -3.25537286698818206787e-02) (5, 1.00381441414356231689e-01) (6, -1.50282429531216621399e-02) (0, 1.49945104980468750000e+03) (1, 8.01509094238281250000e+01) (2, 4.09184074401855468750e+00) (3, 8.68954122066497802734e-01) (4, 7.82526731491088867188e-01) (5, 1.04058063030242919922e+00) (6, 9.10063385963439941406e-01) (0, 2.07525806427001953125e+01) (1, -8.45662131905555725098e-02) (2, -1.57096996903419494629e-01) (3, -2.27653607726097106934e-02) (4, 6.90159872174263000488e-02) (5, -6.15995638072490692139e-02) (6, 2.59019918739795684814e-02) (0, -1.27576023340225219727e-01) (1, 3.20668667554855346680e-01) (2, 4.70194607973098754883e-01) (3, 4.18005585670471191406e-01) (4, 5.21877706050872802734e-01) (5, 4.57381546497344970703e-01) (6, 4.48570460081100463867e-01) (0, 6.03810101747512817383e-02) (1, 2.94939309358596801758e-01) (2, 5.16083359718322753906e-01) (3, 3.46975535154342651367e-01) (4, 5.03295838832855224609e-01) (5, 4.09036427736282348633e-01) (6, 5.16007363796234130859e-01) (0, 1.14245378971099853516e+00) (1, -4.89163175225257873535e-02) (2, -4.49657067656517028809e-02) (3, -8.63458961248397827148e-02) (4, -4.04481478035449981689e-02) (5, 4.83263805508613586426e-02) (6, -8.94936174154281616211e-02) (0, 5.44094026088714599609e-01) (1, 7.40084111690521240234e-01) (2, 4.80586677789688110352e-01) (3, 5.54695606231689453125e-01) (4, 4.45367068052291870117e-01) (5, 4.56380665302276611328e-01) (6, 5.93350231647491455078e-01) (0, -1.07609863281250000000e+01) (1, -2.61823665350675582886e-02) (2, -1.10630041503906250000e+03) (3, -2.03634202480316162109e-02) (4, -1.79393664002418518066e-02) (5, -3.64724434912204742432e-02) (6, -2.93485783040523529053e-02) (0, 1.04326545715332031250e+02) (1, 2.44907617568969726562e+00) (2, -5.06167471408843994141e-01) (3, -9.65046808123588562012e-02) (4, -1.34699508547782897949e-01) (5, 3.72327506542205810547e-01) (6, -2.20753327012062072754e-02) (0, 1.49999426269531250000e+03) (1, -3.83736714720726013184e-02) (2, -7.39378595352172851562e+00) (3, 1.01796295493841171265e-02) (4, 4.13846597075462341309e-02) (5, 7.00930953025817871094e-01) (6, -2.34997253865003585815e-02) (0, 2.74606883525848388672e-01) (1, 4.64527100324630737305e-01) (2, 6.63248479366302490234e-01) (3, 4.50395673513412475586e-01) (4, 4.63017940521240234375e-01) (5, 4.73566710948944091797e-01) (6, 6.06645166873931884766e-01) (0, 4.65360999107360839844e-01) (1, 8.31514537334442138672e-01) (2, 6.55444502830505371094e-01) (3, 5.02923488616943359375e-01) (4, 4.25748050212860107422e-01) (5, 4.22481805086135864258e-01) (6, 5.29528737068176269531e-01) (0, 1.40957474708557128906e+00) (1, 6.56209707260131835938e-01) (2, 3.48035603761672973633e-01) (3, 4.88045752048492431641e-01) (4, 5.04538238048553466797e-01) (5, 5.29111683368682861328e-01) (6, 5.42105615139007568359e-01) (0, 2.05535799264907836914e-01) (1, -6.31245300173759460449e-02) (2, -6.62526655197143554688e+00) (3, -6.28561824560165405273e-02) (4, 3.15964110195636749268e-02) (5, 3.58478240668773651123e-02) (6, 1.33500751107931137085e-02) (0, -1.34239845275878906250e+01) (1, -3.14211249351501464844e-02) (2, 8.26846510171890258789e-02) (3, -1.27190062776207923889e-02) (4, -2.74094920605421066284e-02) (5, 3.84442284703254699707e-02) (6, -4.89634042605757713318e-03) (0, 3.54402923583984375000e+02) (1, -1.59266281127929687500e+01) (2, -2.70135134458541870117e-01) (3, 4.42517966032028198242e-01) (4, -5.67953996360301971436e-02) (5, -4.18461263179779052734e-01) (6, -3.00115823745727539062e-01) (0, -1.49823173880577087402e-01) (1, -9.99872162938117980957e-02) (2, 5.25830864906311035156e-01) (3, 4.69603806734085083008e-01) (4, 4.52207922935485839844e-01) (5, 7.02382326126098632812e-02) (6, 4.54546362161636352539e-01) (0, 1.48979614257812500000e+03) (1, -9.87958721816539764404e-03) (2, -1.41491734981536865234e+00) (3, 9.47642885148525238037e-03) (4, 1.04794815182685852051e-01) (5, 1.11685991287231445312e-01) (6, 1.15279383957386016846e-01) (0, 3.48790435791015625000e+01) (1, 3.92410316467285156250e+01) (2, 1.06149730682373046875e+01) (3, -2.57377367233857512474e-04) (4, -2.03073509037494659424e-02) (5, 7.23164016380906105042e-03) (6, -1.05218619108200073242e-01) (0, 1.55535675048828125000e+02) (1, -1.75076794624328613281e+00) (2, -2.88974255323410034180e-01) (3, -2.29537665843963623047e-01) (4, -2.95854121446609497070e-01) (5, 4.36882644891738891602e-01) (6, -2.50240385532379150391e-01) (0, 8.57745528221130371094e-01) (1, 3.95541906356811523438e-01) (2, 2.83238321542739868164e-01) (3, 4.20273065567016601562e-01) (4, 4.12673860788345336914e-01) (5, 5.45204579830169677734e-01) (6, 3.12722682952880859375e-01) (0, -5.98988685607910156250e+01) (1, -1.07278537750244140625e+00) (2, -9.84692294150590896606e-03) (3, -1.27828076481819152832e-01) (4, 6.50718733668327331543e-02) (5, 1.52704669162631034851e-02) (6, -3.67266945540904998779e-02) (0, 1.40700113773345947266e+00) (1, 1.97786080837249755859e+00) (2, 1.80377632379531860352e-01) (3, -1.63881629705429077148e-02) (4, 2.62658864259719848633e-01) (5, 2.14581042528152465820e-01) (6, 3.23954939842224121094e-01) (0, 7.71307945251464843750e-02) (1, 4.80115264654159545898e-01) (2, 5.40958821773529052734e-01) (3, 5.14896929264068603516e-01) (4, 5.09054124355316162109e-01) (5, 4.93222683668136596680e-01) (6, 4.45583015680313110352e-01) (0, -2.83596496582031250000e+02) (1, 4.04207849502563476562e+00) (2, 6.03733777999877929688e-01) (3, 2.49565705657005310059e-01) (4, 1.31923243403434753418e-01) (5, -3.91439527273178100586e-01) (6, 1.36502057313919067383e-01) (0, -4.59897041320800781250e-01) (1, 2.95983552932739257812e-01) (2, 3.55562508106231689453e-01) (3, 5.04355192184448242188e-01) (4, 4.59103971719741821289e-01) (5, 4.76068735122680664062e-01) (6, 4.78683173656463623047e-01) (0, 2.55616831779479980469e+00) (1, -3.42179031372070312500e+01) (2, -5.85611939430236816406e-01) (3, -1.54941558837890625000e-01) (4, -2.53702010959386825562e-02) (5, 7.22219944000244140625e-02) (6, -1.22970223426818847656e-01) (0, 4.31406021118164062500e+01) (1, 8.86162593960762023926e-02) (2, 4.07431155443191528320e-01) (3, 4.47985762730240821838e-03) (4, 2.21325367689132690430e-01) (5, -2.38605916500091552734e-01) (6, 1.64654895663261413574e-01) (0, 2.56971246562898159027e-03) (1, 4.64512526988983154297e-01) (2, 5.35651564598083496094e-01) (3, 3.69360685348510742188e-01) (4, 4.16121333837509155273e-01) (5, 4.81608569622039794922e-01) (6, 5.74122190475463867188e-01) (0, 3.65312136709690093994e-02) (1, -2.29881927371025085449e-02) (2, 9.77945327758789062500e-03) (3, 9.90213081240653991699e-03) (4, -3.75836081802845001221e-02) (5, 7.66659155488014221191e-02) (6, -6.46285191178321838379e-02) (0, 2.37013492733240127563e-02) (1, -2.31231879442930221558e-02) (2, -7.04610496759414672852e-02) (3, 7.41395652294158935547e-02) (4, -1.36787518858909606934e-01) (5, -8.71424376964569091797e-02) (6, -1.91341787576675415039e-01) (0, -2.50755816698074340820e-01) (1, -2.14493777602910995483e-02) (2, 2.27088868618011474609e-01) (3, -5.26838563382625579834e-02) (4, -1.08358360826969146729e-01) (5, 7.83086493611335754395e-02) (6, -1.99544280767440795898e-01) (0, 2.10791540145874023438e+00) (1, -2.47118193656206130981e-02) (2, -9.41243022680282592773e-02) (3, 5.68204484879970550537e-02) (4, -6.92173317074775695801e-02) (5, 1.60566326230764389038e-02) (6, 3.79900373518466949463e-02) (0, -8.79940688610076904297e-02) (1, 3.03721670061349868774e-02) (2, 6.68327882885932922363e-03) (3, 1.01693216711282730103e-02) (4, -2.80589554458856582642e-02) (5, -3.46020646393299102783e-02) (6, -7.12696388363838195801e-02) (0, -1.44601977539062500000e+03) (1, -3.43259787559509277344e+00) (2, 5.31389594078063964844e-01) (3, 3.84135752916336059570e-01) (4, 4.85333412885665893555e-01) (5, 2.94845968484878540039e-01) (6, 3.85328143835067749023e-01) (0, 6.37398958206176757812e-02) (1, 5.54602265357971191406e-01) (2, 1.77062332630157470703e+00) (3, 4.72878575325012207031e-01) (4, 4.67752009630203247070e-01) (5, 3.79919946193695068359e-01) (6, 4.82709854841232299805e-01) (0, 4.79170024394989013672e-01) (1, 3.14964622259140014648e-01) (2, -1.21328838169574737549e-01) (3, 5.22789418697357177734e-01) (4, 3.92349451780319213867e-01) (5, 4.86149042844772338867e-01) (6, 4.93808716535568237305e-01) (0, 9.46793258190155029297e-01) (1, 1.42133986949920654297e+00) (2, 5.26515364646911621094e-01) (3, 4.98822063207626342773e-01) (4, 4.94856685400009155273e-01) (5, 5.60096204280853271484e-01) (6, 5.85426807403564453125e-01) (0, -3.98705661296844482422e-01) (1, -1.53395462036132812500e+00) (2, 9.36173498630523681641e-02) (3, -1.01955294609069824219e-01) (4, 4.34423498809337615967e-02) (5, -7.26124420762062072754e-02) (6, 9.25895944237709045410e-02) (0, 4.55073565244674682617e-01) (1, 1.02984321117401123047e+00) (2, -8.56259231567382812500e+01) (3, -4.14825743064284324646e-03) (4, -1.04378506541252136230e-01) (5, 6.76078498363494873047e-02) (6, 8.72313752770423889160e-02) (0, 4.99842733144760131836e-01) (1, 5.15876471996307373047e-01) (2, 1.01951944828033447266e+00) (3, 3.73655647039413452148e-01) (4, 4.97973144054412841797e-01) (5, 4.28410857915878295898e-01) (6, 6.24692380428314208984e-01) (0, 8.76578044891357421875e+00) (1, 3.50138485431671142578e-01) (2, -1.07750997543334960938e+01) (3, 4.92596834897994995117e-01) (4, -2.59467661380767822266e-02) (5, 5.37967741489410400391e-01) (6, -4.74916258826851844788e-03) (0, -1.41523510742187500000e+03) (1, 5.56254526600241661072e-03) (2, -8.34014404296875000000e+02) (3, 3.48968416452407836914e-01) (4, 7.02637955546379089355e-02) (5, 3.23968321084976196289e-01) (6, 1.04681566357612609863e-01) (0, 2.66594116210937500000e+02) (1, -7.58219861984252929688e+00) (2, 1.77404671907424926758e-01) (3, 1.51564970612525939941e-01) (4, 1.01879443973302841187e-02) (5, -7.51550942659378051758e-02) (6, 3.59537415206432342529e-02) (0, 4.79883551597595214844e-01) (1, -6.86243698000907897949e-02) (2, -1.46445393562316894531e-01) (3, -2.91963182389736175537e-02) (4, 3.71328555047512054443e-02) (5, -5.61547018587589263916e-02) (6, -3.31617072224617004395e-02) (0, 3.96006441116333007812e+00) (1, 5.06229162216186523438e-01) (2, 4.60555763244628906250e+01) (3, 3.41727077960968017578e-01) (4, 5.46711683273315429688e-01) (5, 3.92342686653137207031e-01) (6, 5.66564083099365234375e-01) (0, -5.49959487915039062500e+01) (1, -1.56275182962417602539e-01) (2, -9.05897468328475952148e-02) (3, -7.55080534145236015320e-03) (4, -8.30330252647399902344e-02) (5, 3.79688926041126251221e-02) (6, -1.10126405954360961914e-01) (0, -1.28689880371093750000e+03) (1, -5.79382896423339843750e-01) (2, -1.13589149475097656250e+02) (3, -7.97172542661428451538e-03) (4, 4.69390839338302612305e-01) (5, -3.32749962806701660156e-01) (6, 4.73852485418319702148e-01) (0, -8.09759423136711120605e-02) (1, 3.70327144861221313477e-01) (2, 4.60601240396499633789e-01) (3, 4.73290294408798217773e-01) (4, 4.88445997238159179688e-01) (5, 4.93427276611328125000e-01) (6, 3.90658438205718994141e-01) (0, -1.49752966308593750000e+03) (1, 1.49980847167968750000e+03) (2, 6.90036952495574951172e-01) (3, 1.96455493569374084473e-02) (4, 1.72840073704719543457e-01) (5, 1.27623438835144042969e+00) (6, 6.70416355133056640625e-02) (0, -1.50000000000000000000e+03) (1, 6.12413227558135986328e-01) (2, 8.70393466949462890625e+00) (3, 3.43982189893722534180e-01) (4, 4.06331449747085571289e-01) (5, 3.93758803606033325195e-01) (6, 4.53856945037841796875e-01) (7, 3.98696847259998321533e-02) (8, 4.23303157091140747070e-01) (9, 1.55434027314186096191e-01) (10, -1.79423630237579345703e-01) (11, -2.03466087579727172852e-01) (12, -1.22060522437095642090e-01) (13, 2.87527292966842651367e-01) (14, 1.08703978359699249268e-01) (15, 4.96784538030624389648e-01) (16, -4.35210764408111572266e-01) (17, 4.36088174581527709961e-01) (18, -2.83243022859096527100e-02) (19, 4.40401285886764526367e-01) (20, 1.54422238469123840332e-01) (21, 3.85140806436538696289e-01) (22, -4.42034453153610229492e-02) (23, -1.16841793060302734375e-01) (24, -1.00000515580177307129e-01) (25, 2.61779844760894775391e-01) (26, 4.56246048212051391602e-01) (27, 4.68082129955291748047e-01) (28, 1.05501163005828857422e+00) (29, 3.69049578905105590820e-01) (30, 4.30549412965774536133e-01) (31, 4.33735512197017669678e-02) (32, -4.23418700695037841797e-01) (33, 4.04125303030014038086e-01) (34, 3.56712907552719116211e-01) (35, 6.40122964978218078613e-02) (36, -4.78320345282554626465e-02) (37, -6.18622750043869018555e-02) (38, 4.54609602689743041992e-01) (39, 4.43338789045810699463e-02) (40, 6.03436946868896484375e-01) (41, -1.67871534824371337891e-01) (42, 3.11133414506912231445e-01) (43, -2.39962801337242126465e-01) (44, 6.71390295028686523438e-02) (45, 3.15358847379684448242e-01) (46, -2.75836754590272903442e-02) (47, -1.69887833180837333202e-04) (48, 5.14743447303771972656e-01) (49, -7.11466595530509948730e-02) (50, -6.71906098723411560059e-02) (51, 3.10216397047042846680e-01) (52, 6.56608864665031433105e-02) (53, 2.19962239265441894531e-01) (54, 1.87425792217254638672e-01) (55, 1.50420501828193664551e-01) (56, 3.10404270887374877930e-01) (57, -2.64703687280416488647e-02) (58, 1.30411997437477111816e-01) (59, 4.12208646535873413086e-01) (60, 3.27339440584182739258e-01) (61, 4.95724469423294067383e-01) (62, -2.18391362577676773071e-02) (63, 1.97579964995384216309e-01) (64, 3.43713946640491485596e-02) (65, 9.08690989017486572266e-02) (66, -9.82549712061882019043e-02) (67, -5.89496865868568420410e-02) (68, -1.46395352203398942947e-03) (69, 4.94218766689300537109e-01) (70, 4.58505868911743164062e-01) (71, 4.60780471563339233398e-01) (72, 3.41819375753402709961e-01) (73, -1.60750641953200101852e-03) (74, -4.75239641964435577393e-02) (75, -5.36706864833831787109e-01) (76, 3.45961302518844604492e-01) (77, 3.80061745643615722656e-01) (78, 9.25969332456588745117e-02) (79, 3.78938168287277221680e-01) (80, -3.23980629444122314453e-01) (81, 4.51077431440353393555e-01) (82, 1.68719127774238586426e-01) (83, -6.33180677890777587891e-01) (84, -1.34788364171981811523e-01) (85, 2.93606102466583251953e-01) (86, 5.76161801815032958984e-01) (87, 4.89564895629882812500e-01) (88, 3.60657453536987304688e-01) (89, 6.17522418498992919922e-01) (90, 2.90200889110565185547e-01) (91, -1.16125971078872680664e-01) (92, 3.94700914621353149414e-01) (93, 9.12719592452049255371e-03) (94, 6.62056282162666320801e-02) (95, 9.84391272068023681641e-02) (96, -1.30469739437103271484e-01) (97, 3.85801464319229125977e-01) (98, 3.61787587404251098633e-01) (99, 4.14084680378437042236e-02) (100, 4.29391205310821533203e-01) (101, -1.07794426381587982178e-01) (102, 5.05875766277313232422e-01) (103, 3.65947112441062927246e-02) (104, 3.66800397634506225586e-01) (105, -4.58758443593978881836e-01) (106, -1.55855298042297363281e-01) (107, 4.53526586294174194336e-01) (7, 3.80351752042770385742e-01) (8, 3.21666538715362548828e-01) (9, 1.14551760256290435791e-01) (10, -3.36738489568233489990e-02) (11, -2.06604003906250000000e-01) (12, -3.05513180792331695557e-02) (13, 4.88686293363571166992e-01) (14, 2.27965906262397766113e-01) (15, 4.99046206474304199219e-01) (16, -1.14911802113056182861e-01) (17, 2.41476938128471374512e-01) (18, -1.87784627079963684082e-01) (19, 3.73138368129730224609e-01) (20, 1.36920273303985595703e-01) (21, 3.24837148189544677734e-01) (22, -1.35387107729911804199e-01) (23, 1.61748290061950683594e-01) (24, -7.90944918990135192871e-02) (25, 1.62492364645004272461e-01) (26, 3.20606648921966552734e-01) (27, 1.37554273009300231934e-01) (28, -7.80182301998138427734e-01) (29, 3.58188152313232421875e-01) (30, 2.99910932779312133789e-01) (31, 4.58897873759269714355e-02) (32, 4.35918360948562622070e-01) (33, 3.90939652919769287109e-01) (34, -3.95677052438259124756e-02) (35, 6.97079524397850036621e-02) (36, -1.10520794987678527832e-02) (37, -4.52759899199008941650e-02) (38, 3.22415530681610107422e-01) (39, 3.65199536085128784180e-01) (40, 1.13096691668033599854e-01) (41, 1.31176695227622985840e-01) (42, 3.95313650369644165039e-01) (43, -8.84995535016059875488e-02) (44, 1.26080438494682312012e-01) (45, 3.63013744354248046875e-01) (46, -9.91398394107818603516e-02) (47, 6.07485949993133544922e-01) (48, 7.17096865177154541016e-01) (49, -6.14263191819190979004e-02) (50, -1.93973556160926818848e-01) (51, 3.08651119470596313477e-01) (52, 1.53400048613548278809e-01) (53, 5.50268590450286865234e-01) (54, 1.52246445417404174805e-01) (55, 9.98058542609214782715e-02) (56, 4.67607766389846801758e-01) (57, 1.29114076495170593262e-01) (58, 1.13079227507114410400e-01) (59, 3.24391126632690429688e-01) (60, 3.29569101333618164062e-01) (61, 7.18038499355316162109e-01) (62, -4.12343181669712066650e-02) (63, 1.55345484614372253418e-01) (64, -3.36033105850219726562e-01) (65, 7.72117376327514648438e-02) (66, -1.22827194631099700928e-01) (67, -8.04873332381248474121e-02) (68, -7.50715360045433044434e-02) (69, 3.19181442260742187500e-01) (70, -7.85957500338554382324e-02) (71, -3.70864272117614746094e-02) (72, 3.20839762687683105469e-01) (73, 5.66400075331330299377e-03) (74, 4.13570046424865722656e-01) (75, 2.45608776807785034180e-01) (76, 4.12087500095367431641e-01) (77, -4.27764415740966796875e-01) (78, 4.12696152925491333008e-01) (79, 3.79584431648254394531e-01) (80, -1.20310634374618530273e-01) (81, 2.74559527635574340820e-01) (82, -4.09132391214370727539e-02) (83, 2.41962745785713195801e-01) (84, -4.78011257946491241455e-02) (85, 3.72010618448257446289e-01) (86, 6.62500381469726562500e-01) (87, 6.08630537986755371094e-01) (88, 5.89941561222076416016e-01) (89, 5.31655430793762207031e-01) (90, -3.74112874269485473633e-02) (91, -9.12473648786544799805e-02) (92, 3.91025781631469726562e-01) (93, -5.31422346830368041992e-02) (94, 8.95982906222343444824e-02) (95, 1.99821352958679199219e-01) (96, -8.29380899667739868164e-02) (97, 3.27784717082977294922e-01) (98, 3.63707959651947021484e-01) (99, 4.60144132375717163086e-02) (100, 5.37693500518798828125e-01) (101, -1.14748232066631317139e-01) (102, 6.88635885715484619141e-01) (103, -6.21319353580474853516e-01) (104, 3.78317773342132568359e-01) (105, 2.55354613065719604492e-01) (106, -5.96079863607883453369e-02) (107, 3.71912777423858642578e-01) (7, 1.97444260120391845703e-01) (8, 5.11001706123352050781e-01) (9, 1.01180806756019592285e-01) (10, 3.24880070984363555908e-02) (11, 3.45711261034011840820e-01) (12, -2.63913832604885101318e-02) (13, 2.30883523821830749512e-01) (14, -1.27478525973856449127e-03) (15, 5.04275560379028320312e-01) (16, -2.18014523386955261230e-01) (17, 4.26955014467239379883e-01) (18, 4.85841184854507446289e-02) (19, 3.99946458637714385986e-02) (20, 6.90098255872726440430e-02) (21, 4.26835030317306518555e-01) (22, 1.25281112268567085266e-02) (23, 2.73592501878738403320e-01) (24, -1.05405300855636596680e-02) (25, 2.68158942461013793945e-01) (26, 3.29970926046371459961e-01) (27, 4.65267688035964965820e-01) (28, 1.01025857031345367432e-01) (29, 4.22965437173843383789e-01) (30, 4.58634704351425170898e-01) (31, 1.54374381527304649353e-02) (32, -6.78439974784851074219e-01) (33, 4.76868957281112670898e-01) (34, 5.04519402980804443359e-01) (35, 7.93429613113403320312e-02) (36, -2.38127503544092178345e-02) (37, 1.39413131400942802429e-02) (38, 3.63742440938949584961e-01) (39, 6.37025475502014160156e-01) (40, -3.79409372806549072266e-01) (41, 7.76723325252532958984e-02) (42, 2.46462315320968627930e-01) (43, 2.54579007625579833984e-01) (44, 3.32386344671249389648e-02) (45, 5.03896176815032958984e-01) (46, -2.56649777293205261230e-02) (47, -2.12601959705352783203e-01) (48, 5.30757665634155273438e-01) (49, -5.36465123295783996582e-02) (50, 5.18151968717575073242e-02) (51, 6.25551998615264892578e-01) (52, 1.50586694478988647461e-01) (53, 5.77827453613281250000e-01) (54, 2.55783218890428543091e-02) (55, 6.34777620434761047363e-02) (56, 3.43643546104431152344e-01) (57, -6.29717484116554260254e-02) (58, -2.06469818949699401855e-01) (59, 3.97312462329864501953e-01) (60, 4.83426421880722045898e-01) (61, -1.17421075701713562012e-02) (62, -2.25547943264245986938e-02) (63, -2.25610379129648208618e-02) (64, -1.23468065261840820312e+00) (65, -6.33944034576416015625e-01) (66, -8.99899937212467193604e-03) (67, 4.28321864455938339233e-03) (68, -1.01224027574062347412e-01) (69, -3.98050606250762939453e-01) (70, 7.68079876899719238281e-01) (71, 1.97607427835464477539e-01) (72, 4.77278083562850952148e-01) (73, 2.47875843197107315063e-02) (74, 9.26693528890609741211e-03) (75, 1.93107664585113525391e-01) (76, 5.93800581991672515869e-02) (77, 1.85708358883857727051e-01) (78, 1.01046683266758918762e-02) (79, 3.93100500106811523438e-01) (80, 4.35377150774002075195e-01) (81, 5.14060735702514648438e-01) (82, 1.93188320845365524292e-02) (83, 4.53285455703735351562e-01) (84, -1.87325477600097656250e-02) (85, 5.16469962894916534424e-02) (86, 4.98113900423049926758e-01) (87, 3.64535868167877197266e-01) (88, 1.95193365216255187988e-01) (89, 5.87329566478729248047e-01) (90, 4.65385943651199340820e-01) (91, 7.69029418006539344788e-03) (92, 3.36499959230422973633e-01) (93, -7.77303054928779602051e-02) (94, 1.08562611043453216553e-01) (95, 4.00978280231356620789e-03) (96, 7.10242614150047302246e-03) (97, -7.49614015221595764160e-02) (98, -5.10634370148181915283e-02) (99, 1.06024652719497680664e-01) (100, 4.46448892354965209961e-01) (101, 6.60864859819412231445e-02) (102, 4.66190963983535766602e-01) (103, 1.06518089771270751953e-01) (104, 5.09570419788360595703e-01) (105, -4.40042972564697265625e-01) (106, 4.57887277007102966309e-02) (107, 4.92379277944564819336e-01) (7, 4.26570802927017211914e-01) (8, 4.35084909200668334961e-01) (9, 9.43998768925666809082e-02) (10, -3.51406633853912353516e-02) (11, 6.32272660732269287109e-01) (12, -9.52723100781440734863e-02) (13, 4.36575770378112792969e-01) (14, 1.48900866508483886719e-01) (15, 4.72220718860626220703e-01) (16, 1.07775494456291198730e-01) (17, 4.01350408792495727539e-01) (18, -1.92150063812732696533e-02) (19, -4.61830943822860717773e-02) (20, 1.61798730492591857910e-01) (21, 3.55903476476669311523e-01) (22, -3.02462670952081680298e-02) (23, 1.28877893090248107910e-01) (24, -1.54050126671791076660e-01) (25, 3.23519892990589141846e-02) (26, 3.22412014007568359375e-01) (27, 5.57826101779937744141e-01) (28, -4.47277203202247619629e-02) (29, 2.75156915187835693359e-01) (30, 3.44497233629226684570e-01) (31, 1.22435115277767181396e-01) (32, 3.76473844051361083984e-01) (33, 3.07298481464385986328e-01) (34, 3.62895101308822631836e-01) (35, 1.96483418345451354980e-01) (36, 1.95718500763177871704e-02) (37, -1.09280399978160858154e-01) (38, 3.22510153055191040039e-01) (39, -1.67623572051525115967e-02) (40, 1.24393530189990997314e-01) (41, 1.21197029948234558105e-02) (42, 8.17374825477600097656e-01) (43, -3.67060564458370208740e-02) (44, 2.27243542671203613281e-01) (45, 3.30596297979354858398e-01) (46, -1.54923453927040100098e-01) (47, -1.11468501389026641846e-01) (48, 5.67018210887908935547e-01) (49, -1.77764251828193664551e-01) (50, -9.87240448594093322754e-02) (51, 8.32054316997528076172e-02) (52, 1.90135493874549865723e-01) (53, 4.79075580835342407227e-01) (54, 1.42758339643478393555e-01) (55, 2.32455819845199584961e-01) (56, 3.08624029159545898438e-01) (57, -1.47817954421043395996e-01) (58, 1.19036912918090820312e-01) (59, 4.35730785131454467773e-01) (60, 4.29460912942886352539e-01) (61, 6.88130676746368408203e-01) (62, -8.19915235042572021484e-02) (63, 9.87722948193550109863e-02) (64, 1.36016094684600830078e+00) (65, 1.17828339338302612305e-01) (66, -5.59253245592117309570e-02) (67, -1.50916561484336853027e-01) (68, -7.96259641647338867188e-02) (69, 1.23793356120586395264e-01) (70, 9.42971035838127136230e-02) (71, -6.01257234811782836914e-02) (72, 2.99081623554229736328e-01) (73, 2.44920086115598678589e-02) (74, -2.45580915361642837524e-02) (75, 8.74398928135633468628e-03) (76, 3.89733165502548217773e-01) (77, 7.44868934154510498047e-01) (78, 1.53874188661575317383e-01) (79, 4.26438480615615844727e-01) (80, -2.57803767919540405273e-01) (81, 3.08184623718261718750e-01) (82, 5.64287483692169189453e-01) (83, -5.16284286975860595703e-01) (84, -7.20319747924804687500e-02) (85, 3.73236864805221557617e-01) (86, 1.00130558013916015625e-01) (87, 3.67124140262603759766e-01) (88, -1.21210944652557373047e+00) (89, 6.10376417636871337891e-01) (90, 4.11430805921554565430e-01) (91, -6.66373074054718017578e-02) (92, 3.01382213830947875977e-01) (93, -1.18178777396678924561e-01) (94, 2.29197174310684204102e-01) (95, 9.60435941815376281738e-02) (96, -8.85253548622131347656e-02) (97, 3.54018062353134155273e-01) (98, -1.57401993870735168457e-01) (99, 2.15070787817239761353e-02) (100, 5.51583051681518554688e-01) (101, -1.87889821827411651611e-02) (102, 5.97805917263031005859e-01) (103, 6.25909566879272460938e-02) (104, 2.84342825412750244141e-01) (105, 1.92965000867843627930e-01) (106, -7.72164110094308853149e-03) (107, 4.26455289125442504883e-01) 
