FANN_FLO_2.1
num_layers=3
learning_rate=0.001000
connection_rate=1.000000
network_type=0
learning_momentum=0.000000
training_algorithm=2
train_error_function=1
train_stop_function=0
cascade_output_change_fraction=0.010000
quickprop_decay=-0.000100
quickprop_mu=1.750000
rprop_increase_factor=1.200000
rprop_decrease_factor=0.500000
rprop_delta_min=0.000000
rprop_delta_max=50.000000
rprop_delta_zero=0.100000
cascade_output_stagnation_epochs=12
cascade_candidate_change_fraction=0.010000
cascade_candidate_stagnation_epochs=12
cascade_max_out_epochs=150
cascade_max_cand_epochs=150
cascade_num_candidate_groups=2
bit_fail_limit=3.49999994039535522461e-01
cascade_candidate_limit=1.00000000000000000000e+03
cascade_weight_multiplier=4.00000005960464477539e-01
cascade_activation_functions_count=10
cascade_activation_functions=3 5 7 8 10 11 14 15 16 17 
cascade_activation_steepnesses_count=4
cascade_activation_steepnesses=2.50000000000000000000e-01 5.00000000000000000000e-01 7.50000000000000000000e-01 1.00000000000000000000e+00 
layer_sizes=7 101 5 
scale_included=0
neurons (num_inputs, activation_function, activation_steepness)=(0, 0, 0.00000000000000000000e+00) (0, 0, 0.00000000000000000000e+00) (0, 0, 0.00000000000000000000e+00) (0, 0, 0.00000000000000000000e+00) (0, 0, 0.00000000000000000000e+00) (0, 0, 0.00000000000000000000e+00) (0, 0, 0.00000000000000000000e+00) (7, 5, 5.00000000000000000000e-01) (7, 5, 5.00000000000000000000e-01) (7, 5, 5.00000000000000000000e-01) (7, 5, 5.00000000000000000000e-01) (7, 5, 5.00000000000000000000e-01) (7, 5, 5.00000000000000000000e-01) (7, 5, 5.00000000000000000000e-01) (7, 5, 5.00000000000000000000e-01) (7, 5, 5.00000000000000000000e-01) (7, 5, 5.00000000000000000000e-01) (7, 5, 5.00000000000000000000e-01) (7, 5, 5.00000000000000000000e-01) (7, 5, 5.00000000000000000000e-01) (7, 5, 5.00000000000000000000e-01) (7, 5, 5.00000000000000000000e-01) (7, 5, 5.00000000000000000000e-01) (7, 5, 5.00000000000000000000e-01) (7, 5, 5.00000000000000000000e-01) (7, 5, 5.00000000000000000000e-01) (7, 5, 5.00000000000000000000e-01) (7, 5, 5.00000000000000000000e-01) (7, 5, 5.00000000000000000000e-01) (7, 5, 5.00000000000000000000e-01) (7, 5, 5.00000000000000000000e-01) (7, 5, 5.00000000000000000000e-01) (7, 5, 5.00000000000000000000e-01) (7, 5, 5.00000000000000000000e-01) (7, 5, 5.00000000000000000000e-01) (7, 5, 5.00000000000000000000e-01) (7, 5, 5.00000000000000000000e-01) (7, 5, 5.00000000000000000000e-01) (7, 5, 5.00000000000000000000e-01) (7, 5, 5.00000000000000000000e-01) (7, 5, 5.00000000000000000000e-01) (7, 5, 5.00000000000000000000e-01) (7, 5, 5.00000000000000000000e-01) (7, 5, 5.00000000000000000000e-01) (7, 5, 5.00000000000000000000e-01) (7, 5, 5.00000000000000000000e-01) (7, 5, 5.00000000000000000000e-01) (7, 5, 5.00000000000000000000e-01) (7, 5, 5.00000000000000000000e-01) (7, 5, 5.00000000000000000000e-01) (7, 5, 5.00000000000000000000e-01) (7, 5, 5.00000000000000000000e-01) (7, 5, 5.00000000000000000000e-01) (7, 5, 5.00000000000000000000e-01) (7, 5, 5.00000000000000000000e-01) (7, 5, 5.00000000000000000000e-01) (7, 5, 5.00000000000000000000e-01) (7, 5, 5.00000000000000000000e-01) (7, 5, 5.00000000000000000000e-01) (7, 5, 5.00000000000000000000e-01) (7, 5, 5.00000000000000000000e-01) (7, 5, 5.00000000000000000000e-01) (7, 5, 5.00000000000000000000e-01) (7, 5, 5.00000000000000000000e-01) (7, 5, 5.00000000000000000000e-01) (7, 5, 5.00000000000000000000e-01) (7, 5, 5.00000000000000000000e-01) (7, 5, 5.00000000000000000000e-01) (7, 5, 5.00000000000000000000e-01) (7, 5, 5.00000000000000000000e-01) (7, 5, 5.00000000000000000000e-01) (7, 5, 5.00000000000000000000e-01) (7, 5, 5.00000000000000000000e-01) (7, 5, 5.00000000000000000000e-01) (7, 5, 5.00000000000000000000e-01) (7, 5, 5.00000000000000000000e-01) (7, 5, 5.00000000000000000000e-01) (7, 5, 5.00000000000000000000e-01) (7, 5, 5.00000000000000000000e-01) (7, 5, 5.00000000000000000000e-01) (7, 5, 5.00000000000000000000e-01) (7, 5, 5.00000000000000000000e-01) (7, 5, 5.00000000000000000000e-01) (7, 5, 5.00000000000000000000e-01) (7, 5, 5.00000000000000000000e-01) (7, 5, 5.00000000000000000000e-01) (7, 5, 5.00000000000000000000e-01) (7, 5, 5.00000000000000000000e-01) (7, 5, 5.00000000000000000000e-01) (7, 5, 5.00000000000000000000e-01) (7, 5, 5.00000000000000000000e-01) (7, 5, 5.00000000000000000000e-01) (7, 5, 5.00000000000000000000e-01) (7, 5, 5.00000000000000000000e-01) (7, 5, 5.00000000000000000000e-01) (7, 5, 5.00000000000000000000e-01) (7, 5, 5.00000000000000000000e-01) (7, 5, 5.00000000000000000000e-01) (7, 5, 5.00000000000000000000e-01) (7, 5, 5.00000000000000000000e-01) (7, 5, 5.00000000000000000000e-01) (7, 5, 5.00000000000000000000e-01) (7, 5, 5.00000000000000000000e-01) (7, 5, 5.00000000000000000000e-01) (7, 5, 5.00000000000000000000e-01) (7, 5, 5.00000000000000000000e-01) (7, 5, 5.00000000000000000000e-01) (0, 5, 0.00000000000000000000e+00) (101, 5, 5.00000000000000000000e-01) (101, 5, 5.00000000000000000000e-01) (101, 5, 5.00000000000000000000e-01) (101, 5, 5.00000000000000000000e-01) (0, 5, 0.00000000000000000000e+00) 
connections (connected_to_neuron, weight)=(0, 6.23442268371582031250e+00) (1, -3.54074493408203125000e+02) (2, 1.09687442779541015625e+01) (3, 9.36709716916084289551e-02) (4, -8.01377445459365844727e-02) (5, 5.09861744940280914307e-02) (6, -4.40635010600090026855e-02) (0, -1.49625781250000000000e+03) (1, -5.25824768066406250000e+02) (2, -5.05850362777709960938e+00) (3, 2.97741740942001342773e-01) (4, 5.03200665116310119629e-02) (5, -1.08715020120143890381e-01) (6, -1.31526617333292961121e-02) (0, 1.13631872558593750000e+03) (1, -5.44867065429687500000e+02) (2, -1.42745466232299804688e+01) (3, 7.25958496332168579102e-02) (4, 1.99580490589141845703e-01) (5, 4.17879708111286163330e-02) (6, 1.51797875761985778809e-01) (0, 6.27272094726562500000e+02) (1, -2.46263098716735839844e+00) (2, -1.11693868637084960938e+01) (3, 7.09848850965499877930e-02) (4, -5.25619909167289733887e-02) (5, 1.79652363061904907227e-01) (6, 6.02952986955642700195e-02) (0, -2.79647541046142578125e+00) (1, 1.49921203613281250000e+03) (2, 2.59301757812500000000e+00) (3, 5.54906189441680908203e-01) (4, 3.88176918029785156250e-01) (5, 6.06597602367401123047e-01) (6, 4.29187864065170288086e-01) (0, 1.49996472167968750000e+03) (1, 1.50000000000000000000e+03) (2, 1.47427014160156250000e+03) (3, 4.28858101367950439453e-01) (4, 3.32427769899368286133e-01) (5, 5.17873704433441162109e-01) (6, 4.21417057514190673828e-01) (0, 1.49970446777343750000e+03) (1, -6.62965953350067138672e-01) (2, 1.49851599121093750000e+03) (3, -3.47374640405178070068e-02) (4, 2.14562430977821350098e-01) (5, -6.20813779532909393311e-02) (6, 5.48912763595581054688e-01) (0, 1.49693493652343750000e+03) (1, 1.50000000000000000000e+03) (2, 1.50000000000000000000e+03) (3, 4.00976449251174926758e-01) (4, 2.82016009092330932617e-01) (5, 4.77123647928237915039e-01) (6, 3.58727157115936279297e-01) (0, 1.49994885253906250000e+03) (1, -2.02851379394531250000e+02) (2, -3.32615447998046875000e+02) (3, 4.72006648778915405273e-01) (4, 2.69051462411880493164e-01) (5, 2.06579238176345825195e-01) (6, 3.30447316169738769531e-01) (0, 1.50000000000000000000e+03) (1, 8.79349594116210937500e+01) (2, -3.38769531250000000000e+02) (3, 8.52448463439941406250e-01) (4, 2.40637660026550292969e-01) (5, 6.76103711128234863281e-01) (6, 2.95125484466552734375e-01) (0, 1.35963439941406250000e+02) (1, 1.54822066426277160645e-01) (2, 1.43154630661010742188e+01) (3, -7.38321170210838317871e-02) (4, -1.41273357439786195755e-03) (5, 6.53183385729789733887e-02) (6, -5.27646727859973907471e-02) (0, -1.48673840332031250000e+03) (1, -1.50000000000000000000e+03) (2, -1.35235693359375000000e+03) (3, 5.02777278423309326172e-01) (4, 6.53754472732543945312e-01) (5, 4.20639336109161376953e-01) (6, 4.43059831857681274414e-01) (0, 1.50000000000000000000e+03) (1, 5.43276000976562500000e+02) (2, -6.23686035156250000000e+02) (3, -7.50816762447357177734e-02) (4, -1.20727442204952239990e-01) (5, 8.19184556603431701660e-02) (6, -1.29539549350738525391e-01) (0, 1.49779235839843750000e+03) (1, -1.49989221191406250000e+03) (2, -6.39421875000000000000e+02) (3, -2.37312987446784973145e-01) (4, -2.18932285904884338379e-01) (5, -1.57865092158317565918e-01) (6, -1.42277389764785766602e-01) (0, -1.45391406250000000000e+03) (1, 1.50000000000000000000e+03) (2, 3.73709930419921875000e+02) (3, 4.53896194696426391602e-01) (4, 3.74989300966262817383e-01) (5, 7.14120507240295410156e-01) (6, 4.39472705125808715820e-01) (0, -1.27719750976562500000e+03) (1, -1.49989465332031250000e+03) (2, -8.48882827758789062500e+01) (3, 3.23638737201690673828e-01) (4, 4.80713248252868652344e-01) (5, 3.92829477787017822266e-01) (6, 5.51956355571746826172e-01) (0, -1.38416857910156250000e+03) (1, 1.50000000000000000000e+03) (2, 1.50000000000000000000e+03) (3, 5.61271011829376220703e-01) (4, 3.84833246469497680664e-01) (5, 8.22206199169158935547e-01) (6, 4.65572863817214965820e-01) (0, 1.49999987792968750000e+03) (1, -1.86235681176185607910e-01) (2, -1.49669934082031250000e+03) (3, 5.27226507663726806641e-01) (4, 4.65850025415420532227e-01) (5, 4.33233529329299926758e-01) (6, 4.52539354562759399414e-01) (0, 1.49992041015625000000e+03) (1, -1.87412488460540771484e+00) (2, -1.12953666687011718750e+02) (3, -1.83273181319236755371e-01) (4, -3.03683638572692871094e-01) (5, -1.02518707513809204102e-01) (6, -3.33930522203445434570e-01) (0, 6.75067596435546875000e+01) (1, -1.48548596191406250000e+03) (2, 4.16823959350585937500e+00) (3, -1.22440314292907714844e+00) (4, -2.56626099348068237305e-01) (5, -6.84377551078796386719e-01) (6, -1.34295374155044555664e-01) (0, -3.16163452148437500000e+02) (1, 1.50000000000000000000e+03) (2, 1.36918896484375000000e+03) (3, 6.09285950660705566406e-01) (4, 4.15683031082153320312e-01) (5, 6.51053249835968017578e-01) (6, 4.66351956129074096680e-01) (0, 1.49999206542968750000e+03) (1, 1.50000000000000000000e+03) (2, 4.74788146972656250000e+02) (3, 1.06375443935394287109e+00) (4, -4.29343804717063903809e-02) (5, 2.68806159496307373047e-01) (6, -1.69827267527580261230e-02) (0, -1.43956921386718750000e+03) (1, 1.50000000000000000000e+03) (2, 3.11079986572265625000e+02) (3, 4.27897214889526367188e-01) (4, 4.24846708774566650391e-01) (5, 8.55478107929229736328e-01) (6, 4.16553854942321777344e-01) (0, -1.49284326171875000000e+03) (1, -1.48248693847656250000e+03) (2, 6.04589538574218750000e+02) (3, 5.62684893608093261719e-01) (4, 2.47444316744804382324e-01) (5, 1.87146201729774475098e-01) (6, 2.45723843574523925781e-01) (0, 9.42477844238281250000e+02) (1, -1.12227990722656250000e+03) (2, -1.10572433471679687500e+00) (3, 1.29066124558448791504e-01) (4, 1.87831521034240722656e-01) (5, 1.86167195439338684082e-01) (6, 4.49987769126892089844e-01) (0, 5.18828552246093750000e+02) (1, -1.50000000000000000000e+03) (2, -1.50000000000000000000e+03) (3, 5.04940390586853027344e-01) (4, 5.58974325656890869141e-01) (5, 3.03724288940429687500e-01) (6, 4.83712285757064819336e-01) (0, -1.11380603027343750000e+03) (1, 1.50000000000000000000e+03) (2, 1.50000000000000000000e+03) (3, 2.78200060129165649414e-01) (4, 5.04553496837615966797e-01) (5, 1.93677353858947753906e+00) (6, 3.93949270248413085938e-01) (0, 1.50000000000000000000e+03) (1, 1.49952001953125000000e+03) (2, -5.89303350448608398438e+00) (3, 4.09498542547225952148e-01) (4, -1.31056576967239379883e-01) (5, 5.49856781959533691406e-01) (6, -5.14378584921360015869e-02) (0, -1.34381921386718750000e+03) (1, 1.50000000000000000000e+03) (2, 1.50000000000000000000e+03) (3, 6.61602079868316650391e-01) (4, 3.72702032327651977539e-01) (5, 1.59680128097534179688e+00) (6, 4.90754008293151855469e-01) (0, -1.50000000000000000000e+03) (1, -1.50000000000000000000e+03) (2, 1.49993884277343750000e+03) (3, 2.09868878126144409180e-01) (4, -1.70947998762130737305e-01) (5, 3.64035129547119140625e-01) (6, -1.69561415910720825195e-01) (0, 4.19651746749877929688e-01) (1, 1.64315566420555114746e-01) (2, -3.33563685417175292969e-01) (3, -5.89746087789535522461e-02) (4, 3.51424999535083770752e-02) (5, 1.18927899748086929321e-02) (6, 3.27641167677938938141e-03) (0, 1.49990661621093750000e+03) (1, -3.37166595458984375000e+01) (2, -1.77519943237304687500e+02) (3, 1.27694085240364074707e-01) (4, 1.31556376814842224121e-01) (5, 4.73269432783126831055e-01) (6, 1.19162097573280334473e-01) (0, -1.09610388183593750000e+03) (1, 1.50000000000000000000e+03) (2, 3.20500016212463378906e+00) (3, 2.03268945217132568359e-01) (4, 3.75717759132385253906e-01) (5, 4.20091539621353149414e-01) (6, 4.36750888824462890625e-01) (0, -1.45387988281250000000e+03) (1, 2.67723960876464843750e+01) (2, 9.90662455558776855469e-01) (3, 3.95318776369094848633e-01) (4, 2.03956931829452514648e-01) (5, 5.01783609390258789062e-01) (6, 3.03740113973617553711e-01) (0, 1.50000000000000000000e+03) (1, 1.50000000000000000000e+03) (2, -1.00801925659179687500e+02) (3, 1.04840599000453948975e-01) (4, 3.26411239802837371826e-02) (5, 3.07539880275726318359e-01) (6, 4.48851026594638824463e-02) (0, -1.50000000000000000000e+03) (1, -1.03084057617187500000e+03) (2, 4.18546257019042968750e+01) (3, 3.74374277889728546143e-02) (4, 6.44280374050140380859e-01) (5, -4.37011457979679107666e-02) (6, 5.44506907463073730469e-01) (0, -2.26437316894531250000e+02) (1, -5.26944084167480468750e+01) (2, -1.44450732421875000000e+03) (3, 1.85381755232810974121e-01) (4, -9.22815427184104919434e-02) (5, 4.11637350916862487793e-02) (6, -2.81560957431793212891e-01) (0, 1.49931896972656250000e+03) (1, -1.50000000000000000000e+03) (2, -1.50000000000000000000e+03) (3, 3.20745515823364257812e+00) (4, 1.63143306970596313477e-01) (5, 2.62084865570068359375e+00) (6, -9.42819237709045410156e-01) (0, 1.43395117187500000000e+03) (1, 1.50000000000000000000e+03) (2, 1.50000000000000000000e+03) (3, 9.06433403491973876953e-01) (4, 7.18239545822143554688e-01) (5, 2.02193546295166015625e+00) (6, 6.01205289363861083984e-01) (0, 1.43009460449218750000e+03) (1, 1.40005035400390625000e+01) (2, -1.46435937500000000000e+03) (3, 1.52715757489204406738e-01) (4, -2.90962368249893188477e-01) (5, -1.67162805795669555664e-01) (6, -3.74713122844696044922e-01) (0, 1.18490795898437500000e+03) (1, -1.43386450195312500000e+03) (2, -8.21657409667968750000e+02) (3, 7.95422315597534179688e-01) (4, 3.89344871044158935547e-01) (5, 1.25154924392700195312e+00) (6, 3.49771261215209960938e-01) (0, 3.59743927001953125000e+02) (1, -9.63663818359375000000e+02) (2, -1.55003404617309570312e+01) (3, 2.11640387773513793945e-01) (4, 1.75410196185111999512e-01) (5, 6.17498755455017089844e-02) (6, 1.44836306571960449219e-01) (0, -1.44558312988281250000e+03) (1, -1.50000000000000000000e+03) (2, -1.09962854003906250000e+03) (3, 5.10266661643981933594e-01) (4, 5.57835996150970458984e-01) (5, 1.38632535934448242188e-01) (6, 5.14714598655700683594e-01) (0, -1.31438317871093750000e+03) (1, -1.46921862792968750000e+03) (2, 1.22734814453125000000e+03) (3, 5.78548908233642578125e-01) (4, 6.29538953304290771484e-01) (5, 2.70030144602060317993e-02) (6, 7.13127732276916503906e-01) (0, -1.48729907226562500000e+03) (1, -1.46873315429687500000e+03) (2, -2.19772070646286010742e-01) (3, 6.16660475730895996094e-01) (4, 2.71521985530853271484e-01) (5, 3.61492663621902465820e-01) (6, 2.36663505434989929199e-01) (0, 1.49903137207031250000e+03) (1, -4.88316345214843750000e+02) (2, -1.95029773712158203125e+01) (3, 1.42051964998245239258e-01) (4, 1.83286875486373901367e-01) (5, 1.56210735440254211426e-01) (6, 9.65412035584449768066e-02) (0, -1.33790979003906250000e+03) (1, 1.50000000000000000000e+03) (2, 9.10872593522071838379e-02) (3, 3.55050355195999145508e-01) (4, 2.37796410918235778809e-01) (5, 3.80612790584564208984e-01) (6, 3.70667070150375366211e-01) (0, 1.49927636718750000000e+03) (1, -5.10592002868652343750e+01) (2, 3.84924682617187500000e+02) (3, -6.27241209149360656738e-02) (4, 4.85945403575897216797e-01) (5, -2.15865090489387512207e-01) (6, 5.50582587718963623047e-01) (0, 1.49920275878906250000e+03) (1, -2.71473312377929687500e+00) (2, -3.68050646781921386719e+00) (3, 1.99790745973587036133e-01) (4, 7.11404606699943542480e-02) (5, 1.03862859308719635010e-01) (6, 1.53134107589721679688e-01) (0, -1.38211157226562500000e+03) (1, -1.49915991210937500000e+03) (2, -5.15439453125000000000e+02) (3, 4.36429053544998168945e-01) (4, 6.04590713977813720703e-01) (5, 4.83076214790344238281e-01) (6, 5.12627363204956054688e-01) (0, 1.49878613281250000000e+03) (1, 1.50000000000000000000e+03) (2, 1.30671020507812500000e+03) (3, 5.72025239467620849609e-01) (4, 4.51257199048995971680e-01) (5, 5.92636227607727050781e-01) (6, 3.97045969963073730469e-01) (0, -1.41399096679687500000e+03) (1, 3.24037963867187500000e+02) (2, 8.99516296386718750000e+01) (3, 2.10047140717506408691e-01) (4, 3.75593215227127075195e-01) (5, 2.43690326809883117676e-01) (6, 3.88695180416107177734e-01) (0, -3.99902130126953125000e+02) (1, -2.55063720703125000000e+02) (2, -1.42546545410156250000e+03) (3, 1.04844927787780761719e-01) (4, 2.15002521872520446777e-01) (5, 2.48993694782257080078e-01) (6, 1.40762969851493835449e-01) (0, 1.43883984375000000000e+03) (1, -2.18215255737304687500e+02) (2, -1.87344944477081298828e+00) (3, 1.63697883486747741699e-01) (4, 1.16482570767402648926e-01) (5, 1.64039835333824157715e-01) (6, 2.39432360976934432983e-02) (0, 1.50000000000000000000e+03) (1, 1.50000000000000000000e+03) (2, 3.15839886665344238281e-01) (3, -3.10146778821945190430e-01) (4, 1.63938909769058227539e-01) (5, 3.24633449316024780273e-01) (6, -4.62766349315643310547e-01) (0, -1.40753320312500000000e+03) (1, 1.50000000000000000000e+03) (2, 5.64329284667968750000e+02) (3, 4.57305341958999633789e-01) (4, 3.75479251146316528320e-01) (5, 5.78956484794616699219e-01) (6, 4.57029610872268676758e-01) (0, -1.48667822265625000000e+03) (1, 1.02969860839843750000e+03) (2, 1.83293361663818359375e+01) (3, 3.65971982479095458984e-01) (4, 4.46260660886764526367e-01) (5, 4.69586163759231567383e-01) (6, 3.24697285890579223633e-01) (0, 1.49999987792968750000e+03) (1, -2.09574069976806640625e+01) (2, -7.72229797363281250000e+02) (3, 3.69529902935028076172e-01) (4, 1.74222841858863830566e-01) (5, 3.74220103025436401367e-01) (6, 3.36158722639083862305e-01) (0, -4.96711822509765625000e+02) (1, -1.49984484863281250000e+03) (2, -4.24310119628906250000e+02) (3, 5.21623969078063964844e-01) (4, 6.51822507381439208984e-01) (5, 3.90308052301406860352e-01) (6, 4.77131605148315429688e-01) (0, 1.50000000000000000000e+03) (1, 1.50000000000000000000e+03) (2, -3.92544250488281250000e+01) (3, 9.74751055240631103516e-01) (4, 2.27617174386978149414e-01) (5, 3.81224662065505981445e-01) (6, 2.76741057634353637695e-01) (0, -1.08061630249023437500e+02) (1, -7.90847595214843750000e+02) (2, 7.40893554687500000000e+02) (3, -4.81186397373676300049e-02) (4, 1.60054132342338562012e-01) (5, 6.25331923365592956543e-02) (6, 1.97447717189788818359e-01) (0, -1.50000000000000000000e+03) (1, -1.50000000000000000000e+03) (2, 2.03299301147460937500e+02) (3, 3.23099903762340545654e-02) (4, 8.32129865884780883789e-02) (5, -4.90922898054122924805e-01) (6, 9.20527055859565734863e-02) (0, 1.50000000000000000000e+03) (1, 1.50000000000000000000e+03) (2, -2.40453964233398437500e+02) (3, 3.88833105564117431641e-01) (4, 2.62885183095932006836e-01) (5, 1.29167163372039794922e+00) (6, 2.12396427989006042480e-01) (0, -1.34394348144531250000e+03) (1, -1.50000000000000000000e+03) (2, -7.39306457519531250000e+02) (3, -2.73014724254608154297e-01) (4, -1.06213331222534179688e-01) (5, -3.57688367366790771484e-01) (6, -9.18598659336566925049e-03) (0, -1.20578771972656250000e+03) (1, 1.26908073425292968750e+02) (2, 1.90451812744140625000e+02) (3, 2.61878997087478637695e-01) (4, 3.34555417299270629883e-01) (5, 2.40499600768089294434e-01) (6, 3.52705150842666625977e-01) (0, -9.64618408203125000000e+02) (1, -3.76155433654785156250e+01) (2, 1.84522676467895507812e+00) (3, -1.46480157971382141113e-01) (4, 5.09617090225219726562e-01) (5, -3.80169808864593505859e-01) (6, 5.16996264457702636719e-01) (0, -1.45764990234375000000e+03) (1, -1.49909729003906250000e+03) (2, -1.45444787597656250000e+03) (3, 5.99760949611663818359e-01) (4, 5.08688569068908691406e-01) (5, 1.17171861231327056885e-01) (6, 5.61230599880218505859e-01) (0, 1.40844775390625000000e+03) (1, -1.50000000000000000000e+03) (2, -5.12352478027343750000e+02) (3, 4.95794117450714111328e-01) (4, 5.82626223564147949219e-01) (5, -1.24617345631122589111e-01) (6, 5.75093686580657958984e-01) (0, 1.48703637695312500000e+03) (1, -3.16128897666931152344e+00) (2, -1.24337731933593750000e+03) (3, 3.38919544219970703125e+00) (4, 2.60008126497268676758e-01) (5, 3.84459257125854492188e-01) (6, 1.40969371423125267029e-02) (0, 8.77066406250000000000e+02) (1, -4.25633331298828125000e+02) (2, -8.91441268920898437500e+01) (3, -1.28004088997840881348e-01) (4, -1.00607238709926605225e-01) (5, 2.21626594662666320801e-01) (6, -2.43766501545906066895e-01) (0, 1.48010327148437500000e+03) (1, 1.50000000000000000000e+03) (2, 4.41919231414794921875e+00) (3, 6.08285367488861083984e-01) (4, 3.87348026037216186523e-01) (5, 9.08619880676269531250e-01) (6, 3.86685729026794433594e-01) (0, 1.48199182128906250000e+03) (1, -5.50331420898437500000e+01) (2, -5.30458748340606689453e-01) (3, 6.24381154775619506836e-02) (4, 1.95552796125411987305e-01) (5, 2.06530779600143432617e-01) (6, 3.03361918777227401733e-02) (0, 9.29125915527343750000e+02) (1, -1.49811767578125000000e+03) (2, -1.23745629882812500000e+03) (3, 5.69907903671264648438e-01) (4, 5.12523174285888671875e-01) (5, 8.01931619644165039062e-02) (6, 6.27868771553039550781e-01) (0, -1.38083581542968750000e+03) (1, 1.50000000000000000000e+03) (2, 5.80824995040893554688e+00) (3, 3.88869285583496093750e-01) (4, 3.88027727603912353516e-01) (5, 5.56794166564941406250e-01) (6, 4.58693981170654296875e-01) (0, 1.50000000000000000000e+03) (1, 1.50000000000000000000e+03) (2, -2.23652755737304687500e+02) (3, 4.92088586091995239258e-01) (4, 2.46280655264854431152e-01) (5, 1.26168644428253173828e+00) (6, 2.68876492977142333984e-01) (0, 1.05659936523437500000e+03) (1, 1.50000000000000000000e+03) (2, 9.26055908203125000000e+00) (3, 7.99767613410949707031e-01) (4, 4.96744394302368164062e-01) (5, 8.82852554321289062500e-01) (6, 5.93462884426116943359e-01) (0, 1.50000000000000000000e+03) (1, 1.50000000000000000000e+03) (2, 3.83205676078796386719e+00) (3, 4.92918193340301513672e-02) (4, 4.10505145788192749023e-01) (5, 1.00527358055114746094e+00) (6, 5.90890586376190185547e-01) (0, -1.30793933105468750000e+03) (1, 1.50000000000000000000e+03) (2, 5.18330335617065429688e+00) (3, 4.47300881147384643555e-01) (4, 4.46813851594924926758e-01) (5, 5.84475994110107421875e-01) (6, 4.37196463346481323242e-01) (0, 8.49473449707031250000e+02) (1, -1.49821435546875000000e+03) (2, -8.31589965820312500000e+02) (3, 4.54381376504898071289e-01) (4, 6.14018678665161132812e-01) (5, 4.14706766605377197266e-01) (6, 5.54910361766815185547e-01) (0, 1.49924206542968750000e+03) (1, 1.50000000000000000000e+03) (2, -9.12719665527343750000e+02) (3, 2.75289011001586914062e+00) (4, 2.23736733198165893555e-01) (5, 3.95872890949249267578e-01) (6, 2.81128913164138793945e-01) (0, -1.44946374511718750000e+03) (1, -1.50000000000000000000e+03) (2, -1.46744873046875000000e+03) (3, 5.48138856887817382812e-01) (4, 4.34161454439163208008e-01) (5, 2.44923904538154602051e-01) (6, 8.38550865650177001953e-01) (0, -1.48969311523437500000e+03) (1, -1.23246313476562500000e+03) (2, -4.74717834472656250000e+02) (3, 5.36148369312286376953e-01) (4, 1.51191428303718566895e-01) (5, 9.04454663395881652832e-02) (6, 7.24980011582374572754e-02) (0, 1.49999987792968750000e+03) (1, -1.47207983398437500000e+03) (2, -1.49948742675781250000e+03) (3, -4.56035323441028594971e-02) (4, -2.20512449741363525391e-01) (5, 3.11708766967058181763e-02) (6, -1.44201651215553283691e-01) (0, -6.53574707031250000000e+02) (1, 1.32915222167968750000e+03) (2, 3.89951972961425781250e+01) (3, 4.46282505989074707031e-01) (4, 4.10200148820877075195e-01) (5, 7.60749816894531250000e-01) (6, 4.32358443737030029297e-01) (0, -1.46744616699218750000e+03) (1, -1.46907263183593750000e+03) (2, -1.47280383300781250000e+03) (3, 2.57465541362762451172e-01) (4, -2.39579558372497558594e-01) (5, -8.81520271301269531250e+00) (6, -1.15170717239379882812e-01) (0, 5.86353942871093750000e+02) (1, 1.04603981018066406250e+02) (2, -4.28805923461914062500e+00) (3, -2.97472208738327026367e-01) (4, 3.67501899600028991699e-02) (5, 1.63359761238098144531e-01) (6, 1.68758124113082885742e-01) (0, 1.24440466308593750000e+03) (1, -1.49289221191406250000e+03) (2, -5.32204856872558593750e+01) (3, 5.22341966629028320312e-01) (4, 5.88044047355651855469e-01) (5, 4.53875601291656494141e-01) (6, 5.26754081249237060547e-01) (0, 2.43743686676025390625e+01) (1, 7.00520157814025878906e-01) (2, 4.12533903121948242188e+00) (3, -1.06737405061721801758e-01) (4, 1.52025558054447174072e-02) (5, 8.16204920411109924316e-02) (6, -6.79201483726501464844e-02) (0, -2.15800354003906250000e+02) (1, 1.50000000000000000000e+03) (2, 1.44607397460937500000e+03) (3, 6.40282452106475830078e-01) (4, 4.52713906764984130859e-01) (5, 9.53878819942474365234e-01) (6, 4.40198808908462524414e-01) (0, 8.05721374511718750000e+02) (1, 1.77968997955322265625e+01) (2, 1.64005950093269348145e-01) (3, -2.06868678331375122070e-01) (4, 1.07533782720565795898e-01) (5, 1.05886995792388916016e-01) (6, 1.15388721227645874023e-01) (0, -1.49140368652343750000e+03) (1, -1.49659631347656250000e+03) (2, 9.03042419433593750000e+02) (3, 5.45628190040588378906e-01) (4, 6.38219773769378662109e-01) (5, 7.22364932298660278320e-02) (6, 7.09352254867553710938e-01) (0, -1.40956140136718750000e+03) (1, -1.46672302246093750000e+03) (2, -4.45478019714355468750e+01) (3, 1.56676962971687316895e-01) (4, 6.48985743522644042969e-01) (5, -9.85175967216491699219e-02) (6, 6.26358926296234130859e-01) (0, 1.49982690429687500000e+03) (1, -2.16360735893249511719e+00) (2, -7.45753906250000000000e+02) (3, 3.19093577563762664795e-02) (4, -1.19303762912750244141e-01) (5, 5.01582063734531402588e-02) (6, 2.75788828730583190918e-02) (0, -1.19067041015625000000e+03) (1, 1.02887304687500000000e+03) (2, -5.15111145019531250000e+02) (3, -1.08516544103622436523e-01) (4, -1.81432649493217468262e-01) (5, 1.44199738278985023499e-02) (6, -1.13628454506397247314e-01) (0, -1.50000000000000000000e+03) (1, -1.28372888183593750000e+03) (2, -1.48652111816406250000e+03) (3, 1.61522850394248962402e-01) (4, 2.36639723181724548340e-01) (5, 3.94026935100555419922e-01) (6, 2.10220888257026672363e-01) (0, -1.15533581542968750000e+03) (1, -1.49292114257812500000e+03) (2, -1.49776782226562500000e+03) (3, -2.90384912490844726562e+00) (4, -2.55257517099380493164e-01) (5, -4.31401586532592773438e+00) (6, -1.73565015196800231934e-01) (0, 1.49167614746093750000e+03) (1, -1.39250195312500000000e+03) (2, -9.64579040527343750000e+02) (3, 4.53471511602401733398e-01) (4, 2.39133700728416442871e-01) (5, 4.46204453706741333008e-01) (6, 1.16559207439422607422e-01) (0, -1.44529663085937500000e+03) (1, -1.50000000000000000000e+03) (2, -1.10008618164062500000e+03) (3, 5.42921423912048339844e-01) (4, 5.71527004241943359375e-01) (5, 5.35331904888153076172e-01) (6, 5.27055621147155761719e-01) (0, 1.50000000000000000000e+03) (1, 1.50000000000000000000e+03) (2, -5.57335021972656250000e+02) (3, 3.50866556167602539062e-01) (4, -5.38477778434753417969e-01) (5, 1.29676055908203125000e+00) (6, -5.18440127372741699219e-01) (0, 1.04247741699218750000e+03) (1, -1.50000000000000000000e+03) (2, -1.08213525390625000000e+03) (3, 1.68055295944213867188e-01) (4, 3.55562686920166015625e-01) (5, 3.91414046287536621094e-01) (6, 3.29583972692489624023e-01) (7, 2.60650133714079856873e-03) (8, 1.17738833650946617126e-02) (9, 2.19451144337654113770e-01) (10, 1.21639125049114227295e-01) (11, -2.81558632850646972656e-01) (12, -7.10214301943778991699e-02) (13, 2.60010451078414916992e-01) (14, -5.84808886051177978516e-02) (15, 4.75722879171371459961e-01) (16, 2.70864099264144897461e-01) (17, -4.84732277691364288330e-02) (18, 3.10337722301483154297e-01) (19, -1.60900399088859558105e-01) (20, 3.03082406520843505859e-01) (21, -6.08676612377166748047e-01) (22, 3.52509260177612304688e-01) (23, -5.79168498516082763672e-01) (24, 3.65377485752105712891e-01) (25, 2.59617567062377929688e-01) (26, 2.77441173791885375977e-01) (27, -7.33125433325767517090e-02) (28, 1.13219961524009704590e-01) (29, -5.16473591327667236328e-01) (30, 2.89793312549591064453e-02) (31, 2.37728565931320190430e-01) (32, 3.55848640203475952148e-01) (33, -4.32419180870056152344e-01) (34, 4.56901378929615020752e-02) (35, -5.51271975040435791016e-01) (36, 7.91280344128608703613e-03) (37, 7.18306422233581542969e-01) (38, 4.20552432537078857422e-01) (39, -6.03068053722381591797e-01) (40, -9.43428203463554382324e-02) (41, 5.79857155680656433105e-02) (42, 1.38900484889745712280e-02) (43, 9.13210570812225341797e-01) (44, 3.22018384933471679688e-01) (45, -1.67779266834259033203e-01) (46, 2.91077405214309692383e-01) (47, 3.18408310413360595703e-01) (48, 4.09317702054977416992e-01) (49, 2.23903089761734008789e-01) (50, -8.85257646441459655762e-02) (51, 1.39971494674682617188e-01) (52, 3.72481226921081542969e-01) (53, -1.26482561230659484863e-01) (54, 5.69278717041015625000e-01) (55, 3.46314907073974609375e-01) (56, 1.99606195092201232910e-01) (57, -6.90605267882347106934e-02) (58, -5.99734246730804443359e-01) (59, 2.68004059791564941406e-01) (60, 3.14553409814834594727e-01) (61, 3.51598747074604034424e-02) (62, -5.93228042125701904297e-01) (63, -1.75158157944679260254e-01) (64, 4.37219977378845214844e-01) (65, 3.37414532899856567383e-01) (66, 1.22559651732444763184e-01) (67, -2.16871604323387145996e-01) (68, 7.73945003747940063477e-02) (69, 3.95780503749847412109e-02) (70, 2.61487424373626708984e-01) (71, -8.99013131856918334961e-02) (72, -1.03024792671203613281e+00) (73, 3.65125298500061035156e-01) (74, 3.77278149127960205078e-01) (75, 1.12285435199737548828e-01) (76, -3.18018555641174316406e-01) (77, -1.53444483876228332520e-01) (78, 2.70231306552886962891e-01) (79, -5.37733882665634155273e-02) (80, -1.20027408003807067871e-01) (81, -1.86273455619812011719e-02) (82, -1.06995105743408203125e-01) (83, -2.25222706794738769531e-01) (84, -9.55922827124595642090e-02) (85, 3.61536473035812377930e-01) (86, 1.44062787294387817383e-01) (87, 3.57517033815383911133e-01) (88, -1.76644288003444671631e-02) (89, 1.41652405261993408203e-01) (90, -8.22892710566520690918e-02) (91, 6.99881672859191894531e-01) (92, 5.52995428442955017090e-02) (93, 2.13479712605476379395e-01) (94, -1.23383313417434692383e-01) (95, -1.03280864655971527100e-01) (96, -6.15932166576385498047e-01) (97, -1.34577319025993347168e-01) (98, 3.48333090543746948242e-01) (99, 1.85122832655906677246e-01) (100, -5.09902060031890869141e-01) (101, 1.01794995367527008057e-01) (102, 5.64591646194458007812e-01) (103, 4.74359467625617980957e-02) (104, 2.41369396448135375977e-01) (105, -6.60307928919792175293e-02) (106, -1.78816884756088256836e-01) (107, 3.01745295524597167969e-01) (7, 9.44063290953636169434e-02) (8, -3.45067605376243591309e-02) (9, 4.88010734319686889648e-01) (10, -2.22822986543178558350e-02) (11, -1.82644486427307128906e-01) (12, -1.93453773856163024902e-01) (13, 3.81881147623062133789e-02) (14, -1.47918224334716796875e-01) (15, 4.40802037715911865234e-01) (16, 3.76555234193801879883e-01) (17, 5.27986846864223480225e-02) (18, 3.77118557691574096680e-01) (19, 7.79627203941345214844e-01) (20, 6.68985962867736816406e-01) (21, -6.04243159294128417969e-01) (22, 2.66145557165145874023e-01) (23, -6.13264858722686767578e-01) (24, 3.92480581998825073242e-01) (25, 1.82994619011878967285e-01) (26, 1.33895367383956909180e-01) (27, -1.32562547922134399414e-01) (28, -3.13137955963611602783e-02) (29, -5.87713956832885742188e-01) (30, -3.11182707548141479492e-01) (31, 4.98347967863082885742e-01) (32, 3.83343607187271118164e-01) (33, -6.52692675590515136719e-01) (34, 3.48166711628437042236e-02) (35, -6.00275337696075439453e-01) (36, 5.44147519394755363464e-03) (37, -1.20410907268524169922e+00) (38, 4.76351082324981689453e-01) (39, -1.64147228002548217773e-01) (40, -9.78789776563644409180e-02) (41, 1.69491686392575502396e-03) (42, -3.42476278543472290039e-01) (43, -1.61061868071556091309e-01) (44, 3.85673195123672485352e-01) (45, -6.30114004015922546387e-02) (46, 1.74995005130767822266e-01) (47, 2.73312389850616455078e-01) (48, 3.73197436332702636719e-01) (49, 3.80560606718063354492e-01) (50, -1.26338571310043334961e-01) (51, -1.20932444930076599121e-01) (52, 4.37831759452819824219e-01) (53, -6.51413723826408386230e-02) (54, -4.36943650245666503906e-01) (55, 6.18865907192230224609e-01) (56, 3.90287548303604125977e-01) (57, -1.00663207471370697021e-01) (58, -5.59541463851928710938e-01) (59, 1.21282607316970825195e-01) (60, 4.39009487628936767578e-01) (61, -1.41801349818706512451e-02) (62, -5.96659660339355468750e-01) (63, -4.42957356572151184082e-02) (64, 4.62010145187377929688e-01) (65, 4.04763191938400268555e-01) (66, 2.50993967056274414062e-02) (67, 2.23488539457321166992e-01) (68, 4.02492657303810119629e-02) (69, 7.75441154837608337402e-02) (70, 2.10525855422019958496e-01) (71, -2.90747564285993576050e-02) (72, -1.40279129147529602051e-01) (73, 3.28524500131607055664e-01) (74, 3.72886925935745239258e-01) (75, 1.58928602468222379684e-03) (76, 5.01128792762756347656e-01) (77, -6.57291933894157409668e-02) (78, 4.73407000303268432617e-01) (79, 5.43057136237621307373e-02) (80, -9.00940671563148498535e-02) (81, 1.28362044692039489746e-01) (82, -4.12558764219284057617e-02) (83, 1.23907387256622314453e-01) (84, -1.01715825498104095459e-01) (85, 3.18780153989791870117e-01) (86, -7.24897906184196472168e-02) (87, 3.27627331018447875977e-01) (88, 6.98231998831033706665e-03) (89, 7.19111502170562744141e-01) (90, -1.27282351255416870117e-01) (91, 2.38913536071777343750e-01) (92, -5.11326529085636138916e-02) (93, 3.85709315538406372070e-01) (94, 2.21428260207176208496e-01) (95, -9.67494174838066101074e-02) (96, 1.09093499183654785156e+00) (97, -1.15535043179988861084e-01) (98, 1.44169270992279052734e-01) (99, 3.65588851273059844971e-02) (100, 4.77979123592376708984e-01) (101, -6.58876299858093261719e-02) (102, 3.26543986797332763672e-01) (103, -1.21010102331638336182e-01) (104, 3.97355109453201293945e-01) (105, -2.81988810747861862183e-02) (106, 5.16199767589569091797e-01) (107, 2.97288596630096435547e-01) (7, 2.20292896032333374023e-01) (8, -2.72895600646734237671e-02) (9, 3.95933091640472412109e-01) (10, -1.77060943096876144409e-02) (11, -4.38499540090560913086e-01) (12, -1.88598662614822387695e-01) (13, -1.97473764419555664062e-02) (14, -1.57409831881523132324e-01) (15, 3.95642101764678955078e-01) (16, -1.80622205138206481934e-01) (17, 1.48855879902839660645e-01) (18, 6.64393067359924316406e-01) (19, 5.69095984101295471191e-02) (20, 4.24531996250152587891e-01) (21, -4.84081506729125976562e-01) (22, 4.90214794874191284180e-01) (23, -4.85892981290817260742e-01) (24, -9.05496254563331604004e-02) (25, 8.91326665878295898438e-02) (26, 4.19367328286170959473e-02) (27, -1.67028546333312988281e-01) (28, -2.05038875341415405273e-01) (29, -4.82725918292999267578e-01) (30, 8.52281570434570312500e-01) (31, 4.18507963418960571289e-01) (32, 5.53563237190246582031e-01) (33, -5.61923444271087646484e-01) (34, -9.30022776126861572266e-01) (35, -5.01499295234680175781e-01) (36, 1.09530933201313018799e-01) (37, -9.78739559650421142578e-01) (38, 2.61508017778396606445e-01) (39, -4.94116634130477905273e-01) (40, -4.49262298643589019775e-02) (41, -9.94133472442626953125e-01) (42, 8.16250026226043701172e-01) (43, -1.54066637158393859863e-01) (44, 1.10969327390193939209e-01) (45, -1.76694184541702270508e-01) (46, 6.10676184296607971191e-02) (47, -1.56086003407835960388e-02) (48, 4.10198539495468139648e-01) (49, 5.94908237457275390625e-01) (50, 5.83132147789001464844e-01) (51, 7.21530243754386901855e-02) (52, 4.37422007322311401367e-01) (53, -8.74896422028541564941e-02) (54, -5.41955947875976562500e-01) (55, 3.59800606966018676758e-01) (56, 5.57982325553894042969e-01) (57, -1.86340779066085815430e-01) (58, -1.37816593050956726074e-01) (59, 3.26330065727233886719e-01) (60, 4.75462675094604492188e-01) (61, -1.48665741086006164551e-01) (62, -4.27812039852142333984e-01) (63, -3.28098237514495849609e-02) (64, 2.91460633277893066406e-01) (65, 6.51955485343933105469e-01) (66, -5.93376636505126953125e-01) (67, -6.17587231099605560303e-02) (68, 6.94464266300201416016e-01) (69, -5.89339494705200195312e-01) (70, 5.74720442295074462891e-01) (71, 5.19175156950950622559e-02) (72, 1.31279015541076660156e+00) (73, 6.59002065658569335938e-01) (74, 5.52204012870788574219e-01) (75, -2.44739931076765060425e-02) (76, 1.09212540090084075928e-01) (77, -2.02602162957191467285e-01) (78, 3.61003547906875610352e-01) (79, -6.58455342054367065430e-02) (80, -8.16617682576179504395e-02) (81, -6.15945219993591308594e-01) (82, -7.27808624505996704102e-02) (83, -5.17424702644348144531e-01) (84, -7.47829601168632507324e-02) (85, 5.89317321777343750000e-01) (86, -1.17118328809738159180e-01) (87, 4.96106952428817749023e-01) (88, 8.64062607288360595703e-02) (89, 1.36329472064971923828e-01) (90, -1.18589468300342559814e-01) (91, 6.12868726253509521484e-01) (92, -1.34531944990158081055e-01) (93, 4.97144520282745361328e-01) (94, -1.02137453854084014893e-01) (95, -1.86867266893386840820e-01) (96, -1.89937233924865722656e-01) (97, 5.31809926033020019531e-01) (98, 2.21197642385959625244e-02) (99, -4.84662838280200958252e-02) (100, 1.86314567923545837402e-01) (101, 2.43311181664466857910e-01) (102, 5.91637432575225830078e-01) (103, -2.24846284836530685425e-02) (104, 6.31160140037536621094e-01) (105, -2.97825336456298828125e-01) (106, 2.05426901578903198242e-01) (107, 6.52426958084106445312e-01) (7, -7.68063813447952270508e-02) (8, 2.37849876284599304199e-02) (9, 4.30518746376037597656e-01) (10, 1.09379939734935760498e-01) (11, -5.07231593132019042969e-01) (12, -5.37371672689914703369e-02) (13, 1.48682072758674621582e-02) (14, -9.07832011580467224121e-03) (15, 4.08611178398132324219e-01) (16, -5.37217892706394195557e-02) (17, -5.87228732183575630188e-03) (18, 2.47554793953895568848e-01) (19, 2.24562995135784149170e-02) (20, 5.78734517097473144531e-01) (21, -5.13999462127685546875e-01) (22, 3.44137072563171386719e-01) (23, -4.29410338401794433594e-01) (24, 3.12578886747360229492e-01) (25, 2.75165408849716186523e-01) (26, 7.87192344665527343750e-01) (27, -7.35524222254753112793e-02) (28, 9.75768342614173889160e-02) (29, -5.07525563240051269531e-01) (30, -2.96422004699707031250e-01) (31, 4.71872448921203613281e-01) (32, 3.04609864950180053711e-01) (33, -1.90019994974136352539e-01) (34, -1.47602139040827751160e-02) (35, -4.11469936370849609375e-01) (36, 1.65298953652381896973e-02) (37, 1.44283139705657958984e+00) (38, 3.92382949590682983398e-01) (39, -5.05308091640472412109e-01) (40, -1.83964177966117858887e-01) (41, 6.14540055394172668457e-02) (42, 7.27681219577789306641e-02) (43, 1.08884073793888092041e-01) (44, -2.59652346372604370117e-01) (45, -8.54809209704399108887e-02) (46, 1.88982889056205749512e-01) (47, -2.85056661814451217651e-02) (48, 4.99317109584808349609e-01) (49, 2.95626670122146606445e-01) (50, -1.12356901168823242188e-01) (51, -2.69357919692993164062e-01) (52, 4.51201736927032470703e-01) (53, -2.04148069024085998535e-01) (54, 1.09844040870666503906e+00) (55, 5.28086423873901367188e-01) (56, 3.74103486537933349609e-01) (57, -7.02785179018974304199e-02) (58, -3.72118830680847167969e-01) (59, 2.39606410264968872070e-01) (60, 5.36397814750671386719e-01) (61, 3.96974533796310424805e-02) (62, -4.53555166721343994141e-01) (63, -1.41052559018135070801e-01) (64, 3.65580469369888305664e-01) (65, 3.81930410861968994141e-01) (66, -2.61238843202590942383e-01) (67, 4.62869815528392791748e-02) (68, 5.55535443127155303955e-02) (69, 7.44753479957580566406e-02) (70, 2.44931891560554504395e-01) (71, -3.13620455563068389893e-02) (72, 1.35824143886566162109e-01) (73, 2.63567268848419189453e-01) (74, 3.94351363182067871094e-01) (75, 1.41802411526441574097e-02) (76, -1.63761362433433532715e-01) (77, -2.01546087861061096191e-01) (78, 5.05374968051910400391e-01) (79, 2.93608307838439941406e-01) (80, -1.41849175095558166504e-01) (81, 5.93944489955902099609e-02) (82, -5.49158453941345214844e-02) (83, 1.68815910816192626953e-01) (84, -1.40691414475440979004e-01) (85, 3.86974155902862548828e-01) (86, -3.50796133279800415039e-02) (87, 2.41482391953468322754e-01) (88, -2.22190335392951965332e-01) (89, 3.29152435064315795898e-01) (90, -1.62237867712974548340e-01) (91, 2.24784910678863525391e-01) (92, 1.40881404280662536621e-01) (93, 3.96290659904479980469e-01) (94, 5.32511912751942873001e-04) (95, -1.29509344696998596191e-01) (96, 1.35134324431419372559e-01) (97, -3.02813928574323654175e-02) (98, 1.34217040613293647766e-02) (99, 1.97407379746437072754e-02) (100, 4.08878028392791748047e-02) (101, 5.56983016431331634521e-02) (102, 2.61303484439849853516e-01) (103, 1.36241823434829711914e-01) (104, 2.87411123514175415039e-01) (105, 1.94464880041778087616e-03) (106, 1.26730516552925109863e-01) (107, 2.37633034586906433105e-01) 
