FANN_FLO_2.1
num_layers=3
learning_rate=0.001000
connection_rate=1.000000
network_type=0
learning_momentum=0.000000
training_algorithm=2
train_error_function=1
train_stop_function=0
cascade_output_change_fraction=0.010000
quickprop_decay=-0.000100
quickprop_mu=1.750000
rprop_increase_factor=1.200000
rprop_decrease_factor=0.500000
rprop_delta_min=0.000000
rprop_delta_max=50.000000
rprop_delta_zero=0.100000
cascade_output_stagnation_epochs=12
cascade_candidate_change_fraction=0.010000
cascade_candidate_stagnation_epochs=12
cascade_max_out_epochs=150
cascade_min_out_epochs=50
cascade_max_cand_epochs=150
cascade_min_cand_epochs=50
cascade_num_candidate_groups=2
bit_fail_limit=3.49999994039535522461e-01
cascade_candidate_limit=1.00000000000000000000e+03
cascade_weight_multiplier=4.00000005960464477539e-01
cascade_activation_functions_count=10
cascade_activation_functions=3 5 7 8 10 11 14 15 16 17 
cascade_activation_steepnesses_count=4
cascade_activation_steepnesses=2.50000000000000000000e-01 5.00000000000000000000e-01 7.50000000000000000000e-01 1.00000000000000000000e+00 
layer_sizes=7 101 5 
scale_included=0
neurons (num_inputs, activation_function, activation_steepness)=(0, 0, 0.00000000000000000000e+00) (0, 0, 0.00000000000000000000e+00) (0, 0, 0.00000000000000000000e+00) (0, 0, 0.00000000000000000000e+00) (0, 0, 0.00000000000000000000e+00) (0, 0, 0.00000000000000000000e+00) (0, 0, 0.00000000000000000000e+00) (7, 5, 5.00000000000000000000e-01) (7, 5, 5.00000000000000000000e-01) (7, 5, 5.00000000000000000000e-01) (7, 5, 5.00000000000000000000e-01) (7, 5, 5.00000000000000000000e-01) (7, 5, 5.00000000000000000000e-01) (7, 5, 5.00000000000000000000e-01) (7, 5, 5.00000000000000000000e-01) (7, 5, 5.00000000000000000000e-01) (7, 5, 5.00000000000000000000e-01) (7, 5, 5.00000000000000000000e-01) (7, 5, 5.00000000000000000000e-01) (7, 5, 5.00000000000000000000e-01) (7, 5, 5.00000000000000000000e-01) (7, 5, 5.00000000000000000000e-01) (7, 5, 5.00000000000000000000e-01) (7, 5, 5.00000000000000000000e-01) (7, 5, 5.00000000000000000000e-01) (7, 5, 5.00000000000000000000e-01) (7, 5, 5.00000000000000000000e-01) (7, 5, 5.00000000000000000000e-01) (7, 5, 5.00000000000000000000e-01) (7, 5, 5.00000000000000000000e-01) (7, 5, 5.00000000000000000000e-01) (7, 5, 5.00000000000000000000e-01) (7, 5, 5.00000000000000000000e-01) (7, 5, 5.00000000000000000000e-01) (7, 5, 5.00000000000000000000e-01) (7, 5, 5.00000000000000000000e-01) (7, 5, 5.00000000000000000000e-01) (7, 5, 5.00000000000000000000e-01) (7, 5, 5.00000000000000000000e-01) (7, 5, 5.00000000000000000000e-01) (7, 5, 5.00000000000000000000e-01) (7, 5, 5.00000000000000000000e-01) (7, 5, 5.00000000000000000000e-01) (7, 5, 5.00000000000000000000e-01) (7, 5, 5.00000000000000000000e-01) (7, 5, 5.00000000000000000000e-01) (7, 5, 5.00000000000000000000e-01) (7, 5, 5.00000000000000000000e-01) (7, 5, 5.00000000000000000000e-01) (7, 5, 5.00000000000000000000e-01) (7, 5, 5.00000000000000000000e-01) (7, 5, 5.00000000000000000000e-01) (7, 5, 5.00000000000000000000e-01) (7, 5, 5.00000000000000000000e-01) (7, 5, 5.00000000000000000000e-01) (7, 5, 5.00000000000000000000e-01) (7, 5, 5.00000000000000000000e-01) (7, 5, 5.00000000000000000000e-01) (7, 5, 5.00000000000000000000e-01) (7, 5, 5.00000000000000000000e-01) (7, 5, 5.00000000000000000000e-01) (7, 5, 5.00000000000000000000e-01) (7, 5, 5.00000000000000000000e-01) (7, 5, 5.00000000000000000000e-01) (7, 5, 5.00000000000000000000e-01) (7, 5, 5.00000000000000000000e-01) (7, 5, 5.00000000000000000000e-01) (7, 5, 5.00000000000000000000e-01) (7, 5, 5.00000000000000000000e-01) (7, 5, 5.00000000000000000000e-01) (7, 5, 5.00000000000000000000e-01) (7, 5, 5.00000000000000000000e-01) (7, 5, 5.00000000000000000000e-01) (7, 5, 5.00000000000000000000e-01) (7, 5, 5.00000000000000000000e-01) (7, 5, 5.00000000000000000000e-01) (7, 5, 5.00000000000000000000e-01) (7, 5, 5.00000000000000000000e-01) (7, 5, 5.00000000000000000000e-01) (7, 5, 5.00000000000000000000e-01) (7, 5, 5.00000000000000000000e-01) (7, 5, 5.00000000000000000000e-01) (7, 5, 5.00000000000000000000e-01) (7, 5, 5.00000000000000000000e-01) (7, 5, 5.00000000000000000000e-01) (7, 5, 5.00000000000000000000e-01) (7, 5, 5.00000000000000000000e-01) (7, 5, 5.00000000000000000000e-01) (7, 5, 5.00000000000000000000e-01) (7, 5, 5.00000000000000000000e-01) (7, 5, 5.00000000000000000000e-01) (7, 5, 5.00000000000000000000e-01) (7, 5, 5.00000000000000000000e-01) (7, 5, 5.00000000000000000000e-01) (7, 5, 5.00000000000000000000e-01) (7, 5, 5.00000000000000000000e-01) (7, 5, 5.00000000000000000000e-01) (7, 5, 5.00000000000000000000e-01) (7, 5, 5.00000000000000000000e-01) (7, 5, 5.00000000000000000000e-01) (7, 5, 5.00000000000000000000e-01) (7, 5, 5.00000000000000000000e-01) (7, 5, 5.00000000000000000000e-01) (7, 5, 5.00000000000000000000e-01) (7, 5, 5.00000000000000000000e-01) (7, 5, 5.00000000000000000000e-01) (7, 5, 5.00000000000000000000e-01) (0, 5, 0.00000000000000000000e+00) (101, 5, 5.00000000000000000000e-01) (101, 5, 5.00000000000000000000e-01) (101, 5, 5.00000000000000000000e-01) (101, 5, 5.00000000000000000000e-01) (0, 5, 0.00000000000000000000e+00) 
connections (connected_to_neuron, weight)=(0, -2.74981837719678878784e-02) (1, -1.93097189068794250488e-01) (2, 4.61890280246734619141e-01) (3, 1.57946079969406127930e-01) (4, 3.52186620235443115234e-01) (5, -1.21518224477767944336e-01) (6, -2.65332520008087158203e-01) (0, 1.90215721726417541504e-01) (1, 1.60832419991493225098e-01) (2, 2.15157032012939453125e-01) (3, 7.48533368110656738281e-01) (4, 5.97608327865600585938e-01) (5, 5.40809571743011474609e-01) (6, 2.31715261936187744141e-01) (0, 2.72078275680541992188e-01) (1, 3.18522214889526367188e-01) (2, 2.24934726953506469727e-01) (3, 5.65507650375366210938e-01) (4, 3.47325891256332397461e-01) (5, 3.38819086551666259766e-01) (6, 1.90176382660865783691e-01) (0, -5.37038743495941162109e-02) (1, 1.35032415390014648438e-01) (2, 3.58577340841293334961e-01) (3, 1.85025587677955627441e-01) (4, 3.64294528961181640625e-01) (5, 2.36911073327064514160e-01) (6, -1.03661388158798217773e-01) (0, 2.81419694423675537109e-01) (1, 2.81909555196762084961e-01) (2, 2.69907474517822265625e-01) (3, 4.77457255125045776367e-01) (4, 2.98659622669219970703e-01) (5, 3.12548995018005371094e-01) (6, 2.52373576164245605469e-01) (0, 1.70227080583572387695e-01) (1, 3.30619901418685913086e-01) (2, 1.63503617048263549805e-01) (3, 5.65380752086639404297e-01) (4, 3.71852129697799682617e-01) (5, 3.83003324270248413086e-01) (6, 2.30047747492790222168e-01) (0, 1.63274466991424560547e-01) (1, 1.33266448974609375000e-01) (2, 2.93694555759429931641e-01) (3, 7.74929046630859375000e-01) (4, 7.17566192150115966797e-01) (5, 5.88874101638793945312e-01) (6, 1.58747583627700805664e-01) (0, 9.79454517364501953125e-02) (1, -2.74743914604187011719e-01) (2, -2.35243409872055053711e-01) (3, -5.35290598869323730469e-01) (4, 7.04370796680450439453e-01) (5, 3.57871532440185546875e-01) (6, -7.52776622772216796875e-01) (0, -4.42673005163669586182e-02) (1, -1.63918524980545043945e-01) (2, 7.04902410507202148438e-02) (3, 5.40090352296829223633e-02) (4, -7.41164386272430419922e-02) (5, -2.56284493952989578247e-02) (6, 5.66449612379074096680e-02) (0, 8.36626768112182617188e-01) (1, 3.53354588150978088379e-02) (2, 1.94481983780860900879e-01) (3, -6.65002390742301940918e-02) (4, 2.84983605146408081055e-01) (5, -2.97431051731109619141e-02) (6, -1.55106022953987121582e-01) (0, -1.08826383948326110840e-01) (1, -2.34525978565216064453e-01) (2, 1.86291322112083435059e-01) (3, -2.62949243187904357910e-02) (4, -2.52147670835256576538e-02) (5, 3.25810909271240234375e-02) (6, -2.18798264861106872559e-01) (0, -4.46145609021186828613e-03) (1, -1.17113143205642700195e-01) (2, 1.83095894753932952881e-02) (3, 3.50493729114532470703e-01) (4, 2.27158814668655395508e-01) (5, 5.23434162139892578125e-01) (6, 6.82509899139404296875e-01) (0, -5.52958510816097259521e-02) (1, 1.62305235862731933594e-01) (2, 3.52703899145126342773e-01) (3, 1.78398311138153076172e-01) (4, 2.62538015842437744141e-01) (5, 2.90833830833435058594e-01) (6, 2.00594246387481689453e-01) (0, 7.42564082145690917969e-01) (1, -9.76198390126228332520e-02) (2, 1.60233765840530395508e-01) (3, 6.31640911102294921875e-01) (4, 3.99192154407501220703e-01) (5, 4.10596609115600585938e-01) (6, 5.01469373703002929688e-01) (0, -3.73362571001052856445e-01) (1, 1.28448329633101820946e-04) (2, -2.16539278626441955566e-01) (3, -2.96853214502334594727e-01) (4, -1.55153781175613403320e-01) (5, -2.43417561054229736328e-01) (6, -4.65104490518569946289e-01) (0, 1.66774198412895202637e-01) (1, -2.01280023902654647827e-02) (2, -2.82190501689910888672e-01) (3, -2.08031326532363891602e-01) (4, -2.05955505371093750000e-01) (5, -2.10402145981788635254e-01) (6, -3.18712085485458374023e-01) (0, 5.12866616249084472656e-01) (1, 1.10204033553600311279e-01) (2, -1.77495162934064865112e-02) (3, 8.48916068207472562790e-04) (4, 2.93797492980957031250e-01) (5, 2.77948409318923950195e-01) (6, -1.01437218487262725830e-01) (0, 2.91372299194335937500e-01) (1, 6.66530728340148925781e-01) (2, 3.86715829372406005859e-01) (3, -2.16427966952323913574e-02) (4, 9.93684213608503341675e-03) (5, 1.09598904848098754883e-01) (6, 6.66710019111633300781e-01) (0, -2.81764626502990722656e-01) (1, -1.27425432205200195312e-01) (2, -1.97326958179473876953e-01) (3, -5.04409074783325195312e-02) (4, -2.06143379211425781250e-01) (5, -1.23205982148647308350e-01) (6, -1.91541552543640136719e-01) (0, 6.39774203300476074219e-02) (1, 9.19464007019996643066e-02) (2, 2.37056866288185119629e-01) (3, 1.00892307236790657043e-02) (4, 1.96410164237022399902e-01) (5, 2.74689108133316040039e-01) (6, 5.85518628358840942383e-02) (0, 1.80522298812866210938e+00) (1, 3.44484716653823852539e-01) (2, 1.50076404213905334473e-01) (3, 2.53282159566879272461e-01) (4, 2.97809660434722900391e-01) (5, 8.18308889865875244141e-02) (6, 5.28806686401367187500e-01) (0, 9.29562011718750000000e+02) (1, 1.42626574707031250000e+03) (2, 6.91549911499023437500e+01) (3, 4.20862808823585510254e-03) (4, 7.92571604251861572266e-02) (5, 1.51399508118629455566e-01) (6, 1.07868242263793945312e+00) (0, 3.01761150360107421875e-01) (1, -5.88722288608551025391e-01) (2, -2.27058187127113342285e-01) (3, 1.17272123694419860840e-01) (4, -8.32356959581375122070e-02) (5, -1.80526822805404663086e-01) (6, 3.98759675025939941406e+00) (0, -1.46419262695312500000e+03) (1, -1.47765759277343750000e+03) (2, -4.01713226318359375000e+02) (3, 5.97354695200920104980e-02) (4, 4.39958900213241577148e-01) (5, -2.64279007911682128906e-01) (6, 3.04019284248352050781e+00) (0, 6.50326311588287353516e-02) (1, 4.89747047424316406250e-01) (2, 3.66661280393600463867e-01) (3, 1.57241389155387878418e-01) (4, 3.72676461935043334961e-01) (5, 3.87631326913833618164e-01) (6, 3.24151039123535156250e-01) (0, 1.57535031437873840332e-01) (1, 4.45885717868804931641e-01) (2, 2.09675997495651245117e-01) (3, 2.86793738603591918945e-01) (4, -5.16320168972015380859e-01) (5, 1.19927026331424713135e-01) (6, 9.55728769302368164062e-01) (0, 4.75223883986473083496e-02) (1, 1.82036198675632476807e-02) (2, -7.29081258177757263184e-02) (3, 4.58859711885452270508e-01) (4, 3.94752651453018188477e-01) (5, 3.05551469326019287109e-01) (6, -9.21438857913017272949e-02) (0, -2.90427088737487792969e-01) (1, -8.86764973402023315430e-02) (2, -1.59326493740081787109e-01) (3, -1.98495760560035705566e-01) (4, -1.17629498243331909180e-01) (5, -1.28827095031738281250e-01) (6, -2.93625742197036743164e-01) (0, 2.84996088594198226929e-02) (1, 1.05057612061500549316e-01) (2, -6.42336010932922363281e-02) (3, 5.09003959596157073975e-02) (4, -4.60787713527679443359e-02) (5, -5.71620166301727294922e-02) (6, 3.96409064531326293945e-01) (0, 3.87482500076293945312e+00) (1, 4.17123031616210937500e+00) (2, 5.72775900363922119141e-01) (3, -1.04028403759002685547e-01) (4, 2.08710193634033203125e-01) (5, -1.33539274334907531738e-01) (6, -4.13209497928619384766e-01) (0, -2.11807116866111755371e-02) (1, 3.02546292543411254883e-01) (2, 2.52085924148559570312e-01) (3, 1.69881463050842285156e-01) (4, 2.96222418546676635742e-01) (5, 3.32675427198410034180e-01) (6, 1.91511824727058410645e-01) (0, 7.02549740672111511230e-02) (1, 2.68694669008255004883e-01) (2, 2.03565567731857299805e-01) (3, 4.83097255229949951172e-01) (4, 3.20684522390365600586e-01) (5, 3.28392088413238525391e-01) (6, 3.13345700502395629883e-01) (0, 3.34919005632400512695e-01) (1, 3.29006284475326538086e-01) (2, 3.62656801939010620117e-01) (3, 3.76087456941604614258e-01) (4, 2.56703972816467285156e-01) (5, 3.61124217510223388672e-01) (6, 8.20493280887603759766e-01) (0, 3.40552806854248046875e+00) (1, 1.14944219589233398438e+00) (2, 1.75426155328750610352e-01) (3, 1.74413919448852539062e-01) (4, 3.70885491371154785156e-01) (5, 7.21209943294525146484e-01) (6, -1.53474879264831542969e+00) (0, -2.41790592670440673828e-01) (1, -1.22213233262300491333e-02) (2, 3.48858743906021118164e-01) (3, 7.58325219154357910156e-01) (4, 7.95270562171936035156e-01) (5, 9.49064671993255615234e-01) (6, 2.55281031131744384766e-01) (0, -9.98295843601226806641e-02) (1, -1.31590828299522399902e-01) (2, -2.98548061400651931763e-02) (3, -2.53180507570505142212e-02) (4, -1.01232305169105529785e-01) (5, -1.43235757946968078613e-01) (6, -1.60969421267509460449e-01) (0, -1.22709564864635467529e-01) (1, -1.21423803269863128662e-01) (2, -2.41415098309516906738e-01) (3, -6.07143417000770568848e-02) (4, -1.88048422336578369141e-01) (5, -1.01207576692104339600e-01) (6, -3.10746654868125915527e-02) (0, -7.50603258609771728516e-01) (1, -6.70728683471679687500e-02) (2, 9.42416414618492126465e-02) (3, -1.66754394769668579102e-01) (4, 1.50558993220329284668e-01) (5, -4.33342248201370239258e-01) (6, 1.61062717437744140625e-01) (0, 1.56547591090202331543e-01) (1, 1.72175511717796325684e-01) (2, 5.03014385700225830078e-01) (3, 4.72350478172302246094e-01) (4, 2.17540591955184936523e-01) (5, 6.84427320957183837891e-01) (6, 1.62615859508514404297e+00) (0, 5.47024190425872802734e-01) (1, 1.05307221412658691406e-01) (2, 1.92538052797317504883e-01) (3, -2.34645344316959381104e-02) (4, 1.41312107443809509277e-01) (5, 2.19089150428771972656e-01) (6, 1.94346532225608825684e-01) (0, -9.12880748510360717773e-02) (1, 2.07746878266334533691e-01) (2, 2.11039826273918151855e-01) (3, 1.09668701887130737305e-01) (4, 2.82507240772247314453e-01) (5, 1.73825055360794067383e-01) (6, 6.90218061208724975586e-02) (0, 2.58090179413557052612e-02) (1, 8.65300297737121582031e-02) (2, -1.98982119560241699219e-01) (3, -3.80104511976242065430e-01) (4, 8.79106819629669189453e-01) (5, -1.00466281175613403320e-01) (6, -1.30841434001922607422e-01) (0, 3.31741183996200561523e-01) (1, 3.62322270870208740234e-01) (2, 2.97141611576080322266e-01) (3, 6.67400598526000976562e-01) (4, 3.38382929563522338867e-01) (5, 3.01204204559326171875e-01) (6, 3.01358520984649658203e-01) (0, 2.32559815049171447754e-02) (1, -3.55697385966777801514e-02) (2, 3.61853659152984619141e-01) (3, 1.72662645578384399414e-01) (4, 2.14999377727508544922e-01) (5, 2.67689257860183715820e-01) (6, -7.94350132346153259277e-02) (0, 2.12166115641593933105e-01) (1, 6.86316490173339843750e-01) (2, 3.87629568576812744141e-01) (3, -1.57315462827682495117e-01) (4, 1.24803721904754638672e-01) (5, 7.75586860254406929016e-03) (6, 4.10094171762466430664e-01) (0, 4.95980262756347656250e+00) (1, 5.16529178619384765625e+00) (2, -2.01364625245332717896e-02) (3, -9.88855585455894470215e-02) (4, -1.76044240593910217285e-01) (5, -3.70268762111663818359e-01) (6, 9.43459868431091308594e-01) (0, -1.11038833856582641602e-02) (1, -1.46530702710151672363e-01) (2, 3.31884741783142089844e-01) (3, 1.70288428664207458496e-01) (4, 1.98746457695960998535e-01) (5, 3.65746408700942993164e-01) (6, 9.14086028933525085449e-02) (0, 1.50000000000000000000e+03) (1, 4.32215026855468750000e+02) (2, 8.37887390136718750000e+02) (3, -4.13559414446353912354e-02) (4, 9.22320261597633361816e-02) (5, 8.05064886808395385742e-02) (6, 7.14498519897460937500e-01) (0, 8.22087526321411132812e-02) (1, -1.88176631927490234375e-01) (2, -2.90574878454208374023e-01) (3, -1.02945648133754730225e-01) (4, -6.46839514374732971191e-02) (5, 9.58638861775398254395e-02) (6, -1.93991094827651977539e-01) (0, -1.43082633614540100098e-01) (1, -3.40467929840087890625e-01) (2, -3.15333455801010131836e-01) (3, 3.35105389356613159180e-01) (4, 1.93709343671798706055e-01) (5, 9.87596809864044189453e-02) (6, -1.39043062925338745117e-01) (0, -6.77085891366004943848e-02) (1, 3.24061512947082519531e-01) (2, 2.93841630220413208008e-01) (3, -2.51347929239273071289e-01) (4, -1.15139871835708618164e-01) (5, -1.77242219448089599609e-01) (6, 5.44201657176017761230e-02) (0, -1.23626577854156494141e+00) (1, -1.87982022762298583984e-01) (2, -2.87959408760070800781e+00) (3, -1.38705223798751831055e-01) (4, 2.59641587734222412109e-01) (5, 7.67269805073738098145e-02) (6, -4.96312618255615234375e-01) (0, -4.86415624618530273438e-02) (1, 7.81635269522666931152e-02) (2, -3.01927238702774047852e-01) (3, -9.30933892726898193359e-01) (4, -5.08067421615123748779e-02) (5, 4.50725376605987548828e-01) (6, -6.22870564460754394531e-01) (0, -1.65461059659719467163e-02) (1, 4.07564789056777954102e-01) (2, 1.90958634018898010254e-01) (3, -4.18436676263809204102e-01) (4, -3.33967179059982299805e-01) (5, -2.28811174631118774414e-01) (6, 1.11120156943798065186e-01) (0, 1.95755157619714736938e-02) (1, -1.83535993099212646484e-01) (2, -2.83728842623531818390e-03) (3, 4.06958699226379394531e-01) (4, 1.27566471695899963379e-01) (5, -7.56334215402603149414e-02) (6, -9.13013070821762084961e-02) (0, -6.25448003411293029785e-02) (1, 1.98862820863723754883e-01) (2, -3.16856391727924346924e-02) (3, -1.15294996649026870728e-02) (4, 2.89269560016691684723e-03) (5, -8.48112776875495910645e-02) (6, 2.91441492736339569092e-02) (0, -5.30691891908645629883e-02) (1, -2.17122688889503479004e-01) (2, -3.12109380960464477539e-01) (3, -1.46708367392420768738e-02) (4, 2.38280985504388809204e-02) (5, -2.29115262627601623535e-01) (6, -2.47100621461868286133e-01) (0, -1.20676666498184204102e-01) (1, -9.23825129866600036621e-02) (2, 1.48622378706932067871e-01) (3, -4.36910301446914672852e-01) (4, 4.24124151468276977539e-01) (5, -2.63519853353500366211e-01) (6, 4.84957471489906311035e-02) (0, 4.09352838993072509766e-01) (1, -7.02456310391426086426e-02) (2, -2.33964219689369201660e-01) (3, 2.48289957642555236816e-01) (4, 4.29093867540359497070e-01) (5, 3.51308465003967285156e-01) (6, -5.71951866149902343750e-01) (0, 3.12401533126831054688e-01) (1, -4.08914126455783843994e-02) (2, -1.73807159066200256348e-01) (3, 6.28288626670837402344e-01) (4, 4.21093314886093139648e-01) (5, 1.22551880776882171631e-01) (6, -7.16592073440551757812e-02) (0, -3.80928426980972290039e-01) (1, -8.18725451827049255371e-02) (2, -2.55817621946334838867e-01) (3, -3.38760048151016235352e-01) (4, -9.25194993615150451660e-02) (5, -2.16801255941390991211e-01) (6, -3.67220371961593627930e-01) (0, -3.58456820249557495117e-01) (1, -5.39667047560214996338e-02) (2, -2.06040367484092712402e-01) (3, -3.53760868310928344727e-01) (4, -1.36767268180847167969e-01) (5, -2.81573265790939331055e-01) (6, -3.43902617692947387695e-01) (0, 9.79893878102302551270e-02) (1, 1.15626089274883270264e-01) (2, 1.06485828757286071777e-01) (3, 7.05820798873901367188e-01) (4, 3.88544619083404541016e-01) (5, 3.75124812126159667969e-01) (6, 2.37380713224411010742e-01) (0, 2.11784780025482177734e-01) (1, -4.13035601377487182617e-02) (2, 6.36105895042419433594e-01) (3, 4.49488610029220581055e-01) (4, 3.15424382686614990234e-01) (5, 2.26487204432487487793e-01) (6, 1.18376135826110839844e+00) (0, 2.14270174503326416016e-01) (1, 3.41223001480102539062e-01) (2, 2.71490246057510375977e-01) (3, 3.75068843364715576172e-01) (4, 2.19399586319923400879e-01) (5, 2.63556003570556640625e-01) (6, 1.00995647907257080078e+00) (0, 1.15136317908763885498e-01) (1, 3.19057703018188476562e-01) (2, 1.80011734366416931152e-01) (3, 8.85381221771240234375e-01) (4, -1.14977642893791198730e-01) (5, 4.65941160917282104492e-01) (6, 1.63484930992126464844e-01) (0, 7.83087164163589477539e-02) (1, -2.00929120182991027832e-01) (2, -1.82837918400764465332e-01) (3, 3.57260316610336303711e-01) (4, -1.98485046625137329102e-01) (5, 1.55785024166107177734e-01) (6, -1.18487905710935592651e-02) (0, 8.16443085670471191406e-01) (1, 2.44321480393409729004e-01) (2, 5.44329639524221420288e-03) (3, 1.14356718957424163818e-01) (4, 3.65421324968338012695e-01) (5, 2.30612456798553466797e-01) (6, -6.22794926166534423828e-01) (0, 4.06939735412597656250e+01) (1, 4.90848121643066406250e+01) (2, -5.98186254501342773438e+00) (3, -2.77519994415342807770e-03) (4, -3.13995592296123504639e-02) (5, 3.67708802223205566406e-02) (6, 8.88385355472564697266e-01) (0, 2.43884086608886718750e-01) (1, 1.85940369963645935059e-01) (2, 1.95560097694396972656e-01) (3, 6.45345687866210937500e-01) (4, 6.12272441387176513672e-01) (5, 6.76718175411224365234e-01) (6, 1.79755538702011108398e-01) (0, -3.67988757789134979248e-02) (1, 1.58727560192346572876e-02) (2, -1.57043561339378356934e-02) (3, -1.36375790461897850037e-02) (4, -9.38964337110519409180e-02) (5, -2.21349522471427917480e-01) (6, -1.28765463829040527344e-01) (0, 7.74412393569946289062e-01) (1, 1.67235553264617919922e+00) (2, -5.45833826065063476562e+00) (3, 3.62317740917205810547e-01) (4, 3.45327883958816528320e-01) (5, 3.18579077720642089844e-01) (6, 7.93704748153686523438e+00) (0, 7.45577941894531250000e+02) (1, 9.12401123046875000000e+02) (2, -1.31495208740234375000e+02) (3, 5.28539597988128662109e-01) (4, 3.05546045303344726562e-01) (5, 2.94153451919555664062e-01) (6, 1.07518253326416015625e+01) (0, 1.50000000000000000000e+03) (1, 4.00051086425781250000e+02) (2, 6.20703744888305664062e+00) (3, 2.76095885783433914185e-02) (4, 3.32920514047145843506e-02) (5, 5.26957064867019653320e-02) (6, 6.87775516510009765625e+00) (0, 1.23819597065448760986e-01) (1, -1.03751301765441894531e-01) (2, -1.73957601189613342285e-01) (3, 2.97676622867584228516e-01) (4, 3.67478013038635253906e-01) (5, 5.86745202541351318359e-01) (6, -3.25027823448181152344e-01) (0, -4.89519715309143066406e-01) (1, -9.62763428688049316406e-02) (2, -5.79616069793701171875e-01) (3, 5.23110590875148773193e-02) (4, -3.34640182554721832275e-02) (5, -2.60727256536483764648e-01) (6, -6.95581883192062377930e-02) (0, -1.41229492187500000000e+03) (1, 1.49999987792968750000e+03) (2, 1.50000000000000000000e+03) (3, -1.63006663322448730469e-01) (4, 2.43204180151224136353e-03) (5, 3.99508699774742126465e-02) (6, 5.68072140216827392578e-01) (0, 2.19953171908855438232e-02) (1, 2.63261348009109497070e-01) (2, 3.94683808088302612305e-01) (3, 2.19710111618041992188e-01) (4, 4.10478502511978149414e-01) (5, 2.91991263628005981445e-01) (6, 4.33937042951583862305e-01) (0, 6.10013544559478759766e-01) (1, 9.77224409580230712891e-02) (2, 1.48880317807197570801e-01) (3, 1.75994262099266052246e-02) (4, 2.29507848620414733887e-01) (5, 1.23184174299240112305e-01) (6, -6.19819104671478271484e-01) (0, -4.49905663728713989258e-01) (1, -4.83718811035156250000e+02) (2, -2.05018508911132812500e+02) (3, 7.63588100671768188477e-02) (4, -1.24404892325401306152e-01) (5, -3.07749807834625244141e-02) (6, -2.73190557956695556641e-01) (0, -2.65129432082176208496e-02) (1, 2.33197376132011413574e-01) (2, 3.80280792713165283203e-01) (3, 3.10414433479309082031e-01) (4, 4.38582360744476318359e-01) (5, 4.27100569009780883789e-01) (6, 3.27374428510665893555e-01) (0, 2.04474493861198425293e-01) (1, 2.23095402121543884277e-01) (2, 2.18100488185882568359e-01) (3, 5.95219314098358154297e-01) (4, 3.74915331602096557617e-01) (5, 3.82429569959640502930e-01) (6, 3.60471546649932861328e-01) (0, 5.49784936010837554932e-02) (1, -9.43360567092895507812e-01) (2, -3.50376844406127929688e-01) (3, 2.95537203550338745117e-01) (4, 2.17604979872703552246e-01) (5, 6.02297335863113403320e-02) (6, -3.15300613641738891602e-01) (0, -1.25778570771217346191e-01) (1, -7.39184021949768066406e-02) (2, -1.40914723277091979980e-01) (3, 3.62396001815795898438e-01) (4, 3.92555236816406250000e-01) (5, 3.37444812059402465820e-01) (6, -4.43110257387161254883e-01) (0, -1.39707520604133605957e-01) (1, 2.52057671546936035156e-01) (2, 4.50901463627815246582e-02) (3, -1.94522798061370849609e-01) (4, -3.49204875528812408447e-02) (5, -2.64288127422332763672e-01) (6, 9.85092446208000183105e-02) (0, -2.85728693008422851562e-01) (1, -8.83717089891433715820e-02) (2, -9.52816531062126159668e-02) (3, 9.31951701641082763672e-02) (4, 3.67949903011322021484e-01) (5, -1.04225389659404754639e-01) (6, -1.37003287672996520996e-01) (0, 1.97691887617111206055e-01) (1, -2.10943192243576049805e-01) (2, -1.48586124181747436523e-01) (3, -9.38845053315162658691e-02) (4, -8.50568190217018127441e-02) (5, -2.18707978725433349609e-01) (6, -2.75764375925064086914e-01) (0, 1.62418701171875000000e+02) (1, 1.07390022277832031250e+02) (2, 5.65323364257812500000e+02) (3, -2.13781580328941345215e-01) (4, 4.05063271522521972656e-01) (5, -2.21307277679443359375e-01) (6, -9.89698618650436401367e-02) (0, 3.31440746784210205078e-01) (1, 2.15170070528984069824e-01) (2, 2.05844104290008544922e-01) (3, 4.81002867221832275391e-01) (4, 2.68725693225860595703e-01) (5, 3.63235682249069213867e-01) (6, 3.60997319221496582031e-01) (0, 1.42366692423820495605e-01) (1, 8.70740413665771484375e-02) (2, -1.88884288072586059570e-01) (3, 4.97490772977471351624e-03) (4, -2.00638007372617721558e-02) (5, 1.52550367638468742371e-02) (6, -6.94503039121627807617e-02) (0, 2.25406035780906677246e-01) (1, -1.75000965595245361328e-01) (2, 2.02941596508026123047e-02) (3, -8.88385847210884094238e-02) (4, 2.49113216996192932129e-01) (5, -1.69870793819427490234e-01) (6, -1.14949509501457214355e-01) (0, 4.47447156906127929688e+00) (1, 4.68478059768676757812e+00) (2, -1.16258963942527770996e-01) (3, 6.64918959140777587891e-01) (4, 3.16106021404266357422e-01) (5, 2.48875990509986877441e-01) (6, 8.38882863521575927734e-01) (0, 5.84474503993988037109e-01) (1, -7.17356204986572265625e-02) (2, 5.55017702281475067139e-02) (3, -5.34824281930923461914e-02) (4, 5.68983443081378936768e-02) (5, -2.54690703004598617554e-02) (6, 4.10829298198223114014e-02) (0, -6.53677992522716522217e-03) (1, -4.19788919389247894287e-02) (2, -1.62059634923934936523e-01) (3, 8.53113591670989990234e-01) (4, 1.39392182230949401855e-01) (5, 6.44164919853210449219e-01) (6, -1.13777652382850646973e-01) (0, -8.80178585648536682129e-02) (1, -1.83805733919143676758e-01) (2, -9.52868163585662841797e-02) (3, -8.20708721876144409180e-02) (4, -1.06824830174446105957e-01) (5, -1.07058160006999969482e-01) (6, -1.86950683593750000000e-01) (0, -2.61333256959915161133e-01) (1, 2.92852312326431274414e-01) (2, 1.50060757994651794434e-01) (3, 5.66769242286682128906e-01) (4, 3.93931984901428222656e-01) (5, 3.70600014925003051758e-01) (6, 3.62751692533493041992e-01) (0, -1.13495206832885742188e+00) (1, -1.35444617271423339844e+00) (2, -2.43019118905067443848e-01) (3, 6.86534762382507324219e-01) (4, 7.72579908370971679688e-01) (5, 8.23020398616790771484e-01) (6, -5.83748593926429748535e-02) (0, 2.80507981777191162109e-01) (1, 3.72677564620971679688e-01) (2, -2.89072126150131225586e-01) (3, 6.78528428077697753906e-01) (4, 3.39196532964706420898e-01) (5, 3.75071465969085693359e-01) (6, 3.75411778688430786133e-01) (0, 1.49835437011718750000e+03) (1, 4.65820648193359375000e+02) (2, 1.47768811035156250000e+03) (3, -2.65126764774322509766e-01) (4, -4.53225374221801757812e-02) (5, -6.17541000247001647949e-02) (6, 6.59586310386657714844e-01) (0, 9.88796576857566833496e-02) (1, -2.13553175330162048340e-01) (2, 4.24794256687164306641e-01) (3, 2.65902429819107055664e-01) (4, 3.47637385129928588867e-01) (5, 2.92666316032409667969e-01) (6, 3.27018857002258300781e-01) (7, 3.67753863334655761719e-01) (8, 1.50169700384140014648e-01) (9, 3.29734116792678833008e-01) (10, 1.33610546588897705078e-01) (11, 2.84892380237579345703e-01) (12, 4.86809670925140380859e-01) (13, 2.19604209065437316895e-01) (14, 1.51958260685205459595e-02) (15, 1.39779901504516601562e+00) (16, 1.78173985332250595093e-02) (17, 8.77926111221313476562e-01) (18, 3.48034679889678955078e-01) (19, 1.00177682936191558838e-01) (20, 2.00718924403190612793e-01) (21, 1.26753047108650207520e-01) (22, 3.15175741910934448242e-01) (23, 2.26184446364641189575e-02) (24, 3.77898961305618286133e-01) (25, 6.37965142726898193359e-01) (26, 8.97528007626533508301e-02) (27, -5.31722269952297210693e-02) (28, 4.92849797010421752930e-02) (29, 4.44424122571945190430e-01) (30, 4.23984006047248840332e-02) (31, 1.26625552773475646973e-01) (32, 7.26264655590057373047e-01) (33, 5.29918551445007324219e-01) (34, 3.07410567998886108398e-01) (35, 8.55467617511749267578e-01) (36, 7.08861323073506355286e-03) (37, 1.19044572114944458008e-01) (38, 5.34508466720581054688e-01) (39, 2.84243524074554443359e-01) (40, 1.21796704828739166260e-01) (41, -1.58424731343984603882e-02) (42, 6.15658879280090332031e-01) (43, 6.29499733448028564453e-01) (44, 3.08936655521392822266e-01) (45, 4.54177856445312500000e-01) (46, 2.58944183588027954102e-01) (47, 1.32233336567878723145e-01) (48, -2.12437316775321960449e-01) (49, 6.30082413554191589355e-02) (50, 1.17040775716304779053e-01) (51, -2.03001610934734344482e-02) (52, -6.34059309959411621094e-02) (53, 1.44959211349487304688e-01) (54, -1.33881596848368644714e-02) (55, 2.45423167943954467773e-01) (56, 7.19252347946166992188e-01) (57, 2.48455241322517395020e-01) (58, 4.87600229680538177490e-02) (59, -2.10553929209709167480e-02) (60, 8.75462070107460021973e-02) (61, 2.24472120404243469238e-01) (62, 1.01910576224327087402e-01) (63, 3.22245210409164428711e-01) (64, 5.91743364930152893066e-02) (65, 7.78200626373291015625e-02) (66, 5.01259148120880126953e-01) (67, 1.81298151612281799316e-01) (68, 8.03747996687889099121e-02) (69, 2.23030462861061096191e-01) (70, 5.08741080760955810547e-01) (71, 2.77125358581542968750e-01) (72, 2.32686251401901245117e-01) (73, 7.38866701722145080566e-02) (74, 7.00879469513893127441e-02) (75, 5.74565231800079345703e-02) (76, 1.74263373017311096191e-01) (77, 7.06296563148498535156e-01) (78, 3.98295551538467407227e-01) (79, 2.71639555692672729492e-01) (80, 1.62190403789281845093e-02) (81, 1.19869120419025421143e-01) (82, 6.14071071147918701172e-01) (83, -6.51676237583160400391e-01) (84, 1.41737267374992370605e-01) (85, 3.78240980207920074463e-02) (86, 9.41864788532257080078e-01) (87, 2.51572459936141967773e-01) (88, 3.44975829124450683594e-01) (89, 3.75697046518325805664e-01) (90, 8.89698565006256103516e-02) (91, 3.53897005319595336914e-01) (92, 2.14750289916992187500e-01) (93, 2.98542916774749755859e-01) (94, -1.53923857212066650391e+00) (95, 4.88080888986587524414e-01) (96, -3.95563393831253051758e-01) (97, -3.75058323144912719727e-01) (98, 9.55258775502443313599e-03) (99, -2.28015817701816558838e-02) (100, 5.39086341857910156250e-01) (101, 6.88739359378814697266e-01) (102, 6.40364944934844970703e-01) (103, 4.51321423053741455078e-01) (104, 4.35577809810638427734e-01) (105, 6.60195108503103256226e-03) (106, 1.86755657196044921875e-01) (107, 2.96424269676208496094e-01) (7, 1.07205592095851898193e-01) (8, 3.80653738975524902344e-01) (9, 3.75616610050201416016e-01) (10, -3.39174717664718627930e-02) (11, 4.04753565788269042969e-01) (12, 4.03114676475524902344e-01) (13, 4.01729762554168701172e-01) (14, -6.10667094588279724121e-02) (15, 7.10544109344482421875e-01) (16, -9.58114787936210632324e-02) (17, 1.55471995472908020020e-01) (18, 2.67594959586858749390e-02) (19, 5.50616020336747169495e-03) (20, 3.98915410041809082031e-01) (21, 2.06355586647987365723e-01) (22, 1.49755239486694335938e-01) (23, -4.98345047235488891602e-02) (24, 4.52990204095840454102e-01) (25, 7.41074681282043457031e-01) (26, -7.13399127125740051270e-02) (27, -5.09087704122066497803e-02) (28, 2.62300651520490646362e-02) (29, 6.77263319492340087891e-01) (30, 1.61696095019578933716e-02) (31, 2.74305846542119979858e-02) (32, -8.10038950294256210327e-03) (33, 2.51078307628631591797e-01) (34, 2.04098179936408996582e-01) (35, 6.60783588886260986328e-01) (36, 8.03337665274739265442e-04) (37, -7.53111159428954124451e-03) (38, 3.66906940937042236328e-01) (39, 5.50576031208038330078e-01) (40, -1.37300029397010803223e-01) (41, 3.55907380580902099609e-01) (42, 7.34015107154846191406e-01) (43, 6.99001967906951904297e-01) (44, 6.87001466751098632812e-01) (45, 5.50381779670715332031e-01) (46, 1.31166592240333557129e-01) (47, -2.66864746809005737305e-02) (48, -2.31904350221157073975e-02) (49, 3.74154984951019287109e-01) (50, -8.25255811214447021484e-02) (51, 1.84316635131835937500e-02) (52, 8.31463515758514404297e-01) (53, -7.26831033825874328613e-02) (54, -7.15843820944428443909e-03) (55, 1.94873407483100891113e-01) (56, 2.54626482725143432617e-01) (57, 2.70041078329086303711e-01) (58, -2.87187755107879638672e-01) (59, 1.33447116240859031677e-02) (60, 2.83254027366638183594e-01) (61, 9.36397314071655273438e-02) (62, 1.39663845300674438477e-01) (63, 3.85738432407379150391e-01) (64, 3.77619676291942596436e-02) (65, -2.30718433856964111328e-01) (66, 2.20616593956947326660e-01) (67, 1.87872931361198425293e-01) (68, 1.70180067420005798340e-01) (69, 3.55318903923034667969e-01) (70, 6.29707694053649902344e-01) (71, 5.35276830196380615234e-01) (72, 4.30417060852050781250e-01) (73, 3.62413786351680755615e-02) (74, -8.49223807454109191895e-02) (75, -1.75013523548841476440e-02) (76, 3.67537319660186767578e-01) (77, 7.27753698825836181641e-01) (78, 6.36612236499786376953e-01) (79, 3.98420095443725585938e-01) (80, 2.79706194996833801270e-02) (81, -2.05889254808425903320e-01) (82, 6.42345786094665527344e-01) (83, -2.73159448988735675812e-03) (84, 3.41081954538822174072e-02) (85, -1.18591360747814178467e-01) (86, 5.66126942634582519531e-01) (87, 3.45388315618038177490e-02) (88, 4.40736234188079833984e-01) (89, -2.45366767048835754395e-02) (90, -2.43383795022964477539e-01) (91, 2.60311543941497802734e-01) (92, 2.72571474313735961914e-01) (93, 1.58009916543960571289e-01) (94, 1.56783801503479480743e-03) (95, 3.42636168003082275391e-01) (96, 6.85720844194293022156e-03) (97, -1.05029866099357604980e-02) (98, 3.92135798931121826172e-01) (99, -2.46290061622858047485e-02) (100, 2.28865951299667358398e-01) (101, 7.32495188713073730469e-01) (102, 4.28325384855270385742e-01) (103, 2.89690494537353515625e-01) (104, 3.39888811111450195312e-01) (105, 1.55243026092648506165e-02) (106, 2.27066334336996078491e-02) (107, 7.21999108791351318359e-01) (7, 2.81968951225280761719e-01) (8, 5.00249743461608886719e-01) (9, 5.28741896152496337891e-01) (10, 8.21254327893257141113e-02) (11, 5.70218205451965332031e-01) (12, 5.29395580291748046875e-01) (13, 4.74193274974822998047e-01) (14, 2.27977991104125976562e-01) (15, 1.18087887763977050781e+00) (16, 2.40554399788379669189e-02) (17, 2.27337047457695007324e-01) (18, -2.87429183721542358398e-01) (19, 7.68716707825660705566e-02) (20, 5.05249083042144775391e-01) (21, 5.66946752369403839111e-02) (22, -9.78542398661375045776e-03) (23, 4.61734943091869354248e-02) (24, -2.77044661343097686768e-02) (25, 8.63978505134582519531e-01) (26, 9.11149978637695312500e-02) (27, 3.21119099855422973633e-01) (28, -2.55843345075845718384e-02) (29, 1.31356284022331237793e-01) (30, 1.95713043212890625000e-02) (31, -9.65270772576332092285e-02) (32, 5.60685712844133377075e-03) (33, 3.56481194496154785156e-01) (34, 5.44142834842205047607e-02) (35, 4.72549647092819213867e-02) (36, 5.06409555673599243164e-02) (37, 7.20852985978126525879e-02) (38, 4.86375719308853149414e-01) (39, 3.84868502616882324219e-01) (40, -2.21730127930641174316e-01) (41, -4.08673256635665893555e-01) (42, 1.01353669166564941406e+00) (43, 8.15031528472900390625e-01) (44, 7.99972176551818847656e-01) (45, -2.28349026292562484741e-02) (46, 2.21717972308397293091e-02) (47, 5.67714311182498931885e-02) (48, 4.37282264232635498047e-01) (49, 4.33285772800445556641e-01) (50, 3.69146876037120819092e-02) (51, -4.88325864076614379883e-01) (52, 7.62713253498077392578e-01) (53, 7.49921649694442749023e-02) (54, -3.94705012440681457520e-02) (55, -2.21386011689901351929e-02) (56, 7.45286166667938232422e-01) (57, 1.35689392685890197754e-01) (58, 2.52745151519775390625e-01) (59, -8.43622907996177673340e-03) (60, 1.79206162691116333008e-01) (61, 2.06470251083374023438e-01) (62, 1.39159962534904479980e-01) (63, 7.81281411647796630859e-01) (64, 7.11197480559349060059e-02) (65, -4.37037914991378784180e-01) (66, 4.09039497375488281250e-01) (67, 4.33258563280105590820e-02) (68, 1.38755226507782936096e-02) (69, 4.81923460960388183594e-01) (70, 2.77166187763214111328e-01) (71, 3.03759276866912841797e-01) (72, 3.91475051641464233398e-01) (73, 3.58546048402786254883e-01) (74, 2.77814865112304687500e-02) (75, -1.19983780384063720703e+00) (76, 4.73390221595764160156e-01) (77, 8.40703666210174560547e-01) (78, -2.60958857834339141846e-02) (79, -1.52769297361373901367e-01) (80, -1.13530725240707397461e-01) (81, -3.75178337097167968750e-01) (82, 6.40886127948760986328e-01) (83, 2.86108683794736862183e-02) (84, 4.53169718384742736816e-02) (85, 8.46306160092353820801e-02) (86, 9.36733245849609375000e-01) (87, -2.10353042930364608765e-02) (88, 5.68984925746917724609e-01) (89, 4.90401506423950195312e-01) (90, -4.40731018781661987305e-01) (91, 1.91185191273689270020e-01) (92, 1.56451851129531860352e-01) (93, 3.84011194109916687012e-02) (94, 1.86230391263961791992e-02) (95, 6.35118663311004638672e-01) (96, 5.07610626518726348877e-02) (97, 5.17091095447540283203e-01) (98, 4.66442346572875976562e-01) (99, -5.37674464285373687744e-02) (100, 2.77005344629287719727e-01) (101, 1.02221703529357910156e+00) (102, 4.94046002626419067383e-01) (103, 7.12392777204513549805e-02) (104, 5.30247986316680908203e-01) (105, -5.45207085087895393372e-03) (106, 6.78988248109817504883e-02) (107, 3.92998546361923217773e-01) (7, 2.02334880828857421875e-01) (8, -1.74733430147171020508e-01) (9, -1.85543503612279891968e-02) (10, 2.98295319080352783203e-01) (11, -1.01339519023895263672e-02) (12, -5.72227984666824340820e-02) (13, -1.57117038965225219727e-01) (14, 5.31472921371459960938e-01) (15, 1.98075816035270690918e-01) (16, 3.37677389383316040039e-01) (17, 5.16617596149444580078e-01) (18, 1.98052272200584411621e-01) (19, 4.86000925302505493164e-01) (20, -6.01998604834079742432e-02) (21, 6.95381879806518554688e-01) (22, 7.10866928100585937500e-01) (23, 3.31270217895507812500e-01) (24, 2.03217670321464538574e-01) (25, 2.43240162730216979980e-01) (26, 3.53818893432617187500e-01) (27, -1.90859109163284301758e-01) (28, 1.63651462644338607788e-02) (29, 2.55474865436553955078e-01) (30, 8.07963404804468154907e-03) (31, 5.25540351867675781250e-01) (32, -1.84385981410741806030e-02) (33, -1.41747789457440376282e-02) (34, 6.35904669761657714844e-01) (35, 2.53691643476486206055e-01) (36, 8.77365842461585998535e-03) (37, 4.86604154109954833984e-01) (38, -7.14193144813179969788e-03) (39, -3.99392098188400268555e-02) (40, 3.75535339117050170898e-01) (41, 5.68412363529205322266e-01) (42, 2.02221840620040893555e-01) (43, 1.59460455179214477539e-01) (44, 2.73766189813613891602e-01) (45, -1.38825610280036926270e-01) (46, 2.20707178115844726562e-01) (47, 3.38348001241683959961e-01) (48, 3.55457365512847900391e-01) (49, -1.15714363753795623779e-01) (50, 3.30987662076950073242e-01) (51, 1.44193768501281738281e-01) (52, -5.09983897209167480469e-01) (53, 3.11614781618118286133e-01) (54, 1.13889472559094429016e-02) (55, 5.90684294700622558594e-01) (56, 1.93603083491325378418e-01) (57, 6.17584586143493652344e-01) (58, 8.16527545452117919922e-01) (59, 5.10860323905944824219e-01) (60, 5.92022538185119628906e-01) (61, -1.01844251155853271484e-01) (62, 3.91743272542953491211e-01) (63, 2.82295614480972290039e-01) (64, 2.88990773260593414307e-02) (65, 7.83058404922485351562e-01) (66, -4.02710884809494018555e-02) (67, 6.49129033088684082031e-01) (68, 5.74867725372314453125e-01) (69, -7.21586272120475769043e-02) (70, -1.27577811479568481445e-01) (71, 4.61636902764439582825e-03) (72, -9.21804159879684448242e-02) (73, -1.16210281848907470703e-01) (74, 3.63534808158874511719e-01) (75, 1.27713906764984130859e+00) (76, -1.61456331610679626465e-01) (77, 1.21334545314311981201e-01) (78, -7.32094869017601013184e-02) (79, -1.17695353925228118896e-01) (80, 3.28309796750545501709e-02) (81, 8.77973258495330810547e-01) (82, 1.59505829215049743652e-01) (83, -3.05545721203088760376e-02) (84, 4.56403881311416625977e-01) (85, 3.73630076646804809570e-01) (86, 1.42701134085655212402e-01) (87, 4.33920264244079589844e-01) (88, -2.12697740644216537476e-02) (89, 5.96682466566562652588e-02) (90, 8.90265107154846191406e-01) (91, 5.63802599906921386719e-01) (92, 1.77908867597579956055e-01) (93, 6.23225927352905273438e-01) (94, 1.42454183101654052734e+00) (95, -2.03154738992452621460e-02) (96, 1.40439182519912719727e-01) (97, -7.90483411401510238647e-03) (98, -1.37924924492835998535e-01) (99, -8.35125669836997985840e-02) (100, -1.28885358572006225586e-01) (101, 2.19090208411216735840e-01) (102, 7.03772949054837226868e-03) (103, 5.44850230216979980469e-01) (104, -7.22535476088523864746e-02) (105, 7.86141633987426757812e-01) (106, 4.82503801584243774414e-01) (107, -1.57714873552322387695e-01) 
