FANN_FLO_2.1
num_layers=3
learning_rate=0.001000
connection_rate=1.000000
network_type=0
learning_momentum=0.000000
training_algorithm=2
train_error_function=1
train_stop_function=0
cascade_output_change_fraction=0.010000
quickprop_decay=-0.000100
quickprop_mu=1.750000
rprop_increase_factor=1.200000
rprop_decrease_factor=0.500000
rprop_delta_min=0.000000
rprop_delta_max=50.000000
rprop_delta_zero=0.100000
cascade_output_stagnation_epochs=12
cascade_candidate_change_fraction=0.010000
cascade_candidate_stagnation_epochs=12
cascade_max_out_epochs=150
cascade_max_cand_epochs=150
cascade_num_candidate_groups=2
bit_fail_limit=3.49999994039535522461e-01
cascade_candidate_limit=1.00000000000000000000e+03
cascade_weight_multiplier=4.00000005960464477539e-01
cascade_activation_functions_count=10
cascade_activation_functions=3 5 7 8 10 11 14 15 16 17 
cascade_activation_steepnesses_count=4
cascade_activation_steepnesses=2.50000000000000000000e-01 5.00000000000000000000e-01 7.50000000000000000000e-01 1.00000000000000000000e+00 
layer_sizes=7 101 5 
scale_included=0
neurons (num_inputs, activation_function, activation_steepness)=(0, 0, 0.00000000000000000000e+00) (0, 0, 0.00000000000000000000e+00) (0, 0, 0.00000000000000000000e+00) (0, 0, 0.00000000000000000000e+00) (0, 0, 0.00000000000000000000e+00) (0, 0, 0.00000000000000000000e+00) (0, 0, 0.00000000000000000000e+00) (7, 5, 5.00000000000000000000e-01) (7, 5, 5.00000000000000000000e-01) (7, 5, 5.00000000000000000000e-01) (7, 5, 5.00000000000000000000e-01) (7, 5, 5.00000000000000000000e-01) (7, 5, 5.00000000000000000000e-01) (7, 5, 5.00000000000000000000e-01) (7, 5, 5.00000000000000000000e-01) (7, 5, 5.00000000000000000000e-01) (7, 5, 5.00000000000000000000e-01) (7, 5, 5.00000000000000000000e-01) (7, 5, 5.00000000000000000000e-01) (7, 5, 5.00000000000000000000e-01) (7, 5, 5.00000000000000000000e-01) (7, 5, 5.00000000000000000000e-01) (7, 5, 5.00000000000000000000e-01) (7, 5, 5.00000000000000000000e-01) (7, 5, 5.00000000000000000000e-01) (7, 5, 5.00000000000000000000e-01) (7, 5, 5.00000000000000000000e-01) (7, 5, 5.00000000000000000000e-01) (7, 5, 5.00000000000000000000e-01) (7, 5, 5.00000000000000000000e-01) (7, 5, 5.00000000000000000000e-01) (7, 5, 5.00000000000000000000e-01) (7, 5, 5.00000000000000000000e-01) (7, 5, 5.00000000000000000000e-01) (7, 5, 5.00000000000000000000e-01) (7, 5, 5.00000000000000000000e-01) (7, 5, 5.00000000000000000000e-01) (7, 5, 5.00000000000000000000e-01) (7, 5, 5.00000000000000000000e-01) (7, 5, 5.00000000000000000000e-01) (7, 5, 5.00000000000000000000e-01) (7, 5, 5.00000000000000000000e-01) (7, 5, 5.00000000000000000000e-01) (7, 5, 5.00000000000000000000e-01) (7, 5, 5.00000000000000000000e-01) (7, 5, 5.00000000000000000000e-01) (7, 5, 5.00000000000000000000e-01) (7, 5, 5.00000000000000000000e-01) (7, 5, 5.00000000000000000000e-01) (7, 5, 5.00000000000000000000e-01) (7, 5, 5.00000000000000000000e-01) (7, 5, 5.00000000000000000000e-01) (7, 5, 5.00000000000000000000e-01) (7, 5, 5.00000000000000000000e-01) (7, 5, 5.00000000000000000000e-01) (7, 5, 5.00000000000000000000e-01) (7, 5, 5.00000000000000000000e-01) (7, 5, 5.00000000000000000000e-01) (7, 5, 5.00000000000000000000e-01) (7, 5, 5.00000000000000000000e-01) (7, 5, 5.00000000000000000000e-01) (7, 5, 5.00000000000000000000e-01) (7, 5, 5.00000000000000000000e-01) (7, 5, 5.00000000000000000000e-01) (7, 5, 5.00000000000000000000e-01) (7, 5, 5.00000000000000000000e-01) (7, 5, 5.00000000000000000000e-01) (7, 5, 5.00000000000000000000e-01) (7, 5, 5.00000000000000000000e-01) (7, 5, 5.00000000000000000000e-01) (7, 5, 5.00000000000000000000e-01) (7, 5, 5.00000000000000000000e-01) (7, 5, 5.00000000000000000000e-01) (7, 5, 5.00000000000000000000e-01) (7, 5, 5.00000000000000000000e-01) (7, 5, 5.00000000000000000000e-01) (7, 5, 5.00000000000000000000e-01) (7, 5, 5.00000000000000000000e-01) (7, 5, 5.00000000000000000000e-01) (7, 5, 5.00000000000000000000e-01) (7, 5, 5.00000000000000000000e-01) (7, 5, 5.00000000000000000000e-01) (7, 5, 5.00000000000000000000e-01) (7, 5, 5.00000000000000000000e-01) (7, 5, 5.00000000000000000000e-01) (7, 5, 5.00000000000000000000e-01) (7, 5, 5.00000000000000000000e-01) (7, 5, 5.00000000000000000000e-01) (7, 5, 5.00000000000000000000e-01) (7, 5, 5.00000000000000000000e-01) (7, 5, 5.00000000000000000000e-01) (7, 5, 5.00000000000000000000e-01) (7, 5, 5.00000000000000000000e-01) (7, 5, 5.00000000000000000000e-01) (7, 5, 5.00000000000000000000e-01) (7, 5, 5.00000000000000000000e-01) (7, 5, 5.00000000000000000000e-01) (7, 5, 5.00000000000000000000e-01) (7, 5, 5.00000000000000000000e-01) (7, 5, 5.00000000000000000000e-01) (7, 5, 5.00000000000000000000e-01) (7, 5, 5.00000000000000000000e-01) (7, 5, 5.00000000000000000000e-01) (7, 5, 5.00000000000000000000e-01) (7, 5, 5.00000000000000000000e-01) (7, 5, 5.00000000000000000000e-01) (7, 5, 5.00000000000000000000e-01) (0, 5, 0.00000000000000000000e+00) (101, 5, 5.00000000000000000000e-01) (101, 5, 5.00000000000000000000e-01) (101, 5, 5.00000000000000000000e-01) (101, 5, 5.00000000000000000000e-01) (0, 5, 0.00000000000000000000e+00) 
connections (connected_to_neuron, weight)=(0, 9.65140762329101562500e+01) (1, 1.01608963012695312500e+02) (2, 1.13006222248077392578e+00) (3, 1.79929599165916442871e-01) (4, 1.01645201444625854492e-01) (5, 6.17009758949279785156e-01) (6, 2.48961910605430603027e-01) (0, 3.29052472114562988281e+00) (1, -8.92297973632812500000e+02) (2, 4.93583492934703826904e-02) (3, 1.90427675843238830566e-01) (4, 1.92923694849014282227e-01) (5, 2.11418822407722473145e-01) (6, 1.06171727180480957031e-01) (0, 1.39835906028747558594e+00) (1, 1.50000000000000000000e+03) (2, 9.33174991607666015625e+00) (3, 5.70492386817932128906e-01) (4, 5.25381326675415039062e-01) (5, 3.75500649213790893555e-01) (6, 6.56545877456665039062e-01) (0, 6.34337158203125000000e+02) (1, 1.50000000000000000000e+03) (2, 2.08756589889526367188e+00) (3, 1.92245453596115112305e-01) (4, 1.27355933189392089844e-01) (5, 3.02609473466873168945e-01) (6, 2.45137065649032592773e-01) (0, -4.70148200988769531250e+01) (1, -5.72756652832031250000e+02) (2, 1.29891860485076904297e+00) (3, 1.24285481870174407959e-01) (4, 7.16115713119506835938e-01) (5, -1.84535875916481018066e-01) (6, 5.60942649841308593750e-01) (0, 3.41972808837890625000e+02) (1, -5.34708175659179687500e+01) (2, -7.27994740009307861328e-01) (3, 6.35118335485458374023e-02) (4, 3.89937944710254669189e-02) (5, 1.26429572701454162598e-01) (6, 6.27400130033493041992e-02) (0, -4.00866985321044921875e-01) (1, -2.34520309448242187500e+02) (2, -1.18755984306335449219e+00) (3, 4.62041854858398437500e-01) (4, -1.63735583424568176270e-01) (5, -1.51546150445938110352e-01) (6, -5.19870296120643615723e-02) (0, 9.43350402832031250000e+02) (1, -4.78576272726058959961e-01) (2, -5.90204298496246337891e-01) (3, 2.78885394334793090820e-01) (4, 1.92087933421134948730e-01) (5, -3.91070507466793060303e-02) (6, 6.30501806735992431641e-02) (0, 9.52587485313415527344e-01) (1, 2.20868873596191406250e+01) (2, 6.97801947593688964844e-01) (3, -1.15448355674743652344e-01) (4, 3.47906835377216339111e-02) (5, -5.91719243675470352173e-03) (6, 1.33120551705360412598e-01) (0, -1.63787139892578125000e+02) (1, -2.25801616907119750977e-01) (2, 1.48822262883186340332e-01) (3, 2.29732275009155273438e-01) (4, 4.02398526668548583984e-01) (5, 2.76539117097854614258e-01) (6, 3.94518792629241943359e-01) (0, -8.25418640136718750000e+02) (1, 4.05834838867187500000e+02) (2, 6.30180978775024414062e+00) (3, -4.20022845268249511719e-01) (4, -4.39422369003295898438e-01) (5, -1.14107497036457061768e-01) (6, -3.68386566638946533203e-01) (0, -7.06963623046875000000e+02) (1, -1.14890222549438476562e+01) (2, 8.94388556480407714844e-01) (3, 3.30930709838867187500e-01) (4, 3.24750542640686035156e-01) (5, 2.64343857765197753906e-01) (6, 1.65221333503723144531e-01) (0, 1.71074533462524414062e+00) (1, -1.83010685443878173828e+00) (2, 5.68774044513702392578e-01) (3, 5.85359990596771240234e-01) (4, 6.26613616943359375000e-01) (5, -1.40834361314773559570e-01) (6, 6.41511321067810058594e-01) (0, 1.89613265991210937500e+01) (1, 5.15671730041503906250e+01) (2, -1.65392428636550903320e-01) (3, -2.19449862837791442871e-01) (4, -1.47219747304916381836e-01) (5, -1.63653001189231872559e-01) (6, -2.05163329839706420898e-01) (0, 9.50211105346679687500e+01) (1, 1.49791870117187500000e+03) (2, 3.42767913818359375000e+02) (3, -3.08508649468421936035e-02) (4, 5.75900316238403320312e-01) (5, -2.03572750091552734375e-01) (6, 6.00488781929016113281e-01) (0, 1.19924636840820312500e+02) (1, -4.01652717590332031250e+00) (2, -2.15307712554931640625e+00) (3, 5.40066719055175781250e-01) (4, -1.60057738423347473145e-01) (5, 2.49673277139663696289e-01) (6, -3.12692850828170776367e-01) (0, 9.78217163085937500000e+01) (1, 1.69479858398437500000e+02) (2, 3.72051268815994262695e-01) (3, 1.16461351513862609863e-01) (4, 2.16825857758522033691e-01) (5, 2.78770238161087036133e-01) (6, 1.99598044157028198242e-01) (0, 1.68066864013671875000e+01) (1, 1.31150817871093750000e+03) (2, 8.31368088722229003906e-01) (3, -8.58310982584953308105e-02) (4, 5.00673115253448486328e-01) (5, 3.89035880565643310547e-01) (6, 4.99178200960159301758e-01) (0, 2.42516174316406250000e+01) (1, 1.12287592887878417969e+00) (2, 2.75798797607421875000e-01) (3, 3.70711296796798706055e-01) (4, 3.83232384920120239258e-01) (5, 4.51486855745315551758e-01) (6, 4.45641338825225830078e-01) (0, 2.50700180053710937500e+02) (1, 8.53802795410156250000e+02) (2, 7.01971888542175292969e-01) (3, 1.66782036423683166504e-01) (4, 1.90762206912040710449e-01) (5, 2.20992952585220336914e-01) (6, 1.13106086850166320801e-01) (0, 1.33946731567382812500e+02) (1, -2.38171710968017578125e+01) (2, 1.03628444671630859375e+00) (3, -1.19029745459556579590e-01) (4, 3.22778493165969848633e-01) (5, -1.94878891110420227051e-01) (6, 5.07773041725158691406e-01) (0, 2.95238971710205078125e+00) (1, -7.93588485717773437500e+01) (2, -3.33918958902359008789e-01) (3, 2.54511296749114990234e-01) (4, 1.79598465561866760254e-01) (5, 1.75390273332595825195e-01) (6, 9.71592590212821960449e-02) (0, -3.76355163574218750000e+02) (1, -3.68605434894561767578e-01) (2, 6.45833730697631835938e-01) (3, 3.80829334259033203125e-01) (4, 3.72891694307327270508e-01) (5, 4.64726567268371582031e-01) (6, 3.12341898679733276367e-01) (0, -7.68596252441406250000e+02) (1, -9.17307090759277343750e+00) (2, 2.41372871398925781250e+00) (3, 3.31825196743011474609e-01) (4, 3.26095879077911376953e-01) (5, 3.18901121616363525391e-01) (6, 2.55173206329345703125e-01) (0, 1.19400886535644531250e+02) (1, -3.51187252998352050781e+00) (2, -2.23536992073059082031e+00) (3, 5.13778090476989746094e-01) (4, 4.11635547876358032227e-01) (5, 3.93056094646453857422e-01) (6, 3.89401227235794067383e-01) (0, 5.41976440429687500000e+02) (1, 7.79010314941406250000e+01) (2, 2.30244302749633789062e+00) (3, 1.73430278897285461426e-01) (4, 4.24790263175964355469e-01) (5, 6.02866291999816894531e-01) (6, 5.25009810924530029297e-01) (0, 1.50000000000000000000e+03) (1, -1.08663833141326904297e+00) (2, -6.22691452503204345703e-01) (3, 4.04781222343444824219e-01) (4, 1.75827041268348693848e-01) (5, -2.61637903749942779541e-02) (6, 8.59281942248344421387e-02) (0, -1.01754226684570312500e+01) (1, -1.07033959960937500000e+03) (2, 1.67316281795501708984e+00) (3, 1.64541959762573242188e-01) (4, 2.32843458652496337891e-01) (5, 7.91161209344863891602e-02) (6, 2.08867758512496948242e-01) (0, -2.46808338165283203125e+01) (1, 7.41574401855468750000e+02) (2, 3.13457340002059936523e-01) (3, -2.80735552310943603516e-01) (4, -1.40492901206016540527e-01) (5, -1.28496512770652770996e-01) (6, -1.37633547186851501465e-01) (0, 6.76765108108520507812e+00) (1, 1.94044619798660278320e-01) (2, 1.30416765809059143066e-01) (3, 3.99782776832580566406e-01) (4, 5.58487832546234130859e-01) (5, 4.39896315336227416992e-01) (6, 4.86676454544067382812e-01) (0, -1.44583996582031250000e+03) (1, 1.50000000000000000000e+03) (2, 3.11997795104980468750e+00) (3, 2.12842509150505065918e-01) (4, 1.50939241051673889160e-01) (5, 3.44595044851303100586e-01) (6, 1.17503070831298828125e+00) (0, 2.30652217864990234375e+01) (1, 2.27156773209571838379e-01) (2, 1.82371467351913452148e-01) (3, 5.17511248588562011719e-01) (4, 4.95482265949249267578e-01) (5, 8.22098627686500549316e-02) (6, 4.65364485979080200195e-01) (0, -1.50000000000000000000e+03) (1, 1.12360775470733642578e+00) (2, 4.30243349075317382812e+00) (3, 2.29091942310333251953e-01) (4, 5.44069349765777587891e-01) (5, 1.45319953560829162598e-01) (6, 5.68466663360595703125e-01) (0, 1.12230667114257812500e+02) (1, 3.17836046218872070312e-01) (2, 1.31737029552459716797e+00) (3, -2.31613829731941223145e-01) (4, 4.03085142374038696289e-01) (5, -1.57518655061721801758e-01) (6, 3.77096801996231079102e-01) (0, -2.25807781219482421875e+01) (1, 3.04273803710937500000e+02) (2, 3.79821872711181640625e+00) (3, -2.98928260803222656250e-01) (4, -1.16924606263637542725e-01) (5, -2.34537526965141296387e-01) (6, -1.85096308588981628418e-01) (0, -1.32955734252929687500e+02) (1, 9.28520619869232177734e-01) (2, 3.16083043813705444336e-01) (3, 8.85675430297851562500e-01) (4, 3.42312335968017578125e-01) (5, 4.69063401222229003906e-01) (6, 3.70530247688293457031e-01) (0, 4.32824230194091796875e+00) (1, 1.50000000000000000000e+03) (2, 3.04295921325683593750e+00) (3, 3.56781542301177978516e-01) (4, 2.81289011240005493164e-01) (5, 2.94486433267593383789e-01) (6, 3.66354018449783325195e-01) (0, -5.51300849914550781250e+01) (1, 2.89656114578247070312e+00) (2, 3.01897125244140625000e+02) (3, 2.45167747139930725098e-01) (4, 3.25080841779708862305e-01) (5, -1.01888298988342285156e-01) (6, 3.73788028955459594727e-01) (0, 2.78251190185546875000e+02) (1, -3.44038099050521850586e-01) (2, -6.30082664489746093750e+01) (3, 1.00610005855560302734e+00) (4, 1.52144998311996459961e-01) (5, -3.57911527156829833984e-01) (6, 1.09925307333469390869e-01) (0, -4.77241394042968750000e+02) (1, 5.84658508300781250000e+01) (2, 2.13844132423400878906e+00) (3, -1.17849232628941535950e-02) (4, -7.37010389566421508789e-02) (5, -9.41139757633209228516e-02) (6, -2.42118425667285919189e-02) (0, 1.64168838500976562500e+02) (1, 3.40622216463088989258e-01) (2, -5.64020395278930664062e-01) (3, 3.26445937156677246094e-01) (4, 1.93235203623771667480e-01) (5, 9.99887436628341674805e-02) (6, 1.33702069520950317383e-01) (0, 3.60571708679199218750e+01) (1, 1.00580978393554687500e+00) (2, 1.00933372974395751953e+00) (3, 1.88350826501846313477e-01) (4, 1.08131334185600280762e-01) (5, 6.70328795909881591797e-01) (6, 2.76399999856948852539e-01) (0, 3.36929092407226562500e+01) (1, 1.49662622070312500000e+03) (2, 9.11888046264648437500e+01) (3, -4.02970761060714721680e-01) (4, -3.83684962987899780273e-01) (5, 3.99693213403224945068e-02) (6, -3.14282327890396118164e-01) (0, 2.78459215164184570312e+00) (1, 3.34158986806869506836e-01) (2, 5.90519487857818603516e-01) (3, 6.11522018909454345703e-01) (4, 6.55584394931793212891e-01) (5, 5.96500515937805175781e-01) (6, 5.33079266548156738281e-01) (0, -1.42975128173828125000e+02) (1, 1.93154129028320312500e+02) (2, -2.70900487899780273438e-01) (3, 2.41140961647033691406e-01) (4, 1.97532653808593750000e-01) (5, 2.55151838064193725586e-01) (6, 1.84257850050926208496e-01) (0, 1.14260995388031005859e+00) (1, 6.40512609481811523438e+00) (2, 3.29067301750183105469e+00) (3, 1.02822631597518920898e-01) (4, 1.28802388906478881836e-01) (5, 2.03132331371307373047e-01) (6, 2.32704028487205505371e-01) (0, 9.75736923217773437500e+01) (1, 1.69127944946289062500e+02) (2, 4.41475212574005126953e-01) (3, 1.11762173473834991455e-01) (4, 2.38772571086883544922e-01) (5, 2.30533882975578308105e-01) (6, 1.71528622508049011230e-01) (0, -7.35110961914062500000e+02) (1, 5.57243728637695312500e+00) (2, 6.70609283447265625000e+00) (3, -4.85874526202678680420e-02) (4, -1.34996727108955383301e-01) (5, -1.71843633055686950684e-01) (6, -1.58647611737251281738e-01) (0, -6.63156799316406250000e+02) (1, 8.95362317562103271484e-01) (2, 6.08634889125823974609e-01) (3, -1.14116922020912170410e-01) (4, 3.32372784614562988281e-01) (5, 3.05154085159301757812e-01) (6, 3.24121057987213134766e-01) (0, 9.23911819458007812500e+01) (1, 8.74195175170898437500e+01) (2, 5.77416718006134033203e-01) (3, 1.34573027491569519043e-01) (4, 1.52597621083259582520e-01) (5, 3.18747580051422119141e-01) (6, 1.70801177620887756348e-01) (0, -3.37768211364746093750e+01) (1, 4.74954098463058471680e-01) (2, 1.66809577941894531250e+01) (3, -1.07650697231292724609e-01) (4, -6.58879280090332031250e-02) (5, 7.27616846561431884766e-02) (6, -6.85334727168083190918e-02) (0, -1.51339874267578125000e+02) (1, -3.43147397041320800781e+00) (2, 1.34650096297264099121e-01) (3, 1.17337688803672790527e-01) (4, 8.20082873106002807617e-02) (5, -3.03071439266204833984e-01) (6, 5.19479587674140930176e-02) (0, 1.02546440124511718750e+02) (1, 2.45817804336547851562e+00) (2, 1.05911540985107421875e+00) (3, 2.48715475201606750488e-01) (4, 1.99129283428192138672e-01) (5, 2.31590092182159423828e-01) (6, 2.45530068874359130859e-01) (0, 2.30610183715820312500e+02) (1, 1.23273815917968750000e+03) (2, 7.14829027652740478516e-01) (3, 1.17665752768516540527e-01) (4, 1.55202582478523254395e-01) (5, 2.22018256783485412598e-01) (6, 1.61470428109169006348e-01) (0, 1.40354748535156250000e+03) (1, -8.53856201171875000000e+01) (2, 4.27610486745834350586e-01) (3, -1.11434869468212127686e-01) (4, 1.52299627661705017090e-02) (5, 5.30414819717407226562e-01) (6, -2.88614988327026367188e-01) (0, -1.30829304456710815430e-01) (1, 1.32376907348632812500e+02) (2, 6.53539478778839111328e-01) (3, 6.36633783578872680664e-02) (4, 4.54359591007232666016e-01) (5, 1.30649238824844360352e-01) (6, 4.37152415513992309570e-01) (0, -4.65876274108886718750e+01) (1, -1.49763952636718750000e+03) (2, 7.76840150356292724609e-01) (3, 1.78398028016090393066e-01) (4, 8.89758586883544921875e-01) (5, 9.70484837889671325684e-02) (6, 8.76798272132873535156e-01) (0, -3.65276947021484375000e+02) (1, 2.20815181732177734375e+00) (2, 3.86980533599853515625e-01) (3, 7.87887454032897949219e-01) (4, 4.37349557876586914062e-01) (5, 4.58103537559509277344e-01) (6, 4.28386777639389038086e-01) (0, -3.91079635620117187500e+01) (1, -3.43552418053150177002e-02) (2, 5.02839267253875732422e-01) (3, 1.40411769971251487732e-02) (4, -6.54822140932083129883e-02) (5, 2.63171680271625518799e-02) (6, 1.48037644103169441223e-02) (0, 9.63686599731445312500e+01) (1, 2.33773422241210937500e+02) (2, 1.34098231792449951172e+00) (3, 1.55689194798469543457e-01) (4, 1.91866233944892883301e-01) (5, 5.84651947021484375000e-01) (6, 1.54847115278244018555e-01) (0, -1.68743753433227539062e+00) (1, -1.97750682830810546875e+01) (2, 1.98613300323486328125e+01) (3, 2.73207098245620727539e-01) (4, 8.68772387504577636719e-01) (5, 2.60251224040985107422e-01) (6, 8.39291691780090332031e-01) (0, 6.07989135742187500000e+02) (1, 5.96929967403411865234e-01) (2, -1.23567163944244384766e+00) (3, 1.33190704509615898132e-02) (4, -2.65889227390289306641e-01) (5, -1.19857929646968841553e-01) (6, -2.23407357931137084961e-01) (0, -8.83496093750000000000e+01) (1, 1.71447026729583740234e+00) (2, 4.56073671579360961914e-01) (3, -1.91043972969055175781e-01) (4, 3.56006801128387451172e-01) (5, 3.60325008630752563477e-01) (6, 2.25162491202354431152e-01) (0, 6.92657592773437500000e+02) (1, -3.81891161203384399414e-01) (2, -3.77573847770690917969e-01) (3, 3.35519373416900634766e-01) (4, 1.55821621417999267578e-01) (5, 8.78880470991134643555e-02) (6, 8.23020190000534057617e-02) (0, -1.50000000000000000000e+03) (1, 1.50000000000000000000e+03) (2, 1.50000000000000000000e+03) (3, -1.77093431353569030762e-01) (4, -5.88268227875232696533e-02) (5, 1.40639734268188476562e+00) (6, 3.37800346314907073975e-02) (0, 9.45060852050781250000e+02) (1, 5.79731240868568420410e-02) (2, -5.10645687580108642578e-01) (3, 3.98329704999923706055e-01) (4, 5.55945001542568206787e-02) (5, 1.59836649894714355469e-01) (6, 1.55821844935417175293e-01) (0, 1.89713668823242187500e+01) (1, 2.61011138916015625000e+02) (2, -1.30821660161018371582e-01) (3, -1.18957243859767913818e-01) (4, -2.73283123970031738281e-01) (5, -1.48841530084609985352e-01) (6, -1.96165576577186584473e-01) (0, -6.86099231243133544922e-02) (1, 1.50000000000000000000e+03) (2, 2.09861087799072265625e+01) (3, 1.22804433107376098633e-01) (4, 8.83167386054992675781e-02) (5, 1.99055626988410949707e-01) (6, 1.40631258487701416016e-01) (0, -7.15246582031250000000e+02) (1, 1.50000000000000000000e+03) (2, 5.04943072795867919922e-01) (3, 2.75308310985565185547e-01) (4, 2.01470151543617248535e-01) (5, 5.92405498027801513672e-01) (6, 1.75992980599403381348e-01) (0, -1.54327346801757812500e+02) (1, -5.57590341567993164062e+00) (2, -8.74989032745361328125e-02) (3, 6.92288130521774291992e-02) (4, -9.57347080111503601074e-02) (5, 3.91061641275882720947e-02) (6, -8.26398003846406936646e-03) (0, 2.68375213623046875000e+02) (1, 3.90248107910156250000e+01) (2, -6.46686136722564697266e-01) (3, -4.92475360631942749023e-01) (4, 1.90755113959312438965e-01) (5, 1.02865803241729736328e+00) (6, 2.15842097997665405273e-01) (0, 1.25801452636718750000e+03) (1, 1.49937805175781250000e+03) (2, 4.05520826578140258789e-01) (3, -3.56853693723678588867e-01) (4, 1.63996726274490356445e-01) (5, 3.81221413612365722656e-01) (6, 2.11393311619758605957e-01) (0, 2.81930465698242187500e+01) (1, -2.91302825927734375000e+02) (2, 3.57428789138793945312e-01) (3, 6.92372173070907592773e-02) (4, 1.11094936728477478027e-01) (5, -1.98820218443870544434e-01) (6, 3.84971220046281814575e-03) (0, 9.62575435638427734375e+00) (1, 5.22562801837921142578e-01) (2, 2.03826808929443359375e+01) (3, -1.56384855508804321289e-01) (4, -7.64114484190940856934e-02) (5, 8.97134020924568176270e-02) (6, -8.12717527151107788086e-02) (0, 6.10387954711914062500e+01) (1, 2.06341102719306945801e-01) (2, -1.26624062657356262207e-01) (3, 1.95369154214859008789e-01) (4, 1.97270214557647705078e-01) (5, 1.78370058536529541016e-01) (6, 1.99657514691352844238e-01) (0, 2.53463230133056640625e+01) (1, 1.50000000000000000000e+03) (2, -4.27296683192253112793e-02) (3, 3.75704854726791381836e-01) (4, -4.23298142850399017334e-02) (5, 4.52663421630859375000e-01) (6, -1.27404361963272094727e-01) (0, -2.92437591552734375000e+01) (1, 3.03325775146484375000e+02) (2, 3.76623773574829101562e+00) (3, 4.21161577105522155762e-02) (4, 1.81031033396720886230e-01) (5, -5.10586891323328018188e-03) (6, 1.12838171422481536865e-01) (0, 2.88585338592529296875e+01) (1, -1.37850683593750000000e+03) (2, 3.46078872680664062500e-02) (3, 5.72706043720245361328e-01) (4, 4.77353155612945556641e-01) (5, -1.45777091383934020996e-01) (6, 6.25661849975585937500e-01) (0, 6.79279661178588867188e+00) (1, 6.12453613281250000000e+02) (2, -3.04818481206893920898e-01) (3, -2.07434520125389099121e-01) (4, -1.51901915669441223145e-01) (5, -2.02602729201316833496e-01) (6, -1.34845733642578125000e-01) (0, -2.40682571411132812500e+02) (1, -3.75759989023208618164e-01) (2, -1.53908676147460937500e+02) (3, 3.87934036552906036377e-02) (4, 1.89238518476486206055e-01) (5, -1.46304398775100708008e-01) (6, 6.84990584850311279297e-02) (0, -8.55306762695312500000e+02) (1, -1.51201939582824707031e+00) (2, 5.68420982360839843750e+00) (3, 8.82604002952575683594e-01) (4, 6.78865194320678710938e-01) (5, -3.49600046873092651367e-01) (6, 6.87412679195404052734e-01) (0, 7.00085592269897460938e+00) (1, -1.98651065826416015625e+01) (2, 6.86749160289764404297e-01) (3, 5.82195222377777099609e-01) (4, 7.34575748443603515625e-01) (5, -1.83596894145011901855e-01) (6, 6.04330003261566162109e-01) (0, -8.34311676025390625000e+01) (1, 5.55586695671081542969e-01) (2, 6.27643775939941406250e+00) (3, -1.36990293860435485840e-01) (4, 6.53669714927673339844e-01) (5, 6.07600986957550048828e-01) (6, 6.86784088611602783203e-01) (0, -1.42691457271575927734e+00) (1, -1.48451281738281250000e+03) (2, 3.97986054420471191406e-01) (3, 3.30071926116943359375e-01) (4, 5.01250565052032470703e-01) (5, 1.84050917625427246094e-01) (6, 4.00776356458663940430e-01) (0, -2.19068908691406250000e+02) (1, 3.20553039550781250000e+02) (2, 2.47314567565917968750e+01) (3, -1.84387296438217163086e-01) (4, -1.40578404068946838379e-01) (5, -2.38596294075250625610e-02) (6, -1.83822140097618103027e-01) (0, 3.49641845703125000000e+02) (1, 3.66981773376464843750e+01) (2, 1.19945371150970458984e+00) (3, 1.58040642738342285156e-01) (4, 1.79781153798103332520e-01) (5, 3.01589936017990112305e-01) (6, 2.43965074419975280762e-01) (0, -1.57505059242248535156e+00) (1, -1.49763952636718750000e+03) (2, 7.60634708404541015625e+00) (3, 2.38747581839561462402e-01) (4, 4.63974088430404663086e-01) (5, 4.48677450418472290039e-01) (6, 3.85569930076599121094e-01) (0, 6.40672445297241210938e+00) (1, 9.26465942382812500000e+02) (2, 2.11204624176025390625e+01) (3, -1.41717135906219482422e-01) (4, -8.51860120892524719238e-02) (5, -1.43689081072807312012e-01) (6, -1.21853299438953399658e-01) (0, -4.41927612304687500000e+02) (1, 8.89315185546875000000e+01) (2, 2.31324648857116699219e+00) (3, -1.09531886875629425049e-01) (4, -1.13448381423950195312e-01) (5, -5.31789362430572509766e-02) (6, -2.87591814994812011719e-02) (0, 1.14764961242675781250e+02) (1, 1.50000000000000000000e+03) (2, 2.10463809967041015625e+00) (3, 4.24233496189117431641e-01) (4, 4.98683750629425048828e-01) (5, 6.12232506275177001953e-01) (6, 4.86854225397109985352e-01) (0, -5.65574707031250000000e+02) (1, -3.56452631950378417969e+00) (2, 1.03105235099792480469e+00) (3, 7.12358057498931884766e-01) (4, 2.71050035953521728516e-01) (5, 4.64882373809814453125e-01) (6, 1.56346917152404785156e-01) (0, 1.89854633808135986328e+00) (1, 2.54339289665222167969e+00) (2, 7.98191130161285400391e-02) (3, 1.69372424483299255371e-01) (4, 1.61682799458503723145e-01) (5, 4.03177589178085327148e-01) (6, 1.27956390380859375000e-01) (0, -8.03363586425781250000e+02) (1, -3.91030273437500000000e+01) (2, 6.86559009552001953125e+00) (3, 6.77841842174530029297e-01) (4, 6.74313724040985107422e-01) (5, -4.72060382366180419922e-01) (6, 7.06224858760833740234e-01) (0, 3.17931985855102539062e+00) (1, 1.50000000000000000000e+03) (2, 7.68379455566406250000e+02) (3, -9.11420658230781555176e-02) (4, 2.08170726895332336426e-01) (5, 8.96956920623779296875e+00) (6, 2.45288968086242675781e-01) (0, 9.87362957000732421875e+00) (1, 9.38341430664062500000e+02) (2, 3.08930683135986328125e+01) (3, -2.26823747158050537109e-01) (4, -2.45697200298309326172e-01) (5, 1.26570239663124084473e-01) (6, -1.78565800189971923828e-01) (0, 3.89933013916015625000e+01) (1, 1.49556839466094970703e+00) (2, 3.37992280721664428711e-01) (3, 3.66628766059875488281e-01) (4, -2.80825346708297729492e-01) (5, 5.05940735340118408203e-01) (6, 3.95581811666488647461e-01) (0, -7.94774293899536132812e+00) (1, 3.05005706787109375000e+02) (2, 1.33991212844848632812e+01) (3, -2.70563125610351562500e-01) (4, -1.75895109772682189941e-01) (5, -1.65697783231735229492e-01) (6, 1.37125030159950256348e-01) (0, 1.91673964262008666992e-01) (1, 1.49967077636718750000e+03) (2, 1.50000000000000000000e+03) (3, 1.86640098690986633301e-01) (4, 7.99504756927490234375e-01) (5, 9.38677668571472167969e-01) (6, 7.27311968803405761719e-01) (0, -9.22441482543945312500e-01) (1, -2.07972442626953125000e+02) (2, 6.68671250343322753906e-01) (3, 9.56068858504295349121e-02) (4, 4.23379838466644287109e-01) (5, 1.86881214380264282227e-01) (6, 4.96545135974884033203e-01) (0, 1.82627820968627929688e+00) (1, 1.49526562500000000000e+03) (2, 1.50000000000000000000e+03) (3, -1.55948713421821594238e-01) (4, 5.03646194934844970703e-01) (5, 7.88607060909271240234e-01) (6, 3.71892213821411132812e-01) (7, -2.01659932732582092285e-01) (8, 5.82119673490524291992e-02) (9, 3.26643675565719604492e-01) (10, -1.65871694684028625488e-01) (11, 7.88629613816738128662e-03) (12, -1.11712872982025146484e-01) (13, 9.67269483953714370728e-03) (14, 4.85214412212371826172e-01) (15, 1.92925170063972473145e-01) (16, 3.14918488264083862305e-01) (17, 6.26481100916862487793e-02) (18, 2.29083657264709472656e-01) (19, -2.62746691703796386719e-01) (20, 5.21611571311950683594e-01) (21, -1.54747471213340759277e-01) (22, 3.42156320810317993164e-01) (23, -1.22606843709945678711e-01) (24, 2.83911198377609252930e-01) (25, 3.02943617105484008789e-01) (26, -1.30590185523033142090e-01) (27, -7.28153169155120849609e-01) (28, 9.57815274596214294434e-02) (29, 3.08409303426742553711e-01) (30, 3.05731356143951416016e-01) (31, 3.81139725446701049805e-01) (32, -1.83220729231834411621e-01) (33, 4.16813492774963378906e-01) (34, -3.12758609652519226074e-02) (35, 5.14599084854125976562e-01) (36, -2.55339920520782470703e-01) (37, 2.82230317592620849609e-01) (38, -1.39378145337104797363e-01) (39, -5.46059906482696533203e-01) (40, -9.48677122592926025391e-01) (41, 7.23841562867164611816e-02) (42, 3.68079870939254760742e-01) (43, 5.93491196632385253906e-02) (44, -2.01111882925033569336e-01) (45, 1.74028754234313964844e-01) (46, 1.61746814846992492676e-01) (47, 4.66258585453033447266e-01) (48, -2.55550503730773925781e-01) (49, 8.98914504796266555786e-03) (50, -9.16651263833045959473e-02) (51, 2.81743884086608886719e-01) (52, -2.63658314943313598633e-01) (53, -1.32845982909202575684e-01) (54, 6.87735155224800109863e-02) (55, 2.56049364805221557617e-01) (56, -2.13240489363670349121e-01) (57, 2.36852876842021942139e-02) (58, 6.79155485704541206360e-03) (59, 3.07039499282836914062e-01) (60, -1.45060166716575622559e-01) (61, 2.15503629297018051147e-02) (62, -3.49978953599929809570e-02) (63, -3.62226716242730617523e-03) (64, 3.29181581735610961914e-01) (65, 6.10576033592224121094e-01) (66, -1.81339487433433532715e-01) (67, -1.09495259821414947510e-01) (68, 5.53681313991546630859e-01) (69, 2.31942087411880493164e-01) (70, 4.02538329362869262695e-01) (71, -5.03990314900875091553e-02) (72, 4.07849401235580444336e-01) (73, 5.44418990612030029297e-01) (74, 3.22136461734771728516e-01) (75, 3.55557143688201904297e-01) (76, -1.42632715869694948196e-03) (77, -2.23184619098901748657e-02) (78, -9.20802541077136993408e-03) (79, -7.10980175063014030457e-03) (80, 1.58474892377853393555e-02) (81, 4.11425381898880004883e-01) (82, -9.02638658881187438965e-02) (83, 3.83296087384223937988e-02) (84, -2.16195613145828247070e-01) (85, 5.07171392440795898438e-01) (86, 1.67502546310424804688e+00) (87, 3.22818189859390258789e-01) (88, -2.15275689959526062012e-01) (89, -6.76075816154479980469e-01) (90, -9.73193272948265075684e-02) (91, 1.72982402145862579346e-02) (92, -2.58274972438812255859e-01) (93, -1.23655751347541809082e-01) (94, 5.46618439257144927979e-02) (95, 1.80546060204505920410e-01) (96, -1.01136691868305206299e-01) (97, 3.36680263280868530273e-01) (98, 5.85750043392181396484e-02) (99, 2.68226295709609985352e-01) (100, 7.32540041208267211914e-02) (101, -4.02941629290580749512e-02) (102, 1.91742494702339172363e-01) (103, 1.22929655015468597412e-01) (104, -9.37551483511924743652e-02) (105, 1.47853950038552284241e-02) (106, 4.28644642233848571777e-02) (107, 1.97077766060829162598e-01) (7, 4.05911177396774291992e-01) (8, -2.42269709706306457520e-01) (9, 4.50218588113784790039e-01) (10, 4.12560671567916870117e-01) (11, -8.20252895355224609375e-02) (12, -2.21944272518157958984e-01) (13, 8.38165264576673507690e-03) (14, -1.31624666973948478699e-02) (15, -2.78878152370452880859e-01) (16, -1.88222110271453857422e-01) (17, 4.60969537496566772461e-01) (18, -1.59944593906402587891e-01) (19, 3.42756360769271850586e-01) (20, 3.95442768931388854980e-02) (21, 3.42774961609393358231e-04) (22, -1.59656375646591186523e-01) (23, 3.66661459207534790039e-01) (24, 1.37503268197178840637e-02) (25, -1.87426000833511352539e-01) (26, 3.50185424089431762695e-01) (27, -2.38634034991264343262e-01) (28, -2.84030586481094360352e-01) (29, -9.37268435955047607422e-02) (30, -1.45653396844863891602e-01) (31, -1.85274362564086914062e-01) (32, 4.43475693464279174805e-01) (33, -3.02372537553310394287e-02) (34, -2.82416969537734985352e-01) (35, 1.36809334158897399902e-01) (36, 3.64547401666641235352e-01) (37, 4.39843177795410156250e-01) (38, 3.68342787027359008789e-01) (39, 6.57848492264747619629e-02) (40, 2.23633900284767150879e-01) (41, 7.43002519011497497559e-02) (42, -6.79301619529724121094e-02) (43, 3.83627682924270629883e-01) (44, 4.75859642028808593750e-01) (45, 6.56705498695373535156e-02) (46, 4.81657534837722778320e-01) (47, 1.22259492054581642151e-02) (48, 3.49041849374771118164e-01) (49, 5.07471382617950439453e-01) (50, 3.42490583658218383789e-01) (51, 4.14209038019180297852e-01) (52, 3.42668563127517700195e-01) (53, 3.71143788099288940430e-01) (54, 4.47033941745758056641e-01) (55, -9.87614393234252929688e-02) (56, 3.72027307748794555664e-01) (57, 4.55517172813415527344e-01) (58, 2.30598095804452896118e-02) (59, -7.69174750894308090210e-03) (60, 3.44659060239791870117e-01) (61, 2.57206577807664871216e-02) (62, -2.49457389116287231445e-01) (63, -3.25155407190322875977e-01) (64, -5.81219382584095001221e-02) (65, 3.83121550083160400391e-01) (66, 4.10076171159744262695e-01) (67, -3.40646468102931976318e-02) (68, 7.07520395517349243164e-02) (69, -9.08715128898620605469e-02) (70, -1.91674716770648956299e-02) (71, 2.71331310272216796875e-01) (72, 9.85365640372037887573e-03) (73, 6.30980655550956726074e-02) (74, 4.72059428691864013672e-01) (75, 4.73221570253372192383e-01) (76, 8.33131559193134307861e-03) (77, -3.86797860264778137207e-02) (78, 1.37224681675434112549e-02) (79, -6.02591410279273986816e-03) (80, 3.94214242696762084961e-01) (81, 1.12351411953568458557e-02) (82, 4.06207650899887084961e-01) (83, 1.67339555919170379639e-02) (84, -4.13526780903339385986e-02) (85, 1.39985740184783935547e-01) (86, -1.94496715068817138672e+00) (87, -1.27375245094299316406e-01) (88, 1.26883789896965026855e-01) (89, 4.10991579294204711914e-01) (90, -3.67870181798934936523e-01) (91, 4.26506012678146362305e-01) (92, 3.83908957242965698242e-01) (93, -1.64706975221633911133e-01) (94, 5.32676219940185546875e-01) (95, 5.20753383636474609375e-01) (96, 4.96837407350540161133e-01) (97, -1.32206723093986511230e-01) (98, -2.80767947435379028320e-01) (99, -1.35587409138679504395e-01) (100, 3.99013876914978027344e-01) (101, 2.87643164396286010742e-01) (102, -1.65853619575500488281e-01) (103, 1.25280573964118957520e-01) (104, 5.14121234416961669922e-01) (105, -2.62636095285415649414e-01) (106, 2.57200181484222412109e-01) (107, -1.99484378099441528320e-02) (7, -1.81598171591758728027e-01) (8, 1.49700254201889038086e-01) (9, -7.45953172445297241211e-02) (10, -1.33085206151008605957e-01) (11, 3.76441687345504760742e-01) (12, -8.70730131864547729492e-02) (13, 1.93224158138036727905e-02) (14, 4.04465317726135253906e-01) (15, 8.71394574642181396484e-02) (16, 3.25844496488571166992e-01) (17, 9.29222330451011657715e-02) (18, 2.99922376871109008789e-01) (19, 3.96346002817153930664e-01) (20, 5.77676057815551757812e-01) (21, 1.26793488860130310059e-01) (22, 2.39766806364059448242e-01) (23, -1.36871472001075744629e-01) (24, 2.99299448728561401367e-01) (25, -5.46269863843917846680e-02) (26, -1.80524215102195739746e-01) (27, 5.86170315742492675781e-01) (28, 1.13226220011711120605e-01) (29, 3.40195983648300170898e-01) (30, 3.75445812940597534180e-01) (31, 2.37421363592147827148e-01) (32, -1.05347141623497009277e-01) (33, 3.24975878000259399414e-01) (34, 4.18396949768066406250e-01) (35, 6.02477908134460449219e-01) (36, 2.74261593818664550781e-01) (37, -2.33735308051109313965e-01) (38, -8.23166221380233764648e-02) (39, -3.79538148641586303711e-01) (40, 6.90750896930694580078e-01) (41, 5.57704210281372070312e-01) (42, 3.62315267324447631836e-01) (43, -1.33150201290845870972e-02) (44, 5.96804320812225341797e-02) (45, 1.27644151449203491211e-01) (46, 1.94971233606338500977e-01) (47, 3.31541121006011962891e-01) (48, -9.91582199931144714355e-02) (49, 6.08462542295455932617e-02) (50, 2.96217441558837890625e-01) (51, -2.24676370620727539062e-01) (52, -8.60571712255477905273e-02) (53, -1.65058895945549011230e-01) (54, 1.67555198073387145996e-01) (55, 3.14700156450271606445e-01) (56, -1.84729918837547302246e-01) (57, 2.20819428563117980957e-01) (58, 1.44356310367584228516e+00) (59, 1.63452312350273132324e-01) (60, -1.65009364485740661621e-01) (61, 2.95848339796066284180e-01) (62, 1.67828544974327087402e-01) (63, 4.32597428560256958008e-01) (64, 3.39270204305648803711e-01) (65, 2.71776676177978515625e-01) (66, -1.36118009686470031738e-01) (67, 3.80488604307174682617e-01) (68, 1.68921217322349548340e-01) (69, 2.84519344568252563477e-01) (70, 3.64988654851913452148e-01) (71, -1.29664167761802673340e-01) (72, 3.37654858827590942383e-01) (73, 5.65786361694335937500e-01) (74, 1.77108310163021087646e-02) (75, -2.78335362672805786133e-01) (76, 1.26255238056182861328e+00) (77, -1.30155205726623535156e+00) (78, -9.00004655122756958008e-02) (79, 3.06334882974624633789e-01) (80, 1.68478488922119140625e-01) (81, 3.07770758867263793945e-01) (82, -4.54676479101181030273e-01) (83, 5.32374083995819091797e-01) (84, -8.89588743448257446289e-02) (85, 5.22292435169219970703e-01) (86, 1.31607661023736000061e-03) (87, 4.29265171289443969727e-01) (88, 4.14932936429977416992e-01) (89, 2.44388371706008911133e-01) (90, 1.88954368233680725098e-01) (91, 1.11027598381042480469e-01) (92, -2.10690781474113464355e-01) (93, 3.50455790758132934570e-01) (94, 1.04845397174358367920e-01) (95, 1.89684361219406127930e-01) (96, -1.65467515587806701660e-01) (97, 3.83269697427749633789e-01) (98, -7.43926912546157836914e-02) (99, 4.12258535623550415039e-01) (100, -1.65706470608711242676e-01) (101, -7.55389174446463584900e-03) (102, -2.27997556328773498535e-01) (103, 6.10883295536041259766e-01) (104, 1.26457214355468750000e-01) (105, 1.83836534619331359863e-01) (106, 1.05947330594062805176e-01) (107, 2.71548807621002197266e-01) (7, -3.68573993444442749023e-01) (8, 3.80292624235153198242e-01) (9, 2.99014717340469360352e-01) (10, -2.58304625749588012695e-01) (11, 2.69823580980300903320e-01) (12, 1.89985614269971847534e-02) (13, -1.48277521133422851562e-01) (14, 1.28792017698287963867e-01) (15, 7.97323405742645263672e-01) (16, 3.56718510389328002930e-01) (17, 3.27514521777629852295e-02) (18, 2.10738047957420349121e-01) (19, -4.46968168020248413086e-01) (20, 7.34788477420806884766e-01) (21, 6.36247575283050537109e-01) (22, 1.92327141761779785156e-01) (23, -3.30945342779159545898e-01) (24, 6.87637269496917724609e-01) (25, 3.22817057371139526367e-01) (26, -2.61457979679107666016e-01) (27, 3.08972328901290893555e-01) (28, 3.87323886156082153320e-01) (29, 3.32787364721298217773e-01) (30, 2.65891045331954956055e-01) (31, 2.12010547518730163574e-01) (32, -2.75285184383392333984e-01) (33, 8.65499973297119140625e-02) (34, 4.71348851919174194336e-01) (35, 8.86652708053588867188e-01) (36, -4.20707672834396362305e-01) (37, -2.50775944441556930542e-02) (38, -4.10090297460556030273e-01) (39, -1.20070204138755798340e-02) (40, 9.58490550518035888672e-01) (41, 7.69729018211364746094e-01) (42, 3.37763339281082153320e-01) (43, -1.53303325176239013672e-01) (44, -9.19858664274215698242e-02) (45, 1.05995990335941314697e-01) (46, 2.52460944466292858124e-03) (47, 1.67090743780136108398e-01) (48, -3.69508177042007446289e-01) (49, 5.32088428735733032227e-02) (50, -3.52901250123977661133e-01) (51, -3.62888723611831665039e-01) (52, -2.80010074377059936523e-01) (53, -3.20627778768539428711e-01) (54, -3.11791966669261455536e-03) (55, 2.88929134607315063477e-01) (56, -3.57863277196884155273e-01) (57, -9.59843862801790237427e-03) (58, -2.71965980529785156250e-01) (59, 2.10839182138442993164e-01) (60, -2.72602260112762451172e-01) (61, 1.06326468288898468018e-01) (62, 5.36398112773895263672e-01) (63, 3.22119861841201782227e-01) (64, 3.12430053949356079102e-01) (65, -2.66098864376544952393e-02) (66, -3.34426313638687133789e-01) (67, 3.46699804067611694336e-01) (68, 6.06462210416793823242e-02) (69, 3.25490683317184448242e-01) (70, 1.27611011266708374023e-01) (71, 3.64133007824420928955e-02) (72, 8.00216868519783020020e-02) (73, 7.60467171669006347656e-01) (74, 1.23808927834033966064e-01) (75, -8.49876701831817626953e-02) (76, -1.95421740412712097168e-01) (77, 1.29858165979385375977e-01) (78, -1.22695893049240112305e-01) (79, -1.17203223705291748047e+00) (80, 1.10976966097950935364e-02) (81, 1.73566013574600219727e-01) (82, -4.11642342805862426758e-01) (83, 7.31051862239837646484e-01) (84, -4.20085638761520385742e-01) (85, 7.87625074386596679688e-01) (86, 4.80507872998714447021e-02) (87, 2.92058497667312622070e-01) (88, -3.85881215333938598633e-01) (89, -2.87784427404403686523e-01) (90, 3.78524035215377807617e-01) (91, 3.22326831519603729248e-02) (92, -3.48933428525924682617e-01) (93, 2.19647392630577087402e-01) (94, -5.65231405198574066162e-03) (95, 3.91828157007694244385e-02) (96, -2.79807955026626586914e-01) (97, 2.94142454862594604492e-01) (98, 3.53771597146987915039e-01) (99, 2.15108260512351989746e-01) (100, 3.94809901714324951172e-01) (101, 6.54881820082664489746e-02) (102, 1.98264807462692260742e-01) (103, 8.34695458412170410156e-01) (104, 6.23747110366821289062e-01) (105, 5.20962297916412353516e-01) (106, 4.64108139276504516602e-01) (107, 3.57783764600753784180e-01) 
