FANN_FLO_2.1
num_layers=3
learning_rate=0.001000
connection_rate=1.000000
network_type=0
learning_momentum=0.000000
training_algorithm=2
train_error_function=1
train_stop_function=0
cascade_output_change_fraction=0.010000
quickprop_decay=-0.000100
quickprop_mu=1.750000
rprop_increase_factor=1.200000
rprop_decrease_factor=0.500000
rprop_delta_min=0.000000
rprop_delta_max=50.000000
rprop_delta_zero=0.100000
cascade_output_stagnation_epochs=12
cascade_candidate_change_fraction=0.010000
cascade_candidate_stagnation_epochs=12
cascade_max_out_epochs=150
cascade_min_out_epochs=50
cascade_max_cand_epochs=150
cascade_min_cand_epochs=50
cascade_num_candidate_groups=2
bit_fail_limit=3.49999994039535522461e-01
cascade_candidate_limit=1.00000000000000000000e+03
cascade_weight_multiplier=4.00000005960464477539e-01
cascade_activation_functions_count=10
cascade_activation_functions=3 5 7 8 10 11 14 15 16 17 
cascade_activation_steepnesses_count=4
cascade_activation_steepnesses=2.50000000000000000000e-01 5.00000000000000000000e-01 7.50000000000000000000e-01 1.00000000000000000000e+00 
layer_sizes=7 101 5 
scale_included=0
neurons (num_inputs, activation_function, activation_steepness)=(0, 0, 0.00000000000000000000e+00) (0, 0, 0.00000000000000000000e+00) (0, 0, 0.00000000000000000000e+00) (0, 0, 0.00000000000000000000e+00) (0, 0, 0.00000000000000000000e+00) (0, 0, 0.00000000000000000000e+00) (0, 0, 0.00000000000000000000e+00) (7, 5, 5.00000000000000000000e-01) (7, 5, 5.00000000000000000000e-01) (7, 5, 5.00000000000000000000e-01) (7, 5, 5.00000000000000000000e-01) (7, 5, 5.00000000000000000000e-01) (7, 5, 5.00000000000000000000e-01) (7, 5, 5.00000000000000000000e-01) (7, 5, 5.00000000000000000000e-01) (7, 5, 5.00000000000000000000e-01) (7, 5, 5.00000000000000000000e-01) (7, 5, 5.00000000000000000000e-01) (7, 5, 5.00000000000000000000e-01) (7, 5, 5.00000000000000000000e-01) (7, 5, 5.00000000000000000000e-01) (7, 5, 5.00000000000000000000e-01) (7, 5, 5.00000000000000000000e-01) (7, 5, 5.00000000000000000000e-01) (7, 5, 5.00000000000000000000e-01) (7, 5, 5.00000000000000000000e-01) (7, 5, 5.00000000000000000000e-01) (7, 5, 5.00000000000000000000e-01) (7, 5, 5.00000000000000000000e-01) (7, 5, 5.00000000000000000000e-01) (7, 5, 5.00000000000000000000e-01) (7, 5, 5.00000000000000000000e-01) (7, 5, 5.00000000000000000000e-01) (7, 5, 5.00000000000000000000e-01) (7, 5, 5.00000000000000000000e-01) (7, 5, 5.00000000000000000000e-01) (7, 5, 5.00000000000000000000e-01) (7, 5, 5.00000000000000000000e-01) (7, 5, 5.00000000000000000000e-01) (7, 5, 5.00000000000000000000e-01) (7, 5, 5.00000000000000000000e-01) (7, 5, 5.00000000000000000000e-01) (7, 5, 5.00000000000000000000e-01) (7, 5, 5.00000000000000000000e-01) (7, 5, 5.00000000000000000000e-01) (7, 5, 5.00000000000000000000e-01) (7, 5, 5.00000000000000000000e-01) (7, 5, 5.00000000000000000000e-01) (7, 5, 5.00000000000000000000e-01) (7, 5, 5.00000000000000000000e-01) (7, 5, 5.00000000000000000000e-01) (7, 5, 5.00000000000000000000e-01) (7, 5, 5.00000000000000000000e-01) (7, 5, 5.00000000000000000000e-01) (7, 5, 5.00000000000000000000e-01) (7, 5, 5.00000000000000000000e-01) (7, 5, 5.00000000000000000000e-01) (7, 5, 5.00000000000000000000e-01) (7, 5, 5.00000000000000000000e-01) (7, 5, 5.00000000000000000000e-01) (7, 5, 5.00000000000000000000e-01) (7, 5, 5.00000000000000000000e-01) (7, 5, 5.00000000000000000000e-01) (7, 5, 5.00000000000000000000e-01) (7, 5, 5.00000000000000000000e-01) (7, 5, 5.00000000000000000000e-01) (7, 5, 5.00000000000000000000e-01) (7, 5, 5.00000000000000000000e-01) (7, 5, 5.00000000000000000000e-01) (7, 5, 5.00000000000000000000e-01) (7, 5, 5.00000000000000000000e-01) (7, 5, 5.00000000000000000000e-01) (7, 5, 5.00000000000000000000e-01) (7, 5, 5.00000000000000000000e-01) (7, 5, 5.00000000000000000000e-01) (7, 5, 5.00000000000000000000e-01) (7, 5, 5.00000000000000000000e-01) (7, 5, 5.00000000000000000000e-01) (7, 5, 5.00000000000000000000e-01) (7, 5, 5.00000000000000000000e-01) (7, 5, 5.00000000000000000000e-01) (7, 5, 5.00000000000000000000e-01) (7, 5, 5.00000000000000000000e-01) (7, 5, 5.00000000000000000000e-01) (7, 5, 5.00000000000000000000e-01) (7, 5, 5.00000000000000000000e-01) (7, 5, 5.00000000000000000000e-01) (7, 5, 5.00000000000000000000e-01) (7, 5, 5.00000000000000000000e-01) (7, 5, 5.00000000000000000000e-01) (7, 5, 5.00000000000000000000e-01) (7, 5, 5.00000000000000000000e-01) (7, 5, 5.00000000000000000000e-01) (7, 5, 5.00000000000000000000e-01) (7, 5, 5.00000000000000000000e-01) (7, 5, 5.00000000000000000000e-01) (7, 5, 5.00000000000000000000e-01) (7, 5, 5.00000000000000000000e-01) (7, 5, 5.00000000000000000000e-01) (7, 5, 5.00000000000000000000e-01) (7, 5, 5.00000000000000000000e-01) (7, 5, 5.00000000000000000000e-01) (7, 5, 5.00000000000000000000e-01) (7, 5, 5.00000000000000000000e-01) (7, 5, 5.00000000000000000000e-01) (7, 5, 5.00000000000000000000e-01) (7, 5, 5.00000000000000000000e-01) (0, 5, 0.00000000000000000000e+00) (101, 5, 5.00000000000000000000e-01) (101, 5, 5.00000000000000000000e-01) (101, 5, 5.00000000000000000000e-01) (101, 5, 5.00000000000000000000e-01) (0, 5, 0.00000000000000000000e+00) 
connections (connected_to_neuron, weight)=(0, 1.29397018432617187500e+02) (1, 6.08576297760009765625e+00) (2, 4.27347869873046875000e+01) (3, 3.81272107362747192383e-01) (4, 3.52921634912490844727e-01) (5, 4.34310495853424072266e-01) (6, 3.06379705667495727539e-01) (0, 4.58087188720703125000e+02) (1, 1.02341222763061523438e+00) (2, 1.10275000000000000000e+03) (3, 8.50368365645408630371e-02) (4, 8.62035453319549560547e-02) (5, -2.48926833271980285645e-01) (6, -7.24819824099540710449e-02) (0, 9.72482666015625000000e+02) (1, 6.22372484207153320312e+00) (2, 1.49997082519531250000e+03) (3, -1.13984270095825195312e+01) (4, 1.43077600002288818359e+00) (5, 4.85301554203033447266e-01) (6, 1.56999218463897705078e+00) (0, 1.50000000000000000000e+03) (1, 1.63527286052703857422e+00) (2, 7.64238893985748291016e-01) (3, 4.91851001977920532227e-01) (4, 6.69116020202636718750e-01) (5, 6.04808747768402099609e-01) (6, 7.04485297203063964844e-01) (0, 1.13288110351562500000e+03) (1, -5.50848757848143577576e-03) (2, -3.67375850677490234375e+00) (3, 1.27014398574829101562e-01) (4, 3.70858013629913330078e-02) (5, 5.30618190765380859375e-01) (6, -2.60881744325160980225e-02) (0, 1.20991455078125000000e+03) (1, -2.14584655761718750000e+02) (2, -2.69000671386718750000e+02) (3, -2.76802498847246170044e-02) (4, 2.85631686449050903320e-01) (5, 6.22474551200866699219e-02) (6, 3.96750926971435546875e-01) (0, -8.83725662231445312500e+01) (1, -9.58209261298179626465e-02) (2, 7.78533101081848144531e-01) (3, 2.85351067781448364258e-01) (4, 2.11563497781753540039e-01) (5, 3.06619435548782348633e-01) (6, 2.88747757673263549805e-01) (0, -3.55248748779296875000e+02) (1, -3.41379714012145996094e+00) (2, 1.49998059082031250000e+03) (3, 3.69526803493499755859e-01) (4, 3.37126433849334716797e-01) (5, 4.10953551530838012695e-01) (6, 4.12314146757125854492e-01) (0, -1.53562860488891601562e+01) (1, 5.32258115708827972412e-02) (2, 4.73962545394897460938e-01) (3, 2.50027626752853393555e-01) (4, 2.71921902894973754883e-01) (5, 2.96772927045822143555e-01) (6, 1.94720998406410217285e-01) (0, 1.08032995605468750000e+03) (1, 5.02812337875366210938e+00) (2, 8.04134011268615722656e-01) (3, 3.53897303342819213867e-01) (4, 4.03433322906494140625e-01) (5, 3.18915724754333496094e-01) (6, 3.85485053062438964844e-01) (0, 8.54680358886718750000e+02) (1, 1.49965344238281250000e+03) (2, -1.49921765136718750000e+03) (3, -3.47414202988147735596e-02) (4, 7.73871392011642456055e-02) (5, 4.98543947935104370117e-01) (6, -4.54733036458492279053e-02) (0, 5.71422302246093750000e+02) (1, 5.70571362972259521484e-01) (2, 9.40297245979309082031e-01) (3, 3.11900973320007324219e-01) (4, 4.00272101163864135742e-01) (5, 3.91808956861495971680e-01) (6, 4.44218277931213378906e-01) (0, 3.67728004455566406250e+01) (1, 3.16504299640655517578e-01) (2, 6.73433244228363037109e-01) (3, 2.60498642921447753906e-01) (4, 2.66484260559082031250e-01) (5, 3.17897170782089233398e-01) (6, 3.17033201456069946289e-01) (0, 2.21855316162109375000e+02) (1, 1.97881460189819335938e+00) (2, 1.45285665988922119141e-01) (3, -2.05971524119377136230e-01) (4, 1.09652861952781677246e-01) (5, 6.64370730519294738770e-02) (6, 3.74983660876750946045e-02) (0, -1.49854101562500000000e+03) (1, -1.40682092285156250000e+03) (2, 1.19761627197265625000e+02) (3, 4.97723311185836791992e-01) (4, 4.00307476520538330078e-01) (5, -1.50458395481109619141e-01) (6, 2.08699151873588562012e-01) (0, -1.44650375366210937500e+02) (1, -3.15709531307220458984e-01) (2, 6.80026473999023437500e+01) (3, -1.09672769904136657715e-02) (4, -4.68312382698059082031e-01) (5, -1.44090607762336730957e-01) (6, -3.55605512857437133789e-01) (0, 7.56408752441406250000e+02) (1, 8.78320983886718750000e+02) (2, -1.49881994628906250000e+03) (3, 4.31573539972305297852e-01) (4, 4.96594786643981933594e-01) (5, 4.25293684005737304688e-01) (6, 4.86765056848526000977e-01) (0, 1.30792927742004394531e+00) (1, -5.32884941101074218750e+01) (2, -1.31694921875000000000e+03) (3, -8.19326192140579223633e-03) (4, -1.23286001384258270264e-01) (5, 2.17652730643749237061e-02) (6, -7.44510367512702941895e-02) (0, -1.68687229156494140625e+01) (1, 1.06734955310821533203e+00) (2, 1.83217751979827880859e+00) (3, 8.52563500404357910156e-01) (4, 8.32554638385772705078e-01) (5, 7.80968248844146728516e-01) (6, 9.02059912681579589844e-01) (0, 1.49994482421875000000e+03) (1, -6.98368453979492187500e+00) (2, 9.67529356479644775391e-01) (3, 5.05448758602142333984e-01) (4, 8.90302240848541259766e-01) (5, 5.75414538383483886719e-01) (6, 7.54788458347320556641e-01) (0, 3.66798782348632812500e+01) (1, -7.47714843750000000000e+01) (2, 1.69240097045898437500e+02) (3, -6.22094422578811645508e-02) (4, 9.82206761837005615234e-02) (5, -4.77895662188529968262e-02) (6, 6.52623325586318969727e-02) (0, 5.58797790527343750000e+02) (1, 1.02299702167510986328e+00) (2, 8.36870074272155761719e-01) (3, 3.81865143775939941406e-01) (4, 3.99300932884216308594e-01) (5, 3.38902831077575683594e-01) (6, 3.01128059625625610352e-01) (0, -1.47735717773437500000e+03) (1, -4.45242034912109375000e+02) (2, -2.84040927886962890625e+01) (3, 5.00501394271850585938e-01) (4, 2.99581766128540039062e-01) (5, -2.48391762375831604004e-01) (6, 3.48304450511932373047e-01) (0, -1.13770437240600585938e+01) (1, -1.82451605796813964844e+00) (2, -6.24261558055877685547e-01) (3, 4.30412106215953826904e-02) (4, -2.43176706135272979736e-02) (5, -1.28030944615602493286e-02) (6, 3.06967440992593765259e-02) (0, 2.12899327278137207031e+00) (1, -9.27418589591979980469e-01) (2, -1.95331707000732421875e+01) (3, 3.91568005084991455078e-01) (4, 5.23176610469818115234e-01) (5, 1.34934652596712112427e-02) (6, 5.40159404277801513672e-01) (0, -6.45736816406250000000e+02) (1, -5.55002746582031250000e+02) (2, 3.77550933837890625000e+02) (3, 5.98395645618438720703e-01) (4, 2.86494433879852294922e-01) (5, 5.70212781429290771484e-01) (6, 3.75170797109603881836e-01) (0, 1.50000000000000000000e+03) (1, 1.49999987792968750000e+03) (2, 2.86025077104568481445e-01) (3, -1.25883454456925392151e-02) (4, 8.28814059495925903320e-02) (5, 1.36424466967582702637e-01) (6, -1.84330251067876815796e-02) (0, 1.49798449707031250000e+03) (1, 3.75853943824768066406e+00) (2, 4.56638193130493164062e+00) (3, 6.23804509639739990234e-01) (4, 8.46768677234649658203e-01) (5, 6.77408099174499511719e-01) (6, 8.54148685932159423828e-01) (0, -3.79383300781250000000e+02) (1, -3.31709632873535156250e+01) (2, -3.53834350585937500000e+02) (3, 1.77250966429710388184e-01) (4, 8.13839212059974670410e-02) (5, -1.39840424060821533203e-01) (6, -3.70263159275054931641e-02) (0, -1.07912483215332031250e+02) (1, -5.69636225700378417969e-01) (2, 5.80942988395690917969e-01) (3, 3.57494205236434936523e-01) (4, 2.01341092586517333984e-01) (5, 3.40170234441757202148e-01) (6, -4.55814778804779052734e-01) (0, 3.92411132812500000000e+02) (1, 1.27548584714531898499e-02) (2, -3.11061859130859375000e+01) (3, -3.87635082006454467773e-02) (4, 7.68631650134921073914e-03) (5, 6.50353506207466125488e-02) (6, -1.18220783770084381104e-02) (0, 4.82069549560546875000e+01) (1, -1.63495779037475585938e+00) (2, 1.91027253866195678711e-01) (3, 3.88745102100074291229e-03) (4, -2.55600940436124801636e-02) (5, -5.49358949065208435059e-02) (6, 1.89064978621900081635e-03) (0, -1.47435693359375000000e+03) (1, -1.33385595703125000000e+03) (2, 8.72112045288085937500e+01) (3, 3.50695639848709106445e-01) (4, 3.48891317844390869141e-01) (5, 2.59102791547775268555e-01) (6, 3.80727201700210571289e-01) (0, -1.24253089904785156250e+02) (1, -1.49093481445312500000e+03) (2, 1.93036819458007812500e+02) (3, -2.56149843335151672363e-02) (4, 4.75590936839580535889e-02) (5, -9.31992977857589721680e-02) (6, -1.68464388698339462280e-02) (0, 2.44184446334838867188e+00) (1, 9.58015769720077514648e-02) (2, -8.30218410491943359375e+00) (3, -3.40664833784103393555e-02) (4, 1.66137609630823135376e-02) (5, 7.38228810951113700867e-03) (6, -4.05351398512721061707e-03) (0, 5.35271484375000000000e+02) (1, 9.33848559856414794922e-01) (2, -1.44522241210937500000e+03) (3, 4.78998184204101562500e-01) (4, 3.92851620912551879883e-01) (5, 4.64662760496139526367e-01) (6, 5.36333382129669189453e-01) (0, -1.44384057617187500000e+03) (1, -3.63801841735839843750e+01) (2, 1.98773592710494995117e-01) (3, 1.02559000253677368164e-01) (4, 1.80339023470878601074e-01) (5, -7.13343545794486999512e-03) (6, 2.03487634658813476562e-01) (0, 1.25417407226562500000e+03) (1, 1.49995971679687500000e+03) (2, -1.49716784667968750000e+03) (3, -8.13725590705871582031e-03) (4, 1.10021807253360748291e-01) (5, 4.50332313776016235352e-01) (6, -3.57168018817901611328e-02) (0, 1.49999951171875000000e+03) (1, 1.32313339233398437500e+02) (2, 1.03182891845703125000e+02) (3, -1.61794096231460571289e-01) (4, -6.99366033077239990234e-02) (5, 2.22228071652352809906e-03) (6, -3.49673144519329071045e-02) (0, 9.34900573730468750000e+02) (1, 4.66181182861328125000e+00) (2, -1.49216064453125000000e+03) (3, 3.92833948135375976562e-01) (4, 4.92178797721862792969e-01) (5, 4.58210557699203491211e-01) (6, 5.11738002300262451172e-01) (0, 7.62749511718750000000e+02) (1, 2.16852474212646484375e+00) (2, 1.01334023475646972656e+00) (3, 7.69653856754302978516e-01) (4, 4.59321469068527221680e-01) (5, 8.38811695575714111328e-01) (6, 5.32627284526824951172e-01) (0, 6.47471191406250000000e+02) (1, 2.27030448913574218750e+01) (2, 1.25356340408325195312e+00) (3, 3.78216892480850219727e-01) (4, 4.43505614995956420898e-01) (5, 2.95045971870422363281e-01) (6, 3.21300029754638671875e-01) (0, 2.00829772949218750000e+02) (1, 3.36381683349609375000e+02) (2, 6.37926864624023437500e+00) (3, 3.63202720880508422852e-01) (4, 1.00859917700290679932e-01) (5, 2.81121641397476196289e-01) (6, -1.87510624527931213379e-01) (0, 2.11215496063232421875e+01) (1, 9.43148583173751831055e-02) (2, -2.12264314293861389160e-01) (3, 1.63310691714286804199e-02) (4, -8.84924903512001037598e-02) (5, 3.28824706375598907471e-02) (6, 5.10952956974506378174e-02) (0, 3.21515226364135742188e+00) (1, -1.96936054229736328125e+01) (2, -1.96295146942138671875e+01) (3, -3.96440550684928894043e-02) (4, -8.82860124111175537109e-02) (5, 3.25081236660480499268e-02) (6, -1.14194247871637344360e-02) (0, 1.49998522949218750000e+03) (1, 1.15992346191406250000e+03) (2, 9.93952751159667968750e+00) (3, 2.66958493739366531372e-02) (4, 1.81963726878166198730e-01) (5, 3.39187055826187133789e-01) (6, 2.79384076595306396484e-01) (0, 7.00988531112670898438e-01) (1, 3.92900514602661132812e+00) (2, 2.71763553619384765625e+01) (3, -7.11049586534500122070e-02) (4, 1.40505403280258178711e-01) (5, -9.58732962608337402344e-02) (6, 3.04420571774244308472e-02) (0, 1.11406421661376953125e+01) (1, -1.28503382205963134766e-01) (2, -5.96693642437458038330e-02) (3, 4.51441332697868347168e-02) (4, -1.48399680852890014648e-01) (5, 3.99653688073158264160e-02) (6, -3.30799706280231475830e-02) (0, -1.92256576538085937500e+02) (1, 2.31065216064453125000e+01) (2, -5.87492696940898895264e-02) (3, 1.15752458572387695312e-01) (4, 2.09924299269914627075e-02) (5, 5.82487940788269042969e-01) (6, -2.58180238306522369385e-02) (0, -5.37870330810546875000e+01) (1, 3.60068941116333007812e+00) (2, -3.84864540100097656250e+01) (3, 7.97511935234069824219e-01) (4, 6.50769591331481933594e-01) (5, 1.93185076117515563965e-01) (6, 1.87855273485183715820e-01) (0, 3.77508277893066406250e+01) (1, 1.55927225947380065918e-01) (2, -2.83511848449707031250e+01) (3, 4.99635368585586547852e-01) (4, 4.43585008382797241211e-01) (5, 5.11666774749755859375e-01) (6, 3.98950099945068359375e-01) (0, 4.74230232238769531250e+01) (1, 6.32713437080383300781e-01) (2, 1.17656338214874267578e+00) (3, 3.11983674764633178711e-01) (4, 3.76299649477005004883e-01) (5, 3.38051527738571166992e-01) (6, 3.43962907791137695312e-01) (0, 3.08264694213867187500e+01) (1, -5.80391585826873779297e-01) (2, -4.92721462249755859375e+00) (3, -2.48057976365089416504e-01) (4, 4.95008230209350585938e-02) (5, -3.33151072263717651367e-01) (6, 4.71574589610099792480e-02) (0, 2.61090493202209472656e+00) (1, -4.70452189445495605469e-01) (2, -8.55838966369628906250e+00) (3, 4.89567011594772338867e-01) (4, 4.59479421377182006836e-01) (5, 4.82511483132839202881e-02) (6, 4.22342032194137573242e-01) (0, -4.96826946735382080078e-01) (1, 4.03126925230026245117e-01) (2, 1.73286437988281250000e+01) (3, 3.01518440246582031250e-01) (4, 3.99702817201614379883e-01) (5, 4.06504720449447631836e-01) (6, 4.75066035985946655273e-01) (0, 1.50000000000000000000e+03) (1, 6.84997081756591796875e+00) (2, 3.97086799144744873047e-01) (3, -7.66254514455795288086e-02) (4, 4.16267335414886474609e-01) (5, 1.43143773078918457031e-01) (6, 4.62316185235977172852e-01) (0, -1.33138668537139892578e+00) (1, 2.13656798005104064941e-01) (2, 3.54081106185913085938e+00) (3, 2.23881751298904418945e-01) (4, 2.34355136752128601074e-01) (5, 3.00448417663574218750e-01) (6, 1.86960920691490173340e-01) (0, -3.45679718017578125000e+02) (1, -2.91887000203132629395e-02) (2, -2.88292109966278076172e-01) (3, 2.84559369087219238281e-01) (4, 2.32070520520210266113e-01) (5, 3.10795605182647705078e-01) (6, 2.21145302057266235352e-01) (0, -1.49469226074218750000e+03) (1, -4.42581586539745330811e-02) (2, 3.81489992141723632812e-01) (3, 4.30706083774566650391e-01) (4, 2.97254651784896850586e-01) (5, 2.18656271696090698242e-01) (6, 3.46425086259841918945e-01) (0, -5.60239257812500000000e+02) (1, 1.80840656161308288574e-01) (2, -9.33480858802795410156e-02) (3, 1.39300182461738586426e-01) (4, 3.39078269898891448975e-02) (5, 1.13108910620212554932e-01) (6, -5.83073832094669342041e-02) (0, 6.06722030639648437500e+01) (1, 6.73353850841522216797e-01) (2, 1.34533655643463134766e+00) (3, 4.21139895915985107422e-01) (4, 3.12188506126403808594e-01) (5, 3.95338416099548339844e-01) (6, 3.04851591587066650391e-01) (0, -2.67190980911254882812e+00) (1, -6.42891113281250000000e+02) (2, -9.05141448974609375000e+01) (3, 1.16983624175190925598e-02) (4, 4.63703982532024383545e-02) (5, 2.06947356462478637695e-01) (6, 7.17130973935127258301e-02) (0, -1.03323755264282226562e+01) (1, 1.72239172458648681641e+00) (2, 1.67125167846679687500e+01) (3, 3.70367735624313354492e-01) (4, 4.25568968057632446289e-01) (5, 3.04546475410461425781e-01) (6, 3.01385790109634399414e-01) (0, 2.94118213653564453125e+01) (1, -1.49789147949218750000e+03) (2, -1.32351196289062500000e+02) (3, 2.60317534208297729492e-01) (4, 7.08758294582366943359e-01) (5, 1.51384100317955017090e-01) (6, 8.47577333450317382812e-01) (0, -7.16262359619140625000e+01) (1, -7.94191479682922363281e-01) (2, 2.93929691314697265625e+01) (3, -2.02300369739532470703e-01) (4, -5.08065819740295410156e-01) (5, -3.07958722114562988281e-01) (6, -3.45082074403762817383e-01) (0, 8.56491622924804687500e+01) (1, 4.60236638784408569336e-01) (2, 1.22819614410400390625e+00) (3, 4.22455102205276489258e-01) (4, 3.69430571794509887695e-01) (5, 8.49041104316711425781e-01) (6, 4.61920976638793945312e-01) (0, 3.44471782445907592773e-01) (1, -1.59729093313217163086e-01) (2, -6.62548243999481201172e-02) (3, 7.77742117643356323242e-02) (4, -3.49708795547485351562e-02) (5, 9.87693201750516891479e-04) (6, -5.24799861013889312744e-02) (0, -6.56744323730468750000e+02) (1, 9.84242630004882812500e+00) (2, 3.23130130767822265625e+00) (3, 3.35673034191131591797e-01) (4, 4.16161715984344482422e-01) (5, 3.72389107942581176758e-01) (6, 3.03207039833068847656e-01) (0, 8.63268981933593750000e+02) (1, -2.68376064300537109375e+00) (2, 4.58718475341796875000e+02) (3, -4.11168366670608520508e-01) (4, 4.22373712062835693359e-01) (5, 2.93670356273651123047e-01) (6, 4.66440945863723754883e-01) (0, -1.16327844238281250000e+03) (1, -2.01234030723571777344e+00) (2, -7.17873930931091308594e-01) (3, 2.03242465853691101074e-01) (4, 1.74456447362899780273e-01) (5, -5.76033676043152809143e-03) (6, 1.07791274785995483398e-01) (0, -1.61452178955078125000e+02) (1, -4.45426673889160156250e+01) (2, 1.61029617309570312500e+02) (3, 3.87505650520324707031e-01) (4, -3.76763552427291870117e-01) (5, -2.81263530254364013672e-01) (6, -2.83295065164566040039e-01) (0, -1.14590287208557128906e+00) (1, -2.05630555748939514160e-01) (2, -5.90456665039062500000e+02) (3, 9.97252389788627624512e-02) (4, 4.74328137934207916260e-02) (5, 9.69929248094558715820e-02) (6, 2.42903202772140502930e-01) (0, 1.30320947265625000000e+03) (1, 2.64816406250000000000e+02) (2, 1.78988718986511230469e+00) (3, 7.64777898788452148438e-01) (4, 8.31591725349426269531e-01) (5, 7.89454698562622070312e-01) (6, 9.91701126098632812500e-01) (0, 1.26344900131225585938e+01) (1, 1.46127045154571533203e+00) (2, -1.34196289062500000000e+03) (3, 2.02700331807136535645e-01) (4, 3.04693609476089477539e-01) (5, 2.93964564800262451172e-01) (6, 3.11487942934036254883e-01) (0, 7.93904960155487060547e-01) (1, -2.75408297777175903320e-01) (2, 1.30764985084533691406e+00) (3, 6.10380582511425018311e-02) (4, -6.21911212801933288574e-02) (5, 1.29174785688519477844e-02) (6, 8.48179012537002563477e-02) (0, 1.49997216796875000000e+03) (1, -6.71106481552124023438e+00) (2, -9.67923343181610107422e-01) (3, 2.46729061007499694824e-01) (4, 1.81690305471420288086e-01) (5, 1.25346884131431579590e-01) (6, 2.09853589534759521484e-01) (0, 6.06257743835449218750e+01) (1, -1.58502254486083984375e+01) (2, 1.11483171582221984863e-01) (3, -5.45148812234401702881e-02) (4, 6.57493472099304199219e-02) (5, -7.08810463547706604004e-02) (6, -3.98088991641998291016e-02) (0, -8.47258300781250000000e+02) (1, -2.57554745674133300781e+00) (2, -2.94127202033996582031e+00) (3, 5.88774681091308593750e-02) (4, 7.22626550123095512390e-03) (5, 2.18532998114824295044e-02) (6, 3.53620313107967376709e-02) (0, 1.49999719238281250000e+03) (1, 3.42607307434082031250e+01) (2, 9.48435068130493164062e-01) (3, -2.16614663600921630859e-01) (4, -2.35218238085508346558e-02) (5, -8.62804986536502838135e-03) (6, -6.12028278410434722900e-02) (0, 6.04214782714843750000e+02) (1, 1.29508764648437500000e+03) (2, -1.49881994628906250000e+03) (3, 3.41429591178894042969e-01) (4, 4.45345163345336914062e-01) (5, 2.53111541271209716797e-01) (6, 4.55384254455566406250e-01) (0, 7.15555664062500000000e+02) (1, -3.09568843841552734375e+01) (2, -5.44712524414062500000e+02) (3, 2.33825072646141052246e-01) (4, 8.93336758017539978027e-02) (5, -5.53959272801876068115e-02) (6, -2.18013748526573181152e-02) (0, 1.31850326538085937500e+02) (1, 2.55621552467346191406e-01) (2, -6.47394866943359375000e+01) (3, 3.25143545866012573242e-01) (4, 1.82144030928611755371e-01) (5, 2.57240951061248779297e-01) (6, 1.96395158767700195312e-01) (0, 2.07511489868164062500e+02) (1, 4.46765795350074768066e-02) (2, -1.48447509765625000000e+03) (3, 4.66334700584411621094e-01) (4, 4.92118000984191894531e-01) (5, 4.03762280941009521484e-01) (6, 4.90264832973480224609e-01) (0, 1.31181221008300781250e+01) (1, -9.16834831237792968750e-01) (2, -1.43701124191284179688e+00) (3, 4.36018735170364379883e-01) (4, 4.71073776483535766602e-01) (5, 2.19706371426582336426e-02) (6, 4.17427420616149902344e-01) (0, 1.49996411132812500000e+03) (1, 2.25692016601562500000e+02) (2, 1.05535135269165039062e+01) (3, 1.78732186555862426758e-01) (4, 2.23133400082588195801e-01) (5, 6.45136117935180664062e-01) (6, 2.21577972173690795898e-01) (0, -1.49856140136718750000e+03) (1, 4.78332122802734375000e+02) (2, -9.40440216064453125000e+01) (3, 2.07151103019714355469e+00) (4, 1.26636922359466552734e-01) (5, 7.76933312416076660156e-01) (6, 1.65415868163108825684e-01) (0, 1.49919714355468750000e+03) (1, 1.50000000000000000000e+03) (2, 1.63240802288055419922e+00) (3, 1.70695811510086059570e-01) (4, 4.41063225269317626953e-01) (5, 2.57680118083953857422e-01) (6, 5.82073986530303955078e-01) (0, 1.49798071289062500000e+03) (1, 1.13547420501708984375e+00) (2, 1.63366436958312988281e+00) (3, 6.43542170524597167969e-01) (4, 9.10681247711181640625e-01) (5, 6.84820294380187988281e-01) (6, 8.90391886234283447266e-01) (0, 6.31251239776611328125e+00) (1, -6.57615051269531250000e+02) (2, -4.30636322021484375000e+02) (3, 6.80837452411651611328e-01) (4, 3.14400941133499145508e-01) (5, 8.62771868705749511719e-01) (6, 3.98160338401794433594e-01) (0, 2.29760112762451171875e+01) (1, 1.14361917972564697266e+00) (2, 2.26011347770690917969e+00) (3, 3.14995676279067993164e-01) (4, 4.29841130971908569336e-01) (5, 3.77474606037139892578e-01) (6, 4.56528246402740478516e-01) (0, 2.97859802246093750000e+01) (1, 1.92967668175697326660e-01) (2, -3.23523497581481933594e+00) (3, 3.44675421714782714844e-01) (4, 2.93618768453598022461e-01) (5, 3.04053425788879394531e-01) (6, 1.80331870913505554199e-01) (0, 5.83203186035156250000e+02) (1, 4.66674184799194335938e+00) (2, -1.49991467285156250000e+03) (3, 3.58263432979583740234e-01) (4, 4.52233076095581054688e-01) (5, 2.31899276375770568848e-01) (6, 3.25628072023391723633e-01) (0, -1.45523315429687500000e+03) (1, -1.84286594390869140625e+01) (2, 1.28412113189697265625e+01) (3, 8.17405819892883300781e-01) (4, 7.57987082004547119141e-01) (5, 3.41956287622451782227e-01) (6, 8.00187468528747558594e-01) (0, -2.60650768280029296875e+01) (1, -6.18975572288036346436e-02) (2, -1.83784942626953125000e+01) (3, -2.60281085502356290817e-04) (4, 4.92902956902980804443e-02) (5, -3.28232087194919586182e-02) (6, 2.71243657916784286499e-02) (0, -5.02440605163574218750e+01) (1, 7.78209984302520751953e-01) (2, 4.75473612546920776367e-01) (3, 3.44605833292007446289e-01) (4, 3.20302546024322509766e-01) (5, 5.11761605739593505859e-01) (6, 3.36058139801025390625e-01) (0, 2.27709548950195312500e+02) (1, 5.16193723678588867188e+00) (2, 1.46627120971679687500e+01) (3, 9.51519906520843505859e-02) (4, -4.25349920988082885742e-02) (5, -7.91734363883733749390e-03) (6, 1.32036700844764709473e-01) (0, -2.99681873321533203125e+01) (1, -1.12667047977447509766e+00) (2, -1.69573936462402343750e+01) (3, 5.21154478192329406738e-02) (4, 3.82265336811542510986e-02) (5, 5.57965189218521118164e-02) (6, -1.84103511273860931396e-02) (0, 6.84884216308593750000e+02) (1, 6.34454822540283203125e+00) (2, 2.42586567997932434082e-01) (3, 4.78997565805912017822e-02) (4, 5.89956305921077728271e-02) (5, 1.20715856552124023438e-01) (6, 2.15343968011438846588e-03) (0, 1.43610034179687500000e+03) (1, 1.09055249023437500000e+03) (2, 1.17884862422943115234e+00) (3, 3.44697007676586508751e-04) (4, -4.62295487523078918457e-02) (5, 3.12117457389831542969e-01) (6, 7.65856262296438217163e-03) (0, 6.17479324340820312500e+01) (1, 1.01227223873138427734e+00) (2, 1.33601069450378417969e+00) (3, 7.78124988079071044922e-01) (4, 8.58250617980957031250e-01) (5, 9.43407535552978515625e-01) (6, 8.20255041122436523438e-01) (7, -2.98947691917419433594e-01) (8, -4.39207479357719421387e-02) (9, 4.66343723237514495850e-02) (10, -3.21402251720428466797e-01) (11, 2.52713710069656372070e-01) (12, 4.87966574728488922119e-02) (13, 3.80102962255477905273e-01) (14, -1.59977421164512634277e-01) (15, 3.66255432367324829102e-01) (16, -3.20510029792785644531e-01) (17, 3.08284580707550048828e-01) (18, -2.04554185271263122559e-01) (19, 3.03960412740707397461e-01) (20, 1.50307565927505493164e-02) (21, 5.19907064735889434814e-02) (22, 7.24555969238281250000e-01) (23, 3.12438696622848510742e-01) (24, -2.75056362152099609375e-02) (25, -2.13636681437492370605e-01) (26, -2.36680850386619567871e-01) (27, 9.26988244056701660156e-01) (28, -1.91382601857185363770e-01) (29, 2.23740726709365844727e-01) (30, 7.82518237829208374023e-02) (31, 3.98082882165908813477e-01) (32, 4.23459589481353759766e-01) (33, -1.45895674824714660645e-01) (34, -1.56900182366371154785e-01) (35, -4.79350537061691284180e-02) (36, 2.97907561063766479492e-01) (37, -1.30548012256622314453e+00) (38, 4.80845347046852111816e-02) (39, 3.51136356592178344727e-01) (40, 3.77685964107513427734e-01) (41, 3.90867628157138824463e-02) (42, 3.86667877435684204102e-01) (43, 3.05013239383697509766e-01) (44, 2.74006277322769165039e-01) (45, 3.62216979265213012695e-02) (46, 3.22892516851425170898e-01) (47, -2.63344764709472656250e-01) (48, -2.91012287139892578125e-01) (49, -2.02781669795513153076e-02) (50, 2.14925229549407958984e-01) (51, -8.75932797789573669434e-02) (52, -3.63804474472999572754e-02) (53, 7.38386735320091247559e-02) (54, 2.81872063875198364258e-01) (55, 2.54889041185379028320e-01) (56, 2.39977881312370300293e-01) (57, 3.19909065961837768555e-01) (58, -1.59793093800544738770e-01) (59, 7.79416441917419433594e-01) (60, 3.84341269731521606445e-01) (61, -1.51089176535606384277e-01) (62, -3.47287692129611968994e-02) (63, 3.70015650987625122070e-01) (64, 3.18457633256912231445e-01) (65, 1.22800096869468688965e-02) (66, 3.56303513050079345703e-01) (67, -1.69686928391456604004e-01) (68, 4.31611109524965286255e-03) (69, -2.99763858318328857422e-01) (70, -2.16196291148662567139e-02) (71, 7.13390409946441650391e-01) (72, -2.02849939465522766113e-01) (73, 3.43946814537048339844e-02) (74, -6.48146718740463256836e-02) (75, 2.53245562314987182617e-01) (76, 2.09645107388496398926e-01) (77, 7.74831414222717285156e-01) (78, 1.56463876366615295410e-01) (79, -2.63001024723052978516e-01) (80, 3.74988764524459838867e-01) (81, 8.93350005149841308594e-01) (82, -1.65095143020153045654e-02) (83, -1.96383654838427901268e-04) (84, 3.02906744182109832764e-02) (85, -1.38425705954432487488e-02) (86, 3.03239852190017700195e-01) (87, -3.53816039860248565674e-02) (88, 2.91444212198257446289e-01) (89, 2.89812952280044555664e-01) (90, 3.77876192331314086914e-01) (91, -3.10275256633758544922e-01) (92, -2.81127810478210449219e-01) (93, -7.66950473189353942871e-02) (94, -1.60093948245048522949e-01) (95, -3.38044837117195129395e-02) (96, -2.09139838814735412598e-01) (97, 3.80793422460556030273e-01) (98, 3.60383838415145874023e-01) (99, 2.32960045337677001953e-01) (100, -3.87582508847117424011e-03) (101, -2.35363580286502838135e-02) (102, 9.15516614913940429688e-02) (103, 3.32702815532684326172e-01) (104, -2.18705862760543823242e-01) (105, -2.98609435558319091797e-01) (106, -1.94607093930244445801e-01) (107, 3.71165305376052856445e-01) (7, -2.43546366691589355469e-01) (8, -6.76738262176513671875e-01) (9, -3.60361598432064056396e-02) (10, -2.88405269384384155273e-01) (11, 3.25812667608261108398e-01) (12, 4.94466163218021392822e-02) (13, 3.59788447618484497070e-01) (14, -2.58676886558532714844e-01) (15, 3.62447887659072875977e-01) (16, -3.56650739908218383789e-01) (17, 1.92017242312431335449e-01) (18, -3.65786939859390258789e-01) (19, 3.13155293464660644531e-01) (20, -5.29676824808120727539e-02) (21, -1.71023570001125335693e-02) (22, 7.72278726100921630859e-01) (23, 1.93505734205245971680e-01) (24, 1.33719593286514282227e-01) (25, -2.57572174072265625000e-01) (26, -2.69111007452011108398e-01) (27, -4.60172057151794433594e-01) (28, -3.17031234502792358398e-01) (29, 3.00315171480178833008e-01) (30, 6.00413024425506591797e-01) (31, 3.31318378448486328125e-01) (32, 4.75700765848159790039e-01) (33, 4.41350154578685760498e-02) (34, -3.45206528902053833008e-01) (35, 3.52599948644638061523e-01) (36, 3.27769398689270019531e-01) (37, 5.50419986248016357422e-01) (38, 1.14769734442234039307e-01) (39, -2.36589103937149047852e-01) (40, 7.98809155821800231934e-02) (41, 2.77146488428115844727e-01) (42, 2.49576434493064880371e-01) (43, 1.70060917735099792480e-01) (44, 2.49618291854858398438e-01) (45, 1.89200803637504577637e-01) (46, 2.43895441293716430664e-01) (47, -3.50907236337661743164e-01) (48, -3.76658946275711059570e-01) (49, 5.71053802967071533203e-01) (50, 3.17692399024963378906e-01) (51, 6.51628673076629638672e-02) (52, -1.13020367920398712158e-01) (53, -2.14723553508520126343e-02) (54, 3.49757879972457885742e-01) (55, 4.81090694665908813477e-01) (56, 4.31010007858276367188e-01) (57, 3.62822592258453369141e-01) (58, -2.78198212385177612305e-01) (59, 8.59191119670867919922e-01) (60, 3.31595808267593383789e-01) (61, -2.28318557143211364746e-01) (62, -8.94133597612380981445e-02) (63, 3.64074885845184326172e-01) (64, 3.72460722923278808594e-01) (65, 4.50182221829891204834e-02) (66, 4.69258576631546020508e-01) (67, -2.74666041135787963867e-01) (68, 1.30699872970581054688e-01) (69, -2.47695416212081909180e-01) (70, 2.36298516392707824707e-03) (71, 7.91498363018035888672e-01) (72, -2.26674839854240417480e-01) (73, -3.19942533969879150391e-02) (74, 2.29388233274221420288e-02) (75, -1.18740275502204895020e-02) (76, 1.56638488173484802246e-01) (77, 8.60477387905120849609e-01) (78, 1.47699013352394104004e-01) (79, -3.23251515626907348633e-01) (80, 2.75708168745040893555e-01) (81, -9.39135104417800903320e-02) (82, 9.63283106684684753418e-02) (83, 1.31039813160896301270e-01) (84, 1.41937881708145141602e-01) (85, -2.69215613603591918945e-01) (86, 2.02887445688247680664e-01) (87, 3.72469536960124969482e-02) (88, 3.10103476047515869141e-01) (89, 3.49458217620849609375e-01) (90, 3.52800846099853515625e-01) (91, -3.33196908235549926758e-01) (92, 3.45908582210540771484e-01) (93, -1.11672647297382354736e-01) (94, -3.44182163476943969727e-01) (95, 1.49396166205406188965e-01) (96, -2.74440139532089233398e-01) (97, 3.48088324069976806641e-01) (98, 2.93419092893600463867e-01) (99, 2.82369941473007202148e-01) (100, 7.16313421726226806641e-01) (101, -2.44150310754776000977e-02) (102, -1.12724050879478454590e-01) (103, 2.51430869102478027344e-01) (104, -1.92615106701850891113e-01) (105, 7.89122059941291809082e-02) (106, -2.72737175226211547852e-01) (107, 2.97915309667587280273e-01) (7, -3.03876966238021850586e-01) (8, 1.11681975424289703369e-01) (9, 4.91711832582950592041e-02) (10, 2.64771759510040283203e-01) (11, 2.37452864646911621094e-01) (12, -4.72767204046249389648e-02) (13, 1.88334062695503234863e-01) (14, -2.86190301179885864258e-01) (15, 2.44271233677864074707e-01) (16, -2.51854687929153442383e-01) (17, 1.16441950201988220215e-01) (18, -2.88694530725479125977e-01) (19, 1.90552487969398498535e-01) (20, 3.22210825979709625244e-02) (21, -7.53037557005882263184e-02) (22, 2.48477786779403686523e-01) (23, 2.71290093660354614258e-01) (24, 2.83095747232437133789e-01) (25, -1.38350024819374084473e-01) (26, 2.21635058522224426270e-01) (27, 1.13815474510192871094e+00) (28, -2.19991028308868408203e-01) (29, 1.43183872103691101074e-01) (30, -1.31549671292304992676e-01) (31, 3.04648548364639282227e-01) (32, 7.93375000357627868652e-02) (33, -2.11864449083805084229e-02) (34, 1.74105450510978698730e-01) (35, 4.99463342130184173584e-02) (36, 1.74862697720527648926e-01) (37, 1.27701210975646972656e+00) (38, 3.86466920375823974609e-01) (39, -2.63401359319686889648e-01) (40, 7.09859877824783325195e-02) (41, 5.33724546432495117188e-01) (42, 3.24013799428939819336e-01) (43, 2.28905707597732543945e-01) (44, 1.99816450476646423340e-01) (45, 1.31169572472572326660e-01) (46, 3.47738057374954223633e-01) (47, -1.71617850661277770996e-01) (48, -2.07707986235618591309e-01) (49, -4.67534475028514862061e-02) (50, 5.42494431138038635254e-02) (51, 3.83029699325561523438e-01) (52, 9.29561629891395568848e-02) (53, 4.47760894894599914551e-02) (54, 3.63603830337524414062e-02) (55, 4.91568855941295623779e-02) (56, 4.81950551271438598633e-01) (57, 3.27980846166610717773e-01) (58, -2.23750889301300048828e-01) (59, 7.27367639541625976562e-01) (60, 2.99498349428176879883e-01) (61, -3.06564599275588989258e-01) (62, 1.53374195098876953125e-01) (63, 2.00896695256233215332e-01) (64, 2.26841136813163757324e-01) (65, -2.93402254581451416016e-01) (66, 1.08156912028789520264e-01) (67, -2.23723530769348144531e-01) (68, 4.29905764758586883545e-02) (69, -1.89871773123741149902e-01) (70, 1.01312316954135894775e-01) (71, 3.50711405277252197266e-01) (72, -1.40550747513771057129e-01) (73, -8.81355822086334228516e-01) (74, -2.86480009555816650391e-01) (75, 2.67565518617630004883e-01) (76, 2.93714642524719238281e-01) (77, 4.35844153165817260742e-01) (78, 3.91306877136230468750e-01) (79, -1.16097159683704376221e-01) (80, 1.69642969965934753418e-01) (81, -1.63491517305374145508e-01) (82, 4.45370286703109741211e-01) (83, 3.36159110069274902344e-01) (84, 8.95840898156166076660e-02) (85, 2.83863663673400878906e-01) (86, 2.15049847960472106934e-01) (87, 2.19301030039787292480e-01) (88, 2.21304878592491149902e-01) (89, 3.01862508058547973633e-01) (90, 2.81890600919723510742e-01) (91, -3.04624110460281372070e-01) (92, -1.62111207842826843262e-01) (93, 7.78434425592422485352e-02) (94, 2.06854388117790222168e-01) (95, 2.76285499334335327148e-01) (96, -1.97245523333549499512e-01) (97, 1.85587063431739807129e-01) (98, 2.62147188186645507812e-01) (99, 2.13054195046424865723e-01) (100, 9.58188250660896301270e-02) (101, -2.57414698600769042969e-01) (102, 1.54145538806915283203e-01) (103, 3.20984870195388793945e-01) (104, -1.55050411820411682129e-01) (105, 1.15903869271278381348e-01) (106, -1.41440466046333312988e-01) (107, 1.88418790698051452637e-01) (7, -1.71462893486022949219e-01) (8, 1.91114604473114013672e-01) (9, -1.44365411251783370972e-02) (10, -1.59247219562530517578e-01) (11, 7.50983059406280517578e-02) (12, -1.62222892045974731445e-01) (13, 3.46972227096557617188e-01) (14, -2.86048054695129394531e-01) (15, 3.31074178218841552734e-01) (16, -1.63735687732696533203e-01) (17, -2.16295011341571807861e-02) (18, -1.73378705978393554688e-01) (19, 3.49039018154144287109e-01) (20, 2.38611754029989242554e-02) (21, -8.02267715334892272949e-02) (22, 7.73061037063598632812e-01) (23, 4.02937889099121093750e-01) (24, -4.08101901412010192871e-02) (25, -2.52962589263916015625e-01) (26, -2.52073287963867187500e-01) (27, -6.26018643379211425781e-01) (28, -1.48230195045471191406e-01) (29, -1.95824161171913146973e-01) (30, -4.26229059696197509766e-01) (31, 2.58859187364578247070e-01) (32, 7.70131945610046386719e-02) (33, -3.93749633803963661194e-03) (34, -1.70097053050994873047e-01) (35, -5.24844169616699218750e-01) (36, 3.15371572971343994141e-01) (37, -4.05366390943527221680e-01) (38, 3.90819683670997619629e-02) (39, -2.94630050659179687500e-01) (40, 1.00232824683189392090e-01) (41, -4.49318140745162963867e-01) (42, 3.93329679965972900391e-01) (43, -4.15906757116317749023e-02) (44, 4.09561425447463989258e-01) (45, 1.72606334090232849121e-01) (46, 3.72864991426467895508e-01) (47, -2.06876456737518310547e-01) (48, -1.75467312335968017578e-01) (49, 7.17514991760253906250e-01) (50, 3.45750570297241210938e-01) (51, -4.29531708359718322754e-02) (52, 3.85750122368335723877e-02) (53, 3.10975797474384307861e-02) (54, 3.22536110877990722656e-01) (55, 5.76348066329956054688e-01) (56, -1.44697666168212890625e-01) (57, 3.28450798988342285156e-01) (58, -1.72095060348510742188e-01) (59, 7.17706620693206787109e-01) (60, 2.75014996528625488281e-01) (61, -1.70069098472595214844e-01) (62, -3.81997739896178245544e-03) (63, 3.83412361145019531250e-01) (64, 3.19169819355010986328e-01) (65, -7.55196763202548027039e-03) (66, 4.96602833271026611328e-01) (67, -1.59119904041290283203e-01) (68, -5.03136329352855682373e-02) (69, -2.53531754016876220703e-01) (70, -2.19016019254922866821e-02) (71, 7.57388830184936523438e-01) (72, -2.18307092785835266113e-01) (73, 4.73598577082157135010e-02) (74, 6.74950852990150451660e-02) (75, 1.08001619577407836914e-01) (76, -2.57793128490447998047e-01) (77, 2.47573390603065490723e-01) (78, 6.80453181266784667969e-02) (79, -1.50252878665924072266e-01) (80, 3.88308405876159667969e-01) (81, 4.33888547122478485107e-02) (82, 5.87401017546653747559e-02) (83, -1.54000455513596534729e-02) (84, -2.54455387592315673828e-01) (85, -3.80209572613239288330e-02) (86, 3.98781150579452514648e-01) (87, -5.36620020866394042969e-02) (88, 3.67961794137954711914e-01) (89, 3.69685679674148559570e-01) (90, 2.73703664541244506836e-01) (91, 4.17642802000045776367e-01) (92, 3.42616170644760131836e-01) (93, 4.45493832230567932129e-02) (94, -1.92606091499328613281e-01) (95, 4.25392165780067443848e-02) (96, -2.21052572131156921387e-01) (97, 4.13734644651412963867e-01) (98, 4.20334786176681518555e-01) (99, -1.93915247917175292969e-01) (100, -1.14118087291717529297e+00) (101, -3.53189767338335514069e-03) (102, 7.66660571098327636719e-02) (103, 1.87573581933975219727e-01) (104, -1.11010573804378509521e-01) (105, -4.18388396501541137695e-02) (106, -2.58881568908691406250e-01) (107, 2.78064906597137451172e-01) 
